svm_type c_svc
kernel_type rbf
gamma 0.125
nr_class 3
total_sv 6222
rho 1.46692 0.391816 -0.123278
label 0 1 2
nr_sv 1674 2638 1910
SV
0.125 0.125 1:-0.143267 2:0.123693 3:-0.0544844 4:-0.291557 5:0.151035 6:0.117194 7:-0.0989176 8:0.259129 9:-0.176462 10:0.303196 11:0.14503 12:0.213001 13:-0.0985169 14:-0.28715 15:-0.195132 16:-0.203706 17:0.105949 18:-0.137885 19:-0.105879 20:-0.0485839 21:-0.0912347 22:-0.0362214 23:-0.301382 24:-0.327835 25:0.106441 26:0.00555073 
0.125 0 1:-0.151827 2:0.0786912 3:-0.0442448 4:-0.239945 5:0.109472 6:-0.0371897 7:-0.243308 8:0.304763 9:-0.217188 10:0.506819 11:0.13637 12:0.236225 13:-0.0443849 14:-0.59828 15:-0.226961 16:-0.335069 17:0.0384171 18:-0.124367 19:0.0699352 20:0.0279696 21:-0.309207 22:-0.0237982 23:-0.270198 24:-0.155816 25:0.0345573 26:0.00690499 
0.125 0 1:-0.175975 2:0.0838987 3:-0.0188925 4:-0.210234 5:-0.0108845 6:-0.181408 7:-0.159262 8:0.441568 9:-0.0792998 10:0.204084 11:-0.243254 12:0.267468 13:0.0760375 14:-0.511499 15:-0.209909 16:-0.376337 17:-0.0911048 18:0.00984608 19:0.239167 20:0.0177453 21:-0.326896 22:-0.102173 23:0.122177 24:0.254199 25:0.0162886 26:0.00217877 
0.125 0.125 1:-0.215002 2:0.143344 3:-0.00983061 4:-0.133626 5:0.00777487 6:0.0730214 7:-0.0894982 8:0.299138 9:-0.0985305 10:-0.0610413 11:-0.380282 12:0.351103 13:0.0179589 14:-0.136392 15:-0.0593238 16:-0.247259 17:-0.201087 18:0.0621024 19:0.0827234 20:-0.0667787 21:-0.111049 22:-0.146406 23:0.495114 24:0.39602 25:-0.0064795 26:-0.00242504 
0.125 0.125 1:-0.289233 2:0.0911708 3:-0.0461982 4:-0.0410547 5:0.020881 6:0.0973388 7:-0.161646 8:0.115584 9:-0.160955 10:0.0923915 11:-0.259987 12:0.322612 13:0.102304 14:0.287016 15:0.186213 16:-0.0337823 17:-0.226967 18:0.0389597 19:-0.120145 20:-0.155522 21:0.159095 22:-0.175245 23:0.420457 24:0.149116 25:0.0124499 26:-0.00931857 
0.125 0.125 1:-0.349345 2:0.0124262 3:-0.10174 4:-0.166341 5:0.030716 6:0.0829519 7:-0.176553 8:0.176046 9:-0.131901 10:0.428016 11:-0.0570398 12:0.354536 13:0.156195 14:0.378264 15:0.312746 16:0.0871867 17:-0.098006 18:-0.0554912 19:-0.309589 20:-0.248519 21:0.198617 22:-0.259611 23:-0.0615643 24:-0.222214 25:-0.0173241 26:-0.0137666 
0.125 0.125 1:-0.325359 2:0.158141 3:-0.114244 4:-0.235487 5:-0.00123983 6:0.242554 7:-0.0314947 8:0.31319 9:-0.104581 10:0.373866 11:0.055551 12:0.409242 13:0.116772 14:0.325867 15:0.101439 16:0.0917705 17:0.0109422 18:-0.0245943 19:-0.34673 20:-0.296158 21:0.079208 22:-0.331993 23:-0.461374 24:-0.332334 25:0.00403154 26:-0.016576 
0.125 0.125 1:-0.226258 2:0.470791 3:0.0558173 4:-0.167253 5:-0.097968 6:0.0887477 7:-0.183185 8:0.15051 9:-0.138297 10:0.468647 11:-0.280363 12:0.299683 13:0.102635 14:0.151902 15:-0.405159 16:-0.110033 17:0.0157481 18:0.101171 19:-0.131441 20:-0.22345 21:0.0290654 22:-0.304659 23:-0.515759 24:0.0302272 25:0.00871948 26:-0.01554 
0.125 0.125 1:-0.146037 2:0.594921 3:0.0915431 4:-0.188185 5:-0.137968 6:0.0188021 7:-0.316132 8:0.209404 9:-0.234409 10:0.367546 11:-0.459299 12:0.296002 13:0.00920876 14:-0.0230038 15:-0.782027 16:-0.284379 17:0.0124164 18:0.13631 19:0.0240423 20:-0.0792675 21:-0.0372384 22:-0.128949 23:-0.218762 24:0.319032 25:-0.138169 26:-0.00529965 
0.125 0.125 1:-0.119082 2:0.652029 3:0.105958 4:-0.207377 5:-0.163344 6:0.0100807 7:-0.363582 8:0.256355 9:-0.478977 10:0.112569 11:-0.355661 12:0.257726 13:-0.172887 14:-0.0796279 15:-0.854434 16:-0.385096 17:-0.0119637 18:0.109816 19:0.09723 20:0.0704532 21:-0.0560722 22:0.104731 23:0.201296 24:0.189048 25:-0.202227 26:0.00787789 
0.125 0.125 1:-0.151958 2:0.546384 3:0.152607 4:-0.232117 5:-0.113712 6:0.0527772 7:-0.37469 8:0.162799 9:-0.502301 10:0.0261248 11:-0.171557 12:0.320014 13:-0.298234 14:0.0841159 15:-0.420926 16:-0.341127 17:-0.0379341 18:-0.0568538 19:0.0510396 20:0.226564 21:-0.000762353 22:0.226523 23:0.473997 24:-0.15893 25:-0.0248348 26:0.0141409 
0.125 0.125 1:-0.198472 2:0.349287 3:0.0610076 4:-0.246243 5:-0.168704 6:0.0105343 7:-0.480619 8:0.208743 9:-0.401165 10:0.123786 11:-0.0308552 12:-0.00293022 13:-0.265716 14:0.344388 15:0.189811 16:-0.193164 17:-0.116785 18:-0.10117 19:-0.0543792 20:0.297186 21:0.0474595 22:0.153867 23:0.461983 24:-0.368922 25:0.366955 26:0.0123584 
0.125 0.125 1:-0.244675 2:0.341377 3:0.0511065 4:-0.188697 5:-0.269223 6:0.0653007 7:-0.392361 8:0.126549 9:-0.375587 10:0.0441255 11:-0.220265 12:-0.362917 13:-0.137596 14:0.522046 15:0.525054 16:-0.147228 17:-0.25753 18:0.0329429 19:-0.118223 20:0.228467 21:0.200154 22:-0.0331323 23:0.240036 24:-0.145673 25:0.706982 26:0.00629362 
0.125 0.125 1:-0.240749 2:0.221348 3:-0.0371363 4:-0.228417 5:-0.233311 6:0.0584704 7:-0.3311 8:0.071914 9:-0.390138 10:0.220714 11:-0.496131 12:-0.233606 13:-0.0740738 14:0.479553 15:0.50004 16:-0.118463 17:-0.283762 18:0.188698 19:-0.0817016 20:0.0521188 21:0.232134 22:-0.232816 23:-0.155011 24:0.227472 25:0.656507 26:0.00180272 
0.125 0 1:0.0424252 2:0.607081 3:0.0422208 4:-0.366055 5:-0.50737 6:-0.00285195 7:-0.0573834 8:0.16702 9:-0.128462 10:0.487721 11:-0.439224 12:0.172991 13:-0.13522 14:0.195333 15:-0.0498184 16:-0.185107 17:-0.16504 18:0.420207 19:0.00358783 20:-0.231175 21:0.116279 22:-0.37192 23:-0.356495 24:0.415567 25:0.334893 26:-0.000469523 
0.125 0.125 1:0.204047 2:0.824351 3:-0.0274538 4:-0.488012 5:-0.406065 6:-0.0003019 7:-0.0121014 8:0.247605 9:-0.193794 10:0.288947 11:-0.33943 12:0.0673951 13:0.0275301 14:-0.0424846 15:-0.548578 16:-0.227094 17:0.0249947 18:0.362425 19:0.0745419 20:-0.396898 21:-0.0525326 22:-0.307511 23:-0.125233 24:0.399231 25:0.0849787 26:-0.00707374 
0.125 0.125 1:0.279236 2:0.913804 3:-0.123172 4:-0.59607 5:-0.297638 6:-0.000214548 7:0.013945 8:0.261006 9:-0.349147 10:0.212443 11:-0.238078 12:0.145955 13:0.196117 14:-0.113131 15:-0.73243 16:-0.23141 17:0.163006 18:0.202394 19:0.13831 20:-0.429409 21:-0.218405 22:-0.127415 23:0.18346 24:0.283801 25:-0.111222 26:-0.0145244 
0.125 0.125 1:0.292913 2:0.878886 3:-0.123665 4:-0.664144 5:-0.310209 6:0.0484189 7:0.0138137 8:0.22571 9:-0.380525 10:0.107496 11:-0.18089 12:0.350899 13:0.210417 14:-0.0320577 15:-0.617693 16:-0.257734 17:0.182798 18:0.0987532 19:0.141503 20:-0.417242 21:-0.243648 22:0.023099 23:0.449419 24:0.148622 25:-0.257273 26:-0.0146431 
0.125 0 1:0.321543 2:0.789898 3:-0.186676 4:-0.71231 5:-0.223133 6:0.0531711 7:-0.0111219 8:0.275107 9:-0.305446 10:0.285275 11:0.0950781 12:0.437264 13:0.135629 14:0.0788542 15:-0.334232 16:-0.217109 17:0.135973 18:0.0496981 19:0.0763155 20:-0.293243 21:-0.124318 22:0.0108357 23:0.378419 24:-0.0819967 25:-0.34111 26:-0.00635754 
0.125 0 1:0.387798 2:0.809537 3:-0.300983 4:-0.690103 5:-0.227429 6:0.157884 7:-0.099854 8:0.136279 9:-0.3281 10:0.45419 11:0.272039 12:0.332189 13:0.101245 14:0.0839348 15:-0.215268 16:-0.152977 17:0.0630653 18:0.189729 19:-0.100184 20:-0.142264 21:0.095889 22:-0.137491 23:0.112702 24:-0.379437 25:-0.318732 26:0.00180446 
0.125 0 1:0.424586 2:0.758915 3:-0.413436 4:-0.75088 5:-0.179948 6:0.239106 7:-0.216384 8:0.00443519 9:-0.257539 10:0.501875 11:0.476559 12:0.181604 13:0.0763203 14:0.055671 15:-0.151593 16:-0.0419582 17:0.0412585 18:0.256483 19:-0.312129 20:-0.0901086 21:0.251097 22:-0.252453 23:-0.0216461 24:-0.594736 25:-0.0824007 26:0.00237145 
0.125 0 1:0.439441 2:0.704007 3:-0.475318 4:-0.75786 5:-0.126569 6:0.334074 7:-0.384329 8:0.0163981 9:-0.186938 10:0.649335 11:0.460756 12:0.0357801 13:0.188319 14:0.0365355 15:-0.128549 16:0.051548 17:0.0362671 18:0.200736 19:-0.484394 20:-0.167767 21:0.226534 22:-0.248792 23:-0.0952575 24:-0.544157 25:0.177734 26:-0.00509951 
0.125 0 1:0.455805 2:0.665148 3:-0.53653 4:-0.748692 5:0.0234976 6:0.27069 7:-0.268095 8:0.13158 9:-0.341811 10:0.737745 11:0.346365 12:-0.067171 13:0.288023 14:0.0336999 15:-0.117661 16:0.0890095 17:0.0646564 18:0.0421124 19:-0.435192 20:-0.296496 21:0.0318915 22:-0.115579 23:-0.106015 24:-0.239203 25:0.374537 26:-0.0105589 
0.125 0.125 1:0.442699 2:0.646796 3:-0.586846 4:-0.770118 5:0.151771 6:0.177377 7:-0.294993 8:0.0963469 9:-0.404449 10:0.770082 11:0.113175 12:-0.203655 13:0.187704 14:0.0404412 15:-0.10741 16:0.107419 17:0.185225 18:-0.140042 19:-0.147522 20:-0.17045 21:-0.160574 22:-0.0330327 23:-0.205018 24:0.150736 25:0.583631 26:-0.00549775 
0.125 0.125 1:0.438944 2:0.650725 3:-0.574519 4:-0.76162 5:0.214627 6:0.0799221 7:-0.698355 8:0.0770872 9:-0.311799 10:0.88797 11:0.0533169 12:-0.180315 13:0.152275 14:0.029283 15:-0.134471 16:0.0809476 17:0.280837 18:-0.287093 19:0.184479 20:0.246985 21:-0.228017 22:-0.0391351 23:-0.371183 24:0.339831 25:0.607872 26:-0.00236275 
0.125 0.125 1:0.416582 2:0.605146 3:-0.564555 4:-0.737337 5:0.228208 6:-0.0783238 7:-0.909097 8:0.0723295 9:-0.321843 10:0.932374 11:0.0247877 12:-0.179133 13:0.135073 14:0.0217798 15:-0.122083 16:0.0256132 17:0.283035 18:-0.292417 19:0.407935 20:0.55149 21:-0.167116 22:-0.0426932 23:-0.309149 24:0.24813 25:0.305212 26:-0.00603191 
0.125 0.125 1:0.369445 2:0.590412 3:-0.538857 4:-0.647224 5:0.236915 6:-0.0523819 7:-0.769902 8:-0.0592406 9:-0.319542 10:0.868638 11:0.115002 12:-0.00857243 13:0.170948 14:0.0412724 15:-0.123312 16:-0.0442702 17:0.116238 18:-0.134799 19:0.272302 20:0.464804 21:-0.0153954 22:-0.0603013 23:-0.101864 24:-0.0474825 25:-0.231906 26:-0.0135662 
0.125 0.125 1:0.316687 2:0.607805 3:-0.451059 4:-0.3957 5:0.214829 6:0.116786 7:-0.561139 8:-0.173298 9:-0.315754 10:0.659949 11:0.285501 12:0.393965 13:0.323943 14:0.0879437 15:-0.108626 16:-0.12009 17:-0.15977 18:0.0740268 19:-0.0627726 20:0.0384854 21:0.0939614 22:-0.0310879 23:0.124277 24:-0.248218 25:-0.598384 26:-0.0173931 
0.125 0.125 1:0.24517 2:0.582996 3:-0.434811 4:-0.307949 5:0.00212789 6:0.161945 7:-0.462733 8:-0.20642 9:-0.284907 10:0.543748 11:0.194189 12:0.275356 13:0.0543599 14:0.139721 15:-0.0574679 16:-0.13322 17:-0.280265 18:0.285759 19:-0.28239 20:-0.387508 21:0.14166 22:-0.0947926 23:0.148281 24:-0.169533 25:-0.34241 26:-0.00368347 
0.125 0.125 1:0.171292 2:0.61012 3:-0.41998 4:-0.289861 5:0.0760908 6:0.188948 7:-0.373887 8:-0.260562 9:-0.159392 10:0.818165 11:0.0639601 12:-0.243223 13:-0.189833 14:0.181689 15:-0.07111 16:-0.117193 17:-0.246261 18:0.305653 19:-0.269124 20:-0.475713 21:0.185098 22:-0.237881 23:-0.132012 24:0.00752417 25:0.224194 26:0.0088065 
0.125 0.125 1:0.129723 2:0.577126 3:-0.352266 4:-0.293597 5:0.195986 6:0.0494809 7:-0.406585 8:-0.309289 9:-0.160231 10:0.716539 11:-0.105444 12:-0.434877 13:-0.149087 14:0.193701 15:-0.140305 16:-0.12914 17:-0.12061 18:0.260122 19:0.0508277 20:-0.218624 21:0.254638 22:-0.311583 23:-0.268192 24:0.10453 25:0.541713 26:0.00470689 
0.125 0.125 1:0.109993 2:0.672305 3:-0.326197 4:-0.266714 5:0.162266 6:0.0220555 7:-0.514532 8:-0.344418 9:-0.0737525 10:0.560338 11:0.10717 12:-0.173072 13:-0.0968883 14:0.187313 15:-0.257801 16:-0.146928 17:-0.0253592 18:0.184772 19:0.26969 20:0.0573384 21:0.323529 22:-0.295528 23:-0.130874 24:-0.00136723 25:0.477199 26:-0.00568133 
0.125 0 1:0.0371501 2:0.749764 3:-0.289208 4:-0.202081 5:0.173684 6:0.0629422 7:-0.63537 8:-0.361746 9:-0.258961 10:0.442309 11:0.094857 12:-0.00715533 13:0.0396501 14:0.188556 15:-0.305673 16:-0.204403 17:-0.0238621 18:0.027565 19:0.164522 20:0.175749 21:0.313446 22:-0.118591 23:0.151987 24:-0.0351157 25:0.247852 26:-0.0078245 
0.125 0.125 1:0.0332179 2:0.678073 3:-0.227129 4:-0.224639 5:0.299238 6:0.127097 7:-0.46193 8:-0.270088 9:-0.243868 10:0.304033 11:-0.00619064 12:-0.214974 13:-0.167614 14:0.182023 15:-0.251314 16:-0.244713 17:-0.000330146 18:-0.214268 19:-0.140615 20:0.0997576 21:0.233198 22:0.0404632 23:0.387424 24:0.00602816 25:0.205884 26:0.00959092 
0.125 0.125 1:0.0137809 2:0.589045 3:-0.237266 4:-0.188409 5:0.455629 6:0.341813 7:-0.257888 8:-0.125878 9:-0.273648 10:0.231723 11:-0.135692 12:-0.261799 13:-0.481366 14:0.218504 15:-0.218786 16:-0.190186 17:0.0581507 18:-0.408359 19:-0.439996 20:-0.012314 21:0.223656 22:0.0739099 23:0.280737 24:0.134257 25:0.233011 26:0.0286071 
0.125 0.125 1:-0.00708953 2:0.665378 3:-0.227321 4:-0.163484 5:0.329686 6:0.300543 7:-0.377139 8:-0.0991611 9:-0.227517 10:0.393814 11:-0.0547761 12:0.094899 13:-0.32784 14:0.28243 15:-0.30578 16:-0.126005 17:0.202787 18:-0.31254 19:-0.335568 20:0.00834177 21:0.302351 22:-0.0387314 23:0.100537 24:0.235798 25:0.0652715 26:0.0297055 
0 0.125 1:-0.00436477 2:0.582669 3:-0.242863 4:-0.0793358 5:0.0107879 6:0.0407043 7:-0.102248 8:0.144024 9:-0.00779317 10:0.384954 11:-0.076471 12:0.109111 13:0.298017 14:0.325106 15:-0.40915 16:0.00129339 17:0.265425 18:0.155107 19:0.357078 20:-0.0206757 21:-0.110103 22:-0.161499 23:0.255746 24:0.0728742 25:-0.109478 26:-0.00869779 
0 0.125 1:0.0997441 2:0.483647 3:-0.159723 4:0.0801176 5:0.0339309 6:0.085364 7:0.0231646 8:0.458877 9:-0.117749 10:0.188611 11:0.149731 12:0.135209 13:0.336871 14:0.20556 15:-0.281573 16:-0.0308873 17:0.0531184 18:0.126227 19:0.399372 20:-0.0867563 21:-0.634158 22:-0.000144315 23:0.3178 24:-0.157154 25:-0.0225883 26:-0.0225649 
0 0.125 1:0.301141 2:0.150995 3:0.0178136 4:0.491726 5:-0.271486 6:0.49074 7:0.360545 8:-0.023352 9:0.272557 10:0.537 11:0.12718 12:0.00921463 13:0.477603 14:-0.0381845 15:0.0611098 16:-0.284868 17:-0.188143 18:0.102312 19:-0.223187 20:-0.351668 21:0.23967 22:-0.292994 23:-0.353861 24:0.0925252 25:0.27989 26:-0.0103813 
0.125 0.125 1:0.251553 2:0.144527 3:-0.00724955 4:0.480455 5:-0.368856 6:0.524393 7:0.334646 8:-0.205056 9:0.290848 10:0.406575 11:0.0527227 12:0.0535975 13:0.298506 14:0.0633874 15:0.0268485 16:-0.2693 17:-0.0392948 18:0.211681 19:-0.272302 20:-0.275507 21:0.416093 22:-0.339673 23:-0.00380464 24:0.118127 25:0.192266 26:0.00631714 
0.125 0.125 1:0.215286 2:0.184357 3:-0.0128842 4:0.475894 5:-0.506059 6:0.67447 7:0.351984 8:-0.265524 9:0.486216 10:0.307836 11:0.130486 12:0.248632 13:0.21691 14:0.159606 15:-0.0234918 16:-0.231799 17:0.0114039 18:0.345293 19:-0.415047 20:-0.131962 21:0.326914 22:-0.440917 23:0.229576 24:-0.0509526 25:-0.0658543 26:0.00965433 
0.125 0.125 1:0.187352 2:0.171185 3:0.000155146 4:0.499134 5:-0.536651 6:0.629123 7:0.289508 8:-0.273478 9:0.395508 10:0.321237 11:0.158349 12:0.330123 13:0.188237 14:0.222157 15:-0.0552947 16:-0.227322 17:0.0303824 18:0.41615 19:-0.415729 20:-0.0497683 21:0.209647 22:-0.495482 23:0.284394 24:-0.151607 25:-0.2933 26:0.00623154 
0.125 0.125 1:0.165242 2:0.203927 3:-0.0506833 4:0.515729 5:-0.588305 6:0.490326 7:0.241666 8:-0.27416 9:0.389826 10:0.187911 11:0.0909301 12:0.267107 13:0.209945 14:0.247601 15:-0.0988246 16:-0.210005 17:0.0277821 18:0.403184 19:-0.278384 20:-0.0725245 21:0.196917 22:-0.483593 23:0.267426 24:-0.0842301 25:-0.338186 26:0.000400184 
0.125 0.125 1:0.167893 2:0.279553 3:-0.0684123 4:0.534065 5:-0.492579 6:0.546369 7:0.399806 8:-0.458214 9:0.407541 10:0.168378 11:-0.00168584 12:0.163409 13:0.20396 14:0.224199 15:-0.139962 16:-0.198338 17:-0.0245428 18:0.232801 19:-0.173712 20:-0.169925 21:0.323616 22:-0.306721 23:0.145127 24:0.0558853 25:-0.145252 26:-0.002536 
0.125 0.125 1:0.199103 2:0.316821 3:-0.118524 4:0.547384 5:-0.391302 6:0.311608 7:0.369518 8:-0.445469 9:0.0337568 10:0.298507 11:-0.0897116 12:-0.060426 13:0.113645 14:0.170886 15:-0.162079 16:-0.14031 17:-0.0918436 18:0.0577717 19:0.0460265 20:-0.174281 21:0.377417 22:0.057726 23:-0.0812226 24:0.156072 25:0.130339 26:-0.00215412 
0.125 0.125 1:0.227444 2:0.334025 3:-0.186485 4:0.617822 5:-0.376785 6:0.28364 7:0.213357 8:-0.316466 9:-0.116895 10:0.330392 11:-0.0811316 12:-0.183469 13:0.117318 14:0.113587 15:-0.186466 16:-0.0571505 17:-0.152497 18:0.012628 19:0.142171 20:-0.0884578 21:0.325047 22:0.251074 23:-0.19031 24:0.129783 25:0.249605 26:-0.000743404 
0.125 0.125 1:0.254044 2:0.389725 3:-0.207393 4:0.606318 5:-0.353718 6:0.241834 7:0.250443 8:-0.243424 9:-0.0539654 10:0.270632 11:0.0263253 12:-0.240595 13:0.180709 14:0.062221 15:-0.221582 16:0.00223831 17:-0.139144 18:0.0353623 19:0.224827 20:-0.0413529 21:0.253801 22:0.215734 23:-0.11504 24:0.0187778 25:0.208165 26:0.000612497 
0.125 0.125 1:0.254549 2:0.448912 3:-0.256663 4:0.536987 5:-0.304904 6:0.161056 7:0.282867 8:-0.208787 9:0.0116262 10:0.131816 11:0.0183307 12:-0.310714 13:0.103567 14:0.0168618 15:-0.272702 16:0.083789 17:-0.0698325 18:0.112524 19:0.280009 20:-0.048926 21:0.175776 22:0.0327681 23:0.111526 24:-0.0016248 25:0.151864 26:0.00311536 
0.125 0.125 1:0.256699 2:0.467914 3:-0.255163 4:0.51679 5:-0.28338 6:0.203476 7:0.210634 8:-0.0703077 9:0.0308706 10:0.0675391 11:-0.0367042 12:-0.34796 13:0.0672407 14:-0.025252 15:-0.311784 16:0.107285 17:-0.0224753 18:0.182082 19:0.15908 20:-0.0893016 21:0.0191164 22:-0.216457 23:0.222537 24:0.0424335 25:0.133164 26:0.00373962 
0 0.125 1:0.25035 2:0.466512 3:-0.224261 4:0.515106 5:-0.218851 6:0.258737 7:0.235907 8:0.103358 9:0.0741059 10:0.116365 11:0.0303176 12:-0.473811 13:0.208286 14:-0.00933154 15:-0.299013 16:0.042186 17:-0.0982022 18:0.0667013 19:0.0290263 20:-0.168845 21:-0.086214 22:-0.322183 23:0.244696 24:0.0405688 25:0.321895 26:-0.00168112 
0 0.125 1:0.0120031 2:0.399725 3:-0.0263254 4:0.431693 5:0.0446136 6:0.353629 7:0.168376 8:0.167327 9:-0.142835 10:0.0909832 11:0.163291 12:-0.552523 13:0.332273 14:0.177849 15:-0.0775115 16:-0.306608 17:-0.0892098 18:-0.17014 19:-0.253899 20:-0.20197 21:-0.236722 22:-0.072185 23:-0.0453705 24:-0.128377 25:0.226195 26:-0.0121637 
0.125 0.01026725092157637 1:0.0376989 2:0.247576 3:-0.0182437 4:0.299203 5:-0.315702 6:0.474266 7:-0.0116646 8:0.282208 9:-0.301899 10:0.920799 11:-0.281493 12:0.533347 13:0.622257 14:0.110944 15:-0.0457732 16:-0.128496 17:-0.00933399 18:0.122477 19:-0.0272077 20:-0.211719 21:-0.317528 22:0.149366 23:-0.844885 24:0.179292 25:-0.589329 26:-0.025901 
0.125 0.125 1:0.106431 2:0.231538 3:-0.0115584 4:0.338871 5:-0.369519 6:0.573264 7:0.0592769 8:0.266585 9:-0.140421 10:0.90777 11:-0.18994 12:0.401647 13:0.48359 14:-0.0147236 15:0.0226472 16:-0.290276 17:-0.142167 18:0.331087 19:-0.263971 20:-0.333809 21:-0.481547 22:0.101175 23:-0.936373 24:0.0384482 25:-0.576092 26:-0.02572 
0.125 0.125 1:0.136117 2:0.224743 3:0.0303169 4:0.324426 5:-0.431856 6:0.617308 7:0.0070724 8:0.132044 9:0.000232525 10:0.650225 11:-0.145108 12:0.491125 13:0.403202 14:-0.0684714 15:0.00279728 16:-0.403223 17:-0.163161 18:0.492209 19:-0.312738 20:-0.336218 21:-0.357094 22:0.0295227 23:-0.391239 24:-0.0379613 25:-0.245229 26:-0.0163633 
0 0.125 1:0.149308 2:0.215093 3:0.039668 4:0.317986 5:-0.45994 6:0.781422 7:-0.0787995 8:0.00429126 9:0.0614512 10:0.462414 11:-0.228029 12:0.283545 13:0.350704 14:-0.0637142 15:-0.0737459 16:-0.336068 17:-0.147863 18:0.487182 19:-0.391142 20:-0.178666 21:0.0137538 22:-0.154221 23:0.227157 24:0.0702614 25:0.233437 26:-0.00261863 
0.125 0.125 1:0.137557 2:0.20395 3:-0.0398372 4:0.392426 5:-0.447844 6:0.720843 7:-0.0871374 8:-0.0523511 9:0.150556 10:0.312684 11:-0.346842 12:0.0289431 13:0.142346 14:-0.0398097 15:-0.160044 16:-0.10045 17:-0.171562 18:0.380001 19:-0.374553 20:-0.0549894 21:0.381813 22:-0.417345 23:0.427102 24:0.264537 25:0.539351 26:0.00294805 
0.125 0.125 1:0.121777 2:0.211997 3:-0.218185 4:0.368171 5:-0.242538 6:0.70069 7:-0.287804 8:-0.288306 9:0.422164 10:0.341888 11:-0.429752 12:0.159926 13:0.0579413 14:0.0037448 15:-0.285656 16:0.136108 17:-0.258658 18:0.133474 19:-0.319168 20:0.0801958 21:0.770195 22:-0.700082 23:0.251892 24:0.314833 25:0.445853 26:0.00299131 
0.125 0.125 1:0.0518392 2:0.26046 3:-0.211434 4:0.370163 5:-0.101137 6:0.74196 7:-0.321285 8:-0.337335 9:0.482021 10:0.471178 11:-0.253304 12:0.425159 13:0.123977 14:0.148893 15:-0.348804 16:0.121358 17:-0.448182 18:-0.149504 19:-0.199443 20:0.0851054 21:0.763356 22:-0.757053 23:-0.0221003 24:0.124903 25:0.138054 26:0.00139967 
0.125 0.125 1:-0.0298819 2:0.24143 3:-0.087735 4:0.257683 5:-0.126002 6:0.52401 7:-0.139555 8:-0.0935858 9:0.163949 10:0.393814 11:0.0390232 12:0.299281 13:0.118124 14:0.361081 15:-0.25608 16:-0.0737823 17:-0.517349 18:-0.226952 19:0.0738525 20:0.0100387 21:0.306939 22:-0.502388 23:-0.127555 24:-0.120919 25:-0.0237928 26:0.000955512 
0.125 0.125 1:-0.0903151 2:0.115703 3:-0.0482856 4:0.159798 5:-0.0348291 6:0.504854 7:-0.312077 8:0.133995 9:-0.00619427 10:0.295782 11:0.000115572 12:0.523803 13:-0.180495 14:0.519355 15:-0.088394 16:-0.257559 17:-0.349359 18:-0.187365 19:0.163782 20:0.091135 21:-0.187614 22:-0.191448 23:-0.0478755 24:-0.118875 25:-0.12086 26:0.00332583 
0.125 0.125 1:-0.0938555 2:-0.00644027 3:-0.0658594 4:0.029979 5:0.0109638 6:0.470925 7:-0.29421 8:0.386024 9:-0.232278 10:0.261276 11:-0.120238 12:0.448961 13:0.00134025 14:0.541498 15:0.0169397 16:-0.316881 17:0.0608 18:-0.0264206 19:0.0734476 20:0.106616 21:-0.403829 22:0.144968 23:0.174532 24:-0.043866 25:-0.0462793 26:-0.00223481 
0.125 0.125 1:0.0738288 2:0.107954 3:-0.16607 4:-0.484829 5:-0.192956 6:0.497728 7:-0.21573 8:0.22022 9:-0.283364 10:0.261824 11:0.0519685 12:0.283981 13:0.0471121 14:0.353496 15:-0.0258372 16:-0.189898 17:0.620838 18:0.18797 19:-0.126476 20:0.0782779 21:-0.150037 22:0.222211 23:0.307772 24:-0.0937019 25:0.0143736 26:-0.00677398 
0.125 0.125 1:0.249268 2:0.165573 3:-0.104646 4:-0.573528 5:-0.0725162 6:0.579547 7:-0.145633 8:0.115713 9:-0.411089 10:0.123784 11:0.125461 12:0.528691 13:-0.039186 14:0.0545875 15:0.0188386 16:-0.0731899 17:0.727842 18:0.138314 19:-0.201533 20:0.0288763 21:0.0734197 22:0.132272 23:0.209739 24:-0.230947 25:-0.0709993 26:-0.006392 
0.125 0.125 1:0.343582 2:0.0624762 3:-0.163573 4:-0.415489 5:-0.0400306 6:0.499031 7:0.00920783 8:0.289082 9:-0.531115 10:0.23031 11:0.248515 12:0.417186 13:-0.0994974 14:-0.189534 15:0.224239 16:-0.00475137 17:0.410125 18:-0.023791 19:0.0111742 20:-0.076084 21:-0.0900938 22:0.0334673 23:-0.139755 24:-0.448822 25:0.0341175 26:-0.00192217 
0.125 0.125 1:0.480323 2:0.0639208 3:-0.240092 4:-0.270338 5:-0.01102 6:0.276851 7:0.0256232 8:0.471016 9:-0.244026 10:0.498008 11:0.0399276 12:0.22565 13:-0.169372 14:-0.310851 15:0.395519 16:-0.00590403 17:-0.0212323 18:-0.198229 19:0.239443 20:-0.0531759 21:-0.364665 22:-0.0754613 23:-0.521638 24:-0.403535 25:0.134772 26:0.00517693 
0.125 0.125 1:0.480398 2:0.197528 3:-0.161761 4:-0.230971 5:0.0422392 6:0.287808 7:0.0590477 8:0.415851 9:-0.412504 10:0.402034 11:-0.0350887 12:0.210679 13:-0.16473 14:-0.233178 15:0.321622 16:-0.103058 17:-0.238261 18:-0.259422 19:0.175524 20:-0.0761561 21:-0.38853 22:0.106913 23:-0.492302 24:-0.192206 25:0.128652 26:0.0027297 
0.125 0.125 1:0.339742 2:0.513453 3:-0.078257 4:-0.337653 5:-0.0991429 6:0.530707 7:0.25873 8:0.24393 9:-0.575175 10:0.0850408 11:-0.14093 12:0.242193 13:-0.097531 14:-0.0453795 15:-0.0939186 16:-0.158545 17:-0.0869388 18:-0.0430693 19:-0.168307 20:-0.202921 21:-0.0389777 22:0.364876 23:-0.0624098 24:0.0424247 25:0.0235805 26:-0.32524 
0.125 0.125 1:0.274516 2:0.733032 3:-0.160527 4:-0.337517 5:-0.259866 6:0.551273 7:0.324282 8:0.0585653 9:-0.446759 10:-0.0868638 11:-0.503316 12:0.233353 13:-0.0674055 14:0.0957685 15:-0.57973 16:-0.109001 17:0.0760889 18:0.248032 19:-0.422855 20:-0.271073 21:0.433207 22:0.368416 23:0.422108 24:0.333833 25:-0.137172 26:-0.00787472 
0.125 0.125 1:0.217589 2:0.919095 3:-0.171648 4:-0.31211 5:-0.243965 6:0.434176 7:0.397357 8:0.0546842 9:-0.176151 10:-0.225232 11:-0.496859 12:0.145658 13:-0.0741067 14:0.15746 15:-0.856586 16:-0.0606996 17:0.128896 18:0.426326 19:-0.341026 20:-0.310964 21:0.520311 22:0.0130622 23:0.636642 24:0.415479 25:-0.0635861 26:-0.00756709 
0.125 0.125 1:0.167228 2:0.986082 3:-0.139208 4:-0.254631 5:-0.287157 6:0.337032 7:0.34689 8:0.139191 9:0.0693283 10:-0.134853 11:-0.438697 12:-0.0342897 13:-0.174727 14:0.140601 15:-0.841254 16:-0.0822598 17:0.0451295 18:0.421339 19:-0.0431266 20:-0.23974 21:0.26289 22:-0.492492 23:0.464225 24:0.405264 25:0.226778 26:-0.00252219 
0.125 0.125 1:0.107996 2:0.951405 3:-0.0933837 4:-0.22041 5:-0.290516 6:0.248868 7:0.34356 8:0.219642 9:0.385272 10:-0.00558628 11:-0.509522 12:-0.215579 13:-0.101917 14:0.153268 15:-0.542613 16:-0.213034 17:-0.16379 18:0.111852 19:0.211925 20:-0.0995397 21:-0.0918208 22:-0.816892 23:0.157891 24:0.290276 25:0.475748 26:-0.00115105 
0.125 0.125 1:0.0366766 2:0.79165 3:-0.0344142 4:-0.198777 5:-0.100077 6:0.166558 7:0.398964 8:0.418824 9:0.324336 10:0.0507381 11:-0.316793 12:-0.300617 13:-0.200352 14:0.224754 15:-0.182005 16:-0.357419 17:-0.332157 18:-0.296353 19:0.241823 20:-0.0344656 21:-0.330315 22:-0.69833 23:-0.0388368 24:0.0255363 25:0.464071 26:0.00237615 
0.125 0.125 1:-0.0406819 2:0.758783 3:-0.0781019 4:-0.115327 5:-0.0240152 6:0.268101 7:0.315114 8:0.241566 9:0.0392152 10:0.0813689 11:-0.179114 12:-0.132561 13:-0.138266 14:0.279956 15:0.00901046 16:-0.322115 17:-0.318289 18:-0.343379 19:0.101779 20:-0.021182 21:-0.206769 22:-0.331581 23:-0.166793 24:-0.276868 25:0.237205 26:0.00695746 
0.125 0.125 1:-0.0842457 2:0.686867 3:-0.131345 4:-0.172084 5:-0.128151 6:0.266369 7:0.306552 8:0.231692 9:0.075374 10:0.195766 11:-0.0488744 12:-0.0374789 13:-0.101837 14:0.294912 15:0.0671992 16:-0.156549 17:-0.0672534 18:-0.0677715 19:-0.063269 20:-0.0926524 21:-0.00684025 22:-0.0335515 23:-0.241688 24:-0.449333 25:0.0401768 26:0.00308765 
0.125 0.125 1:-0.0307256 2:0.802742 3:-0.203696 4:-0.466196 5:-0.433615 6:0.281924 7:0.496723 8:0.166272 9:-0.0800609 10:0.154363 11:-0.0824883 12:-0.0574696 13:-0.174425 14:0.277488 15:0.00755803 16:0.0153867 17:0.231323 18:0.312945 19:-0.217222 20:-0.22555 21:0.117505 22:0.189053 23:-0.237598 24:-0.3661 25:0.0669375 26:-0.00409941 
0.125 0 1:-0.0263006 2:0.778169 3:-0.263036 4:-0.505445 5:-0.48922 6:0.274154 7:0.441731 8:0.156167 9:-0.102016 10:0.169428 11:-0.133981 12:-0.184761 13:0.0164016 14:0.282442 15:-0.00698782 16:0.0365099 17:0.250069 18:0.396984 19:-0.365264 20:-0.28505 21:0.0671848 22:0.14471 23:-0.128249 24:-0.0816668 25:0.177466 26:-0.0160237 
0.125 0.125 1:-0.0548416 2:0.725461 3:-0.228993 4:-0.271124 5:-0.178381 6:0.314474 7:0.307022 8:0.163344 9:-0.0945417 10:0.0464617 11:-0.530501 12:-0.0711634 13:0.333613 14:0.276865 15:-0.00846715 16:-0.108007 17:0.0285724 18:0.0990242 19:-0.42197 20:-0.324972 21:-0.100906 22:-0.034749 23:0.164437 24:0.245731 25:0.132564 26:-0.0201207 
0.125 0 1:0.0147968 2:0.850493 3:-0.154786 4:-0.230509 5:-0.229159 6:0.159034 7:0.3522 8:0.219184 9:0.0467087 10:-0.0159621 11:-0.340988 12:-0.0463132 13:-0.158112 14:0.192553 15:-0.172887 16:-0.254758 17:-0.0574773 18:-0.0173091 19:-0.254291 20:-0.348645 21:-0.185992 22:-0.201311 23:0.410291 24:0.292322 25:-0.0495721 26:-0.00496359 
0.125 0 1:0.141466 2:0.975277 3:-0.172508 4:-0.387562 5:-0.367544 6:0.0724651 7:0.297227 8:0.080168 9:0.121965 10:-0.0779361 11:-0.296618 12:0.132422 13:-0.172311 14:0.0467542 15:-0.399866 16:-0.307995 17:0.0754924 18:0.124997 19:0.068121 20:-0.230489 21:-0.0894117 22:-0.296516 23:0.423583 24:0.252417 25:-0.219861 26:0.00731131 
0.125 0.125 1:0.208749 2:0.992751 3:-0.306408 4:-0.436114 5:-0.365872 6:-0.175215 7:0.0995582 8:-0.0343017 9:-0.00912839 10:0.0831873 11:-0.297498 12:-0.0127801 13:-0.0868117 14:-0.0683359 15:-0.565039 16:-0.234834 17:0.214088 18:0.329106 19:0.435264 20:-0.00801037 21:0.0896611 22:-0.285909 23:0.15031 24:0.133166 25:-0.128052 26:0.0121456 
0.125 0.125 1:0.202325 2:0.984635 3:-0.333268 4:-0.344959 5:-0.35454 6:-0.221682 7:-0.11818 8:-0.0740953 9:-0.0970227 10:0.320121 11:-0.254862 12:-0.139618 13:-0.0320672 14:-0.0647977 15:-0.548907 16:-0.145669 17:0.13916 18:0.413926 19:0.57618 20:0.271426 21:0.182892 22:-0.275894 23:-0.232702 24:-0.0500741 25:0.120407 26:0.00673001 
0.125 0.125 1:0.185126 2:0.896308 3:-0.31674 4:-0.129502 5:-0.208354 6:-0.117387 7:-0.171213 8:-0.151027 9:0.00326254 10:0.357662 11:-0.0935154 12:-0.276902 13:-0.0284612 14:0.0328161 15:-0.374007 16:-0.0996381 17:-0.141898 18:0.213635 19:0.465482 20:0.403342 21:0.229395 22:-0.251259 23:-0.441515 24:-0.178999 25:0.328351 26:-0.00348599 
0.125 0.125 1:0.143323 2:0.757082 3:-0.447427 4:-0.114918 5:-0.0885597 6:0.00357529 7:-0.077996 8:-0.134457 9:-0.0333038 10:0.301315 11:0.0761482 12:-0.234397 13:0.13911 14:0.135787 15:-0.179063 16:-0.062503 17:-0.267892 18:-0.0211074 19:0.229806 20:0.28973 21:0.158325 22:-0.0859258 23:-0.371281 24:-0.209953 25:0.426876 26:-0.0029865 
0.125 0.125 1:0.118781 2:0.683828 3:-0.50098 4:-0.181233 5:-0.0645425 6:0.0797643 7:-0.036224 8:-0.121845 9:-0.34603 10:0.235369 11:-0.0729762 12:-0.237872 13:0.164368 14:0.178593 15:-0.0427984 16:-0.041536 17:-0.156166 18:-0.141201 19:-0.0401135 20:0.0890791 21:0.0318322 22:0.173006 23:-0.104982 24:-0.016435 25:0.338857 26:0.00086981 
0.125 0.125 1:0.126316 2:0.640294 3:-0.468527 4:-0.172782 5:0.0590388 6:0.222478 7:0.0989783 8:-0.204734 9:-0.407302 10:0.166116 11:-0.155693 12:-0.193427 13:0.137668 14:0.187286 15:0.0674467 16:-0.0282469 17:-0.0353747 18:-0.19242 19:-0.314451 20:-0.238561 21:-0.0322962 22:0.308387 23:0.182017 24:0.151332 25:0.15601 26:0.000455717 
0.125 0.125 1:0.13079 2:0.546688 3:-0.505726 4:-0.191964 5:0.0792206 6:0.40771 7:0.176565 8:-0.102564 9:-0.239405 10:-0.0116646 11:-0.112693 12:-0.133597 13:0.188061 14:0.200313 15:0.128955 16:-0.00432248 17:-0.0309488 18:-0.0469822 19:-0.621042 20:-0.558087 21:-0.0199503 22:0.232948 23:0.349397 24:0.0957378 25:0.0242759 26:-0.00758816 
0.125 0.125 1:0.113105 2:0.521707 3:-0.584357 4:-0.165261 5:0.00401214 6:0.393442 7:0.231342 8:-0.136332 9:-0.0413168 10:0.0650178 11:0.136998 12:0.0900541 13:0.540688 14:0.218638 15:0.070131 16:0.0346334 17:-0.081873 18:0.156133 19:-0.775339 20:-0.715855 21:0.262768 22:-0.0283613 23:0.25846 24:-0.159172 25:-0.0708087 26:-0.0194518 
0.125 0.125 1:0.113534 2:0.580687 3:-0.516749 4:-0.108254 5:0.00690699 6:0.37113 7:0.278165 8:-0.332658 9:-0.063933 10:0.128264 11:0.197611 12:-0.0594803 13:0.49724 14:0.210974 15:-0.10798 16:0.0525868 17:-0.0253142 18:0.195955 19:-0.667937 20:-0.574028 21:0.62001 22:-0.278384 23:0.024623 24:-0.295868 25:0.0166461 26:-0.0185948 
0.125 0.125 1:0.178004 2:0.677808 3:-0.496368 4:-0.20264 5:0.0515494 6:0.202985 7:-0.123459 8:-0.28181 9:0.0801299 10:0.223671 11:0.11257 12:-0.158927 13:0.333383 14:0.148604 15:-0.326926 16:0.0662311 17:0.172722 18:0.0537956 19:-0.234711 20:-0.0217205 21:0.66924 22:-0.538948 23:-0.169356 24:-0.121724 25:0.0955395 26:-0.00709143 
0.125 0.125 1:0.221004 2:0.673466 3:-0.482342 4:-0.336153 5:0.221922 6:-0.0854008 7:-0.420259 8:-0.0541047 9:0.249616 10:0.20938 11:-0.0347369 12:0.0488494 13:0.242473 14:0.0659438 15:-0.424309 16:0.0265179 17:0.305255 18:-0.21036 19:0.283826 20:0.435899 21:0.417349 22:-0.721455 23:-0.109188 24:0.217257 25:0.00488074 26:0.00533309 
0 0.125 1:0.237998 2:0.491809 3:-0.21944 4:0.044061 5:0.0181606 6:-0.134105 7:-0.148076 8:0.482057 9:-0.392343 10:0.0990041 11:0.254997 12:-0.0989845 13:0.387188 14:-0.0522529 15:-0.163139 16:-0.253934 17:-0.255381 18:0.111464 19:0.298529 20:-0.115498 21:-0.739055 22:0.0760575 23:0.0615919 24:-0.232517 25:0.145928 26:-0.0121476 
0 0.125 1:0.00259347 2:0.281592 3:-0.129765 4:0.051814 5:-0.0834159 6:0.100174 7:-0.203282 8:0.254063 9:-0.573713 10:0.00418034 11:0.0615256 12:-0.0923063 13:0.162712 14:0.170629 15:-0.0543156 16:-0.276866 17:-0.183754 18:0.309481 19:-0.304364 20:0.132928 21:0.230215 22:0.266811 23:0.101565 24:-0.00406993 25:0.287936 26:0.00336776 
0 0.125 1:-0.159357 2:0.200756 3:-0.224493 4:-0.141797 5:0.0684313 6:0.0442107 7:0.0260288 8:0.386213 9:-0.240037 10:0.173294 11:-0.00718808 12:-0.111055 13:0.29468 14:0.332825 15:-0.0467737 16:-0.0243399 17:0.350764 18:-0.189212 19:-0.131534 20:-0.206852 21:0.0701121 22:-0.468491 23:-0.0299731 24:0.131176 25:-0.0770066 26:-0.0140663 
0.125 0.125 1:-0.178131 2:0.0230361 3:-0.225133 4:-0.185337 5:-0.11961 6:0.0506517 7:-0.207641 8:0.38343 9:-0.579682 10:0.16846 11:0.119399 12:-0.368504 13:0.383541 14:0.384037 15:0.335964 16:-0.0340705 17:0.381131 18:0.149078 19:-0.143034 20:0.0862714 21:-0.185468 22:-0.0441982 23:-0.0512535 24:0.136061 25:0.194517 26:-0.0128253 
0.125 0.125 1:-0.0628351 2:0.395481 3:-0.236261 4:0.0360101 5:-0.0244347 6:0.172259 7:-0.20784 8:0.140485 9:-0.312902 10:-0.0337192 11:-0.0214663 12:-0.0709218 13:-0.382 14:0.208099 15:-0.121977 16:-0.354825 17:0.03367 18:0.115175 19:-0.183103 20:0.14646 21:0.12732 22:0.0198107 23:0.304155 24:0.206919 25:0.0849007 26:0.0111147 
0 0.125 1:-0.167321 2:0.325563 3:-0.128637 4:0.151012 5:0.155952 6:0.3471 7:0.0426577 8:0.190247 9:-0.306189 10:0.325448 11:-0.301819 12:-0.190022 13:0.091 14:0.362215 15:0.180107 16:-0.279145 17:-0.10961 18:-0.0371644 19:-0.373972 20:-0.218623 21:0.0376833 22:0.239614 23:-0.0982402 24:0.435608 25:0.275295 26:-0.00865995 
0.125 0 1:-0.207695 2:0.271822 3:-0.322869 4:-0.0492452 5:0.0882079 6:0.323285 7:0.0844613 8:0.156489 9:-0.300149 10:0.516239 11:-0.156874 12:-0.106765 13:0.0966274 14:0.404386 15:0.283682 16:0.0149109 17:-0.0290251 18:-0.201194 19:-0.346512 20:-0.276934 21:0.113057 22:0.201388 23:-0.329224 24:0.157385 25:0.128827 26:-0.0159071 
0.125 0 1:-0.183127 2:0.342842 3:-0.399543 4:-0.0809925 5:0.0154993 6:0.168765 7:0.259161 8:0.183013 9:-0.214138 10:0.391084 11:0.0560271 12:0.0146744 13:0.112975 14:0.347029 15:0.222228 16:0.218597 17:0.0202778 18:-0.22063 19:-0.113158 20:-0.298122 21:0.243351 22:0.0144487 23:-0.480151 24:-0.217116 25:-0.079552 26:-0.0192217 
0.125 0 1:0.0387513 2:0.638122 3:-0.222944 4:-0.15937 5:-0.223018 6:-0.0537657 7:0.190965 8:0.0602782 9:0.0769441 10:0.567579 11:-0.0613361 12:-0.14794 13:0.149927 14:0.0502366 15:-0.269437 16:-0.031792 17:0.0573057 18:0.169251 19:0.405192 20:-0.131857 21:0.393118 22:-0.376095 23:-0.570754 24:-0.28426 25:0.156875 26:-0.0143567 
0.125 0 1:0.154461 2:0.859965 3:-0.136423 4:-0.281237 5:-0.43412 6:0.24519 7:0.288861 8:0.49145 9:0.0195153 10:-0.210048 11:-0.267901 12:0.0685765 13:-0.0558293 14:0.0462649 15:-0.366164 16:-0.217136 17:0.0657596 18:0.475105 19:-0.16348 20:-0.318267 21:-0.359309 22:-0.0478061 23:0.601113 24:0.455543 25:-0.152661 26:0.0118378 
0.125 0 1:0.0621162 2:0.68114 3:-0.202235 4:-0.0887735 5:0.160118 6:0.544852 7:-0.215346 8:0.156699 9:0.190359 10:0.345632 11:0.355485 12:-0.404586 13:0.0485595 14:0.0820353 15:-0.322478 16:-0.140932 17:-0.0917668 18:-0.367506 19:-0.790216 20:0.302249 21:0.433521 22:-0.525633 23:-0.502094 24:-0.555448 25:0.355798 26:-0.0159163 
0.125 0 1:0.0667371 2:0.54574 3:-0.25848 4:-0.0803317 5:0.161228 6:0.418728 7:-0.213927 8:0.0917508 9:0.173384 10:0.457798 11:0.18941 12:-0.165597 13:0.143436 14:0.0341011 15:-0.198444 16:-0.0841596 17:-0.188363 18:-0.409141 19:-0.646659 20:0.256037 21:0.374556 22:-0.535203 23:-0.491594 24:-0.255963 25:0.212552 26:-0.0101787 
0.125 0 1:0.00533759 2:0.367306 3:-0.300161 4:-0.125677 5:0.23223 6:0.136951 7:-0.112099 8:0.284613 9:0.0653418 10:0.217307 11:0.112929 12:-0.0447768 13:0.104574 14:0.0254247 15:-0.0291831 16:-0.0200643 17:-0.214268 18:-0.32486 19:-0.0476941 20:0.176885 21:0.159539 22:-0.315328 23:-0.15181 24:0.150746 25:0.155835 26:-0.000662508 
0.125 0.125 1:-0.0554894 2:0.298704 3:-0.235686 4:0.0266842 5:0.263975 6:-0.0825688 7:0.0537287 8:0.357864 9:-0.160933 10:0.0723006 11:-0.139624 12:-0.182468 13:-0.0526956 14:0.0534786 15:0.0721752 16:-0.0201448 17:-0.221746 18:-0.123275 19:0.523393 20:0.0745344 21:-0.0183383 22:0.0734289 23:0.148682 24:0.469039 25:0.227313 26:0.00532839 
0.125 0.125 1:-0.137497 2:0.241734 3:-0.255293 4:-0.0647791 5:0.0228618 6:-0.234279 7:-0.185706 8:0.264681 9:-0.269177 10:0.151467 11:-0.215165 12:-0.525839 13:-0.29579 14:0.112673 15:0.0635843 16:-0.0688044 17:-0.0743924 18:0.208567 19:0.64737 20:0.123845 21:-0.0367343 22:0.258186 23:0.181205 24:0.47943 25:0.236572 26:0.00581745 
0.125 0.125 1:-0.213538 2:0.211003 3:-0.256095 4:-0.222216 5:0.0174484 6:-0.14478 7:0.0191778 8:0.307641 9:-0.279737 10:0.205755 11:-0.0457615 12:-0.00105046 13:0.131062 14:0.178256 15:-0.0455795 16:-0.163024 17:0.175925 18:0.290449 19:0.319806 20:-0.0505907 21:-0.0379537 22:0.158695 23:0.0473741 24:0.284825 25:-0.0202379 26:0.00114379 
0.125 0.125 1:-0.272553 2:0.200928 3:-0.174511 4:-0.18879 5:0.0837532 6:0.0945727 7:0.388012 8:0.463555 9:-0.222313 10:0.166742 11:0.224999 12:0.074047 13:0.0575952 14:0.260586 15:-0.190276 16:-0.258745 17:0.333366 18:0.202057 19:-0.0984187 20:-0.338627 21:-0.027361 22:-0.152103 23:-0.0869738 24:0.0241267 25:-0.113115 26:0.0059145 
0.125 0.125 1:-0.340599 2:0.208223 3:-0.149744 4:-0.14579 5:0.117762 6:0.0492862 7:0.301831 8:0.361083 9:0.036154 10:0.115634 11:0.206113 12:-0.10163 13:-0.183269 14:0.352108 15:-0.261099 16:-0.236664 17:0.297058 18:0.0177512 19:-0.194769 20:-0.361257 21:0.0969794 22:-0.517661 23:-0.0840028 24:-0.11773 25:-0.0124867 26:0.00972694 
0.125 0.125 1:-0.393628 2:0.154441 3:-0.250623 4:-0.125296 5:0.204867 6:-0.0542745 7:0.339877 8:0.347524 9:-0.141898 10:0.121527 11:0.199389 12:-0.379096 13:-0.106946 14:0.393585 15:-0.241066 16:-0.119515 17:0.0478173 18:-0.260608 19:-0.192752 20:-0.316303 21:0.243491 22:-0.540855 23:0.0923986 24:-0.0941077 25:0.218888 26:0.00268398 
0.125 0 1:-0.34961 2:0.347041 3:-0.165555 4:-0.0575752 5:0.0787838 6:0.0151333 7:0.221507 8:0.260653 9:0.294252 10:0.387724 11:0.0750447 12:-0.0464733 13:-0.0306885 14:0.41341 15:-0.0339278 16:-0.255448 17:-0.0326828 18:0.0505418 19:-0.196743 20:-0.407438 21:0.137072 22:-0.213119 23:-0.116251 24:-0.013607 25:0.247172 26:0.00350736 
0.125 0 1:0.373007 2:0.566861 3:-0.512249 4:-0.726224 5:-0.106132 6:-0.172392 7:-0.56012 8:0.659748 9:0.0346989 10:0.657653 11:0.0275916 12:-0.0528138 13:0.321496 14:0.134664 15:-0.0200705 16:-0.102288 17:0.362638 18:0.171531 19:-0.0857655 20:-0.0977339 21:-0.0461843 22:-0.194769 23:-0.264771 24:0.17183 25:0.160694 26:-0.000289118 
0 0.125 1:0.288609 2:0.456299 3:-0.394755 4:0.177891 5:0.0777718 6:0.0299018 7:-0.265881 8:0.434163 9:0.0845239 10:0.126132 11:-0.207829 12:0.449514 13:-0.191426 14:0.0318698 15:-0.0884101 16:-0.0248023 17:-0.167655 18:0.0631254 19:-0.138313 20:0.0439519 21:-0.0396249 22:-0.174157 23:-0.225388 24:0.407399 25:-0.188731 26:-0.00539599 
0.125 0.125 1:0.328342 2:0.447568 3:-0.419444 4:0.0831518 5:0.130059 6:0.00531619 7:-0.324439 8:0.304422 9:0.228042 10:0.128367 11:-0.311567 12:0.466158 13:-0.248963 14:-0.0516096 15:-0.0713951 16:0.0265313 17:0.0077233 18:0.142916 19:-0.000184326 20:0.0265166 21:0.334729 22:-0.264134 23:-0.156552 24:0.497336 25:-0.17153 26:0.00846799 
0 0.125 1:0.32541 2:0.515113 3:-0.423675 4:0.0338415 5:0.216588 6:-0.00940731 7:-0.267017 8:0.189895 9:0.290488 10:0.103634 11:-0.234059 12:0.295606 13:-0.246025 14:-0.0374193 15:-0.0965115 16:-0.019555 17:0.180159 18:0.0523237 19:0.0236707 20:-0.0125993 21:0.563452 22:-0.319469 23:-0.0637134 24:0.354933 25:0.0907021 26:0.0140121 
0.125 0.125 1:0.277314 2:0.584231 3:-0.480811 4:-0.00301558 5:0.180013 6:-0.0653099 7:-0.201814 8:0.0203371 9:0.298614 10:0.103552 11:-0.224109 12:0.0621565 13:-0.205735 14:0.0545502 15:-0.196802 16:-0.012123 17:0.268383 18:-0.0513559 19:-0.0398972 20:-0.0661051 21:0.654499 22:-0.320963 23:-0.111369 24:0.212758 25:0.397608 26:0.00688178 
0.125 0.125 1:0.245323 2:0.641982 3:-0.473618 4:0.0216396 5:0.237203 6:0.0056656 7:-0.134123 8:0.0678362 9:0.350561 10:0.060404 11:-0.148616 12:0.0643924 13:-0.154047 14:0.134702 15:-0.343673 16:0.0367377 17:0.266095 18:-0.237735 19:-0.0905391 20:-0.0812283 21:0.518426 22:-0.32385 23:-0.195187 24:0.127073 25:0.555166 26:-0.00409204 
0 0.125 1:0.223529 2:0.666625 3:-0.478273 4:0.0520095 5:0.290329 6:0.0490886 7:-0.136374 8:0.248323 9:0.30034 10:0.0557292 11:-0.0524622 12:0.0222825 13:0.00154074 14:0.166801 15:-0.456188 16:0.122517 17:0.148819 18:-0.399181 19:0.0321105 20:0.0356439 21:0.138869 22:-0.263536 23:-0.0893215 24:0.130831 25:0.487056 26:-0.00728053 
0 0.125 1:0.202389 2:0.636434 3:-0.375122 4:0.249232 5:0.10176 6:-0.171218 7:-0.0283993 8:0.418332 9:0.196112 10:-0.303988 11:0.142021 12:0.278904 13:-0.10385 14:0.112348 15:-0.218422 16:0.000288165 17:-0.236937 18:-0.198593 19:0.327513 20:0.203658 21:-0.469702 22:-0.165303 23:0.528107 24:-0.109329 25:-0.0720695 26:0.00135651 
0.125 0 1:0.0830899 2:0.211021 3:-0.453922 4:0.00603116 5:-0.408747 6:0.136414 7:0.607061 8:0.394735 9:-0.430027 10:1 11:-0.0484498 12:-0.330763 13:0.253396 14:-0.0167348 15:0.216606 16:0.414241 17:0.238375 18:0.347746 19:0.0450584 20:-0.466047 21:-0.0404728 22:0.281328 23:-0.725319 24:0.172588 25:0.401984 26:-0.00272663 
0.125 0 1:0.0669244 2:0.313202 3:-0.295698 4:0.127827 5:-0.307729 6:-0.0276184 7:0.488926 8:0.280655 9:-0.563357 10:0.981676 11:0.0058389 12:-0.444393 13:0.452803 14:-0.0228616 15:-0.0413728 16:0.1872 17:0.00848737 18:0.228259 19:0.108818 20:-0.429485 21:0.0561542 22:0.436622 23:-0.76077 24:-0.0325136 25:0.462988 26:-0.0246901 
0.125 0 1:0.195324 2:0.836851 3:-0.357816 4:-0.31356 5:-0.147774 6:0.305539 7:-0.296306 8:0.0503664 9:0.0226052 10:0.0536812 11:0.536606 12:-0.286039 13:0.0907226 14:-0.078172 15:-0.358159 16:0.0663048 17:0.168481 18:0.132388 19:-0.436963 20:0.198104 21:0.413459 22:-0.103742 23:-0.259207 24:-0.359396 25:0.380603 26:0.0101064 
0.125 0 1:0.0421648 2:0.821571 3:-0.141155 4:-0.270579 5:-0.398886 6:0.222708 7:0.242274 8:0.354057 9:-0.0269801 10:-0.267738 11:0.230456 12:-0.0694553 13:0.357307 14:0.0416737 15:-0.416563 16:-0.29031 17:0.092253 18:0.54363 19:-0.194247 20:-0.624904 21:-0.264966 22:0.00924303 23:0.41267 24:-0.047943 25:-0.146336 26:-0.0143363 
0.125 0 1:-0.0668835 2:0.706494 3:-0.18748 4:-0.295222 5:-0.239957 6:0.141563 7:0.339602 8:0.308191 9:-0.0793475 10:-0.217968 11:-0.0330009 12:-0.108927 13:0.292645 14:0.1415 15:-0.248834 16:-0.233997 17:0.0663643 18:0.271606 19:-0.0370119 20:-0.47895 21:-0.388373 22:-0.197677 23:0.386185 24:0.337785 25:-0.046015 26:-0.0122857 
0.125 0 1:-0.318553 2:0.513769 3:-0.0942018 4:-0.19296 5:0.0533832 6:0.141012 7:0.198311 8:0.0701392 9:-0.0178421 10:0.189395 11:0.141445 12:-0.114779 13:0.0174755 14:0.454227 15:0.135388 16:-0.165065 17:-0.149056 18:-0.280556 19:0.0450163 20:0.0476771 21:0.385459 22:-0.150679 23:-0.208124 24:-0.106621 25:0.26955 26:0.00510462 
0.125 0 1:-0.0263135 2:0.646532 3:-0.112756 4:-0.226351 5:-0.19164 6:0.161731 7:0.107475 8:0.291961 9:-0.0981422 10:0.212546 11:0.208437 12:0.138631 13:0.267367 14:0.0769175 15:-0.213239 16:-0.0804041 17:-0.0697262 18:0.101657 19:-0.143341 20:-0.0458084 21:-0.256941 22:-0.156731 23:-0.196858 24:-0.102001 25:-0.251814 26:-0.00698947 
0.1142279304350642 0 1:-0.0775328 2:0.37498 3:-0.139892 4:-0.169003 5:0.0499218 6:-0.11152 7:-0.110851 8:0.431266 9:-0.303744 10:0.478067 11:0.204555 12:0.241989 13:0.182947 14:0.273069 15:-0.424256 16:-0.119621 17:-0.120781 18:-0.256119 19:-0.334393 20:-0.337307 21:0.408784 22:-0.0370615 23:-0.113461 24:0.0506474 25:0.140783 26:0.01189 
0.125 0 1:-0.128705 2:0.155975 3:0.0128277 4:-0.267041 5:-0.10224 6:0.00580352 7:-0.32201 8:0.123983 9:-0.199827 10:0.317757 11:0.285458 12:0.5142 13:0.245464 14:0.283842 15:-0.160778 16:-0.29293 17:0.0251165 18:-0.130526 19:-0.281185 20:0.0668631 21:0.854438 22:-0.157274 23:0.136953 24:0.117818 25:-0.227963 26:-0.00904479 
0.125 0 1:-0.150113 2:-0.0487386 3:0.0418823 4:-0.215083 5:-0.288267 6:-0.188886 7:-0.370439 8:0.319307 9:-0.343609 10:0.329227 11:0.337345 12:0.491387 13:0.534371 14:0.243764 15:0.0811964 16:-0.35825 17:0.0304903 18:0.120633 19:0.0247317 20:0.0480208 21:0.483205 22:-0.100234 23:0.0250221 24:0.0473396 25:-0.186196 26:-0.0230211 
0.125 0 1:-0.163561 2:-0.133412 3:0.0678129 4:-0.110813 5:-0.323069 6:-0.19402 7:0.029563 8:0.621854 9:-0.178797 10:0.369226 11:0.365836 12:0.472676 13:0.261808 14:0.208761 15:0.236628 16:-0.397634 17:0.0176677 18:0.29173 19:0.0923998 20:-0.2613 21:-0.0363156 22:-0.138451 23:-0.183645 24:0.0378661 25:-0.17257 26:-0.0136275 
0.125 0 1:-0.13277 2:-0.216805 3:-0.00569809 4:-0.150072 5:-0.392167 6:-0.004576 7:0.069192 8:0.637099 9:-0.40011 10:0.291883 11:0.321768 12:0.216519 13:0.070822 14:0.183057 15:0.328024 16:-0.334794 17:0.0877176 18:0.347787 19:-0.0830296 20:-0.334791 21:-0.357163 22:-0.105527 23:-0.272479 24:0.0502734 25:-0.0556747 26:6.85212e-005 
0.125 0 1:-0.104092 2:-0.172949 3:-0.0020169 4:-0.183662 5:-0.463285 6:0.0690384 7:-0.197281 8:0.724477 9:-0.174825 10:0.306615 11:0.447691 12:0.138238 13:0.0183379 14:0.192194 15:0.346136 16:-0.252513 17:0.133554 18:0.313457 19:-0.262447 20:-0.120651 21:-0.454978 22:-0.145159 23:-0.206355 24:-0.0230171 25:0.0789844 26:0.00820413 
0.125 0 1:-0.0966126 2:-0.160185 3:-0.0791174 4:-0.129028 5:-0.45165 6:-0.134489 7:-0.240471 8:0.773336 9:-0.273835 10:0.104452 11:0.607382 12:0.259562 13:0.0838153 14:0.243507 15:0.381371 16:-0.179276 17:0.0830269 18:0.257845 19:-0.211692 20:0.0515895 21:-0.406603 22:-0.0434869 23:0.0120352 24:-0.211859 25:0.22746 26:0.0031891 
0.125 0 1:-0.0822463 2:-0.0812789 3:-0.150724 4:0.00516558 5:-0.397386 6:-0.117623 7:-0.192806 8:0.694252 9:-0.329202 10:-0.0651654 11:0.641852 12:-0.165611 13:0.178446 14:0.298823 15:0.27104 16:-0.151239 17:-0.0622555 18:0.173551 19:-0.134497 20:0.040437 21:-0.281678 22:0.125537 23:0.235907 24:-0.346712 25:0.541604 26:-0.0090629 
0.125 0 1:-0.0314444 2:0.101489 3:-0.208672 4:0.11435 5:-0.384685 6:-0.0732466 7:-0.00844182 8:0.576858 9:-0.365399 10:-0.0908239 11:0.562032 12:-0.382122 13:0.0496965 14:0.286012 15:-0.0705775 16:-0.156901 17:-0.206676 18:0.0980052 19:-0.078031 20:-0.149817 21:-0.10703 22:0.181322 23:0.28872 24:-0.314957 25:0.64769 26:-0.0119043 
0.125 0 1:0.294207 2:0.586316 3:-0.431961 4:0.122624 5:-0.326327 6:-0.287486 7:-0.173274 8:0.293116 9:0.112482 10:-0.0819899 11:0.246201 12:0.130821 13:-0.14174 14:-0.0414519 15:-0.689034 16:0.0368047 17:-0.147602 18:0.0747196 19:0.0670629 20:-0.037907 21:0.298007 22:-0.367058 23:-0.0347313 24:0.107357 25:-0.0457226 26:-0.00474668 
0.125 0 1:0.356091 2:0.513912 3:-0.454218 4:0.0261909 5:-0.246618 6:-0.305171 7:-0.0870316 8:0.302831 9:0.206851 10:-0.204893 11:0.192978 12:0.19267 13:-0.317679 14:-0.0557742 15:-0.199438 16:0.124675 17:-0.0675574 18:0.0584942 19:0.15773 20:-0.22066 21:0.254411 22:-0.40391 23:0.131174 24:0.0736204 25:0.0827452 26:0.00714972 
0.125 0 1:0.370186 2:0.4978 3:-0.459387 4:-0.031282 5:-0.205076 6:-0.306551 7:-0.146965 8:0.329931 9:0.154152 10:-0.234605 11:0.173539 12:0.234208 13:-0.412073 14:-0.0701812 15:-0.15651 16:0.0657419 17:0.0964043 18:0.053925 19:0.0641979 20:-0.123358 21:0.137925 22:-0.353366 23:0.290706 24:0.0226413 25:0.0333138 26:0.0151718 
0.125 0 1:0.350671 2:0.469723 3:-0.424162 4:-0.0711081 5:-0.217265 6:-0.292161 7:-0.127709 8:0.386327 9:0.127824 10:-0.163956 11:0.168074 12:0.354827 13:-0.443685 14:-0.0659996 15:-0.220619 16:-0.0451414 17:0.236095 18:0.0273534 19:-0.139271 20:0.0876983 21:0.00188582 22:-0.288304 23:0.337266 24:0.0611548 25:-0.0464288 26:0.0180149 
0.125 0 1:0.320232 2:0.470401 3:-0.354339 4:-0.0811973 5:-0.190466 6:-0.156528 7:-0.203507 8:0.47397 9:0.0506808 10:-0.144367 11:0.114436 12:0.302104 13:-0.356623 14:-0.0303952 15:-0.232287 16:-0.0859791 17:0.17081 18:-0.0419681 19:-0.283115 20:0.223051 21:-0.126048 22:-0.16342 23:0.232506 24:0.18612 25:0.031388 26:0.0153764 
0.125 0 1:0.221857 2:0.470504 3:-0.288239 4:-0.0853763 5:-0.13008 6:-0.090107 7:-0.32487 8:0.506922 9:-0.00792262 10:-0.0870981 11:0.0606427 12:0.29904 13:-0.240449 14:0.0552545 15:-0.15318 16:-0.112555 17:-0.00504781 18:-0.0539155 19:-0.241635 20:0.145939 21:-0.255406 22:0.0256468 23:0.0460115 24:0.193141 25:0.126925 26:0.00815095 
0.125 0 1:0.107451 2:0.336719 3:-0.298048 4:0.132323 5:-0.143984 6:-0.370685 7:0.0523358 8:0.425812 9:-0.206492 10:0.218938 11:0.118821 12:0.275714 13:-0.015369 14:0.127996 15:-0.0232497 16:-0.121072 17:-0.217374 18:0.0588109 19:0.0417826 20:-0.16336 21:-0.261564 22:0.169106 23:-0.238503 24:0.0411068 25:0.165248 26:-0.882256 
0.125 0 1:-0.217472 2:0.44361 3:-0.122551 4:0.00573333 5:-0.0635012 6:-0.234646 7:0.213338 8:0.139 9:-0.0783054 10:-0.0744212 11:0.156595 12:0.219918 13:0.0615446 14:0.377621 15:-0.332177 16:-0.277972 17:-0.262099 18:-0.472854 19:-0.0808409 20:-0.168417 21:0.275939 22:0.0621242 23:0.312609 24:-0.0318873 25:0.223357 26:-0.00114625 
0.125 0.125 1:-0.237079 2:0.424075 3:-0.074336 4:0.0443123 5:0.106099 6:-0.114273 7:0.421572 8:0.0854209 9:-0.172663 10:-0.189826 11:0.0163434 12:0.12742 13:0.0818571 14:0.437568 15:-0.168215 16:-0.284318 17:-0.291395 18:-0.307958 19:-0.191678 20:-0.575163 21:0.116241 22:0.17493 23:0.316522 24:0.152299 25:0.3329 26:0.00606126 
0.125 0.125 1:-0.208319 2:0.349982 3:-0.127086 4:-0.118911 5:-0.141688 6:-0.178174 7:0.397024 8:0.279405 9:0.028054 10:-0.0496063 11:0.0343551 12:0.0849386 13:0.185636 14:0.46645 15:0.047387 16:-0.274172 17:0.00147749 18:0.22927 19:-0.238383 20:-0.735555 21:-0.0783898 22:0.031873 23:0.0434554 24:0.306947 25:0.21688 26:0.00418368 
0.125 0.125 1:-0.0998237 2:0.294804 3:-0.259155 4:-0.358592 5:-0.578156 6:-0.111401 7:0.260807 8:0.102401 9:0.224063 10:0.139252 11:-0.198457 12:0.281552 13:0.0926204 14:0.407874 15:0.144894 16:-0.195302 17:0.344537 18:0.640554 19:-0.239269 20:-0.611065 21:0.048098 22:-0.235089 23:-0.298394 24:0.465934 25:0.0167847 26:0.000346594 
0.125 0.125 1:-0.0526743 2:0.303139 3:-0.227439 4:-0.283202 5:-0.382912 6:-0.180734 7:0.210752 8:0.165901 9:0.242497 10:0.0498172 11:-0.0928521 12:0.267756 13:0.128257 14:0.274723 15:0.0145351 16:-0.175607 17:0.410125 18:0.411608 19:-0.157997 20:-0.295468 21:0.171695 22:-0.381078 23:-0.330305 24:0.358443 25:-0.043201 26:-0.00722203 
0.125 0.125 1:0.165136 2:0.560704 3:-0.272395 4:-0.276067 5:0.021263 6:-0.328864 7:-0.190904 8:0.0929314 9:0.27505 10:-0.182796 11:0.291282 12:0.157976 13:0.233034 14:0.0228633 15:-0.343683 16:-0.124838 17:0.310411 18:-0.139759 19:-0.067716 20:0.231075 21:0.201008 22:-0.413153 23:-0.0427358 24:0.0226642 25:0.00397305 26:-0.0147116 
0.125 0 1:0.355578 2:0.601952 3:-0.380693 4:-0.145437 5:-0.146852 6:-0.255764 7:-0.338603 8:0.182452 9:0.344688 10:-0.245407 11:0.400583 12:0.0985247 13:0.190739 14:-0.211069 15:-0.523521 16:-0.0270607 17:0.133342 18:-0.396444 19:-0.0363225 20:0.65898 21:0.0336081 22:-0.33098 23:0.290863 24:-0.19397 25:0.0772492 26:-0.0161802 
0.125 0 1:0.412495 2:0.542345 3:-0.439451 4:-0.0697865 5:-0.225858 6:-0.29754 7:-0.391793 8:0.315955 9:0.234442 10:-0.299864 11:0.418019 12:0.140098 13:0.148121 14:-0.313424 15:-0.450437 16:0.100456 17:0.0656533 18:-0.278885 19:0.0902677 20:0.813081 21:-0.335479 22:-0.203058 23:0.520105 24:-0.288035 25:0.122584 26:-0.00871211 
0.125 0 1:0.394498 2:0.451974 3:-0.467582 4:-0.0385883 5:-0.331459 6:-0.433548 7:-0.326731 8:0.336805 9:0.131168 10:-0.325218 11:0.488393 12:0.0906768 13:-0.0113345 14:-0.286557 15:-0.226434 16:0.214556 17:0.0566855 18:0.172079 19:0.245365 20:0.511722 21:-0.526905 22:-0.0683074 23:0.530722 24:-0.270605 25:0.126782 26:0.00658785 
0.125 0.125 1:0.343631 2:0.401902 3:-0.442624 4:0.035824 5:-0.455586 6:-0.488518 7:-0.049183 8:0.236582 9:0.164263 10:-0.23505 11:0.573841 12:0.0262428 13:-0.18964 14:-0.154609 15:-0.0525135 16:0.188822 17:-0.147389 18:0.487923 19:0.346425 20:-0.136411 21:-0.44179 22:-0.0591898 23:0.236871 24:-0.311905 25:0.145545 26:0.0164124 
0.125 0 1:0.257291 2:0.422759 3:-0.400883 4:0.242857 5:-0.451131 6:-0.309386 7:0.372183 8:0.128778 9:0.138683 10:-0.0752882 11:0.56266 12:-0.0184223 13:-0.133273 14:-0.0161744 15:-0.0814115 16:0.039425 17:-0.444545 18:0.4821 19:0.243231 20:-0.654776 21:-0.0111195 22:-0.0581023 23:-0.1122 24:-0.297615 25:0.241282 26:0.0139783 
0.125 0 1:0.135654 2:0.393821 3:-0.285119 4:0.33795 5:-0.441227 6:-0.268361 7:0.444474 8:-0.164132 9:0.0703591 10:0.159994 11:0.472037 12:0.0342705 13:0.0791986 14:0.12643 15:-0.199753 16:-0.139375 17:-0.598905 18:0.31715 19:0.0589337 20:-0.801206 21:0.600366 22:-0.110508 23:-0.336243 24:-0.0965246 25:0.336951 26:0.00151739 
0.125 0 1:0.0127693 2:0.4037 3:-0.174941 4:0.278429 5:-0.270895 6:-0.182358 7:0.180503 8:-0.291317 9:0.211382 10:0.226387 11:0.389302 12:-0.00112611 13:0.130434 14:0.271602 15:-0.329611 16:-0.257713 17:-0.434061 18:-0.0104041 19:-0.0909034 20:-0.55666 21:0.903598 22:-0.229595 23:-0.244244 24:0.104622 25:0.323087 26:-0.0128547 
0.125 0.125 1:-0.0685472 2:0.386727 3:-0.137826 4:0.000679436 5:-0.22691 6:-0.0206649 7:0.100301 8:-0.247325 9:-0.00149343 10:-0.105633 11:0.12268 12:-0.0122243 13:0.0849661 14:0.354224 15:-0.369052 16:-0.225097 17:-0.0294876 18:-0.17355 19:-0.14757 20:-0.269968 21:0.702229 22:-0.284653 23:0.151446 24:0.154657 25:0.126923 26:-0.0219493 
0.125 0 1:-0.147748 2:0.338172 3:-0.176359 4:-0.0798105 5:-0.158617 6:-0.0396852 7:0.179582 8:0.0183676 9:0.147174 10:0.0180289 11:0.283418 12:0.236039 13:0.254096 14:0.363129 15:-0.263665 16:-0.095829 17:0.302999 18:-0.125297 19:-0.0453225 20:-0.0508193 21:0.159173 22:-0.365753 23:0.375725 24:-0.119586 25:-0.179827 26:-0.0206013 
0.125 0 1:-0.134503 2:0.195942 3:-0.0955205 4:-0.109613 5:-0.263817 6:0.0116576 7:-0.0902583 8:0.304611 9:0.0188057 10:0.181508 11:0.475629 12:0.387447 13:0.145163 14:0.317674 15:-0.0216897 16:-0.0430371 17:0.448582 18:-0.0461492 19:-0.0450584 20:0.207294 21:-0.348825 22:-0.184448 23:0.365147 24:-0.335474 25:-0.221941 26:-0.0075225 
0.125 0.125 1:-0.0862731 2:0.117679 3:-0.0569809 4:-0.0791125 5:-0.343238 6:0.133472 7:-0.175397 8:0.314326 9:-0.157467 10:0.225731 11:0.242282 12:0.205505 13:-0.134322 14:0.292846 15:0.203039 16:-0.136927 17:0.388592 18:-0.0584618 19:-0.156979 20:0.337108 21:-0.501784 22:0.08049 23:0.162776 24:-0.175194 25:0.0376032 26:0.00633852 
0.125 0.125 1:-0.112976 2:0.0815437 3:0.0388711 4:-0.0897973 5:-0.207972 6:0.186021 7:-0.209747 8:0.216267 9:-0.374101 10:0.370808 11:-0.034448 12:-0.0280684 13:-0.26264 14:0.313627 15:0.258974 16:-0.319977 17:0.224794 18:-0.213352 19:-0.329618 20:0.321612 21:-0.386541 22:0.219067 23:-0.131279 24:0.135783 25:0.323758 26:0.0130845 
0.125 0.1218338020838555 1:-0.0974046 2:0.143596 3:0.110034 4:0.0639508 5:-0.141768 6:0.296758 7:-0.0339906 8:0.265125 9:-0.30722 10:0.611843 11:-0.225868 12:-0.0172816 13:0.0128368 14:0.292306 15:0.0984588 16:-0.423616 17:0.0151974 18:-0.193889 19:-0.499314 20:0.0552011 21:-0.204954 22:0.10602 23:-0.32307 24:0.341066 25:0.302593 26:0.00849969 
0.125 0 1:0.150914 2:0.373199 3:-0.0193791 4:0.247864 5:-0.591116 6:0.139127 7:0.14375 8:0.0670418 9:-0.150736 10:0.602446 11:0.0339254 12:0.298955 13:-0.109486 14:0.0599067 15:-0.302106 16:-0.1898 17:-0.1958 18:0.29173 19:-0.259966 20:-0.346083 21:0.257935 22:-0.386524 23:-0.297961 24:0.026399 25:-0.343558 26:0.00054551 
0.125 0 1:0.208099 2:0.387847 3:-0.0330038 4:0.250386 5:-0.582294 6:0.00484878 7:0.130736 8:0.00791402 9:-0.189745 10:0.588035 11:-0.0725165 12:0.165929 13:0.0442174 14:-0.0129697 15:-0.310014 16:-0.0952801 17:-0.149432 18:0.260608 19:-0.0831254 20:-0.282887 21:0.364229 22:-0.326822 23:-0.185611 24:0.0622468 25:-0.285067 26:-0.0029415 
0.125 0 1:-0.446537 2:0.178187 3:-0.163235 4:-0.0868282 5:0.0505835 6:-0.00609929 7:0.254557 8:0.28628 9:0.00428373 10:0.373807 11:0.0315663 12:0.302037 13:0.12802 14:0.262346 15:-0.166332 16:-0.130548 17:0.250274 18:-0.281324 19:-0.0837829 20:-0.261085 21:-0.152235 22:-0.330121 23:0.0762815 24:0.0356891 25:-0.239683 26:-0.00691 
0.125 0 1:-0.483246 2:0.137571 3:-0.117283 4:-0.0656261 5:0.0364106 6:-0.021665 7:0.0792246 8:0.408105 9:-0.0730092 10:0.325977 11:0.198219 12:0.302942 13:-0.0785971 14:0.281903 15:-0.0455096 16:-0.143794 17:0.121803 18:-0.222719 19:-0.11623 20:0.028973 21:-0.126859 22:-0.252163 23:-0.0226666 24:-0.0691941 25:-0.146964 26:0.00695531 
0.125 0 1:-0.454494 2:0.0535797 3:-0.166147 4:0.0193965 5:-0.214324 6:0.0957236 7:0.199643 8:0.312527 9:-0.338072 10:0.316569 11:0.205098 12:-0.0269831 13:-0.272692 14:0.250394 15:-0.0145243 16:-0.190922 17:-0.0993789 18:0.134562 19:-0.207498 20:0.137454 21:0.0977644 22:0.0094492 23:-0.0854991 24:-0.101757 25:0.339746 26:0.0128554 
0.125 0 1:-0.419436 2:0.0665728 3:-0.140858 4:0.0956516 5:-0.274096 6:0.0797428 7:0.06066 8:0.213092 9:-0.475117 10:0.50956 11:0.0455909 12:-0.179413 13:-0.0556947 14:0.237362 15:-0.0105167 16:-0.238098 17:-0.251565 18:0.333297 19:-0.24432 20:-0.035153 21:0.245288 22:0.183211 23:-0.353487 24:-0.0897555 25:0.646671 26:0.00079413 
0.125 0 1:-0.204436 2:0.156917 3:-0.321914 4:-0.0592971 5:-0.279069 6:-0.302643 7:-0.420964 8:0.457343 9:-0.47272 10:-0.278377 11:-0.221974 12:0.275933 13:-0.137057 14:0.12389 15:0.127238 16:0.10189 17:0.203824 18:0.0775218 19:0.169471 20:0.0715119 21:-0.186585 22:0.268151 23:0.502015 24:0.375415 25:-0.334611 26:0.0187809 
0.125 0 1:-0.133306 2:0.598884 3:-0.228255 4:0.0596043 5:-0.0213841 6:0.0242592 7:0.0889868 8:-0.0152978 9:-0.0853821 10:-0.181976 11:-0.105183 12:-0.152415 13:0.0856582 14:0.140427 15:-0.256166 16:-0.125276 17:-0.227335 18:0.00613543 19:-0.0540976 20:-0.38849 21:0.147487 22:0.0495482 23:0.299101 24:0.107971 25:0.234787 26:-0.00202915 
0.125 0.125 1:-0.401322 2:0.349625 3:-0.167149 4:-0.114471 5:-0.0385082 6:0.0708636 7:0.117551 8:0.20061 9:-0.119043 10:0.333089 11:-0.0680519 12:-0.132171 13:-0.0172201 14:0.427343 15:-0.000484144 16:-0.236094 17:0.250176 18:0.0366805 19:-0.164834 20:-0.281675 21:-0.0297388 22:0.0140707 23:-0.505555 24:-0.00363595 25:0.422305 26:-0.00075946 
0.125 0.125 1:-0.132598 2:0.442048 3:-0.283186 4:0.195845 5:-0.00194624 6:-0.12946 7:-0.0012793 8:0.213495 9:0.247723 10:-0.180101 11:0.0201322 12:0.350725 13:-0.115572 14:0.231948 15:-0.172463 16:-0.142664 17:-0.179472 18:-0.0740511 19:-0.0671224 20:-0.0989137 21:-0.00305639 22:-0.362265 23:0.0696789 24:-0.00863912 25:-0.179372 26:-0.00734465 
0.125 0 1:0.321736 2:0.532058 3:-0.368063 4:0.203896 5:-0.233542 6:-0.358226 7:-0.0842262 8:0.226806 9:0.107163 10:-0.424595 11:0.159158 12:0.243985 13:-0.281234 14:-0.209782 15:-0.386293 16:0.111741 17:0.0249522 18:0.143444 19:0.217193 20:-0.209473 21:0.203988 22:-0.160011 23:0.241786 24:-0.123594 25:0.211304 26:0.00168746 
0.125 0 1:0.33389 2:0.483738 3:-0.283609 4:0.202249 5:-0.193507 6:-0.315378 7:-0.13245 8:0.359208 9:0.0140737 10:-0.364045 11:0.0430785 12:0.310537 13:-0.371646 14:-0.129807 15:-0.239614 16:-0.0725647 17:0.0901365 18:0.103352 19:-0.0296141 20:-0.113962 21:-0.0682943 22:-0.080947 23:0.211677 24:0.163397 25:0.000628236 26:0.00119462 
0.125 0.125 1:0.0910253 2:0.190118 3:-0.0776717 4:0.319698 5:-0.140869 6:-0.195951 7:-0.326398 8:0.396212 9:-0.186943 10:-0.230598 11:-0.080109 12:0.189027 13:-0.374337 14:0.152936 15:0.174028 16:-0.421237 17:-0.161379 18:0.053278 19:-0.0574532 20:0.371168 21:-0.160557 22:-0.0144246 23:0.0528756 24:0.339796 25:0.163172 26:0.00216731 
0.125 0 1:0.0976822 2:0.282626 3:-0.0968252 4:0.386171 5:-0.039921 6:-0.415097 7:-0.16664 8:0.487908 9:-0.269149 10:0.0160254 11:0.0750972 12:0.0581042 13:-0.495922 14:0.102666 15:0.0844509 16:-0.29175 17:-0.363463 18:-0.161594 19:0.265423 20:0.153764 21:-0.0848951 22:0.0236488 23:-0.277453 24:-0.00469445 25:0.309081 26:0.0101166 
0.125 0 1:0.0664293 2:0.332066 3:-0.160301 4:0.435584 5:-0.0359146 6:-0.38506 7:-0.0230803 8:0.427952 9:-0.188496 10:0.218758 11:0.407191 12:0.0988564 13:-0.628189 14:0.0409135 15:-0.0868071 16:-0.105001 17:-0.444537 18:-0.177405 19:0.318181 20:-0.176405 21:-0.0320886 22:-0.0072587 23:-0.386461 24:-0.414597 25:0.180579 26:0.0148435 
0.125 0 1:-0.20664 2:0.41157 3:-0.127466 4:0.0413246 5:-0.164516 6:-0.0865961 7:0.259769 8:0.186613 9:-0.138211 10:0.0667401 11:0.194814 12:0.0257184 13:-0.222598 14:0.329219 15:-0.385255 16:-0.132211 17:0.229762 18:0.223798 19:-0.207904 20:-0.361809 21:0.258092 22:-0.0698674 23:0.0823669 24:-0.0285548 25:0.225628 26:-0.00464512 
0.125 0 1:-0.140064 2:0.183386 3:-0.213142 4:0.0228868 5:-0.18977 6:0.126945 7:0.141987 8:0.217182 9:0.176261 10:0.106514 11:0.0531064 12:0.171748 13:-0.00321057 14:0.175745 15:-0.0769682 16:-0.0553143 17:0.0162131 18:-0.0599364 19:-0.142918 20:-0.191023 21:0.0914702 22:-0.32007 23:0.105144 24:0.240138 25:-0.0986006 26:-0.00751258 
0.125 0 1:0.118785 2:0.179532 3:-0.271809 4:0.160375 5:-0.605014 6:0.197254 7:0.0641296 8:0.183844 9:0.197382 10:0.277992 11:0.230134 12:0.0830967 13:-0.268792 14:-0.137222 15:0.0159714 16:0.131397 17:-0.115715 18:0.540395 19:-0.208499 20:-0.0829068 21:0.0479498 22:-0.433804 23:0.0121709 24:-0.0452791 25:0.00636035 26:0.0116946 
0.125 0 1:0.191768 2:0.13803 3:-0.275677 4:0.212124 5:-0.616591 6:0.197867 7:0.00524846 8:0.322583 9:0.225597 10:0.30855 11:0.369077 12:-0.0933714 13:-0.299415 14:-0.206582 15:0.113252 16:0.175573 17:-0.0863725 18:0.598663 19:-0.138918 20:0.120624 21:-0.158952 22:-0.375923 23:-0.115745 24:-0.347364 25:0.16223 26:0.0166864 
0.125 0 1:0.131673 2:0.0706322 3:-0.245389 4:0.148797 5:-0.532715 6:0.14236 7:-0.0879622 8:0.341521 9:0.0588216 10:0.179712 11:0.501256 12:0.00638131 13:-0.066024 14:-0.0439744 15:0.143985 16:0.036148 17:0.0554752 18:0.248787 19:-0.0409611 20:0.250652 21:-0.306014 22:-0.212863 23:-0.127045 24:-0.523887 25:0.102647 26:0.00724688 
0.125 0 1:0.0739687 2:0.145682 3:-0.128736 4:0.125417 5:-0.429579 6:0.192013 7:-0.0756854 8:0.235525 9:0.042878 10:0.236564 11:0.396739 12:0.0367308 13:0.0441872 14:0.162652 15:0.0351543 16:-0.218938 17:0.131086 18:-0.123207 19:-0.0473893 20:0.204808 21:-0.167604 22:-0.134924 23:-0.0437268 24:-0.346165 25:0.0297719 26:-0.00364451 
0.125 0 1:0.0921208 2:0.285947 3:0.0189631 4:0.305728 5:-0.521412 6:0.28528 7:0.185499 8:0.100621 9:0.133054 10:0.324562 11:0.189453 12:-0.131109 13:-0.092711 14:0.253199 15:-0.159332 16:-0.401193 17:0.0412111 18:-0.0856292 19:-0.169421 20:-0.059158 21:0.0885917 22:-0.224568 23:0.074042 24:0.0261097 25:0.0736401 26:-0.00518961 
0.125 0 1:-0.0478532 2:0.106455 3:-0.506114 4:0.162692 5:-0.503665 6:-0.3214 7:0.086248 8:0.500009 9:-0.590373 10:0.240463 11:0.664263 12:-0.696211 13:0.0641152 14:0.115508 15:0.0293553 16:0.155502 17:-0.142339 18:0.483866 19:0.479662 20:-0.119542 21:-0.381151 22:0.108511 23:0.0647516 24:-0.310511 25:1 26:-0.00786122 
0.125 0 1:-0.322705 2:0.280817 3:-0.417632 4:-0.0955399 5:0.0304363 6:0.127834 7:0.286177 8:0.0316731 9:-0.165083 10:0.073184 11:0.295799 12:0.153163 13:-0.00471012 14:0.117142 15:0.0375319 16:0.0720145 17:-0.160154 18:-0.147617 19:-0.333116 20:-0.189473 21:0.264233 22:0.0539807 23:0.333766 24:-0.402477 25:0.165625 26:0.00765085 
0.125 0 1:-0.365046 2:0.256169 3:-0.446552 4:-0.207935 5:-0.111361 6:0.145011 7:0.268722 8:0.0216854 9:-0.213745 10:0.152788 11:0.249445 12:0.0919019 13:-0.0231661 14:0.220635 15:0.112122 16:0.0557231 17:0.037443 18:0.0850873 19:-0.289734 20:-0.155275 21:0.168224 22:-0.0841563 23:0.151515 24:-0.397414 25:0.110762 26:0.00887707 
0.125 0.125 1:-0.386424 2:0.333622 3:-0.400488 4:-0.27701 5:-0.288224 6:0.0217935 7:0.302693 8:0.0904471 9:0.130089 10:0.127339 11:-0.00778855 12:-0.0156754 13:0.111267 14:0.376114 15:0.194196 16:0.0919113 17:0.222538 18:0.22807 19:-0.0201017 20:-0.116249 21:0.00159623 22:-0.323111 23:-0.119739 24:-0.117077 25:0.0993956 26:0.00732461 
0.125 0 1:-0.439929 2:0.293023 3:-0.406623 4:-0.33833 5:-0.298128 6:0.0294237 7:0.322127 8:0.233162 9:0.257623 10:0.344247 11:-0.0307271 12:0.156172 13:0.166779 14:0.49198 15:0.250502 16:0.192086 17:0.216998 18:0.125344 19:0.177004 20:-0.0484842 21:-0.0885935 22:-0.430557 23:-0.350715 24:0.132642 25:0.0364702 26:0.00231141 
0.125 0 1:-0.410982 2:0.322726 3:-0.420445 4:-0.19995 5:-0.216256 6:-0.115082 7:0.156758 8:0.153804 9:-0.0555923 10:0.184295 11:-0.131632 12:0.122249 13:0.0547362 14:0.434098 15:0.0934775 16:0.187012 17:-0.021976 18:-0.0170369 19:0.339139 20:0.0918255 21:0.0223211 22:-0.308731 23:-0.237755 24:0.27461 25:0.0723814 26:-0.00461301 
0.125 0 1:0.051964 2:0.834048 3:0.0591247 4:-0.233131 5:-0.580535 6:0.211904 7:0.423061 8:0.266604 9:-0.0311104 10:-0.0311955 11:-0.0117758 12:0.0660071 13:0.28977 14:-0.119937 15:-0.644186 16:-0.593265 17:-0.104895 18:0.509826 19:-0.0716711 20:-0.372227 21:0.0488935 22:-0.132952 23:0.200619 24:0.0581169 25:-0.00280973 26:-0.0181029 
0.125 0 1:-0.500227 2:0.126129 3:-0.257574 4:-0.216833 5:0.030964 6:-0.0553411 7:-0.0566462 8:0.307035 9:0.0671972 10:0.0557245 11:0.106746 12:-0.0207531 13:-0.177748 14:0.163397 15:-0.0242502 16:-0.174311 17:0.0703604 18:-0.255971 19:-0.0861574 20:0.239222 21:-0.0481312 22:-0.428976 23:-0.0454236 24:0.042534 25:0.458851 26:0.00673307 
0.125 0.125 1:-0.578963 2:0.214444 3:-0.140386 4:-0.14754 5:0.0156146 6:-0.0304439 7:-0.0457557 8:0.219191 9:-0.00348308 10:-0.0450909 11:0.077222 12:0.300102 13:-0.101112 14:0.209259 15:-0.175178 16:-0.266955 17:0.0687342 18:-0.208513 19:-0.0652719 20:0.255592 21:-0.229639 22:-0.304986 23:0.0776972 24:0.0452262 25:0.0221616 26:-0.0052431 
0.125 0 1:-0.604876 2:0.297027 3:-0.11545 4:-0.187962 5:-0.0442907 6:0.0162397 7:0.156798 8:0.179894 9:-0.282203 10:0.0164191 11:0.116288 12:0.431473 13:0.1296 14:0.25829 15:-0.262638 16:-0.313892 17:-0.00395685 18:-0.0898345 19:-0.0708118 20:-0.109156 21:-0.160522 22:0.0357575 23:0.0863446 24:-0.0172024 25:-0.299452 26:-0.0109956 
0.125 0 1:-0.636676 2:0.255646 3:-0.170315 4:-0.151393 5:0.00734958 6:0.00508019 7:0.208459 8:0.182865 9:-0.250156 10:0.068146 11:0.180699 12:0.349211 13:0.0664415 14:0.366058 15:-0.230361 16:-0.29238 17:-0.0119302 18:-0.0698822 19:-0.075449 20:-0.385713 21:0.0942126 22:0.126327 23:0.0553117 24:-0.149448 25:-0.224584 26:-0.00747924 
0.125 0 1:-0.66857 2:0.253108 3:-0.185519 4:-0.184732 5:-0.0465267 6:-0.0181316 7:0.184578 8:-0.00365306 9:-0.0248466 10:0.0931413 11:0.0428627 12:0.246945 13:0.0607674 14:0.52594 15:-0.220545 16:-0.290517 17:0.109733 18:-0.104391 19:-0.075436 20:-0.375802 21:0.450338 22:-0.125843 23:0.0768694 24:-0.0680562 25:0.156052 26:-0.00691696 
0.125 0.125 1:-0.664735 2:0.251074 3:-0.188813 4:-0.177547 5:0.00212356 6:0.114156 7:0.207402 8:-0.142487 9:0.165272 10:-0.0452339 11:-0.0705819 12:-0.111901 13:0.0382384 14:0.617427 15:-0.214949 16:-0.290464 17:0.212242 18:-0.187311 19:-0.156547 20:-0.236827 21:0.557992 22:-0.450967 23:0.200071 24:0.0814621 25:0.499794 26:-0.00978083 
0.125 0 1:-0.0341305 2:0.180876 3:-0.471404 4:0.0699819 5:-0.348269 6:0.0298881 7:0.0633244 8:0.311902 9:-0.114733 10:0.26244 11:0.0337872 12:0.377612 13:-0.0180605 14:-0.0686068 15:0.175852 16:0.146455 17:-0.354368 18:0.318323 19:-0.128654 20:-0.506674 21:-0.253801 22:0.115761 23:-0.108724 24:0.140946 25:-0.124889 26:0.0031982 
0.125 0 1:0.112081 2:0.278853 3:-0.464761 4:0.080462 5:-0.394503 6:-0.0913713 7:-0.0864302 8:0.36328 9:-0.212343 10:0.16625 11:-0.122858 12:0.135846 13:-0.220181 14:-0.120834 15:0.150741 16:0.126672 17:-0.460889 18:0.259233 19:0.153347 20:-0.466185 21:-0.267757 22:0.235904 23:-0.134466 24:0.153094 25:-0.0104071 26:0.015539 
0.125 0 1:0.392382 2:0.668118 3:-0.478703 4:-0.468039 5:-0.450641 6:0.00707702 7:-0.767923 8:0.286374 9:-0.0992952 10:0.19631 11:0.180252 12:-0.172845 13:0.155321 14:-0.0350576 15:-0.17784 16:0.133742 17:0.300695 18:0.260244 19:0.0320525 20:0.0574841 21:-0.0759335 22:0.104457 23:-0.098136 24:-0.15628 25:0.235762 26:0.00102772 
0.125 0 1:0.369019 2:0.669945 3:-0.384184 4:-0.402266 5:-0.432851 6:0.130356 7:-0.773076 8:0.292302 9:-0.097459 10:0.125691 11:0.203543 12:-0.150716 13:0.11503 14:-0.0557234 15:-0.225471 16:-0.0282067 17:0.237199 18:0.197222 19:-0.245916 20:0.0793366 21:-0.052175 22:0.106432 23:-0.148515 24:-0.168293 25:0.146576 26:-0.00279035 
0.125 0 1:0.328576 2:0.690066 3:-0.317645 4:-0.328121 5:-0.370312 6:0.188794 7:-0.682095 8:0.217163 9:-0.0638707 10:0.132402 11:0.117112 12:-0.201833 13:0.237321 14:-0.0304037 15:-0.238312 16:-0.192563 17:0.0954809 18:0.0781108 19:-0.428733 20:-0.00225229 21:-0.0079986 22:-0.0444645 23:-0.096738 24:-0.0938413 25:0.041938 26:-0.00755973 
0.125 0 1:0.212249 2:0.719809 3:-0.218059 4:-0.262048 5:-0.230356 6:0.222203 7:-0.469022 8:0.105657 9:-0.000568127 10:0.0976614 11:-0.084752 12:-0.292702 13:0.352589 14:0.0794484 15:-0.237139 16:-0.298358 17:-0.0553085 18:-0.106871 19:-0.45673 20:-0.156218 21:0.0720171 22:-0.29218 23:0.0508425 24:0.0611919 25:0.0245034 26:-0.00609941 
0.125 0 1:0.0730045 2:0.684667 3:-0.129328 4:-0.191136 5:-0.131489 6:0.147065 7:-0.466181 8:0.101684 9:0.285742 10:-0.0148093 11:-0.0989247 12:-0.146927 13:0.209777 14:0.198593 15:-0.247414 16:-0.313705 17:-0.151451 18:-0.304305 19:-0.30612 20:-0.223025 21:0.144589 22:-0.5457 23:0.202218 24:0.110714 25:0.018091 26:0.00153518 
0.125 0 1:-0.013217 2:0.657405 3:-0.176182 4:-0.127874 5:-0.129202 6:-0.083689 7:-0.426587 8:0.159248 9:0.111427 10:-0.113296 11:0.0864954 12:-0.414858 13:0.109582 14:0.245623 15:-0.31911 16:-0.24608 17:-0.158903 18:-0.267199 19:0.0123949 20:-0.201524 21:0.200595 22:-0.416435 23:0.254842 24:0.048384 25:0.275839 26:0.00428615 
0.125 0 1:-0.0498204 2:0.672501 3:-0.200118 4:-0.145669 5:-0.202635 6:-0.0652777 7:-0.391539 8:-0.0278288 9:-0.0639158 10:-0.0237159 11:-0.142257 12:-0.533987 13:0.325003 14:0.27785 15:-0.429113 16:-0.267236 17:-0.0554139 18:-0.0422768 19:0.138905 20:-0.0598331 21:0.255685 22:-0.0691613 23:0.222065 24:0.0228707 25:0.424124 26:-0.00630477 
0.125 0.125 1:-0.0810496 2:0.656188 3:-0.129843 4:-0.139983 5:-0.255714 6:-0.149192 7:-0.351102 8:0.0116069 9:-0.191277 10:0.0837122 11:-0.12819 12:-0.404731 13:0.438988 14:0.342831 15:-0.426203 16:-0.387642 17:0.0488126 18:0.210831 19:0.199936 20:0.0701771 21:0.170741 22:0.227537 23:0.155988 24:-0.0626438 25:0.300054 26:-0.024055 
0.125 0 1:-0.154831 2:0.54134 3:-0.0894064 4:-0.119776 5:-0.392888 6:-0.200365 7:-0.335097 8:0.190491 9:-0.226527 10:0.0569407 11:-0.0495176 12:-0.441774 13:0.45261 14:0.421621 15:-0.173557 16:-0.400214 17:0.0824385 18:0.398372 19:0.21175 20:0.0863175 21:-0.026473 22:0.230423 23:0.137983 24:-0.0168143 25:0.151011 26:-0.0325915 
0.125 0 1:-0.222276 2:0.351297 3:-0.207786 4:-0.107779 5:-0.227357 6:-0.111088 7:-0.294817 8:0.203693 9:-0.0846126 10:0.0171009 11:-0.0193885 12:-0.163001 13:0.306482 14:0.434809 15:0.257333 16:-0.159197 17:-0.0601708 18:0.313646 19:0.294988 20:-0.0673264 21:-0.18006 22:-0.0446466 23:0.073576 24:0.137545 25:-0.0393882 26:-0.0224586 
0.125 0.125 1:-0.0513334 2:0.229471 3:-0.37991 4:0.0363452 5:-0.218765 6:-0.195308 7:-0.0239129 8:0.112241 9:0.0851448 10:0.255066 11:-0.240591 12:-0.265495 13:0.0886408 14:0.277104 15:0.53705 16:0.170828 17:-0.30313 18:0.149046 19:0.481114 20:-0.315674 21:-0.214776 22:-0.305776 23:-0.14157 24:0.322666 25:0.0854683 26:-0.00249765 
0.125 0.125 1:0.0897792 2:0.278261 3:-0.479387 4:0.0498222 5:-0.174597 6:-0.115459 7:0.0365159 8:0.161335 9:0.0798015 10:0.333398 11:-0.276619 12:-0.470232 13:-0.282085 14:0.0680413 15:0.441674 16:0.333065 17:-0.389287 18:-0.0585939 19:0.421462 20:-0.317561 21:-0.126202 22:-0.350308 23:-0.345347 24:0.394379 25:0.33654 26:0.015181 
0.125 0 1:0.107815 2:0.499517 3:-0.352844 4:0.0345489 5:-0.0327012 6:0.0356395 7:0.0294024 8:0.0929171 9:-0.0889515 10:0.331167 11:0.104708 12:-0.273002 13:-0.238911 14:-0.0774948 15:0.0148256 16:0.191288 17:-0.238751 18:-0.232923 19:0.0926248 20:-0.0911857 21:0.0729713 22:-0.212473 23:-0.399398 24:0.09819 25:0.359069 26:0.0207394 
0.125 0.125 1:0.155604 2:0.720797 3:-0.194867 4:-0.21217 5:-0.0425765 6:0.405442 7:-0.166188 8:-0.0276716 9:-0.00754866 10:0.215561 11:0.25459 12:-0.146299 13:-0.222378 14:-0.153508 15:-0.452212 16:-0.0657137 17:0.170197 18:-0.0759651 19:-0.418341 20:0.162156 21:0.265751 22:-0.0904237 23:-0.205942 24:-0.323619 25:0.226425 26:0.0207629 
0.125 0.125 1:0.189386 2:0.774952 3:-0.220871 4:-0.260573 5:-0.116312 6:0.526064 7:-0.0631342 8:-0.0475826 9:-0.08514 10:0.133804 11:0.304635 12:-0.0861316 13:-0.303864 14:-0.138644 15:-0.685957 16:-0.207486 17:0.446204 18:0.164398 19:-0.785151 20:0.0532173 21:0.301269 22:-0.00282273 23:0.0639592 24:-0.536712 25:-0.00469011 26:0.0148763 
0.125 0.125 1:0.142834 2:0.811031 3:-0.182952 4:-0.262166 5:-0.185566 6:0.534784 7:0.225034 8:-0.0159171 9:-0.0684876 10:-0.0017832 11:0.442164 12:0.0860967 13:-0.232183 14:-0.0708415 15:-0.665004 16:-0.261419 17:0.408507 18:0.302122 19:-0.804498 20:-0.328945 21:0.277788 22:-0.0479882 23:0.112857 24:-0.476642 25:-0.164035 26:0.00230446 
0 0.125 1:-0.0546006 2:0.683524 3:-0.0576861 4:0.0626757 5:0.109761 6:0.355008 7:0.24243 8:0.175517 9:-9.34893e-005 10:0.0177781 11:-0.0878825 12:0.0467084 13:0.211164 14:0.142225 15:-0.245187 16:-0.250275 17:-0.189033 18:0.022772 19:-0.152505 20:-0.407101 21:-0.0563827 22:-0.214627 23:-0.00786095 24:0.117123 25:-0.124672 26:-0.0148272 
0.125 0 1:-0.10978 2:0.574621 3:-0.116515 4:0.0776047 5:0.0904858 6:0.140797 7:-0.0032776 8:0.0778227 9:0.0104061 10:0.000454588 11:0.114705 12:0.0827795 13:0.0317651 14:0.205133 15:-0.134752 16:-0.231363 17:-0.326191 18:-0.0762885 19:0.110647 20:0.00448924 21:-0.182258 22:-0.259765 23:0.115116 24:0.16749 25:-0.0509781 26:-0.00710237 
0.125 0.125 1:-0.158376 2:0.552145 3:-0.114357 4:0.0135608 5:-0.0511602 6:0.0471837 7:0.00187291 8:0.300237 9:-0.0711729 10:-0.360273 11:0.0310236 12:0.0971629 13:0.00563291 14:0.264036 15:-0.15662 16:-0.189599 17:-0.30237 18:0.0176879 19:0.25207 20:0.270904 21:-0.378935 22:-0.202319 23:0.294245 24:0.146745 25:-0.0103529 26:0.000442626 
0.125 0.125 1:-0.220238 2:0.557435 3:-0.075824 4:0.104708 5:0.174059 6:0.154543 7:0.0454651 8:0.287189 9:-0.107263 10:-0.325874 11:-0.137865 12:-0.14196 13:0.17952 14:0.371103 15:-0.0841012 16:-0.15999 17:-0.29544 18:-0.059652 19:0.165219 20:0.197045 21:-0.384081 22:-0.0225595 23:0.341473 24:0.192012 25:0.147802 26:-0.00224995 
0.125 0 1:-0.281767 2:0.463249 3:-0.113503 4:0.0172279 5:0.0909759 6:-0.0468956 7:0.0645312 8:0.0833487 9:-0.151707 10:-0.0139985 11:0.0747771 12:-0.0570186 13:0.210769 14:0.511855 15:0.12393 16:-0.185701 17:-0.187366 18:-0.108017 19:0.176482 20:-0.0695879 21:-0.227633 22:0.176305 23:0.215551 24:0.150236 25:0.278033 26:-0.0120415 
0.125 0.125 1:-0.261081 2:0.376611 3:-0.181549 4:-0.08882 5:0.126268 6:0.00477369 7:0.200858 8:-0.0209014 9:-0.167473 10:-0.0842862 11:0.0274609 12:-0.111055 13:0.30504 14:0.563422 15:0.286135 16:-0.247688 17:-0.0648353 18:-0.279141 19:0.078526 20:-0.387646 21:-0.0421684 22:0.224444 23:0.211664 24:0.14113 25:0.442061 26:-0.0209204 
0.125 0.125 1:-0.152819 2:0.287319 3:-0.14693 4:-0.10374 5:0.225238 6:0.144567 7:0.32965 8:-0.110232 9:-0.194964 10:-0.281774 11:-0.0895483 12:-0.336786 13:0.259235 14:0.442309 15:0.235794 16:-0.307137 17:0.0482332 18:-0.314899 19:-0.024141 20:-0.562429 21:0.164775 22:0.0875168 23:0.232604 24:-0.0515066 25:0.482659 26:-0.0183309 
0.125 0.125 1:0.0204895 2:0.643154 3:-0.136394 4:-0.294817 5:-0.0415573 6:-0.0307447 7:0.108216 8:-0.189868 9:0.176244 10:0.0958759 11:0.386589 12:-0.0345632 13:0.142036 14:0.186682 15:-0.175027 16:-0.261815 17:0.189156 18:-0.0239729 19:-0.0279233 20:-0.476618 21:0.256627 22:-0.222046 23:0.0265381 24:-0.396479 25:0.213797 26:-0.0098558 
0.125 0.125 1:0.24523 2:0.75965 3:-0.322486 4:-0.246975 5:-0.136615 6:0.115601 7:0.0326702 8:-0.337468 9:0.272773 10:0.183451 11:0.263839 12:0.163199 13:-0.0352805 14:-0.0729746 15:-0.506711 16:-0.047889 17:0.172346 18:0.208863 19:-0.153783 20:-0.273896 21:0.33356 22:-0.374824 23:-0.212686 24:-0.409322 25:-0.00985031 26:-0.00165985 
0.125 0.125 1:0.35874 2:0.71719 3:-0.428224 4:-0.239336 5:-0.22371 6:0.103008 7:-0.133429 8:-0.341881 9:0.220107 10:0.298011 11:0.135797 12:0.174123 13:-0.0415479 14:-0.187198 15:-0.56434 16:0.164589 17:0.143238 18:0.391592 19:-0.096513 20:-0.018741 21:0.356309 22:-0.357042 23:-0.409347 24:-0.243896 25:-0.0887156 26:0.00259726 
0.125 0.125 1:0.394616 2:0.68284 3:-0.434592 4:-0.276637 5:-0.255325 6:0.070456 7:-0.323009 8:-0.304592 9:0.186523 10:0.285971 11:-0.0556052 12:0.137505 13:-0.110159 14:-0.184269 15:-0.428548 16:0.246542 17:0.113198 18:0.391835 19:-0.0127969 20:0.138283 21:0.276078 22:-0.280554 23:-0.327926 24:0.0643568 25:-0.0279608 26:0.00674044 
0.125 0.125 1:0.402424 2:0.658474 3:-0.391546 4:-0.261928 5:-0.23804 6:0.0252048 7:-0.415087 8:-0.284594 9:0.23497 10:0.160931 11:-0.141739 12:0.16379 13:-0.215786 14:-0.158858 15:-0.263192 16:0.147474 17:0.0455169 18:0.230038 19:-0.0320844 20:0.201817 21:0.107544 22:-0.336477 23:-0.115696 24:0.268488 25:-0.0261498 26:0.00858151 
0.125 0.125 1:0.422819 2:0.613762 3:-0.333571 4:-0.181763 5:-0.193295 6:0.0391565 7:-0.392479 8:-0.227763 9:0.28893 10:0.0951565 11:-0.148385 12:0.228709 13:-0.223586 14:-0.0875678 15:-0.264827 16:-0.0877369 17:0.0127074 18:0.0581613 19:-0.0709178 20:0.227515 21:0.0323991 22:-0.501649 23:-0.00620539 24:0.182697 25:-0.175884 26:0.00263183 
0.125 0.125 1:0.409604 2:0.573697 3:-0.269335 4:-0.150109 5:-0.165761 6:0.12237 7:-0.46765 8:-0.13565 9:0.166576 10:0.14156 11:-0.12021 12:0.285046 13:-0.18434 14:0.0164521 15:-0.290702 16:-0.264616 17:-0.0215265 18:-0.0794964 19:-0.176651 20:0.24341 21:0.0785957 22:-0.487733 23:0.0446568 24:0.0796221 25:-0.224042 26:-0.00431694 
0.125 0.125 1:0.300263 2:0.539066 3:-0.209699 4:-0.164219 5:-0.161082 6:0.11636 7:-0.51747 8:-0.145024 9:0.0862139 10:0.111562 11:-0.0703382 12:0.236222 13:-0.019571 14:0.121124 15:-0.239334 16:-0.291724 17:-0.0467566 18:-0.0818552 19:-0.190435 20:0.148793 21:0.152403 22:-0.279037 23:0.01851 24:0.0521682 25:-0.0344663 26:-0.00661035 
0.125 0.125 1:0.143015 2:0.423426 3:-0.184807 4:-0.129754 5:-0.165296 6:-0.048969 7:-0.304632 8:-0.243613 9:-0.310984 10:-0.122012 11:-0.135204 12:-0.13165 13:-0.114976 14:0.152237 15:-0.105291 16:-0.195128 17:-0.0735327 18:0.0922364 19:-0.111576 20:-0.114341 21:0.0995595 22:0.102326 23:0.107114 24:0.0882154 25:0.336171 26:0.00206423 
0.125 0.125 1:0.252522 2:0.301697 3:-0.297751 4:-0.05348 5:-0.275119 6:-0.0374156 7:-0.24467 8:0.0502509 9:-0.44429 10:0.00307667 11:-0.16421 12:-0.208994 13:-0.345335 14:0.0162134 15:0.0220286 16:-0.0351762 17:-0.101242 18:0.296447 19:-0.0904027 20:-0.203069 21:-0.209595 22:0.302031 23:0.100973 24:0.0716745 25:0.471155 26:0.0145152 
0.125 0.125 1:0.23963 2:0.286653 3:-0.27683 4:-0.0646674 5:-0.299699 6:-0.0143061 7:-0.143599 8:0.146236 9:-0.421277 10:0.0368919 11:-0.0313175 12:-0.0253128 13:-0.201285 14:-0.0819303 15:0.0498722 16:-0.00533441 17:-0.11417 18:0.287592 19:-0.0381236 20:-0.159878 21:-0.363566 22:0.325946 23:0.132568 24:-0.0325718 25:0.265562 26:0.0154623 
0.125 0.125 1:0.0652262 2:0.296866 3:-0.153785 4:-0.110999 5:-0.21578 6:-0.0995134 7:-0.27264 8:0.0756839 9:-0.431801 10:-0.214734 11:0.112482 12:0.00743176 13:0.0902557 14:-0.0262763 15:0.0115549 16:-0.0807707 17:-0.0793307 18:0.188875 19:0.108441 20:0.0653595 21:-0.178455 22:0.286156 23:0.238699 24:-0.159115 25:-0.000127814 26:0.00477132 
0.125 0.125 1:-0.0761166 2:0.281897 3:-0.136098 4:-0.0925895 5:-0.0126318 6:-0.209207 7:-0.378354 8:-0.0829997 9:-0.375228 10:-0.0172158 11:0.00823828 12:0.0222359 13:0.144621 14:0.120816 15:-0.0445144 16:-0.144318 17:-0.0631936 18:0.0285206 19:0.284973 20:0.232348 21:0.198085 22:0.185359 23:0.231778 24:-0.0799644 25:-0.0601872 26:-0.00759521 
0.125 0.125 1:-0.199708 2:0.292621 3:-0.137417 4:-0.0726438 5:-0.0674878 6:-0.231321 7:0.00525238 8:-0.160231 9:-0.351544 10:-0.0302863 11:-0.0208407 12:-0.0340773 13:0.253456 14:0.264693 15:-0.102101 16:-0.175432 17:-0.0538277 18:-0.00844026 19:0.351839 20:0.0541671 21:0.394234 22:0.0451947 23:0.303427 24:0.113476 25:0.168943 26:-0.0149795 
0.125 0 1:-0.287965 2:0.314449 3:-0.129702 4:-0.158169 5:-0.205631 6:-0.0955305 7:0.0413628 8:-0.0559777 9:-0.0902316 10:0.0275143 11:0.0483292 12:-0.172787 13:0.435747 14:0.281661 15:-0.18235 16:-0.156724 17:-0.00146931 18:0.00791999 19:0.0999354 20:-0.107684 21:0.215439 22:-0.255525 23:0.171083 24:0.21267 25:0.45129 26:-0.016758 
0.125 0.125 1:-0.342962 2:0.363859 3:-0.0456129 4:-0.126459 5:0.0975931 6:0.0299402 7:0.123134 8:0.156889 9:0.0679308 10:0.123718 11:-0.0537234 12:-0.195813 13:0.423938 14:0.238408 15:-0.278765 16:-0.200054 17:0.00213778 18:-0.189279 19:-0.268253 20:-0.277394 21:-0.14167 22:-0.554977 23:-0.149144 24:0.117141 25:0.433548 26:-0.01928 
0.125 0.125 1:-0.398789 2:0.383958 3:-0.0500487 4:-0.179148 5:0.0572411 6:0.102963 7:0.257633 8:0.176044 9:0.172229 10:0.321602 11:0.227604 12:0.07295 13:0.385952 14:0.211253 15:-0.341844 16:-0.240491 17:0.0427106 18:-0.181125 19:-0.435134 20:-0.398309 21:-0.276253 22:-0.661702 23:-0.379048 24:-0.247354 25:0.0608826 26:-0.0219022 
0.125 0 1:-0.463527 2:0.365669 3:-0.065119 4:-0.178496 5:-0.0357532 6:0.132537 7:0.294484 8:0.0162731 9:0.0294515 10:0.439826 11:0.412919 12:0.20016 13:0.453297 14:0.196325 15:-0.321924 16:-0.217511 17:0.0798071 18:-0.022462 19:-0.35509 20:-0.343505 21:-0.0984535 22:-0.399203 23:-0.387817 24:-0.479289 25:-0.274821 26:-0.0169022 
0.125 0 1:-0.507502 2:0.287986 3:-0.0460431 4:-0.126142 5:-0.0960347 6:-0.0479177 7:0.317386 8:0.0965212 9:-0.0943643 10:0.273887 11:0.301613 12:0.307665 13:0.37958 14:0.292467 15:-0.226854 16:-0.341623 17:0.0971235 18:0.0290894 19:-0.0880181 20:-0.24832 21:0.131704 22:-0.0679105 23:-0.0298846 24:-0.250123 25:-0.444184 26:0.000337288 
0.125 0 1:-0.519746 2:0.280398 3:-0.102241 4:-0.20438 5:-0.233599 6:-0.123832 7:0.257418 8:-0.00879652 9:-0.270369 10:0.00975958 11:0.0895334 12:0.147765 13:0.00882151 14:0.452991 15:-0.137241 16:-0.406567 17:0.18033 18:-0.00835804 19:0.0923113 20:-0.0428473 21:0.313045 22:0.0899564 23:0.343813 24:0.1728 25:-0.326488 26:0.0214625 
0.125 0 1:-0.555118 2:0.219166 3:-0.117551 4:-0.140029 5:-0.0635697 6:-0.00784341 7:0.0935947 8:0.022032 9:-0.305159 10:0.140641 11:-0.0656877 12:-0.11835 13:-0.0261816 14:0.558225 15:-0.0826273 16:-0.332831 17:0.170287 18:-0.327973 19:0.113912 20:0.123002 21:0.2183 22:0.0304075 23:0.395132 24:0.484422 25:0.0145729 26:0.0292238 
0.125 0 1:-0.600178 2:0.187269 3:-0.0782076 4:-0.0202249 5:0.00912571 6:-0.072085 7:0.256752 8:0.119814 9:-0.0116981 10:0.308335 11:-0.064547 12:-0.0445207 13:0.20568 14:0.48812 15:-0.113241 16:-0.0782067 17:0.0979407 18:-0.365821 19:0.165901 20:-0.0156341 21:-0.0438414 22:-0.0807528 23:0.18405 24:0.314604 25:0.400013 26:0.0155093 
0.125 0 1:-0.0616535 2:0.211635 3:-0.471524 4:0.128646 5:-0.582971 6:-0.0401572 7:0.355569 8:0.243206 9:-0.35979 10:0.360781 11:0.418672 12:-0.503696 13:0.563346 14:-0.0865859 15:-0.0969149 16:0.44927 17:-0.0103064 18:0.585279 19:0.197324 20:-0.323852 21:-0.0666684 22:0.324245 23:-0.243143 24:-0.49162 25:0.69041 26:-0.03162 
0.125 0 1:0.105194 2:0.307332 3:0.0120802 4:0.290752 5:-0.684954 6:0.408369 7:-0.00431005 8:0.073558 9:0.384001 10:0.199395 11:0.0823758 12:0.0415882 13:0.112996 14:0.0041054 15:-0.305183 16:-0.214884 17:0.0329574 18:0.1686 19:-0.00375184 20:0.0414511 21:-0.210101 22:-0.457513 23:0.118205 24:0.102198 25:0.134401 26:0.00748722 
0.125 0 1:0.0883092 2:0.295717 3:0.0232789 4:0.189916 5:-0.782497 6:0.414897 7:-0.0108084 8:0.125397 9:0.292166 10:0.0622856 11:0.0515542 12:-0.00934063 13:0.0602565 14:0.038606 15:-0.252863 16:-0.225023 17:0.192106 18:0.396323 19:0.00249058 20:0.0876523 21:-0.0457988 22:-0.206273 23:0.202369 24:0.135707 25:0.274767 26:0.00482737 
0.125 0 1:0.0511742 2:0.294396 3:0.0743008 4:0.32827 5:-0.652517 6:0.478465 7:-0.0243008 8:0.120888 9:0.368827 10:0.0512021 11:-0.0205794 12:0.0151624 13:0.0673945 14:0.112155 15:-0.160289 16:-0.276886 17:0.10939 18:0.278615 19:-0.109422 20:0.142993 21:0.259401 22:-0.0562554 23:0.19151 24:0.21237 25:0.209298 26:0.000769073 
0.125 0 1:0.0383381 2:0.309388 3:0.149427 4:0.420059 5:-0.5232 6:0.734068 7:-0.128863 8:-0.197121 9:0.242473 10:0.0541967 11:0.0784845 12:0.0869639 13:-0.0287001 14:0.153246 15:-0.145402 16:-0.311057 17:-0.0751826 18:-0.0196881 19:-0.280735 20:0.132729 21:0.526329 22:0.0377126 23:0.200751 24:0.20729 25:0.196694 26:0.000284209 
0.125 0 1:0.0466135 2:0.312806 3:0.140513 4:0.3921 5:-0.541696 6:0.716214 7:-0.0255429 8:-0.177862 9:0.242017 10:0.00256584 11:0.209771 12:0.0336766 13:-0.0474225 14:0.156307 15:-0.157897 16:-0.269977 17:-0.132197 18:-0.157739 19:-0.257324 20:0.0451655 21:0.475756 22:0.00116826 23:0.184282 24:0.0215105 25:0.177405 26:1.99427e-005 
0.125 0 1:0.0283043 2:0.345254 3:0.0422632 4:0.371466 5:-0.614024 6:0.679343 7:0.115227 8:0.173792 9:0.441054 10:0.0492103 11:0.35958 12:0.220325 13:-0.0825794 14:0.166446 15:-0.167934 16:-0.0726639 17:0.0736373 18:0.0587071 19:-0.0939658 20:-0.154268 21:-0.17139 22:-0.284766 23:0.0650937 24:-0.31411 25:0.0322675 26:0.00624289 
0.125 0 1:-0.502362 2:0.334272 3:-0.0852104 4:0.0768135 5:0.0760043 6:0.232654 7:0.403548 8:0.345517 9:0.1613 10:0.340573 11:0.0417818 12:0.00815777 13:-0.039922 14:0.614752 15:-0.275376 16:-0.211265 17:-0.0448035 18:0.0625687 19:-0.247106 20:-0.546826 21:0.0472589 22:-0.287577 23:0.150831 24:0.30326 25:0.197576 26:-0.0124871 
0.125 0.125 1:0.0339281 2:0.111964 3:-0.190508 4:-0.0368013 5:0.0885828 6:-0.0496832 7:-0.189578 8:0.407367 9:-0.201982 10:0.581568 11:0.244586 12:0.0304566 13:-0.328829 14:-0.111354 15:0.303537 16:-0.144663 17:0.0671161 18:0.18528 19:0.451564 20:0.0569732 21:-0.160173 22:0.236436 23:-0.483297 24:-0.229218 25:0.0721172 26:0.0169759 
0.125 0.125 1:0.153393 2:0.173563 3:-0.191447 4:0.0656447 5:0.130016 6:-0.0775345 7:-0.303418 8:0.382464 9:-0.0303936 10:0.635252 11:0.244691 12:0.335855 13:-0.311554 14:-0.311934 15:0.291998 16:-0.0455435 17:-0.0837844 18:0.0840171 19:0.481332 20:0.448188 21:-0.267652 22:-0.00596846 23:-0.486875 24:-0.246913 25:-0.274193 26:0.0167325 
0.125 0.125 1:0.162351 2:0.371028 3:-0.299922 4:0.0857207 5:0.22939 6:0.0613132 7:-0.335959 8:0.251372 9:-0.0007599 10:0.376329 11:-0.122916 12:0.32032 13:-0.185466 14:-0.24012 15:0.0587159 16:0.041154 17:-0.21453 18:-0.252143 19:0.237121 20:0.615806 21:-0.207711 22:-0.284163 23:-0.258263 24:0.041779 25:-0.238643 26:0.00537564 
0.125 0.125 1:0.173117 2:0.511712 3:-0.344269 4:0.0591296 5:0.294336 6:0.299087 7:-0.375258 8:0.1852 9:0.0905384 10:0.206278 11:-0.111527 12:0.0403861 13:-0.0583011 14:-0.0236827 15:-0.239173 16:0.0381919 17:-0.223266 18:-0.525232 19:-0.0792604 20:0.569103 21:-0.100493 22:-0.425523 23:0.0176016 24:0.279532 25:0.117809 26:-0.0111036 
0.125 0.125 1:0.0883737 2:0.541587 3:-0.257914 4:-0.00150779 5:0.34008 6:0.383696 7:-0.366384 8:0.16186 9:0.1613 10:0.122938 11:-0.0638712 12:-0.102281 13:-4.66892e-005 14:0.136784 15:-0.387794 16:-0.0388621 17:-0.14886 18:-0.553227 19:-0.272825 20:0.35693 21:0.0461512 22:-0.427499 23:0.165088 24:0.364777 25:0.5353 26:-0.00985856 
0.125 0.125 1:0.0759165 2:0.662414 3:-0.190954 4:-0.0484354 5:0.14945 6:0.404553 7:-0.0973954 8:-0.101831 9:0.00401525 10:0.177173 11:0.0539817 12:-0.180629 13:-0.270275 14:0.124918 15:-0.381156 16:-0.0668938 17:-0.0329934 18:-0.219956 19:-0.357963 20:0.00373285 21:0.43291 22:-0.199608 23:0.158355 24:0.0851016 25:0.673512 26:0.00682246 
0.125 0.125 1:0.17981 2:0.701618 3:-0.25681 4:-0.169208 5:-0.28808 6:0.525083 7:0.284101 8:-0.226229 9:-0.143302 10:-0.125035 11:0.259776 12:0.262908 13:-0.0950043 14:-0.0658642 15:-0.291234 16:0.00411473 17:0.220749 18:0.658292 19:-0.44882 20:-0.523796 21:0.705997 22:0.0869498 23:0.178902 24:-0.4608 25:-0.191265 26:0.00468102 
0.125 0.125 1:0.0396424 2:0.68122 3:-0.164638 4:-0.214544 5:-0.292073 6:0.540438 7:0.282631 8:-0.0502187 9:-0.14301 10:-0.0587684 11:0.390558 12:0.344439 13:0.0582379 14:-0.0350576 15:-0.333538 16:-0.0748646 17:0.278099 18:0.738678 19:-0.447543 20:-0.522185 21:0.327105 22:0.0101897 23:0.111143 24:-0.460712 25:-0.433115 26:-0.0100178 
0 0.125 1:-0.181904 2:0.629322 3:-0.0453097 4:0.0132164 5:0.0186551 6:0.149456 7:0.128293 8:0.340858 9:-0.0812149 10:-0.186053 11:-0.223104 12:-0.117156 13:0.112187 14:0.211255 15:-0.290352 16:-0.356427 17:-0.211416 18:-0.166339 19:0.108412 20:-0.0480392 21:-0.465969 22:-0.180268 23:0.283804 24:0.294775 25:0.273861 26:-0.00505758 
0.125 0 1:-0.0458645 2:0.724519 3:-0.34472 4:-0.443774 5:-0.432577 6:-0.057764 7:0.189358 8:0.0880881 9:-0.230768 10:0.263007 11:-0.0874956 12:-0.121885 13:0.279476 14:-0.082726 15:-0.354399 16:0.0268329 17:0.283762 18:0.201504 19:0.0849832 20:0.0706066 21:0.179823 22:0.0443837 23:-0.350204 24:-0.00798814 25:0.238706 26:-0.0128046 
0.125 0 1:0.168085 2:0.834128 3:-0.160463 4:-0.383298 5:-0.460834 6:0.458374 7:0.210223 8:-0.0898267 9:-0.147392 10:-0.140055 11:0.0837548 12:0.416458 13:-0.201038 14:0.0505583 15:-0.311821 16:-0.353827 17:0.132443 18:0.199954 19:-0.590418 20:-0.472445 21:0.327908 22:-0.0641635 23:0.240351 24:0.0492273 25:-0.120058 26:0.014863 
0.125 0 1:0.206225 2:0.809652 3:-0.211407 4:-0.328976 5:-0.343411 6:0.526983 7:0.102701 8:-0.189603 9:-0.207357 10:-0.059612 11:0.184762 12:0.385846 13:-0.290791 14:0.0517772 15:-0.245504 16:-0.309134 17:0.0703604 18:0.00288576 19:-0.674352 20:-0.367425 21:0.492817 22:-0.0201113 23:0.241531 24:-0.0635329 25:-0.046509 26:0.0229188 
0.125 0 1:0.0415622 2:0.504164 3:-0.330813 4:0.187301 5:0.0297977 6:0.0611753 7:-0.0695724 8:0.233891 9:0.0131125 10:0.540561 11:-0.0744184 12:-0.301635 13:0.0166928 14:0.409516 15:-0.0486457 16:-0.310327 17:-0.6924 18:-0.174844 19:-0.228819 20:-0.845024 21:0.331589 22:-0.269158 23:-0.113392 24:0.0875362 25:0.763957 26:0.00352086 
0.125 0 1:0.333326 2:0.399208 3:-0.58509 4:-0.593641 5:-0.0416582 6:-0.578521 7:-0.51943 8:0.67522 9:-0.153378 10:0.392727 11:0.137714 12:0.233469 13:0.180218 14:0.0834049 15:-0.0936712 16:-0.0475741 17:0.147405 18:0.0380877 19:0.0336896 20:-0.0162862 21:0.0848375 22:-0.0984641 23:-0.0346055 24:0.012231 25:0.14485 26:-0.976764 
0.125 0 1:0.322031 2:0.395854 3:-0.593377 4:-0.606169 5:-0.0390185 6:-0.624511 7:-0.493902 8:0.689802 9:-0.0679825 10:0.35986 11:0.201141 12:0.311895 13:0.190168 14:0.104783 15:-0.14203 16:-0.0411004 17:0.186484 18:0.0377588 19:0.00688539 20:0.0765903 21:0.0495879 22:-0.225228 23:0.0108437 24:0.0112219 25:0.032274 26:-0.00902812 
0.125 0 1:0.266813 2:0.361177 3:-0.603017 4:-0.563448 5:-0.128703 6:-0.845449 7:-0.46479 8:0.553944 9:-0.329778 10:0.161281 11:0.152661 12:0.139161 13:-0.0334075 14:0.107846 15:-0.0742624 16:-0.0439083 17:0.139928 18:-0.121051 19:0.279472 20:0.125502 21:0.0968921 22:-0.145267 23:0.301736 24:0.104409 25:0.0462425 26:0.00360544 
0.125 0 1:0.25744 2:0.401989 3:-0.522828 4:-0.386879 5:-0.0902796 6:-0.780134 7:-0.145829 8:0.686034 9:-0.373885 10:0.359694 11:0.322597 12:0.296863 13:-0.0691577 14:0.0911366 15:-0.113661 16:-0.110501 17:-0.0886925 18:-0.109136 19:0.374553 20:-0.154363 21:-0.0404536 22:0.0360736 23:0.212916 24:-0.022823 25:-0.0989753 26:0.0116118 
0.125 0 1:-0.271014 2:0.0682306 3:-0.198444 4:0.100743 5:-0.305971 6:-0.196993 7:0.146062 8:0.120792 9:0.222864 10:0.00819196 11:0.31054 12:-0.0480446 13:0.134236 14:0.377756 15:0.163894 16:-0.0533709 17:0.0983493 18:0.161581 19:0.307194 20:-0.227397 21:0.0847678 22:-0.287503 23:0.284473 24:-0.075928 25:0.495158 26:0.00383197 
0.125 0 1:0.066806 2:0.00613124 3:-0.37912 4:0.222511 5:-0.558867 6:-0.0469814 7:0.224367 8:-0.0395114 9:0.123732 10:0.0834239 11:0.267361 12:0.0880696 13:0.0353163 14:-0.0631047 15:0.336529 16:0.177416 17:-0.145477 18:0.51457 19:0.0942169 20:0.00409494 21:0.348057 22:-0.170194 23:0.148861 24:0.0234546 25:0.387188 26:0.0114379 
0.125 0 1:0.227093 2:0.0535171 3:-0.370799 4:0.286946 5:-0.667669 6:-0.094067 7:0.0046862 8:-0.0175873 9:0.16922 10:0.237286 11:0.118456 12:0.175185 13:0.0451649 14:-0.289097 15:0.329094 16:0.201803 17:-0.234992 18:0.602248 19:-0.0733053 20:0.289576 21:0.372253 22:-0.1709 23:-0.0688767 24:0.167225 25:-0.0064535 26:0.00645091 
0.125 0 1:0.207985 2:0.0799077 3:-0.295193 4:0.348988 5:-0.615207 6:-0.0459209 7:-0.0886322 8:-0.0232478 9:0.263472 10:0.322019 11:0.0451236 12:0.146019 13:0.0630826 14:-0.171013 15:0.16171 16:0.0132355 17:-0.174569 18:0.396 19:-0.247556 20:0.304152 21:0.224022 22:-0.327011 23:-0.221613 24:0.244619 25:-0.250623 26:-0.005329 
0.125 0.125 1:0.061576 2:0.0745198 3:-0.189775 4:0.319047 5:-0.415998 6:0.0720804 7:0.172 8:-0.0138585 9:0.288882 10:0.212996 11:0.166097 12:0.143892 13:0.29627 14:0.136365 15:-0.067522 16:-0.249102 17:-0.0304944 18:0.0659842 19:-0.309211 20:-0.0212157 21:0.111708 22:-0.468697 23:-0.235121 24:0.155352 25:-0.205411 26:-0.0155748 
0.125 0 1:0.0891249 2:0.343163 3:-0.0624674 4:0.361628 5:-0.435619 6:-0.0186672 7:0.407917 8:0.0935616 9:0.254315 10:0.185451 11:0.299221 12:-0.300413 13:0.1978 14:0.276074 15:-0.307803 16:-0.438333 17:-0.0173711 18:-0.0433281 19:-0.218674 20:-0.326935 21:0.12126 22:-0.415473 23:-0.0802375 24:0.0580464 25:0.230534 26:-0.0137861 
0.125 0 1:0.273214 2:0.33086 3:-0.228232 4:0.484122 5:-0.492738 6:-0.16575 7:0.229226 8:-0.0260657 9:-0.161279 10:0.0368732 11:0.272712 12:-0.444422 13:-0.0394606 14:-0.0582459 15:-0.281288 16:-0.125056 17:-0.0754172 18:0.396512 19:0.111285 20:-0.333119 21:0.292529 22:0.238876 23:0.105071 24:0.126044 25:0.54037 26:0.00244334 
0.125 0 1:0.28831 2:0.362814 3:-0.212788 4:0.475121 5:-0.439483 6:-0.136831 7:0.268389 8:0.210584 9:-0.199226 10:0.066787 11:0.403095 12:-0.379445 13:0.0224575 14:-0.186097 15:-0.210685 16:0.0573918 17:-0.164918 18:0.462139 19:0.183303 20:-0.180466 21:0.0374321 22:0.302529 23:0.0515287 24:0.0108285 25:0.462035 26:0.00666946 
0.125 0 1:0.253211 2:0.41551 3:-0.253739 4:0.501871 5:-0.346193 6:-0.139825 7:0.252089 8:0.30071 9:-0.17803 10:-0.000126535 11:0.625923 12:-0.319036 13:-0.0109088 14:-0.145348 15:-0.192987 16:0.134432 17:-0.267762 18:0.230537 19:0.112664 20:-0.0711697 21:-0.233861 22:0.177078 23:0.0998191 24:-0.313104 25:0.188841 26:0.00520873 
0.125 0 1:0.178682 2:0.457189 3:-0.261149 4:0.576385 5:-0.131562 6:-0.0977373 7:0.123164 8:0.383884 9:-0.0399631 10:0.0286297 11:0.734812 12:-0.322965 13:-0.0285106 14:-0.0169346 15:-0.269851 16:0.0655207 17:-0.337615 18:-0.119231 19:0.0426621 20:0.0467013 21:-0.391199 22:-0.0170756 23:0.159519 24:-0.557282 25:-0.0178289 26:0.000316425 
0.125 0 1:0.0462993 2:0.467695 3:-0.135393 4:0.531487 5:0.0789064 6:-0.0650402 7:0.0430574 8:0.386706 9:0.165162 10:-0.098416 11:0.729813 12:-0.164864 13:-0.0570267 14:0.129441 15:-0.295167 16:-0.123928 17:-0.258724 18:-0.314832 19:-0.0203369 20:0.133818 21:-0.281329 22:-0.167521 23:0.140831 24:-0.52304 25:-0.169905 26:-0.00374207 
0.125 0 1:-0.164206 2:0.416154 3:-0.0123764 4:0.192467 5:0.00918337 6:0.0758442 7:0.219764 8:0.228151 9:0.317696 10:0.146173 11:0.199601 12:-0.409271 13:-0.0531817 14:0.408196 15:-0.133585 16:-0.484493 17:0.12843 18:-0.143331 19:-0.385467 20:-0.17578 21:0.126137 22:-0.610195 23:-0.0634303 24:0.39512 25:0.421546 26:-0.00206351 
0 0.125 1:-0.00927622 2:0.367576 3:0.0378203 4:0.331062 5:-0.106764 6:0.106106 7:0.0378853 8:0.106543 9:-0.32225 10:-0.0626582 11:0.0277072 12:0.0562373 13:0.15896 14:0.350568 15:-0.209976 16:-0.175145 17:0.096388 18:-0.393641 19:0.155161 20:0.180751 21:0.0239853 22:0.363227 23:0.466269 24:-0.0506721 25:0.0243431 26:-0.00853314 
0.125 0.125 1:-0.0586124 2:0.35703 3:0.0893923 4:0.234769 5:-0.0213582 6:0.0647015 7:-0.0333284 8:0.126378 9:-0.294513 10:0.0753093 11:-0.020612 12:0.0692196 13:0.00463047 14:0.457427 15:-0.25097 16:-0.196562 17:0.248639 18:-0.391282 19:0.201489 20:0.251588 21:-0.0550238 22:0.338384 23:0.228318 24:0.0489362 25:0.119142 26:0.00145643 
0.125 0.125 1:-0.0377398 2:0.354066 3:0.0999492 4:0.237942 5:-0.159338 6:0.171646 7:0.258045 8:0.0783594 9:-0.116912 10:0.400562 11:-0.0206296 12:0.0230455 13:-0.113946 14:0.386187 15:-0.214092 16:-0.223375 17:0.229623 18:-0.0611818 19:0.11204 20:0.0384102 21:-0.0667504 22:-0.0480036 23:-0.233233 24:0.102244 25:0.259962 26:0.00757517 
0.125 0.125 1:0.0540819 2:0.300054 3:0.0753022 4:0.337531 5:-0.427863 6:0.212778 7:0.221037 8:0.0509933 9:0.350944 10:0.376399 11:0.0349204 12:0.0525479 13:-0.125481 14:0.189202 15:-0.0885231 16:-0.255448 17:0.0789573 18:0.377413 19:-0.0367637 20:-0.141698 21:-0.060198 22:-0.573824 23:-0.426984 24:0.0833674 25:0.277438 26:0.00775516 
0.125 0.125 1:0.133733 2:0.208941 3:0.100478 4:0.436561 5:-0.422457 6:0.287762 7:0.272052 8:-0.00544456 9:0.369546 10:0.156512 11:-0.062924 12:0.0573971 13:-0.00345225 14:-0.000421544 15:0.045913 16:-0.311339 17:-0.0875141 18:0.550059 19:-0.222142 20:-0.212984 21:0.00291509 22:-0.767155 23:-0.254252 24:0.0574783 25:0.158017 26:0.00471814 
0.125 0.125 1:0.158275 2:0.245428 3:0.0563462 4:0.401677 5:-0.368265 6:0.360494 7:0.34497 8:0.0444276 9:0.287947 10:0.0641672 11:-0.0115823 12:0.144276 13:-0.072154 14:-0.0951692 15:0.0620565 16:-0.286436 17:-0.162932 18:0.471277 19:-0.337963 20:-0.239648 21:0.0432378 22:-0.599698 23:0.0802847 24:0.0370581 25:-0.0241503 26:0.0034189 
0.125 0.125 1:0.143934 2:0.296429 3:0.00176302 4:0.400579 5:-0.22345 6:0.362885 7:0.292936 8:-0.0694101 9:0.12604 10:0.0092347 11:0.0559542 12:0.320858 13:-0.129796 14:-0.102974 15:-0.0118293 16:-0.203002 17:-0.226126 18:0.221399 19:-0.324117 20:-0.242321 21:0.200741 22:-0.19854 23:0.289428 24:-0.0601581 25:-0.199476 26:0.000328595 
0.125 0.125 1:0.116734 2:0.34715 3:-0.0832005 4:0.470021 5:-0.193118 6:0.291731 7:0.288489 8:-0.148111 9:0.0362235 10:-0.0407395 11:0.0322773 12:0.223162 13:0.0532696 14:-0.0430771 15:-0.118241 16:-0.0582697 17:-0.298047 18:0.0947798 19:-0.243071 20:-0.312544 21:0.360356 22:0.112652 23:0.2864 24:-0.122837 25:-0.128182 26:-0.00329853 
0 0.125 1:0.0524418 2:0.403844 3:-0.174405 4:0.436422 5:-0.137779 6:0.230769 7:0.412873 8:-0.0807291 9:-0.103215 10:-0.0599869 11:0.0736556 12:0.0964791 13:0.167414 14:0.0669731 15:-0.221959 16:0.036597 17:-0.21721 18:0.118098 19:-0.112008 20:-0.294486 21:0.297763 22:0.161186 23:0.263139 24:-0.137037 25:0.117656 26:-0.00468276 
0 0.125 1:-0.0454449 2:0.45569 3:-0.192147 4:0.316878 5:-0.00598289 6:0.187155 7:0.174841 8:-0.0295711 9:-0.0268458 10:0.00558159 11:0.0979901 12:0.0603032 13:0.088704 14:0.206354 15:-0.282186 16:-0.0206675 17:0.0241252 18:0.0420113 19:-0.0162628 20:-0.0491331 21:0.0718828 22:0.0452977 23:0.310093 24:-0.0355144 25:0.385542 26:-0.00712416 
0 0.125 1:-0.127396 2:0.486892 3:-0.189856 4:0.16918 5:0.0319313 6:0.123301 7:0.0444895 8:0.105948 9:0.104725 10:0.0421408 11:-0.117379 12:-0.0145318 13:0.0012661 14:0.326511 15:-0.330563 16:-0.109337 17:0.324696 18:-0.186044 19:0.0129493 20:0.269723 21:-0.250539 22:-0.0820826 23:0.299396 24:0.126392 25:0.447109 26:-0.00786398 
0 0.125 1:-0.154861 2:0.529157 3:-0.154638 4:0.0910072 5:0.148037 6:0.041253 7:0.0391705 8:0.218941 9:0.0476388 10:0.0482121 11:-0.0520702 12:0.0583481 13:0.285719 14:0.370189 15:-0.354598 16:-0.137478 17:0.45297 18:-0.547337 19:0.0501774 20:0.452806 21:-0.437429 22:-0.0555389 23:0.107944 24:0.150923 25:0.238522 26:-0.0107602 
0.125 0.125 1:-0.143536 2:0.488385 3:-0.238956 4:0.238287 5:0.289478 6:0.0697817 7:0.0922899 8:0.0781545 9:-0.0174322 10:0.257154 11:0.0196297 12:0.243278 13:0.280995 14:0.337532 15:-0.337685 16:-0.00871197 17:0.255332 18:-0.700372 19:0.107091 20:0.298414 21:-0.300781 22:0.0258599 23:-0.256238 24:0.0730488 25:-0.0586296 26:-0.00616476 
0.125 0.125 1:-0.0993696 2:0.475168 3:-0.327425 4:0.336191 5:0.131717 6:0.0233106 7:0.202935 8:-0.00790645 9:0.106683 10:0.527556 11:0.0669456 12:0.408747 13:-0.0387987 14:0.260476 15:-0.315189 16:0.165856 17:-0.0287513 18:-0.384192 19:0.197237 20:-0.122291 21:-0.0116394 22:-0.00562313 23:-0.488822 24:-0.0812522 25:-0.235935 26:0.00293148 
0.125 0.1185432384741613 1:-0.037079 2:0.425654 3:-0.265593 4:0.430381 5:-0.201989 6:-0.0615492 7:0.553048 8:-0.0830035 9:0.18928 10:0.445848 11:0.0751663 12:0.206192 13:0.0657027 14:0.183396 15:-0.255386 16:0.179648 17:-0.235327 18:0.185171 19:0.247759 20:-0.499187 21:0.301025 22:-0.186381 23:-0.327317 24:-0.188787 25:-0.0984684 26:0.00313694 
0.125 0.125 1:0.12038 2:0.242056 3:0.0113115 4:0.428082 5:-0.323371 6:0.20487 7:0.301361 8:-0.045418 9:0.298303 10:0.270358 11:-0.053947 12:0.0894285 13:0.163555 14:0.0807435 15:0.00517496 16:-0.264147 17:-0.157857 18:0.0982963 19:-0.339908 20:-0.0164549 21:0.0887383 22:-0.449077 23:0.140119 24:-0.0411968 25:0.241381 26:-0.0118054 
0.125 0.125 1:0.158328 2:0.241729 3:0.0371715 4:0.414363 5:-0.321209 6:0.249695 7:0.380842 8:0.0439731 9:0.120659 10:0.353869 11:-0.0282951 12:0.216941 13:0.144421 14:0.0653157 15:-0.00806907 16:-0.267498 17:-0.124785 18:-0.154801 19:-0.415787 20:0.0611479 21:-0.156998 22:-0.237563 23:-0.108012 24:-0.0999682 25:0.152118 26:-0.00175598 
0.125 0.125 1:0.188918 2:0.266646 3:0.0759651 4:0.373346 5:-0.422586 6:0.255565 7:0.407799 8:0.0695095 9:0.0238254 10:0.345374 11:-0.0153409 12:0.178342 13:0.0719892 14:0.0387093 15:-0.0567955 16:-0.236785 17:-0.0799583 18:-0.0497978 19:-0.238877 20:0.000564608 21:-0.263779 22:-0.0288991 23:-0.146521 24:-0.1466 25:0.166844 26:0.00600061 
0.125 0.125 1:0.22419 2:0.260276 3:0.113651 4:0.290566 5:-0.533018 6:0.110382 7:0.35888 8:0.0359625 9:-0.0747147 10:0.231868 11:-0.105892 12:0.0998109 13:0.0217242 14:-0.00356366 15:-0.0854515 16:-0.218691 17:-0.023138 18:0.304089 19:0.109326 20:-0.11238 21:-0.160155 22:0.0614026 23:0.0629702 24:-0.0803648 25:0.164422 26:0.00734506 
0.125 0.125 1:0.233371 2:0.277181 3:0.11241 4:0.238398 5:-0.63268 6:0.0135441 7:0.347165 8:0.00905975 9:-0.183968 10:0.169514 11:-0.249736 12:0.24494 13:0.14729 14:-0.0426539 15:-0.0586837 16:-0.240021 17:0.00154286 18:0.563619 19:0.286004 20:-0.24674 21:0.101241 22:0.0245301 23:0.226076 24:0.0723996 25:0.00869132 26:-0.00110963 
