svm_type c_svc
kernel_type rbf
gamma 2
nr_class 3
total_sv 11124
rho -0.0261254 -0.359546 -0.259223
label 0 1 2
nr_sv 3765 3663 3696
SV
2 0.9576133702338443 1:-0.276607 2:-0.102809 3:0.0185884 4:-0.0607728 5:0.533129 6:0.298173 7:-0.186496 8:0.153378 9:-0.096858 10:-0.118302 11:-0.151512 12:0.0194104 13:0.160077 14:0.326941 15:-0.0914375 16:0.103438 17:-0.0639416 18:0.0277243 19:0.00434639 20:-0.0501867 21:-0.157926 22:-0.0914515 23:-0.0280825 24:0.00111922 25:-0.00626996 26:-0.00390364 
1.868288037607853 2 1:0.0788284 2:-0.225823 3:0.00643886 4:-0.0512618 5:0.578775 6:0.324775 7:-0.222743 8:0.216974 9:-0.0424297 10:-0.11461 11:-0.139183 12:0.0661668 13:0.128358 14:0.326941 15:-0.0914375 16:0.103438 17:-0.0639416 18:0.0277243 19:0.00434639 20:-0.0501867 21:-0.157926 22:-0.0914515 23:-0.0280825 24:0.00111922 25:-0.00626996 26:-0.00390364 
1.838535926666909 2 1:0.215928 2:-0.30334 3:-0.0284213 4:-0.0901018 5:0.515562 6:0.345624 7:-0.398003 8:0.146325 9:-0.00937526 10:-0.173418 11:-0.0177013 12:0.0411773 13:0.210721 14:0.326941 15:-0.0914375 16:0.103438 17:-0.0639416 18:0.0277243 19:0.00434639 20:-0.0501867 21:-0.157926 22:-0.0914515 23:-0.0280825 24:0.00111922 25:-0.00626996 26:-0.00390364 
0.8825834429142871 1.12215931559251 1:0.264789 2:-0.341523 3:-0.11312 4:-0.142817 5:0.391824 6:0.370606 7:-0.409468 8:0.436895 9:0.243299 10:-0.241633 11:0.322538 12:-0.145511 13:-0.018367 14:0.121901 15:0.13138 16:0.115709 17:0.149983 18:0.171381 19:-0.262077 20:0.073504 21:-0.342064 22:-0.26517 23:0.131448 24:-0.18867 25:-0.0150334 26:-0.00250547 
0.7903394224258627 1.403384622168076 1:0.264897 2:-0.408806 3:-0.131205 4:-0.0170793 5:0.508173 6:0.182874 7:-0.362131 8:0.347195 9:0.474483 10:0.0145674 11:0.380608 12:-0.0592721 13:-0.314487 14:0.302215 15:0.313283 16:0.179218 17:-0.0226012 18:-0.00240818 19:0.00139885 20:-0.00635576 21:-0.463275 22:-0.532797 23:-0.242734 24:-0.424832 25:0.0712155 26:0.0118214 
0.1055276899704912 0 1:0.263804 2:-0.396495 3:-0.172772 4:0.0447646 5:0.542505 6:0.0838638 7:-0.468563 8:0.400074 9:0.452533 10:0.113756 11:0.441968 12:-0.0399324 13:-0.298609 14:0.427226 15:0.438164 16:0.254221 17:-0.208183 18:-0.178504 19:0.210303 20:0.0524259 21:-0.519059 22:-0.563551 23:-0.504505 24:-0.593398 25:0.180555 26:0.0121045 
0.9198247699422972 0.5676799436463121 1:0.238721 2:-0.344956 3:-0.278679 4:0.0877932 5:0.530039 6:-0.044722 7:-0.537118 8:0.386756 9:0.351908 10:0.207129 11:0.572909 12:-0.253344 13:-0.143244 14:0.487511 15:0.377393 16:0.263784 17:-0.277882 18:-0.248558 19:0.267105 20:0.139077 21:-0.421784 22:-0.338163 23:-0.500542 24:-0.575986 25:0.339782 26:0.0028729 
0.657200273339851 1.541943088169244 1:0.266247 2:-0.133911 3:-0.198912 4:0.106982 5:0.464624 6:0.0421843 7:-0.441944 8:0.148356 9:0.314394 10:-0.26855 11:0.235487 12:-0.216077 13:-0.10343 14:0.45139 15:0.065812 16:0.12618 17:-0.169119 18:-0.14985 19:0.123637 20:0.114788 21:-0.212899 22:-0.0154219 23:-0.103261 24:-0.254675 25:0.27022 26:-0.00547243 
1.493896485223177 2 1:0.411815 2:0.167369 3:-0.0400416 4:0.0431926 5:0.308492 6:0.0996311 7:-0.314145 8:-0.00691852 9:0.063104 10:-0.310261 11:-0.136138 12:0.0751888 13:-0.235951 14:0.321293 15:-0.318298 16:-0.0915783 17:0.00437099 18:0.0889255 19:-0.00654044 20:-0.044062 21:-0.0649543 22:0.266677 23:0.197716 24:0.14732 25:0.0038886 26:-0.00419373 
1.099219339631134 1.443616888051397 1:0.511851 2:0.269347 3:-0.0665717 4:0.000859365 5:0.299369 6:0.00185678 7:-0.268196 8:-0.0208138 9:0.105152 10:-0.347939 11:-0.298381 12:0.105296 13:-0.270357 14:0.176268 15:-0.482491 16:-0.160124 17:0.0589708 18:0.224409 19:0.0258053 20:-0.14978 21:-0.0047199 22:0.172917 23:0.341274 24:0.374796 25:-0.279168 26:-0.00118701 
0.1576682219186237 1.1973854499109 1:0.541495 2:0.361508 3:-0.251092 4:0.17206 5:0.211411 6:-0.00309413 7:-0.243382 8:-0.194302 9:0.35269 10:-0.346112 11:-0.389009 12:0.163604 13:-0.153083 14:-0.00411435 15:-0.539938 16:0.23326 17:-0.0825532 18:0.205883 19:0.14746 20:0.0139097 21:-0.0187528 22:-0.504504 23:0.162134 24:0.236133 25:-0.373515 26:-0.00631466 
0.6596309952995149 0.8029808034320837 1:0.527953 2:0.385282 3:-0.340237 4:0.182663 5:0.264015 6:0.0229318 7:-0.200071 8:-0.19063 9:0.316847 10:-0.275808 11:-0.362661 12:0.0563724 13:-0.151894 14:0.0264973 15:-0.524137 16:0.382391 17:-0.0689688 18:0.124523 19:0.0969758 20:0.0379364 21:-0.00494952 22:-0.606865 23:-0.0662724 24:0.145568 25:-0.111724 26:-0.00188324 
0.3063728593742423 1.573267874469744 1:0.41232 2:0.414448 3:-0.360446 4:0.0881417 5:0.282578 6:0.0378942 7:-0.174309 8:-0.24127 9:0.138189 10:-0.114258 11:-0.379436 12:-0.0932925 13:-0.180575 14:0.1621 15:-0.434624 16:0.322698 17:0.00780299 18:0.0820188 19:0.0190038 20:-0.00730144 21:0.0305548 22:-0.274136 23:-0.263156 24:0.182639 25:0.140289 26:0.00566789 
1.289590273675899 2 1:0.212025 2:0.22877 3:-0.265253 4:0.0833618 5:0.25411 6:0.115445 7:-0.12449 8:-0.264681 9:-0.0601932 10:0.0269564 11:-0.355756 12:-0.190814 13:-0.250937 14:0.392074 15:-0.16164 16:0.137449 17:-0.0295895 18:-0.0387445 19:-0.0616167 20:-0.0739235 21:0.0413265 22:0.125872 23:-0.247174 24:0.12625 25:0.325253 26:0.00700371 
0.5701369977117201 1.178794443667673 1:0.0413929 2:-0.0254095 3:-0.112574 4:0.362583 5:0.299667 6:0.113817 7:0.0920985 8:-0.133262 9:-0.286629 10:-0.186296 11:-0.311613 12:-0.19669 13:-0.128868 14:0.607987 15:0.128233 16:-0.0330394 17:-0.257594 18:-0.16798 19:-0.118177 20:-0.173503 21:-0.0441703 22:0.40423 23:0.0204845 24:-0.054334 25:0.29995 26:-0.000581326 
0.3870891638293045 0 1:0.006834 2:0.0140604 3:-0.206584 4:0.259114 5:0.405118 6:0.136864 7:-0.0708917 8:-0.130791 9:-0.322728 10:-0.348964 11:-0.229205 12:-0.123286 13:0.161337 14:0.657811 15:0.260564 16:-0.0118066 17:-0.335106 18:-0.215698 19:-0.18823 20:-0.174695 21:-0.165587 22:0.431217 23:0.217039 24:-0.195104 25:0.161305 26:-0.0107248 
2 1.448703323653427 1:-0.0231538 2:0.0179044 3:-0.231062 4:0.245705 5:0.357357 6:0.168224 7:0.0183668 8:-0.0577096 9:-0.0309148 10:-0.159618 11:-0.00358851 12:-0.0734806 13:0.140235 14:0.640413 15:0.354752 16:0.0290658 17:-0.265657 18:-0.0746637 19:-0.266408 20:-0.262796 21:-0.348468 22:0.126834 23:0.0831576 24:-0.23648 25:0.0790904 26:-0.0131253 
0.4324502670666618 2 1:0.059549 2:-0.0431098 3:-0.219228 4:0.172323 5:0.111486 6:0.0979534 7:0.107307 8:0.100288 9:-0.149933 10:0.0333958 11:-0.290169 12:0.0333562 13:-0.014728 14:0.590448 15:0.371338 16:0.0533045 17:-0.0415906 18:0.192776 19:-0.279544 20:-0.279418 21:-0.462633 22:-0.0530645 23:-0.257999 24:0.0120722 25:0.00784589 26:-0.0134683 
0.5446043441984108 1.670875812077716 1:0.143784 2:-0.0369749 3:-0.246749 4:0.0606796 5:0.11857 6:0.00460755 7:0.0512673 8:0.0201752 9:-0.030773 10:0.0508581 11:-0.433869 12:-0.0144593 13:0.15821 14:0.546719 15:0.233172 16:0.0551804 17:0.180072 18:0.249272 19:-0.244073 20:-0.15035 21:-0.36813 22:-0.153737 23:-0.524871 24:0.27251 25:-0.0690414 26:-0.0193378 
2 2 1:0.11685 2:0.172689 3:-0.17315 4:0.0516724 5:0.237945 6:-0.0650117 7:-0.101553 8:-0.0913518 9:0.20698 10:0.0224032 11:-0.284902 12:0.061238 13:0.16224 14:0.491294 15:-0.125937 16:0.0352894 17:0.195655 18:0.104271 19:-0.131123 20:0.0554732 21:-0.165942 22:-0.171874 23:-0.442156 24:0.339758 25:-0.143581 26:-0.0208062 
0.0286215645664784 1.976627303811749 1:0.389625 2:0.424941 3:-0.361055 4:0.114907 5:0.246756 6:-0.264557 7:-0.17164 8:-0.201477 9:-0.0443074 10:-0.199884 11:-0.210814 12:0.281616 13:0.0924396 14:0.28729 15:-0.536839 16:0.176682 17:0.129484 18:-0.0383601 19:0.0817952 20:0.255657 21:0.0453862 22:-0.106608 23:-0.0574037 24:0.241579 25:-0.157267 26:-0.0167467 
0 0.5250127933757115 1:0.577887 2:0.452666 3:-0.358072 4:0.165326 5:0.251237 6:-0.405862 7:-0.0817926 8:-0.174949 9:0.108626 10:-0.444158 11:-0.11519 12:0.163085 13:-0.22339 14:0.0722468 15:-0.668263 16:0.247796 17:0.0093726 18:-0.0838626 19:0.26973 20:0.241852 21:0.107549 22:-0.351791 23:0.339354 24:0.0242565 25:-0.00558873 26:-0.00238031 
0.2659550050630223 0.5100848995835257 1:0.637452 2:0.365071 3:-0.343784 4:0.226512 5:0.153432 6:-0.512115 7:-0.0585495 8:-0.156407 9:0.2967 10:-0.605455 11:0.0652271 12:-0.0423012 13:-0.440042 14:-0.0729769 15:-0.513667 16:0.196834 17:-0.108982 18:0.0507052 19:0.408827 20:0.016559 21:0.043431 22:-0.610771 23:0.514906 24:-0.200296 25:0.0817298 26:0.0131963 
0.5126592662669642 0.4432718321863419 1:0.631529 2:0.196745 3:-0.252824 4:0.328001 5:0.219933 6:-0.502408 7:0.115599 8:-0.00897894 9:0.0222278 10:-0.341561 11:0.179505 12:0.327641 13:-0.445858 14:0.0491926 15:-0.0451625 16:0.0760682 17:-0.119299 18:0.37797 19:0.404538 20:-0.464431 21:-0.195104 22:-0.380261 23:0.113097 24:-0.434107 25:-0.221429 26:0.010344 
0.6714137024706437 1.138939343551041 1:0.49379 2:0.141489 3:-0.274779 4:0.333661 5:0.167745 6:-0.454198 7:0.156637 8:0.0432676 9:-0.279502 10:-0.183868 11:0.224029 12:0.247298 13:-0.442195 14:0.202338 15:0.0103561 16:0.161586 17:-0.0968733 18:0.407603 19:0.343684 20:-0.328564 21:-0.328725 22:0.237372 23:-0.107527 24:-0.251001 25:-0.277991 26:0.00262283 
0.9598695146110936 1.930078017367158 1:0.328666 2:0.0148717 3:-0.400707 4:0.304 5:0.223599 6:-0.321444 7:-0.0885364 8:0.1303 9:-0.485381 10:-0.106054 11:-0.0241886 12:0.0596353 13:-0.244875 14:0.309786 15:0.0516778 16:0.231846 17:-0.13943 18:0.118497 19:0.180216 20:0.0421452 21:-0.422254 22:0.707001 23:-0.137551 24:0.099715 25:-0.0953458 26:-0.00340257 
0.7332638659191317 0.8822797203074587 1:0.275876 2:0.0029657 3:-0.258417 4:0.422248 5:0.537683 6:-0.185063 7:-0.336969 8:0.16168 9:-0.520756 10:-0.119051 11:-0.335888 12:0.0585003 13:-0.299101 14:0.361141 15:0.0652704 16:0.153378 17:-0.292785 18:-0.363779 19:-0.0388942 20:0.394534 21:-0.379458 22:0.570705 23:-0.100493 24:0.279857 25:0.109889 26:-0.00435191 
0.7021726627632113 0.5404410494561873 1:0.210001 2:0.0099763 3:-0.174382 4:0.416907 5:0.72527 6:-0.000689677 7:-0.0944292 8:0.041273 9:-0.413799 10:0.00644834 11:-0.124972 12:0.0145807 13:-0.29325 14:0.403412 15:0.0790239 16:0.0472945 17:-0.326994 18:-0.647008 19:-0.216068 20:0.379686 21:-0.188319 22:0.0232706 23:-0.132888 24:0.164843 25:0.233435 26:-0.00477247 
2 2 1:0.0714044 2:-0.0438576 3:-0.12195 4:0.387722 5:0.610918 6:0.145669 7:-0.0815874 8:-0.087148 9:-0.0136973 10:-0.0252614 11:-0.0136971 12:-0.0745878 13:-0.20099 14:0.449221 15:0.0588034 16:-0.0342309 17:-0.198902 18:-0.473115 19:-0.289367 20:0.23299 21:-0.0171099 22:-0.528023 23:-0.126782 24:0.0340432 25:0.245039 26:-0.00736631 
2 2 1:-0.0496103 2:-0.0300413 3:-0.196655 4:0.226729 5:0.349638 6:0.110038 7:-0.0360403 8:-0.065133 9:0.155284 10:0.161773 11:-0.0475393 12:0.034002 13:-0.123708 14:0.466241 15:-0.0571678 16:-0.00289242 17:0.00102209 18:-0.012737 19:-0.24523 20:-0.0593169 21:-0.0440855 22:-0.584717 23:-0.157459 24:-0.0197939 25:0.13115 26:-0.0103539 
2 2 1:-0.0251122 2:0.0392169 3:-0.166525 4:0.0952082 5:0.276754 6:0.0963746 7:0.132184 8:-0.0239559 9:-0.395285 10:-0.0112573 11:-0.309505 12:0.0356609 13:-0.220181 14:0.416974 15:-0.202554 16:0.0616418 17:0.119735 18:0.233287 19:-0.197216 20:-0.341172 21:-0.195384 22:-0.0841667 23:-0.0750596 24:0.0777287 25:0.00072644 26:-0.00721002 
2 2 1:-0.012608 2:0.0724813 3:-0.158758 4:0.17789 5:0.282167 6:0.219078 7:0.222602 8:0.0470469 9:-0.460052 10:0.00265633 11:-0.125571 12:0.171493 13:-0.0956484 14:0.34723 15:-0.280911 16:0.106896 17:0.000479998 18:0.119314 19:-0.194046 20:-0.40714 21:-0.276558 22:0.354653 23:0.0160057 24:0.0459407 25:-0.193686 26:-0.000775131 
2 2 1:-0.07778 2:0.0381797 3:-0.191289 4:0.265381 5:0.335635 6:0.182252 7:0.24982 8:-0.014728 9:-0.261347 10:0.0558328 11:0.00350395 12:0.183293 13:-0.257232 14:0.339455 15:-0.194868 16:0.104752 17:-0.202467 18:-0.116489 19:-0.0840695 20:-0.267885 21:-0.140686 22:0.433012 23:0.044001 24:-0.0380005 25:-0.176517 26:0.00224733 
2 2 1:-0.134538 2:-0.0634763 3:-0.198502 4:0.103237 5:0.300742 6:0.047528 7:0.0775786 8:-0.183565 9:-0.142092 10:0.0511168 11:-0.101084 12:0.148242 13:-0.298341 14:0.386823 15:0.00213177 16:0.015052 17:-0.271152 18:-0.112055 19:0.115681 20:0.0460675 21:0.0451376 22:0.152885 23:0.0108202 24:0.00148275 25:0.0255328 26:-0.00412738 
2 2 1:-0.139104 2:-0.108781 3:-0.200514 4:0.0849544 5:0.0936383 6:0.0292529 7:-0.0176989 8:-0.200123 9:-0.123836 10:0.0144623 11:-0.0957591 12:0.069064 13:-0.00359973 14:0.420899 15:0.108217 16:-0.0650643 17:-0.220366 18:0.171612 19:0.254108 20:0.242514 21:0.0329867 22:-0.26895 23:-0.122247 24:0.047153 25:0.187203 26:-0.0112011 
1.999782909359067 1.291028939312337 1:-0.15504 2:-0.0889872 3:-0.147623 4:0.0254355 5:-0.0205232 6:0.0250414 7:0.0834566 8:-0.0190028 9:0.194868 10:0.167208 11:-0.180652 12:-0.0208016 13:0.112998 14:0.440685 15:0.160954 16:-0.00165403 17:-0.00715613 18:0.411599 19:0.252758 20:0.134946 21:-0.147065 22:-0.583483 23:-0.174281 24:0.116793 25:0.180891 26:-0.006667 
0.6621790567018717 1.429994323123633 1:-0.120645 2:0.00435084 3:-0.273145 4:-0.153626 5:-0.0107164 6:0.148186 7:0.296993 8:0.11298 9:0.246738 10:0.158383 11:-0.0210497 12:0.25554 13:-0.324732 14:0.480451 15:0.211803 16:0.214138 17:0.205299 18:0.428226 19:0.0122038 20:-0.0778478 21:-0.395819 22:-0.573251 23:-0.0515976 24:-0.0049195 25:-0.146919 26:0.00373153 
1.080615149155197 1.110370732082147 1:-0.0927126 2:0.0149576 3:-0.467805 4:-0.228908 5:0.112259 6:0.244481 7:0.236421 8:-0.00952965 9:0.115297 10:-0.00780507 11:0.111044 12:0.364254 13:-0.358577 14:0.550761 15:0.239819 16:0.373498 17:0.326063 18:0.207645 19:-0.271972 20:-0.151562 21:-0.460476 22:-0.305908 23:0.113078 24:-0.128667 25:-0.425906 26:0.000389578 
0.9073358119113323 1.44032097068115 1:-0.107027 2:-0.0204761 3:-0.496166 4:-0.19775 5:0.161082 6:0.242976 7:0.24035 8:-0.0874599 9:-0.0914883 10:-0.134785 11:-0.0204896 12:0.252691 13:0.097973 14:0.580579 15:0.128263 16:0.284396 17:0.399314 18:-0.0744091 19:-0.495356 20:-0.077021 21:-0.392971 22:0.0370224 23:0.119037 24:-0.10856 25:-0.433914 26:-0.0207982 
0.4121317976602655 1.099417644159042 1:0.0309121 2:0.279234 3:-0.177912 4:-0.0497719 5:0.214441 6:0.25855 7:0.235219 8:0.00594329 9:-0.173591 10:0.10964 11:0.00439716 12:0.150032 13:0.173519 14:0.464513 15:-0.28208 16:0.0513504 17:0.337297 18:-0.30941 19:-0.58013 20:0.113935 21:-0.2797 22:0.201669 23:-0.137809 24:-0.0810342 25:-0.178964 26:-0.0313132 
0.3909090809017538 0.5709495484943077 1:0.265855 2:0.537256 3:-0.189862 4:-0.0749306 5:0.261533 6:0.106874 7:0.363613 8:-0.296203 9:-0.0120359 10:0.28092 11:-0.0225799 12:-0.0403922 13:-0.146955 14:0.253753 15:-0.680957 16:0.0534623 17:0.182748 18:-0.469278 19:-0.289082 20:0.0981554 21:-0.0565184 22:-0.00171595 23:-0.325413 24:-0.0338244 25:0.155693 26:-0.0143956 
0.3236355345896474 0.5148730615851553 1:0.413759 2:0.506686 3:-0.374323 4:0.13272 5:0.225763 6:-0.0706686 7:0.330332 8:-0.350854 9:0.0173465 10:0.116228 11:0.0139877 12:-0.164846 13:-0.435551 14:0.0704405 15:-0.733996 16:0.263333 17:-0.152755 18:-0.449326 19:0.2457 20:-0.167202 21:0.0976196 22:-0.181679 23:-0.143431 24:-0.111542 25:0.314439 26:0.0186694 
0.5967869444189932 0.3196103374940783 1:0.46027 2:0.394249 3:-0.448721 4:0.423055 5:0.084481 6:-0.417083 7:0.433212 8:-0.41107 9:-0.0154458 10:-0.0927153 11:-0.0727955 12:-0.191909 13:-0.717459 14:-0.0110281 15:-0.410173 16:0.339558 17:-0.525471 18:-0.166554 19:0.728525 20:-0.520357 21:0.237461 22:-0.201929 23:0.224752 24:-0.126197 25:0.335411 26:0.0387897 
0.7141173400707457 0.3589253696260666 1:0.484127 2:0.258045 3:-0.223262 4:0.529132 5:-0.114321 6:-0.534645 7:0.714094 8:-0.37848 9:-0.0417128 10:-0.250057 11:-0.096199 12:-0.0709512 13:-0.469065 14:0.0208147 15:0.10216 16:0.105258 17:-0.647343 18:0.29417 19:0.727056 20:-0.688902 21:0.206958 22:-0.0848681 23:0.380712 24:-0.0546739 25:0.209416 26:0.023498 
0.7485743263694873 0.3916383673837095 1:0.477383 2:0.160184 3:0.00806168 4:0.428674 5:-0.333379 6:-0.228591 7:0.490215 8:-0.338615 9:-0.187527 10:-0.0273152 11:-0.139274 12:-0.149332 13:-0.0807018 14:0.11914 15:0.401188 16:-0.23969 17:-0.434223 18:0.65549 19:0.211814 20:-0.324574 21:0.00808343 22:0.0679014 23:0.139146 24:0.0554568 25:0.0287954 26:-0.00573121 
0.247343772466876 0.3499928948273636 1:0.39789 2:0.167376 3:0.0112645 4:0.293102 5:-0.378024 6:0.038187 7:0.0779425 8:-0.180873 9:-0.0605701 10:0.252451 11:-0.410238 12:-0.0813382 13:0.0938449 14:0.242797 15:0.344826 16:-0.291126 17:-0.0562645 18:0.658856 19:-0.309042 20:0.222472 21:-0.185188 22:0.0357052 23:-0.174833 24:0.17705 25:-0.144435 26:-0.0229917 
0.2595295390856169 0.2860954797194735 1:0.226025 2:0.453522 3:-0.30498 4:0.243737 5:-0.0375575 6:-0.186637 7:0.156971 8:-0.0411977 9:-0.0419482 10:0.0116173 11:-0.270328 12:0.0101239 13:-0.0108027 14:0.444142 15:-0.425773 16:0.41609 17:0.012018 18:0.0468262 19:-0.29694 20:0.335513 21:-0.367772 22:-0.129719 23:0.0808629 24:-0.12057 25:0.0507707 26:-0.0193736 
1.080668207517466 0.5326055771531849 1:0.209829 2:0.493816 3:-0.289364 4:0.329792 5:-0.00611004 6:-0.19564 7:0.261968 8:-0.050975 9:0.000494028 10:0.101571 11:-0.285777 12:-0.200082 13:0.0436035 14:0.473162 15:-0.671934 16:0.685183 17:-0.261105 18:-0.0759096 19:0.00600687 20:0.0247383 21:-0.337059 22:-0.218102 23:0.219736 24:-0.182691 25:0.361513 26:-0.0162359 
0.132670777065439 0.3398125168533184 1:0.178057 2:0.474437 3:-0.255079 4:0.314089 5:0.0104416 6:-0.20992 7:0.227717 8:0.0512872 9:0.0464767 10:0.278704 11:-0.344177 12:-0.103556 13:0.0831646 14:0.463134 15:-0.611939 16:0.691894 17:-0.338163 18:-0.0994973 19:0.233957 20:-0.118647 21:-0.313296 22:-0.136838 23:0.0866949 24:-0.0522333 25:0.43073 26:-0.00935005 
0.528459020454015 1.416578931316764 1:0.161642 2:0.343442 3:-0.186621 4:0.256113 5:0.0587768 6:-0.361933 7:0.233171 8:-0.043647 9:0.0556984 10:0.432141 11:-0.579528 12:0.11976 13:-0.166639 14:0.426384 15:-0.307266 16:0.451127 17:-0.163047 18:-0.140348 19:0.357838 20:-0.100191 21:-0.224346 22:-0.0562967 23:-0.18138 24:0.306179 25:0.174045 26:0.00558644 
0.9387041880252097 0.4990538485552394 1:0.22571 2:0.0849987 3:0.216961 4:0.00857654 5:0.23794 6:-0.39879 7:0.255263 8:-0.061594 9:-0.0994243 10:0.539572 11:-0.687005 12:0.288438 13:-0.349794 14:0.363089 15:0.0450108 16:0.0145695 17:0.18211 18:-0.238178 19:0.273925 20:-0.0752067 21:-0.11682 22:0.00612359 23:-0.410507 24:0.535776 25:-0.280162 26:0.0188157 
0.4699291742790532 0.1725874177359277 1:0.26211 2:0.0190001 3:0.510524 4:-0.0524312 5:0.177838 6:-0.198007 7:0.377664 8:-0.14297 9:-0.0614656 10:0.525917 11:-0.566804 12:0.490898 13:-0.351863 14:0.307928 15:0.165587 16:-0.370518 17:0.389636 18:-0.19752 19:-0.0121021 20:-0.0920345 21:0.0401357 22:-0.0646238 23:-0.440306 24:0.523315 25:-0.614231 26:0.0199982 
0.3010034870451342 0.08662848681895861 1:0.270369 2:0.005532 3:0.564331 4:0.0407222 5:0.0717842 6:-0.0838477 7:0.313859 8:-0.166328 9:0.229298 10:0.454381 11:-0.435245 12:0.478322 13:-0.040589 14:0.276302 15:0.0888585 16:-0.503234 17:0.399827 18:-0.0553428 19:-0.211257 20:-0.0191577 21:0.0847509 22:-0.200778 23:-0.308797 24:0.295814 25:-0.577466 26:0.00464724 
1.001029306006969 0.3740191137873765 1:0.283181 2:-0.0401158 3:0.561246 4:0.104935 5:0.0477584 6:-0.0853486 7:0.296949 8:-0.108378 9:0.0761628 10:0.413393 11:-0.146223 12:0.384111 13:0.0514493 14:0.273858 15:-0.0416579 16:-0.405346 17:0.283171 18:0.0781033 19:-0.139225 20:0.0647522 21:-0.0525937 22:-0.130058 23:-0.0983641 24:-0.0536182 25:-0.288185 26:-0.013543 
0.5646627618699799 0.6395076682049778 1:0.291645 2:-0.0823883 3:0.527825 4:0.19203 5:0.0691424 6:-0.21733 7:0.324926 8:0.0294235 9:-0.0400392 10:0.167095 11:0.0336586 12:0.146791 13:0.154643 14:0.291355 15:-0.10774 16:-0.19959 17:0.0320774 18:0.121523 19:0.144197 20:0.0990381 21:-0.244687 22:0.0393588 23:0.159175 24:-0.267816 25:0.126351 26:-0.0234324 
0.7730346222949799 2 1:0.273656 2:-0.210148 3:0.318084 4:0.572311 5:-0.000710811 6:-0.114063 7:0.499184 8:0.063039 9:0.140673 10:0.129524 11:0.196275 12:0.0413412 13:0.143215 14:0.319916 15:-0.0369587 16:0.0359725 17:-0.459888 18:0.0871451 19:0.1841 20:-0.160328 21:-0.322929 22:-0.0365586 23:0.0553539 24:-0.320886 25:0.331535 26:-0.0150563 
0.6715397497529942 2 1:0.273103 2:-0.233515 3:0.231709 4:0.620464 5:0.0522874 6:0.0573832 7:0.522381 8:0.00543795 9:0.166357 10:0.157302 11:0.19198 12:0.0813447 13:-0.0443703 14:0.329907 15:-0.0286975 16:0.14898 17:-0.466197 18:0.0563704 19:-0.239851 20:-0.249745 21:-0.190687 22:-0.358204 23:-0.164511 24:-0.193507 25:0.0641994 26:-0.0019288 
0.3394811964485149 0.1432856178660845 1:0.272437 2:-0.236527 3:0.108779 4:0.486863 5:0.0243311 6:0.0828018 7:0.629199 8:-0.00594092 9:0.32807 10:0.171117 11:0.245491 12:0.228428 13:-0.0480728 14:0.336603 15:-0.0325626 16:0.268641 17:-0.270244 18:0.035307 19:-0.600304 20:-0.352081 21:-0.0670652 22:-0.480726 23:-0.234471 24:0.00749557 25:-0.250403 26:0.0126997 
0.08910657674085048 0.2229632466762123 1:0.279313 2:-0.298369 3:-0.0585078 4:0.435835 5:0.0217009 6:0.198109 7:0.54902 8:0.0259477 9:0.301925 10:0.0412288 11:0.142269 12:0.333579 13:-0.101665 14:0.335789 15:-0.0169667 16:0.34839 17:-0.125514 18:-0.00815041 19:-0.733275 20:-0.318404 21:-0.0242958 22:-0.351811 23:-0.104831 24:0.235442 25:-0.422613 26:0.0161953 
1.026110668935931 1.541727463130196 1:0.246907 2:-0.32544 3:-0.0115228 4:0.46401 5:0.080077 6:0.0177248 7:0.495985 8:-0.057987 9:0.0412394 10:-0.19192 11:0.0395263 12:0.034885 13:-0.223112 14:0.33933 15:-0.0235572 16:0.306008 17:-0.139865 18:-0.0495896 19:-0.476873 20:-0.175846 21:-0.0244517 22:-0.172364 23:0.0472843 24:0.367536 25:-0.363717 26:0.0053164 
0.1226046550746205 0.9574252921583876 1:0.275911 2:-0.306119 3:-0.00877583 4:0.453991 5:0.024074 6:-0.302796 7:0.487602 8:0.0637642 9:-0.143335 10:-0.217271 11:0.182987 12:0.0463809 13:0.118087 14:0.333143 15:-0.0518084 16:0.170154 17:-0.251921 18:-0.0249462 19:-0.0321087 20:-0.0516446 21:-0.145384 22:-0.066031 23:0.0341441 24:0.326265 25:-0.206248 26:-0.0200121 
0.6748724382650934 0.4846176811959987 1:0.282091 2:-0.314278 3:-0.0146836 4:0.407614 5:0.0134634 6:-0.492657 7:0.260456 8:0.132183 9:0.134202 10:-0.0881924 11:0.504067 12:-0.0594211 13:0.476027 14:0.332312 15:-0.100346 16:0.0552355 17:-0.284538 18:0.00281714 19:0.358194 20:0.104046 21:-0.23112 22:-0.153814 23:-0.0398155 24:0.129398 25:0.180924 26:-0.0395056 
0.07419276628326174 0.9372851079039907 1:0.267872 2:-0.319759 3:-0.00822048 4:0.26297 5:-0.00203867 6:-0.629361 7:0.260942 8:0.14493 9:-0.0286 10:-0.239588 11:0.53111 12:-0.31384 13:0.0846996 14:0.313427 15:-0.148902 16:0.0311805 17:-0.15028 18:0.0949633 19:0.563898 20:0.0931362 21:-0.247014 22:-0.0685188 23:-0.0625517 24:-0.0905534 25:0.602434 26:-0.0323435 
0.3317302929194298 0.3271304878171143 1:0.265412 2:-0.332955 3:0.00957429 4:0.143976 5:-0.0275062 6:-0.697284 7:0.406118 8:0.156692 9:-0.395957 10:-0.441986 11:0.688198 12:-0.55472 13:-0.165318 14:0.252777 15:-0.132625 16:0.0821571 17:-0.00266711 18:0.178005 19:0.481102 20:-0.0182446 21:-0.271275 22:0.210132 23:0.0184045 24:-0.299242 25:0.79494 26:-0.00946522 
0.3993211339739782 0.6103991076980365 1:0.294147 2:-0.340062 3:-0.160613 4:0.0197767 5:-0.0464232 6:-0.674994 7:0.211016 8:0.077633 9:-0.266867 10:-0.427444 11:0.923518 12:-0.323587 13:-0.354445 14:0.18881 15:-0.0738726 16:0.182993 17:0.0776956 18:0.176832 19:0.179589 20:0.000530349 21:-0.204537 22:0.344693 23:0.0904582 24:-0.440294 25:0.573745 26:0.0180391 
0.414255044408409 0.4141536514286675 1:0.295055 2:-0.396166 3:-0.102487 4:-0.0166048 5:-0.0261563 6:-0.551698 7:0.233589 8:0.166275 9:-0.314082 10:-0.347639 11:0.960986 12:0.0886692 13:-0.57974 14:0.17639 15:-0.00431769 16:0.158964 17:0.0694656 18:0.136315 19:-0.123385 20:-0.0682205 21:-0.206547 22:0.282457 23:0.0680403 24:-0.456633 25:-0.0594816 26:0.0309872 
0.6148320731922848 0.3604410102681196 1:0.203014 2:-0.420885 3:-0.0500584 4:-0.0502516 5:0.0973631 6:-0.525591 7:0.282611 8:0.176643 9:-0.185063 10:-0.598532 11:0.757656 12:0.207198 13:-0.570031 14:0.265062 15:0.0146167 16:0.0946011 17:0.0846735 18:0.00590412 19:-0.215759 20:-0.15468 21:-0.20652 22:-0.00718749 23:0.0916745 24:-0.321245 25:-0.610417 26:0.0218669 
0.1387140438901022 0.1660342858891172 1:0.0789502 2:-0.373803 3:-0.115714 4:-0.140007 5:0.101346 6:-0.563622 7:0.190465 8:-0.0307661 9:0.0294574 10:-0.481481 11:0.704943 12:0.304311 13:-0.384136 14:0.408252 15:-0.0201055 16:0.0366945 17:0.175567 18:-0.0506998 19:-0.0261645 20:-0.141037 21:-0.122935 22:-0.278782 23:0.0137646 24:-0.126593 25:-0.771424 26:0.00434344 
0.4163682168478974 0.4095228837345027 1:0.0262108 2:-0.352298 3:-0.0772738 4:-0.175402 5:0.0812271 6:-0.769568 7:0.240372 8:0.111911 9:0.0770285 10:-0.418489 11:0.592325 12:0.360173 13:-0.133439 14:0.504158 15:-0.0195151 16:-0.00487809 17:0.234842 18:-0.0266357 19:0.258252 20:-0.130013 21:-0.123893 22:-0.288207 23:-0.0284165 24:0.0918341 25:-0.48672 26:-0.0142133 
0.5318026991791218 0.464153105683361 1:0.0112804 2:-0.352171 3:-0.156316 4:-0.170152 5:0.175694 6:-0.751369 7:0.114221 8:0.0830157 9:-0.109786 10:-0.558496 11:0.395256 12:0.00668312 13:-0.141276 14:0.541701 15:0.111207 16:0.0915978 17:0.23252 18:0.0273131 19:0.347492 20:0.0333946 21:-0.0703616 22:-0.106779 23:-0.0135093 24:0.235846 25:0.0577827 26:-0.0213074 
0.2066168546780756 0.3427800515111378 1:0.0262003 2:-0.356713 3:-0.158174 4:-0.0367483 5:0.103213 6:-0.642116 7:-0.0675215 8:-0.0212561 9:0.109088 10:-0.426078 11:0.360477 12:-0.21514 13:-0.18198 14:0.554445 15:0.259769 16:0.178661 17:0.123683 18:0.119977 19:0.132238 20:0.210834 21:-0.0588353 22:-0.0466925 23:-0.0214668 24:0.199894 25:0.403441 26:-0.018959 
0.4658003755851355 0.4999339995903489 1:0.0673828 2:-0.297509 3:-0.263709 4:0.0585653 5:0.14772 6:-0.454429 7:0.0982945 8:0.056028 9:0.014908 10:-0.5422 11:0.323273 12:-0.108455 13:-0.185581 14:0.558096 15:0.224937 16:0.228875 17:0.0276013 18:0.0931776 19:-0.193054 20:0.213859 21:-0.157151 22:-0.0260996 23:0.083446 24:0.0882548 25:0.451736 26:-0.0133552 
0.3091880394356572 0.1204012367985545 1:0.102528 2:-0.183614 3:-0.24501 4:0.102744 5:0.204016 6:-0.513772 7:0.0767278 8:0.109746 9:0.0561648 10:-0.514013 11:0.433094 12:-0.0168999 13:-0.296591 14:0.519858 15:-0.0432845 16:0.179356 17:-0.0206974 18:0.0312965 19:-0.336136 20:0.232078 21:-0.244251 22:-0.115987 23:0.105172 24:-0.0523659 25:0.337437 26:-0.0050313 
1.000593867012253 0.2408512114101777 1:0.24405 2:0.128389 3:-0.173033 4:0.23141 5:0.285045 6:-0.428103 7:0.036426 8:0.138968 9:0.293595 10:-0.470207 11:0.41034 12:0.0436103 13:-0.338042 14:0.359684 15:-0.412145 16:0.0450641 17:-0.107041 18:-0.00838948 19:-0.322023 20:0.175552 21:-0.32995 22:-0.199861 23:0.0526802 24:-0.0747137 25:0.161149 26:0.00185179 
0.5952117016590655 0.1569974441669288 1:0.434093 2:0.210872 3:-0.147001 4:0.333317 5:0.282311 6:-0.594109 7:0.214249 8:0.0848551 9:0.152398 10:-0.357805 11:0.234107 12:0.0614252 13:-0.470534 14:0.101401 15:-0.530742 16:-0.0276304 17:-0.211495 18:0.00735406 19:-0.131811 20:-0.0106436 21:-0.261732 22:-0.0421673 23:-0.0903849 24:0.0150858 25:0.0513576 26:0.0113396 
0.06396724235263643 0 1:0.555837 2:0.144709 3:-0.224777 4:0.452297 5:0.278042 6:-0.654512 7:0.340308 8:0.00971476 9:0.110631 10:-0.363589 11:0.194982 12:0.258509 13:-0.517894 14:-0.132804 15:-0.405271 16:0.0218369 17:-0.343088 18:0.0917464 19:0.131637 20:-0.242253 21:-0.106941 22:-0.00195369 23:-0.219259 24:0.0323928 25:-0.153541 26:0.0174337 
0.4569823111280037 0.2056969593681963 1:0.578543 2:0.0985989 3:-0.263221 4:0.494965 5:0.32137 6:-0.690997 7:0.416068 8:-0.046692 9:0.225722 10:-0.262603 11:0.285035 12:0.431758 13:-0.390887 14:-0.18267 15:-0.170274 16:0.0906393 17:-0.38439 18:0.166535 19:0.415946 20:-0.401397 21:0.0326403 22:-0.11989 23:-0.213178 24:-0.0394687 25:-0.483008 26:0.00762115 
0.5287699117619509 0.2493559433012208 1:0.496983 2:0.127335 3:-0.318052 4:0.470223 5:0.392034 6:-0.783157 7:0.466299 8:-0.0783634 9:0.332899 10:-0.271708 11:0.239004 12:0.441105 13:-0.306122 14:-0.0143147 15:-0.00377963 16:0.115691 17:-0.276226 18:0.139156 19:0.646788 20:-0.35233 21:0.122765 22:-0.292865 23:-0.0640234 24:-0.108069 25:-0.570759 26:-0.0087302 
0.5622856521768492 0.2023848272147221 1:0.283477 2:0.157544 3:-0.332321 4:0.435319 5:0.43804 6:-0.790303 7:0.407116 8:0.0332946 9:0.418444 10:-0.527143 11:0.140555 12:0.423214 13:-0.0846926 14:0.30227 15:0.0567839 16:0.0494189 17:-0.268763 18:-0.067475 19:0.649334 20:-0.144989 21:-0.0347993 22:-0.437297 23:0.206753 24:0.0140928 25:-0.262379 26:-0.024573 
1.294786443495104 0.6004261112639246 1:0.0496611 2:0.0801474 3:-0.278556 4:0.354178 5:0.517354 6:-0.483022 7:0.214542 8:0.0227625 9:0.300179 10:-0.475432 11:0.064342 12:0.238041 13:0.114354 14:0.596673 15:0.111622 16:-0.0271223 17:-0.418598 18:-0.318571 19:0.334683 20:-0.0335606 21:-0.280455 22:-0.341891 23:0.303419 24:0.201072 25:0.229776 26:-0.0240752 
0.8376057248575095 0.431204171054025 1:0.0237253 2:0.187804 3:-0.426831 4:0.323412 5:0.672093 6:-0.174967 7:0.342064 8:0.165962 9:0.122521 10:-0.303063 11:-0.00672006 12:-0.168427 13:-0.308949 14:0.679331 15:0.0898578 16:0.0815201 17:-0.633352 18:-0.478526 19:-0.117095 20:-0.162032 21:-0.557698 22:-0.214304 23:0.224552 24:0.243526 25:0.509921 26:-0.00603275 
0.7172254212229269 0.3058040760684851 1:-0.020959 2:0.228826 3:-0.477399 4:0.382752 5:0.610336 6:-0.0546591 7:0.378541 8:0.353666 9:0.148907 10:-0.262584 11:-0.0879627 12:0.0480401 13:-0.371417 14:0.580282 15:0.0223201 16:0.267684 17:-0.586976 18:-0.398295 19:-0.420016 20:-0.167426 21:-0.6336 22:-0.234888 23:0.0735654 24:0.1779 25:0.235842 26:0.00546084 
0.004325980329000063 0.1522642815367781 1:0.043824 2:0.347135 3:-0.584591 4:-0.0713294 5:0.321327 6:0.188345 7:0.300221 8:-0.028925 9:0.05328 10:-0.0614577 11:0.292568 12:0.464505 13:-0.363013 14:0.362098 15:-0.17601 16:0.466175 17:-0.00317904 18:-0.0562914 19:-0.532558 20:0.0338976 21:-0.245658 22:-0.2944 23:-0.143909 24:0.0645193 25:-0.148839 26:0.00920245 
0.4174463872626276 0.7776686169769407 1:0.139697 2:0.416691 3:-0.616408 4:-0.503085 5:0.27148 6:0.17228 7:0.0660944 8:-0.166208 9:-0.0347086 10:0.0420538 11:0.232432 12:0.345985 13:-0.124902 14:0.237928 15:-0.239113 16:0.532279 17:0.642987 18:0.223098 19:-0.431736 20:0.288525 21:0.174935 22:-0.188145 23:-0.289217 24:0.0114833 25:-0.208072 26:0.00308453 
0.4778437229870933 0.3135390753551833 1:0.104666 2:0.501147 3:-0.468699 4:-0.706425 5:0.228735 6:0.117545 7:-0.00241286 8:-0.287016 9:-0.286759 10:0.0884375 11:0.00174617 12:0.114987 13:-0.249526 14:0.32604 15:-0.147367 16:0.347008 17:0.887876 18:0.341716 19:-0.281909 20:0.421214 21:0.381088 22:0.146378 23:-0.385475 24:-0.0979799 25:0.027425 26:-0.00171307 
0.09262668673518663 0.2431169108800147 1:0.0271323 2:0.505145 3:-0.318245 4:-0.513355 5:0.0813645 6:0.153331 7:0.306424 8:-0.239206 9:-0.450262 10:0.177881 11:0.271835 12:0.0838882 13:-0.280511 14:0.492711 15:0.00137641 16:0.0807606 17:0.553281 18:0.2932 19:-0.198477 20:0.19942 21:0.202128 22:0.46214 23:-0.372585 24:-0.372305 25:0.251685 26:-0.000345952 
0.591272478903858 0.3430324788567253 1:-0.0330077 2:0.369019 3:-0.201164 4:-0.297767 5:0.190089 6:0.132472 7:0.426795 8:0.028227 9:-0.641197 10:0.0710543 11:0.637601 12:0.35653 13:-0.0658622 14:0.588621 15:0.104133 16:-0.146339 17:-0.00370013 18:0.0878061 19:-0.087321 20:-0.0472326 21:-0.237441 22:0.565107 23:-0.148808 24:-0.497471 25:0.150256 26:-0.00129196 
0.00911781153282815 0 1:0.326648 2:0.769196 3:-0.0826064 4:-0.403577 5:0.0431838 6:-0.184134 7:0.50546 8:0.041302 9:-0.313597 10:-0.237651 11:-0.109893 12:0.39091 13:0.466653 14:0.325476 15:-0.183601 16:-0.000202322 17:-0.0692126 18:0.0784271 19:0.0141383 20:-0.266301 21:-0.422611 22:0.141673 23:0.0392607 24:0.288992 25:-0.138012 26:-0.0190116 
0.4861917893821348 0 1:0.255502 2:0.801425 3:-0.109701 4:-0.468896 5:-0.0129202 6:-0.139997 7:0.459977 8:-0.182597 9:-0.254136 10:-0.229106 11:-0.0696169 12:0.28032 13:0.33811 14:0.374037 15:-0.18931 16:-0.0150997 17:0.0477952 18:0.187057 19:-0.0338092 20:-0.14473 21:-0.123049 22:0.00462271 23:0.104257 24:0.239834 25:-0.0129246 26:-0.0135532 
0.2394064927116093 0 1:0.231737 2:0.703307 3:-0.119529 4:-0.527256 5:-0.0906388 6:-0.204058 7:0.280886 8:-0.345011 9:-0.265008 10:-0.330977 11:-0.0050713 12:0.220128 13:0.0848558 14:0.3982 15:-0.134078 16:0.00143963 17:0.165547 18:0.256418 19:-1.17032e-05 20:0.0656627 21:0.0877617 22:-0.133645 23:0.226308 24:0.0432726 25:0.0742163 26:-0.000206958 
0.443891108479516 0 1:0.246725 2:0.652139 3:-0.119882 4:-0.547931 5:-0.00403781 6:-0.195202 7:0.128952 8:-0.347124 9:-0.227375 10:-0.198315 11:0.334849 12:0.0974805 13:0.14224 14:0.37688 15:-0.109347 16:0.0364783 17:0.270881 18:0.175045 19:0.055537 20:0.120177 21:0.107489 22:-0.203052 23:0.184785 24:-0.283126 25:0.0966328 26:0.00932673 
0.7177578449076343 0 1:0.274675 2:0.662109 3:-0.210252 4:-0.59135 5:0.163141 6:-0.284958 7:0.2051 8:-0.340277 9:-0.241065 10:-0.228338 11:0.556194 12:0.117645 13:0.0908482 14:0.318537 15:-0.139014 16:0.118269 17:0.322624 18:-0.0485916 19:0.161445 20:-0.0785263 21:0.0689931 22:-0.0926775 23:0.0648714 24:-0.46864 25:0.001314 26:0.0116808 
0.3750599760782635 0.3168048141556059 1:0.263108 2:0.565368 3:-0.266936 4:-0.351799 5:0.138579 6:-0.172506 7:0.156482 8:-0.423433 9:-0.326694 10:0.144313 11:0.294442 12:0.0404845 13:0.214159 14:0.256728 15:-0.177084 16:0.233467 17:0.11841 18:-0.175146 19:0.0599992 20:-0.164445 21:0.126163 22:0.161239 23:-0.281493 24:-0.0337003 25:0.00779592 26:-0.677065 
0.4603018104716527 0.7095450292971988 1:0.248148 2:0.499151 3:-0.291355 4:-0.183996 5:0.215592 6:-0.149338 7:-0.0875346 8:-0.304617 9:-0.326549 10:0.0634002 11:0.233897 12:-0.0792478 13:0.362368 14:0.274429 15:-0.0947946 16:0.250359 17:-0.0785692 18:-0.106616 19:-0.0553014 20:0.0913262 21:0.0810003 22:0.147716 23:-0.237044 24:0.120883 25:0.158986 26:-0.0118303 
1.20857049183165 0 1:0.157398 2:0.360195 3:-0.238397 4:0.0706752 5:0.13744 6:-0.0741704 7:-0.149517 8:-0.0445952 9:-0.0544879 10:0.0359486 11:0.400687 12:-0.117646 13:0.308819 14:0.338444 15:0.0718091 16:0.136331 17:-0.317813 18:-0.0109076 19:-0.185615 20:0.245492 21:-0.274151 22:-0.205819 23:-0.0977556 24:-0.1916 25:0.203234 26:-0.0147253 
0.7655617833197014 0 1:0.0941789 2:0.355932 3:-0.160558 4:0.136874 5:0.071821 6:-0.219941 7:-0.160036 8:0.186157 9:0.10724 10:-0.14283 11:-0.0124181 12:0.048069 13:0.0896812 14:0.348023 15:-0.0222444 16:-0.0098147 17:-0.143002 18:0.10299 19:0.270414 20:-0.0699185 21:-0.423391 22:-0.194474 23:0.0258608 24:0.280292 25:-0.107811 26:0.00406587 
0 0.2091335877272119 1:0.0426328 2:0.375555 3:-0.179029 4:0.147811 5:0.0938811 6:-0.0011326 7:-0.0465583 8:-0.0352337 9:0.189418 10:-0.178206 11:0.202194 12:0.0448171 13:0.167297 14:0.296424 15:-0.115408 16:0.191416 17:-0.0555476 18:0.00299486 19:-0.11815 20:0.0105249 21:0.01553 22:-0.298438 23:0.109174 24:-0.113103 25:0.0255192 26:-0.0105234 
0 1.14339894628206 1:-0.057062 2:0.390686 3:-0.0843773 4:0.0811035 5:0.0682282 6:-0.0555291 7:0.174369 8:0.0622983 9:-0.0607463 10:0.108762 11:0.030926 12:0.0531626 13:0.0443833 14:0.397368 15:-0.21451 16:0.295624 17:-0.0335435 18:0.0716047 19:0.0351771 20:-0.163876 21:-0.152498 22:-0.272056 23:-0.13274 24:0.0440184 25:0.0777546 26:0.0054494 
1.164028345926186 0 1:-0.0691453 2:0.279121 3:0.319004 4:0.0036172 5:0.187943 6:-0.0270172 7:0.214327 8:0.137337 9:-0.227461 10:0.0703266 11:-0.039153 12:0.198063 13:0.206301 14:0.470738 15:-0.0933231 16:-0.281579 17:0.114695 18:-0.047173 19:-0.162547 20:-0.0190624 21:-0.501906 22:0.279025 23:-0.149646 24:0.138722 25:-0.260989 26:-0.0037137 
0.7286122502298078 0.3602055431344856 1:-0.0043046 2:0.182678 3:0.542688 4:-0.0355824 5:0.130128 6:-0.0792549 7:0.251927 8:0.0232632 9:-0.339762 10:-0.0094514 11:0.102409 12:0.196114 13:0.299607 14:0.442333 15:0.0531812 16:-0.760831 17:0.22533 18:0.133338 19:-0.106443 20:-0.0647775 21:-0.387717 22:0.269668 23:-0.00259039 24:0.0344591 25:-0.157737 26:-0.0124963 
0.6361988495668296 0 1:0.0140536 2:0.154643 3:0.597501 4:0.0635885 5:0.0415183 6:-0.136157 7:0.295384 8:-0.213703 9:-0.074639 10:-0.0639179 11:0.223241 12:-0.0725502 13:0.30239 14:0.335685 15:0.111188 16:-0.740412 17:0.111805 18:0.257159 19:-0.0733558 20:-0.0306294 21:-0.134395 22:-0.0839199 23:0.151666 24:-0.0842435 25:0.132172 26:-0.0144756 
1.267859013103594 0.6984003522851897 1:0.120812 2:0.151751 3:0.256664 4:0.183086 5:0.125447 6:-0.198936 7:0.275805 8:-0.388844 9:0.149642 10:-0.113618 11:0.189909 12:-0.110753 13:0.33856 14:0.122211 15:0.0517425 16:-0.181643 17:-0.107728 18:0.121538 19:0.0380435 20:0.0383528 21:0.13691 22:-0.450797 23:0.303699 24:-0.152365 25:0.274302 26:-0.00981435 
0.9075523989294622 0.7181079679732009 1:0.233882 2:0.173524 3:-0.197914 4:0.260546 5:0.28808 6:-0.24947 7:0.288607 8:-0.372161 9:0.100539 10:-0.110546 11:0.174922 12:-0.0482971 13:0.299655 14:-0.0535513 15:-0.0778989 16:0.475878 17:-0.269808 18:-0.120347 19:0.246909 20:0.0712057 21:0.256915 22:-0.457885 23:0.306716 24:-0.135742 25:0.214652 26:-0.0054703 
0.4389113974359018 0.2102531562643532 1:0.23856 2:0.204802 3:-0.297052 4:0.268077 5:0.323388 6:-0.357154 7:0.446614 8:-0.47253 9:-0.0200543 10:0.077438 11:0.0949747 12:0.0136469 13:0.19242 14:-0.0625969 15:-0.195386 16:0.696983 17:-0.277325 18:-0.215204 19:0.417868 20:-0.185864 21:0.226553 22:-0.205123 23:0.0748149 24:0.00499633 25:0.195148 26:-0.00266916 
0.7779165141660522 0.5016925713013971 1:0.052981 2:0.202638 3:-0.150207 4:0.195634 5:0.255458 6:-0.462482 7:0.59407 8:-0.392694 9:-0.218593 10:0.246334 11:0.106876 12:0.065229 13:0.215407 14:0.133813 15:-0.245911 16:0.461816 17:-0.223978 18:-0.119506 19:0.38194 20:-0.501399 21:0.0140337 22:0.0973797 23:-0.185904 24:0.0473474 25:0.146773 26:-0.00637299 
1.434898204290718 0.8580823727986321 1:-0.166024 2:0.151488 3:-0.118672 4:0.240136 5:0.131623 6:-0.208025 7:0.4972 8:-0.220845 9:-0.168453 10:0.388876 11:0.0766842 12:0.0558388 13:0.369578 14:0.414327 15:-0.171327 16:0.141003 17:-0.212939 18:0.0607518 19:0.0708664 20:-0.554267 21:-0.254841 22:0.113011 23:-0.336031 24:0.0207749 25:0.0364539 26:-0.0129854 
2 0.4601566575470337 1:-0.251676 2:0.124455 3:-0.156773 4:0.215368 5:0.234312 6:0.0026844 7:0.611253 8:-0.15983 9:-0.00407934 10:0.444048 11:-0.012323 12:0.0575811 13:0.161919 14:0.572986 15:-0.060076 16:0.00178304 17:-0.161433 18:0.0771992 19:-0.202946 20:-0.424962 21:-0.356668 22:-0.0720382 23:-0.307447 24:-0.0205474 25:-0.188223 26:-0.0111154 
0.1520727296923221 0 1:-0.315697 2:0.0687951 3:-0.143286 4:0.140581 5:0.207842 6:-0.0654823 7:0.252712 8:-0.127321 9:-0.115397 10:0.274664 11:0.153765 12:0.543364 13:0.144409 14:0.63239 15:0.021701 16:0.0836868 17:-0.141631 18:0.0135593 19:-0.374523 20:-0.0940748 21:-0.223424 22:-0.207478 23:-0.232648 24:-0.00170325 25:-0.478321 26:-0.00976912 
0.2448127774450486 0.03757276931385076 1:-0.329711 2:-0.00554637 3:-0.226768 4:0.0136087 5:0.179799 6:-0.140648 7:0.0675408 8:-0.223586 9:-0.103419 10:0.311487 11:0.00423881 12:0.371458 13:0.0212379 14:0.619156 15:0.0205768 16:0.203934 17:-0.127302 18:-0.0343045 19:-0.438213 20:0.0880529 21:0.041213 22:-0.237879 23:-0.297319 24:0.158752 25:-0.345986 26:-0.00521562 
2 1.930558331075251 1:-0.293683 2:0.101119 3:-0.201171 4:0.00741359 5:0.184322 6:-0.0881083 7:0.175161 8:-0.30185 9:-0.0904784 10:0.335678 11:-0.0714532 12:0.0506861 13:-0.0989682 14:0.575563 15:-0.017645 16:0.175136 17:-0.026357 18:0.0719239 19:-0.35893 20:0.0880432 21:0.0918121 22:-0.0249163 23:-0.345269 24:0.263493 25:0.0991656 26:0.00280052 
2 0.735860445689294 1:-0.30324 2:0.087718 3:-0.200115 4:0.0399315 5:0.157897 6:-0.0352984 7:0.112031 8:-0.127474 9:-0.140295 10:0.286977 11:-0.107642 12:0.0219725 13:-0.0548631 14:0.575704 15:0.0808874 16:0.0639952 17:0.152569 18:0.215448 19:-0.16427 20:0.116219 21:-0.1835 22:0.199262 23:-0.268046 24:0.113341 25:0.356761 26:0.0044501 
1.0864495190134 0.7203000085130221 1:-0.105299 2:0.0392841 3:-0.0798215 4:-0.216881 5:0.0786898 6:-0.494946 7:-0.137904 8:0.197439 9:-0.330379 10:-0.114645 11:0.270253 12:0.113795 13:-0.300489 14:0.532014 15:0.163139 16:-0.0656765 17:0.393045 18:0.269185 19:0.203466 20:0.137919 21:-0.520668 22:0.271448 23:-0.00481405 24:-0.227553 25:0.317917 26:0.00547192 
0.7169399802690101 1.024972772735335 1:0.0127848 2:0.0132451 3:-0.140685 4:-0.289728 5:0.105754 6:-0.642506 7:-0.135321 8:0.181492 9:-0.188028 10:-0.321041 11:0.258841 12:0.155227 13:-0.307576 14:0.480222 15:0.0983772 16:-0.0451397 17:0.401716 18:0.163705 19:0.39373 20:0.0893382 21:-0.546965 22:0.0517087 23:0.219133 24:-0.388023 25:0.0696673 26:-0.00353158 
1.136235101479947 0.8670642393888593 1:0.0698596 2:0.2188 3:-0.220493 4:0.0375041 5:0.377797 6:-0.484321 7:0.0177541 8:-0.0691169 9:0.218895 10:-0.300316 11:0.270379 12:0.432557 13:0.0187385 14:0.354434 15:-0.19772 16:0.110873 17:0.0778067 18:-0.0887225 19:0.281256 20:-0.0604889 21:-0.245233 22:-0.351151 23:0.234958 24:-0.278367 25:-0.107276 26:-0.0161535 
0 0.09375141716709413 1:0.347046 2:0.412866 3:-0.299469 4:0.211878 5:0.287203 6:-0.427848 7:-0.0633633 8:-0.143852 9:0.149119 10:-0.374852 11:-0.12804 12:0.243324 13:-0.186153 14:0.0737828 15:-0.570663 16:0.282915 17:-0.27264 18:-0.187789 19:0.095615 20:-0.1257 21:0.0410682 22:-0.515444 23:0.194204 24:0.0651415 25:0.00169693 26:-0.0123465 
0.6170628405746585 0 1:0.565124 2:0.333192 3:-0.325395 4:0.194084 5:0.314871 6:-0.548274 7:-0.125966 8:-0.106642 9:0.0658035 10:-0.453807 11:-0.108402 12:0.244584 13:-0.39528 14:-0.148318 15:-0.689097 16:0.326947 17:-0.390237 18:-0.121289 19:0.0159557 20:-0.047549 21:0.141372 22:-0.487249 23:0.199534 24:0.270422 25:-0.0705174 26:-0.000853491 
0.4383945513793016 0 1:0.615268 2:0.25184 3:-0.265775 4:0.207494 5:0.307849 6:-0.539325 7:-0.181475 8:-0.0498195 9:0.0108107 10:-0.464515 11:-0.0336338 12:0.450095 13:-0.490527 14:-0.189248 15:-0.512442 16:0.188237 17:-0.252783 18:0.130461 19:0.0548223 20:0.188986 21:0.097053 22:-0.303574 23:0.245822 24:0.265396 25:-0.372669 26:0.00901345 
0.4668700061310082 0.02397243780725259 1:0.503672 2:0.151202 3:-0.198402 4:0.189663 5:0.265942 6:-0.53739 7:-0.224018 8:0.0224166 9:-0.051776 10:-0.479097 11:-0.0666323 12:0.536755 13:-0.5142 14:-0.0210066 15:-0.144317 16:0.0516771 17:-0.0495544 18:0.351156 19:0.0903755 20:0.311522 21:-0.0385681 22:-0.15251 23:0.222355 24:0.163738 25:-0.528266 26:0.0094591 
0.9802926781617921 1.294879003361961 1:0.306682 2:-0.0594137 3:-0.120313 4:0.146492 5:0.206863 6:-0.468778 7:-0.157201 8:0.0205182 9:-0.157299 10:-0.356881 11:-0.0708742 12:0.487693 13:-0.383231 14:0.224347 15:0.182994 16:0.0301412 17:-0.0356752 18:0.318687 19:0.0247416 20:0.207743 21:-0.233033 22:-0.0895082 23:0.0663273 24:-0.0378849 25:-0.439019 26:-0.00201941 
1.890368773023049 1.124482002293689 1:0.245815 2:-0.208079 3:-0.193093 4:0.234432 5:0.416592 6:-0.441812 7:-0.0700892 8:0.176523 9:-0.331314 10:-0.135316 11:0.0657114 12:0.0953975 13:-0.329205 14:0.333854 15:0.337997 16:0.133626 17:-0.148394 18:0.0166349 19:-0.032745 20:0.0222058 21:-0.498875 22:0.0534323 23:-0.152632 24:-0.171565 25:0.0616534 26:-0.00536912 
0.8219162061507623 0.5914403187234631 1:0.190733 2:-0.139604 3:-0.248226 4:0.267288 5:0.611793 6:-0.491665 7:0.134882 8:0.406017 9:-0.347639 10:-0.130346 11:0.184422 12:-0.159476 13:-0.441554 14:0.344402 15:0.326909 16:0.178017 17:-0.207048 18:-0.351874 19:0.0597053 20:-0.319401 21:-0.611578 22:0.130164 23:-0.240249 24:-0.185968 25:0.506381 26:0.0017828 
0.3066825962163143 0 1:0.0736145 2:-0.096254 3:-0.155677 4:0.247268 5:0.617185 6:-0.445395 7:0.113236 8:0.224812 9:-0.428881 10:-0.129856 11:0.0212286 12:-0.0314916 13:-0.403094 14:0.397902 15:0.244209 16:0.0773347 17:-0.160537 18:-0.509798 19:0.143809 20:-0.348561 21:-0.394646 22:0.15874 23:-0.118479 24:-0.0518656 25:0.57153 26:0.00984143 
1.315353231705144 0.4669134016688465 1:-0.0535612 2:-0.139339 3:-0.0259413 4:0.102731 5:0.557721 6:-0.41147 7:0.150955 8:-0.0702429 9:-0.471839 10:-0.0463492 11:-0.146517 12:-0.0951273 13:-0.447712 14:0.596464 15:0.0508365 16:-0.104474 17:-0.0130371 18:-0.401542 19:0.118493 20:-0.135586 21:-0.0973149 22:0.0571656 23:0.109457 24:0.122082 25:0.432376 26:0.00853265 
1.207917906504846 2 1:-0.133427 2:-0.0145239 3:-0.0456825 4:0.134362 5:0.428147 6:-0.430076 7:0.197231 8:-0.134417 9:-0.34574 10:-0.17435 11:-0.0683358 12:0.0633223 13:-0.190903 14:0.813759 15:-0.228487 16:-0.157315 17:0.0589178 18:-0.104004 19:-0.0406938 20:0.146787 21:0.0178827 22:-0.139908 23:0.276223 24:0.173965 25:0.127391 26:-0.00694785 
1.266355921515528 1.847113494563172 1:-0.187435 2:0.14189 3:-0.175962 4:0.12915 5:0.317079 6:-0.225539 7:-0.192971 8:0.0376623 9:-0.363184 10:-0.165643 11:0.0709929 12:0.196059 13:-0.0217105 14:0.810884 15:-0.454238 16:0.0032451 17:0.0480898 18:0.136997 19:-0.294957 20:0.417369 21:-0.0872199 22:-0.188715 23:0.142347 24:0.146877 25:-0.106785 26:-0.0205743 
1.468305340845769 0.345179923566528 1:-0.0652686 2:0.212273 3:-0.195423 4:0.142501 5:0.220193 6:-0.153842 7:0.243355 8:-0.00367135 9:-0.334927 10:0.239674 11:-0.0400871 12:0.299029 13:0.145882 14:0.52991 15:-0.398543 16:0.231109 17:0.0313341 18:0.262085 19:-0.347196 20:0.0494329 21:-0.147989 22:-0.0356755 23:-0.294847 24:0.169388 25:-0.297725 26:-0.0234555 
0.6653469754360144 0.5001547126142821 1:0.323004 2:-0.0187982 3:-0.339784 4:0.167791 5:0.172884 6:-0.322301 7:0.437884 8:-0.182016 9:-0.468715 10:0.420758 11:0.0205568 12:0.339504 13:-0.131812 14:0.17864 15:0.00632503 16:0.328131 17:0.0810841 18:0.241192 19:-0.139119 20:-0.411498 21:-0.00873475 22:0.221435 23:-0.625265 24:0.158261 25:-0.407047 26:-0.0154865 
0.3687753155936104 0.1537808323652066 1:0.478643 2:-0.0677989 3:-0.310652 4:0.167372 5:0.16911 6:-0.440025 7:0.432238 8:-0.222595 9:-0.518645 10:0.307503 11:0.134332 12:0.354725 13:-0.19989 14:0.0437021 15:0.357159 16:0.186301 17:0.162175 18:0.155329 19:0.124591 20:-0.690326 21:0.174121 22:0.328543 23:-0.63047 24:0.0653449 25:-0.338837 26:-0.0102227 
0.5741481935251332 0.6781126979405376 1:0.326493 2:-0.0878236 3:-0.206788 4:0.184415 5:0.163448 6:-0.473801 7:0.490721 8:-0.147058 9:-0.375248 10:0.147617 11:0.305894 12:0.298418 13:-0.115101 14:0.127498 15:0.381652 16:0.00165971 17:0.0932615 18:0.157327 19:0.2787 20:-0.674559 21:0.209799 22:0.161382 23:-0.314122 24:-0.0991493 25:-0.163152 26:-0.00998556 
1.67058270330734 1.254254715284124 1:0.296209 2:0.165262 3:-0.104063 4:0.327594 5:0.202949 6:-0.425556 7:0.230816 8:-0.0377746 9:0.00459003 10:-0.147938 11:0.423775 12:0.0521834 13:-0.138736 14:0.16163 15:-0.0238649 16:-0.0164238 17:-0.157981 18:0.19441 19:0.241566 20:-0.176753 21:-0.0439123 22:-0.210683 23:0.181682 24:-0.292773 25:0.140817 26:-0.00347189 
0.05993350435180759 0 1:0.524035 2:0.337579 3:-0.340144 4:0.518944 5:0.104774 6:-0.382641 7:0.0658014 8:0.0991939 9:-0.0082464 10:-0.260889 11:0.430412 12:0.0457956 13:-0.409377 14:0.038526 15:-0.425574 16:0.197979 17:-0.451461 18:0.195372 19:0.118101 20:0.240366 21:-0.382134 22:-0.521843 23:0.449717 24:-0.330619 25:0.287133 26:0.00557295 
0.4660788269300994 0.2977262324437198 1:0.529287 2:0.380617 3:-0.412162 4:0.545256 5:0.15733 6:-0.356883 7:-0.0415804 8:0.259037 9:0.0277006 10:-0.337489 11:0.373579 12:0.0424517 13:-0.58328 14:-0.0424168 15:-0.496614 16:0.394907 17:-0.565141 18:0.107451 19:0.0720069 20:0.433903 21:-0.572434 22:-0.630222 23:0.442022 24:-0.280335 25:0.246129 26:0.012934 
0.6815143796393037 0 1:0.359221 2:0.345891 3:-0.31517 4:0.436414 5:0.376212 6:-0.324923 7:-0.0611765 8:0.358474 9:0.161313 10:-0.317516 11:0.43048 12:0.0052303 13:-0.471672 14:0.0971739 15:-0.338951 16:0.415325 17:-0.387222 18:-0.0661117 19:0.0268106 20:0.319714 21:-0.503947 22:-0.500257 23:0.236552 24:-0.190168 25:0.0930576 26:0.00795163 
2 2 1:0.105835 2:0.228518 3:-0.172902 4:0.316921 5:0.387122 6:-0.217373 7:0.0476526 8:0.0660984 9:0.0045398 10:-0.0341442 11:0.158275 12:0.213388 13:-0.186709 14:0.45636 15:-0.147086 16:0.237629 17:-0.136942 18:-0.0793118 19:-0.10151 20:-0.0949014 21:-0.213452 22:-0.124454 23:-0.0682132 24:-0.00760583 25:-0.112468 26:-0.00120035 
0.566279190450652 0 1:-0.0576002 2:0.316224 3:-0.0342032 4:0.103509 5:0.392138 6:-0.102087 7:0.142519 8:0.0614837 9:-0.287194 10:-0.0712096 11:0.0210993 12:0.0777183 13:-0.330366 14:0.874377 15:-0.12543 16:-0.208439 17:0.135359 18:0.0947803 19:-0.123691 20:-0.501157 21:-0.0446438 22:0.590181 23:-0.29919 24:0.152515 25:-0.183104 26:-0.00536097 
1.146205206115952 0.1823499217859443 1:-0.0148717 2:0.255441 3:0.114765 4:0.191783 5:0.384111 6:-0.16724 7:0.00522107 8:0.138508 9:-0.148021 10:-0.0384433 11:0.000266814 12:0.107834 13:-0.306724 14:0.769107 15:-0.0628469 16:-0.266759 17:0.0529409 18:0.0984545 19:0.0342206 20:-0.186402 21:-0.208859 22:0.474371 23:-0.259947 24:0.171644 25:-0.208429 26:-0.00828655 
2 1.263134393652075 1:0.164451 2:0.111446 3:0.038244 4:0.0172007 5:0.441149 6:-0.31444 7:-0.225391 8:0.0409669 9:-0.0727404 10:-0.00610439 11:-0.0246107 12:0.141618 13:-0.0549926 14:0.490595 15:0.0628649 16:-0.11034 17:-0.0177999 18:-0.0145912 19:0.205506 20:0.320927 21:-0.320887 22:0.099354 23:-0.117588 24:0.168807 25:-0.135233 26:-0.0131091 
1.542197257482694 0.6871334535732322 1:0.355474 2:0.199498 3:-0.132832 4:0.0658298 5:0.539972 6:-0.111591 7:-0.34922 8:0.0527247 9:0.365595 10:-0.215916 11:-0.0253505 12:-0.00787819 13:-0.169413 14:0.148018 15:0.100172 16:0.155407 17:-0.190589 18:-0.125522 19:0.138756 20:0.693074 21:-0.298579 22:-0.370541 23:0.109928 24:0.161885 25:0.0734725 26:-0.0073649 
0.5609869283043866 0.5963987755773535 1:0.55187 2:0.220462 3:-0.209326 4:0.120908 5:0.493181 6:-0.098077 7:-0.280145 8:-0.029608 9:0.463062 10:-0.351873 11:-0.0577016 12:-0.219016 13:-0.348441 14:-0.14745 15:0.0557278 16:0.345583 17:-0.26319 18:-0.135181 19:0.0362343 20:0.706988 21:-0.159666 22:-0.598064 23:0.22087 24:0.0651119 25:0.345781 26:0.00639461 
1.021558591419895 0.7431040749086055 1:0.616894 2:0.229629 3:-0.179331 4:0.00647793 5:0.542461 6:-0.0221894 7:-0.128547 8:-0.130629 9:0.481994 10:-0.282291 11:0.0766809 12:-0.217523 13:-0.321051 14:-0.236779 15:-0.0619753 16:0.350561 17:-0.097019 18:-0.190898 19:-0.0986563 20:0.344166 21:0.0235248 22:-0.685295 23:0.0972099 24:-0.100205 25:0.384414 26:0.00650096 
0.8038913975331635 0.2523606427004534 1:0.534062 2:0.281917 3:-0.117509 4:-0.148016 5:0.535374 6:0.043236 7:0.113595 8:-0.195031 9:0.481367 10:-0.179506 11:0.179968 12:-0.115569 13:-0.206439 14:-0.0647478 15:-0.212655 16:0.184608 17:0.212809 18:-0.129022 19:-0.0912304 20:-0.236026 21:0.121271 22:-0.621629 23:-0.0680794 24:-0.224819 25:0.13623 26:-0.00441488 
0.7828740911908988 0.2262547568738986 1:0.329552 2:0.353058 3:-0.0635194 4:-0.287005 5:0.476686 6:0.0355583 7:0.384483 8:-0.194129 9:0.47167 10:-0.0481857 11:0.100493 12:0.0427519 13:0.0117808 14:0.262254 15:-0.322814 16:0.00344961 17:0.445353 18:0.0243315 19:0.033269 20:-0.711669 21:0.101509 22:-0.432809 23:-0.138138 24:-0.134322 25:-0.0836787 26:-0.0163058 
2 1.238456555224178 1:0.151817 2:0.356157 3:-0.030901 4:-0.195447 5:0.366382 6:0.0170519 7:0.520229 8:-0.125228 9:0.215874 10:-0.242713 11:-0.0142052 12:0.14536 13:0.0736246 14:0.571162 15:-0.293732 16:-0.0735602 17:0.223139 18:0.119916 19:0.019137 20:-0.832398 21:-0.0433541 22:-0.196772 23:-0.000956053 24:0.0665986 25:-0.123741 26:-0.0166972 
2 0.897022379120186 1:0.0539779 2:0.295135 3:-0.0298952 4:-0.0678393 5:0.33239 6:0.0682187 7:0.350385 8:0.0510435 9:0.00999096 10:-0.4153 11:-0.0453541 12:-0.00226131 13:-0.277796 14:0.735332 15:-0.0541132 16:-0.0414538 17:-0.258534 18:0.123798 19:-0.0890461 20:-0.45452 21:-0.309818 22:0.04707 23:0.151456 24:0.180541 25:0.00433466 26:-0.00852042 
1.446580352456589 0.04690489243783554 1:0.071567 2:0.208645 3:-0.0833076 4:0.178539 5:0.394329 6:0.21642 7:0.163521 8:0.0373975 9:-0.0430426 10:-0.142839 11:-0.104921 12:-0.110009 13:-0.291424 14:0.741261 15:0.180703 16:0.0393562 17:-0.659567 18:0.0519207 19:-0.258872 20:0.0527006 21:-0.526311 22:0.220224 23:0.0902172 24:0.0762853 25:0.0107461 26:-0.0114675 
0.6096616144913488 0.5413605987838416 1:0.121977 2:0.133704 3:-0.160523 4:0.108525 5:0.437864 6:0.216595 7:0.0811551 8:0.041909 9:-0.144484 10:-0.0691997 11:0.0904086 12:0.274973 13:-0.0409994 14:0.644884 15:0.201062 16:0.097148 17:-0.575359 18:0.0569782 19:-0.300102 20:0.305552 21:-0.594503 22:0.309249 23:0.0361665 24:-0.225962 25:-0.228404 26:-0.0218909 
1.347266910012911 1.71273165717711 1:0.231373 2:0.283768 3:-0.157368 4:-0.230522 5:0.27486 6:0.0289753 7:0.0182353 8:0.0937876 9:-0.231987 10:-0.184884 11:0.136455 12:0.237081 13:-0.171925 14:0.483557 15:-0.0764726 16:0.075998 17:-0.0664855 18:0.201356 19:-0.168465 20:0.179979 21:-0.44246 22:0.274849 23:0.0389713 24:-0.425135 25:-0.294204 26:-0.0201569 
1.316980276124082 1.424314448136725 1:0.385589 2:0.486815 3:-0.158501 4:-0.350377 5:0.276884 6:0.0143219 7:0.263806 8:-0.210258 9:-0.164 10:-0.0764104 11:-0.0020689 12:0.0810117 13:-0.539345 14:0.288004 15:-0.38277 16:0.0370774 17:0.367128 18:0.258401 19:-0.0696298 20:-0.231298 21:-0.0169388 22:0.114475 23:0.00277813 24:-0.371459 25:-0.152433 26:-0.00207831 
0.4945035998169751 0.01625879874236098 1:0.554446 2:0.406405 3:-0.224282 4:-0.398074 5:0.373949 6:-0.0584356 7:0.243142 8:-0.467351 9:-0.0115376 10:0.0117748 11:-0.244981 12:-0.0503802 13:-0.835612 14:0.116082 15:-0.39563 16:0.0540942 17:0.497484 18:0.159769 19:-0.0457412 20:-0.397944 21:0.332467 22:-0.116825 23:-0.0772121 24:-0.106868 25:0.095565 26:0.0201054 
0.3571067280362897 0.5086050509882453 1:0.64746 2:0.308478 3:-0.29701 4:-0.321362 5:0.475672 6:-0.129731 7:0.118092 8:-0.432045 9:0.031909 10:0.141583 11:-0.421479 12:-0.0704994 13:-0.911764 14:0.0376511 15:-0.207614 16:0.11896 17:0.251994 18:-0.0302442 19:-0.11892 20:-0.26973 21:0.348172 22:-0.256482 23:-0.256629 24:0.176507 25:0.212432 26:0.0262043 
0.9350407500721664 1.106223220182997 1:0.660102 2:0.256973 3:-0.368602 4:-0.186216 5:0.517081 6:-0.203563 7:-0.0302666 8:-0.294195 9:0.0609806 10:0.192118 11:-0.596761 12:-0.0269227 13:-0.787511 14:0.0773799 15:-0.00364956 16:0.196256 17:-0.0875463 18:-0.152908 19:-0.147935 20:-0.00163225 21:0.0706422 22:-0.240027 23:-0.301019 24:0.35069 25:0.0672882 26:0.0140624 
0.4801701629986599 0.3231349213209976 1:0.626629 2:0.246163 3:-0.401451 4:-0.0897539 5:0.508786 6:-0.315572 7:-0.139414 8:-0.113287 9:0.0176866 10:0.0991904 11:-0.677826 12:-0.00144295 13:-0.629014 14:0.178297 15:0.0490455 16:0.221656 17:-0.259483 18:-0.108961 19:-0.0205766 20:0.266184 21:-0.275952 22:-0.0929282 23:-0.0961246 24:0.376965 25:-0.082756 26:0.0034059 
0.9318193241668262 0.4590238308832149 1:0.590044 2:0.262995 3:-0.40283 4:-0.0850831 5:0.514786 6:-0.483659 7:-0.124134 8:-0.0478605 9:-0.0310191 10:0.0219337 11:-0.632599 12:0.00205461 13:-0.603082 14:0.254226 15:-0.0284418 16:0.248131 17:-0.258892 18:-0.0368673 19:0.201207 20:0.317026 21:-0.412752 22:0.0112002 23:0.0957684 24:0.279514 25:-0.178111 26:0.00438156 
0 0.1478585177038763 1:0.558282 2:0.255927 3:-0.423301 4:-0.128013 5:0.495464 6:-0.638053 7:-0.136905 8:-0.11611 9:0.0355447 10:-0.0703219 11:-0.66355 12:-0.0712077 13:-0.617748 14:0.262724 15:-0.104234 16:0.287732 17:-0.130029 18:-0.0188842 19:0.473412 20:0.18798 21:-0.3326 22:-0.0603918 23:0.10286 24:0.213537 25:-0.169093 26:0.00715896 
0.6416625102314962 0.7101406432211103 1:0.532619 2:0.24119 3:-0.416674 4:-0.117376 5:0.506654 6:-0.675002 7:-0.130631 8:-0.136991 9:0.0890052 10:0.0236407 11:-0.534793 12:-0.133118 13:-0.521985 14:0.232852 15:-0.20572 16:0.259666 17:-0.00605051 18:-0.0147976 19:0.620647 20:-0.00851716 21:-0.197322 22:-0.229041 23:-0.128757 24:0.112693 25:-0.148382 26:-0.00250512 
0.7879632466067766 0.1975592125076328 1:0.488489 2:0.240689 3:-0.404076 4:-0.100894 5:0.524365 6:-0.638914 7:0.0457776 8:-0.0776686 9:0.139035 10:0.230771 11:-0.464667 12:-0.141087 13:-0.155357 14:0.228469 15:-0.277814 16:0.211931 17:0.0157599 18:0.0265327 19:0.583919 20:-0.184636 21:-0.0835078 22:-0.29806 23:-0.365507 24:0.113318 25:-0.0674612 26:-0.020868 
2 2 1:0.400366 2:0.250236 3:-0.231026 4:-0.115866 5:0.482103 6:-0.532932 7:0.114786 8:-0.136523 9:0.113264 10:0.108762 11:-0.467294 12:-0.328392 13:0.0746281 14:0.286249 15:-0.274424 16:0.11503 17:-0.0420115 18:0.131299 19:0.372644 20:-0.202716 21:-0.0359267 22:-0.189346 23:-0.291259 24:0.145621 25:0.120229 26:-0.0321514 
2 2 1:0.292259 2:0.171913 3:-0.169491 4:-0.0485523 5:0.397652 6:-0.259529 7:-0.0833998 8:-0.162581 9:0.00271988 10:-0.165537 11:-0.260386 12:-0.380954 13:-0.0489131 14:0.383782 15:-0.146337 16:0.0335975 17:-0.135925 18:0.167868 19:-0.0612068 20:-0.100035 21:-0.0994289 22:0.0149721 23:0.0593206 24:0.0612761 25:0.341703 26:-0.0231014 
1.538188894573315 0.98839738739548 1:0.200962 2:-0.0135649 3:-0.253743 4:0.0251258 5:0.495756 6:-0.106121 7:-0.041071 8:-0.0549609 9:-0.153182 10:-0.315357 11:-0.237821 12:-0.519667 13:-0.379407 14:0.455958 15:0.0272332 16:0.0023537 17:-0.185603 18:0.0632009 19:-0.425334 20:-0.102869 21:-0.28414 22:0.109489 23:0.394515 24:-0.0149604 25:0.599222 26:0.000787278 
0.241864008051084 0.1570697321447175 1:0.156835 2:-0.0146381 3:-0.0924172 4:-0.0538412 5:0.553757 6:0.0412748 7:0.0671778 8:0.0728474 9:0.033585 10:-0.299235 11:0.0352462 12:-0.382561 13:-0.284041 14:0.463117 15:0.0665438 16:-0.0901987 17:-0.122822 18:-0.0549505 19:-0.594599 20:-0.191301 21:-0.421493 22:0.0131289 23:0.400855 24:-0.192739 25:0.506149 26:0.0126478 
2 1.366324024906945 1:0.141406 2:-0.0190417 3:-0.0265953 4:-0.0836846 5:0.600005 6:0.135873 7:0.0424188 8:-0.0248121 9:0.0838647 10:-0.226429 11:0.101395 12:-0.31377 13:-0.329685 14:0.413267 15:0.0229219 16:-0.127891 17:-0.0662949 18:-0.120602 19:-0.493 20:-0.24295 21:-0.352397 22:0.024852 23:0.156632 24:-0.237766 25:0.117744 26:0.00895033 
2 2 1:0.150237 2:-0.0169569 3:-0.149064 4:-0.0591205 5:0.489127 6:-0.155459 7:-0.0829164 8:-0.118568 9:0.0620853 10:-0.00337546 11:0.0732887 12:-0.0116715 13:-0.235722 14:0.35404 15:-0.0341281 16:-0.122759 17:-0.0552384 18:-0.0581819 19:-0.164715 20:-0.119489 21:-0.188448 22:0.101582 23:-0.139556 24:-0.18466 25:-0.229588 26:-0.00317294 
2 2 1:0.125683 2:-0.0776625 3:-0.196764 4:-0.0752687 5:0.498546 6:-0.187669 7:-0.143683 8:-0.285638 9:-0.0313076 10:0.105478 11:0.137794 12:0.366988 13:0.0344919 14:0.401476 15:0.0799289 16:-0.0266215 17:-0.0796699 18:-0.0272774 19:-0.0411658 20:0.0990507 21:-0.0522803 22:0.0725789 23:-0.273583 24:-0.222382 25:-0.398973 26:-0.0134857 
2 2 1:0.116955 2:-0.0929445 3:-0.241057 4:-0.0498791 5:0.524085 6:-0.177928 7:-0.216514 8:-0.229794 9:0.11822 10:-0.0886891 11:0.0673438 12:0.089204 13:-0.105191 14:0.542353 15:0.219145 16:0.145887 17:-0.151637 18:-0.042485 19:-0.0734219 20:0.216887 21:-0.0651285 22:-0.149206 23:-0.233872 24:-0.226952 25:-0.168195 26:-0.0100601 
1.550957910136436 0.7934630073580451 1:0.0911648 2:-0.0755896 3:-0.319756 4:-0.102361 5:0.47899 6:-0.20385 7:-0.239127 8:-0.159427 9:0.496217 10:0.0199715 11:0.153619 12:-0.114148 13:-0.248978 14:0.668106 15:0.205155 16:0.273639 17:-0.157466 18:-0.0263345 19:-0.143838 20:0.134555 21:-0.144863 22:-0.431637 23:-0.218596 24:-0.244369 25:0.0124267 26:-0.00598364 
1.579132449588857 1.112654722726999 1:0.0908711 2:-0.039604 3:-0.518654 4:-0.129072 5:0.441186 6:-0.337556 7:-0.109224 8:-0.295151 9:0.453049 10:0.0116706 11:0.046291 12:0.380682 13:-0.0570659 14:0.646124 15:0.0321711 16:0.329867 17:-0.0999707 18:0.014 19:-0.0835483 20:-0.0340578 21:-0.144793 22:-0.363926 23:-0.124466 24:-0.0760728 25:-0.0826087 26:-0.00457434 
1.372038346606332 2 1:0.352453 2:0.251951 3:-0.361289 4:-0.139797 5:0.346541 6:-0.517975 7:-0.0922097 8:-0.377482 9:0.158045 10:-0.0918574 11:-0.258539 12:0.337252 13:-0.0822475 14:0.406173 15:-0.247578 16:0.206248 17:0.0111698 18:0.097939 19:0.176285 20:-0.118389 21:-0.134669 22:-0.07393 23:0.00577691 24:0.192129 25:-0.130789 26:-0.00201174 
0 0.06966735521007961 1:0.601312 2:0.252189 3:-0.331374 4:-0.239587 5:0.360089 6:-0.602614 7:-0.116526 8:-0.269004 9:0.167995 10:-0.250356 11:-0.301511 12:0.2123 13:-0.15338 14:0.132998 15:-0.29729 16:0.069406 17:0.157502 18:0.100028 19:0.401435 20:-0.166779 21:-0.122887 22:0.0105239 23:0.161308 24:0.257883 25:-0.132091 26:-0.00287967 
0.2322114318681188 0.1195016887191957 1:0.695101 2:0.222724 3:-0.348978 4:-0.277716 5:0.352282 6:-0.665432 7:-0.170142 8:-0.300629 9:0.357713 10:-0.262742 11:-0.263753 12:0.182838 13:-0.20435 14:-0.0192114 15:-0.197324 16:0.00954748 17:0.185231 18:0.0664862 19:0.476098 20:-0.195576 21:-0.0599639 22:-0.213815 23:0.267355 24:0.167343 25:-0.0458341 26:-0.00291394 
0.7050624039910064 0 1:0.710113 2:0.244516 3:-0.390002 4:-0.187856 5:0.329424 6:-0.622371 7:-0.0774745 8:-0.400295 9:0.439002 10:-0.157724 11:-0.166781 12:0.311236 13:-0.0521552 14:-0.034571 15:-0.0898473 16:0.0416175 17:0.0444197 18:-9.60488e-05 19:0.367987 20:-0.193324 21:0.0130038 22:-0.520579 23:0.205863 24:0.0613206 25:-0.000847821 26:-0.00449525 
0.1733689251079485 0.07978967943646517 1:0.719372 2:0.3085 3:-0.417814 4:-0.0860404 5:0.302548 6:-0.52052 7:-0.114687 8:-0.397506 9:0.33385 10:-0.140087 11:-0.197764 12:0.243658 13:-0.0431015 14:0.0655224 15:-0.0448029 16:0.0721146 17:-0.182232 18:-0.137611 19:0.153191 20:-0.0558386 21:0.0110247 22:-0.567987 23:0.0536391 24:0.147101 25:-0.0489482 26:-0.00485896 
0.3438199463954734 0.1825117696261547 1:0.700081 2:0.355925 3:-0.445599 4:-0.0383106 5:0.301357 6:-0.371449 7:-0.275832 8:-0.270089 9:0.0967231 10:-0.0269644 11:-0.30851 12:0.24703 13:-0.171444 14:0.195302 15:-0.120752 16:0.0218781 17:-0.36534 18:-0.328796 19:-0.0533405 20:0.144317 21:-0.0975287 22:-0.324621 23:-0.163481 24:0.316733 25:-0.078364 26:0.00105826 
0.6552329841183152 0.3543796138689327 1:0.608655 2:0.385633 3:-0.425932 4:-0.0521468 5:0.293947 6:-0.318715 7:-0.366391 8:-0.167112 9:-0.0663937 10:0.0931311 11:-0.2831 12:0.19225 13:-0.136035 14:0.329238 15:-0.185926 16:0.0155196 17:-0.416547 18:-0.447433 19:-0.171561 20:0.217026 21:-0.185567 22:-0.0319542 23:-0.310748 24:0.25713 25:-0.0584122 26:0.00807171 
0 0.4422136156661878 1:0.464718 2:0.396818 3:-0.446383 4:-0.119619 5:0.154174 6:-0.246983 7:-0.228991 8:-0.139221 9:-0.220088 10:0.134063 11:-0.00538293 12:0.197329 13:-0.0640568 14:0.428235 15:-0.188843 16:0.16618 17:-0.315211 18:-0.265988 19:-0.211549 20:0.112771 21:-0.095544 22:0.237271 23:-0.242751 24:-0.0709461 25:-0.0612295 26:0.01171 
0.3870351547736597 0.2620338023674779 1:0.507721 2:0.42417 3:-0.687278 4:-0.326279 5:-0.378565 6:-0.212728 7:-0.156953 8:-0.145426 9:-0.469754 10:-0.122899 11:0.258369 12:0.108096 13:0.153402 14:0.363647 15:-0.102712 16:0.474759 17:0.161464 18:0.590645 19:-0.154268 20:-0.0688488 21:0.0628617 22:0.498716 23:0.304851 24:-0.377738 25:-0.000202474 26:-0.0105247 
0.31071379532732 0.2480147098808406 1:0.47981 2:0.380882 3:-0.554449 4:-0.473725 5:-0.483109 6:-0.245457 7:-0.189082 8:0.0698036 9:-0.415611 10:-0.143997 11:0.0881266 12:0.0443686 13:0.407973 14:0.324569 15:-0.0617891 16:0.299515 17:0.340646 18:0.716435 19:-0.0736012 20:-0.0611415 21:-0.181474 22:0.347996 23:0.314052 24:-0.0961724 25:0.0693589 26:-0.0220206 
0.1879752375074489 0 1:0.426461 2:0.429768 3:-0.339732 4:-0.474776 5:-0.3589 6:-0.2819 7:-0.0599883 8:0.347114 9:-0.170666 10:0.12607 11:0.00138385 12:0.00447883 13:0.508785 14:0.325688 15:-0.124617 16:0.00335503 17:0.330246 18:0.485377 19:0.0617569 20:-0.107605 21:-0.43825 22:-0.0122888 23:0.0193626 24:0.182045 25:0.127065 26:-0.0220394 
0.3885922349509627 0 1:0.43027 2:0.45001 3:-0.32197 4:-0.349084 5:-0.280654 6:-0.338397 7:0.0381267 8:0.361113 9:-0.0208655 10:0.332156 11:0.0545625 12:0.03267 13:0.282271 14:0.330593 15:-0.20286 16:-0.159887 17:0.173009 18:0.193984 19:0.216134 20:-0.164434 21:-0.47889 22:-0.335453 23:-0.331701 24:0.219853 25:0.101629 26:-0.00996395 
0 0.03537439882352709 1:0.218607 2:0.281867 3:-0.207914 4:0.322647 5:-0.0611243 6:-0.0616271 7:-0.104229 8:0.17818 9:0.288474 10:-0.163808 11:0.0632666 12:0.261227 13:0.180101 14:0.371257 15:-0.187632 16:0.215876 17:-0.508035 18:0.139545 19:-0.0488461 20:0.209218 21:-0.0130919 22:-0.368963 23:0.278219 24:0.0692106 25:-0.17289 26:0.000194916 
0 0.7823426666031826 1:0.16619 2:0.325261 3:-0.161408 4:0.325209 5:-0.0611362 6:-0.0461816 7:-0.0244427 8:0.159153 9:0.179686 10:-0.0738023 11:0.1074 12:0.277845 13:0.155128 14:0.463514 15:-0.380887 16:0.199673 17:-0.384153 18:0.28783 19:-0.0212393 20:0.111979 21:-0.0809475 22:-0.332064 23:0.130061 24:0.0528625 25:-0.364557 26:-0.00912647 
0 0.8776453407499658 1:0.113728 2:0.348424 3:-0.0813738 4:0.278911 5:-0.109668 6:0.0530029 7:0.115487 8:0.129335 9:0.259999 10:0.0549136 11:0.0679924 12:0.263692 13:0.309832 14:0.531693 15:-0.383653 16:0.10069 17:-0.105625 18:0.272937 19:-0.0234252 20:-0.0171983 21:-0.231391 22:-0.230883 23:-0.0617124 24:0.207063 25:-0.374071 26:-0.0163976 
0.8811012451939628 0.1723185669852969 1:0.328061 2:-0.01567 3:0.200837 4:0.177835 5:0.255019 6:-0.0446846 7:0.219424 8:-0.0135189 9:0.0344488 10:0.20829 11:0.386337 12:-0.246171 13:-0.23256 14:0.219532 15:0.20569 16:-0.0894863 17:0.221507 18:-0.33228 19:0.01959 20:-0.00795242 21:-0.0389503 22:0.114787 23:-0.295988 24:0.107002 25:0.363041 26:0.0100649 
0 0.7372401248339402 1:0.337803 2:0.073018 3:0.127277 4:0.288967 5:0.173265 6:0.0245673 7:0.428202 8:-0.0623989 9:0.142979 10:0.10491 11:0.617539 12:-0.031119 13:0.000375409 14:0.158281 15:0.0295546 16:0.060389 17:-0.0367565 18:-0.127331 19:-0.0670406 20:-0.267681 21:0.125171 22:-0.0250462 23:-0.0498599 24:-0.207279 25:0.217533 26:0.00146716 
0.546105103138657 0.2534043957035536 1:0.302709 2:0.0586196 3:0.179575 4:0.46446 5:0.0664709 6:-0.056571 7:0.550231 8:0.117897 9:0.145652 10:-0.186052 11:0.874171 12:0.0107099 13:0.0115716 14:0.262181 15:-0.409169 16:0.138654 17:-0.288998 18:0.250481 19:-0.0942397 20:-0.436031 21:0.0704007 22:-0.191712 23:0.263459 24:-0.500354 25:-0.165157 26:-0.00992517 
0.1575120107316212 0 1:0.273352 2:0.0295952 3:0.19252 4:0.428106 5:0.103539 6:-0.0666907 7:0.443653 8:0.0811244 9:0.218046 10:-0.0318154 11:0.87109 12:-0.0845088 13:-0.0758343 14:0.337786 15:-0.430567 16:0.0265958 17:-0.201627 18:0.30082 19:-0.0459538 20:-0.263214 21:-0.0310308 22:-0.0825584 23:0.0519849 24:-0.545491 25:0.010241 26:-0.00268269 
0.9243615190953703 1.217533217045426 1:0.248434 2:-0.0191888 3:0.247649 4:0.404749 5:0.227927 6:-0.0692385 7:0.272118 8:0.219029 9:-0.105089 10:0.114234 11:0.820251 12:-0.171561 13:-0.235335 14:0.389109 15:-0.307171 16:-0.124153 17:-0.1633 18:0.270686 19:-0.114615 20:-0.160919 21:-0.150976 22:0.101855 23:-0.246471 24:-0.417035 25:0.307982 26:0.00711936 
0.1371631307013642 0.4656904019921129 1:0.23074 2:-0.196713 3:0.241775 4:0.474448 5:0.140672 6:-0.245021 7:0.33998 8:0.523155 9:0.0710428 10:-0.00808261 11:0.74045 12:-0.196972 13:-0.230983 14:0.411842 15:-0.0613292 16:-0.214648 17:-0.220234 18:0.301682 19:-0.167707 20:-0.306631 21:-0.403097 22:0.0953403 23:-0.30989 24:-0.137425 25:0.379705 26:0.00652844 
0.6068098056193898 0.7763860171755056 1:0.205307 2:-0.39529 3:0.189475 4:0.43907 5:0.255704 6:-0.117097 7:0.351075 8:0.38233 9:0.223129 10:0.0743744 11:0.325136 12:-0.104157 13:0.0838688 14:0.389624 15:0.227738 16:-0.228978 17:-0.312395 18:0.185544 19:-0.134581 20:-0.296137 21:-0.537955 22:0.029732 23:-0.211935 24:0.237155 25:0.271552 26:0.000649177 
1.004131648103953 0.6966012158829192 1:0.263345 2:-0.440819 3:0.0326271 4:0.40709 5:0.570598 6:-0.237923 7:0.0856589 8:0.527562 9:0.178664 10:-0.208006 11:0.133093 12:0.12008 13:-0.144437 14:0.292221 15:0.437237 16:-0.137991 17:-0.449317 18:-0.129171 19:0.204986 20:0.216526 21:-0.595405 22:-0.0874468 23:0.0649275 24:0.372079 25:-0.0130041 26:0.00172729 
0.6559801548714407 0.3782291721733329 1:0.297787 2:-0.436083 3:-0.126048 4:0.307547 5:0.57916 6:-0.559861 7:-0.167096 8:0.547959 9:0.171708 10:-0.321939 11:0.32771 12:0.283061 13:-0.0797112 14:0.16833 15:0.49284 16:0.0637855 17:-0.480269 18:-0.397339 19:0.670018 20:0.833844 21:-0.468951 22:-0.290952 23:0.29197 24:0.234741 25:-0.2933 26:0.0019128 
0.7059899572233489 0.432706754602365 1:0.281433 2:-0.432521 3:-0.295203 4:0.194335 5:0.696675 6:-0.59539 7:-0.358034 8:0.214471 9:0.417064 10:-0.199443 11:0.305693 12:0.223154 13:0.0468051 14:0.0851001 15:0.330609 16:0.305792 17:-0.230082 18:-0.550427 19:0.722884 20:0.994842 21:-0.124541 22:-0.439389 23:0.290399 24:0.0882208 25:-0.344973 26:-0.00124988 
0.7633814658980604 0.6026719019668705 1:0.246983 2:-0.302403 3:-0.459919 4:-0.0270014 5:0.719903 6:-0.311275 7:-0.0742512 8:0.100369 9:0.40498 10:-0.248415 11:0.231522 12:0.395473 13:0.259623 14:0.103466 15:0.0597997 16:0.518893 17:0.191016 18:-0.438189 19:0.277841 20:0.377842 21:0.0917959 22:-0.477453 23:0.186424 24:-0.0105154 25:-0.291754 26:-0.00832018 
0.6178150535086281 0.584702293584464 1:0.135208 2:-0.0509732 3:-0.621334 4:-0.358443 5:0.565389 6:-0.0201476 7:0.536993 8:0.166666 9:0.214583 10:-0.2019 11:0.189056 12:0.311099 13:0.14775 14:0.31534 15:-0.166506 16:0.601587 17:0.455828 18:-0.239279 19:-0.317331 20:-0.551938 21:0.052361 22:-0.38828 23:-0.0392903 24:0.0174713 25:-0.107566 26:-0.0193444 
0.8842574438684025 0.5790196104367995 1:-0.0295108 2:0.0616222 3:-0.509475 4:-0.495557 5:0.358055 6:0.18031 7:0.663247 8:0.0176904 9:0.0373758 10:0.123768 11:0.243191 12:0.0953452 13:0.35629 14:0.597395 15:-0.225539 16:0.466034 17:0.310666 18:-0.106901 19:-0.600671 20:-0.899334 21:-0.139862 22:-0.214934 23:-0.278991 24:0.0480874 25:0.0449253 26:-0.0285143 
0.8529742865527488 0 1:-0.159402 2:-0.022367 3:-0.428527 4:-0.159408 5:0.398391 6:0.0150856 7:0.393608 8:0.202057 9:0.0557603 10:0.0343868 11:0.260027 12:0.225008 13:0.278776 14:0.728212 15:-0.139785 16:0.256834 17:-0.167467 18:-0.0525007 19:-0.341462 20:-0.548917 21:-0.395601 22:-0.0786926 23:-0.32514 24:0.0179317 25:0.0309222 26:-0.0234589 
0 0.1844126745202873 1:0.217208 2:0.334408 3:-0.231804 4:-0.625954 5:-0.0648494 6:-0.0336119 7:0.330879 8:-0.212504 9:-0.364247 10:-0.166357 11:0.261985 12:0.104716 13:-0.328016 14:0.311485 15:-0.0689249 16:0.0553903 17:0.395858 18:0.496147 19:0.151808 20:0.183833 21:0.110989 22:0.262952 23:0.0860698 24:-0.301344 25:0.0579193 26:0.0149009 
0.8262566036907314 0.2960504277025743 1:0.101017 2:0.541442 3:-0.0412955 4:-0.2832 5:0.174313 6:0.114784 7:0.395419 8:-0.00407521 9:-0.154245 10:-0.121291 11:-0.0269935 12:0.297778 13:-0.00722487 14:0.492409 15:-0.400058 16:0.0632018 17:-0.121473 18:0.0469054 19:-0.305287 20:-0.0473575 21:-0.215865 22:-0.210824 23:-0.0685914 24:-0.295968 25:-0.118167 26:-0.0142342 
0.7528325745096633 0.1459818347971004 1:0.370858 2:0.689031 3:-0.0950711 4:-0.251191 5:0.112699 6:0.125738 7:0.433859 8:-0.0684393 9:-0.160628 10:-0.182465 11:-0.135304 12:0.180828 13:-0.15214 14:0.396857 15:-0.577761 16:0.146387 17:-0.463817 18:-0.0767791 19:-0.265805 20:-0.0498924 21:-0.324054 22:-0.277121 23:-0.0885963 24:-0.0346402 25:-0.0936721 26:-0.0163156 
0.5742765240425068 0.7926605245752798 1:0.50714 2:0.635486 3:-0.0749675 4:-0.314373 5:0.108447 6:-0.00152383 7:0.490319 8:-0.139577 9:-0.285579 10:-0.245865 11:-0.423394 12:0.191176 13:-0.308756 14:0.224673 15:-0.536508 16:0.184531 17:-0.423073 18:0.00581667 19:-0.0808088 20:-0.0658623 21:-0.22562 22:-0.139885 23:-0.0483547 24:0.326031 25:-0.0248019 26:-0.00601862 
0.3273922376453868 0.4972722586254502 1:0.588924 2:0.474756 3:0.0169264 4:-0.451146 5:0.0758577 6:-0.162733 7:0.495583 8:-0.225786 9:-0.351096 10:-0.395266 11:-0.749152 12:0.109629 13:-0.432097 14:0.110118 15:-0.286741 16:0.144594 17:-0.149567 18:0.134038 19:0.124007 20:-0.117879 21:-0.113247 22:-0.013235 23:0.0586658 24:0.603274 25:0.0489473 26:0.00469486 
0.5937570720997174 0.3038963609499385 1:0.638819 2:0.406262 3:0.139534 4:-0.498518 5:0.1322 6:-0.14077 7:0.567954 8:-0.199674 9:-0.297905 10:-0.339456 11:-0.711652 12:0.142133 13:-0.420138 14:0.13275 15:-0.0325083 16:0.05686 17:0.0964874 18:0.146922 19:0.180678 20:-0.191861 21:-0.129906 22:-0.00506977 23:0.07065 24:0.590784 25:0.0427609 26:0.00701645 
0.3871213754055466 0.234403802669165 1:0.674462 2:0.34137 3:0.196732 4:-0.539338 5:0.185259 6:-0.115238 7:0.592531 8:-0.215805 9:-0.279682 10:-0.341169 11:-0.57759 12:0.164071 13:-0.491612 14:0.215268 15:0.0780971 16:-0.0273257 17:0.133006 18:0.0318248 19:0.117175 20:-0.233119 21:-0.24283 22:-0.0444622 23:-0.00442949 24:0.39302 25:0.0223053 26:0.00671981 
0.3255494465491183 0 1:0.680578 2:0.29691 3:0.201036 4:-0.553722 5:0.257421 6:-0.138563 7:0.562768 8:-0.234078 9:-0.293314 10:-0.344784 11:-0.446506 12:0.140367 13:-0.499937 14:0.270502 15:0.0580367 16:-0.0277855 17:0.0737541 18:-0.0497395 19:0.0657865 20:-0.204918 21:-0.326064 22:-0.00625627 23:-0.0557378 24:0.101544 25:0.05753 26:0.00396778 
0.407525327532557 0.7066720521064123 1:0.67786 2:0.266869 3:0.245574 4:-0.516394 5:0.274568 6:-0.174395 7:0.502911 8:-0.279977 9:-0.315516 10:-0.351413 11:-0.322782 12:0.0753049 13:-0.436772 14:0.304272 15:-0.00216964 16:-0.0141939 17:-0.0185287 18:-0.0549605 19:0.0811405 20:-0.106413 21:-0.297731 22:0.0991806 23:-0.0373587 24:-0.120514 25:0.0862707 26:-8.09866e-05 
1.25368561011766 0.02893763281885752 1:0.704711 2:0.245166 3:0.236284 4:-0.515216 5:0.286142 6:-0.134461 7:0.405685 8:-0.530501 9:-0.205494 10:-0.420671 11:-0.112033 12:0.215202 13:-0.316694 14:0.282764 15:-0.0404066 16:-0.000945703 17:-0.0157526 18:-0.0279627 19:0.202595 20:0.0195056 21:0.0388112 22:-0.055716 23:0.05158 24:-0.183362 25:0.0761517 26:-0.00402651 
0.3273862994837563 0 1:0.710425 2:0.233468 3:0.23037 4:-0.501284 5:0.317668 6:-0.0854662 7:0.393566 8:-0.611035 9:-0.0544959 10:-0.408029 11:-0.129124 12:0.209516 13:-0.350005 14:0.225137 15:0.00775817 16:-0.0171308 17:0.0552902 18:-0.130562 19:0.270295 20:-0.0923621 21:0.157495 22:-0.358158 23:0.0134739 24:-0.0777626 25:0.0679621 26:-0.000180336 
0.8481980557153465 0.2546862925074228 1:0.697586 2:0.206038 3:0.197915 4:-0.484979 5:0.340129 6:-0.0343773 7:0.450229 8:-0.588493 9:0.0448878 10:-0.337835 11:-0.143391 12:0.228476 13:-0.29745 14:0.141621 15:-0.0215977 16:0.0258683 17:0.0836972 18:-0.151037 19:0.21238 20:-0.163867 21:0.14607 22:-0.615292 23:-0.039933 24:0.0278679 25:0.0482549 26:0.00110873 
0.5107628301819835 0.0848960819516001 1:0.673521 2:0.205689 3:0.153112 4:-0.442397 5:0.34001 6:0.0580466 7:0.442954 8:-0.546029 9:-0.0109828 10:-0.316333 11:-0.134482 12:0.345559 13:-0.245383 14:0.114113 15:-0.143959 16:0.0958916 17:0.0250254 18:0.0273846 19:0.00192467 20:-0.0950134 21:0.11948 22:-0.573649 23:-0.0211616 24:0.0643327 25:-0.0481135 26:-0.00816878 
1.713899438606075 0.4519641624671222 1:0.62492 2:0.283607 3:0.0812251 4:-0.3501 5:0.211419 6:0.274865 7:0.274385 8:-0.449736 9:-0.119112 10:-0.400262 11:-0.0214821 12:0.444378 13:-0.1164 14:0.175015 15:-0.291927 16:0.148002 17:-0.0991302 18:0.330138 19:-0.345828 20:0.0275332 21:0.0214426 22:-0.247989 23:0.0654875 24:-0.00188268 25:-0.201947 26:-0.0168666 
0.5159866775217867 0.9583672586505769 1:0.474641 2:0.339696 3:-0.0221071 4:-0.244286 5:0.0855952 6:0.463514 7:0.141237 8:-0.366782 9:-0.355461 10:-0.34438 11:0.000333454 12:0.425963 13:-0.00895608 14:0.326644 15:-0.403733 16:0.137653 17:-0.196238 18:0.458417 19:-0.610066 20:0.0531589 21:-0.0500071 22:0.16974 23:0.00722282 24:-0.0886331 25:-0.343887 26:-0.0175567 
0.8760095817022213 0.1613379030050668 1:0.262301 2:0.143733 3:0.051035 4:-0.248309 5:0.25827 6:0.317323 7:0.316822 8:-0.296869 9:-0.589067 10:-0.299195 11:0.0310137 12:0.485863 13:-0.0363728 14:0.499137 15:-0.315709 16:0.112029 17:-0.239789 18:0.260112 19:-0.539693 20:-0.0784853 21:-0.213849 22:0.381559 23:-0.132665 24:-0.102572 25:-0.363658 26:-0.00838569 
0.4296291145448859 0.4351463221789768 1:0.259779 2:0.068218 3:0.0300107 4:-0.235385 5:0.486154 6:0.23975 7:0.344984 8:0.0171103 9:-0.456876 10:-0.182039 11:0.0458351 12:0.38693 13:-0.50659 14:0.547883 15:-0.190221 16:0.207609 17:-0.236707 18:-0.076556 19:-0.277735 20:-0.0640651 21:-0.481284 22:0.226654 23:-0.189719 24:-0.0344154 25:-0.181064 26:0.008393 
2 0.785765497331685 1:0.229197 2:0.0766171 3:-0.0772708 4:-0.231708 5:0.553559 6:0.0809181 7:0.160245 8:-0.0773611 9:-0.321378 10:-0.141476 11:0.0243316 12:0.251308 13:-0.225765 14:0.499354 15:-0.126814 16:0.375154 17:-0.218003 18:-0.294241 19:0.0444312 20:0.106735 21:-0.47147 22:0.0627167 23:-0.0518159 24:0.0835683 25:0.115886 26:0.0103495 
0.8805669497182828 0.7757464654103484 1:0.202182 2:-0.154597 3:-0.206508 4:-0.216403 5:0.460625 6:-0.104494 7:0.0439096 8:0.114991 9:-0.297805 10:-0.416453 11:-0.055081 12:0.0168814 13:-0.101011 14:0.40028 15:-0.0414359 16:0.481512 17:-0.174219 18:-0.269911 19:0.213965 20:0.207989 21:-0.331201 22:-0.0167204 23:0.207809 24:0.159154 25:0.351666 26:0.00289889 
0.2153865582583845 0.5617252027993973 1:0.245295 2:-0.187901 3:0.0184299 4:-0.335838 5:0.530114 6:-0.123043 7:0.150203 8:-0.131979 9:-0.369711 10:-0.459426 11:0.0680044 12:0.0921108 13:-0.201128 14:0.323664 15:-0.0676773 16:0.329329 17:-0.0853275 18:-0.112311 19:0.169715 20:0.0495188 21:-0.0612475 22:0.0734345 23:0.244171 24:0.120739 25:0.315001 26:-0.00626965 
1.735672982063502 0.9377442713598633 1:0.251669 2:-0.224561 3:0.198114 4:-0.340403 5:0.519816 6:-0.137559 7:0.385323 8:-0.247698 9:-0.352991 10:-0.133962 11:0.138634 12:0.139211 13:-0.0492105 14:0.330392 15:-0.061797 16:0.0317033 17:-0.018706 18:0.03419 19:0.0941731 20:-0.294341 21:0.0578373 22:0.148327 23:0.0626127 24:0.0480011 25:0.0983038 26:-0.0153627 
0.2610329373333069 1.091023573962453 1:0.199575 2:-0.378435 3:0.255449 4:-0.409862 5:0.423538 6:-0.193106 7:0.32829 8:0.036787 9:0.0114763 10:0.027329 11:0.217812 12:0.27815 13:0.0923778 14:0.366823 15:0.0302467 16:-0.191332 17:0.052034 18:0.0934814 19:0.0573492 20:-0.404624 21:-0.143629 22:-0.115167 23:-0.165068 24:-0.0719543 25:-0.159479 26:-0.0186994 
0.5046759419194926 0.3227560716267975 1:0.188972 2:-0.428139 3:0.335378 4:-0.391151 5:0.390626 6:-0.29573 7:0.202332 8:0.169484 9:-0.0565797 10:-0.0646953 11:0.250617 12:0.236508 13:-0.0957233 14:0.372675 15:0.0962425 16:-0.290937 17:0.0683346 18:0.110051 19:0.107027 20:-0.207286 21:-0.312414 22:-0.292177 23:-0.251609 24:-0.192571 25:-0.300667 26:-0.0145067 
1.337658037231801 0 1:0.236626 2:-0.492857 3:0.324694 4:-0.424965 5:0.53791 6:-0.29312 7:0.108516 8:-0.0112832 9:0.142192 10:-0.106449 11:0.313096 12:0.197005 13:-0.152062 14:0.328576 15:0.166697 16:-0.275851 17:0.0478052 18:0.065431 19:0.156504 20:0.113731 21:-0.315128 22:-0.326162 23:-0.158963 24:-0.213906 25:-0.293397 26:-0.00884053 
0.3267333919749971 0.693481531661583 1:0.263515 2:-0.553682 3:0.221981 4:-0.417803 5:0.480695 6:-0.321462 7:0.0562504 8:0.0245888 9:0.265246 10:0.122395 11:0.375653 12:0.162223 13:-0.126623 14:0.274884 15:0.147199 16:-0.199112 17:0.0239163 18:-0.000734456 19:0.120293 20:0.295782 21:-0.197345 22:-0.164389 23:-0.0469774 24:-0.160441 25:-0.16403 26:-0.00374628 
0.02013605491080808 0 1:0.229969 2:-0.428743 3:0.0236946 4:-0.322188 5:0.535712 6:-0.269133 7:0.128891 8:-0.0431661 9:0.0949605 10:-0.132368 11:0.0710898 12:-0.148782 13:-0.277485 14:0.319784 15:-0.0277738 16:0.106045 17:-0.106353 18:-0.0536321 19:-0.0368252 20:-0.181642 21:-0.192557 22:-0.0923821 23:-0.0346467 24:0.119546 25:0.36151 26:0.00268722 
1.015762051758423 0.3920166194168871 1:0.2051 2:-0.461627 3:-0.233947 4:-0.348563 5:0.531718 6:-0.243782 7:0.247163 8:0.0322945 9:0.436067 10:0.0374781 11:0.217299 12:-0.217945 13:-0.344199 14:0.365899 15:-0.00462941 16:0.290913 17:-0.162817 18:0.0318623 19:0.00370849 20:-0.37813 21:-0.377339 22:-0.406784 23:-0.150147 24:0.161392 25:0.410103 26:0.00316114 
0.5030355741503466 1.488450223461301 1:0.213149 2:-0.418391 3:-0.259486 4:-0.284284 5:0.343868 6:-0.347642 7:0.264219 8:0.0985762 9:0.416161 10:0.18173 11:0.213821 12:-0.068939 13:-0.504882 14:0.33003 15:0.0465558 16:0.358142 17:-0.158413 18:0.137543 19:0.111741 20:-0.253967 21:-0.434549 22:-0.546811 23:-0.205321 24:0.147876 25:0.138894 26:0.00314116 
1.430894181210181 1.323749628340129 1:0.227315 2:-0.384022 3:-0.268875 4:-0.274499 5:0.390016 6:-0.343449 7:-0.014806 8:-0.0509895 9:0.287144 10:-0.0817894 11:0.0605796 12:0.0381132 13:-0.356837 14:0.280066 15:0.23319 16:0.41121 17:-0.0763062 18:0.0448871 19:0.15926 20:0.170564 21:-0.275478 22:-0.404828 23:-0.163597 24:0.128406 25:-0.127458 26:-0.00129075 
0.6354222970069136 0 1:0.254143 2:-0.279937 3:-0.375826 4:-0.368518 5:0.510435 6:-0.24897 7:-0.136942 8:-0.295884 9:0.0799919 10:-0.20666 11:0.286643 12:0.186373 13:-0.24089 14:0.302643 15:0.374428 16:0.463128 17:-0.000776397 18:-0.164542 19:0.143045 20:0.48601 21:-0.031162 22:-0.0664488 23:-0.0793464 24:-0.0459712 25:-0.220545 26:-0.00602836 
0.2151015686074925 0.1199168384974483 1:0.221766 2:-0.226629 3:-0.346529 4:-0.404434 5:0.496355 6:-0.201213 7:0.0198444 8:-0.328709 9:0.0264216 10:-0.0858347 11:0.382201 12:0.0294449 13:-0.41283 14:0.407314 15:0.378819 16:0.399482 17:-0.0269179 18:-0.288527 19:0.0990144 20:0.421484 21:0.099749 22:0.13449 23:-0.112764 24:-0.182269 25:-0.0400849 26:-0.00994043 
1.502798304040102 0.6701375427992597 1:0.0976078 2:-0.0929983 3:-0.267637 4:-0.266618 5:0.45765 6:-0.176049 7:0.173791 8:-0.366614 9:-0.00820924 10:-0.13898 11:0.293999 12:-0.144348 13:-0.34291 14:0.514965 15:0.155056 16:0.204931 17:-0.138721 18:-0.242439 19:0.0119959 20:0.0931149 21:0.0912554 22:0.117158 23:-0.112947 24:-0.263499 25:0.120157 26:-0.0139943 
1.408420010952745 0 1:0.153653 2:0.3825 3:-0.071397 4:-0.244794 5:0.236745 6:-0.12996 7:0.310763 8:-0.2796 9:0.0378603 10:-0.387137 11:0.39296 12:0.089451 13:-0.197338 14:0.476428 15:-0.336651 16:-0.0799593 17:-0.230119 18:0.0101755 19:-0.153081 20:-0.296108 21:-0.0134522 22:0.00646805 23:-0.00812039 24:-0.311303 25:-0.0425789 26:-0.0124353 
0.2455098773075646 0.6230398257394577 1:0.327446 2:0.588101 3:0.0494864 4:-0.358509 5:0.124509 6:0.0175508 7:0.426169 8:-0.327983 9:-0.0758612 10:-0.404631 11:0.174903 12:0.162243 13:-0.494531 14:0.302227 15:-0.671714 16:-0.23925 17:-0.171072 18:0.142691 19:-0.349411 20:-0.507383 21:-0.0262715 22:-0.00762768 23:0.148408 24:-0.182434 25:-0.265439 26:-0.000118997 
0.8906117199150071 0.04423734942759346 1:0.36486 2:0.62757 3:-0.000494368 4:-0.414582 5:0.174829 6:0.0445887 7:0.447018 8:-0.322426 9:0.0164335 10:-0.57423 11:0.130624 12:0.097629 13:-0.570156 14:0.147972 15:-0.753826 16:-0.159865 17:0.0508348 18:0.0894151 19:-0.328297 20:-0.487534 21:0.0522064 22:-0.0169875 23:0.328187 24:-0.0312607 25:-0.335681 26:0.00886789 
0.0894295106277548 0.008907185959462615 1:0.368687 2:0.660968 3:-0.131953 4:-0.501371 5:-0.00318665 6:-0.273858 7:0.283298 8:-0.148341 9:-0.0509305 10:-0.472692 11:-0.192724 12:-0.151831 13:-0.522892 14:0.207119 15:-0.469871 16:0.103508 17:0.299385 18:0.0710083 19:0.305822 20:-0.133978 21:0.0532708 22:-0.0331352 23:0.232298 24:0.358496 25:0.0123792 26:0.00565415 
0.7528239593874143 1.028480276161781 1:0.283578 2:0.603797 3:-0.126558 4:-0.43835 5:-0.0912935 6:-0.310233 7:0.18026 8:-0.0464531 9:0.0836625 10:-0.385382 11:-0.275439 12:-0.288646 13:-0.322559 14:0.358117 15:-0.333247 16:0.11598 17:0.103554 18:0.174154 19:0.417761 20:0.0523621 21:-0.108753 22:-0.103951 23:0.17284 24:0.395841 25:0.202092 26:-0.0051087 
1.016045419627151 0.4461318884349926 1:0.208531 2:0.505752 3:-0.17256 4:-0.140344 5:-0.128097 6:-0.112128 7:0.162268 8:0.193018 9:0.111975 10:-0.193467 11:-0.0707717 12:-0.235333 13:-0.31946 14:0.446756 15:-0.156615 16:0.12908 17:-0.197997 18:0.245312 19:0.192315 20:0.0818888 21:-0.358948 22:-0.169718 23:0.0169257 24:0.216089 25:0.244784 26:-0.00636388 
0.4088792306188625 0 1:0.270071 2:0.293036 3:-0.27496 4:-0.154419 5:-0.144467 6:-0.00358063 7:0.108403 8:0.379686 9:0.134958 10:0.035277 11:0.0850623 12:-0.409336 13:-0.219761 14:0.392937 15:0.206916 16:0.268043 17:-0.35569 18:0.165959 19:-0.317718 20:-0.122996 21:-0.592313 22:-0.347185 23:-0.211175 24:-0.210381 25:0.292395 26:0.00343651 
0.563330995971817 1.01987210794419 1:0.289155 2:0.246469 3:-0.254135 4:-0.190656 5:-0.0863843 6:0.0188373 7:0.0945608 8:0.346632 9:0.148256 10:0.231882 11:0.156252 12:-0.182156 13:-0.209617 14:0.345564 15:0.274064 16:0.28329 17:-0.244203 18:0.0612555 19:-0.344129 20:-0.162558 21:-0.468083 22:-0.348634 23:-0.274923 24:-0.19852 25:0.161478 26:0.00330466 
0 0.5767868058039826 1:0.301951 2:0.262336 3:-0.23277 4:-0.131336 5:-0.0670755 6:0.00315434 7:-0.0222648 8:0.23182 9:-0.0598226 10:0.105924 11:0.00386415 12:-0.244919 13:-0.138402 14:0.339487 15:0.217647 16:0.246914 17:-0.173702 18:-0.0446278 19:-0.275603 20:-0.0276435 21:-0.235274 22:-0.219886 23:-0.191185 24:-0.0425222 25:0.053541 26:-0.00525127 
0 0.1479200903922435 1:0.347764 2:0.390077 3:-0.0966397 4:-0.347694 5:0.0186174 6:-0.21621 7:-0.13476 8:0.074995 9:-0.263036 10:0.193363 11:0.0133778 12:0.0496392 13:0.207716 14:0.338516 15:-0.0818957 16:0.141831 17:-0.127283 18:-0.0306851 19:-0.00353787 20:0.345472 21:-0.010025 22:0.0206227 23:-0.167694 24:-0.0309382 25:-0.264517 26:-0.0135197 
0.2261578001088161 1.106404656337125 1:0.386907 2:0.491101 3:-0.0384814 4:-0.3033 5:-0.0751706 6:-0.311195 7:-0.189765 8:0.0767298 9:-0.302254 10:0.180692 11:0.0973678 12:0.0416785 13:0.135265 14:0.296642 15:-0.217015 16:0.0711985 17:-0.126347 18:0.165458 19:0.198658 20:0.35703 21:-0.136071 22:0.00466794 23:-0.191037 24:-0.0845908 25:-0.156975 26:-0.00783613 
1.234964725634365 1.135118185454625 1:0.42362 2:0.513527 3:0.00296415 4:-0.369058 5:-0.159466 6:-0.440798 7:-0.0714709 8:0.100404 9:-0.327869 10:0.164418 11:0.000561657 12:-0.0313064 13:0.0580016 14:0.24647 15:-0.275457 16:0.004706 17:-0.0584753 18:0.338275 19:0.340576 20:0.148834 21:-0.289549 22:-0.0427841 23:-0.18038 24:0.0213477 25:0.0207247 26:-0.00275222 
0.4310352028032469 0.7039590160995861 1:0.440119 2:0.533516 3:0.111819 4:-0.512565 5:-0.054217 6:-0.491828 7:0.0785223 8:0.139077 9:-0.411169 10:0.0146377 11:-0.119836 12:-0.10737 13:0.231036 14:0.212062 15:-0.295829 16:-0.0463911 17:0.0572745 18:0.317694 19:0.344436 20:-0.132178 21:-0.334201 22:0.0423478 23:-0.0319962 24:0.237296 25:0.16654 26:-0.0058405 
0.4799520438957541 0.6260929401385319 1:0.435195 2:0.538914 3:0.125188 4:-0.565662 5:0.064262 6:-0.418931 7:0.216539 8:-0.0306191 9:-0.480131 10:-0.0410125 11:-0.150926 12:-0.0254169 13:0.315646 14:0.198148 15:-0.285261 16:-0.0167964 17:0.142789 18:0.167351 19:0.227617 20:-0.305339 21:-0.206155 22:0.182523 23:0.133889 24:0.360158 25:0.0858684 26:-0.0122868 
0.8466763129878763 0.1497225075158591 1:0.410249 2:0.531405 3:0.0862776 4:-0.598667 5:0.177776 6:-0.307069 7:0.232921 8:-0.177392 9:-0.511266 10:-0.141879 11:-0.0327362 12:0.136547 13:0.259728 14:0.209289 15:-0.251079 16:0.0706346 17:0.176039 18:-0.0340814 19:0.112523 20:-0.299398 21:-0.0286492 22:0.300688 23:0.262975 24:0.278054 25:-0.117677 26:-0.0131878 
0.5641503860009132 0.5119297248706753 1:0.361677 2:0.469862 3:0.0897647 4:-0.57697 5:0.288842 6:-0.316533 7:0.207656 8:-0.196596 9:-0.507287 10:-0.131594 11:0.157093 12:0.160016 13:0.204528 14:0.233846 15:-0.197334 16:0.171685 17:0.112647 18:-0.124624 19:0.146637 20:-0.23225 21:0.076348 22:0.32591 23:0.25379 24:0.0207494 25:-0.168906 26:-0.0111504 
0.7141998334548887 0 1:0.221571 2:0.356903 3:0.121787 4:-0.503675 5:0.368421 6:-0.203368 7:0.23213 8:-0.221135 9:-0.140061 10:0.0860844 11:0.376985 12:0.0440276 13:0.10283 14:0.240295 15:-0.0648163 16:0.124011 17:0.137785 18:-0.0465608 19:0.129884 20:-0.183358 21:0.0550758 22:-0.151671 23:-0.152918 24:-0.428365 25:0.0575646 26:-0.00345094 
1.157535198011755 0.186251561574527 1:0.165348 2:0.308904 3:0.182029 4:-0.489802 5:0.424009 6:-0.0381954 7:0.248789 8:-0.172291 9:-0.0358756 10:0.149334 11:0.443908 12:0.058527 13:0.103835 14:0.2506 15:-0.0211927 16:-0.00800455 17:0.187969 18:-0.112255 19:-0.0746778 20:-0.0401686 21:-0.069487 22:-0.453883 23:-0.297854 24:-0.425346 25:0.094735 26:-0.00310811 
0.4173001366610274 0.9881878946559834 1:0.079755 2:0.241948 3:0.281209 4:-0.392946 5:0.486094 6:0.184698 7:0.0233228 8:-0.0576629 9:0.194525 10:0.15107 11:0.338538 12:0.179287 13:-0.0879941 14:0.355293 15:-0.101253 16:-0.0938877 17:0.0820687 18:-0.276339 19:-0.294918 20:0.167063 21:-0.164185 22:-0.694658 23:-0.223191 24:-0.273831 25:0.0279543 26:-0.00139204 
0.2906486973900856 0.6885323339230273 1:-0.0703752 2:0.201837 3:0.236319 4:-0.224792 5:0.54768 6:0.170506 7:-0.0320572 8:0.0572278 9:0.247013 10:0.113701 11:0.162673 12:0.171402 13:-0.0809031 14:0.607865 15:-0.265949 16:-0.0572191 17:-0.219874 18:-0.403281 19:-0.365217 20:0.135561 21:-0.232729 22:-0.659597 23:-0.0336753 24:-0.0454985 25:-0.00315647 26:-0.00165326 
1.032452958810472 0.3203570894828366 1:-0.183517 2:0.226078 3:0.117181 4:-0.0330033 5:0.482886 6:0.148918 7:0.135464 8:0.0318707 9:-0.0755692 10:-0.130385 11:-0.0371354 12:0.110229 13:0.0323962 14:0.824819 15:-0.367325 16:0.0913363 17:-0.522748 18:-0.296488 19:-0.366153 20:-0.142145 21:-0.220425 22:-0.327333 23:0.163144 24:0.163677 25:-0.0223475 26:-0.00266864 
0.8588892633956196 0 1:-0.217128 2:0.183015 3:0.110979 4:0.0246301 5:0.357938 6:0.150016 7:0.296317 8:-0.0323407 9:-0.104839 10:0.000251565 11:0.0302983 12:0.225848 13:-0.18508 14:0.800512 15:-0.24526 16:0.188888 17:-0.60773 18:0.0449289 19:-0.335649 20:-0.411803 21:-0.192939 22:0.0439056 23:0.111461 24:0.256245 25:-0.158571 26:0.0016768 
1.213401769436822 0.6688348531779134 1:-0.0596576 2:-0.112476 3:0.1044 4:-0.0573924 5:0.156414 6:0.152512 7:0.142254 8:0.182111 9:-0.286125 10:0.145983 11:-0.134352 12:0.265913 13:-0.231091 14:0.519229 15:0.285072 16:0.225276 17:-0.422642 18:0.407378 19:-0.175158 20:-0.290412 21:-0.378735 22:0.320931 23:-0.128303 24:0.341239 25:-0.26138 26:0.00254792 
0 0.7532117654243038 1:0.312958 2:-0.270717 3:0.0546819 4:-0.258333 5:0.0947877 6:-0.0471237 7:-0.0605701 8:0.137894 9:-0.337514 10:0.107004 11:-0.113758 12:0.24728 13:-0.108951 14:0.169279 15:0.759279 16:0.20562 17:-0.12882 18:0.466773 19:0.175762 20:0.0675148 21:-0.470057 22:0.288743 23:-0.32655 24:0.320124 25:-0.244394 26:-0.00172212 
0.747187257474876 0.4536289590046237 1:0.40488 2:-0.225294 3:0.145278 4:-0.287086 5:0.165546 6:-0.200252 7:-0.126331 8:0.115034 9:-0.279002 10:0.0863793 11:-0.0498706 12:0.159028 13:-0.113649 14:0.0476232 15:0.815748 16:0.141111 17:0.0445303 18:0.193674 19:0.538706 20:0.319247 21:-0.426616 22:0.0560331 23:-0.377301 24:0.214292 25:-0.0313945 26:-0.00603382 
0.9064683723777475 0.5940531044768138 1:0.268834 2:-0.154185 3:0.100709 4:-0.36055 5:0.345609 6:-0.307725 7:-0.156061 8:0.0794093 9:-0.0397628 10:0.0960762 11:0.113963 12:-0.0596022 13:-0.112679 14:0.123674 15:0.407036 16:0.123626 17:0.0961089 18:-0.180052 19:0.631046 20:0.310402 21:-0.198821 22:-0.189313 23:-0.163378 24:0.00630398 25:0.288553 26:-0.0083225 
1.14063580916345 0.4677227314290794 1:0.329976 2:0.361963 3:0.146246 4:-0.389025 5:0.355519 6:-0.0821815 7:0.0550733 8:-0.310755 9:-0.127081 10:-0.252398 11:0.259735 12:-0.0560878 13:-0.103448 14:0.174997 15:-0.388063 16:0.0247086 17:0.112764 18:-0.302648 19:0.242045 20:0.0947786 21:0.156838 22:-0.210514 23:0.250797 24:-0.220057 25:0.4399 26:-0.00494423 
0.8405239149260516 0.4785937089803438 1:0.450844 2:0.494491 3:0.172065 4:-0.453069 5:0.214982 6:0.144385 7:0.013349 8:-0.216735 9:-0.178289 10:-0.371219 11:0.303544 12:-0.00392419 13:-0.233009 14:0.148488 15:-0.906617 16:-0.0864524 17:0.162741 18:-0.0552952 19:-0.235631 20:0.00493304 21:0.179343 22:-0.0885453 23:0.467973 24:-0.270237 25:0.354979 26:-0.0014496 
0.974726155135036 0.242565858641909 1:0.434921 2:0.505126 3:0.180443 4:-0.439935 5:0.130857 6:0.26644 7:0.0477693 8:-0.16554 9:-0.132216 10:-0.358882 11:0.345023 12:0.118344 13:-0.190429 14:0.134737 15:-1 16:-0.0997945 17:0.18353 18:0.321088 19:-0.464355 20:-0.0825771 21:0.116444 22:0.0553872 23:0.399859 24:-0.190871 25:0.0300423 26:0.102323 
0.9919898256664242 0.2266090501022112 1:0.300079 2:0.470872 3:0.157635 4:-0.449442 5:0.0860157 6:0.211311 7:0.113015 8:-0.101715 9:-0.172235 10:-0.15305 11:0.225754 12:0.248663 13:-0.12617 14:0.250318 15:-0.72898 16:-0.00290169 17:0.137824 18:0.518927 19:-0.369339 20:-0.168213 21:-0.0356962 22:0.0901211 23:0.108765 24:-0.035866 25:-0.305413 26:-0.00746299 
0.8135826391762698 1.158246944696721 1:0.214842 2:0.28348 3:-0.0204509 4:-0.312073 5:0.121539 6:0.00204406 7:0.24162 8:-0.042363 9:-0.0250318 10:0.104894 11:0.187922 12:0.426458 13:-0.137305 14:0.425776 15:-0.255249 16:0.185974 17:-0.0189136 18:0.351268 19:-0.100495 20:-0.221432 21:-0.208448 22:-0.158898 23:-0.267185 24:-0.0308335 25:-0.40786 26:-0.00630705 
0.2453649248171532 2 1:0.151832 2:0.0268714 3:-0.116017 4:-0.225355 5:0.303735 6:0.103824 7:0.252602 8:-0.0685661 9:-0.00100277 10:0.0315878 11:0.239163 12:0.355663 13:-0.279363 14:0.508452 15:0.0678874 16:0.280447 17:-0.21376 18:-0.0891123 19:0.0507902 20:-0.232962 21:-0.256272 22:-0.382518 23:-0.374334 24:-0.113911 25:-0.184817 26:0.00287107 
0 0.3927531946729854 1:0.159942 2:-0.0435259 3:-0.0535637 4:-0.215772 5:0.507847 6:0.0576483 7:0.107179 8:0.169341 9:0.155194 10:0.00160452 11:0.258389 12:0.111857 13:-0.268603 14:0.450356 15:0.16672 16:0.210228 17:-0.29014 18:-0.468737 19:0.146764 20:-0.130917 21:-0.392337 22:-0.495452 23:-0.227753 24:-0.129864 25:0.0673885 26:0.00692766 
0.0744062888914854 1.633136611523715 1:0.204891 2:-0.0570719 3:-0.00544042 4:-0.138711 5:0.491496 6:-0.0399201 7:0.155907 8:0.0895633 9:0.0602776 10:0.114739 11:0.191192 12:0.102535 13:-0.287663 14:0.3503 15:0.127664 16:0.0497088 17:-0.201575 18:-0.472812 19:0.104491 20:-0.108739 21:-0.36545 22:-0.34851 23:0.0198831 24:-0.00285735 25:0.0112608 26:-0.00237569 
0.8961870430157974 2 1:0.223039 2:-0.152402 3:-0.0808021 4:-0.175911 5:0.369513 6:-0.0936093 7:0.208446 8:-0.0121604 9:-0.216238 10:-0.155128 11:-0.0901472 12:0.255014 13:-0.183675 14:0.295285 15:0.0818361 16:-0.11552 17:0.0167566 18:-0.105971 19:-0.064733 20:-0.166859 21:-0.200757 22:-0.0528334 23:0.251927 24:0.217916 25:-0.118405 26:-0.0163976 
0.6666495737614905 1.255582450752799 1:0.195983 2:-0.211631 3:-0.0876909 4:-0.322248 5:0.204862 6:0.0967592 7:0.111812 8:0.0163735 9:-0.266029 10:-0.214497 11:-0.0488028 12:0.385418 13:0.0960398 14:0.278221 15:0.0507413 16:-0.197259 17:0.172058 18:0.30888 19:-0.310194 20:-0.26578 21:0.00943555 22:0.0880901 23:0.177342 24:0.232601 25:-0.0523499 26:-0.019227 
1.151867745590156 2 1:0.176211 2:-0.236334 3:-0.126833 4:-0.244718 5:0.14305 6:0.0782598 7:0.0564994 8:-0.0935879 9:-0.238347 10:0.142677 11:0.0398602 12:0.0563097 13:-0.15467 14:0.267967 15:0.0608755 16:-0.14205 17:0.0669795 18:0.434744 19:-0.359369 20:-0.266997 21:0.149013 22:0.0606507 23:-0.176665 24:0.0874994 25:0.355049 26:0.0028258 
1.604366382042598 2 1:0.204206 2:-0.216491 3:-0.285302 4:-0.00594522 5:0.239739 6:-0.180886 7:0.032824 8:-0.0786048 9:-0.245585 10:0.263891 11:0.130219 12:-0.236071 13:-0.596996 14:0.239639 15:0.0467362 16:0.00748133 17:-0.203232 18:0.213317 19:-0.0768694 20:-0.0770467 21:-0.055583 22:-0.0299839 23:-0.381942 24:-0.0992547 25:0.630067 26:0.0286051 
1.504101689142127 1.410557477421751 1:0.185542 2:-0.203891 3:-0.553293 4:-0.00148493 5:0.421501 6:-0.340762 7:-0.118533 8:0.0995104 9:-0.328105 10:0.123046 11:0.0962605 12:0.170106 13:-0.434592 14:0.235075 15:0.0134452 16:0.219394 17:-0.344579 18:-0.0987115 19:0.330667 20:0.278114 21:-0.368376 22:-0.0313875 23:-0.381085 24:-0.203569 25:0.283136 26:0.0302236 
0.9551826232764695 0.600927239729487 1:0.107988 2:-0.243456 3:-0.626988 4:-0.0433884 5:0.388818 6:-0.470656 7:-0.37112 8:0.305079 9:-0.314393 10:-0.0314232 11:0.0195867 12:0.519696 13:-0.0023441 14:0.297985 15:0.0695761 16:0.429738 17:-0.277192 18:-0.182316 19:0.562034 20:0.608512 21:-0.486554 22:0.057008 23:-0.138116 24:-0.127556 25:-0.268397 26:0.0077685 
0.7730818879310977 0.4955482352986359 1:0.0458943 2:-0.172936 3:-0.658434 4:-0.107175 5:0.345481 6:-0.404314 7:-0.259263 8:0.168706 9:-0.376859 10:-0.226422 11:0.0335459 12:0.633232 13:0.31206 14:0.425732 15:0.21083 16:0.596439 17:-0.0432317 18:-0.125698 19:0.41279 20:0.583715 21:-0.230304 22:0.0832249 23:0.0716941 24:-0.0493985 25:-0.617459 26:-0.02371 
0.532312413547167 0.5323575783281662 1:-0.00301149 2:-0.110706 3:-0.787771 4:-0.163421 5:0.323864 6:-0.323969 7:-0.0983717 8:-0.166718 9:-0.302201 10:-0.0694792 11:-0.0411498 12:0.503459 13:0.404358 14:0.549111 15:0.343768 16:0.688385 17:0.103012 18:-0.129983 19:0.169233 20:0.268405 21:0.176999 22:-0.00131082 23:0.0496275 24:0.0157121 25:-0.466603 26:-0.0373692 
0.9347131875925677 0.984312247923929 1:-0.0379642 2:-0.108298 3:-0.758981 4:-0.140751 5:0.311174 6:-0.134524 7:0.149206 8:-0.10145 9:-0.246258 10:-0.319895 11:-0.213597 12:0.340542 13:0.425378 14:0.587841 15:0.33333 16:0.572362 17:0.0290785 18:-0.217044 19:0.00723918 20:-0.140631 21:0.278737 22:-0.0272392 23:0.181661 24:0.0530722 25:-0.0521324 26:-0.0289579 
0 0.3278915758880845 1:0.00892835 2:0.0890753 3:-0.456961 4:-0.103288 5:0.356338 6:-0.184077 7:0.309438 8:0.145933 9:-0.119624 10:-0.250281 11:-0.102368 12:0.394881 13:0.39687 14:0.495662 15:0.0561935 16:0.258838 17:-0.123995 18:-0.301888 19:-0.0507396 20:-0.311456 21:0.0248468 22:0.0660781 23:0.301965 24:-0.00797661 25:0.195914 26:-0.0120177 
0.001747069606768395 0.5079493518889019 1:0.16176 2:0.474688 3:-0.231228 4:-0.0234519 5:0.22846 6:-0.19004 7:0.319949 8:0.339105 9:-0.242426 10:-0.400927 11:-0.165078 12:0.261544 13:0.107338 14:0.317613 15:-0.323874 16:-0.0738162 17:-0.228006 18:-0.124276 19:-0.121013 20:-0.209191 21:-0.334048 22:0.290101 23:0.303949 24:-0.0117986 25:0.268848 26:0.00524886 
0.7729022683871442 0.5198738006086503 1:0.247909 2:0.606054 3:-0.109123 4:-0.0908347 5:-0.04719 6:0.0150189 7:0.351981 8:0.324232 9:-0.160282 10:-0.345009 11:-0.269035 12:0.300406 13:0.154516 14:0.177067 15:-0.505392 16:-0.239018 17:-0.173459 18:0.229429 19:-0.293065 20:-0.141894 21:-0.456563 22:0.358246 23:0.0433166 24:0.0026489 25:0.144168 26:0.00958008 
0.3021045644953536 0.1663512384676616 1:0.29028 2:0.624948 3:-0.0776388 4:-0.172704 5:-0.127524 6:0.109201 7:0.443478 8:0.364622 9:0.129363 10:0.0750398 11:-0.297066 12:0.385573 13:0.230916 14:0.135073 15:-0.445453 16:-0.20094 17:-0.0502648 18:0.456769 19:-0.337863 20:-0.20502 21:-0.369147 22:0.0651216 23:-0.376857 24:0.049627 25:-0.0519724 26:0.00449549 
0.4356587724415775 0.256293681002332 1:0.269718 2:0.656885 3:-0.0307597 4:-0.214754 5:-0.159889 6:-0.104919 7:0.606215 8:0.350376 9:0.403064 10:0.17408 11:-0.347146 12:0.512063 13:0.257927 14:0.191631 15:-0.287909 16:-0.0762503 17:-0.0164957 18:0.473047 19:-0.131286 20:-0.33951 21:-0.250359 22:-0.399177 23:-0.421058 24:0.168573 25:-0.226724 26:-0.00261948 
0.271756306185895 0.2869438909255884 1:0.250782 2:0.749349 3:-0.0449694 4:-0.178511 5:-0.0967566 6:-0.175952 7:0.601995 8:0.296858 9:0.66251 10:-0.172976 11:-0.350012 12:0.419997 13:0.343004 14:0.263424 15:-0.212646 16:0.0601605 17:-0.0793873 18:0.264963 19:0.17022 20:-0.339651 21:-0.148404 22:-0.782387 23:-0.100382 24:0.23457 25:-0.2253 26:-0.0107634 
0.5631582131883347 0.3817100804078726 1:0.233618 2:0.77578 3:-0.00198366 4:-0.187786 5:-0.0448557 6:-0.217557 7:0.49486 8:0.339226 9:0.766628 10:-0.34002 11:-0.411872 12:0.400149 13:0.362927 14:0.29588 15:-0.231321 16:0.152392 17:-0.0865137 18:0.0469557 19:0.337015 20:-0.169521 21:-0.0746612 22:-0.769104 23:0.237855 24:0.260163 25:-0.0739319 26:-0.0133467 
0.4377046102022956 0 1:0.199523 2:0.771622 3:-0.023659 4:-0.335925 5:0.0408407 6:-0.103157 7:0.44578 8:0.249697 9:0.436692 10:-0.0758963 11:-0.130018 12:0.21133 13:0.378811 14:0.330357 15:-0.175286 16:0.130865 17:0.127453 18:-0.0640425 19:0.0806329 20:0.127328 21:0.0151388 22:-0.0656675 23:0.130495 24:-0.0922439 25:-0.015264 26:-0.00544039 
0.06553010811207616 0.0303794935630685 1:0.156655 2:0.768095 3:0.10867 4:-0.347954 5:0.0190891 6:0.0305782 7:0.427306 8:0.380054 9:0.36563 10:-0.0071974 11:-0.0420462 12:0.294924 13:0.209235 14:0.356023 15:-0.106644 16:-0.0114301 17:0.130061 18:-0.0102635 19:-0.0473336 20:0.117544 21:-0.147979 22:0.0848904 23:-0.17021 24:-0.279908 25:-0.0776237 26:0.0045883 
0 0.0422318266739051 1:0.127206 2:0.756447 3:0.148993 4:-0.180387 5:0.0386457 6:-0.0401254 7:0.438724 8:0.531434 9:0.396956 10:-0.00982467 11:-0.00384377 12:0.357745 13:0.112967 14:0.361747 15:-0.0640446 16:-0.0777698 17:-0.0284935 18:0.03443 19:-0.0276119 20:0.0293391 21:-0.362695 22:-0.00645548 23:-0.305662 24:-0.344079 25:0.0335492 26:0.0091136 
0.5077014056898816 0.05478054886332839 1:0.134126 2:0.750238 3:0.0782703 4:-0.154966 5:0.0720283 6:0.015097 7:0.502626 8:0.568386 9:0.387704 10:0.176198 11:-0.0726624 12:0.0213495 13:0.234845 14:0.346077 15:-0.0643141 16:-0.0387108 17:-0.131609 18:0.0540234 19:-0.00460789 20:-0.0487813 21:-0.478325 22:-0.260443 23:-0.280015 24:-0.152264 25:0.324978 26:0.00177857 
