svm_type c_svc
kernel_type rbf
gamma 0.5
nr_class 3
total_sv 6624
rho 0.0890153 -1.03225 -1.08279
label 0 1 2
nr_sv 1991 2135 2498
SV
0.5 0.5 1:-0.268579 2:-0.0750164 3:0.0187024 4:-0.0607728 5:0.561646 6:0.359249 7:-0.218899 8:0.153378 9:-0.096858 10:-0.104565 11:-0.146141 12:0.00100078 13:0.160077 14:0.336918 15:-0.0914375 16:0.139623 17:-0.0656372 18:0.0277243 19:0.0205577 20:-0.0523972 21:-0.157926 22:-0.0914515 23:-0.0280825 24:0.00111922 25:-0.00626996 26:-0.00390364 
0.5 0.5 1:0.0908013 2:-0.201841 3:0.00655155 4:-0.0512618 5:0.608141 6:0.387705 7:-0.256136 8:0.216974 9:-0.0424297 10:-0.100817 11:-0.133735 12:0.048635 13:0.128358 14:0.336918 15:-0.0914375 16:0.139623 17:-0.0656372 18:0.0277243 19:0.0205577 20:-0.0523972 21:-0.157926 22:-0.0914515 23:-0.0280825 24:0.00111922 25:-0.00626996 26:-0.00390364 
0.5 0.5 1:0.229422 2:-0.28176 3:-0.0283125 4:-0.0901018 5:0.543752 6:0.410006 7:-0.436183 8:0.146325 9:-0.00937526 10:-0.16054 11:-0.0114838 12:0.0231763 13:0.210721 14:0.336918 15:-0.0914375 16:0.139623 17:-0.0656372 18:0.0277243 19:0.0205577 20:-0.0523972 21:-0.157926 22:-0.0914515 23:-0.0280825 24:0.00111922 25:-0.00626996 26:-0.00390364 
0.5 0.5 1:0.278673 2:-0.302917 3:-0.129393 4:-0.192698 5:0.512432 6:0.476264 7:-0.62208 8:0.232981 9:0.12112 10:-0.30563 11:0.154132 12:0.050728 13:0.279111 14:0.336918 15:-0.0914375 16:0.139623 17:-0.0656372 18:0.0277243 19:0.0205577 20:-0.0523972 21:-0.157926 22:-0.0914515 23:-0.0280825 24:0.00111922 25:-0.00626996 26:-0.00390364 
0.5 0.5 1:0.278826 2:-0.321125 3:-0.113021 4:-0.142817 5:0.417712 6:0.43673 7:-0.447961 8:0.436895 9:0.243299 10:-0.229818 11:0.330909 12:-0.167017 13:-0.018367 14:0.130336 15:0.13138 16:0.152296 17:0.148628 18:0.171381 19:-0.250167 20:0.0721657 21:-0.342064 22:-0.26517 23:0.131448 24:-0.18867 25:-0.0150334 26:-0.00250547 
0.5 0.5 1:0.278935 2:-0.390492 3:-0.131107 4:-0.0170793 5:0.536225 6:0.235915 7:-0.399331 8:0.347195 9:0.474483 10:0.0303736 11:0.389347 12:-0.079159 13:-0.314487 14:0.312006 15:0.313283 16:0.217887 17:-0.024231 18:-0.00240818 19:0.0175626 20:-0.00825722 21:-0.463275 22:-0.532797 23:-0.242734 24:-0.424832 25:0.0712155 26:0.0118214 
0.5 0.5 1:0.27783 2:-0.3778 3:-0.17268 4:0.0447646 5:0.571197 6:0.130005 7:-0.50867 8:0.400074 9:0.452533 10:0.131108 11:0.451095 12:-0.0594561 13:-0.298609 14:0.437957 15:0.438164 16:0.295351 17:-0.210108 18:-0.178504 19:0.229839 20:0.0509389 21:-0.519059 22:-0.563551 23:-0.504505 24:-0.593398 25:0.180555 26:0.0121045 
0.5 0.5 1:0.252469 2:-0.324664 3:-0.278598 4:0.0877932 5:0.558499 6:-0.00754127 7:-0.579097 8:0.386756 9:0.351908 10:0.225935 11:0.582864 12:-0.276875 13:-0.143244 14:0.498694 15:0.377393 16:0.305226 17:-0.279919 18:-0.248558 19:0.287557 20:0.138201 21:-0.421784 22:-0.338163 23:-0.500542 24:-0.575986 25:0.339782 26:0.0028729 
0.5 0.5 1:0.280299 2:-0.107082 3:-0.198823 4:0.106982 5:0.491866 6:0.0854212 7:-0.481324 8:0.148356 9:0.314394 10:-0.257155 11:0.243307 12:-0.238908 13:-0.10343 14:0.462302 15:0.065812 16:0.16311 17:-0.170982 18:-0.14985 19:0.141774 20:0.113741 21:-0.212899 22:-0.0154219 23:-0.103261 24:-0.254675 25:0.27022 26:-0.00547243 
0.5 0.5 1:0.427483 2:0.203531 3:-0.0399341 4:0.0431926 5:0.332831 6:0.146871 7:-0.350035 8:-0.00691852 9:0.063104 10:-0.299516 11:-0.13067 12:0.0578263 13:-0.235951 14:0.331227 15:-0.318298 16:-0.0617888 17:0.00278423 18:0.0889255 19:0.00949514 20:-0.0462293 21:-0.0649543 22:0.266677 23:0.197716 24:0.14732 25:0.0038886 26:-0.00419373 
0.5 0.5 1:0.528629 2:0.308668 3:-0.0664672 4:0.000859365 5:0.323538 6:0.0422834 7:-0.302831 8:-0.0208138 9:0.105152 10:-0.33778 11:-0.29394 12:0.0884991 13:-0.270357 14:0.185112 15:-0.482491 16:-0.132582 17:0.0574711 18:0.224409 19:0.042363 20:-0.152693 21:-0.0047199 22:0.172917 23:0.341274 24:0.374796 25:-0.279168 26:-0.00118701 
0.5 0.5 1:0.531812 2:0.375859 3:-0.185352 4:0.0610837 5:0.207634 6:-0.0218472 7:-0.311915 8:-0.122066 9:0.23884 10:-0.414933 11:-0.277007 12:0.197323 13:-0.123009 14:0.0729861 15:-0.521063 16:0.00953164 17:-0.0330339 18:0.279953 19:0.13305 20:-0.12241 21:-0.0118503 22:-0.157636 23:0.361975 24:0.359223 25:-0.470277 26:-0.00451479 
0.5 0.5 1:0.558603 2:0.403684 3:-0.251008 4:0.17206 5:0.233944 6:0.0369875 7:-0.277339 8:-0.194302 9:0.35269 10:-0.335925 11:-0.385141 12:0.147902 13:-0.153083 14:0.00337306 15:-0.539938 16:0.273702 17:-0.0842785 18:0.205883 19:0.165981 20:0.0121511 21:-0.0187528 22:-0.504504 23:0.162134 24:0.236133 25:-0.373515 26:-0.00631466 
0.5 0.5 1:0.54491 2:0.428194 3:-0.340163 4:0.182663 5:0.287526 6:0.0648272 7:-0.232845 8:-0.19063 9:0.316847 10:-0.264526 11:-0.358627 12:0.0386567 13:-0.151894 14:0.0342149 15:-0.524137 16:0.427723 17:-0.0706724 18:0.124523 19:0.114682 20:0.0363473 21:-0.00494952 22:-0.606865 23:-0.0662724 24:0.145568 25:-0.111724 26:-0.00188324 
0.5 0.5 1:0.427994 2:0.458264 3:-0.360374 4:0.0881417 5:0.306434 6:0.0808322 7:-0.20638 8:-0.24127 9:0.138189 10:-0.100459 11:-0.375508 12:-0.113818 13:-0.180575 14:0.170837 15:-0.434624 16:0.366073 17:0.00622171 18:0.0820188 19:0.0354517 20:-0.00920957 21:0.0305548 22:-0.274136 23:-0.263156 24:0.182639 25:0.140289 26:0.00566789 
0.5 0.5 1:0.225476 2:0.266834 3:-0.26517 4:0.0833618 5:0.277437 6:0.163787 7:-0.155201 8:-0.264681 9:-0.0601932 10:0.0429557 11:-0.351679 12:-0.21317 13:-0.250937 14:0.40254 15:-0.16164 16:0.174749 17:-0.0312303 18:-0.0387445 19:-0.0464701 20:-0.0763013 21:0.0413265 22:0.125872 23:-0.247174 24:0.12625 25:0.325253 26:0.00700371 
0.5 0.5 1:0.0529503 2:0.00478071 3:-0.112474 4:0.362583 5:0.323842 6:0.162046 7:0.0673034 8:-0.133262 9:-0.286629 10:-0.173619 11:-0.307256 12:-0.219157 13:-0.128868 14:0.620076 15:0.128233 16:-0.00133018 17:-0.259599 18:-0.16798 19:-0.103943 20:-0.176583 21:-0.0441703 22:0.40423 23:0.0204845 24:-0.054334 25:0.29995 26:-0.000581326 
0.5 0.5 1:0.0180079 2:0.0454733 3:-0.206496 4:0.259114 5:0.431254 6:0.186698 7:-0.100138 8:-0.130791 9:-0.322728 10:-0.338821 11:-0.224327 12:-0.144375 13:0.161337 14:0.670275 15:0.260564 16:0.0205989 17:-0.337234 18:-0.215698 19:-0.175127 20:-0.177784 21:-0.165587 22:0.431217 23:0.217039 24:-0.195104 25:0.161305 26:-0.0107248 
0.5 0.5 1:-0.0123127 2:0.0494364 3:-0.230976 4:0.245705 5:0.382604 6:0.220244 7:-0.00844201 8:-0.0577096 9:-0.0309148 10:-0.146526 11:0.00271826 12:-0.0936342 13:0.140235 14:0.652746 15:0.354752 16:0.0628116 17:-0.267674 18:-0.0746637 19:-0.254567 20:-0.266505 21:-0.348468 22:0.126834 23:0.0831576 24:-0.23648 25:0.0790904 26:-0.0131253 
0.5 0.5 1:0.071308 2:-0.0134679 3:-0.219141 4:0.172323 5:0.13216 6:0.145077 7:0.0829276 8:0.100288 9:-0.149933 10:0.0494954 11:-0.285676 12:0.0152084 13:-0.014728 14:0.602406 15:0.371338 16:0.0878451 17:-0.0432506 18:0.192776 19:-0.267915 20:-0.283245 21:-0.462633 22:-0.0530645 23:-0.257999 24:0.0120722 25:0.00784589 26:-0.0134683 
0.5 0.5 1:0.156477 2:-0.00714297 3:-0.246664 4:0.0606796 5:0.139376 6:0.0452259 7:0.025357 8:0.0201752 9:-0.030773 10:0.0672298 11:-0.430286 12:-0.0335048 13:0.15821 14:0.558348 15:0.233172 16:0.0897826 17:0.178765 18:0.249272 19:-0.231871 20:-0.153267 21:-0.36813 22:-0.153737 23:-0.524871 24:0.27251 25:-0.0690414 26:-0.0193378 
0.5 0.5 1:0.129244 2:0.209016 3:-0.173058 4:0.0516724 5:0.260972 6:-0.0292449 7:-0.131637 8:-0.0913518 9:0.20698 10:0.0383315 11:-0.280375 12:0.0436136 13:0.16224 14:0.502506 15:-0.125937 16:0.0692393 17:0.194373 18:0.104271 19:-0.117099 20:0.0540076 21:-0.165942 22:-0.171874 23:-0.442156 24:0.339758 25:-0.143581 26:-0.0208062 
0.5 0.5 1:0.405047 2:0.469082 3:-0.360983 4:0.114907 5:0.269946 6:-0.242696 7:-0.203638 8:-0.201477 9:-0.0443074 10:-0.187419 11:-0.205819 12:0.268129 13:0.0924396 14:0.296968 15:-0.536839 16:0.215269 17:0.128096 18:-0.0383601 19:0.0992566 20:0.255603 21:0.0453862 22:-0.106608 23:-0.0574037 24:0.241579 25:-0.157267 26:-0.0167467 
0 0.5 1:0.595399 2:0.497666 3:-0.358 4:0.165326 5:0.274511 6:-0.393848 7:-0.111337 8:-0.174949 9:0.108626 10:-0.435498 11:-0.10959 12:0.147373 13:-0.22339 14:0.0803084 15:-0.668263 16:0.288714 17:0.00779381 18:-0.0838626 19:0.290225 20:0.2417 21:0.107549 22:-0.351791 23:0.339354 24:0.0242565 25:-0.00558873 26:-0.00238031 
0.1145819534068331 0 1:0.676144 2:0.264743 3:-0.340507 4:0.263507 5:0.187648 6:-0.537063 7:0.011529 8:-0.073549 9:0.247591 10:-0.415714 11:0.186385 12:0.144695 13:-0.367742 14:-0.0777702 15:-0.225959 16:0.169727 17:-0.13134 18:0.230469 19:0.470912 20:-0.340267 21:-0.065765 22:-0.651258 23:0.359444 24:-0.405321 25:-0.0437902 26:0.0147635 
0.5 0.5 1:0.649636 2:0.233817 3:-0.252741 4:0.328001 5:0.242625 6:-0.497123 7:0.0914453 8:-0.00897894 9:0.0222278 10:-0.331303 11:0.186971 12:0.315018 13:-0.445858 14:0.0570808 15:-0.0451625 16:0.111355 17:-0.121083 18:0.37797 19:0.427209 20:-0.469562 21:-0.195104 22:-0.380261 23:0.113097 24:-0.434107 25:-0.221429 26:0.010344 
0.5 0.5 1:0.510368 2:0.176849 3:-0.274697 4:0.333661 5:0.189465 6:-0.445553 7:0.133605 8:0.0432676 9:-0.279502 10:-0.171153 11:0.231776 12:0.233167 13:-0.442195 14:0.211377 15:0.0103561 16:0.199677 17:-0.0986214 18:0.407603 19:0.365372 20:-0.332737 21:-0.328725 22:0.237372 23:-0.107527 24:-0.251001 25:-0.277991 26:0.00262283 
0.5 0.5 1:0.343411 2:0.0463097 3:-0.40064 4:0.304 5:0.246358 6:-0.303547 7:-0.118265 8:0.1303 9:-0.485381 10:-0.0921266 11:-0.0180122 12:0.0419809 13:-0.244875 14:0.319633 15:0.0516778 16:0.272242 17:-0.141246 18:0.118497 19:0.199266 20:0.0405857 21:-0.422254 22:0.707001 23:-0.137551 24:0.099715 25:-0.0953458 26:-0.00340257 
0.5 0.5 1:0.290036 2:0.0340349 3:-0.258334 4:0.422248 5:0.566284 6:-0.157663 7:-0.373482 8:0.16168 9:-0.520756 10:-0.105326 11:-0.331685 12:0.0408246 13:-0.299101 14:0.371374 15:0.0652704 16:0.1912 17:-0.294846 18:-0.363779 19:-0.0233809 20:0.395459 21:-0.379458 22:0.570705 23:-0.100493 24:0.279857 25:0.109889 26:-0.00435191 
0.5 0.5 1:0.22343 2:0.0412627 3:-0.174289 4:0.416907 5:0.757361 6:0.0395595 7:-0.124319 8:0.041273 9:-0.413799 10:0.0221281 11:-0.119434 12:-0.00391961 13:-0.29325 14:0.413963 15:0.0790239 16:0.0816381 17:-0.329109 18:-0.647008 19:-0.203414 20:0.380507 21:-0.188319 22:0.0232706 23:-0.132888 24:0.164843 25:0.233435 26:-0.00477247 
0.5 0.5 1:0.0832949 2:-0.0142388 3:-0.121852 4:0.387722 5:0.640882 6:0.196117 7:-0.111126 8:-0.087148 9:-0.0136973 10:-0.0100757 11:-0.00745435 12:-0.0947621 13:-0.20099 14:0.460117 15:0.0588034 16:-0.00256075 17:-0.200813 18:-0.473115 19:-0.277896 20:0.232776 21:-0.0171099 22:-0.528023 23:-0.126782 24:0.0340432 25:0.245039 26:-0.00736631 
0.5 0.5 1:-0.0390628 2:5.49199e-06 3:-0.196565 4:0.226729 5:0.374742 6:0.158004 7:-0.064335 8:-0.065133 9:0.155284 10:0.179873 11:-0.0415107 12:0.0158663 13:-0.123708 14:0.477265 15:-0.0571678 16:0.0298054 17:-0.000569997 18:-0.012737 19:-0.233048 20:-0.0615918 21:-0.0440855 22:-0.584717 23:-0.157459 24:-0.0197939 25:0.13115 26:-0.0103539 
0.5 0.5 1:-0.0142928 2:0.0714091 3:-0.166432 4:0.0952082 5:0.300503 6:0.143388 7:0.108484 8:-0.0239559 9:-0.395285 10:0.00414662 11:-0.305134 12:0.0175564 13:-0.220181 14:0.427627 15:-0.202554 16:0.0964558 17:0.118332 18:0.233287 19:-0.184258 20:-0.345435 21:-0.195384 22:-0.0841667 23:-0.0750596 24:0.0777287 25:0.00072644 26:-0.00721002 
0.5 0.5 1:-0.0016499 2:0.105704 3:-0.158664 4:0.17789 5:0.306016 6:0.274642 7:0.201371 8:0.0470469 9:-0.460052 10:0.018277 11:-0.120036 12:0.155938 13:-0.0956484 14:0.357359 15:-0.280911 16:0.143194 17:-0.00111296 18:0.119314 19:-0.181037 20:-0.411867 21:-0.276558 22:0.354653 23:0.0160057 24:0.0459407 25:-0.193686 26:-0.000775131 
0.5 0.5 1:-0.0675452 2:0.0703398 3:-0.191198 4:0.265381 5:0.360479 6:0.23525 7:0.229332 8:-0.014728 9:-0.261347 10:0.072282 11:0.00985562 12:0.16796 13:-0.257232 14:0.349525 15:-0.194868 16:0.140979 17:-0.204383 18:-0.116489 19:-0.0692854 20:-0.27163 21:-0.140686 22:0.433012 23:0.044001 24:-0.0380005 25:-0.176517 26:0.00224733 
0.5 0.5 1:-0.124933 2:-0.0344653 3:-0.198412 4:0.103237 5:0.324936 6:0.0911374 7:0.0523869 8:-0.183565 9:-0.142092 10:0.0674925 11:-0.0953945 12:0.132251 13:-0.298341 14:0.397249 15:0.00213177 16:0.0483383 17:-0.273178 18:-0.112055 19:0.13369 20:0.0445356 21:0.0451376 22:0.152885 23:0.0108202 24:0.00148275 25:0.0255328 26:-0.00412738 
0.5 0.5 1:-0.129549 2:-0.0811732 3:-0.200424 4:0.0849544 5:0.113981 6:0.0715887 7:-0.0454926 8:-0.200123 9:-0.123836 10:0.030267 11:-0.0900357 12:0.0515865 13:-0.00359973 14:0.431582 15:0.108217 16:-0.0344053 17:-0.222311 18:0.171612 19:0.274351 20:0.242367 21:0.0329867 22:-0.26895 23:-0.122247 24:0.047153 25:0.187203 26:-0.0112011 
0.5 0.5 1:-0.145663 2:-0.0607664 3:-0.147527 4:0.0254355 5:-0.00230443 6:0.0670837 7:0.0584255 8:-0.0190028 9:0.194868 10:0.185393 11:-0.175466 12:-0.0399662 13:0.112998 14:0.451517 15:0.160954 16:0.0310844 17:-0.00876125 18:0.411599 19:0.272979 20:0.134041 21:-0.147065 22:-0.583483 23:-0.174281 24:0.116793 25:0.180891 26:-0.006667 
0.5 0.5 1:-0.110886 2:0.035463 3:-0.273064 4:-0.153626 5:0.00768481 6:0.19881 7:0.277793 8:0.11298 9:0.246738 10:0.17643 11:-0.0148534 12:0.241563 13:-0.324732 14:0.491582 15:0.211803 16:0.253953 17:0.204032 18:0.428226 19:0.0285419 20:-0.0802533 21:-0.395819 22:-0.573251 23:-0.0515976 24:-0.0049195 25:-0.146919 26:0.00373153 
0.5 0.5 1:-0.0826434 2:0.0463983 3:-0.467745 4:-0.228908 5:0.132947 6:0.301815 7:0.215567 8:-0.00952965 9:0.115297 10:0.00765266 11:0.118077 12:0.352319 13:-0.358577 14:0.56242 15:0.239819 16:0.418539 17:0.324989 18:0.207645 19:-0.260221 20:-0.154487 21:-0.460476 22:-0.305908 23:0.113078 24:-0.128667 25:-0.425906 26:0.000389578 
0.5 0.5 1:-0.097117 2:0.00986699 3:-0.496109 4:-0.19775 5:0.182679 6:0.300206 7:0.219603 8:-0.0874599 9:-0.0914883 10:-0.121306 11:-0.0142898 12:0.238661 13:0.097973 14:0.592462 15:0.128263 16:0.326515 17:0.398356 18:-0.0744091 19:-0.487211 20:-0.0794207 21:-0.392971 22:0.0370224 23:0.119037 24:-0.10856 25:-0.433914 26:-0.0207982 
0.5 0.5 1:0.0423532 2:0.318861 3:-0.17782 4:-0.0497719 5:0.23703 6:0.316865 7:0.214333 8:0.00594329 9:-0.173591 10:0.126928 11:0.0107545 12:0.134075 13:0.173519 14:0.475524 15:-0.28208 16:0.0858269 17:0.336241 18:-0.30941 19:-0.573353 20:0.112882 21:-0.2797 22:0.201669 23:-0.137809 24:-0.0810342 25:-0.178964 26:-0.0313132 
0.5 0.5 1:0.279903 2:0.584877 3:-0.189771 4:-0.0749306 5:0.284999 6:0.154619 7:0.346233 8:-0.296203 9:-0.0120359 10:0.300876 11:-0.0163933 12:-0.0599246 13:-0.146955 14:0.263179 15:-0.680957 16:0.0880081 17:0.181445 18:-0.469278 19:-0.277607 20:0.0969909 21:-0.0565184 22:-0.00171595 23:-0.325413 24:-0.0338244 25:0.155693 26:-0.0143956 
0.5 0.5 1:0.429449 2:0.553359 3:-0.374253 4:0.13272 5:0.248563 6:-0.035296 7:0.312043 8:-0.350854 9:0.0173465 10:0.133618 11:0.0204058 12:-0.186715 13:-0.435551 14:0.0784885 15:-0.733996 16:0.304761 17:-0.154592 18:-0.449326 19:0.265807 20:-0.170237 21:0.0976196 22:-0.181679 23:-0.143431 24:-0.111542 25:0.314439 26:0.0186694 
0.1410107104889847 0 1:0.500598 2:0.297016 3:-0.223175 4:0.529132 5:-0.0978466 6:-0.531606 7:0.706286 8:-0.37848 9:-0.0417128 10:-0.238373 11:-0.0904784 12:-0.0910573 13:-0.469065 14:0.0284895 15:0.10216 16:0.141502 17:-0.649969 18:0.29417 19:0.754932 20:-0.695616 21:0.206958 22:-0.0848681 23:0.380712 24:-0.0546739 25:0.209416 26:0.023498 
0.5 0.5 1:0.493779 2:0.196123 3:0.00817455 4:0.428674 5:-0.320979 6:-0.204224 7:0.476293 8:-0.338615 9:-0.187527 10:-0.0121614 11:-0.133826 12:-0.17091 13:-0.0807018 14:0.127554 15:0.401188 16:-0.214757 17:-0.436508 18:0.65549 19:0.231374 20:-0.32872 21:0.00808343 22:0.0679014 23:0.139146 24:0.0554568 25:0.0287954 26:-0.00573121 
0 0.5 1:0.413404 2:0.203538 3:0.0113777 4:0.293102 5:-0.366455 6:0.0811454 7:0.0527608 8:-0.180873 9:-0.0605701 10:0.271963 11:-0.406506 12:-0.101639 13:0.0938449 14:0.25214 15:0.344826 16:-0.26788 17:-0.0579479 18:0.658856 19:-0.29789 20:0.222184 21:-0.185188 22:0.0357052 23:-0.174833 24:0.17705 25:-0.144435 26:-0.0229917 
0 0.4886894211909702 1:0.295252 2:0.325656 3:-0.229185 4:0.20854 5:-0.18091 6:0.0272219 7:-0.0347524 8:0.0175927 9:-0.0474223 10:0.309208 11:-0.269137 12:0.113289 13:0.0798773 14:0.371889 15:0.0185711 16:0.0407131 17:0.153862 18:0.337631 19:-0.477079 20:0.494376 21:-0.362766 22:-0.0241392 23:-0.188601 24:0.0454724 25:-0.185443 26:-0.0255093 
0 0.5 1:0.239631 2:0.498548 3:-0.304903 4:0.243737 5:-0.0196555 6:-0.159346 7:0.133948 8:-0.0411977 9:-0.0419482 10:0.0273776 11:-0.265709 12:-0.00846011 13:-0.0108027 14:0.455 15:-0.425773 16:0.462528 17:0.0104434 18:0.0468262 19:-0.285591 20:0.336022 21:-0.367772 22:-0.129719 23:0.0808629 24:-0.12057 25:0.0507707 26:-0.0193736 
0.5 0.5 1:0.223255 2:0.54009 3:-0.289284 4:0.329792 5:0.0123769 6:-0.168977 7:0.241812 8:-0.050975 9:0.000494028 10:0.118733 11:-0.281256 12:-0.222612 13:0.0436035 14:0.484238 15:-0.671934 16:0.740445 17:-0.263115 18:-0.0759096 19:0.022245 20:0.0230561 21:-0.337059 22:-0.218102 23:0.219736 24:-0.182691 25:0.361513 26:-0.0162359 
0 0.07391195927573349 1:0.191131 2:0.520111 3:-0.254996 4:0.314089 5:0.0292363 6:-0.184252 7:0.206626 8:0.0512872 9:0.0464767 10:0.298625 11:-0.340026 12:-0.124275 13:0.0831646 14:0.474135 15:-0.611939 16:0.747375 17:-0.340296 18:-0.0994973 19:0.253874 20:-0.12134 21:-0.313296 22:-0.136838 23:0.0866949 24:-0.0522333 25:0.43073 26:-0.00935005 
0 0.5 1:0.174534 2:0.385058 3:-0.18653 4:0.256113 5:0.0784706 6:-0.346858 7:0.212228 8:-0.043647 9:0.0556984 10:0.454453 11:-0.576866 12:0.103234 13:-0.166639 14:0.437108 15:-0.307266 16:0.498713 17:-0.164901 18:-0.140348 19:0.379755 20:-0.102754 21:-0.224346 22:-0.0562967 23:-0.18138 24:0.306179 25:0.174045 26:0.00558644 
0.5 0.5 1:0.239313 2:0.118609 3:0.217097 4:0.00857654 5:0.260967 6:-0.386283 7:0.234924 8:-0.061594 9:-0.0994243 10:0.563557 11:-0.685024 12:0.275079 13:-0.349794 14:0.373338 15:0.0450108 16:0.04784 17:0.180806 18:-0.238178 19:0.294488 20:-0.0775936 21:-0.11682 22:0.00612359 23:-0.410507 24:0.535776 25:-0.280162 26:0.0188157 
0.3257341540078224 0 1:0.276117 2:0.050566 3:0.510693 4:-0.0524312 5:0.199747 6:-0.171508 7:0.360668 8:-0.14297 9:-0.0614656 10:0.54969 11:-0.564063 12:0.48134 13:-0.351863 14:0.317762 15:0.165587 16:-0.349876 17:0.388663 18:-0.19752 19:0.00384371 20:-0.09454 21:0.0401357 22:-0.0646238 23:-0.440306 24:0.523315 25:-0.614231 26:0.0199982 
0.5 0.1580089690968875 1:0.284468 2:0.0366807 3:0.564506 4:0.0407222 5:0.09172 6:-0.0493936 7:0.29512 8:-0.166328 9:0.229298 10:0.47704 11:-0.43167 12:0.468528 13:-0.040589 14:0.285898 15:0.0888585 16:-0.486943 17:0.39887 18:-0.0553428 19:-0.198526 20:-0.0211494 21:0.0847509 22:-0.200778 23:-0.308797 24:0.295814 25:-0.577466 26:0.00464724 
0.5 0.5 1:0.297421 2:-0.0103811 3:0.56142 4:0.104935 5:0.0672473 6:-0.0509991 7:0.277748 8:-0.108378 9:0.0761628 10:0.435413 11:-0.140819 12:0.372548 13:0.0514493 14:0.283435 15:-0.0416579 16:-0.385846 17:0.282029 18:0.0781033 19:-0.125331 20:0.0633521 21:-0.0525937 22:-0.130058 23:-0.0983641 24:-0.0536182 25:-0.288185 26:-0.013543 
0.5 0.5 1:0.30598 2:-0.0539631 3:0.527996 4:0.19203 5:0.089029 6:-0.192178 7:0.30649 8:0.0294235 9:-0.0400392 10:0.185277 11:0.0402011 12:0.130773 13:0.154643 14:0.301063 15:-0.10774 16:-0.173343 17:0.0305348 18:0.121523 19:0.162666 20:0.0978798 21:-0.244687 22:0.0393588 23:0.159175 24:-0.267816 25:0.126351 26:-0.0234324 
0 0.5 1:0.304052 2:-0.0998726 3:0.411331 4:0.345257 5:0.0484773 6:-0.271694 7:0.429233 8:0.100937 9:0.0237293 10:0.0242352 11:0.199717 12:0.0154009 13:0.205357 14:0.318987 15:-0.0799793 16:-0.0320733 17:-0.245296 18:0.0922128 19:0.381658 20:-0.00412224 21:-0.350676 22:0.122916 23:0.243991 24:-0.349883 25:0.413703 26:-0.0225999 
0 0.5 1:0.287791 2:-0.185681 3:0.318232 4:0.572311 5:0.0178765 6:-0.0817143 7:0.485507 8:0.063039 9:0.140673 10:0.147121 11:0.203847 12:0.0233433 13:0.143215 14:0.329839 15:-0.0369587 16:0.0699447 17:-0.462215 18:0.0871451 19:0.203212 20:-0.163315 21:-0.322929 22:-0.0365586 23:0.0553539 24:-0.320886 25:0.331535 26:-0.0150563 
0.5 0.5 1:0.287232 2:-0.209771 3:0.231847 4:0.620464 5:0.0718605 6:0.101679 7:0.509337 8:0.00543795 9:0.166357 10:0.175332 11:0.199525 12:0.0640979 13:-0.0443703 14:0.339906 15:-0.0286975 16:0.186658 17:-0.468534 18:0.0563704 19:-0.227582 20:-0.253362 21:-0.190687 22:-0.358204 23:-0.164511 24:-0.193507 25:0.0641994 26:-0.0019288 
0 0.5 1:0.286558 2:-0.212876 3:0.108903 4:0.486863 5:0.0433842 6:0.128869 7:0.619072 8:-0.00594092 9:0.32807 10:0.189362 11:0.253375 12:0.213943 13:-0.0480728 14:0.346652 15:-0.0325626 16:0.310243 17:-0.272268 18:0.035307 19:-0.593853 20:-0.35642 21:-0.0670652 22:-0.480726 23:-0.234471 24:0.00749557 25:-0.250403 26:0.0126997 
0 0.5 1:0.293511 2:-0.276634 3:-0.0584023 4:0.435835 5:0.0407051 6:0.252212 7:0.536703 8:0.0259477 9:0.301925 10:0.0574504 11:0.149499 12:0.321068 13:-0.101665 14:0.345832 15:-0.0169667 16:0.392608 17:-0.127308 18:-0.00815041 19:-0.728969 20:-0.322506 21:-0.0242958 22:-0.351811 23:-0.104831 24:0.235442 25:-0.422613 26:0.0161953 
0.5 0.5 1:0.260745 2:-0.304544 3:-0.0114121 4:0.46401 5:0.100167 6:0.0592573 7:0.48222 8:-0.057987 9:0.0412394 10:-0.179331 11:0.046106 12:0.0167659 13:-0.223112 14:0.349399 15:-0.0235572 16:0.348836 17:-0.141681 18:-0.0495896 19:-0.468429 20:-0.178943 21:-0.0244517 22:-0.172364 23:0.0472843 24:0.367536 25:-0.363717 26:0.0053164 
0 0.5 1:0.290071 2:-0.284625 3:-0.00866485 4:0.453991 5:0.0431223 6:-0.2836 7:0.473608 8:0.0637642 9:-0.143335 10:-0.205077 11:0.190474 12:0.0284776 13:0.118087 14:0.343166 15:-0.0518084 16:0.208526 17:-0.253916 18:-0.0249462 19:-0.0164858 20:-0.0538653 21:-0.145384 22:-0.066031 23:0.0341441 24:0.326265 25:-0.206248 26:-0.0200121 
0 0.5 1:0.281943 2:-0.298687 3:-0.00810943 4:0.26297 5:0.016524 6:-0.632922 7:0.240759 8:0.14493 9:-0.0286 10:-0.227741 11:0.540801 12:-0.338506 13:0.0846996 14:0.323302 15:-0.148902 16:0.0649956 17:-0.152113 18:0.0949633 19:0.589141 20:0.0919362 21:-0.247014 22:-0.0685188 23:-0.0625517 24:-0.0905534 25:0.602434 26:-0.0323435 
0.1009504490590836 0 1:0.308509 2:-0.319619 3:-0.160519 4:0.0197767 5:-0.0286862 6:-0.681735 7:0.189468 8:0.077633 9:-0.266867 10:-0.418524 11:0.935693 12:-0.348436 13:-0.354445 14:0.197748 15:-0.0738726 16:0.221787 17:0.0762257 18:0.176832 19:0.198629 20:-0.00132256 21:-0.204537 22:0.344693 23:0.0904582 24:-0.440294 25:0.573745 26:0.0180391 
0 0.1175686087834661 1:0.216365 2:-0.402945 3:-0.049952 4:-0.0502516 5:0.117775 6:-0.52192 7:0.263019 8:0.176643 9:-0.185063 10:-0.592277 11:0.768781 12:0.192314 13:-0.570031 14:0.274573 15:0.0146167 16:0.130496 17:0.0832147 18:0.00590412 19:-0.203101 20:-0.157627 21:-0.20652 22:-0.00718749 23:0.0916745 24:-0.321245 25:-0.610417 26:0.0218669 
0.5 0.5 1:0.0909244 2:-0.354405 3:-0.115615 4:-0.140007 5:0.121831 6:-0.562602 7:0.168356 8:-0.0307661 9:0.0294574 10:-0.473403 11:0.715734 12:0.29125 13:-0.384136 14:0.41884 15:-0.0201055 16:0.0706905 17:0.174253 18:-0.0506998 19:-0.0104457 20:-0.143888 21:-0.122935 22:-0.278782 23:0.0137646 24:-0.126593 25:-0.771424 26:0.00434344 
0 0.4840021004357667 1:0.0375891 2:-0.336785 3:-0.15808 4:-0.0367483 5:0.123733 6:-0.646566 7:-0.0966759 8:-0.0212561 9:0.109088 10:-0.417136 11:0.369088 12:-0.237953 13:-0.18198 14:0.566132 15:0.259769 16:0.217313 17:0.122286 18:0.119977 19:0.150514 20:0.210464 21:-0.0588353 22:-0.0466925 23:-0.0214668 24:0.199894 25:0.403441 26:-0.018959 
0.5 0.5 1:0.257857 2:0.163343 3:-0.172941 4:0.23141 5:0.308948 6:-0.41764 7:0.0101104 8:0.138968 9:0.293595 10:-0.461954 11:0.419266 12:0.025655 13:-0.338042 14:0.369907 15:-0.412145 16:0.0793346 17:-0.108805 18:-0.00838948 19:-0.311079 20:0.174933 21:-0.32995 22:-0.199861 23:0.0526802 24:-0.0747137 25:0.161149 26:0.00185179 
0.1199301943628795 0 1:0.450008 2:0.248382 3:-0.146906 4:0.333317 5:0.306163 6:-0.595213 7:0.19279 8:0.0848551 9:0.152398 10:-0.3478 11:0.241918 12:0.0438043 13:-0.470534 14:0.109682 15:-0.530742 16:0.00425622 17:-0.213426 18:0.00735406 19:-0.117797 20:-0.0125753 21:-0.261732 22:-0.0421673 23:-0.0903849 24:0.0150858 25:0.0513576 26:0.0113396 
0.3907397786625372 0 1:0.596062 2:0.132631 3:-0.263138 4:0.494965 5:0.345948 6:-0.698854 7:0.400121 8:-0.046692 9:0.225722 10:-0.251115 11:0.293169 12:0.421089 13:-0.390887 14:-0.176525 15:-0.170274 16:0.126404 17:-0.386596 18:0.166535 19:0.438801 20:-0.406084 21:0.0326403 22:-0.11989 23:-0.213178 24:-0.0394687 25:-0.483008 26:0.00762115 
0.5 0 1:0.513597 2:0.162257 3:-0.317976 4:0.470223 5:0.417927 6:-0.797436 7:0.451724 8:-0.0783634 9:0.332899 10:-0.260362 11:0.246846 12:0.430612 13:-0.306122 14:-0.00690396 15:-0.00377963 16:0.152278 17:-0.27826 18:0.139156 19:0.673369 20:-0.356671 21:0.122765 22:-0.292865 23:-0.0640234 24:-0.108069 25:-0.570759 26:-0.0087302 
0.009592030464715842 0 1:0.297721 2:0.193401 3:-0.332246 4:0.435319 5:0.464788 6:-0.80508 7:0.390925 8:0.0332946 9:0.418444 10:-0.519776 11:0.147774 12:0.412385 13:-0.0846926 14:0.312061 15:0.0567839 16:0.0838321 17:-0.270785 18:-0.067475 19:0.675956 20:-0.147868 21:-0.0347993 22:-0.437297 23:0.206753 24:0.0140928 25:-0.262379 26:-0.024573 
0.5 0 1:0.0613103 2:0.113608 3:-0.278475 4:0.354178 5:0.545577 6:-0.476385 7:0.193091 8:0.0227625 9:0.300179 10:-0.46726 11:0.0710787 12:0.223736 13:0.114354 14:0.608677 15:0.111622 16:0.00478091 17:-0.420858 18:-0.318571 19:0.356226 20:-0.0356539 21:-0.280455 22:-0.341891 23:0.303419 24:0.201072 25:0.229776 26:-0.0240752 
0.5 0.4047917274910939 1:0.0350867 2:0.224599 3:-0.426767 4:0.323412 5:0.703195 6:-0.146863 7:0.324096 8:0.165962 9:0.122521 10:-0.292205 11:-0.00043311 12:-0.190363 13:-0.308949 14:0.691956 15:0.0898578 16:0.116986 17:-0.635955 18:-0.478526 19:-0.102844 20:-0.165031 21:-0.557698 22:-0.214304 23:0.224552 24:0.243526 25:0.509921 26:-0.00603275 
0.5 0.06345046422270931 1:-0.0100935 2:0.266892 3:-0.477341 4:0.382752 5:0.640289 6:-0.0181709 7:0.361568 8:0.353666 9:0.148907 10:-0.251095 11:-0.08219 12:0.030168 13:-0.371417 14:0.592163 15:0.0223201 16:0.309255 17:-0.589505 18:-0.398295 19:-0.410654 20:-0.170463 21:-0.6336 22:-0.234888 23:0.0735654 24:0.1779 25:0.235842 26:0.00546084 
0.5 0.5 1:0.152346 2:0.460576 3:-0.616365 4:-0.503085 5:0.29513 6:0.224583 7:0.0405891 8:-0.166208 9:-0.0347086 10:0.0582883 11:0.240233 12:0.333707 13:-0.124902 14:0.247235 15:-0.239113 16:0.582526 17:0.642418 18:0.223098 19:-0.422563 20:0.288703 21:0.174935 22:-0.188145 23:-0.289217 24:0.0114833 25:-0.208072 26:0.00308453 
0.5 0.5 1:0.116925 2:0.547649 3:-0.46864 4:-0.706425 5:0.25159 6:0.166034 7:-0.0297891 8:-0.287016 9:-0.286759 10:0.105395 11:0.00808671 12:0.0983713 13:-0.249526 14:0.33601 15:-0.147367 16:0.39118 17:0.887698 18:0.341716 19:-0.270318 20:0.422327 21:0.381088 22:0.146378 23:-0.385475 24:-0.0979799 25:0.027425 26:-0.00171307 
0.1453676486908603 0.04474090960506924 1:0.0385315 2:0.551771 3:-0.318169 4:-0.513355 5:0.101478 6:0.204313 7:0.287482 8:-0.239206 9:-0.450262 10:0.196231 11:0.279885 12:0.066689 13:-0.280511 14:0.503934 15:0.00137641 16:0.116202 17:0.552569 18:0.2932 19:-0.18554 20:0.19897 21:0.202128 22:0.46214 23:-0.372585 24:-0.372305 25:0.251685 26:-0.000345952 
0.2488089500682327 0 1:0.273081 2:0.725146 3:-0.262031 4:-0.517433 5:0.215734 6:-0.199032 7:0.169211 8:-0.31493 9:-0.359456 10:-0.0429718 11:0.478336 12:0.117405 13:0.0565421 14:0.280159 15:-0.199594 16:0.22814 17:0.2748 18:-0.178096 19:0.162601 20:-0.216768 21:0.0518085 22:0.0936089 23:-0.124062 24:-0.33163 25:-0.0709871 26:0.00608702 
0.04032163448111162 0 1:0.277126 2:0.613859 3:-0.266854 4:-0.351799 5:0.159757 6:-0.144231 7:0.133445 8:-0.423433 9:-0.326694 10:0.162141 11:0.302635 12:0.0224705 13:0.214159 14:0.266176 15:-0.177084 16:0.273915 17:0.117005 18:-0.175146 19:0.0771088 20:-0.167462 21:0.126163 22:0.161239 23:-0.281493 24:-0.0337003 25:0.00779592 26:-0.677065 
0.5 0.0009704994518141903 1:0.262 2:0.545591 3:-0.291275 4:-0.183996 5:0.238203 6:-0.119448 7:-0.117236 8:-0.304617 9:-0.326549 10:0.0799672 11:0.241706 12:-0.0995097 13:0.362368 14:0.284011 15:-0.0947946 16:0.291362 17:-0.0802881 18:-0.106616 19:-0.0400529 20:0.0901134 21:0.0810003 22:0.147716 23:-0.237044 24:0.120883 25:0.158986 26:-0.0118303 
0.5 0 1:0.170243 2:0.402331 3:-0.238311 4:0.0706752 5:0.158597 6:-0.0390419 7:-0.18091 8:-0.0445952 9:-0.0544879 10:0.052088 11:0.409552 12:-0.138629 13:0.308819 14:0.348507 15:0.0718091 16:0.173595 17:-0.319913 18:-0.0109076 19:-0.172469 20:0.245367 21:-0.274151 22:-0.205819 23:-0.0977556 24:-0.1916 25:0.203234 26:-0.0147253 
0.5 0.5 1:0.134877 2:0.381504 3:-0.141392 4:0.137309 5:0.134259 6:-0.169419 7:-0.173226 8:0.171628 9:0.0912991 10:-0.0375879 11:0.17457 12:0.0407194 13:0.220163 14:0.363119 15:0.0384611 16:-0.00917753 17:-0.192006 18:0.0305924 19:0.173688 20:-0.0231537 21:-0.47857 22:-0.386253 23:-0.0115369 24:0.0854368 25:-0.0757229 26:-0.00105584 
0.5 0.5 1:0.106322 2:0.397936 3:-0.160464 4:0.136874 5:0.0917574 6:-0.19497 7:-0.191717 8:0.186157 9:0.10724 10:-0.129476 11:-0.00616724 12:0.0301974 13:0.0896812 14:0.358158 15:-0.0222444 16:0.0226561 17:-0.144824 18:0.10299 19:0.29092 20:-0.0722681 21:-0.423391 22:-0.194474 23:0.0258608 24:0.280292 25:-0.107811 26:0.00406587 
0 0.5 1:0.0934682 2:0.401893 3:-0.157719 4:0.193101 5:-0.0269691 6:-0.188814 7:0.00296267 8:0.118829 9:-0.0568421 10:-0.156866 11:0.108179 12:0.0496354 13:0.107515 14:0.33773 15:-0.0792334 16:0.148798 17:-0.175113 18:0.206981 19:0.202074 20:-0.0873223 21:-0.301548 22:0.039875 23:0.0489272 24:0.206799 25:-0.0810815 26:0.00389084 
0 0.5 1:0.0853815 2:0.41988 3:-0.240664 4:0.244751 5:0.0126406 6:-0.00731033 7:-0.0977437 8:0.0700522 9:-0.194224 10:-0.0327683 11:0.187257 12:0.0781465 13:0.158684 14:0.312214 15:-0.10467 16:0.287977 17:-0.241559 18:0.162547 19:-0.036341 20:0.0239401 21:-0.125491 22:0.104265 23:0.0598311 24:-0.0126987 25:-0.0467928 26:-0.00258967 
0 0.5 1:0.0673266 2:0.436375 3:-0.272191 4:0.23527 5:0.100295 6:0.0728117 7:-0.127677 8:-0.0278287 9:0.0403731 10:-0.175673 11:0.241245 12:0.0519625 13:0.223263 14:0.299523 15:-0.12004 16:0.323934 17:-0.203005 18:0.0495063 19:-0.171495 20:0.0747794 21:-1.75885e-05 22:-0.082724 23:0.121243 24:-0.141341 25:-0.011989 26:-0.0103937 
0 0.5 1:0.054204 2:0.418166 3:-0.178937 4:0.147811 5:0.114228 6:0.0390857 7:-0.0751402 8:-0.0352337 9:0.189418 10:-0.165403 11:0.209803 12:0.0268845 13:0.167297 14:0.306171 15:-0.115408 16:0.230486 17:-0.0572298 18:0.00299486 19:-0.103916 20:0.00874248 21:0.01553 22:-0.298438 23:0.109174 24:-0.113103 25:0.0255192 26:-0.0105234 
0 0.08762384032988664 1:-0.00626022 2:0.433337 3:-0.0551313 4:0.0826446 5:0.114761 6:-0.0493833 7:0.0651826 8:-0.035151 9:0.0653895 10:-0.0871918 11:0.132268 12:0.0910667 13:0.180555 14:0.351157 15:-0.152638 16:0.208912 17:0.0200727 18:0.0259571 19:0.0259629 20:-0.0955985 21:-0.0305271 22:-0.346438 23:0.0232307 24:-0.0238062 25:0.0495191 26:-0.00432896 
0 0.5 1:-0.0465972 2:0.433766 3:-0.0842748 4:0.0811035 5:0.0880978 6:-0.0191016 7:0.15182 8:0.0622983 9:-0.0607463 10:0.126036 11:0.0374513 12:0.0353866 13:0.0443833 14:0.407874 15:-0.21451 16:0.338111 17:-0.0351906 18:0.0716047 19:0.051886 20:-0.166888 21:-0.152498 22:-0.272056 23:-0.13274 24:0.0440184 25:0.0777546 26:0.0054494 
0 0.5 1:-0.0795364 2:0.407862 3:-0.0141505 4:0.153705 5:0.237676 6:0.065407 7:0.0249132 8:0.0398423 9:-0.0664337 10:0.07613 11:0.111943 12:0.133728 13:0.106832 14:0.471258 15:-0.224835 16:0.302116 17:-0.0813193 18:-0.117808 19:-0.151642 20:0.0424543 21:-0.4364 22:0.104531 23:-0.206571 24:0.0974207 25:-0.199245 26:0.00457171 
0.5 0 1:0.00674569 2:0.219314 3:0.54286 4:-0.0355824 5:0.151149 6:-0.0444807 7:0.231496 8:0.0232632 9:-0.339762 10:0.00598068 11:0.109387 12:0.181022 13:0.299607 14:0.453177 15:0.0531812 16:-0.752988 17:0.224095 18:0.133338 19:-0.0920195 20:-0.0670909 21:-0.387717 22:0.269668 23:-0.00259039 24:0.0344591 25:-0.157737 26:-0.0124963 
0.5 0 1:0.0253076 2:0.19041 3:0.59768 4:0.0635885 5:0.0608911 6:-0.105348 7:0.276141 8:-0.213703 9:-0.074639 10:-0.0493344 11:0.230983 12:-0.0926864 13:0.30239 14:0.345727 15:0.111188 16:-0.731899 17:0.110389 18:0.257159 19:-0.0583987 20:-0.032702 21:-0.134395 22:-0.0839199 23:0.151666 24:-0.0842435 25:0.132172 26:-0.0144756 
0.5 0.2874257293045177 1:0.133251 2:0.187429 3:0.256805 4:0.183086 5:0.146381 6:-0.172502 7:0.256027 8:-0.388844 9:0.149642 10:-0.0998083 11:0.197441 12:-0.131607 13:0.33856 14:0.130648 15:0.0517425 16:-0.154806 17:-0.109494 18:0.121538 19:0.0547987 20:0.0367666 21:0.13691 22:-0.450797 23:0.303699 24:-0.152365 25:0.274302 26:-0.00981435 
0.5 0.5 1:0.247575 2:0.209876 3:-0.197825 4:0.260546 5:0.312039 6:-0.226557 7:0.269179 8:-0.372161 9:0.100539 10:-0.0966887 11:0.182359 12:-0.0679779 13:0.299655 14:-0.0464355 15:-0.0778989 16:0.524276 17:-0.271832 18:-0.120347 19:0.267036 20:0.0698511 21:0.256915 22:-0.457885 23:0.306716 24:-0.135742 25:0.214652 26:-0.0054703 
0.5 0.1794329068274045 1:0.252306 2:0.242124 3:-0.296973 4:0.268077 5:0.348004 6:-0.341746 7:0.431501 8:-0.47253 9:-0.0200543 10:0.0942238 11:0.101905 12:-0.00487098 13:0.19242 14:-0.0555492 15:-0.195386 16:0.752632 17:-0.279361 18:-0.215204 19:0.440754 20:-0.189031 21:0.226553 22:-0.205123 23:0.0748149 24:0.00499633 25:0.195148 26:-0.00266916 
0.5 0.3281627067563898 1:0.064667 2:0.239893 3:-0.150112 4:0.195634 5:0.278811 6:-0.454414 7:0.582984 8:-0.392694 9:-0.218593 10:0.265751 11:0.113882 12:0.0476796 13:0.215407 14:0.142337 15:-0.245911 16:0.509753 17:-0.225929 18:-0.119506 19:0.404246 20:-0.506791 21:0.0140337 22:0.0973797 23:-0.185904 24:0.0473474 25:0.146773 26:-0.00637299 
0.5 0.5 1:-0.156768 2:0.187158 3:-0.118574 4:0.240136 5:0.152672 6:-0.182224 7:0.483468 8:-0.220845 9:-0.168453 10:0.410514 11:0.0834991 12:0.038113 13:0.369578 14:0.42496 15:-0.171327 16:0.17842 17:-0.214872 18:0.0607518 19:0.0881514 20:-0.560032 21:-0.254841 22:0.113011 23:-0.336031 24:0.0207749 25:0.0364539 26:-0.0129854 
0.5 0.5 1:-0.243371 2:0.159287 3:-0.156678 4:0.215368 5:0.257271 6:0.0431687 7:0.600636 8:-0.15983 9:-0.00407934 10:0.466545 11:-0.00607149 12:0.0398881 13:0.161919 14:0.584812 15:-0.060076 16:0.0346342 17:-0.163284 18:0.0771992 19:-0.19008 20:-0.429815 21:-0.356668 22:-0.0720382 23:-0.307447 24:-0.0205474 25:-0.188223 26:-0.0111154 
0.5 0 1:-0.308102 2:0.101904 3:-0.14319 4:0.140581 5:0.230309 6:-0.0297483 7:0.232303 8:-0.127321 9:-0.115397 10:0.294522 11:0.161068 12:0.534791 13:0.144409 14:0.644663 15:0.021701 16:0.119224 17:-0.143451 18:0.0135593 19:-0.364427 20:-0.0965948 21:-0.223424 22:-0.207478 23:-0.232648 24:-0.00170325 25:-0.478321 26:-0.00976912 
0.2570002976247544 0.5 1:-0.322272 2:0.0252592 3:-0.226681 4:0.0136087 5:0.201743 6:-0.110152 7:0.042075 8:-0.223586 9:-0.103419 10:0.331919 11:0.0105951 12:0.359658 13:0.0212379 14:0.63133 15:0.0205768 16:0.243414 17:-0.129099 18:-0.0343045 19:-0.429145 20:0.0868171 21:0.041213 22:-0.237879 23:-0.297319 24:0.158752 25:-0.345986 26:-0.00521562 
0.5 0.5 1:-0.285845 2:0.135229 3:-0.201081 4:0.00741359 5:0.206351 6:-0.0539511 7:0.152635 8:-0.30185 9:-0.0904784 10:0.356487 11:-0.0655759 12:0.0328636 13:-0.0989682 14:0.587408 15:-0.017645 16:0.213672 17:-0.0279927 18:0.0719239 19:-0.348582 20:0.0868073 21:0.0918121 22:-0.0249163 23:-0.345269 24:0.263493 25:0.0991656 26:0.00280052 
0.5 0.5 1:-0.295507 2:0.121413 3:-0.200025 4:0.0399315 5:0.179434 6:0.00253899 7:0.0877803 8:-0.127474 9:-0.140295 10:0.307028 11:-0.101994 12:0.00361098 13:-0.0548631 14:0.587551 15:0.0808874 16:0.0988865 17:0.151218 18:0.215448 19:-0.15078 20:0.115181 21:-0.1835 22:0.199262 23:-0.268046 24:0.113341 25:0.356761 26:0.0044501 
0 0.5 1:-0.0953691 2:0.0714784 3:-0.0797185 4:-0.216881 5:0.0987541 6:-0.48914 7:-0.168981 8:0.197439 9:-0.330379 10:-0.100852 11:0.278293 12:0.0971573 13:-0.300489 14:0.543533 15:0.163139 16:-0.0350375 17:0.392077 18:0.269185 19:0.222891 20:0.137035 21:-0.520668 22:0.271448 23:-0.00481405 24:-0.227553 25:0.317917 26:0.00547192 
0.5 0.5 1:0.0240248 2:0.0446327 3:-0.140588 4:-0.289728 5:0.126321 6:-0.646983 7:-0.166327 8:0.181492 9:-0.188028 10:-0.310464 11:0.266808 12:0.139367 13:-0.307576 14:0.491351 15:0.0983772 16:-0.0138273 17:0.400763 18:0.163705 19:0.416227 20:0.0881115 21:-0.546965 22:0.0517087 23:0.219133 24:-0.388023 25:0.0696673 26:-0.00353158 
0.5 0.5 1:0.081733 2:0.256555 3:-0.220406 4:0.0375041 5:0.403425 6:-0.477775 7:-0.0090714 8:-0.0691169 9:0.218895 10:-0.289415 11:0.27842 12:0.421903 13:0.0187385 14:0.364618 15:-0.19772 16:0.147302 17:0.0763369 18:-0.0887225 19:0.301937 20:-0.0627721 21:-0.245233 22:-0.351151 23:0.234958 24:-0.278367 25:-0.107276 26:-0.0161535 
0.5 0 1:0.633194 2:0.290619 3:-0.265693 4:0.207494 5:0.332176 6:-0.536612 7:-0.213741 8:-0.0498195 9:0.0108107 10:-0.456173 11:-0.0275172 12:0.439771 13:-0.490527 14:-0.183152 15:-0.512442 16:0.227203 17:-0.25478 18:0.130461 19:0.0718483 20:0.188462 21:0.097053 22:-0.303574 23:0.245822 24:0.265396 25:-0.372669 26:0.00901345 
0.5 0.5 1:0.52036 2:0.186863 3:-0.198313 4:0.189663 5:0.289489 6:-0.534542 7:-0.257447 8:0.0224166 9:-0.051776 10:-0.470982 11:-0.0607246 12:0.528058 13:-0.5142 14:-0.0136462 15:-0.144317 16:0.0861643 17:-0.0512271 18:0.351156 19:0.107975 20:0.311862 21:-0.0385681 22:-0.15251 23:0.222355 24:0.163738 25:-0.528266 26:0.0094591 
0.5 0.5 1:0.321184 2:-0.0302768 3:-0.120215 4:0.146492 5:0.229311 6:-0.461149 7:-0.188804 8:0.0205182 9:-0.157299 10:-0.346861 11:-0.0649933 12:0.478075 13:-0.383231 14:0.233552 15:0.182994 16:0.0639223 17:-0.0373257 18:0.318687 19:0.0412821 20:0.207351 21:-0.233033 22:-0.0895082 23:0.0663273 24:-0.0378849 25:-0.439019 26:-0.00201941 
0.5 0.5 1:0.259642 2:-0.183547 3:-0.193003 4:0.234432 5:0.442941 6:-0.432303 7:-0.0993137 8:0.176523 9:-0.331314 10:-0.121845 11:0.0724568 12:0.0784144 13:-0.329205 14:0.343883 15:0.337997 16:0.1708 17:-0.150225 18:0.0166349 19:-0.0171324 20:0.0205057 21:-0.498875 22:0.0534323 23:-0.152632 24:-0.171565 25:0.0616534 26:-0.00536912 
0.4623359288452145 0 1:0.203948 2:-0.112952 3:-0.248142 4:0.267288 5:0.641773 6:-0.485631 7:0.111255 8:0.406017 9:-0.347639 10:-0.116797 11:0.191919 12:-0.181244 13:-0.441554 14:0.35451 15:0.326909 16:0.216647 17:-0.208972 18:-0.351874 19:0.0768102 20:-0.323509 21:-0.611578 22:0.130164 23:-0.240249 24:-0.185968 25:0.506381 26:0.0017828 
0.5 0.5 1:-0.0430576 2:-0.112678 3:-0.0258322 4:0.102731 5:0.586696 6:-0.399847 7:0.127767 8:-0.0702429 9:-0.471839 10:-0.0314919 11:-0.141115 12:-0.115687 13:-0.447712 14:0.608466 15:0.0508365 16:-0.0751069 17:-0.0146516 18:-0.401542 19:0.136547 20:-0.138399 21:-0.0973149 22:0.0571656 23:0.109457 24:0.122082 25:0.432376 26:0.00853265 
0.5 0.5 1:-0.12381 2:0.0160035 3:-0.0455756 4:0.134362 5:0.454711 6:-0.41975 7:0.175307 8:-0.134417 9:-0.34574 10:-0.161487 11:-0.0624388 12:0.045737 13:-0.190903 14:0.827396 15:-0.228487 16:-0.129682 17:0.057418 18:-0.104004 19:-0.0252095 20:0.145966 21:0.0178827 22:-0.139908 23:0.276223 24:0.173965 25:0.127391 26:-0.00694785 
0.5 0.5 1:-0.178417 2:0.177262 3:-0.17587 4:0.12915 5:0.341578 6:-0.200959 7:-0.225552 8:0.0376623 9:-0.363184 10:-0.152644 11:0.0777717 12:0.180966 13:-0.0217105 14:0.824499 15:-0.454238 16:0.0361442 17:0.0465727 18:0.136997 19:-0.283577 20:0.418456 21:-0.0872199 22:-0.188715 23:0.142347 24:0.146877 25:-0.106785 26:-0.0205743 
0.5 0.5 1:-0.0548949 2:0.249826 3:-0.195332 4:0.142501 5:0.242889 6:-0.124266 7:0.222691 8:-0.00367135 9:-0.334927 10:0.258988 11:-0.0340114 12:0.285869 13:0.145882 14:0.541412 15:-0.398543 16:0.27148 17:0.0297903 18:0.262085 19:-0.33666 20:0.0479248 21:-0.147989 22:-0.0356755 23:-0.294847 24:0.169388 25:-0.297725 26:-0.0234555 
0.5 0.5 1:0.337687 2:0.0115968 3:-0.33971 4:0.167791 5:0.1947 6:-0.304464 7:0.422532 8:-0.182016 9:-0.468715 10:0.442893 11:0.0270164 12:0.327104 13:-0.131812 14:0.187502 15:0.00632503 16:0.371684 17:0.0796196 18:0.241192 19:-0.125224 20:-0.416256 21:-0.00873475 22:0.221435 23:-0.625265 24:0.158261 25:-0.407047 26:-0.0154865 
0 0.5 1:0.495053 2:-0.0389218 3:-0.310575 4:0.167372 5:0.190856 6:-0.430392 7:0.416732 8:-0.222595 9:-0.518645 10:0.327873 11:0.141512 12:0.342611 13:-0.19989 14:0.0515491 15:0.357159 16:0.225203 17:0.16084 18:0.155329 19:0.142743 20:-0.69705 21:0.174121 22:0.328543 23:-0.63047 24:0.0653449 25:-0.338837 26:-0.0102227 
0.5 0.5 1:0.341214 2:-0.0595668 3:-0.206699 4:0.184415 5:0.185089 6:-0.466521 7:0.476812 8:-0.147058 9:-0.375248 10:0.165496 11:0.31416 12:0.285246 13:-0.115101 14:0.135975 15:0.381652 16:0.0345068 17:0.0918165 18:0.157327 19:0.29934 20:-0.681172 21:0.209799 22:0.161382 23:-0.314122 24:-0.0991493 25:-0.163152 26:-0.00998556 
0.5 0.5 1:0.310595 2:0.201359 3:-0.103963 4:0.327594 5:0.225324 6:-0.414915 7:0.209809 8:-0.0377746 9:0.00459003 10:-0.134663 11:0.432787 12:0.034389 13:-0.138736 14:0.170363 15:-0.0238649 16:0.0158303 17:-0.159827 18:0.19441 19:0.261606 20:-0.179856 21:-0.0439123 22:-0.210683 23:0.181682 24:-0.292773 25:0.140817 26:-0.00347189 
0.5 0.4334931050995286 1:0.540949 2:0.379014 3:-0.34007 4:0.518944 5:0.125323 6:-0.369009 7:0.0402881 8:0.0991939 9:-0.0082464 10:-0.249374 11:0.439466 12:0.0278814 13:-0.409377 14:0.046334 15:-0.425574 16:0.237264 17:-0.453775 18:0.195372 19:0.136148 20:0.240205 21:-0.382134 22:-0.521843 23:0.449717 24:-0.330619 25:0.287133 26:0.00557295 
0.5 0 1:0.546259 2:0.423384 3:-0.412096 4:0.545256 5:0.178857 6:-0.341457 7:-0.0700264 8:0.259037 9:0.0277006 10:-0.327167 11:0.382273 12:0.0244747 13:-0.58328 14:-0.0352174 15:-0.496614 16:0.44065 17:-0.567636 18:0.107451 19:0.0893103 20:0.435106 21:-0.572434 22:-0.630222 23:0.442022 24:-0.280335 25:0.246129 26:0.012934 
0.5 0.5 1:0.374306 2:0.387584 3:-0.315093 4:0.436414 5:0.401811 6:-0.307268 7:-0.0901576 8:0.358474 9:0.161313 10:-0.306883 11:0.439534 12:-0.0134456 13:-0.471672 14:0.105423 15:-0.338951 16:0.461737 17:-0.389433 18:-0.0661117 19:0.0433845 20:0.320112 21:-0.503947 22:-0.500257 23:0.236552 24:-0.190168 25:0.0930576 26:0.00795163 
0.5 0.5 1:0.118108 2:0.266575 3:-0.172809 4:0.316921 5:0.412923 6:-0.192224 7:0.0216437 8:0.0660984 9:0.0045398 10:-0.0190968 11:0.165606 12:0.19862 13:-0.186709 14:0.467309 15:-0.147086 16:0.278214 17:-0.138754 18:-0.0793118 19:-0.0870069 20:-0.0974272 21:-0.213452 22:-0.124454 23:-0.0682132 24:-0.00760583 25:-0.112468 26:-0.00120035 
0.5 0.5 1:-0.00763942 2:0.317182 3:-0.0996061 4:0.206787 5:0.24603 6:-0.197934 7:0.151239 8:-0.0126141 9:-0.354419 10:0.012931 11:0.142173 12:0.171348 13:-0.395232 14:0.784853 15:-0.113306 16:0.00219071 17:0.0575329 18:0.0622758 19:-0.120902 20:-0.464029 21:-0.0176725 22:0.364086 23:-0.241356 24:0.0932978 25:-0.16118 26:-0.00261041 
0.5 0 1:-0.0471414 2:0.356997 3:-0.0340951 4:0.103509 5:0.418033 6:-0.0689036 7:0.119101 8:0.0614837 9:-0.287194 10:-0.0567396 11:0.0275624 12:0.0604033 13:-0.330366 14:0.88847 15:-0.12543 16:-0.182482 17:0.133981 18:0.0947803 19:-0.109547 20:-0.506547 21:-0.0446438 22:0.590181 23:-0.29919 24:0.152515 25:-0.183104 26:-0.00536097 
0.5 0.5 1:-0.00393864 2:0.294331 3:0.11489 4:0.191783 5:0.409856 6:-0.138597 7:-0.0219467 8:0.138508 9:-0.148021 10:-0.0234629 11:0.00659799 12:0.0910847 13:-0.306724 14:0.782408 15:-0.0628469 16:-0.242714 17:0.0514315 18:0.0984545 19:0.0509141 20:-0.189573 21:-0.208859 22:0.474371 23:-0.259947 24:0.171644 25:-0.208429 26:-0.00828655 
0.5 0.5 1:0.177374 2:0.145876 3:0.0383603 4:0.0172007 5:0.467955 6:-0.296055 7:-0.258857 8:0.0409669 9:-0.0727404 10:0.00937983 11:-0.018437 12:0.125503 13:-0.0549926 14:0.501802 15:0.0628649 16:-0.081166 17:-0.019422 18:-0.0145912 19:0.224964 20:0.321333 21:-0.320887 22:0.099354 23:-0.117588 24:0.168807 25:-0.135233 26:-0.0131091 
0.5 0.5 1:0.370518 2:0.236655 3:-0.132735 4:0.0658298 5:0.568616 6:-0.0790698 7:-0.386068 8:0.0527247 9:0.365595 10:-0.203701 11:-0.0191815 12:-0.0268001 13:-0.169413 14:0.15665 15:0.100172 16:0.193296 17:-0.192487 18:-0.125522 19:0.157137 20:0.696104 21:-0.298579 22:-0.370541 23:0.109928 24:0.161885 25:0.0734725 26:-0.0073649 
0.5 0.5 1:0.569093 2:0.258269 3:-0.209237 4:0.120908 5:0.520955 6:-0.0646145 7:-0.315106 8:-0.029608 9:0.463062 10:-0.341775 11:-0.0517374 12:-0.241902 13:-0.348441 14:-0.14104 15:0.0557278 16:0.389708 17:-0.265204 18:-0.135181 19:0.0529603 20:0.710116 21:-0.159666 22:-0.598064 23:0.22087 24:0.0651119 25:0.345781 26:0.00639461 
0.5 0.5 1:0.634838 2:0.26772 3:-0.17924 4:0.00647793 5:0.571151 6:0.0165615 7:-0.159369 8:-0.130629 9:0.481994 10:-0.271109 11:0.0834958 12:-0.240381 13:-0.321051 14:-0.231041 15:-0.0619753 16:0.39485 17:-0.0987673 18:-0.190898 19:-0.0841076 20:0.344736 21:0.0235248 22:-0.685295 23:0.0972099 24:-0.100205 25:0.384414 26:0.00650096 
0.5 0.5 1:0.551087 2:0.321627 3:-0.11741 4:-0.148016 5:0.563932 6:0.0865463 7:0.0893873 8:-0.195031 9:0.481367 10:-0.166724 11:0.187437 12:-0.136512 13:-0.206439 14:-0.0577163 15:-0.212655 16:0.223455 17:0.211555 18:-0.129022 19:-0.0765618 20:-0.239547 21:0.121271 22:-0.621629 23:-0.0680794 24:-0.224819 25:0.13623 26:-0.00441488 
0.5 0.5 1:0.344308 2:0.394973 3:-0.0634146 4:-0.287005 5:0.504154 6:0.0783335 7:0.367673 8:-0.194129 9:0.47167 10:-0.033357 11:0.107459 12:0.0247805 13:0.0117808 14:0.271744 15:-0.322814 16:0.0363554 17:0.444469 18:0.0243315 19:0.0499471 20:-0.718543 21:0.101509 22:-0.432809 23:-0.138138 24:-0.134322 25:-0.0836787 26:-0.0163058 
0.5 0.5 1:0.1646 2:0.398168 3:-0.0307924 4:-0.195447 5:0.391797 6:0.0585374 7:0.507126 8:-0.125228 9:0.215874 10:-0.230915 11:-0.00796565 12:0.129315 13:0.0736246 14:0.582975 15:-0.293732 16:-0.0431798 17:0.221901 18:0.119916 19:0.0355871 20:-0.840123 21:-0.0433541 22:-0.196772 23:-0.000956053 24:0.0665986 25:-0.123741 26:-0.0166972 
0.5 0.5 1:0.065675 2:0.335255 3:-0.0297866 4:-0.0678393 5:0.357173 6:0.11327 7:0.332644 8:0.0510435 9:0.00999096 10:-0.406191 11:-0.0393117 12:-0.0210778 13:-0.277796 14:0.748379 15:-0.0541132 16:-0.0100205 17:-0.26054 18:0.123798 19:-0.0743423 20:-0.459582 21:-0.309818 22:0.04707 23:0.151456 24:0.180541 25:0.00433466 26:-0.00852042 
0.5 0.5 1:0.0834593 2:0.246086 3:-0.0832049 4:0.178539 5:0.420264 6:0.2718 7:0.140676 8:0.0373975 9:-0.0430426 10:-0.129485 11:-0.0992552 12:-0.130848 13:-0.291424 14:0.754352 15:0.180703 16:0.0734395 17:-0.662212 18:0.0519207 19:-0.24691 20:0.0512156 21:-0.526311 22:0.220224 23:0.0902172 24:0.0762853 25:0.0107461 26:-0.0114675 
0.5 0.5 1:0.134429 2:0.168823 3:-0.160429 4:0.108525 5:0.464609 6:0.271986 7:0.0560611 8:0.041909 9:-0.144484 10:-0.0546984 11:0.0973103 12:0.261361 13:-0.0409994 14:0.657251 15:0.201062 16:0.133126 17:-0.57787 18:0.0569782 19:-0.288805 20:0.30585 21:-0.594503 22:0.309249 23:0.0361665 24:-0.225962 25:-0.228404 26:-0.0218909 
0.5 0.5 1:0.245039 2:0.323535 3:-0.157274 4:-0.230522 5:0.298573 6:0.0712917 7:-0.0085771 8:0.0937876 9:-0.231987 10:-0.172185 11:0.143648 12:0.222758 13:-0.171925 14:0.494711 15:-0.0764726 16:0.111283 17:-0.0681852 18:0.201356 19:-0.155043 20:0.179391 21:-0.44246 22:0.274849 23:0.0389713 24:-0.425135 25:-0.294204 26:-0.0201569 
0.5 0.5 1:0.400967 2:0.532873 3:-0.158407 4:-0.350377 5:0.300634 6:0.0556172 7:0.2437 8:-0.210258 9:-0.164 10:-0.0620215 11:0.00424749 12:0.0637586 13:-0.539345 14:0.297688 15:-0.38277 16:0.0710859 17:0.366119 18:0.258401 19:-0.0546125 20:-0.234786 21:-0.0169388 22:0.114475 23:0.00277813 24:-0.371459 25:-0.152433 26:-0.00207831 
0.5 0.5 1:0.571697 2:0.449972 3:-0.224195 4:-0.398074 5:0.399505 6:-0.0222106 7:0.222472 8:-0.467351 9:-0.0115376 10:0.0275376 11:-0.240203 12:-0.0701001 13:-0.835612 14:0.124473 15:-0.39563 16:0.0886608 17:0.496683 18:0.159769 19:-0.0303384 20:-0.402607 21:0.332467 22:-0.116825 23:-0.0772121 24:-0.106868 25:0.095565 26:0.0201054 
0.5 0.5 1:0.665744 2:0.349011 3:-0.296931 4:-0.321362 5:0.50312 6:-0.0984747 7:0.0940065 8:-0.432045 9:0.031909 10:0.159368 11:-0.417817 12:-0.090597 13:-0.911764 14:0.0454526 15:-0.207614 16:0.155654 17:0.250802 18:-0.0302442 19:-0.104699 20:-0.273489 21:0.348172 22:-0.256482 23:-0.256629 24:0.176507 25:0.212432 26:0.0262043 
0.5 0.5 1:0.678526 2:0.29591 3:-0.368532 4:-0.186216 5:0.5453 6:-0.177451 7:-0.0584036 8:-0.294195 9:0.0609806 10:0.21069 11:-0.594209 12:-0.0462022 13:-0.787511 14:0.08548 15:-0.00364956 16:0.235484 17:-0.0892795 18:-0.152908 19:-0.134181 20:-0.0035004 21:0.0706422 22:-0.240027 23:-0.301019 24:0.35069 25:0.0672882 26:0.0140624 
0.5 0.5 1:0.644682 2:0.284766 3:-0.401384 4:-0.0897539 5:0.536851 6:-0.297266 7:-0.170532 8:-0.113287 9:0.0176866 10:0.116315 11:-0.675787 12:-0.0202441 13:-0.629014 14:0.187156 15:0.0490455 16:0.261717 17:-0.26149 18:-0.108961 19:-0.00476761 20:0.266204 21:-0.275952 22:-0.0929282 23:-0.0961246 24:0.376965 25:-0.082756 26:0.0034059 
0.5 0.5 1:0.60769 2:0.302119 3:-0.402763 4:-0.0850831 5:0.542962 6:-0.477067 7:-0.154834 8:-0.0478605 9:-0.0310191 10:0.0378547 11:-0.630274 12:-0.0166809 13:-0.603082 14:0.263656 15:-0.0284418 16:0.289061 17:-0.260898 18:-0.0368673 19:0.220595 20:0.317404 21:-0.412752 22:0.0112002 23:0.0957684 24:0.279514 25:-0.178111 26:0.00438156 
0.5 0.5 1:0.575576 2:0.294833 3:-0.423237 4:-0.128013 5:0.52328 6:-0.64222 7:-0.167955 8:-0.11611 9:0.0355447 10:-0.0558382 11:-0.66142 12:-0.0913186 13:-0.617748 14:0.272217 15:-0.104234 16:0.329961 17:-0.13183 18:-0.0188842 19:0.497195 20:0.187449 21:-0.3326 22:-0.0603918 23:0.10286 24:0.213537 25:-0.169093 26:0.00715896 
0.5 0.5 1:0.549628 2:0.279639 3:-0.416609 4:-0.117376 5:0.534678 6:-0.681744 7:-0.161509 8:-0.136991 9:0.0890052 10:0.0395884 11:-0.531848 12:-0.154391 13:-0.521985 14:0.242121 15:-0.20572 16:0.300973 17:-0.00765387 18:-0.0147976 19:0.646806 20:-0.0104339 21:-0.197322 22:-0.229041 23:-0.128757 24:0.112693 25:-0.148382 26:-0.00250512 
0.5 0.5 1:0.505008 2:0.279122 3:-0.404009 4:-0.100894 5:0.552719 6:-0.643141 7:0.0197175 8:-0.0776686 9:0.139035 10:0.249946 11:-0.461279 12:-0.16251 13:-0.155357 14:0.237705 15:-0.277814 16:0.251674 17:0.0141913 18:0.0265327 19:0.609486 20:-0.187795 21:-0.0835078 22:-0.29806 23:-0.365507 24:0.113318 25:-0.0674612 26:-0.020868 
0.5 0.5 1:0.415907 2:0.288965 3:-0.23094 4:-0.115866 5:0.509671 6:-0.529774 7:0.0906102 8:-0.136523 9:0.113264 10:0.126036 11:-0.463922 12:-0.353332 13:0.0746281 14:0.295919 15:-0.274424 16:0.151595 17:-0.0436722 18:0.131299 19:0.3948 20:-0.206002 21:-0.0359267 22:-0.189346 23:-0.291259 24:0.145621 25:0.120229 26:-0.0321514 
0.5 0.5 1:0.306601 2:0.208216 3:-0.169398 4:-0.0485523 5:0.423649 6:-0.237318 7:-0.112988 8:-0.162581 9:0.00271988 10:-0.152536 11:-0.255705 12:-0.40688 13:-0.0489131 14:0.394185 15:-0.146337 16:0.0674919 17:-0.137736 18:0.167868 19:-0.0460536 20:-0.102597 21:-0.0994289 22:0.0149721 23:0.0593206 24:0.0612761 25:0.341703 26:-0.0231014 
0.5 0.5 1:0.214291 2:0.0169922 3:-0.25366 4:0.0251258 5:0.523578 6:-0.0732186 7:-0.069503 8:-0.0549609 9:-0.153182 10:-0.304691 11:-0.232997 12:-0.548197 13:-0.379407 14:0.466904 15:0.0272332 16:0.0352235 17:-0.187493 18:0.0632009 19:-0.416059 20:-0.10545 21:-0.28414 22:0.109489 23:0.394515 24:-0.0149604 25:0.599222 26:0.000787278 
0.5 0.5 1:0.169673 2:0.0158858 3:-0.0923156 4:-0.0538412 5:0.582658 6:0.0844484 7:0.041702 8:0.0728474 9:0.033585 10:-0.288318 11:0.0417988 12:-0.408517 13:-0.284041 14:0.474118 15:0.0665438 16:-0.0603639 17:-0.124611 18:-0.0549505 19:-0.588055 20:-0.194507 21:-0.421493 22:0.0131289 23:0.400855 24:-0.192739 25:0.506149 26:0.0126478 
0.5 0.5 1:0.154074 2:0.0113458 3:-0.0264863 4:-0.0836846 5:0.629766 6:0.185639 7:0.0162669 8:-0.0248121 9:0.0838647 10:-0.214377 11:0.108366 12:-0.338435 13:-0.329685 14:0.423892 15:0.0229219 16:-0.0992921 17:-0.0679943 18:-0.120602 19:-0.484816 20:-0.24652 21:-0.352397 22:0.024852 23:0.156632 24:-0.237766 25:0.117744 26:0.00895033 
0.5 0.5 1:0.163002 2:0.0134952 3:-0.148969 4:-0.0591205 5:0.516826 6:-0.125996 7:-0.112491 8:-0.118568 9:0.0620853 10:0.0121513 11:0.0800821 12:-0.0306647 13:-0.235722 14:0.36422 15:-0.0341281 16:-0.0939918 17:-0.0569202 18:-0.0581819 19:-0.151232 20:-0.122188 21:-0.188448 22:0.101582 23:-0.139556 24:-0.18466 25:-0.229588 26:-0.00317294 
0.5 0.5 1:0.138176 2:-0.049091 3:-0.196674 4:-0.0752687 5:0.52642 6:-0.16045 7:-0.174917 8:-0.285638 9:-0.0313076 10:0.1227 11:0.144996 12:0.355103 13:0.0344919 14:0.412013 15:0.0799289 16:0.00529811 17:-0.0813906 18:-0.0272774 19:-0.0256891 20:0.0978925 21:-0.0522803 22:0.0725789 23:-0.273583 24:-0.222382 25:-0.398973 26:-0.0134857 
0.5 0.5 1:0.129351 2:-0.0648464 3:-0.240972 4:-0.0498791 5:0.552433 6:-0.15003 7:-0.249737 8:-0.229794 9:0.11822 10:-0.0744915 11:0.0740995 12:0.0721047 13:-0.105191 14:0.553949 15:0.219145 16:0.183463 17:-0.153472 18:-0.042485 19:-0.0584658 20:0.216559 21:-0.0651285 22:-0.149206 23:-0.233872 24:-0.226952 25:-0.168195 26:-0.0100601 
0.5 0.5 1:0.103275 2:-0.0469538 3:-0.31968 4:-0.102361 5:0.5065 6:-0.177759 7:-0.272968 8:-0.159427 9:0.496217 10:0.035862 11:0.160921 12:-0.135065 13:-0.248978 14:0.680647 15:0.205155 16:0.315405 17:-0.15931 18:-0.0263345 19:-0.130018 20:0.133647 21:-0.144863 22:-0.431637 23:-0.218596 24:-0.244369 25:0.0124267 26:-0.00598364 
0.5 0.5 1:0.102978 2:-0.00985346 3:-0.5186 4:-0.129072 5:0.467993 6:-0.320782 7:-0.139517 8:-0.295151 9:0.453049 10:0.0274317 11:0.0529135 12:0.369055 13:-0.0570659 14:0.6585 15:0.0321711 16:0.373477 17:-0.101724 18:0.014 19:-0.0687557 20:-0.0361545 21:-0.144793 22:-0.363926 23:-0.124466 24:-0.0760728 25:-0.0826087 26:-0.00457434 
0.5 0.5 1:0.367463 2:0.290733 3:-0.361217 4:-0.139797 5:0.371588 6:-0.513774 7:-0.122038 8:-0.377482 9:0.158045 10:-0.0777092 11:-0.253846 12:0.324809 13:-0.0822475 14:0.416745 15:-0.247578 16:0.245804 17:0.00959389 18:0.097939 19:0.195272 20:-0.12108 21:-0.134669 22:-0.07393 23:0.00577691 24:0.192129 25:-0.130789 26:-0.00201174 
0.5 0.5 1:0.619084 2:0.290979 3:-0.331299 4:-0.239587 5:0.385387 6:-0.604311 7:-0.147019 8:-0.269004 9:0.167995 10:-0.238677 11:-0.29709 12:0.197512 13:-0.15338 14:0.141516 15:-0.29729 16:0.104475 17:0.156159 18:0.100028 19:0.424056 20:-0.169811 21:-0.122887 22:0.0105239 23:0.161308 24:0.257883 25:-0.132091 26:-0.00287967 
0.5 0.5 1:0.718949 2:0.397928 3:-0.445537 4:-0.0383106 5:0.325563 6:-0.357037 7:-0.310675 8:-0.270089 9:0.0967231 10:-0.0118051 11:-0.304133 12:0.232893 13:-0.171444 14:0.204288 15:-0.120752 16:0.0553882 17:-0.367516 18:-0.328796 19:-0.0380603 20:0.143478 21:-0.0975287 22:-0.324621 23:-0.163481 24:0.316733 25:-0.078364 26:0.00105826 
0 0.1062752088301897 1:0.626508 2:0.428556 3:-0.425867 4:-0.0521468 5:0.318015 6:-0.300628 7:-0.403707 8:-0.167112 9:-0.0663937 10:0.110161 11:-0.278562 12:0.177085 13:-0.136035 14:0.339231 15:-0.185926 16:0.0488212 17:-0.418804 18:-0.447433 19:-0.158189 20:0.216699 21:-0.185567 22:-0.0319542 23:-0.310748 24:0.25713 25:-0.0584122 26:0.00807171 
0 0.5 1:0.480974 2:0.440087 3:-0.446321 4:-0.119619 5:0.175642 6:-0.223897 7:-0.262555 8:-0.139221 9:-0.220088 10:0.151731 11:0.000912493 12:0.182259 13:-0.0640568 14:0.438973 15:-0.188843 16:0.204422 17:-0.317307 18:-0.265988 19:-0.198822 20:0.111709 21:-0.095544 22:0.237271 23:-0.242751 24:-0.0709461 25:-0.0612295 26:0.01171 
0 0.5 1:0.50617 2:0.489828 3:-0.651043 4:-0.212708 5:-0.0770378 6:-0.217091 7:-0.114226 8:-0.183147 9:-0.361183 10:0.0371476 11:0.2867 12:0.171703 13:-0.0156385 14:0.431986 15:-0.164409 16:0.448768 17:-0.0998844 18:0.163322 19:-0.182544 20:-0.0364005 21:0.0637405 22:0.433754 23:0.0291995 24:-0.386064 25:-0.063011 26:0.00431597 
0 0.5 1:0.179132 2:0.366315 3:-0.161314 4:0.325209 5:-0.0436728 6:-0.0091026 7:-0.0524206 8:0.159153 9:0.179686 10:-0.0593728 11:0.114409 12:0.264287 13:0.155128 14:0.474517 15:-0.380887 16:0.239013 17:-0.386359 18:0.28783 19:-0.00544094 20:0.110912 21:-0.0809475 22:-0.332064 23:0.130061 24:0.0528625 25:-0.364557 26:-0.00912647 
0.5 0.5 1:0.3428 2:0.0148219 3:0.200972 4:0.177835 5:0.278363 6:-0.00750134 7:0.198106 8:-0.0135189 9:0.0344488 10:0.227114 11:0.395112 12:-0.269567 13:-0.23256 14:0.228701 15:0.20569 16:-0.0596281 17:0.220266 18:-0.33228 19:0.0360474 20:-0.00986514 21:-0.0389503 22:0.114787 23:-0.295988 24:0.107002 25:0.363041 26:0.0100649 
0 0.5 1:0.35265 2:0.106257 3:0.127403 4:0.288967 5:0.195088 6:0.0665766 7:0.412586 8:-0.0623989 9:0.142979 10:0.122124 11:0.627777 12:-0.0504773 13:0.000375409 14:0.166989 15:0.0295546 16:0.095162 17:-0.0384088 18:-0.127331 19:-0.0519815 20:-0.271425 21:0.125171 22:-0.0250462 23:-0.0498599 24:-0.207279 25:0.217533 26:0.00146716 
0 0.06525821071430521 1:0.317166 2:0.0914129 3:0.179707 4:0.46446 5:0.0863079 6:-0.020216 7:0.537948 8:0.117897 9:0.145652 10:-0.173371 11:0.886034 12:-0.00786304 13:0.0115716 14:0.27167 15:-0.409169 16:0.175994 17:-0.291052 18:0.250481 19:-0.0796196 20:-0.440962 21:0.0704007 22:-0.191712 23:0.263459 24:-0.500354 25:-0.165157 26:-0.00992517 
0.5 0.5 1:0.287484 2:0.0614894 3:0.192654 4:0.428106 5:0.124065 6:-0.0310409 7:0.428459 8:0.0811244 9:0.218046 10:-0.0167318 11:0.882933 12:-0.104869 13:-0.0758343 14:0.347844 15:-0.430567 16:0.0602606 17:-0.203542 18:0.30082 19:-0.0305544 20:-0.266926 21:-0.0310308 22:-0.0825584 23:0.0519849 24:-0.545491 25:0.010241 26:-0.00268269 
0.5 0.5 1:0.262289 2:0.0111941 3:0.247788 4:0.404749 5:0.250767 6:-0.0337663 7:0.252239 8:0.219029 9:-0.105089 10:0.131593 11:0.831772 12:-0.193556 13:-0.235335 14:0.399553 15:-0.307171 16:-0.0954321 17:-0.165154 18:0.270686 19:-0.100324 20:-0.163911 21:-0.150976 22:0.101855 23:-0.246471 24:-0.417035 25:0.307982 26:0.00711936 
0 0.5 1:0.244399 2:-0.171829 3:0.241914 4:0.474448 5:0.161889 6:-0.221798 7:0.321954 8:0.523155 9:0.0710428 10:0.00737079 11:0.751466 12:-0.219444 13:-0.230983 14:0.422457 15:-0.0613292 16:-0.188894 17:-0.222179 18:0.301682 19:-0.154272 20:-0.31065 21:-0.403097 22:0.0953403 23:-0.30989 24:-0.137425 25:0.379705 26:0.00652844 
0.5 0.5 1:0.218684 2:-0.376557 3:0.189608 4:0.43907 5:0.279061 6:-0.08496 7:0.333353 8:0.38233 9:0.223129 10:0.0911124 11:0.333523 12:-0.124887 13:0.0838688 14:0.400071 15:0.227738 16:-0.203694 17:-0.314487 18:0.185544 19:-0.120612 20:-0.300081 21:-0.537955 22:0.029732 23:-0.211935 24:0.237155 25:0.271552 26:0.000649177 
0.5 0.5 1:0.277365 2:-0.423497 3:0.0327427 4:0.40709 5:0.599812 6:-0.214206 7:0.0606879 8:0.527562 9:0.178664 10:-0.195667 11:0.140265 12:0.103561 13:-0.144437 14:0.301937 15:0.437237 16:-0.109724 17:-0.451627 18:-0.129171 19:0.224436 20:0.216196 21:-0.595405 22:-0.0874468 23:0.0649275 24:0.372079 25:-0.0130041 26:0.00172729 
0.5 0 1:0.295654 2:-0.414942 3:-0.295124 4:0.194335 5:0.728234 6:-0.596584 7:-0.395123 8:0.214471 9:0.417064 10:-0.186971 11:0.313958 12:0.20857 13:0.0468051 14:0.0932582 15:0.330609 16:0.348612 17:-0.232043 18:-0.550427 19:0.750693 20:1 21:-0.124541 22:-0.439389 23:0.290399 24:0.0882208 25:-0.344973 26:-0.00124988 
0.5 0.5 1:0.260822 2:-0.280793 3:-0.459858 4:-0.0270014 5:0.751894 6:-0.29267 7:-0.103589 8:0.100369 9:0.40498 10:-0.236705 11:0.239317 12:0.384123 13:0.259623 14:0.111762 15:0.0597997 16:0.568701 17:0.189727 18:-0.438189 19:0.298467 20:0.378649 21:0.0917959 22:-0.477453 23:0.186424 24:-0.0105154 25:-0.291754 26:-0.00832018 
0 0.5 1:0.147807 2:-0.0215749 3:-0.621291 4:-0.358443 5:0.594506 6:0.0187456 7:0.524348 8:0.166666 9:0.214583 10:-0.189466 11:0.196582 12:0.298166 13:0.14775 14:0.325229 15:-0.166506 16:0.654107 17:0.454961 18:-0.239279 19:-0.306312 20:-0.557687 21:0.052361 22:-0.38828 23:-0.0392903 24:0.0174713 25:-0.107566 26:-0.0193444 
0.5 0 1:-0.0187402 2:0.0945085 3:-0.50942 4:-0.495557 5:0.383316 6:0.233173 7:0.65405 8:0.0176904 9:0.0373758 10:0.141276 11:0.25106 12:0.0783611 13:0.35629 14:0.609405 15:-0.225539 16:0.51411 17:0.309568 18:-0.106901 19:-0.594225 20:-0.907532 21:-0.139862 22:-0.214934 23:-0.278991 24:0.0480874 25:0.0449253 26:-0.0285143 
0 0.5 1:0.108096 2:0.336503 3:-0.273445 4:-0.480631 5:0.0358212 6:-0.00518861 7:0.240127 8:-0.158622 9:-0.333475 10:-0.0134973 11:0.245084 12:0.153681 13:-0.225224 14:0.412132 15:-0.0465109 16:0.0834087 17:0.0514251 18:0.391239 19:0.25842 20:0.279172 21:-0.0126064 22:0.273492 23:-0.0652721 24:-0.168433 25:0.0572991 26:0.0105899 
0 0.5 1:0.230717 2:0.375744 3:-0.231718 4:-0.625954 5:-0.0474551 6:0.00434308 7:0.312605 8:-0.212504 9:-0.364247 10:-0.153369 11:0.269973 12:0.0879079 13:-0.328016 14:0.321346 15:-0.0689249 16:0.0899993 17:0.394895 18:0.496147 19:0.170399 20:0.183272 21:0.110989 22:0.262952 23:0.0860698 24:-0.301344 25:0.0579193 26:0.0149009 
0 0.5 1:0.113236 2:0.589192 3:-0.0411881 4:-0.2832 5:0.196156 6:0.16308 7:0.378907 8:-0.00407521 9:-0.154245 10:-0.107602 11:-0.0208349 12:0.284595 13:-0.00722487 14:0.503629 15:-0.400058 16:0.098067 17:-0.12326 18:0.0469054 19:-0.294074 20:-0.0495481 21:-0.215865 22:-0.210824 23:-0.0685914 24:-0.295968 25:-0.118167 26:-0.0142342 
0 0.5 1:0.386072 2:0.741353 3:-0.0949698 4:-0.251191 5:0.133395 6:0.174798 7:0.418397 8:-0.0684393 9:-0.160628 10:-0.169729 11:-0.129831 12:0.165449 13:-0.15214 14:0.407359 15:-0.577761 16:0.18398 17:-0.46615 18:-0.0767791 19:-0.253955 20:-0.0521009 21:-0.324054 22:-0.277121 23:-0.0885963 24:-0.0346402 25:-0.0936721 26:-0.0163156 
0.05500594593308208 0.5 1:0.523866 2:0.686149 3:-0.0748639 4:-0.314373 5:0.129064 6:0.0386672 7:0.4764 8:-0.139577 9:-0.285579 10:-0.234116 11:-0.419745 12:0.175992 13:-0.308756 14:0.233881 15:-0.536508 16:0.223375 17:-0.425341 18:0.00581667 19:-0.065972 20:-0.0681833 21:-0.22562 22:-0.139885 23:-0.0483547 24:0.326031 25:-0.0248019 26:-0.00601862 
0 0.5 1:0.606558 2:0.52044 3:0.0170402 4:-0.451146 5:0.0958692 6:-0.133777 7:0.481808 8:-0.225786 9:-0.351096 10:-0.385845 11:-0.747565 12:0.0929131 13:-0.432097 14:0.118464 15:-0.286741 16:0.182129 17:-0.151399 18:0.134038 19:0.14215 20:-0.120567 21:-0.113247 22:-0.013235 23:0.0586658 24:0.603274 25:0.0489473 26:0.00469486 
0.3116527050094398 0.5 1:0.657007 2:0.449824 3:0.139662 4:-0.498518 5:0.153259 6:-0.110283 7:0.556154 8:-0.199674 9:-0.297905 10:-0.329165 11:-0.709827 12:0.126027 13:-0.420138 14:0.141267 15:-0.0325083 16:0.0915172 17:0.0950475 18:0.146922 19:0.199735 20:-0.19507 21:-0.129906 22:-0.00506977 23:0.07065 24:0.590784 25:0.0427609 26:0.00701645 
0.5 0.5 1:0.693045 2:0.382922 3:0.196866 4:-0.539338 5:0.207306 6:-0.0829718 7:0.581403 8:-0.215805 9:-0.279682 10:-0.330905 11:-0.574916 12:0.148377 13:-0.491612 14:0.224405 15:0.0780971 16:0.0045709 17:0.131624 18:0.0318248 19:0.135207 20:-0.23662 21:-0.24283 22:-0.0444622 23:-0.00442949 24:0.39302 25:0.0223053 26:0.00671981 
0.5 0.5 1:0.699229 2:0.337085 3:0.20117 4:-0.553722 5:0.28081 6:-0.107922 7:0.550827 8:-0.234078 9:-0.293314 10:-0.334576 11:-0.443003 12:0.124228 13:-0.499937 14:0.280054 15:0.0580367 16:0.00409602 17:0.0722779 18:-0.0497395 19:0.0829895 20:-0.20822 21:-0.326064 22:-0.00625627 23:-0.0557378 24:0.101544 25:0.05753 26:0.00396778 
0.5 0.5 1:0.696481 2:0.306114 3:0.245714 4:-0.516394 5:0.298276 6:-0.146251 7:0.489335 8:-0.279977 9:-0.315516 10:-0.341308 11:-0.318496 12:0.0579446 13:-0.436772 14:0.314078 15:-0.00216964 16:0.0181333 17:-0.020152 18:-0.0549605 19:0.0985914 20:-0.10902 21:-0.297731 22:0.0991806 23:-0.0373587 24:-0.120514 25:0.0862707 26:-8.09866e-05 
0.5 0.5 1:0.708584 2:0.30015 3:0.26768 4:-0.490344 5:0.29286 6:-0.10806 7:0.486763 8:-0.398956 9:-0.318959 10:-0.403899 11:-0.192113 12:0.136927 13:-0.386263 14:0.316646 15:-0.0445122 16:0.0287228 17:-0.0560739 18:-0.00560598 19:0.146539 20:-0.0063071 21:-0.144316 22:0.119624 23:0.0472491 24:-0.208224 25:0.0838319 26:-0.00318361 
0.5 0 1:0.72363 2:0.283738 3:0.236423 4:-0.515216 5:0.310065 6:-0.103534 7:0.389454 8:-0.530501 9:-0.205494 10:-0.411646 11:-0.106412 12:0.200468 13:-0.316694 14:0.292409 15:-0.0404066 16:0.0318159 17:-0.0173714 18:-0.0279627 19:0.222006 20:0.0177865 21:0.0388112 22:-0.055716 23:0.05158 24:-0.183362 25:0.0761517 26:-0.00402651 
0.3826968982156914 0 1:0.716426 2:0.243398 3:0.198049 4:-0.484979 5:0.365056 6:0.00352432 7:0.435215 8:-0.588493 9:0.0448878 10:-0.327519 11:-0.137969 12:0.213991 13:-0.29745 14:0.150204 15:-0.0215977 16:0.0595092 17:0.0822368 18:-0.151037 19:0.231949 20:-0.16688 21:0.14607 22:-0.615292 23:-0.039933 24:0.0278679 25:0.0482549 26:0.00110873 
0.5 0 1:0.692094 2:0.243038 3:0.153242 4:-0.442397 5:0.364935 6:0.102389 7:0.427741 8:-0.546029 9:-0.0109828 10:-0.305682 11:-0.129004 12:0.333273 13:-0.245383 14:0.122489 15:-0.143959 16:0.131829 17:0.0234716 18:0.0273846 19:0.0180969 20:-0.09754 21:0.11948 22:-0.573649 23:-0.0211616 24:0.0643327 25:-0.0481135 26:-0.00816878 
0.5 0.5 1:0.642954 2:0.32337 3:0.0813461 4:-0.3501 5:0.233952 6:0.334317 7:0.254568 8:-0.449736 9:-0.119112 10:-0.390919 11:-0.0152886 12:0.433947 13:-0.1164 14:0.183849 15:-0.291927 16:0.185648 17:-0.100882 18:0.330138 19:-0.335269 20:0.0258707 21:0.0214426 22:-0.247989 23:0.0654875 24:-0.00188268 25:-0.201947 26:-0.0168666 
0.5 0.5 1:0.491007 2:0.381197 3:-0.0219976 4:-0.244286 5:0.105788 6:0.536113 7:0.117784 8:-0.366782 9:-0.355461 10:-0.334166 11:0.00666505 12:0.415186 13:-0.00895608 14:0.336618 15:-0.403733 16:0.17496 17:-0.198145 18:0.458417 19:-0.603772 20:0.0516771 21:-0.0500071 22:0.16974 23:0.00722282 24:-0.0886331 25:-0.343887 26:-0.0175567 
0.5 0.5 1:0.27631 2:0.179163 3:0.0511527 4:-0.248309 5:0.281674 6:0.379734 7:0.298164 8:-0.296869 9:-0.589067 10:-0.288277 11:0.0375394 12:0.47621 13:-0.0363728 14:0.510408 15:-0.315709 16:0.148495 17:-0.241765 18:0.260112 19:-0.532263 20:-0.0808953 21:-0.213849 22:0.381559 23:-0.132665 24:-0.102572 25:-0.363658 26:-0.00838569 
0.5 0.5 1:0.27376 2:0.101309 3:0.030126 4:-0.235385 5:0.513797 6:0.296754 7:0.327095 8:0.0171103 9:-0.456876 10:-0.169296 11:0.0524547 12:0.37542 13:-0.50659 14:0.55952 15:-0.190221 16:0.24721 17:-0.238678 18:-0.076556 19:-0.266077 20:-0.0663734 21:-0.481284 22:0.226654 23:-0.189719 24:-0.0344154 25:-0.181064 26:0.008393 
0.5 0.5 1:0.242839 2:0.109968 3:-0.0771675 4:-0.231708 5:0.582456 6:0.126854 7:0.137311 8:-0.0773611 9:-0.321378 10:-0.1281 11:0.0308151 12:0.237252 13:-0.225765 14:0.510627 15:-0.126814 16:0.420249 17:-0.219944 18:-0.294241 19:0.0612895 20:0.105631 21:-0.47147 22:0.0627167 23:-0.0518159 24:0.0835683 25:0.115886 26:0.0103495 
0.2423744216853496 0.5 1:0.215523 2:-0.128409 3:-0.206419 4:-0.216403 5:0.487793 6:-0.0714783 7:0.0177984 8:0.114991 9:-0.297805 10:-0.407361 11:-0.0491002 12:-0.00157571 13:-0.101011 14:0.410808 15:-0.0414359 16:0.530094 17:-0.17609 18:-0.269911 19:0.23356 20:0.207598 21:-0.331201 22:-0.0167204 23:0.207809 24:0.159154 25:0.351666 26:0.00289889 
0.5 0.5 1:0.259116 2:-0.162744 3:0.0185439 4:-0.335838 5:0.558575 6:-0.0913201 7:0.126995 8:-0.131979 9:-0.369711 10:-0.451004 11:0.0747643 12:0.075066 13:-0.201128 14:0.333616 15:-0.0676773 16:0.372921 17:-0.0870572 18:-0.112311 19:0.188595 20:0.0480113 21:-0.0612475 22:0.0734345 23:0.244171 24:0.120739 25:0.315001 26:-0.00626965 
0.5 0.5 1:0.26556 2:-0.20054 3:0.198248 4:-0.340403 5:0.548086 6:-0.106847 7:0.368536 8:-0.247698 9:-0.352991 10:-0.12047 11:0.145841 12:0.12305 13:-0.0492105 14:0.340394 15:-0.061797 16:0.0655356 17:-0.0203295 18:0.03419 19:0.111834 20:-0.298273 21:0.0578373 22:0.148327 23:0.0626127 24:0.0480011 25:0.0983038 26:-0.0153627 
0.5 0 1:0.212888 2:-0.35918 3:0.25559 4:-0.409862 5:0.450017 6:-0.166265 7:0.309945 8:0.036787 9:0.0114763 10:0.0433341 11:0.22552 12:0.264598 13:0.0923778 14:0.377099 15:0.0302467 16:-0.164814 17:0.0505232 18:0.0934814 19:0.0744161 20:-0.409334 21:-0.143629 22:-0.115167 23:-0.165068 24:-0.0719543 25:-0.159479 26:-0.0186994 
0.5 0.183647852309239 1:0.202168 2:-0.410424 3:0.335528 4:-0.391151 5:0.416493 6:-0.276041 7:0.180547 8:0.169484 9:-0.0565797 10:-0.0501239 11:0.258533 12:0.222174 13:-0.0957233 14:0.382995 15:0.0962425 16:-0.267685 17:0.0668498 18:0.110051 19:0.124896 20:-0.210605 21:-0.312414 22:-0.292177 23:-0.251609 24:-0.192571 25:-0.300667 26:-0.0145067 
0.5 0.04805123331603694 1:0.25035 2:-0.477147 3:0.324842 4:-0.424965 5:0.566516 6:-0.273249 7:0.0841689 8:-0.0112832 9:0.142192 10:-0.092528 11:0.321407 12:0.18193 13:-0.152062 14:0.338565 15:0.166697 16:-0.252104 17:0.0462876 18:0.065431 19:0.175171 20:0.112676 21:-0.315128 22:-0.326162 23:-0.158963 24:-0.213906 25:-0.293397 26:-0.00884053 
0.5 0.5 1:0.277537 2:-0.539857 3:0.222118 4:-0.417803 5:0.508237 6:-0.303567 7:0.0304763 8:0.0245888 9:0.265246 10:0.139881 11:0.38436 12:0.146494 13:-0.126623 14:0.284469 15:0.147199 16:-0.172849 17:0.0223607 18:-0.000734456 19:0.138376 20:0.29601 21:-0.197345 22:-0.164389 23:-0.0469774 24:-0.160441 25:-0.16403 26:-0.00374628 
0.5 0.5 1:0.287009 2:-0.450563 3:0.172205 4:-0.354091 5:0.415682 6:-0.291279 7:0.0263486 8:0.0362917 9:-0.0473368 10:-0.0510166 11:0.227933 12:0.0490542 13:-0.441972 14:0.27307 15:0.0201507 16:-0.0446205 17:-0.0414521 18:-0.0355463 19:0.0381836 20:0.139122 21:-0.103311 22:0.0806872 23:0.0305472 24:-0.0314465 25:0.0849272 26:0.00328773 
0.5 0.5 1:0.24362 2:-0.411046 3:0.0238092 4:-0.322188 5:0.564277 6:-0.247591 7:0.1051 8:-0.0431661 9:0.0949605 10:-0.118851 11:0.0778693 12:-0.170349 13:-0.277485 14:0.329706 15:-0.0277738 16:0.142315 17:-0.108116 18:-0.0536321 19:-0.0212784 20:-0.184779 21:-0.192557 22:-0.0923821 23:-0.0346467 24:0.119546 25:0.36151 26:0.00268722 
0.5 0.5 1:0.218474 2:-0.444949 3:-0.233861 4:-0.348563 5:0.560209 6:-0.220474 7:0.226602 8:0.0322945 9:0.436067 10:0.0536413 11:0.225004 12:-0.240811 13:-0.344199 14:0.376168 15:-0.00462941 16:0.333246 17:-0.16467 18:0.0318623 19:0.0199095 20:-0.382653 21:-0.377339 22:-0.406784 23:-0.150147 24:0.161392 25:0.410103 26:0.00316114 
0.5 0.5 1:0.226612 2:-0.400374 3:-0.259403 4:-0.284284 5:0.368865 6:-0.331571 7:0.244125 8:0.0985762 9:0.416161 10:0.20014 11:0.221504 12:-0.0890073 13:-0.504882 14:0.340029 15:0.0465558 16:0.40268 17:-0.160259 18:0.137543 19:0.129685 20:-0.257614 21:-0.434549 22:-0.546811 23:-0.205321 24:0.147876 25:0.138894 26:0.00314116 
0.5 0.5 1:0.240936 2:-0.364941 3:-0.268793 4:-0.274499 5:0.415871 6:-0.327086 7:-0.0425207 8:-0.0509895 9:0.287144 10:-0.0674844 11:0.0672925 12:0.0200547 13:-0.356837 14:0.28969 15:0.23319 16:0.457488 17:-0.0780215 18:0.0448871 19:0.177972 20:0.16991 21:-0.275478 22:-0.404828 23:-0.163597 24:0.128406 25:-0.127458 26:-0.00129075 
0.5 0.5 1:0.268062 2:-0.257631 3:-0.375756 4:-0.368518 5:0.53853 6:-0.226022 7:-0.167992 8:-0.295884 9:0.0799919 10:-0.194301 11:0.294787 12:0.171098 13:-0.24089 14:0.312437 15:0.374428 16:0.511108 17:-0.00237135 18:-0.164542 19:0.161495 20:0.48758 21:-0.031162 22:-0.0664488 23:-0.0793464 24:-0.0459712 25:-0.220545 26:-0.00602836 
0.5 0.5 1:0.235326 2:-0.202672 3:-0.346456 4:-0.404434 5:0.524188 6:-0.174938 7:-0.00692403 8:-0.328709 9:0.0264216 10:-0.0715926 11:0.39095 12:0.0112236 13:-0.41283 14:0.417895 15:0.378819 16:0.445375 17:-0.0285545 18:-0.288527 19:0.116754 20:0.4226 21:0.099749 22:0.13449 23:-0.112764 24:-0.182269 25:-0.0400849 26:-0.00994043 
0.5 0.5 1:0.109789 2:-0.0649018 3:-0.267555 4:-0.266618 5:0.484763 6:-0.14802 7:0.151227 8:-0.366614 9:-0.00820924 10:-0.125566 11:0.30219 12:-0.165832 13:-0.34291 14:0.526356 15:0.155056 16:0.244444 17:-0.140536 18:-0.242439 19:0.0283307 20:0.0919147 21:0.0912554 22:0.117158 23:-0.112947 24:-0.263499 25:0.120157 26:-0.0139943 
0.5 0.4382193057346815 1:0.342178 2:0.637296 3:0.049604 4:-0.358509 5:0.145426 6:0.0590711 7:0.410497 8:-0.327983 9:-0.0758612 10:-0.395356 11:0.18234 12:0.146515 13:-0.494531 14:0.312018 15:-0.671714 16:-0.214303 17:-0.172938 18:0.142691 19:-0.33891 20:-0.512817 21:-0.0262715 22:-0.00762768 23:0.148408 24:-0.182434 25:-0.265439 26:-0.000118997 
0.5 0 1:0.380007 2:0.677988 3:-0.000382453 4:-0.414582 5:0.196681 6:0.0879932 7:0.431916 8:-0.322426 9:0.0164335 10:-0.567597 11:0.13778 12:0.0806878 13:-0.570156 14:0.156603 15:-0.753826 16:-0.132315 17:0.0493221 18:0.0894151 19:-0.317455 20:-0.492828 21:0.0522064 22:-0.0169875 23:0.328187 24:-0.0312607 25:-0.335681 26:0.00886789 
0 0.5 1:0.297824 2:0.653478 3:-0.12646 4:-0.43835 5:-0.074391 6:-0.291555 7:0.157872 8:-0.0464531 9:0.0836625 10:-0.375807 11:-0.270853 12:-0.312839 13:-0.322559 14:0.368328 15:-0.333247 16:0.152576 17:0.102125 18:0.174154 19:0.440646 20:0.0508746 21:-0.108753 22:-0.103951 23:0.17284 24:0.395841 25:0.202092 26:-0.0051087 
0 0.5 1:0.221943 2:0.552396 3:-0.172468 4:-0.140344 5:-0.111879 6:-0.0796445 7:0.139389 8:0.193018 9:0.111975 10:-0.180902 11:-0.0648901 12:-0.258525 13:-0.31946 14:0.457633 15:-0.156615 16:0.166105 17:-0.199906 18:0.245312 19:0.21156 20:0.0806095 21:-0.358948 22:-0.169718 23:0.0169257 24:0.216089 25:0.244784 26:-0.00636388 
0 0.5 1:0.247444 2:0.415287 3:-0.256501 4:-0.0951154 5:-0.131513 6:0.0260842 7:0.0346497 8:0.32489 9:0.0200217 10:-0.142528 11:-0.0825784 12:-0.423126 13:-0.385992 14:0.455014 15:0.059179 16:0.230695 17:-0.343629 18:0.207888 19:-0.105941 20:0.00706919 21:-0.54356 22:-0.231822 23:-0.0821189 24:-0.0126629 25:0.307399 26:-0.000217572 
0.04312625274592755 0.2729591481644498 1:0.284167 2:0.333091 3:-0.274879 4:-0.154419 5:-0.128554 6:0.0364671 7:0.0840533 8:0.379686 9:0.134958 10:0.0514059 11:0.0919302 12:-0.435795 13:-0.219761 14:0.403409 15:0.206916 16:0.309625 17:-0.357851 18:0.165959 19:-0.306705 20:-0.12572 21:-0.592313 22:-0.347185 23:-0.211175 24:-0.210381 25:0.292395 26:0.00343651 
0 0.5 1:0.303463 2:0.285081 3:-0.254052 4:-0.190656 5:-0.0693905 6:0.0604473 7:0.0698329 8:0.346632 9:0.148256 10:0.251074 11:0.163571 12:-0.20435 13:-0.209617 14:0.35568 15:0.274064 16:0.325373 17:-0.246186 18:0.0612555 19:-0.333542 20:-0.165561 21:-0.468083 22:-0.348634 23:-0.274923 24:-0.19852 25:0.161478 26:0.00330466 
0 0.5 1:0.3164 2:0.30144 3:-0.232684 4:-0.131336 5:-0.0497226 6:0.0436714 7:-0.0501832 8:0.23182 9:-0.0598226 10:0.123154 11:0.0102181 12:-0.268291 13:-0.138402 14:0.349558 15:0.217647 16:0.287804 17:-0.175572 18:-0.0446278 19:-0.263911 20:-0.029695 21:-0.235274 22:-0.219886 23:-0.191185 24:-0.0425222 25:0.053541 26:-0.00525127 
0 0.5 1:0.331077 2:0.354436 3:-0.196499 4:-0.186891 5:-0.0697867 6:-0.0985925 7:-0.181121 8:0.147314 9:-0.110349 10:0.184506 11:-0.033136 12:-0.134138 13:0.137853 14:0.362781 15:0.0784265 16:0.242852 17:-0.16917 18:-0.0733918 19:-0.145795 20:0.184148 21:-0.0484394 22:-0.0987637 23:-0.176055 24:0.00690463 25:-0.159427 26:-0.0142673 
0 0.5 1:0.362721 2:0.433138 3:-0.0965386 4:-0.347694 5:0.0375642 6:-0.190979 7:-0.165751 8:0.074995 9:-0.263036 10:0.211954 11:0.019792 12:0.031797 13:0.207716 14:0.348579 15:-0.0818957 16:0.179275 17:-0.12908 18:-0.0306851 19:0.0125462 20:0.346051 21:-0.010025 22:0.0206227 23:-0.167694 24:-0.0309382 25:-0.264517 26:-0.0135197 
0 0.5 1:0.402299 2:0.537291 3:-0.0383737 4:-0.3033 5:-0.0579682 6:-0.292584 7:-0.222258 8:0.0767298 9:-0.302254 10:0.199086 11:0.104314 12:0.0236869 13:0.135265 14:0.30639 15:-0.217015 16:0.106326 17:-0.128142 18:0.165458 19:0.218006 20:0.357691 21:-0.136071 22:0.00466794 23:-0.191037 24:-0.0845908 25:-0.156975 26:-0.00783613 
0.5 0.5 1:0.43942 2:0.560412 3:0.00307645 4:-0.369058 5:-0.143831 6:-0.431219 7:-0.100733 8:0.100404 9:-0.327869 10:0.182559 11:0.0068947 12:-0.0506682 13:0.0580016 14:0.255842 15:-0.275457 16:0.037653 17:-0.0601622 18:0.338275 19:0.362215 20:0.148027 21:-0.289549 22:-0.0427841 23:-0.18038 24:0.0213477 25:0.0207247 26:-0.00275222 
0.5 0.5 1:0.456101 2:0.581021 3:0.111943 4:-0.512565 5:-0.0366249 6:-0.485805 7:0.0533564 8:0.139077 9:-0.411169 10:0.030445 11:-0.114265 12:-0.12816 13:0.231036 14:0.221175 15:-0.295829 16:-0.0151197 17:0.055772 18:0.317694 19:0.366137 20:-0.134967 21:-0.334201 22:0.0423478 23:-0.0319962 24:0.237296 25:0.16654 26:-0.0058405 
0.5 0.5 1:0.451123 2:0.586586 3:0.125314 4:-0.565662 5:0.0840579 6:-0.407828 7:0.195142 8:-0.0306191 9:-0.480131 10:-0.0260721 11:-0.145552 12:-0.0446681 13:0.315646 14:0.207156 15:-0.285261 16:0.0154454 17:0.141423 18:0.167351 19:0.247432 20:-0.309349 21:-0.206155 22:0.182523 23:0.133889 24:0.360158 25:0.0858684 26:-0.0122868 
0.5 0.5 1:0.4259 2:0.578844 3:0.0863992 4:-0.598667 5:0.199683 6:-0.288171 7:0.211972 8:-0.177392 9:-0.511266 10:-0.12851 11:-0.0266139 12:0.120337 13:0.259728 14:0.218381 15:-0.251079 16:0.105744 17:0.174726 18:-0.0340814 19:0.130481 20:-0.303366 21:-0.0286492 22:0.300688 23:0.262975 24:0.278054 25:-0.117677 26:-0.0131878 
0.5 0 1:0.376789 2:0.515394 3:0.0898867 4:-0.57697 5:0.312815 6:-0.298294 7:0.186017 8:-0.196596 9:-0.507287 10:-0.118064 11:0.164417 12:0.144247 13:0.204528 14:0.243123 15:-0.197334 16:0.210108 17:0.111233 18:-0.124624 19:0.165145 20:-0.235745 21:0.076348 22:0.32591 23:0.25379 24:0.0207494 25:-0.168906 26:-0.0111504 
0.5 0 1:0.32014 2:0.446314 3:0.103214 4:-0.517449 5:0.352051 6:-0.242928 7:0.146198 8:-0.186506 9:-0.315894 10:-0.0783034 11:0.294387 12:0.0830068 13:0.162362 14:0.250765 15:-0.131137 16:0.249516 17:0.0707272 18:-0.0737089 19:0.205792 20:-0.210004 21:0.106325 22:0.169575 23:0.110142 24:-0.243835 25:-0.0634033 26:-0.00728679 
0.5 0.5 1:0.235128 2:0.398937 3:0.121913 4:-0.503675 5:0.393875 6:-0.177243 7:0.211159 8:-0.221135 9:-0.140061 10:0.103005 11:0.385701 12:0.0260801 13:0.10283 14:0.24962 15:-0.0648163 16:0.16087 17:0.136411 18:-0.0465608 19:0.148122 20:-0.186508 21:0.0550758 22:-0.151671 23:-0.152918 24:-0.428365 25:0.0575646 26:-0.00345094 
0.5 0.5 1:0.178281 2:0.349451 3:0.182161 4:-0.489802 5:0.450496 6:-0.000559835 7:0.228273 8:-0.172291 9:-0.0358756 10:0.16724 11:0.453047 12:0.0408517 13:0.103835 14:0.260003 15:-0.0211927 16:0.0245256 17:0.186675 18:-0.112255 19:-0.0597421 20:-0.0423085 21:-0.069487 22:-0.453883 23:-0.297854 24:-0.425346 25:0.094735 26:-0.00310811 
0.5 0.5 1:0.0917382 2:0.28042 3:0.281353 4:-0.392946 5:0.513736 6:0.237867 7:-0.0033506 8:-0.0576629 9:0.194525 10:0.169003 11:0.34701 12:0.163879 13:-0.0879941 14:0.365482 15:-0.101253 16:-0.0641739 17:0.0806058 18:-0.276339 19:-0.283537 20:0.166384 21:-0.164185 22:-0.694658 23:-0.223191 24:-0.273831 25:0.0279543 26:-0.00139204 
0.5 0.5 1:-0.0600582 2:0.239067 3:0.236458 4:-0.224792 5:0.576468 6:0.222686 7:-0.0602431 8:0.0572278 9:0.247013 10:0.131052 11:0.170032 12:0.155845 13:-0.0809031 14:0.619953 15:-0.265949 16:-0.0263028 17:-0.221818 18:-0.403281 19:-0.354971 20:0.13466 21:-0.232729 22:-0.659597 23:-0.0336753 24:-0.0454985 25:-0.00315647 26:-0.00165326 
0.3466671508712779 0 1:-0.174455 2:0.264058 3:0.117306 4:-0.0330033 5:0.510469 6:0.199593 7:0.111854 8:0.0318707 9:-0.0755692 10:-0.116837 11:-0.031041 12:0.0935249 13:0.0323962 14:0.838539 15:-0.367325 16:0.127124 17:-0.525175 18:-0.296488 19:-0.355922 20:-0.145004 21:-0.220425 22:-0.327333 23:0.163144 24:0.163677 25:-0.0223475 26:-0.00266864 
0.5 0 1:-0.20844 2:0.219662 3:0.111103 4:0.0246301 5:0.383197 6:0.200767 7:0.277099 8:-0.0323407 9:-0.104839 10:0.0158348 11:0.0368196 12:0.211314 13:-0.18508 14:0.814048 15:-0.24526 16:0.227875 17:-0.610292 18:0.0449289 19:-0.324926 20:-0.416563 21:-0.192939 22:0.0439056 23:0.111461 24:0.256245 25:-0.158571 26:0.0016768 
0.5 0.5 1:-0.0492216 2:-0.0849827 3:0.104523 4:-0.0573924 5:0.177924 6:0.203438 7:0.118829 8:0.182111 9:-0.286125 10:0.163837 11:-0.128873 12:0.252131 13:-0.231091 14:0.530651 15:0.285072 16:0.265456 17:-0.42491 18:0.407378 19:-0.161844 20:-0.294317 21:-0.378735 22:0.320931 23:-0.128303 24:0.341239 25:-0.26138 26:0.00254792 
0.3345650222429271 0 1:0.420471 2:-0.201296 3:0.145406 4:-0.287086 5:0.187226 6:-0.17391 7:-0.157091 8:0.115034 9:-0.279002 10:0.103304 11:-0.0438568 12:0.14324 13:-0.113649 14:0.0554996 15:0.815748 16:0.178531 17:0.0430076 18:0.193674 19:0.563542 20:0.319641 21:-0.426616 22:0.0560331 23:-0.377301 24:0.214292 25:-0.0313945 26:-0.00603382 
0.1800005059824717 0 1:0.282916 2:-0.127984 3:0.100832 4:-0.36055 5:0.370638 6:-0.288873 7:-0.187633 8:0.0794093 9:-0.0397628 10:0.113152 11:0.121014 12:-0.0794952 13:-0.112679 14:0.132122 15:0.407036 16:0.160473 17:0.0946683 18:-0.180052 19:0.657373 20:0.310734 21:-0.198821 22:-0.189313 23:-0.163378 24:0.00630398 25:0.288553 26:-0.0083225 
0.5 0 1:0.466946 2:0.540787 3:0.172197 4:-0.453069 5:0.237581 6:0.194744 7:-0.0135969 8:-0.216735 9:-0.178289 10:-0.361423 11:0.311794 12:-0.0227719 13:-0.233009 14:0.157123 15:-0.906617 16:-0.0564947 17:0.161407 18:-0.0552952 19:-0.223293 20:0.00311118 21:0.179343 22:-0.0885453 23:0.467973 24:-0.270237 25:0.354979 26:-0.0014496 
0.5 0 1:0.450846 2:0.551751 3:0.180575 4:-0.439935 5:0.151891 6:0.325305 7:0.0217635 8:-0.16554 9:-0.132216 10:-0.348894 11:0.353536 12:0.101792 13:-0.190429 14:0.143268 15:-1 16:-0.0702744 17:0.182229 18:0.321088 19:-0.455709 20:-0.0850159 21:0.116444 22:0.0553872 23:0.399859 24:-0.190871 25:0.0300423 26:0.102323 
0.5 0.5 1:0.314507 2:0.516436 3:0.157765 4:-0.449442 5:0.106216 6:0.266334 7:0.0887906 8:-0.101715 9:-0.172235 10:-0.139855 11:0.233512 12:0.234558 13:-0.12617 14:0.259719 15:-0.72898 16:0.0297958 17:0.13645 18:0.518927 19:-0.359159 20:-0.171255 21:-0.0356962 22:0.0901211 23:0.108765 24:-0.035866 25:-0.305413 26:-0.00746299 
0.5 0.5 1:0.228324 2:0.323239 3:-0.0203412 4:-0.312073 5:0.1424 6:0.0424838 7:0.220908 8:-0.042363 9:-0.0250318 10:0.122108 11:0.195441 12:0.41569 13:-0.137305 14:0.436495 15:-0.255249 16:0.224865 17:-0.0205374 18:0.351268 19:-0.0859757 20:-0.22485 21:-0.208448 22:-0.158898 23:-0.267185 24:-0.0308335 25:-0.40786 26:-0.00630705 
0.5 0.5 1:0.164615 2:0.0586812 3:-0.115918 4:-0.225355 5:0.327986 6:0.151357 7:0.23219 8:-0.0685661 9:-0.00100277 10:0.0476592 11:0.247006 12:0.343566 13:-0.279363 14:0.519793 15:0.0678874 16:0.322436 17:-0.215694 18:-0.0891123 19:0.0677512 20:-0.236462 21:-0.256272 22:-0.382518 23:-0.374334 24:-0.113911 25:-0.184817 26:0.00287107 
0 0.5 1:0.172815 2:-0.0138968 3:-0.0534577 4:-0.215772 5:0.535893 6:0.101963 7:0.0827959 8:0.169341 9:0.155194 10:0.0172088 11:0.266354 12:0.0951825 13:-0.268603 14:0.46126 15:0.16672 16:0.249914 17:-0.292196 18:-0.468737 19:0.165274 20:-0.133696 21:-0.392337 22:-0.495452 23:-0.227753 24:-0.129864 25:0.0673885 26:0.00692766 
0.5 0.5 1:0.218263 2:-0.0278625 3:-0.00532906 4:-0.138711 5:0.519239 6:-0.00240478 7:0.132854 8:0.0895633 9:0.0602776 10:0.132105 11:0.198732 12:0.0856862 13:-0.287663 14:0.360452 15:0.127664 16:0.0841315 17:-0.20349 18:-0.472812 19:0.122318 20:-0.111363 21:-0.36545 22:-0.34851 23:0.0198831 24:-0.00285735 25:0.0112608 26:-0.00237569 
0.5 0.5 1:0.236613 2:-0.126146 3:-0.0806992 4:-0.175911 5:0.394987 6:-0.0598354 7:0.186828 8:-0.0121604 9:-0.216238 10:-0.141966 11:-0.0843883 12:0.241027 13:-0.183675 14:0.305024 15:0.0818361 16:-0.0865154 17:0.0151896 18:-0.105971 19:-0.0496368 20:-0.169892 21:-0.200757 22:-0.0528334 23:0.251927 24:0.217916 25:-0.118405 26:-0.0163976 
0.5 0.5 1:0.209256 2:-0.187209 3:-0.0875887 4:-0.322248 5:0.227273 6:0.143799 7:0.0875549 8:0.0163735 9:-0.266029 10:-0.202259 11:-0.0427822 12:0.37388 13:0.0960398 14:0.287831 15:0.0507413 16:-0.170935 17:0.170739 18:0.30888 19:-0.299059 20:-0.269511 21:0.00943555 22:0.0880901 23:0.177342 24:0.232601 25:-0.0523499 26:-0.019227 
0.5 0.5 1:0.189264 2:-0.212677 3:-0.126736 4:-0.244718 5:0.164311 6:0.124011 7:0.030732 8:-0.0935879 9:-0.238347 10:0.16048 11:0.0464419 12:0.0385928 13:-0.15467 14:0.2775 15:0.0608755 16:-0.113916 17:0.0654925 18:0.434744 19:-0.349028 20:-0.270736 21:0.149013 22:0.0606507 23:-0.176665 24:0.0874994 25:0.355049 26:0.0028258 
0.5 0.5 1:0.217571 2:-0.19222 3:-0.285221 4:-0.00594522 5:0.262798 6:-0.153195 7:0.0064101 8:-0.0786048 9:-0.245585 10:0.283581 11:0.137373 12:-0.259277 13:-0.596996 14:0.248959 15:0.0467362 16:0.0405193 17:-0.20515 18:0.213317 19:-0.061969 20:-0.0794466 21:-0.055583 22:-0.0299839 23:-0.381942 24:-0.0992547 25:0.630067 26:0.0286051 
0.5 0.5 1:0.198699 2:-0.179229 3:-0.553243 4:-0.00148493 5:0.447941 6:-0.324212 7:-0.149081 8:0.0995104 9:-0.328105 10:0.140542 11:0.103199 12:0.154525 13:-0.434592 14:0.24436 15:0.0134452 16:0.259381 17:-0.346722 18:-0.0987115 19:0.352146 20:0.278218 21:-0.368376 22:-0.0313875 23:-0.381085 24:-0.203569 25:0.283136 26:0.0302236 
0.5 0.1267260274664689 1:0.120284 2:-0.22002 3:-0.626946 4:-0.0433884 5:0.414651 6:-0.463157 7:-0.408566 8:0.305079 9:-0.314393 10:-0.0163334 11:0.0260402 12:0.510679 13:-0.0023441 14:0.307743 15:0.0695761 16:0.476623 17:-0.279228 18:-0.182316 19:0.587247 20:0.610946 21:-0.486554 22:0.057008 23:-0.138116 24:-0.127556 25:-0.268397 26:0.0077685 
0.5 0.3480321986947343 1:0.0575017 2:-0.147316 3:-0.658396 4:-0.107175 5:0.370508 6:-0.392193 7:-0.293654 8:0.168706 9:-0.376859 10:-0.21437 11:0.0400877 12:0.626346 13:0.31206 14:0.436451 15:0.21083 16:0.64879 17:-0.0448943 18:-0.125698 19:0.435594 20:0.585974 21:-0.230304 22:0.0832249 23:0.0716941 24:-0.0493985 25:-0.617459 26:-0.02371 
0.5 0.5 1:0.00805315 2:-0.083158 3:-0.787747 4:-0.163421 5:0.348489 6:-0.306248 7:-0.128369 8:-0.166718 9:-0.302201 10:-0.0549824 11:-0.0350808 12:0.494137 13:0.404358 14:0.560758 15:0.343768 16:0.743752 17:0.101583 18:-0.129983 19:0.188105 20:0.268441 21:0.176999 22:-0.00131082 23:0.0496275 24:0.0157121 25:-0.466603 26:-0.0373692 
0.5 0.5 1:-0.0272875 2:-0.0806756 3:-0.758954 4:-0.140751 5:0.335562 6:-0.103601 7:0.125971 8:-0.10145 9:-0.246258 10:-0.309299 11:-0.208619 12:0.328161 13:0.425378 14:0.599779 15:0.33333 16:0.623924 17:0.0275311 18:-0.217044 19:0.0234972 20:-0.143479 21:0.278737 22:-0.0272392 23:0.181661 24:0.0530722 25:-0.0521324 26:-0.0289579 
0.5 0.5 1:0.156385 2:0.787085 3:0.046287 4:-0.190711 5:0.0813259 6:0.175028 7:0.534019 8:0.483856 9:0.367807 10:0.0890462 11:-0.158104 12:-0.0476498 13:0.389611 14:0.348198 15:-0.114736 16:0.0602435 17:-0.135184 18:0.0866302 19:0.0151847 20:-0.134851 21:-0.476409 22:-0.379643 23:-0.065131 24:0.157084 25:0.437589 26:-0.0117187 
0.1690439146346706 0.3928675006080023 1:0.100806 2:0.823149 3:-0.000843956 4:-0.156358 5:0.156251 6:0.223068 7:0.505893 8:0.309854 9:0.198521 10:-0.125238 11:-0.338925 12:0.367416 13:0.413615 14:0.378182 15:-0.225253 16:0.0728898 17:0.00952007 18:0.0929898 19:-0.0501927 20:-0.205416 21:-0.361007 22:-0.0737295 23:0.339669 24:0.332873 25:-0.170613 26:-0.0210503 
0 0.5 1:0.114525 2:0.766905 3:-0.0303162 4:-0.127368 5:0.164559 6:0.255244 7:0.589842 8:0.258689 9:-0.185298 10:0.0726331 11:-0.0456942 12:0.423412 13:0.256621 14:0.373517 15:-0.21112 16:0.113211 17:0.0450422 18:0.0123077 19:-0.118924 20:-0.177468 21:-0.269604 22:0.209071 23:0.254684 24:-0.0160866 25:-0.487544 26:-0.00662991 
0.5 0 1:0.196817 2:0.417449 3:-0.0572941 4:0.300224 5:0.10669 6:0.118925 7:0.57324 8:-0.52686 9:0.193669 10:0.214522 11:0.00454445 12:0.188282 13:0.0724656 14:0.262871 15:-0.112297 16:0.348055 17:-0.298338 18:0.14286 19:0.0179627 20:-0.238466 21:0.176541 22:-0.277628 23:-0.124279 24:0.338364 25:-0.0633589 26:-0.00195706 
0.5 0 1:0.258435 2:0.271323 3:0.126875 4:0.311089 5:0.0430726 6:0.170646 7:0.602964 8:-0.518485 9:0.337068 10:-0.0490372 11:0.173755 12:0.285979 13:0.0109819 14:0.136693 15:0.0801305 16:-0.000257153 17:-0.340906 18:0.35455 19:-0.101536 20:-0.326422 21:0.145292 22:-0.419716 23:0.200836 24:0.0685288 25:-0.213116 26:0.00742333 
0.5 0 1:0.19335 2:0.107926 3:0.413023 4:0.298247 5:0.045583 6:0.0152195 7:0.46702 8:-0.2669 9:0.130752 10:0.0350989 11:0.437418 12:-0.127911 13:0.180631 14:0.223547 15:0.259728 16:-0.512562 17:-0.237841 18:0.287197 19:0.0537774 20:-0.229893 21:0.0329578 22:-0.16988 23:0.109523 24:-0.501153 25:0.341164 26:-0.000581723 
0.5 0 1:0.0553181 2:0.120094 3:0.412103 4:0.291654 5:0.152782 6:-0.131963 7:0.344062 8:-0.340904 9:0.157684 10:0.0702495 11:0.498631 12:-0.166889 13:0.282545 14:0.372097 15:0.188457 16:-0.314583 17:-0.197817 18:-0.013901 19:0.220775 20:-0.149934 21:-0.0164771 22:-0.0820554 23:-0.050722 24:-0.443522 25:0.503774 26:-0.0137661 
0.5 0.5 1:-0.013311 2:0.25024 3:-0.0467004 4:0.0652628 5:0.261473 6:-0.0655589 7:0.0590869 8:0.192205 9:0.126706 10:-0.0153626 11:-0.0129866 12:0.317861 13:0.239885 14:0.630177 15:-0.270366 16:0.551951 17:-0.00548383 18:0.0488139 19:-0.0533959 20:0.134358 21:-0.510973 22:-0.117587 23:-0.114763 24:0.319702 25:-0.499877 26:-0.0237548 
0.5 0 1:-0.11485 2:0.333076 3:0.0220581 4:0.0324133 5:0.128487 6:-0.0970144 7:0.0654334 8:0.0865641 9:0.0383855 10:-0.0361982 11:0.0574162 12:0.291376 13:0.362443 14:0.677272 15:-0.104964 16:0.304255 17:0.0741731 18:0.307445 19:-0.062402 20:0.164453 21:-0.482455 22:0.186258 23:-0.203932 24:0.233183 25:-0.457682 26:-0.0103406 
0.5 0 1:0.00738072 2:0.0983908 3:0.0464437 4:-0.0913013 5:0.210918 6:-0.188353 7:-0.00426539 8:-0.015697 9:-0.281045 10:0.0258816 11:0.156564 12:0.280224 13:-0.0205015 14:0.584507 15:0.207297 16:-0.00850995 17:0.0993517 18:0.26172 19:0.0296286 20:0.0946327 21:-0.38841 22:0.449399 23:-0.259486 24:0.0679758 25:-0.204825 26:0.0126489 
0.5 0.5 1:0.273004 2:0.0818262 3:0.168005 4:-0.0534726 5:0.391822 6:-0.132587 7:0.0679254 8:0.122895 9:-0.0781754 10:-0.191613 11:0.134935 12:-0.121768 13:-0.460787 14:0.371157 15:0.307351 16:-0.218006 17:0.0108987 18:-0.0367166 19:0.0887071 20:-0.139543 21:-0.38259 22:0.234558 23:-0.121903 24:-0.0132683 25:0.107417 26:0.0258273 
0.4148696721568493 0.5 1:0.425779 2:0.29938 3:0.0959356 4:-0.00725742 5:0.459805 6:-0.196328 7:-0.0112846 8:-0.013602 9:0.141126 10:-0.338502 11:0.103772 12:-0.0464089 13:-0.230726 14:0.162787 15:0.116005 16:-0.170725 17:-0.130106 18:-0.2931 19:0.153769 20:-0.243443 21:-0.298339 22:-0.232443 23:0.0878818 24:-0.0351377 25:0.156731 26:0.0169182 
0.5 0 1:0.513377 2:0.471886 3:-0.0631354 4:-0.0387778 5:0.473347 6:-0.227094 7:0.00911379 8:-0.218952 9:0.338544 10:-0.393977 11:0.184913 12:0.0237249 13:-0.00409289 14:0.058088 15:-0.154478 16:0.0247551 17:-0.182656 18:-0.367071 19:0.188252 20:-0.225896 21:-0.141121 22:-0.66355 23:0.240131 24:-0.0503363 25:0.08715 26:-0.00218215 
0.4082823872495638 0 1:0.583191 2:0.490222 3:-0.141306 4:-0.107885 5:0.400185 6:-0.182763 7:-0.123963 8:-0.336421 9:0.337483 10:-0.504909 11:0.235539 12:-0.0500049 13:0.0238111 14:0.0775754 15:-0.31505 16:0.249977 17:-0.150339 18:-0.19464 19:0.115096 20:-0.0285779 21:0.0308148 22:-0.704051 23:0.31618 24:-0.0446546 25:0.0953408 26:-0.0170179 
0.5 0.5 1:0.593389 2:0.55574 3:-0.289324 4:-0.14019 5:0.3163 6:-0.133936 7:-0.26993 8:-0.403462 9:0.104206 10:-0.497619 11:0.190318 12:-0.20562 13:-0.00369917 14:0.133375 15:-0.307998 16:0.457567 17:-0.0854196 18:0.0532549 19:-0.0227279 20:0.234031 21:0.144641 22:-0.29064 23:0.236693 24:0.0414133 25:0.191763 26:-0.0153822 
0.5 0.5 1:0.586496 2:0.595711 3:-0.312732 4:-0.210113 5:0.249047 6:-0.0458346 7:-0.340642 8:-0.398008 9:-0.129633 10:-0.322518 11:0.109997 12:-0.131313 13:-0.135815 14:0.157854 15:-0.239162 16:0.46302 17:-0.0378034 18:0.235739 19:-0.155285 20:0.342193 21:0.127851 22:0.214172 23:0.099847 24:0.141688 25:0.245799 26:-0.00347275 
0.5 0.5 1:0.553622 2:0.60656 3:-0.296969 4:-0.243232 5:0.162246 6:-0.0260907 7:-0.297353 8:-0.442593 9:-0.173387 10:-0.304631 11:0.202572 12:-0.0838055 13:-0.182695 14:0.166809 15:-0.215204 16:0.315104 17:-0.0161029 18:0.317398 19:-0.11176 20:0.263715 21:0.104331 22:0.480489 23:0.00432882 24:0.0728643 25:0.14762 26:0.00258052 
0.5 0.5 1:0.507411 2:0.617679 3:-0.215155 4:-0.25863 5:0.219543 6:-0.115579 7:-0.178364 8:-0.379064 9:-0.179918 10:-0.210861 11:0.244225 12:0.00194084 13:-0.140753 14:0.169883 15:-0.244977 16:0.111028 17:0.00262146 18:0.258981 19:0.0755684 20:0.0147139 21:-0.00649991 22:0.359543 23:-0.136053 24:-0.125898 25:-0.0073883 26:-0.000653071 
0.5 0.5 1:0.418718 2:0.601543 3:-0.116627 4:-0.337537 5:0.282059 6:-0.19062 7:-0.09566 8:-0.272165 9:-0.104999 10:-0.150319 11:0.393234 12:0.146712 13:-0.0721444 14:0.182849 15:-0.247354 16:0.0131929 17:0.0754081 18:0.167676 19:0.242732 20:-0.154132 21:-0.175441 22:-0.0649762 23:-0.188729 24:-0.34615 25:-0.165189 26:-0.00503221 
0.5 0.5 1:0.312811 2:0.588934 3:-0.158214 4:-0.350596 5:0.318837 6:-0.134296 7:-0.0745149 8:-0.179201 9:0.188524 10:-0.0609717 11:0.395265 12:0.111417 13:-0.158581 14:0.222812 15:-0.212159 16:0.100022 17:0.158865 18:0.0729559 19:0.27267 20:-0.23602 21:-0.383182 22:-0.528218 23:-0.0836975 24:-0.354491 25:-0.260489 26:-0.00407224 
0.5 0.5 1:0.179143 2:0.543526 3:-0.24349 4:-0.312585 5:0.350817 6:-0.0139387 7:-0.0435538 8:-0.0823053 9:0.256254 10:-0.0500275 11:0.169168 12:0.104224 13:-0.106702 14:0.304192 15:-0.153961 16:0.22549 17:0.171998 18:-0.0829667 19:0.128698 20:-0.223962 21:-0.511287 22:-0.675031 23:0.0506861 24:-0.128086 25:-0.341074 26:3.96831e-05 
0.5 0.5 1:0.0354037 2:0.437539 3:-0.251314 4:-0.323185 5:0.437386 6:0.0415449 7:-0.0985325 8:-0.177559 9:0.0286863 10:-0.24371 11:0.00681 12:0.220401 13:-0.211529 14:0.40095 15:-0.09255 16:0.234182 17:0.0916531 18:-0.285144 19:-0.0772994 20:-0.153745 21:-0.402296 22:-0.437674 23:0.188308 24:0.105748 25:-0.241985 26:0.00759517 
0.5 0.5 1:-0.107867 2:0.398203 3:-0.081846 4:-0.220498 5:0.508012 6:0.114589 7:0.000399053 8:-0.188383 9:-0.191599 10:-0.105199 11:-0.0849543 12:0.0612632 13:-0.137893 14:0.490559 15:-0.0908725 16:0.089337 17:-0.0731821 18:-0.395737 19:-0.212745 20:-0.0913812 21:-0.149499 22:-0.0032281 23:0.109066 24:0.231267 25:0.0669394 26:0.00566161 
0.5 0.5 1:-0.21496 2:0.415734 3:-0.0744663 4:-0.0385983 5:0.474249 6:0.221679 7:-0.163588 8:-0.40544 9:-0.268178 10:0.282008 11:-0.0786816 12:-0.220564 13:-0.0430134 14:0.554388 15:-0.142263 16:-0.0577759 17:-0.228316 18:-0.29381 19:-0.265168 20:0.111852 21:0.225765 22:0.303032 23:-0.207811 24:0.179467 25:0.381189 26:-0.00500351 
0.5 0.5 1:-0.250148 2:0.320639 3:-0.106714 4:-0.0674406 5:0.266913 6:0.1486 7:-0.127937 8:-0.429934 9:-0.34807 10:0.166749 11:-0.106648 12:-0.274404 13:0.0671933 14:0.583569 15:-0.146677 16:-0.115305 17:-0.256342 18:0.0356179 19:-0.231066 20:0.191295 21:0.392139 22:0.325952 23:-0.34186 24:0.124517 25:0.465234 26:-0.0172129 
0.5 0 1:-0.3011 2:0.241441 3:-0.153752 4:-0.111625 5:0.10139 6:0.0351299 7:-0.128753 8:-0.323804 9:-0.338869 10:0.196447 11:-0.11479 12:0.0829631 13:0.254005 14:0.590458 15:-0.144383 16:-0.0500378 17:-0.250881 18:0.358221 19:-0.188862 20:0.12222 21:0.193642 22:0.116359 23:-0.347659 24:0.188705 25:0.210562 26:-0.0220488 
0.5 0.5 1:-0.287095 2:0.202401 3:-0.17549 4:-0.0407377 5:0.128311 6:0.0783375 7:-0.0350086 8:-0.12188 9:-0.152722 10:0.281809 11:-0.107088 12:0.0987438 13:0.0788532 14:0.54102 15:-0.15467 16:0.0757341 17:-0.230002 18:0.487478 19:-0.165662 20:-0.100856 21:-0.23236 22:-0.171794 23:-0.217975 24:0.205185 25:-0.134194 26:-0.0117645 
0.5 0.5 1:-0.220245 2:0.111523 3:-0.329219 4:-0.0563792 5:0.119284 6:-0.0228276 7:0.160807 8:0.190279 9:-0.13923 10:-0.0749682 11:-0.147175 12:0.138147 13:-0.0819395 14:0.446186 15:-0.154905 16:0.208282 17:-0.16204 18:0.407333 19:-0.0544332 20:-0.372599 21:-0.645936 22:-0.340811 23:0.0770431 24:0.093519 25:-0.360003 26:0.0023487 
0.5 0.5 1:-0.114214 2:0.0616474 3:-0.424066 4:-0.129414 5:0.198661 6:-0.209308 7:0.100914 8:0.226081 9:-0.176777 10:0.0282603 11:0.0237082 12:0.24699 13:-0.168305 14:0.332688 15:-0.133406 16:0.31716 17:-0.0394028 18:0.120936 19:0.0341615 20:-0.366727 21:-0.699587 22:-0.413441 23:0.126073 24:-0.104631 25:-0.430996 26:0.00939457 
0.5 0.5 1:-0.0459655 2:-0.050533 3:-0.41658 4:-0.24218 5:0.290187 6:-0.334784 7:0.0312696 8:0.0358319 9:-0.229289 10:-0.00507954 11:0.316447 12:0.24725 13:0.0182019 14:0.249417 15:-0.0534004 16:0.326992 17:0.0591129 18:-0.190239 19:0.0986703 20:-0.200678 21:-0.454773 22:-0.366642 23:0.0691383 24:-0.213917 25:-0.310884 26:-9.359e-05 
0.5 0.5 1:-0.0156097 2:-0.176731 3:-0.420966 4:-0.208946 5:0.4518 6:-0.358828 7:-0.060597 8:-0.0840767 9:-0.301416 10:-0.115627 11:0.106545 12:-0.0399986 13:-0.0111284 14:0.237151 15:0.0395135 16:0.279311 17:0.00114217 18:-0.392917 19:0.170026 20:0.0664928 21:-0.11526 22:-0.162683 23:-0.0711482 24:-0.142348 25:-0.068305 26:-0.0116324 
0.5 0.5 1:0.0243573 2:-0.24189 3:-0.457718 4:-0.194816 5:0.407039 6:-0.358413 7:-0.105794 8:-0.0992401 9:-0.430389 10:0.140908 11:-0.0750623 12:-0.0368654 13:0.0766172 14:0.252691 15:0.106151 16:0.246271 17:-0.0861145 18:-0.306226 19:0.149481 20:0.243675 21:0.127105 22:0.0471493 23:-0.276893 24:-0.0440678 25:0.168192 26:-0.0141375 
0 0.5 1:0.0349967 2:-0.228791 3:-0.369395 4:-0.107649 5:0.249155 6:-0.593658 7:-0.102039 8:-0.158461 9:-0.628775 10:0.0303837 11:0.12703 12:-0.200787 13:0.0621629 14:0.273673 15:0.105517 16:0.209093 17:-0.10568 18:-0.0335339 19:0.192191 20:0.192418 21:0.145364 22:0.182372 23:-0.154494 24:-0.0645 25:0.361248 26:-0.00361569 
0.5 0.5 1:0.0300723 2:-0.31757 3:-0.390315 4:-0.249411 5:0.149561 6:-0.586027 7:-0.0694894 8:-0.203212 9:-0.685332 10:-0.255979 11:0.26217 12:-0.197601 13:-0.252167 14:0.287194 15:0.0799329 16:0.1751 17:0.000741428 18:0.192778 19:0.113356 20:0.0173265 21:-0.0328797 22:0.16172 23:0.0910587 24:-0.101109 25:0.300511 26:0.0109972 
0.5 0.5 1:0.0631911 2:-0.322838 3:-0.385418 4:-0.354653 5:0.128949 6:-0.392939 7:0.0707657 8:-0.00963529 9:-0.466651 10:-0.282311 11:-0.0779969 12:-0.147459 13:-0.20997 14:0.287748 15:-0.0153251 16:0.10769 17:0.0795337 18:0.253298 19:-0.0097448 20:-0.21772 21:-0.332193 22:-0.0209109 23:0.163869 24:-0.035315 25:0.105147 26:0.0083133 
0.2907934517004168 0.5 1:0.0404117 2:-0.216334 3:-0.252266 4:-0.201285 5:0.218031 6:-0.591234 7:0.128551 8:0.120215 9:-0.543232 10:-0.283588 11:-0.067401 12:-0.000871113 13:0.0214116 14:0.311719 15:-0.147699 16:-0.00383565 17:-0.0185864 18:0.138145 19:0.0113688 20:-0.333392 21:-0.472151 22:-0.0821542 23:0.143258 24:-0.0132783 25:-0.0489599 26:-0.00425025 
0 0.5 1:0.0131821 2:-0.250878 3:-0.254257 4:-0.118844 5:0.154316 6:-0.570133 7:0.0328409 8:-0.0190704 9:-0.654113 10:-0.159288 11:-0.0222655 12:0.0434442 13:0.184641 14:0.340382 15:-0.185927 16:-0.0119332 17:-0.0889041 18:0.0417669 19:0.0768707 20:-0.219648 21:-0.31791 22:0.0255414 23:-0.00172844 24:-0.0205159 25:-0.121092 26:-0.0165827 
0 0.5 1:0.0195412 2:-0.273912 3:-0.347545 4:-0.219115 5:0.165852 6:-0.661145 7:-0.0072923 8:-0.185992 9:-0.555591 10:-0.123753 11:-0.0455424 12:-0.0598054 13:0.0828244 14:0.351783 15:-0.17553 16:0.0462387 17:-0.0824636 18:-0.0878942 19:0.241775 20:0.0104909 21:0.00307854 22:0.0592872 23:-0.060717 24:0.0242372 25:-0.026894 26:-0.0218123 
0 0.5 1:0.00417272 2:-0.315831 3:-0.326375 4:-0.225413 5:0.201841 6:-0.584765 7:-0.0636434 8:-0.289953 9:-0.55722 10:-0.385681 11:-0.149529 12:-0.0193242 13:-0.0824556 14:0.35545 15:-0.0735415 16:0.175217 17:-0.0433711 18:-0.176335 19:0.288279 20:0.206765 21:0.243959 22:0.0339091 23:0.0563097 24:0.23009 25:0.0484106 26:-0.0134329 
0 0.5 1:0.00719924 2:-0.337407 3:-0.392382 4:-0.191551 5:0.203487 6:-0.621183 7:-0.118209 8:-0.158886 9:-0.521933 10:-0.190553 11:-0.279567 12:0.0726824 13:-0.0108467 14:0.340486 15:0.0218571 16:0.345731 17:-0.0261094 18:-0.125791 19:0.235086 20:0.269792 21:0.146486 22:-0.0664421 23:0.0164492 24:0.462092 25:0.0950002 26:6.51646e-05 
0 0.5 1:0.0167588 2:-0.338083 3:-0.391372 4:-0.093186 5:0.124455 6:-0.456824 7:-0.00500699 8:-0.0656617 9:-0.260885 10:-0.12233 11:-0.302815 12:0.0321826 13:-0.076849 14:0.330591 15:0.0434532 16:0.366915 17:-0.0715051 18:0.0797089 19:0.03372 20:0.070524 21:-0.0995841 22:-0.106198 23:0.021216 24:0.392335 25:0.084372 26:0.0145204 
0 0.5 1:-0.000104421 2:-0.369584 3:-0.42066 4:-0.146705 5:-0.0642771 6:-0.37907 7:0.138735 8:0.0653306 9:-0.429982 10:-0.199129 11:0.00677246 12:0.100711 13:-0.449137 14:0.318219 15:0.0399383 16:0.26748 17:-0.0648139 18:0.358208 19:-0.207308 20:-0.213504 21:-0.28884 22:0.0473056 23:0.0565937 24:-0.00127789 25:-0.0371438 26:0.0213388 
0 0.5 1:-0.00447883 2:-0.294885 3:-0.221982 4:-0.152225 5:-0.0550938 6:-0.289453 7:0.139454 8:0.151263 9:-0.393482 10:-0.122582 11:0.38304 12:0.175744 13:-0.21234 14:0.286517 15:-0.0481658 16:0.052548 17:-0.0175786 18:0.385426 19:-0.303108 20:-0.331958 21:-0.356632 22:-0.0659292 23:0.0448837 24:-0.38768 25:-0.236033 26:0.00427764 
0 0.5 1:-0.00169611 2:-0.257826 3:-0.117264 4:-0.115928 5:0.0585539 6:-0.214734 7:0.25823 8:0.0670057 9:-0.204226 10:-0.169099 11:0.30062 12:0.303952 13:0.198374 14:0.25499 15:-0.130014 16:-0.092884 17:-0.0320074 18:0.13461 19:-0.206016 20:-0.256384 21:-0.306096 22:-0.372598 23:0.0234005 24:-0.388028 25:-0.403038 26:-0.0189591 
0 0.5 1:-0.00562944 2:-0.239912 3:-0.206511 4:-0.0404038 5:0.181837 6:-0.436705 7:0.0700509 8:0.114738 9:-0.000571578 10:0.0709158 11:0.151905 12:0.229619 13:0.287743 14:0.249775 15:-0.151345 16:-0.0363622 17:-0.13067 18:-0.135301 19:0.0876469 20:0.052564 21:-0.311413 22:-0.521392 23:-0.186703 24:-0.173043 25:-0.372447 26:-0.0258586 
0 0.5 1:-0.0773969 2:-0.211296 3:-0.247189 4:-0.0479203 5:0.227523 6:-0.512886 7:-0.0309275 8:0.184953 9:0.0177297 10:0.107266 11:0.126033 12:0.112031 13:0.0779096 14:0.285809 15:-0.121544 16:0.105024 17:-0.219085 18:-0.223445 19:0.251065 20:0.200701 21:-0.307001 22:-0.388176 23:-0.298799 24:-0.0469637 25:-0.188675 26:-0.0105775 
