svm_type c_svc
kernel_type rbf
gamma 0.125
nr_class 3
total_sv 8054
rho 0.522539 -1.9804 -2.04569
label 0 1 2
nr_sv 2662 2545 2847
SV
0.125 0.125 1:-0.276607 2:-0.102809 3:-0.014651 4:-0.049878 5:0.415312 6:0.298173 7:-0.186496 8:0.153378 9:-0.096858 10:-0.118302 11:-0.168918 12:0.0474989 13:0.283458 14:0.292348 15:-0.0914375 16:0.103438 17:-0.0639416 18:-0.0104959 19:0.00434639 20:-0.0501867 21:-0.157926 22:-0.0963419 23:-0.0448881 24:0.00972826 25:-0.0407702 26:-0.0234541 
0.125 0.125 1:0.0788284 2:-0.225823 3:-0.027212 4:-0.0402566 5:0.472476 6:0.324775 7:-0.222743 8:0.216974 9:-0.0424297 10:-0.11461 11:-0.156403 12:0.0955436 13:0.248366 14:0.292348 15:-0.0914375 16:0.103438 17:-0.0639416 18:-0.0104959 19:0.00434639 20:-0.0501867 21:-0.157926 22:-0.0963419 23:-0.0448881 24:0.00972826 25:-0.0407702 26:-0.0234541 
0.125 0.125 1:0.215928 2:-0.30334 3:-0.0632528 4:-0.0795472 5:0.393311 6:0.345624 7:-0.398003 8:0.146325 9:-0.00937526 10:-0.173418 11:-0.0330845 12:0.0698656 13:0.339488 14:0.292348 15:-0.0914375 16:0.103438 17:-0.0639416 18:-0.0104959 19:0.00434639 20:-0.0501867 21:-0.157926 22:-0.0963419 23:-0.0448881 24:0.00972826 25:-0.0407702 26:-0.0234541 
0.125 0.125 1:0.264637 2:-0.323862 3:-0.167745 4:-0.183333 5:0.354803 6:0.407564 7:-0.578958 8:0.232981 9:0.12112 10:-0.316282 11:0.133978 12:0.0976547 13:0.415152 14:0.292348 15:-0.0914375 16:0.103438 17:-0.0639416 18:-0.0104959 19:0.00434639 20:-0.0501867 21:-0.157926 22:-0.0963419 23:-0.0448881 24:0.00972826 25:-0.0407702 26:-0.0234541 
0.125 0.125 1:0.264789 2:-0.341523 3:-0.15082 4:-0.132874 5:0.238346 6:0.370606 7:-0.409468 8:0.436895 9:0.243299 10:-0.241633 11:0.312298 12:-0.121967 13:0.0860352 14:0.0767698 15:0.13138 16:0.115709 17:0.149983 18:0.170977 19:-0.262077 20:0.073504 21:-0.342064 22:-0.270838 23:0.11725 24:-0.185485 25:-0.0503595 26:-0.0220287 
0.125 0.125 1:0.264897 2:-0.408806 3:-0.169517 4:-0.0056777 5:0.384057 6:0.182874 7:-0.362131 8:0.347195 9:0.474483 10:0.0145674 11:0.371246 12:-0.0333516 13:-0.241579 14:0.266351 15:0.313283 16:0.179218 17:-0.0226012 18:-0.0485604 19:0.00139885 20:-0.00635576 21:-0.463275 22:-0.539665 23:-0.263049 24:-0.428396 25:0.0440176 26:-0.00742284 
0.125 0.125 1:0.263804 2:-0.396495 3:-0.212493 4:0.0568836 5:0.427054 6:0.0838638 7:-0.468563 8:0.400074 9:0.452533 10:0.113756 11:0.433533 12:-0.013479 13:-0.224012 14:0.397788 15:0.438164 16:0.254221 17:-0.208183 18:-0.271011 19:0.210303 20:0.0524259 21:-0.519059 22:-0.570557 23:-0.529098 24:-0.60178 25:0.163661 26:-0.00713419 
0.125 0.125 1:0.238721 2:-0.344956 3:-0.321986 4:0.100411 5:0.411442 6:-0.044722 7:-0.537118 8:0.386756 9:0.351908 10:0.207129 11:0.566453 12:-0.232771 13:-0.0521235 14:0.46117 15:0.377393 16:0.263784 17:-0.277882 18:-0.359506 19:0.267105 20:0.139077 21:-0.421784 22:-0.344158 23:-0.525071 24:-0.58387 25:0.337893 26:-0.0165456 
0.125 0.125 1:0.266247 2:-0.133911 3:-0.239518 4:0.119823 5:0.329518 6:0.0421843 7:-0.441944 8:0.148356 9:0.314394 10:-0.26855 11:0.223931 12:-0.194477 13:-0.00807474 14:0.423193 15:0.065812 16:0.12618 17:-0.169119 18:-0.234814 19:0.123637 20:0.114788 21:-0.212899 22:-0.0199716 23:-0.121296 24:-0.253377 25:0.261776 26:-0.0250534 
0.125 0.125 1:0.411815 2:0.167369 3:-0.0752666 4:0.0552934 5:0.133985 6:0.0996311 7:-0.314145 8:-0.00691852 9:0.063104 10:-0.310261 11:-0.153311 12:0.104814 13:-0.15469 14:0.28641 15:-0.318298 16:-0.0915783 17:0.00437099 18:0.0668157 19:-0.00654044 20:-0.044062 21:-0.0649543 22:0.263391 23:0.184602 24:0.160108 25:-0.0296543 26:-0.0237498 
0.125 0.125 1:0.511851 2:0.269347 3:-0.102695 4:0.0124691 5:0.12256 6:0.00185678 7:-0.268196 8:-0.0208138 9:0.105152 10:-0.347939 11:-0.318007 12:0.135751 13:-0.192755 14:0.133931 15:-0.482491 16:-0.160124 17:0.0589708 18:0.237963 19:0.0258053 20:-0.14978 21:-0.0047199 22:0.169211 23:0.330506 24:0.394085 25:-0.339386 26:-0.0206846 
0.125 0.125 1:0.514999 2:0.334519 3:-0.225593 4:0.073392 5:-0.0199426 6:-0.0580959 7:-0.277038 8:-0.122066 9:0.23884 10:-0.423908 11:-0.300926 12:0.245513 13:-0.0297364 14:0.0169221 15:-0.521063 16:-0.0225224 17:-0.0313902 18:0.308129 19:0.115052 20:-0.119709 21:-0.0118503 22:-0.162823 23:0.351545 24:0.378066 25:-0.548505 26:-0.0240771 
0.125 0.125 1:0.541495 2:0.361508 3:-0.293465 4:0.185655 5:0.012406 6:-0.00309413 7:-0.243382 8:-0.194302 9:0.35269 10:-0.346112 11:-0.410004 12:0.195666 13:-0.063009 14:-0.0557227 15:-0.539938 16:0.23326 17:-0.0825532 18:0.21456 19:0.14746 20:0.0139097 21:-0.0187528 22:-0.511245 23:0.148438 24:0.251459 25:-0.442625 26:-0.0259121 
0.125 0.125 1:0.527953 2:0.385282 3:-0.385629 4:0.196382 5:0.0782839 6:0.0229318 7:-0.200071 8:-0.19063 9:0.316847 10:-0.275808 11:-0.383258 12:0.0854794 13:-0.0616928 14:-0.0235377 15:-0.524137 16:0.382391 17:-0.0689688 18:0.111784 19:0.0969758 20:0.0379364 21:-0.00494952 22:-0.614065 23:-0.0837022 24:0.158306 25:-0.156162 26:-0.0213943 
0.125 0.125 1:0.41232 2:0.414448 3:-0.406522 4:0.100764 5:0.101531 6:0.0378942 7:-0.174309 8:-0.24127 9:0.138189 10:-0.114258 11:-0.400287 12:-0.0683093 13:-0.0934245 14:0.119034 15:-0.434624 16:0.322698 17:0.00780299 18:0.0580908 19:0.0190038 20:-0.00730144 21:0.0305548 22:-0.279845 23:-0.283804 24:0.196436 25:0.119601 26:-0.0136962 
0.125 0.125 1:0.212025 2:0.22877 3:-0.308105 4:0.0959285 5:0.0658794 6:0.115445 7:-0.12449 8:-0.264681 9:-0.0601932 10:0.0269564 11:-0.37625 12:-0.168517 13:-0.17127 14:0.360828 15:-0.16164 16:0.137449 17:-0.0295895 18:-0.0944617 19:-0.0616167 20:-0.0739235 21:0.0413265 22:0.121956 23:-0.267561 24:0.138435 25:0.321995 26:-0.0123343 
0.125 0.125 1:0.0413929 2:-0.0254095 3:-0.150256 4:0.378389 5:0.122934 6:0.113817 7:0.0920985 8:-0.133262 9:-0.286629 10:-0.186296 11:-0.331439 12:-0.174556 13:-0.0362184 14:0.587839 15:0.128233 16:-0.0330394 17:-0.257594 18:-0.257716 19:-0.118177 20:-0.173503 21:-0.0441703 22:0.401561 23:0.00447277 24:-0.0473098 25:0.294308 26:-0.0200671 
0.125 0.125 1:0.006834 2:0.0140604 3:-0.24745 4:0.27372 5:0.254995 6:0.136864 7:-0.0708917 8:-0.130791 9:-0.322728 10:-0.348964 11:-0.247786 12:-0.0991297 13:0.284851 14:0.640224 15:0.260564 16:-0.0118066 17:-0.335106 18:-0.317996 19:-0.18823 20:-0.174695 21:-0.165587 22:0.428668 23:0.20424 24:-0.192103 25:0.142597 26:-0.0304081 
0.125 0.125 1:-0.0231538 2:0.0179044 3:-0.272757 4:0.260155 5:0.195182 6:0.168224 7:0.0183668 8:-0.0577096 9:-0.0309148 10:-0.159618 11:-0.0187584 12:-0.0479516 13:0.261505 14:0.621931 15:0.354752 16:0.0290658 17:-0.265657 18:-0.139836 19:-0.266408 20:-0.262796 21:-0.348468 22:0.122922 23:0.0681704 24:-0.234661 25:0.0526346 26:-0.0328553 
0.125 0.125 1:0.059549 2:-0.0431098 3:-0.260522 4:0.185922 5:-0.112736 6:0.0979534 7:0.107307 8:0.100288 9:-0.149933 10:0.0333958 11:-0.30967 12:0.061829 13:0.0900612 14:0.569399 15:0.371338 16:0.0533045 17:-0.0415906 18:0.198003 19:-0.279544 20:-0.279418 21:-0.462633 22:-0.0577829 23:-0.278563 24:0.0209943 25:-0.025324 26:-0.033205 
0.125 0.125 1:0.143784 2:-0.0369749 3:-0.288975 4:0.0729832 5:-0.103865 6:0.00460755 7:0.0512673 8:0.0201752 9:-0.030773 10:0.0508581 11:-0.455543 12:0.012696 13:0.281393 14:0.523422 15:0.233172 16:0.0551804 17:0.180072 18:0.269371 19:-0.244073 20:-0.15035 21:-0.36813 22:-0.158906 23:-0.549798 24:0.288876 25:-0.109457 26:-0.0391888 
0.125 0.125 1:0.11685 2:0.172689 3:-0.212884 4:0.0638716 5:0.0456357 6:-0.0650117 7:-0.101553 8:-0.0913518 9:0.20698 10:0.0224032 11:-0.304324 12:0.090479 13:0.285851 14:0.465149 15:-0.125937 16:0.0352894 17:0.195655 18:0.0862006 19:-0.131123 20:0.0554732 21:-0.165942 22:-0.177124 23:-0.46573 24:0.358045 25:-0.191021 26:-0.0406858 
0.125 0.125 1:0.389625 2:0.424941 3:-0.407152 4:0.12784 5:0.0566694 6:-0.264557 7:-0.17164 8:-0.201477 9:-0.0443074 10:-0.199884 11:-0.229116 12:0.316929 13:0.208627 14:0.250659 15:-0.536839 16:0.176682 17:0.129484 18:-0.0939761 19:0.0817952 20:0.255657 21:0.0453862 22:-0.111566 23:-0.0746886 24:0.257061 25:-0.205997 26:-0.0365472 
0.125 0.125 1:0.577887 2:0.452666 3:-0.404068 4:0.178843 5:0.0622817 6:-0.405862 7:-0.0817926 8:-0.174949 9:0.108626 10:-0.444158 11:-0.132047 12:0.195133 13:-0.140793 14:0.0245632 15:-0.668263 16:0.247796 17:0.0093726 18:-0.151457 19:0.26973 20:0.241852 21:0.107549 22:-0.357848 23:0.328555 24:0.0335268 25:-0.0400247 26:-0.0219011 
0.125 0 1:0.637452 2:0.365071 3:-0.389296 4:0.24074 5:-0.0602055 6:-0.512115 7:-0.0585495 8:-0.156407 9:0.2967 10:-0.605455 11:0.0510975 12:-0.015913 13:-0.380487 14:-0.128125 15:-0.513667 16:0.196834 17:-0.108982 18:0.0185344 19:0.408827 20:0.016559 21:0.043431 22:-0.617988 23:0.506976 24:-0.197443 25:0.0555227 26:-0.00602112 
0.125 0.125 1:0.657746 2:0.226741 3:-0.385985 4:0.278164 5:-0.0445153 6:-0.539747 7:0.0378069 8:-0.073549 9:0.247591 10:-0.424678 11:0.166512 12:0.192431 13:-0.300498 14:-0.1404 15:-0.225959 16:0.132586 17:-0.12954 18:0.245618 19:0.447547 20:-0.336041 21:-0.065765 22:-0.658657 23:0.348973 24:-0.408328 25:-0.0818263 26:-0.00442343 
0.125 0.125 1:0.631529 2:0.196745 3:-0.295256 4:0.343406 5:0.0230785 6:-0.502408 7:0.115599 8:-0.00897894 9:0.0222278 10:-0.341561 11:0.167103 12:0.364223 13:-0.386922 14:0.000324121 15:-0.0451625 16:0.0760682 17:-0.119299 18:0.431947 19:0.404538 20:-0.464431 21:-0.195104 22:-0.386445 23:0.0985987 24:-0.437937 25:-0.276206 26:-0.00892895 
0.125 0.125 1:0.49379 2:0.141489 3:-0.317954 4:0.349131 5:-0.0422804 6:-0.454198 7:0.156637 8:0.0432676 9:-0.279502 10:-0.183868 11:0.212299 12:0.281666 13:-0.382869 14:0.16134 15:0.0103561 16:0.161586 17:-0.0968733 18:0.46938 19:0.343684 20:-0.328564 21:-0.328725 22:0.233955 23:-0.125631 24:-0.249598 25:-0.338098 26:-0.0168005 
0.125 0.125 1:0.328666 2:0.0148717 3:-0.448148 4:0.319126 5:0.0276687 6:-0.321444 7:-0.0885364 8:0.1303 9:-0.485381 10:-0.106054 11:-0.0396699 12:0.0888322 13:-0.164563 14:0.274311 15:0.0516778 16:0.231846 17:-0.13943 18:0.104171 19:0.180216 20:0.0421452 21:-0.422254 22:0.705688 23:-0.156146 24:0.111142 25:-0.13824 26:-0.0229433 
0.125 0.125 1:0.275876 2:0.0029657 3:-0.301038 4:0.438745 5:0.421014 6:-0.185063 7:-0.336969 8:0.16168 9:-0.520756 10:-0.119051 11:-0.356081 12:0.0876659 13:-0.224556 14:0.328306 15:0.0652704 16:0.153378 17:-0.292785 18:-0.505057 19:-0.0388942 20:0.394534 21:-0.379458 22:0.568782 23:-0.118483 24:0.296433 25:0.0863355 26:-0.0239111 
0.125 0.125 1:0.210001 2:0.0099763 3:-0.214157 4:0.433343 5:0.655941 6:-0.000689677 7:-0.0944292 8:0.041273 9:-0.413799 10:0.00644834 11:-0.141977 12:0.0425361 13:-0.218083 14:0.372749 15:0.0790239 16:0.0472945 17:-0.326994 18:-0.862842 19:-0.216068 20:0.379686 21:-0.188319 22:0.0188943 23:-0.151406 24:0.178131 25:0.221524 26:-0.0243398 
0.125 0.125 1:0.0714044 2:-0.0438576 3:-0.159949 4:0.403819 5:0.512731 6:0.145669 7:-0.0815874 8:-0.087148 9:-0.0136973 10:-0.0252614 11:-0.0290198 12:-0.0490893 13:-0.116011 14:0.420913 15:0.0588034 16:-0.0342309 17:-0.198902 18:-0.643175 19:-0.289367 20:0.23299 21:-0.0171099 22:-0.534869 23:-0.145201 24:0.0435932 25:0.234222 26:-0.0269842 
0.125 0.125 1:-0.0496103 2:-0.0300413 3:-0.237184 4:0.240958 5:0.185514 6:0.110038 7:-0.0360403 8:-0.065133 9:0.155284 10:0.161773 11:-0.0633736 12:0.0624925 13:-0.0305097 14:0.438807 15:-0.0571678 16:-0.00289242 17:0.00102209 18:-0.0616081 19:-0.24523 20:-0.0593169 21:-0.0440855 22:-0.591817 23:-0.17638 24:-0.0117826 25:0.1096 26:-0.03003 
0.125 0.125 1:-0.0251122 2:0.0392169 3:-0.206034 4:0.107912 5:0.0942386 6:0.0963746 7:0.132184 8:-0.0239559 9:-0.395285 10:-0.0112573 11:-0.329299 12:0.0641972 13:-0.137242 14:0.387008 15:-0.202554 16:0.0616418 17:0.119735 18:0.249179 19:-0.197216 20:-0.341172 21:-0.195384 22:-0.0890245 23:-0.0926331 24:0.0885272 25:-0.0331144 26:-0.0268249 
0.125 0.125 1:-0.012608 2:0.0724813 3:-0.198004 4:0.191553 5:0.101017 6:0.219078 7:0.222602 8:0.0470469 9:-0.460052 10:0.00265633 11:-0.142585 12:0.203772 13:0.000534527 14:0.31368 15:-0.280911 16:0.106896 17:0.000479998 18:0.105204 19:-0.194046 20:-0.40714 21:-0.276558 22:0.351761 23:-7.91589e-05 24:0.0558308 25:-0.245848 26:-0.0202647 
0.125 0.125 1:-0.07778 2:0.0381797 3:-0.231637 4:0.280059 5:0.167978 6:0.182252 7:0.24982 8:-0.014728 9:-0.261347 10:0.0558328 11:-0.0115587 12:0.215897 13:-0.178234 14:0.305505 15:-0.194868 16:0.104752 17:-0.202467 18:-0.192671 19:-0.0840695 20:-0.267885 21:-0.140686 22:0.430471 23:0.0283737 24:-0.0305095 25:-0.227061 26:-0.0171833 
0.125 0.125 1:-0.134538 2:-0.0634763 3:-0.239094 4:0.116034 5:0.124279 6:0.047528 7:0.0775786 8:-0.183565 9:-0.142092 10:0.0511168 11:-0.117728 12:0.17988 13:-0.223716 14:0.355307 15:0.00213177 16:0.015052 17:-0.271152 18:-0.187071 19:0.115681 20:0.0460675 21:0.0451376 22:0.149089 23:-0.00534943 24:0.0101022 25:-0.00597033 26:-0.0236822 
0.125 0.125 1:-0.139104 2:-0.108781 3:-0.241174 4:0.0975396 5:-0.135088 6:0.0292529 7:-0.0176989 8:-0.200123 9:-0.123836 10:0.0144623 11:-0.112322 12:0.0985206 13:0.102373 14:0.391135 15:0.108217 16:-0.0650643 17:-0.220366 18:0.171268 19:0.254108 20:0.242514 21:0.0329867 22:-0.274636 23:-0.140592 24:0.0570776 25:0.170935 26:-0.0308937 
0.125 0.125 1:-0.15504 2:-0.0889872 3:-0.186491 4:0.0373303 5:-0.278059 6:0.0250414 7:0.0834566 8:-0.0190028 9:0.194868 10:0.167208 11:-0.198499 12:0.00617886 13:0.231371 14:0.411938 15:0.160954 16:-0.00165403 17:-0.00715613 18:0.474429 19:0.252758 20:0.134946 21:-0.147065 22:-0.590578 23:-0.193476 24:0.128708 25:0.164029 26:-0.0262713 
0.125 0.125 1:-0.120645 2:0.00435084 3:-0.316265 4:-0.143809 5:-0.265777 6:0.148186 7:0.296993 8:0.11298 9:0.246738 10:0.158383 11:-0.0364835 12:0.290134 13:-0.252913 14:0.453748 15:0.211803 16:0.214138 17:0.205299 18:0.495432 19:0.0122038 20:-0.0778478 21:-0.395819 22:-0.5803 23:-0.0687876 24:0.00351696 25:-0.194674 26:-0.0156702 
0.125 0.125 1:-0.0927126 2:0.0149576 3:-0.517518 4:-0.219964 5:-0.111768 6:0.244481 7:0.236421 8:-0.00952965 9:0.115297 10:-0.00780507 11:0.0976071 12:0.401845 13:-0.290358 14:0.527671 15:0.239819 16:0.373498 17:0.326063 18:0.216786 19:-0.271972 20:-0.151562 21:-0.460476 22:-0.31176 23:0.0985795 24:-0.123767 25:-0.499953 26:-0.0190773 
0.125 0.125 1:-0.107027 2:-0.0204761 3:-0.546839 4:-0.188444 5:-0.050624 6:0.242976 7:0.24035 8:-0.0874599 9:-0.0914883 10:-0.134785 11:-0.0359149 12:0.287207 13:0.214749 14:0.559022 15:0.128263 16:0.284396 17:0.399314 18:-0.139515 19:-0.495356 20:-0.077021 21:-0.392971 22:0.0327077 23:0.104636 24:-0.103085 25:-0.508715 26:-0.0406776 
0.125 0.125 1:0.0309121 2:0.279234 3:-0.217806 4:-0.0387495 5:0.0162 6:0.25855 7:0.235219 8:0.00594329 9:-0.173591 10:0.10964 11:-0.010652 12:0.18172 13:0.298329 14:0.436991 15:-0.28208 16:0.0513504 17:0.337297 18:-0.436377 19:-0.58013 20:0.113935 21:-0.2797 22:0.198092 23:-0.156408 24:-0.0747731 25:-0.229739 26:-0.0513974 
0.125 0 1:0.265855 2:0.537256 3:-0.230161 4:-0.0642 5:0.0751764 6:0.106874 7:0.363613 8:-0.296203 9:-0.0120359 10:0.28092 11:-0.0380369 12:-0.0139515 13:-0.0562285 14:0.215398 15:-0.680957 16:0.0534623 17:0.182748 18:-0.638327 19:-0.289082 20:0.0981554 21:-0.0565184 22:-0.00620428 23:-0.347079 24:-0.026214 25:0.136457 26:-0.0341504 
0 0.125 1:0.413759 2:0.506686 3:-0.42087 4:0.14586 5:0.0303792 6:-0.0706686 7:0.330332 8:-0.350854 9:0.0173465 10:0.116228 11:-0.000916464 12:-0.141835 13:-0.375519 14:0.0226641 15:-0.733996 16:0.263333 17:-0.152755 18:-0.613124 19:0.2457 20:-0.167202 21:0.0976196 22:-0.186973 23:-0.162122 24:-0.106153 25:0.310162 26:-0.000441442 
0 0.125 1:0.46027 2:0.394249 3:-0.497788 4:0.439563 5:-0.146556 6:-0.417083 7:0.433212 8:-0.41107 9:-0.0154458 10:-0.0927153 11:-0.0890115 12:-0.169643 13:-0.68741 14:-0.0629918 15:-0.410173 16:0.339558 17:-0.525471 18:-0.255915 19:0.728525 20:-0.520357 21:0.237461 22:-0.207314 23:0.212079 24:-0.121226 25:0.333111 26:0.0200707 
0.125 0 1:0.484127 2:0.258045 3:-0.264693 4:0.546869 5:-0.395527 6:-0.534645 7:0.714094 8:-0.37848 9:-0.0417128 10:-0.250057 11:-0.112769 12:-0.0453525 13:-0.412597 14:-0.0295124 15:0.10216 16:0.105258 17:-0.647343 18:0.326088 19:0.727056 20:-0.688902 21:0.206958 22:-0.089729 23:0.370589 24:-0.0476594 25:0.195242 26:0.00448122 
0.125 0 1:0.477383 2:0.160184 3:-0.0255342 4:0.445246 5:-0.669865 6:-0.228591 7:0.490215 8:-0.338615 9:-0.187527 10:-0.0273152 11:-0.156495 12:-0.125893 13:0.0170708 14:0.073866 15:0.401188 16:-0.23969 17:-0.434223 18:0.782521 19:0.211814 20:-0.324574 21:0.00808343 22:0.063725 23:0.125074 24:0.0656188 25:-0.00240029 26:-0.0253172 
0.125 0.125 1:0.209829 2:0.493816 3:-0.333033 4:0.345217 5:-0.260008 6:-0.19564 7:0.261968 8:-0.050975 9:0.000494028 10:0.101571 11:-0.305212 12:-0.178041 13:0.154597 14:0.446084 15:-0.671934 16:0.685183 17:-0.261105 18:-0.14141 19:0.00600687 20:0.0247383 21:-0.337059 22:-0.22356 23:0.206981 24:-0.179335 25:0.361672 26:-0.0360265 
0.125 0.125 1:0.178057 2:0.474437 3:-0.297587 4:0.329332 5:-0.23928 6:-0.20992 7:0.227717 8:0.0512872 9:0.0464767 10:0.278704 11:-0.364495 12:-0.0788561 13:0.198365 14:0.435541 15:-0.611939 16:0.691894 17:-0.338163 18:-0.171207 19:0.233957 20:-0.118647 21:-0.313296 22:-0.141931 23:0.0717655 24:-0.0451491 25:0.437412 26:-0.0290066 
0 0.125 1:0.161642 2:0.343442 3:-0.226811 4:0.270684 5:-0.178747 6:-0.361933 7:0.233171 8:-0.043647 9:0.0556984 10:0.432141 11:-0.603403 12:0.150613 13:-0.0780062 14:0.396902 15:-0.307266 16:0.451127 17:-0.163047 18:-0.222811 19:0.357838 20:-0.100191 21:-0.224346 22:-0.0610296 23:-0.200691 24:0.323507 25:0.156537 26:-0.0137792 
0.125 0.125 1:0.22571 2:0.0849987 3:0.19044 4:0.0202758 5:0.0456297 6:-0.39879 7:0.255263 8:-0.061594 9:-0.0994243 10:0.539572 11:-0.712505 12:0.323939 13:-0.280641 14:0.330354 15:0.0450108 16:0.0145695 17:0.18211 18:-0.346393 19:0.273925 20:-0.0752067 21:-0.11682 22:0.00167039 23:-0.433564 24:0.559665 25:-0.340474 26:-0.000292281 
0.125 0.125 1:0.26211 2:0.0190001 3:0.493946 4:-0.0414396 5:-0.0296395 6:-0.198007 7:0.377664 8:-0.14297 9:-0.0614656 10:0.525917 11:-0.590488 12:0.531978 13:-0.282929 14:0.272358 15:0.165587 16:-0.370518 17:0.389636 18:-0.295033 19:-0.0121021 20:-0.0920345 21:0.0401357 22:-0.069394 23:-0.46385 24:0.546848 25:-0.706026 26:0.000913204 
0.125 0.125 1:0.270369 2:0.005532 3:0.549576 4:0.0527943 5:-0.162457 6:-0.0838477 7:0.313859 8:-0.166328 9:0.229298 10:0.454381 11:-0.45694 12:0.519055 13:0.0614497 14:0.239106 15:0.0888585 16:-0.503234 17:0.399827 18:-0.115429 19:-0.211257 20:-0.0191577 21:0.0847509 22:-0.206158 23:-0.330192 24:0.312845 25:-0.665795 26:-0.0147367 
0.125 0.125 1:0.283181 2:-0.0401158 3:0.546385 4:0.117752 5:-0.192546 6:-0.0853486 7:0.296949 8:-0.108378 9:0.0761628 10:0.413393 11:-0.163549 12:0.422249 13:0.163277 14:0.236537 15:-0.0416579 16:-0.405346 17:0.283171 18:0.0531447 19:-0.139225 20:0.0647522 21:-0.0525937 22:-0.135121 23:-0.116319 24:-0.0465736 25:-0.349253 26:-0.0332812 
0.125 0.125 1:0.291645 2:-0.0823883 3:0.511833 4:0.205857 5:-0.165766 6:-0.21733 7:0.324926 8:0.0294235 9:-0.0400392 10:0.167095 11:0.0190517 12:0.17839 13:0.277445 14:0.254932 15:-0.10774 16:-0.19959 17:0.0320774 18:0.107994 19:0.144197 20:0.0990381 21:-0.244687 22:0.0350546 23:0.14543 24:-0.266894 25:0.104349 26:-0.0433632 
0.125 0.125 1:0.289738 2:-0.126918 3:0.39123 4:0.360861 5:-0.215623 6:-0.291666 7:0.444406 8:0.100937 9:0.0237293 10:0.00852308 11:0.17996 12:0.0620231 13:0.333554 14:0.273636 15:-0.0799793 16:-0.0628064 17:-0.243315 18:0.0709683 19:0.359711 20:-0.00224973 21:-0.350676 22:0.118986 23:0.231633 24:-0.351306 25:0.418781 26:-0.0425145 
0.125 0.125 1:0.273656 2:-0.210148 3:0.294988 4:0.590549 5:-0.253247 6:-0.114063 7:0.499184 8:0.063039 9:0.140673 10:0.129524 11:0.184126 12:0.070034 13:0.264802 14:0.284962 15:-0.0369587 16:0.0359725 17:-0.459888 18:0.0645665 19:0.1841 20:-0.160328 21:-0.322929 22:-0.0412031 23:0.0399122 24:-0.32148 25:0.328869 26:-0.034824 
0.125 0.125 1:0.273103 2:-0.233515 3:0.205688 4:0.639261 5:-0.186874 6:0.0573832 7:0.522381 8:0.00543795 9:0.166357 10:0.157302 11:0.179767 12:0.11114 13:0.0572663 14:0.295466 15:-0.0286975 16:0.14898 17:-0.466197 18:0.0256908 19:-0.239851 20:-0.249745 21:-0.190687 22:-0.36429 23:-0.183547 24:-0.190461 25:0.0363402 26:-0.0214408 
0 0.125 1:0.272437 2:-0.236527 3:0.0785943 4:0.50411 5:-0.221885 6:0.0828018 7:0.629199 8:-0.00594092 9:0.32807 10:0.171117 11:0.234087 12:0.262276 13:0.05317 14:0.302506 15:-0.0325626 16:0.268641 17:-0.270244 18:-0.000917138 19:-0.600304 20:-0.352081 21:-0.0670652 22:-0.487361 23:-0.25465 24:0.0162868 25:-0.30791 26:-0.00652742 
0 0.125 1:0.279313 2:-0.298369 3:-0.0943583 4:0.452491 5:-0.225179 6:0.198109 7:0.54902 8:0.0259477 9:0.301925 10:0.0412288 11:0.129304 12:0.370324 13:-0.00612179 14:0.301651 15:-0.0169667 16:0.34839 17:-0.125514 18:-0.0558142 19:-0.733275 20:-0.318404 21:-0.0242958 22:-0.357868 23:-0.122891 24:0.250748 25:-0.496349 26:-0.00296376 
0.125 0.125 1:0.246907 2:-0.32544 3:-0.045782 4:0.480992 5:-0.152072 6:0.0177248 7:0.495985 8:-0.057987 9:0.0412394 10:-0.19192 11:0.0250082 12:0.0633999 13:-0.140486 14:0.305374 15:-0.0235572 16:0.306008 17:-0.139865 18:-0.108162 19:-0.476873 20:-0.175846 21:-0.0244517 22:-0.177617 23:0.0317107 24:0.386617 25:-0.431903 26:-0.0140545 
0.125 0 1:0.265412 2:-0.332955 3:-0.0239704 4:0.157246 5:-0.286804 6:-0.697284 7:0.406118 8:0.156692 9:-0.395957 10:-0.441986 11:0.683485 12:-0.542451 13:-0.0765443 14:0.214372 15:-0.132625 16:0.0821571 17:-0.00266711 18:0.179344 19:0.481102 20:-0.0182446 21:-0.271275 22:0.206593 23:0.00235876 24:-0.299217 25:0.835946 26:-0.029124 
0.125 0 1:0.24405 2:0.128389 3:-0.212763 4:0.245694 5:0.104622 6:-0.428103 7:0.036426 8:0.138968 9:0.293595 10:-0.470207 11:0.401427 12:0.0723656 13:-0.267639 14:0.326774 15:-0.412145 16:0.0450641 17:-0.107041 18:-0.0561162 19:-0.322023 20:0.175552 21:-0.32995 22:-0.205237 23:0.0371948 24:-0.0682719 25:0.142426 26:-0.0175866 
0.125 0 1:0.434093 2:0.210872 3:-0.185849 4:0.348783 5:0.101198 6:-0.594109 7:0.214249 8:0.0848551 9:0.152398 10:-0.357805 11:0.22253 12:0.0906714 13:-0.414223 14:0.0552163 15:-0.530742 16:-0.0276304 17:-0.211495 18:-0.0362284 19:-0.131811 20:-0.0106436 21:-0.261732 22:-0.0468369 23:-0.108209 24:0.024094 25:0.0222882 26:-0.00791401 
0.125 0 1:0.555837 2:0.144709 3:-0.266259 4:0.469143 5:0.0958511 6:-0.654512 7:0.340308 8:0.00971476 9:0.110631 10:-0.363589 11:0.182813 12:0.293186 13:-0.466619 14:-0.191027 15:-0.405271 16:0.0218369 17:-0.343088 18:0.070379 19:0.131637 20:-0.242253 21:-0.106941 22:-0.00644308 23:-0.23919 24:0.0418956 25:-0.20192 26:-0.00170126 
0.125 0 1:0.578543 2:0.0985989 3:-0.306005 4:0.512307 5:0.150114 6:-0.690997 7:0.416068 8:-0.046692 9:0.225722 10:-0.262603 11:0.274228 12:0.471208 13:-0.326104 14:-0.243456 15:-0.170274 16:0.0906393 17:-0.38439 18:0.164854 19:0.415946 20:-0.401397 21:0.0326403 22:-0.124908 23:-0.233009 24:-0.0320197 25:-0.562435 26:-0.0117049 
0.125 0 1:0.496983 2:0.127335 3:-0.362693 4:0.487277 5:0.23861 6:-0.783157 7:0.466299 8:-0.0783634 9:0.332899 10:-0.271708 11:0.227501 12:0.480812 13:-0.232325 14:-0.0664473 15:-0.00377963 16:0.115691 17:-0.276226 18:0.130269 19:0.646788 20:-0.35233 21:0.122765 22:-0.298657 23:-0.0814165 24:-0.10258 25:-0.658456 26:-0.0283746 
0.125 0 1:0.283477 2:0.157544 3:-0.377445 4:0.451968 5:0.296226 6:-0.790303 7:0.407116 8:0.0332946 9:0.418444 10:-0.527143 11:0.127564 12:0.462429 13:0.0126556 14:0.266409 15:0.0567839 16:0.0494189 17:-0.268763 18:-0.130755 19:0.649334 20:-0.144989 21:-0.0347993 22:-0.443737 23:0.193787 24:0.0230726 25:-0.321014 26:-0.044526 
0.125 0 1:0.0496611 2:0.0801474 3:-0.321859 4:0.369886 5:0.395555 6:-0.483022 7:0.214542 8:0.0227625 9:0.300179 10:-0.475432 11:0.0501989 12:0.272154 13:0.232872 14:0.575943 15:0.111622 16:-0.0271223 17:-0.418598 18:-0.447948 19:0.334683 20:-0.0335606 21:-0.280455 22:-0.347903 23:0.292032 24:0.215396 25:0.217521 26:-0.0440184 
0.125 0 1:0.0237253 2:0.187804 3:-0.475156 4:0.338764 5:0.589343 6:-0.174967 7:0.342064 8:0.165962 9:0.122521 10:-0.303063 11:-0.0219373 12:-0.145514 13:-0.235452 14:0.662849 15:0.0898578 16:0.0815201 17:-0.633352 18:-0.65001 19:-0.117095 20:-0.162032 21:-0.557698 22:-0.219744 23:0.211876 24:0.259063 25:0.524066 26:-0.0256247 
0.125 0 1:-0.020959 2:0.228826 3:-0.527437 4:0.398792 5:0.512002 6:-0.0546591 7:0.378541 8:0.353666 9:0.148907 10:-0.262584 11:-0.104408 12:0.0769175 13:-0.304563 14:0.558709 15:0.0223201 16:0.267684 17:-0.586976 18:-0.548659 19:-0.420016 20:-0.167426 21:-0.6336 22:-0.240422 23:0.0584214 24:0.191561 25:0.224158 26:-0.0139072 
0.125 0 1:0.043824 2:0.347135 3:-0.638259 4:-0.0605571 5:0.150059 6:0.188345 7:0.300221 8:-0.028925 9:0.05328 10:-0.0614577 11:0.281875 12:0.504857 13:-0.295266 14:0.329312 15:-0.17601 16:0.466175 17:-0.00317904 18:-0.116628 19:-0.532558 20:0.0338976 21:-0.245658 22:-0.3002 23:-0.162608 24:0.0749403 25:-0.196775 26:-0.0100928 
0.125 0.125 1:0.139697 2:0.416691 3:-0.671154 4:-0.497321 5:0.0876333 6:0.17228 7:0.0660944 8:-0.166208 9:-0.0347086 10:0.0420538 11:0.22083 12:0.383072 13:-0.0318299 14:0.198759 15:-0.239113 16:0.532279 17:0.642987 18:0.236307 19:-0.431736 20:0.288525 21:0.174935 22:-0.193469 23:-0.310291 24:0.0203886 25:-0.26159 26:-0.0163298 
0.125 0.125 1:0.104666 2:0.501147 3:-0.518442 4:-0.703019 5:0.0341006 6:0.117545 7:-0.00241286 8:-0.287016 9:-0.286759 10:0.0884375 11:-0.0133431 12:0.145709 13:-0.169708 14:0.291401 15:-0.147367 16:0.347008 17:0.887876 18:0.38615 19:-0.281909 20:0.421214 21:0.381088 22:0.142554 23:-0.408123 24:-0.0922031 25:-0.00389981 26:-0.0212209 
0.125 0 1:0.0271323 2:0.505145 3:-0.362893 4:-0.50771 5:-0.150459 6:0.153331 7:0.306424 8:-0.239206 9:-0.450262 10:0.177881 11:0.260828 12:0.113753 13:-0.203989 14:0.466638 15:0.00137641 16:0.0807606 17:0.553281 18:0.324863 19:-0.198477 20:0.19942 21:0.202128 22:0.45973 23:-0.395022 24:-0.374369 25:0.241495 26:-0.0198271 
0.125 0 1:-0.0330077 2:0.369019 3:-0.241846 4:-0.289621 5:-0.0142975 6:0.132472 7:0.426795 8:0.028227 9:-0.641197 10:0.0710543 11:0.632123 12:0.393907 13:0.0334887 14:0.567477 15:0.104133 16:-0.146339 17:-0.00370013 18:0.0654015 19:-0.087321 20:-0.0472326 21:-0.237441 22:0.563158 23:-0.167587 24:-0.503112 25:0.130507 26:-0.0207915 
0.125 0 1:0.123969 2:0.669224 3:-0.105048 4:-0.265154 5:0.0210515 6:-0.0542753 7:0.29372 8:0.162439 9:-0.341483 10:-0.115756 11:0.160478 12:0.360828 13:0.110631 14:0.438719 15:-0.0991155 16:-0.224339 17:-0.269039 18:-0.108359 19:0.0347573 20:-0.149048 21:-0.465751 22:0.275653 23:0.0605633 24:-0.246095 25:-0.0692102 26:-0.0209848 
0.125 0 1:0.326648 2:0.769196 3:-0.119273 4:-0.396658 5:-0.198275 6:-0.184134 7:0.50546 8:0.041302 9:-0.313597 10:-0.237651 11:-0.12667 12:0.429235 13:0.62264 14:0.290808 15:-0.183601 16:-0.000202322 17:-0.0692126 18:0.0535537 19:0.0141383 20:-0.266301 21:-0.422611 22:0.137827 23:0.0235559 24:0.305829 25:-0.184928 26:-0.0388562 
0.125 0 1:0.255502 2:0.801425 3:-0.147286 4:-0.462735 5:-0.268537 6:-0.139997 7:0.459977 8:-0.182597 9:-0.254136 10:-0.229106 11:-0.0857848 12:0.315597 13:0.480426 14:0.341864 15:-0.18931 16:-0.0150997 17:0.0477952 18:0.190779 19:-0.0338092 20:-0.14473 21:-0.123049 22:0.000162782 23:0.0896145 24:0.255266 25:-0.048052 26:-0.0332916 
0.125 0 1:0.246725 2:0.652139 3:-0.157811 4:-0.542687 5:-0.257413 6:-0.195202 7:0.128952 8:-0.347124 9:-0.227375 10:-0.198315 11:0.324795 12:0.12772 13:0.263723 14:0.344854 15:-0.109347 16:0.0364783 17:0.270881 18:0.175605 19:0.055537 20:0.120177 21:0.107489 22:-0.208443 23:0.171459 24:-0.282641 25:0.0718301 26:-0.00996606 
0.125 0 1:0.274675 2:0.662109 3:-0.251242 4:-0.58661 5:-0.0480453 6:-0.284958 7:0.2051 8:-0.340277 9:-0.241065 10:-0.228338 11:0.549485 12:0.14844 13:0.206866 14:0.283512 15:-0.139014 16:0.118269 17:0.322624 18:-0.106901 19:0.161445 20:-0.0785263 21:0.0689931 22:-0.0975734 23:0.0495853 24:-0.473457 25:-0.0324715 26:-0.00756615 
0.125 0 1:0.259107 2:0.673311 3:-0.30486 4:-0.511836 5:-0.00998372 6:-0.223738 7:0.191297 8:-0.31493 9:-0.359456 10:-0.057653 11:0.461012 12:0.164906 13:0.168911 14:0.233118 15:-0.199594 16:0.189145 17:0.275954 18:-0.270495 19:0.144134 20:-0.213407 21:0.0518085 22:0.0895477 23:-0.142436 24:-0.332531 25:-0.111586 26:-0.0132689 
0.125 0 1:0.263108 2:0.565368 3:-0.309846 4:-0.34428 5:-0.0788067 6:-0.172506 7:0.156482 8:-0.423433 9:-0.326694 10:0.144313 11:0.283777 12:0.0691537 13:0.343292 14:0.218526 15:-0.177084 16:0.233467 17:0.11841 18:-0.266769 19:0.0599992 20:-0.164445 21:0.126163 22:0.157481 23:-0.302441 24:-0.0260864 25:-0.0253787 26:-0.709725 
0.125 0.125 1:0.248148 2:0.499151 3:-0.335091 4:-0.174531 5:0.0176416 6:-0.149338 7:-0.0875346 8:-0.304617 9:-0.326549 10:0.0634002 11:0.222316 12:-0.0538777 13:0.507264 14:0.237137 15:-0.0947946 16:0.250359 17:-0.0785692 18:-0.180199 19:-0.0553014 20:0.0913262 21:0.0810003 22:0.143897 23:-0.257266 24:0.132915 25:0.14006 26:-0.0315351 
0.125 0 1:0.207179 2:0.464811 3:-0.321532 4:-0.103948 5:-0.092318 6:-0.0983838 7:-0.236686 8:-0.0979241 9:-0.151278 10:-0.0291976 11:0.299695 12:-0.0824276 13:0.450114 14:0.272437 15:-0.00275613 16:0.205099 17:-0.227402 18:-0.0453315 19:-0.169823 20:0.272862 21:-0.0919338 22:-0.0140407 23:-0.174611 24:-0.00837662 25:0.237229 26:-0.0355659 
0.125 0 1:0.157398 2:0.360195 3:-0.28034 4:0.0830948 5:-0.0802324 6:-0.0741704 7:-0.149517 8:-0.0445952 9:-0.0544879 10:0.0359486 11:0.391627 12:-0.0933343 13:0.448019 14:0.304442 15:0.0718091 16:0.136331 17:-0.317813 18:-0.0592971 19:-0.185615 20:0.245492 21:-0.274151 22:-0.211222 23:-0.1157 24:-0.188499 25:0.188477 26:-0.0344865 
0.125 0.125 1:0.146946 2:0.356337 3:-0.230633 4:0.157279 5:-0.155595 6:-0.0702266 7:-0.0898384 8:0.140657 9:-0.0344091 10:-0.023346 11:0.352076 12:0.0266188 13:0.452797 14:0.318957 15:0.0618965 16:0.0397549 17:-0.285261 18:-0.0517784 19:-0.0680098 20:0.103413 21:-0.448815 22:-0.363339 23:-0.03889 24:-0.152042 25:0.0161237 26:-0.0286575 
0.125 0.125 1:0.12242 2:0.339995 3:-0.180149 4:0.150502 5:-0.110155 6:-0.196054 7:-0.142037 8:0.171628 9:0.0912991 10:-0.0523516 11:0.154594 12:0.0875598 13:0.349935 14:0.31969 15:0.0384611 16:-0.0406376 17:-0.190109 18:-0.00687282 19:0.155045 20:-0.021148 21:-0.47857 22:-0.392465 23:-0.028072 24:0.0964557 25:-0.116768 26:-0.0205508 
0.125 0.125 1:0.0941789 2:0.355932 3:-0.199864 4:0.150061 5:-0.162411 6:-0.219941 7:-0.160036 8:0.186157 9:0.10724 10:-0.14283 11:-0.0277215 12:0.0769471 13:0.205575 14:0.314513 15:-0.0222444 16:-0.0098147 17:-0.143002 18:0.0845824 19:0.270414 20:-0.0699185 21:-0.423391 22:-0.199826 23:0.00993699 24:0.29688 25:-0.15188 26:-0.0153294 
0 0.125 1:0.081466 2:0.359771 3:-0.197027 4:0.20694 5:-0.308384 6:-0.214185 7:0.0294683 8:0.118829 9:-0.0568421 10:-0.1698 11:0.0876231 12:0.0965526 13:0.225306 14:0.293196 15:-0.0792334 16:0.112322 17:-0.173243 18:0.215947 19:0.18298 20:-0.0848673 21:-0.301548 22:0.035573 23:0.0333804 24:0.221286 25:-0.122632 26:-0.0155078 
0.125 0.125 1:0.0734681 2:0.377218 3:-0.282772 4:0.25919 5:-0.259684 6:-0.0445061 7:-0.0685609 8:0.0700522 9:-0.194224 10:-0.0476059 11:0.167391 12:0.125309 13:0.281916 14:0.266568 15:-0.10467 16:0.247082 17:-0.239583 18:0.159818 19:-0.0516485 20:0.0256161 21:-0.125491 22:0.100251 23:0.0444626 24:-0.00448457 25:-0.0851119 26:-0.0221145 
0.125 0.125 1:0.0556114 2:0.393217 3:-0.315362 4:0.249599 5:-0.151915 6:0.0303962 7:-0.0976983 8:-0.0278287 9:0.0403731 10:-0.188319 11:0.221851 12:0.0988999 13:0.353364 14:0.253325 15:-0.12004 16:0.281897 17:-0.201091 18:0.0170199 19:-0.184655 20:0.0760995 21:-1.75885e-05 22:-0.0875753 23:0.106879 24:-0.136804 25:-0.0470281 26:-0.0300706 
0.125 0.125 1:0.0426328 2:0.375555 3:-0.218961 4:0.161125 5:-0.134784 6:-0.0011326 7:-0.0465583 8:-0.0352337 9:0.189418 10:-0.178206 11:0.190134 12:0.0736057 13:0.291446 14:0.260263 15:-0.115408 16:0.191416 17:-0.0555476 18:-0.0417351 19:-0.11815 20:0.0105249 21:0.01553 22:-0.304256 23:0.0946124 24:-0.107758 25:-0.00598522 26:-0.0302027 
0.125 0.125 1:-0.0171677 2:0.39027 3:-0.0909768 4:0.095203 5:-0.134129 6:-0.0838381 7:0.0900341 8:-0.035151 9:0.0653895 10:-0.101195 11:0.111922 12:0.138341 13:0.306113 14:0.307208 15:-0.152638 16:0.170527 17:0.021632 18:-0.0127284 19:0.00966577 20:-0.0930855 21:-0.0305271 22:-0.352471 23:0.0072639 24:-0.0159095 25:0.0202765 26:-0.0238877 
0.125 0.125 1:-0.057062 2:0.390686 3:-0.121104 4:0.0936441 5:-0.16691 6:-0.0555291 7:0.174369 8:0.0622983 9:-0.0607463 10:0.108762 11:0.0162778 12:0.0821811 13:0.155459 14:0.366395 15:-0.21451 16:0.295624 17:-0.0335435 18:0.0449354 19:0.0351771 20:-0.163876 21:-0.152498 22:-0.277756 23:-0.151256 24:0.0538535 25:0.0511729 26:-0.0139189 
0.125 0.125 1:-0.0588473 2:0.384155 3:-0.106084 4:0.160651 5:-0.148472 6:0.016541 7:0.105832 8:0.0648022 9:-0.0153648 10:0.0159499 11:0.17807 12:0.121505 13:0.0938372 14:0.399585 15:-0.254928 16:0.413922 17:-0.121094 18:-0.0443578 19:-0.0709919 20:-0.0538441 21:-0.301679 22:-0.114695 23:-0.223149 24:0.0567769 25:-0.0799071 26:-0.00982731 
0.125 0.125 1:-0.0896396 2:0.36556 3:-0.0486128 4:0.167088 5:0.0169938 6:0.0234739 7:0.0508353 8:0.0398423 9:-0.0664337 10:0.0596218 11:0.09142 12:0.18137 13:0.224549 14:0.432539 15:-0.224835 16:0.260772 17:-0.0795987 18:-0.194338 19:-0.165118 20:0.0440007 21:-0.4364 22:0.100518 23:-0.226294 24:0.108782 25:-0.251931 26:-0.0148137 
0.125 0.125 1:-0.0691453 2:0.279121 3:0.29594 4:0.0152589 5:-0.0169849 6:-0.0270172 7:0.214327 8:0.137337 9:-0.227461 10:0.0703266 11:-0.0548604 12:0.231075 13:0.334598 14:0.443536 15:-0.0933231 16:-0.281579 17:0.114695 18:-0.105109 19:-0.162547 20:-0.0190624 21:-0.501906 22:0.275795 23:-0.168439 24:0.151263 25:-0.319494 26:-0.0232604 
0.125 0.125 1:-0.0043046 2:0.182678 3:0.527199 4:-0.0243954 5:-0.0893897 6:-0.0792549 7:0.251927 8:0.0232632 9:-0.339762 10:-0.0094514 11:0.0888416 12:0.229071 13:0.437827 14:0.413671 15:0.0531812 16:-0.760831 17:0.22533 18:0.122919 19:-0.106443 20:-0.0647775 21:-0.387717 22:0.266396 23:-0.0189793 24:0.044021 25:-0.206511 26:-0.0322141 
0.125 0 1:0.0140536 2:0.154643 3:0.583869 4:0.0759259 5:-0.200361 6:-0.136157 7:0.295384 8:-0.213703 9:-0.074639 10:-0.0639179 11:0.2115 12:-0.0469956 13:0.440907 14:0.301541 15:0.111188 16:-0.740412 17:0.111805 18:0.279335 19:-0.0733558 20:-0.0306294 21:-0.134395 22:-0.0887766 23:0.137799 24:-0.0780741 25:0.110718 26:-0.0342319 
0.125 0.125 1:0.120812 2:0.151751 3:0.231488 4:0.19681 5:-0.0952519 6:-0.198936 7:0.275805 8:-0.388844 9:0.149642 10:-0.113618 11:0.177664 12:-0.0862514 13:0.480924 14:0.0770956 15:0.0517425 16:-0.181643 17:-0.107728 18:0.108013 19:0.0380435 20:0.0383528 21:0.13691 22:-0.457297 23:0.292316 24:-0.148142 25:0.266242 26:-0.0294799 
0.125 0.125 1:0.233882 2:0.173524 3:-0.238486 4:0.275168 5:0.108422 6:-0.24947 7:0.288607 8:-0.372161 9:0.100539 10:-0.110546 11:0.162451 12:-0.0220742 13:0.437881 14:-0.107701 15:-0.0778989 16:0.475878 17:-0.269808 18:-0.197545 19:0.246909 20:0.0712057 21:0.256915 22:-0.464418 23:0.295384 24:-0.131045 25:0.200972 26:-0.0250513 
0.125 0.125 1:0.23856 2:0.204802 3:-0.340981 4:0.282786 5:0.152641 6:-0.357154 7:0.446614 8:-0.47253 9:-0.0200543 10:0.077438 11:0.0812947 12:0.0415766 13:0.319241 14:-0.117211 15:-0.195386 16:0.696983 17:-0.277325 18:-0.317371 19:0.417868 20:-0.185864 21:0.226553 22:-0.210523 23:0.0596913 24:0.0137162 25:0.179629 26:-0.0221956 
0.125 0.125 1:0.052981 2:0.202638 3:-0.189164 4:0.209503 5:0.0675683 6:-0.462482 7:0.59407 8:-0.392694 9:-0.218593 10:0.246334 11:0.0933762 12:0.09458 13:0.344672 14:0.0892934 15:-0.245911 16:0.461816 17:-0.223978 18:-0.196483 19:0.38194 20:-0.501399 21:0.0140337 22:0.0933354 23:-0.205289 24:0.0572776 25:0.126695 26:-0.0259715 
0.125 0.125 1:-0.166024 2:0.151488 3:-0.156561 4:0.254521 5:-0.087517 6:-0.208025 7:0.4972 8:-0.220845 9:-0.168453 10:0.388876 11:0.0627277 12:0.084931 13:0.515241 14:0.384225 15:-0.171327 16:0.141003 17:-0.212939 18:0.0312256 19:0.0708664 20:-0.554267 21:-0.254841 22:0.109037 23:-0.357871 24:0.0299457 25:0.00597997 26:-0.0327128 
0.125 0.125 1:-0.251676 2:0.124455 3:-0.195951 4:0.229466 5:0.0410853 6:0.0026844 7:0.611253 8:-0.15983 9:-0.00407934 10:0.444048 11:-0.0276249 12:0.0867214 13:0.285496 14:0.551038 15:-0.060076 16:0.00178304 17:-0.161433 18:0.0520025 19:-0.202946 20:-0.424962 21:-0.356668 22:-0.0768416 23:-0.32882 24:-0.0125575 25:-0.23987 26:-0.0308063 
0.125 0.125 1:-0.315697 2:0.0687951 3:-0.182008 4:0.153812 5:0.00793614 6:-0.0654823 7:0.252712 8:-0.127321 9:-0.115397 10:0.274664 11:0.140974 12:0.585889 13:0.266123 14:0.613496 15:0.021701 16:0.0836868 17:-0.141631 18:-0.0283897 19:-0.374523 20:-0.0940748 21:-0.223424 22:-0.212888 23:-0.252798 24:0.00682512 25:-0.557307 26:-0.0294338 
0.125 0.125 1:-0.329711 2:-0.00554637 3:-0.268317 4:0.0253663 5:-0.0271847 6:-0.140648 7:0.0675408 8:-0.223586 9:-0.103419 10:0.311487 11:-0.0108128 12:0.409247 13:0.129852 14:0.599582 15:0.0205768 16:0.203934 17:-0.127302 18:-0.0888529 19:-0.438213 20:0.0880529 21:0.041213 22:-0.243426 23:-0.318525 24:0.171866 25:-0.4125 26:-0.0247916 
0.125 0.125 1:-0.293683 2:0.101119 3:-0.241853 4:0.0190993 5:-0.0215203 6:-0.0881083 7:0.175161 8:-0.30185 9:-0.0904784 10:0.335678 11:-0.0876489 12:0.0796364 13:-0.00313836 14:0.553748 15:-0.017645 16:0.175136 17:-0.026357 18:0.0453387 19:-0.35893 20:0.0880432 21:0.0918121 22:-0.0295086 23:-0.36726 24:0.2796 25:0.0746017 26:-0.0166194 
0.125 0.125 1:-0.30324 2:0.087718 3:-0.240761 4:0.0519944 5:-0.0546138 6:-0.0352984 7:0.112031 8:-0.127474 9:-0.140295 10:0.286977 11:-0.124385 12:0.0501316 13:0.0456576 14:0.553897 15:0.0808874 16:0.0639952 17:0.152569 18:0.226643 19:-0.16427 20:0.116219 21:-0.1835 22:0.195674 23:-0.288774 24:0.125157 25:0.356473 26:-0.0149377 
0.125 0.125 1:-0.105299 2:0.0392841 3:-0.116394 4:-0.207797 5:-0.153809 6:-0.494946 7:-0.137904 8:0.197439 9:-0.330379 10:-0.114645 11:0.259222 12:0.144484 13:-0.226092 14:0.507961 15:0.163139 16:-0.0656765 17:0.393045 18:0.294526 19:0.203466 20:0.137919 21:-0.520668 22:0.268184 23:-0.0212393 24:-0.22548 25:0.313968 26:-0.0138959 
0.125 0.125 1:0.0127848 2:0.0132451 3:-0.179318 4:-0.281489 5:-0.119915 6:-0.642506 7:-0.135321 8:0.181492 9:-0.188028 10:-0.321041 11:0.247637 12:0.187058 13:-0.233933 14:0.453507 15:0.0983772 16:-0.0451397 17:0.401716 18:0.16128 19:0.39373 20:0.0893382 21:-0.546965 22:0.0474598 23:0.206369 24:-0.390536 25:0.0423234 26:-0.0230748 
0.125 0.125 1:0.0698596 2:0.2188 3:-0.26183 4:0.0495389 5:0.22078 6:-0.484321 7:0.0177541 8:-0.0691169 9:0.218895 10:-0.300316 11:0.259351 12:0.472029 13:0.127087 14:0.321254 15:-0.19772 16:0.110873 17:0.0778067 18:-0.157596 19:0.281256 20:-0.0604889 21:-0.245233 22:-0.357205 23:0.222452 24:-0.277746 25:-0.151295 26:-0.0359425 
0.125 0.125 1:0.347046 2:0.412866 3:-0.343481 4:0.225935 5:0.107324 6:-0.427848 7:-0.0633633 8:-0.143852 9:0.149119 10:-0.374852 11:-0.145091 12:0.277582 13:-0.0995955 14:0.0261781 15:-0.570663 16:0.282915 17:-0.27264 18:-0.28274 19:0.095615 20:-0.1257 21:0.0410682 22:-0.522234 23:0.181032 24:0.0755803 25:-0.0320525 26:-0.0320613 
0.125 0.125 1:0.565124 2:0.333192 3:-0.370285 4:0.207935 5:0.141975 6:-0.548274 7:-0.125966 8:-0.106642 9:0.0658035 10:-0.453807 11:-0.125156 12:0.278877 13:-0.330965 14:-0.207338 15:-0.689097 16:0.326947 17:-0.390237 18:-0.198735 19:0.0159557 20:-0.047549 21:0.141372 22:-0.493913 23:0.186449 24:0.286727 25:-0.111072 26:-0.0203445 
0.125 0.125 1:0.615268 2:0.25184 3:-0.308645 4:0.2215 5:0.13318 6:-0.539325 7:-0.181475 8:-0.0498195 9:0.0108107 10:-0.464515 11:-0.0492578 12:0.49005 13:-0.436342 14:-0.250371 15:-0.512442 16:0.188237 17:-0.252783 18:0.119285 19:0.0548223 20:0.188986 21:0.097053 22:-0.309415 23:0.233494 24:0.281558 25:-0.441698 26:-0.0102854 
0.125 0.125 1:0.503672 2:0.151202 3:-0.238991 4:0.203463 5:0.0806975 6:-0.53739 7:-0.224018 8:0.0224166 9:-0.051776 10:-0.479097 11:-0.0827552 12:0.579098 13:-0.462533 14:-0.0734832 15:-0.144317 16:0.0516771 17:-0.0495544 18:0.398075 19:0.0903755 20:0.311522 21:-0.0385681 22:-0.157674 23:0.209644 24:0.176994 25:-0.611959 26:-0.00983112 
0.125 0.125 1:0.306682 2:-0.0594137 3:-0.158257 4:0.159791 5:0.00670919 6:-0.468778 7:-0.157201 8:0.0205182 9:-0.157299 10:-0.356881 11:-0.0870612 12:0.528685 13:-0.317634 14:0.184481 15:0.182994 16:0.0301412 17:-0.0356752 18:0.357059 19:0.0247416 20:0.207743 21:-0.233033 22:-0.0943899 23:0.051065 24:-0.0303906 25:-0.514301 26:-0.0215332 
0.125 0.125 1:0.245815 2:-0.208079 3:-0.233502 4:0.248751 5:0.269365 6:-0.441812 7:-0.0700892 8:0.176523 9:-0.331314 10:-0.135316 11:0.051589 12:0.12558 13:-0.257863 14:0.299616 15:0.337997 16:0.133626 17:-0.148394 18:-0.0245044 19:-0.032745 20:0.0222058 21:-0.498875 22:0.0491911 23:-0.171474 24:-0.167891 25:0.0335543 26:-0.0249481 
0.125 0.125 1:0.190733 2:-0.139604 3:-0.290502 4:0.281988 5:0.513826 6:-0.491665 7:0.134882 8:0.406017 9:-0.347639 10:-0.130346 11:0.172094 12:-0.136316 13:-0.38216 14:0.310707 15:0.326909 16:0.178017 17:-0.207048 18:-0.490018 19:0.0597053 20:-0.319401 21:-0.611578 22:0.126267 23:-0.260523 24:-0.182706 25:0.520193 26:-0.0176569 
0.125 0.125 1:0.0736145 2:-0.096254 3:-0.194818 4:0.261736 5:0.520579 6:-0.445395 7:0.113236 8:0.224812 9:-0.428881 10:-0.129856 11:0.00643381 12:-0.00480562 13:-0.33961 14:0.366956 15:0.244209 16:0.0773347 17:-0.160537 18:-0.689513 19:0.143809 20:-0.348561 21:-0.394646 22:0.154971 23:-0.136762 24:-0.0447709 25:0.591482 26:-0.00944134 
0.125 0.125 1:-0.0535612 2:-0.139339 3:-0.0606888 4:0.115522 5:0.44611 6:-0.41147 7:0.150955 8:-0.0702429 9:-0.471839 10:-0.0463492 11:-0.163848 12:-0.0701948 13:-0.388973 14:0.575723 15:0.0508365 16:-0.104474 17:-0.0130371 18:-0.55276 19:0.118493 20:-0.135586 21:-0.0973149 22:0.0529411 23:0.0949001 24:0.134148 25:0.439214 26:-0.0107756 
0.125 0.125 1:-0.133427 2:-0.0145239 3:-0.0810986 4:0.14752 5:0.283836 6:-0.430076 7:0.197231 8:-0.134417 9:-0.34574 10:-0.17435 11:-0.0844844 12:0.0926207 13:-0.104851 14:0.804187 15:-0.228487 16:-0.157315 17:0.0589178 18:-0.176899 19:-0.0406938 20:0.146787 21:0.0178827 22:-0.145016 23:0.264392 24:0.187514 25:0.105487 26:-0.0265576 
0.125 0.125 1:-0.187435 2:0.14189 3:-0.215791 4:0.142247 5:0.14474 6:-0.225539 7:-0.192971 8:0.0376623 9:-0.363184 10:-0.165643 11:0.0569503 12:0.229015 13:0.0823361 14:0.801164 15:-0.454238 16:0.0032451 17:0.0480898 18:0.127542 19:-0.294957 20:0.417369 21:-0.0872199 22:-0.194041 23:0.128327 24:0.159652 25:-0.150758 26:-0.0404494 
0.125 0.125 1:-0.0652686 2:0.212273 3:-0.23591 4:0.155754 5:0.0234034 6:-0.153842 7:0.243355 8:-0.00367135 9:-0.334927 10:0.239674 11:-0.0558087 12:0.334823 13:0.267753 14:0.505749 15:-0.398543 16:0.231109 17:0.0313341 18:0.285557 19:-0.347196 20:0.0494329 21:-0.147989 22:-0.040316 23:-0.316013 24:0.182806 25:-0.359692 26:-0.0433867 
0.125 0.125 1:0.323004 2:-0.0187982 3:-0.385161 4:0.181337 5:-0.0358446 6:-0.322301 7:0.437884 8:-0.182016 9:-0.468715 10:0.420758 11:0.00575192 12:0.376412 13:-0.0394749 14:0.136425 15:0.00632503 16:0.328131 17:0.0810841 18:0.259164 19:-0.139119 20:-0.411498 21:-0.00873475 22:0.217946 23:-0.651833 24:0.171362 25:-0.479317 26:-0.0352625 
0.125 0.125 1:0.478643 2:-0.0677989 3:-0.355042 4:0.180913 5:-0.0405702 6:-0.440025 7:0.432238 8:-0.222595 9:-0.518645 10:0.307503 11:0.121247 12:0.392053 13:-0.114794 14:-0.00544858 15:0.357159 16:0.186301 17:0.162175 18:0.1507 19:0.124591 20:-0.690326 21:0.174121 22:0.325535 23:-0.657123 24:0.0757895 25:-0.404678 26:-0.0298962 
0.125 0.125 1:0.326493 2:-0.0878236 3:-0.247661 4:0.198154 5:-0.0476611 6:-0.473801 7:0.490721 8:-0.147058 9:-0.375248 10:0.147617 11:0.295402 12:0.334194 13:-0.0209867 14:0.0826539 15:0.381652 16:0.00165971 17:0.0932615 18:0.153223 19:0.2787 20:-0.674559 21:0.209799 22:0.157624 23:-0.335603 24:-0.0934059 25:-0.212437 26:-0.0296544 
0.125 0.125 1:0.296209 2:0.165262 3:-0.141456 4:0.342993 5:0.00180745 6:-0.425556 7:0.230816 8:-0.0377746 9:0.00459003 10:-0.147938 11:0.415065 12:0.0811749 13:-0.0471354 14:0.11854 15:-0.0238649 16:-0.0164238 17:-0.157981 18:0.200068 19:0.241566 20:-0.176753 21:-0.0439123 22:-0.216107 23:0.168305 24:-0.292563 25:0.120178 26:-0.0230139 
0.125 0.125 1:0.524035 2:0.337579 3:-0.385533 4:0.536564 5:-0.121142 6:-0.382641 7:0.0658014 8:0.0991939 9:-0.0082464 10:-0.260889 11:0.421802 12:0.0746111 13:-0.346561 14:-0.0108908 15:-0.425574 16:0.197979 17:-0.451461 18:0.201282 19:0.118101 20:0.240366 21:-0.382134 22:-0.528662 23:0.440722 24:-0.331491 25:0.280283 26:-0.0137929 
0.125 0 1:0.529287 2:0.380617 3:-0.45999 4:0.56318 5:-0.0553232 6:-0.356883 7:-0.0415804 8:0.259037 9:0.0277006 10:-0.337489 11:0.36411 12:0.0711751 13:-0.538959 14:-0.0959938 15:-0.496614 16:0.394907 17:-0.565141 18:0.0902173 19:0.0720069 20:0.433903 21:-0.572434 22:-0.637526 23:0.432901 24:-0.27977 25:0.235415 26:-0.00628854 
0.125 0.125 1:0.359221 2:0.345891 3:-0.359713 4:0.453076 5:0.218795 6:-0.324923 7:-0.0611765 8:0.358474 9:0.161313 10:-0.317516 11:0.421871 12:0.0329281 13:-0.415482 14:0.0507714 15:-0.338951 16:0.415325 17:-0.387222 18:-0.129033 19:0.0268106 20:0.319714 21:-0.503947 22:-0.50698 23:0.224073 24:-0.187026 25:0.067918 26:-0.0113679 
0.125 0.125 1:0.105835 2:0.228518 3:-0.212626 4:0.332197 5:0.232458 6:-0.217373 7:0.0476526 8:0.0660984 9:0.0045398 10:-0.0341442 11:0.145552 12:0.246822 13:-0.100211 14:0.428418 15:-0.147086 16:0.237629 17:-0.136942 18:-0.145708 19:-0.10151 20:-0.0949014 21:-0.213452 22:-0.129492 23:-0.0856748 24:0.000753849 25:-0.156976 26:-0.0206982 
0.125 0.125 1:-0.0185318 2:0.277605 3:-0.136953 4:0.220785 5:0.0272655 6:-0.222711 7:0.173803 8:-0.0126141 9:-0.354419 10:-0.00260771 11:0.121914 12:0.219314 13:-0.330912 14:0.759791 15:-0.113306 16:-0.0296303 17:0.0590326 18:0.0331507 19:-0.134866 20:-0.458936 21:-0.0176725 22:0.361236 23:-0.261648 24:0.104541 25:-0.210279 26:-0.0221357 
0.125 0.125 1:-0.0576002 2:0.316224 3:-0.0692306 4:0.116309 5:0.238741 6:-0.102087 7:0.142519 8:0.0614837 9:-0.287194 10:-0.0712096 11:0.00630262 12:0.107413 13:-0.259147 14:0.867921 15:-0.12543 16:-0.208439 17:0.135359 18:0.0742117 19:-0.123691 20:-0.501157 21:-0.0446438 22:0.588344 23:-0.320428 24:0.165451 25:-0.234269 26:-0.0249398 
0.125 0.125 1:-0.0148717 2:0.255441 3:0.084783 4:0.205607 5:0.228688 6:-0.16724 7:0.00522107 8:0.138508 9:-0.148021 10:-0.0384433 11:-0.0148448 12:0.138359 13:-0.23299 14:0.75724 15:-0.0628469 16:-0.266759 17:0.0529409 18:0.078853 19:0.0342206 20:-0.186402 21:-0.208859 22:0.472016 23:-0.280542 24:0.185127 25:-0.26198 26:-0.0279224 
0.125 0.125 1:0.164451 2:0.111446 3:0.0056704 4:0.029 5:0.300119 6:-0.31444 7:-0.225391 8:0.0409669 9:-0.0727404 10:-0.00610439 11:-0.0400983 12:0.173074 13:0.0455142 14:0.464413 15:0.0628649 16:-0.11034 17:-0.0177999 18:-0.0639504 19:0.205506 20:0.320927 21:-0.320887 22:0.0953186 23:-0.135857 24:0.182208 25:-0.181887 26:-0.0328388 
0.125 0.125 1:0.355474 2:0.199498 3:-0.1712 4:0.0781932 5:0.423881 6:-0.111591 7:-0.34922 8:0.0527247 9:0.365595 10:-0.215916 11:-0.0408494 12:0.0194584 13:-0.0810751 14:0.104229 15:0.100172 16:0.155407 17:-0.190589 18:-0.204082 19:0.138756 20:0.693074 21:-0.298579 22:-0.376682 23:0.095378 24:0.175088 25:0.0464872 26:-0.0269828 
0.125 0.125 1:0.55187 2:0.220462 3:-0.250285 4:0.13391 5:0.365282 6:-0.098077 7:-0.280145 8:-0.029608 9:0.463062 10:-0.351873 11:-0.0736895 12:-0.197498 13:-0.279144 14:-0.206425 15:0.0557278 16:0.345583 17:-0.26319 18:-0.216283 19:0.0362343 20:0.706988 21:-0.159666 22:-0.605225 23:0.208134 24:0.0755498 25:0.344458 26:-0.0129553 
0.125 0.125 1:0.616894 2:0.229629 3:-0.219274 4:0.0181528 5:0.426997 6:-0.0221894 7:-0.128547 8:-0.130629 9:0.481994 10:-0.282291 11:0.0627244 12:-0.195963 13:-0.248841 14:-0.300346 15:-0.0619753 16:0.350561 17:-0.097019 18:-0.286667 19:-0.0986563 20:0.344166 21:0.0235248 22:-0.692846 23:0.0824524 24:-0.0944919 25:0.386732 26:-0.0128469 
0.125 0.125 1:0.534062 2:0.281917 3:-0.155358 4:-0.138133 5:0.418122 6:0.043236 7:0.113595 8:-0.195031 9:0.481367 10:-0.179506 11:0.167573 12:-0.0911994 13:-0.12204 14:-0.119473 15:-0.212655 16:0.184608 17:0.212809 18:-0.208503 19:-0.0912304 20:-0.236026 21:0.121271 22:-0.628895 23:-0.0855388 24:-0.222667 25:0.115159 26:-0.0239753 
0.125 0.125 1:0.329552 2:0.353058 3:-0.0995397 4:-0.278734 5:0.344625 6:0.0355583 7:0.384483 8:-0.194129 9:0.47167 10:-0.0481857 11:0.0868963 12:0.0714835 13:0.119389 14:0.224336 15:-0.322814 16:0.00344961 17:0.445353 18:-0.0147818 19:0.033269 20:-0.711669 21:0.101509 22:-0.439229 23:-0.156743 24:-0.129584 25:-0.125474 26:-0.0360977 
0.125 0.125 1:0.151817 2:0.356157 3:-0.0658165 4:-0.186115 5:0.206484 6:0.0170519 7:0.520229 8:-0.125228 9:0.215874 10:-0.242713 11:-0.0295356 12:0.176919 13:0.187811 14:0.549121 15:-0.293732 16:-0.0735602 17:0.223139 18:0.105964 19:0.019137 20:-0.832398 21:-0.0433541 22:-0.202134 23:-0.0173182 24:0.0770791 25:-0.169312 26:-0.0364968 
0.125 0.125 1:0.0539779 2:0.295135 3:-0.0647766 4:-0.0570265 5:0.163914 6:0.0682187 7:0.350385 8:0.0510435 9:0.00999096 10:-0.4153 11:-0.0611553 12:0.0252301 13:-0.200986 14:0.721729 15:-0.0541132 16:-0.0414538 17:-0.258534 18:0.110867 19:-0.0890461 20:-0.45452 21:-0.309818 22:0.0428002 23:0.137585 24:0.194277 25:-0.0291662 26:-0.0281608 
0.125 0.125 1:0.071567 2:0.208645 3:-0.119998 4:0.19221 5:0.241484 6:0.21642 7:0.163521 8:0.0373975 9:-0.0430426 10:-0.142839 11:-0.121622 12:-0.0854862 13:-0.216063 14:0.727963 15:0.180703 16:0.0393562 17:-0.659567 18:0.0200698 19:-0.258872 20:0.0527006 21:-0.526311 22:0.21673 23:0.0753454 24:0.0870426 25:-0.0221505 26:-0.0311652 
0.125 0.125 1:0.121977 2:0.133704 3:-0.199829 4:0.121383 5:0.296006 6:0.216595 7:0.0811551 8:0.041909 9:-0.144484 10:-0.0691997 11:0.0766595 12:0.310103 13:0.0609957 14:0.626632 15:0.201062 16:0.097148 17:-0.575359 18:0.0264586 19:-0.300102 20:0.305552 21:-0.594503 22:0.306154 23:0.0204112 24:-0.223843 25:-0.283838 26:-0.0417916 
0.125 0.125 1:0.231373 2:0.283768 3:-0.196567 4:-0.221597 5:0.0918662 6:0.0289753 7:0.0182353 8:0.0937876 9:-0.231987 10:-0.184884 11:0.123402 12:0.271168 13:-0.083855 14:0.457014 15:-0.0764726 16:0.075998 17:-0.0664855 18:0.208842 19:-0.168465 20:0.179979 21:-0.44246 22:0.271599 23:0.0232618 24:-0.428708 25:-0.355839 26:-0.0400239 
0.125 0.125 1:0.385589 2:0.486815 3:-0.197738 4:-0.342841 5:0.0944004 6:0.0143219 7:0.263806 8:-0.210258 9:-0.164 10:-0.0764104 11:-0.0172158 12:0.110798 13:-0.490352 14:0.25141 15:-0.38277 16:0.0370774 17:0.367128 18:0.280903 19:-0.0696298 20:-0.231298 21:-0.0169388 22:0.110507 23:-0.013523 24:-0.373498 25:-0.200708 26:-0.0215932 
0.125 0.125 1:0.554446 2:0.406405 3:-0.265747 4:-0.391091 5:0.21596 6:-0.0584356 7:0.243142 8:-0.467351 9:-0.0115376 10:0.0117748 11:-0.2638 12:-0.0242147 13:-0.818129 14:0.0706517 15:-0.39563 16:0.0540942 17:0.497484 18:0.156308 19:-0.0457412 20:-0.397944 21:0.332467 22:-0.121829 23:-0.0948208 24:-0.101345 25:0.0706617 26:0.0010225 
0.125 0.125 1:0.64746 2:0.308478 3:-0.340938 4:-0.31349 5:0.343355 6:-0.129731 7:0.118092 8:-0.432045 9:0.031909 10:0.141583 11:-0.442965 12:-0.0448882 13:-0.90238 14:-0.0118106 15:-0.207614 16:0.11896 17:0.251994 18:-0.0837238 19:-0.11892 20:-0.26973 21:0.348172 22:-0.262112 23:-0.277171 24:0.190128 25:0.198542 26:0.00724017 
0.125 0.125 1:0.660102 2:0.256973 3:-0.414955 4:-0.176776 5:0.395214 6:-0.203563 7:-0.0302666 8:-0.294195 9:0.0609806 10:0.192118 11:-0.620897 12:-0.00011085 13:-0.764911 14:0.0299601 15:-0.00364956 16:0.196256 17:-0.0875463 18:-0.238677 19:-0.147935 20:-0.00163225 21:0.0706422 22:-0.245583 23:-0.322286 24:0.36929 25:0.0397201 26:-0.00513813 
0.125 0.125 1:0.626629 2:0.246163 3:-0.448916 4:-0.0791952 5:0.384825 6:-0.315572 7:-0.139414 8:-0.113287 9:0.0176866 10:0.0991904 11:-0.703188 12:0.026071 13:-0.589558 14:0.136064 15:0.0490455 16:0.221656 17:-0.259483 18:-0.183162 19:-0.0205766 20:0.266184 21:-0.275952 22:-0.0978252 23:-0.114042 24:0.396316 25:-0.124464 26:-0.0160022 
0.125 0.125 1:0.590044 2:0.262995 3:-0.450343 4:-0.0744703 5:0.392339 6:-0.483659 7:-0.124134 8:-0.0478605 9:-0.0310191 10:0.0219337 11:-0.657277 12:0.0296649 13:-0.560868 14:0.215896 15:-0.0284418 16:0.248131 17:-0.258892 18:-0.0920904 19:0.201207 20:0.317026 21:-0.412752 22:0.0067697 23:0.0809873 24:0.29608 25:-0.228806 26:-0.0150075 
0.125 0.125 1:0.558282 2:0.255927 3:-0.471507 4:-0.117898 5:0.368141 6:-0.638053 7:-0.136905 8:-0.11611 9:0.0355447 10:-0.0703219 11:-0.688695 12:-0.0456161 13:-0.577093 14:0.22483 15:-0.104234 16:0.287732 17:-0.130029 18:-0.0693735 19:0.473412 20:0.18798 21:-0.3326 22:-0.0651431 23:0.0881952 24:0.228217 25:-0.218938 26:-0.0121761 
0.125 0.125 1:0.532619 2:0.24119 3:-0.464655 4:-0.107137 5:0.382155 6:-0.675002 7:-0.130631 8:-0.136991 9:0.0890052 10:0.0236407 11:-0.557992 12:-0.109232 13:-0.471145 14:0.193423 15:-0.20572 16:0.259666 17:-0.00605051 18:-0.0642111 19:0.620647 20:-0.00851716 21:-0.197322 22:-0.234548 23:-0.147208 24:0.12449 25:-0.196275 26:-0.0220283 
0.125 0.125 1:0.488489 2:0.240689 3:-0.45163 4:-0.0904644 5:0.404336 6:-0.638914 7:0.0457776 8:-0.0776686 9:0.139035 10:0.230771 11:-0.486806 12:-0.117421 13:-0.0655249 14:0.188815 15:-0.277814 16:0.211931 17:0.0157599 18:-0.0120012 19:0.583919 20:-0.184636 21:-0.0835078 22:-0.303876 23:-0.387828 24:0.125133 25:-0.107728 26:-0.0407488 
0.125 0.125 1:0.400366 2:0.250236 3:-0.27272 4:-0.10561 5:0.351408 6:-0.532932 7:0.114786 8:-0.136523 9:0.113264 10:0.108762 11:-0.489473 12:-0.309887 13:0.188921 14:0.249564 15:-0.274424 16:0.11503 17:-0.0420115 18:0.120343 19:0.372644 20:-0.202716 21:-0.0359267 22:-0.194675 23:-0.312366 24:0.15836 25:0.0976505 26:-0.0522519 
0.125 0.125 1:0.292259 2:0.171913 3:-0.209101 4:-0.0375158 5:0.245646 6:-0.259529 7:-0.0833998 8:-0.162581 9:0.00271988 10:-0.165537 11:-0.279438 12:-0.363897 13:0.0522404 14:0.35211 15:-0.146337 16:0.0335975 17:-0.135925 18:0.166538 19:-0.0612068 20:-0.100035 21:-0.0994289 22:0.0105585 23:0.0439437 24:0.0716044 25:0.339996 26:-0.0430257 
0.125 0.125 1:0.200962 2:-0.0135649 3:-0.296206 4:0.037017 5:0.368507 6:-0.106121 7:-0.041071 8:-0.0549609 9:-0.153182 10:-0.315357 11:-0.256532 12:-0.506432 13:-0.313404 14:0.427996 15:0.0272332 16:0.0023537 17:-0.185603 18:0.0343194 19:-0.425334 20:-0.102869 21:-0.28414 22:0.105499 23:0.384618 24:-0.00681087 25:0.621783 26:-0.0186718 
0.125 0.125 1:0.156835 2:-0.0146381 3:-0.129416 4:-0.0428659 5:0.441145 6:0.0412748 7:0.0671778 8:0.0728474 9:0.033585 10:-0.299235 11:0.0206633 12:-0.365548 13:-0.207895 14:0.435523 15:0.0665438 16:-0.0901987 17:-0.122822 18:-0.114934 19:-0.594599 20:-0.191301 21:-0.421493 22:0.00870711 23:0.391061 24:-0.189671 25:0.519939 26:-0.0065803 
0.125 0.125 1:0.141406 2:-0.0190417 3:-0.061365 4:-0.0730556 5:0.499064 6:0.135873 7:0.0424188 8:-0.0248121 9:0.0838647 10:-0.226429 11:0.0878117 12:-0.294862 13:-0.258393 14:0.38311 15:0.0229219 16:-0.127891 17:-0.0662949 18:-0.197867 19:-0.493 20:-0.24295 21:-0.352397 22:0.0204827 23:0.142846 24:-0.235984 25:0.0949306 26:-0.0103498 
0.125 0.125 1:0.150237 2:-0.0169569 3:-0.187981 4:-0.0482065 5:0.360205 6:-0.155459 7:-0.0829164 8:-0.118568 9:0.0620853 10:-0.00337546 11:0.0592809 12:0.0155606 13:-0.154437 14:0.32084 15:-0.0341281 16:-0.122759 17:-0.0552384 18:-0.119016 19:-0.164715 20:-0.119489 21:-0.188448 22:0.0975563 23:-0.158184 24:-0.181361 25:-0.285134 26:-0.0227092 
0.125 0.125 1:0.125683 2:-0.0776625 3:-0.237297 4:-0.064542 5:0.372001 6:-0.187669 7:-0.143683 8:-0.285638 9:-0.0313076 10:0.105478 11:0.124761 12:0.404653 13:0.144516 14:0.370714 15:0.0799289 16:-0.0266215 17:-0.0796699 18:-0.0799761 19:-0.0411658 20:0.0990507 21:-0.0522803 22:0.0684234 23:-0.294402 24:-0.22016 25:-0.470482 26:-0.0332227 
0.125 0.125 1:0.116955 2:-0.0929445 3:-0.28309 4:-0.0388579 5:0.403984 6:-0.177928 7:-0.216514 8:-0.229794 9:0.11822 10:-0.0886891 11:0.0532461 12:0.119216 13:-0.0100226 14:0.518831 15:0.219145 16:0.145887 17:-0.151637 18:-0.0991869 19:-0.0734219 20:0.216887 21:-0.0651285 22:-0.154355 23:-0.254042 24:-0.224861 25:-0.217955 26:-0.0297304 
0.125 0.125 1:0.0911648 2:-0.0755896 3:-0.364455 4:-0.0919486 5:0.34751 6:-0.20385 7:-0.239127 8:-0.159427 9:0.496217 10:0.0199715 11:0.140825 12:-0.0897392 13:-0.169102 14:0.651047 15:0.205155 16:0.273639 17:-0.157466 18:-0.0787849 19:-0.143838 20:0.134555 21:-0.144863 22:-0.438052 23:-0.238516 24:-0.242776 25:-0.0203115 26:-0.0255746 
0.125 0.125 1:0.0908711 2:-0.039604 3:-0.570089 4:-0.118969 5:0.300166 6:-0.337556 7:-0.109224 8:-0.295151 9:0.453049 10:0.0116706 11:0.0318751 12:0.418725 13:0.0432204 14:0.627935 15:0.0321711 16:0.329867 17:-0.0999707 18:-0.027833 19:-0.0835483 20:-0.0340578 21:-0.144793 22:-0.370037 23:-0.142847 24:-0.0696699 25:-0.124303 26:-0.0241378 
0.125 0.125 1:0.352453 2:0.251951 3:-0.407394 4:-0.129819 5:0.181637 6:-0.517975 7:-0.0922097 8:-0.377482 9:0.158045 10:-0.0918574 11:-0.277563 12:0.374098 13:0.0153607 14:0.375652 15:-0.247578 16:0.206248 17:0.0111698 18:0.0782018 19:0.176285 20:-0.118389 21:-0.134669 22:-0.0787419 23:-0.0104752 24:0.206197 25:-0.177024 26:-0.0215253 
0.125 0.125 1:0.601312 2:0.252189 3:-0.376466 4:-0.230767 5:0.198603 6:-0.602614 7:-0.116526 8:-0.269004 9:0.167995 10:-0.250356 11:-0.321184 12:0.245704 13:-0.0633373 14:0.0884367 15:-0.29729 16:0.069406 17:0.157502 18:0.0808404 19:0.401435 20:-0.166779 21:-0.122887 22:0.00609038 23:0.147598 24:0.27383 25:-0.178448 26:-0.0224102 
0.125 0 1:0.695101 2:0.222724 3:-0.394667 4:-0.269338 5:0.188826 6:-0.665432 7:-0.170142 8:-0.300629 9:0.357713 10:-0.262742 11:-0.282855 12:0.215429 13:-0.119729 14:-0.0715957 15:-0.197324 16:0.00954748 17:0.185231 18:0.0384695 19:0.476098 20:-0.195576 21:-0.0599639 22:-0.219253 23:0.255379 24:0.180703 25:-0.0840628 26:-0.0224451 
0.125 0 1:0.710113 2:0.244516 3:-0.43708 4:-0.178435 5:0.1602 6:-0.622371 7:-0.0774745 8:-0.400295 9:0.439002 10:-0.157724 11:-0.184417 12:0.347365 13:0.0486534 14:-0.0877447 15:-0.0898473 16:0.0416175 17:0.0444197 18:-0.0456396 19:0.367987 20:-0.193324 21:0.0130038 22:-0.527392 23:0.192882 24:0.0716502 25:-0.034837 26:-0.0240572 
0.125 0 1:0.719372 2:0.3085 3:-0.465834 4:-0.0754387 5:0.126541 6:-0.52052 7:-0.114687 8:-0.397506 9:0.33385 10:-0.140087 11:-0.215869 12:0.277925 13:0.0586701 14:0.0174932 15:-0.0448029 16:0.0721146 17:-0.182232 18:-0.219354 19:0.153191 20:-0.0558386 21:0.0110247 22:-0.575012 23:0.0381694 24:0.159882 25:-0.0874704 26:-0.024428 
0.125 0 1:0.700081 2:0.355925 3:-0.49456 4:-0.0271552 5:0.12505 6:-0.371449 7:-0.275832 8:-0.270089 9:0.0967231 10:-0.0269644 11:-0.328289 12:0.28139 13:-0.0833225 14:0.153943 15:-0.120752 16:0.0218781 17:-0.36534 18:-0.460866 19:-0.0533405 20:0.144317 21:-0.0975287 22:-0.330556 23:-0.1825 24:0.334362 25:-0.119658 26:-0.0183956 
0 0.125 1:0.218607 2:0.281867 3:-0.248825 4:0.337989 5:-0.328906 6:-0.0616271 7:-0.104229 8:0.17818 9:0.288474 10:-0.163808 11:0.0491073 12:0.295979 13:0.305611 14:0.338942 15:-0.187632 16:0.215876 17:-0.508035 18:0.13076 19:-0.0488461 20:0.209218 21:-0.0130919 22:-0.375096 23:0.266421 24:0.0797657 25:-0.223092 26:-0.0192757 
0 0.125 1:0.16619 2:0.325261 3:-0.200743 4:0.340581 5:-0.328921 6:-0.0461816 7:-0.0244427 8:0.159153 9:0.179686 10:-0.0738023 11:0.0939075 12:0.313054 13:0.277982 14:0.43594 15:-0.380887 16:0.199673 17:-0.384153 18:0.318079 19:-0.0212393 20:0.111979 21:-0.0809475 22:-0.338032 23:0.115841 24:0.0629504 25:-0.432822 26:-0.0287786 
0 0.125 1:0.113728 2:0.348424 3:-0.117999 4:0.293746 5:-0.3897 6:0.0530029 7:0.115487 8:0.129335 9:0.259999 10:0.0549136 11:0.0539045 12:0.298512 13:0.44914 14:0.507623 15:-0.383653 16:0.10069 17:-0.105625 18:0.299265 19:-0.0234252 20:-0.0171983 21:-0.231391 22:-0.236398 23:-0.0790677 24:0.221558 25:-0.443233 26:-0.0361913 
0 0.125 1:0.209028 2:-0.00280738 3:0.179041 4:0.0536324 5:0.0237861 6:-0.102716 7:0.180958 8:0.263825 9:-0.0119136 10:0.145877 11:0.0747536 12:0.0173606 13:0.170363 14:0.340123 15:0.156354 16:-0.14277 17:0.348165 18:-0.379615 19:0.0814744 20:0.0331684 21:-0.289016 22:0.0602628 23:-0.376078 24:0.410586 25:0.118794 26:-0.0182136 
0.125 0.125 1:0.328061 2:-0.01567 3:0.173771 4:0.191497 5:0.0670179 6:-0.0446846 7:0.219424 8:-0.0135189 9:0.0344488 10:0.20829 11:0.377061 12:-0.2254 13:-0.150939 14:0.179419 15:0.20569 16:-0.0894863 17:0.221507 18:-0.465266 19:0.01959 20:-0.00795242 21:-0.0389503 22:0.11082 23:-0.317173 24:0.118637 25:0.363344 26:-0.00921357 
0.125 0.125 1:0.337803 2:0.073018 3:0.0977184 4:0.303919 5:-0.0353669 6:0.0245673 7:0.428202 8:-0.0623989 9:0.142979 10:0.10491 11:0.611758 12:-0.0044228 13:0.106771 14:0.115019 15:0.0295546 16:0.060389 17:-0.0367565 18:-0.206367 19:-0.0670406 20:-0.267681 21:0.125171 22:-0.0296391 23:-0.0670215 24:-0.204626 25:0.204124 26:-0.0179787 
0.125 0.125 1:0.330999 2:0.0881475 3:0.145699 4:0.40462 5:-0.146539 6:-0.0205471 7:0.569712 8:0.0374638 9:0.0706926 10:-0.118 11:0.715313 12:-0.0029982 13:0.218849 14:0.146231 15:-0.223135 16:0.148022 17:-0.238532 18:0.115516 19:-0.148913 20:-0.473352 21:0.188497 22:-0.150482 23:0.176931 24:-0.390826 25:-0.0390497 26:-0.030637 
0.125 0.125 1:0.302709 2:0.0586196 3:0.151788 4:0.481447 5:-0.169111 6:-0.056571 7:0.550231 8:0.117897 9:0.145652 10:-0.186052 11:0.872269 12:0.0385587 13:0.119158 14:0.224259 15:-0.409169 16:0.138654 17:-0.288998 18:0.270898 19:-0.0942397 20:-0.436031 21:0.0704007 22:-0.197051 23:0.251419 24:-0.506077 25:-0.21463 26:-0.0295929 
0.125 0.125 1:0.273352 2:0.0295952 3:0.165172 4:0.444672 5:-0.122689 6:-0.0666907 7:0.443653 8:0.0811244 9:0.218046 10:-0.0318154 11:0.869142 12:-0.0592836 13:0.0224559 14:0.30375 15:-0.430567 16:0.0265958 17:-0.201627 18:0.334488 19:-0.0459538 20:-0.263214 21:-0.0310308 22:-0.087409 23:0.0364882 24:-0.552504 25:-0.0227032 26:-0.0222094 
0.125 0.125 1:0.248434 2:-0.0191888 3:0.222167 4:0.421044 5:0.0330892 6:-0.0692385 7:0.272118 8:0.219029 9:-0.105089 10:0.114234 11:0.817534 12:-0.148735 13:-0.154008 14:0.357711 15:-0.307171 16:-0.124153 17:-0.1633 18:0.296422 19:-0.114615 20:-0.160919 21:-0.150976 22:0.0978303 23:-0.266846 24:-0.420377 25:0.303097 26:-0.0122164 
0.125 0.06155787485552025 1:0.23074 2:-0.196713 3:0.216095 4:0.491551 5:-0.0761854 6:-0.245021 7:0.33998 8:0.523155 9:0.0710428 10:-0.00808261 11:0.736526 12:-0.174846 13:-0.149193 14:0.381613 15:-0.0613292 16:-0.214648 17:-0.220234 18:0.335578 19:-0.167707 20:-0.306631 21:-0.403097 22:0.0912869 23:-0.331302 24:-0.132776 25:0.381578 26:-0.0128188 
0.125 0.125 1:0.205307 2:-0.39529 3:0.162023 4:0.455763 5:0.0678758 6:-0.117097 7:0.351075 8:0.38233 9:0.223129 10:0.0743744 11:0.314935 12:-0.0794733 13:0.199144 14:0.358252 15:0.227738 16:-0.228978 17:-0.312395 18:0.188868 19:-0.134581 20:-0.296137 21:-0.537955 22:0.0253846 23:-0.231746 24:0.25251 25:0.263234 26:-0.0188126 
0.125 0.125 1:0.263345 2:-0.440819 3:-0.000136819 4:0.423412 5:0.462235 6:-0.237923 7:0.0856589 8:0.527562 9:0.178664 10:-0.208006 11:0.119989 12:0.150943 13:-0.0534435 14:0.255844 15:0.437237 16:-0.137991 17:-0.449317 18:-0.208691 19:0.204986 20:0.216526 21:-0.595405 22:-0.0923193 23:0.0496423 24:0.39129 25:-0.0481389 26:-0.0177135 
0.125 0 1:0.297787 2:-0.436083 3:-0.164186 4:0.322714 5:0.472959 6:-0.559861 7:-0.167096 8:0.547959 9:0.171708 10:-0.321939 11:0.317548 12:0.318414 13:0.0181667 14:0.125584 15:0.49284 16:0.0637855 17:-0.480269 18:-0.547452 19:0.670018 20:0.833844 21:-0.468951 22:-0.296736 23:0.280396 24:0.250027 25:-0.354849 26:-0.0175244 
0.125 0.04161091629358375 1:0.281433 2:-0.432521 3:-0.33907 4:0.208189 5:0.620129 6:-0.59539 7:-0.358034 8:0.214471 9:0.417064 10:-0.199443 11:0.295198 12:0.256857 13:0.158139 14:0.0380771 15:0.330609 16:0.305792 17:-0.230082 18:-0.740838 19:0.722884 20:0.994842 21:-0.124541 22:-0.445838 23:0.2788 24:0.0993192 25:-0.411393 26:-0.0207486 
0.125 0.125 1:0.246983 2:-0.302403 3:-0.509364 4:-0.0157148 5:0.649219 6:-0.311275 7:-0.0742512 8:0.100369 9:0.40498 10:-0.248415 11:0.219906 12:0.433923 13:0.393591 14:0.0573872 15:0.0597997 16:0.518893 17:0.191016 18:-0.599055 19:0.277841 20:0.377842 21:0.0917959 22:-0.484073 23:0.173125 24:-0.00223884 25:-0.353158 26:-0.0279566 
0.125 0 1:0.135208 2:-0.0509732 3:-0.676246 4:-0.351001 5:0.455712 6:-0.0201476 7:0.536993 8:0.166666 9:0.214583 10:-0.2019 11:0.176798 12:0.347225 13:0.26982 14:0.28015 15:-0.166506 16:0.601587 17:0.455828 18:-0.347784 19:-0.317331 20:-0.551938 21:0.052361 22:-0.394501 23:-0.0562791 24:0.0265476 25:-0.151612 26:-0.0391955 
0.125 0 1:-0.0295108 2:0.0616222 3:-0.560599 4:-0.489706 5:0.196056 6:0.18031 7:0.663247 8:0.0176904 9:0.0373758 10:0.123768 11:0.231751 12:0.125526 13:0.500539 14:0.576702 15:-0.225539 16:0.466034 17:0.310666 18:-0.18056 19:-0.600671 20:-0.899334 21:-0.139862 22:-0.220378 23:-0.299898 24:0.0580388 25:0.0152497 26:-0.048544 
0.125 0 1:-0.159402 2:-0.022367 3:-0.476909 4:-0.149657 5:0.246571 6:0.0150856 7:0.393608 8:0.202057 9:0.0557603 10:0.0343868 11:0.248842 12:0.258761 13:0.414781 14:0.714243 15:-0.139785 16:0.256834 17:-0.167467 18:-0.111839 19:-0.341462 20:-0.548917 21:-0.395601 22:-0.0835258 23:-0.346802 24:0.0270213 25:-7.30524e-05 26:-0.0433902 
0.125 0 1:-0.175331 2:0.122565 3:-0.370239 4:-0.100401 5:0.136211 6:-0.148788 7:0.284092 8:0.233557 9:-0.123484 10:-0.0714676 11:0.156486 12:0.286825 13:0.368518 14:0.608531 15:-0.0755521 16:0.109477 17:-0.291015 18:0.119903 19:0.0787225 20:-0.00716604 21:-0.325792 22:0.0999711 23:-0.237874 24:-0.0399202 25:0.0320077 26:-0.0279857 
0.125 0.125 1:0.0959335 2:0.296346 3:-0.316659 4:-0.474606 5:-0.231184 6:-0.0425226 7:0.260327 8:-0.158622 9:-0.333475 10:-0.0286306 11:0.225723 12:0.201495 13:-0.142822 14:0.370838 15:-0.0465109 16:0.0490089 17:0.0529344 18:0.44871 19:0.238431 20:0.279061 21:-0.0126064 22:0.270237 23:-0.0826856 24:-0.16467 25:0.0287896 26:-0.00867826 
0.125 0.125 1:0.217208 2:0.334408 3:-0.273524 4:-0.621615 5:-0.333571 6:-0.0336119 7:0.330879 8:-0.212504 9:-0.364247 10:-0.166357 11:0.25083 12:0.135155 13:-0.256547 14:0.276098 15:-0.0689249 16:0.0553903 17:0.395858 18:0.581233 19:0.151808 20:0.183833 21:0.110989 22:0.259649 23:0.0711302 24:-0.301379 25:0.0294682 26:-0.00428337 
0.125 0.125 1:0.101017 2:0.541442 3:-0.076563 4:-0.274885 5:-0.034054 6:0.114784 7:0.395419 8:-0.00407521 9:-0.154245 10:-0.121291 11:-0.0425172 12:0.333537 13:0.0983624 14:0.46632 15:-0.400058 16:0.0632018 17:-0.121473 18:0.0137343 19:-0.305287 20:-0.0473575 21:-0.215865 22:-0.21625 23:-0.0860592 24:-0.29585 25:-0.163212 26:-0.0339859 
0.125 0 1:0.370858 2:0.689031 3:-0.13216 4:-0.242505 5:-0.111218 6:0.125738 7:0.433859 8:-0.0684393 9:-0.160628 10:-0.182465 11:-0.152465 12:0.213365 13:-0.0619649 14:0.365857 15:-0.577761 16:0.146387 17:-0.463817 18:-0.142508 19:-0.265805 20:-0.0498924 21:-0.324054 22:-0.282843 23:-0.106391 24:-0.0270531 25:-0.136409 26:-0.0361078 
0.125 0.09040820208460137 1:0.50714 2:0.635486 3:-0.111376 4:-0.30642 5:-0.116543 6:-0.00152383 7:0.490319 8:-0.139577 9:-0.285579 10:-0.245865 11:-0.44491 12:0.223998 13:-0.235238 14:0.184824 15:-0.536508 16:0.184531 17:-0.423073 18:-0.0381705 19:-0.0808088 20:-0.0658623 21:-0.22562 22:-0.144992 23:-0.0654917 24:0.343926 25:-0.0610485 26:-0.0256103 
0.125 0.125 1:0.588924 2:0.474756 3:-0.0163693 4:-0.444779 5:-0.157356 6:-0.162733 7:0.495583 8:-0.225786 9:-0.351096 10:-0.395266 11:-0.775592 12:0.140203 13:-0.371697 14:0.0643809 15:-0.286741 16:0.144594 17:-0.149567 18:0.123803 19:0.124007 20:-0.117879 21:-0.113247 22:-0.017775 23:0.0432782 24:0.629092 25:0.0196507 26:-0.0146881 
0.125 0.125 1:0.638819 2:0.406262 3:0.110391 4:-0.492701 5:-0.0867953 6:-0.14077 7:0.567954 8:-0.199674 9:-0.297905 10:-0.339456 11:-0.737525 12:0.173603 13:-0.358466 14:0.0881765 15:-0.0325083 16:0.05686 17:0.0964874 18:0.140079 19:0.180678 20:-0.191861 21:-0.129906 22:-0.00957313 23:0.0554584 24:0.616246 25:0.0128814 26:-0.0123213 
0.125 0.125 1:0.674462 2:0.34137 3:0.169526 4:-0.533995 5:-0.0203461 6:-0.115238 7:0.592531 8:-0.215805 9:-0.279682 10:-0.341169 11:-0.601436 12:0.196145 13:-0.437542 14:0.174935 15:0.0780971 16:-0.0273257 17:0.133006 18:-0.00531606 19:0.117175 20:-0.233119 21:-0.24283 22:-0.0491421 23:-0.0208484 24:0.412829 25:-0.00950201 26:-0.0126237 
0.125 0.125 1:0.680578 2:0.29691 3:0.173975 4:-0.548545 5:0.0700265 6:-0.138563 7:0.562768 8:-0.234078 9:-0.293314 10:-0.344784 11:-0.468371 12:0.171788 13:-0.446752 14:0.233008 15:0.0580367 16:-0.0277855 17:0.0737541 18:-0.108351 19:0.0657865 20:-0.204918 21:-0.326064 22:-0.0107649 23:-0.0729955 24:0.113024 25:0.0290423 26:-0.0154294 
0.125 0.125 1:0.67786 2:0.266869 3:0.220022 4:-0.510784 5:0.0915009 6:-0.174395 7:0.502911 8:-0.279977 9:-0.315516 10:-0.351413 11:-0.342777 12:0.104933 13:-0.376869 14:0.268514 15:-0.00216964 16:-0.0141939 17:-0.0185287 18:-0.114946 19:0.0811405 20:-0.106413 21:-0.297731 22:0.0951444 23:-0.0543159 24:-0.115381 25:0.0604915 26:-0.019557 
0.125 0.125 1:0.68983 2:0.261085 3:0.24273 4:-0.484432 5:0.0848415 6:-0.138692 7:0.500407 8:-0.398956 9:-0.318959 10:-0.413043 11:-0.215291 12:0.184596 13:-0.320989 14:0.271194 15:-0.0445122 16:-0.00394065 17:-0.0543935 18:-0.0526 19:0.128327 20:-0.00441929 21:-0.144316 22:0.115679 23:0.0316749 24:-0.205598 25:0.0578229 26:-0.02272 
0.125 0.125 1:0.704711 2:0.245166 3:0.210418 4:-0.509593 5:0.105995 6:-0.134461 7:0.405685 8:-0.530501 9:-0.205494 10:-0.420671 11:-0.128842 12:0.248686 13:-0.244021 14:0.245901 15:-0.0404066 16:-0.000945703 17:-0.0157526 18:-0.0808418 19:0.202595 20:0.0195056 21:0.0388112 22:-0.0604463 23:0.0360766 24:-0.180025 25:0.0494188 26:-0.0235794 
0.125 0.125 1:0.710425 2:0.233468 3:0.204303 4:-0.495499 5:0.145478 6:-0.0854662 7:0.393566 8:-0.611035 9:-0.0544959 10:-0.408029 11:-0.146192 12:0.242843 13:-0.280875 14:0.185312 15:0.00775817 16:-0.0171308 17:0.0552902 18:-0.210448 19:0.270295 20:-0.0923621 21:0.157495 22:-0.364243 23:-0.0026524 24:-0.071408 25:0.0404575 26:-0.0196583 
0.125 0.125 1:0.697586 2:0.206038 3:0.17075 4:-0.479005 5:0.173607 6:-0.0343773 7:0.450229 8:-0.588493 9:0.0448878 10:-0.337835 11:-0.160674 12:0.262325 13:-0.222729 14:0.0975025 15:-0.0215977 16:0.0258683 17:0.0836972 18:-0.236314 19:0.21238 20:-0.163867 21:0.14607 22:-0.622529 23:-0.0569323 24:0.0372414 25:0.0188931 26:-0.0183441 
0.125 0.125 1:0.673521 2:0.205689 3:0.124429 4:-0.435929 5:0.173458 6:0.0580466 7:0.442954 8:-0.546029 9:-0.0109828 10:-0.316333 11:-0.151631 12:0.382634 13:-0.165125 14:0.0685807 15:-0.143959 16:0.0958916 17:0.0250254 18:-0.0109251 19:0.00192467 20:-0.0950134 21:0.11948 22:-0.5807 23:-0.0378541 24:0.0747484 25:-0.086557 26:-0.0278023 
0.125 0.125 1:0.62492 2:0.283607 3:0.0501072 4:-0.342561 5:0.0124158 6:0.274865 7:0.274385 8:-0.449736 9:-0.119112 10:-0.400262 11:-0.0369224 12:0.484176 13:-0.0224237 14:0.132613 15:-0.291927 16:0.148002 17:-0.0991302 18:0.371524 19:-0.345828 20:0.0275332 21:0.0214426 22:-0.253581 23:0.0502115 24:0.00664056 25:-0.254887 26:-0.0366695 
0.125 0.125 1:0.474641 2:0.339696 3:-0.0567247 4:-0.23552 5:-0.145161 6:0.463514 7:0.141237 8:-0.366782 9:-0.355461 10:-0.34438 11:-0.0147771 12:0.465253 13:0.096447 14:0.292035 15:-0.403733 16:0.137653 17:-0.196238 18:0.533571 19:-0.610066 20:0.0531589 21:-0.0500071 22:0.16602 23:-0.00900565 24:-0.0825892 25:-0.410204 26:-0.037373 
0.125 0.125 1:0.262301 2:0.143733 3:0.0188946 4:-0.239589 5:0.0710895 6:0.317323 7:0.316822 8:-0.296869 9:-0.589067 10:-0.299195 11:0.0163668 12:0.526804 13:0.0661144 14:0.473394 15:-0.315709 16:0.112029 17:-0.239789 18:0.283064 19:-0.539693 20:-0.0784853 21:-0.213849 22:0.378788 23:-0.15118 24:-0.096926 25:-0.431838 26:-0.0280234 
0.125 0.125 1:0.259779 2:0.068218 3:-0.00284184 4:-0.226515 5:0.356482 6:0.23975 7:0.344984 8:0.0171103 9:-0.456876 10:-0.182039 11:0.0314123 12:0.425145 13:-0.454113 14:0.524645 15:-0.190221 16:0.207609 17:-0.236707 18:-0.142227 19:-0.277735 20:-0.0640651 21:-0.481284 22:0.223188 23:-0.209167 24:-0.0268219 25:-0.232036 26:-0.010918 
0.125 0.125 1:0.229197 2:0.0766171 3:-0.113757 4:-0.222796 5:0.440896 6:0.0809181 7:0.160245 8:-0.0773611 9:-0.321378 10:-0.141476 11:0.0095837 12:0.285786 13:-0.143421 14:0.473622 15:-0.126814 16:0.375154 17:-0.218003 18:-0.417215 19:0.0444312 20:0.106735 21:-0.47147 22:0.0585171 23:-0.0690094 24:0.0945337 25:0.0928978 26:-0.00892334 
0.125 0.125 1:0.202182 2:-0.154597 3:-0.247371 4:-0.207313 5:0.32451 6:-0.104494 7:0.0439096 8:0.114991 9:-0.297805 10:-0.416453 11:-0.0710293 12:0.0449002 13:-0.00539885 14:0.369456 15:-0.0414359 16:0.481512 17:-0.174219 18:-0.38648 19:0.213965 20:0.207989 21:-0.331201 22:-0.0212759 23:0.194859 24:0.17228 25:0.350898 26:-0.0165191 
0.125 0.125 1:0.245295 2:-0.187901 3:-0.0148148 4:-0.328133 5:0.411535 6:-0.123043 7:0.150203 8:-0.131979 9:-0.369711 10:-0.459426 11:0.0539167 12:0.122202 13:-0.116163 14:0.288903 15:-0.0676773 16:0.329329 17:-0.0853275 18:-0.187393 19:0.169715 20:0.0495188 21:-0.0612475 22:0.0692829 23:0.231815 24:0.132766 25:0.310777 26:-0.0258662 
0.125 0.125 1:0.251669 2:-0.224561 3:0.170955 4:-0.332751 5:0.398639 6:-0.137559 7:0.385323 8:-0.247698 9:-0.352991 10:-0.133962 11:0.125613 12:0.1706 13:0.0519113 14:0.295976 15:-0.061797 16:0.0317033 17:-0.018706 18:-0.00232828 19:0.0941731 20:-0.294341 21:0.0578373 22:0.144511 23:0.0472896 24:0.0579501 25:0.0736586 26:-0.0351363 
0.125 0.125 1:0.199575 2:-0.378435 3:0.230232 4:-0.403016 5:0.278065 6:-0.193106 7:0.32829 8:0.036787 9:0.0114763 10:0.027329 11:0.205988 12:0.313368 13:0.208558 14:0.33428 15:0.0302467 16:-0.191332 17:0.052034 18:0.0725708 19:0.0573492 20:-0.404624 21:-0.143629 22:-0.120163 23:-0.184112 24:-0.0654337 25:-0.208417 26:-0.038538 
0.125 0.125 1:0.188972 2:-0.428139 3:0.312868 4:-0.384089 5:0.236847 6:-0.29573 7:0.202332 8:0.169484 9:-0.0565797 10:-0.0646953 11:0.23929 12:0.270578 13:0.000451602 14:0.340432 15:0.0962425 16:-0.290937 17:0.0683346 18:0.0935027 19:0.107027 20:-0.207286 21:-0.312414 22:-0.297966 23:-0.272068 24:-0.189497 25:-0.362911 26:-0.0342637 
0.125 0.125 1:0.236626 2:-0.492857 3:0.301822 4:-0.418295 5:0.421298 6:-0.29312 7:0.108516 8:-0.0112832 9:0.142192 10:-0.106449 11:0.302713 12:0.229987 13:-0.0618796 14:0.294067 15:0.166697 16:-0.275851 17:0.0478052 18:0.0371366 19:0.156504 20:0.113731 21:-0.315128 22:-0.332104 23:-0.177909 24:-0.211443 25:-0.354956 26:-0.0284871 
0.125 0.125 1:0.263515 2:-0.553682 3:0.19563 4:-0.41105 5:0.349645 6:-0.321462 7:0.0562504 8:0.0245888 9:0.265246 10:0.122395 11:0.366216 12:0.194246 13:-0.0337347 14:0.237615 15:0.147199 16:-0.199112 17:0.0239163 18:-0.0464461 19:0.120293 20:0.295782 21:-0.197345 22:-0.169606 23:-0.0640918 24:-0.156449 25:-0.213397 26:-0.0232937 
0.125 0.125 1:0.272883 2:-0.467072 3:0.144032 4:-0.346598 5:0.23585 6:-0.309975 7:0.0522325 8:0.0362917 9:-0.0473368 10:-0.0655743 11:0.208423 12:0.0959664 13:-0.382623 14:0.225719 15:0.0201507 16:-0.0749552 17:-0.039795 18:-0.0904217 19:0.0216923 20:0.139992 21:-0.103311 22:0.0765681 23:0.0147 24:-0.0237682 25:0.0590214 26:-0.0161227 
0.125 0.125 1:0.229969 2:-0.428743 3:-0.00937182 4:-0.314326 5:0.418546 6:-0.269133 7:0.128891 8:-0.0431661 9:0.0949605 10:-0.132368 11:0.0570488 12:-0.125327 13:-0.200641 14:0.284823 15:-0.0277738 16:0.106045 17:-0.106353 18:-0.113268 19:-0.0368252 20:-0.181642 21:-0.192557 22:-0.0972766 23:-0.0515596 24:0.131539 25:0.36167 26:-0.0167349 
0.125 0.125 1:0.2051 2:-0.461627 3:-0.275739 4:-0.341007 5:0.413544 6:-0.243782 7:0.247163 8:0.0322945 9:0.436067 10:0.0374781 11:0.205468 12:-0.196397 13:-0.274451 14:0.333308 15:-0.00462941 16:0.290913 17:-0.162817 18:-0.00526873 19:0.00370849 20:-0.37813 21:-0.377339 22:-0.413087 23:-0.168948 24:0.174582 25:0.414841 26:-0.0162517 
0.125 0.125 1:0.213149 2:-0.418391 3:-0.302143 4:-0.275982 5:0.178289 6:-0.347642 7:0.264219 8:0.0985762 9:0.416161 10:0.18173 11:0.201938 12:-0.0432849 13:-0.452223 14:0.295595 15:0.0465558 16:0.358142 17:-0.158413 18:0.128231 19:0.111741 20:-0.253967 21:-0.434549 22:-0.553741 23:-0.225023 24:0.16068 25:0.118074 26:-0.0162721 
0.125 0.125 1:0.227315 2:-0.384022 3:-0.31185 4:-0.266084 5:0.236082 6:-0.343449 7:-0.014806 8:-0.0509895 9:0.287144 10:-0.0817894 11:0.0463796 12:0.066717 13:-0.288433 14:0.243064 15:0.23319 16:0.41121 17:-0.0763062 18:0.0111847 19:0.15926 20:0.170564 21:-0.275478 22:-0.411123 23:-0.182618 24:0.140653 25:-0.173378 26:-0.0207903 
0.125 0.125 1:0.254143 2:-0.279937 3:-0.422423 4:-0.361193 5:0.38689 6:-0.24897 7:-0.136942 8:-0.295884 9:0.0799919 10:-0.20666 11:0.27586 12:0.219062 13:-0.160154 14:0.266801 15:0.374428 16:0.463128 17:-0.000776397 18:-0.253374 19:0.143045 20:0.48601 21:-0.031162 22:-0.0712271 23:-0.09699 24:-0.038708 25:-0.275239 26:-0.0256202 
0.125 0.125 1:0.221766 2:-0.226629 3:-0.392134 4:-0.397525 5:0.369257 6:-0.201213 7:0.0198444 8:-0.328709 9:0.0264216 10:-0.0858347 11:0.372863 12:0.0578099 13:-0.350381 14:0.376852 15:0.378819 16:0.399482 17:-0.0269179 18:-0.409996 19:0.0990144 20:0.421484 21:0.099749 22:0.130612 23:-0.130954 24:-0.178901 25:-0.0777718 26:-0.0296084 
0.125 0.125 1:0.0976078 2:-0.0929983 3:-0.310571 4:-0.258111 5:0.320784 6:-0.176049 7:0.173791 8:-0.366614 9:-0.00820924 10:-0.13898 11:0.283328 12:-0.120771 13:-0.273025 14:0.490036 15:0.155056 16:0.204931 17:-0.138721 18:-0.351776 19:0.0119959 20:0.0931149 21:0.0912554 22:0.113202 23:-0.13114 24:-0.262452 25:0.0975709 26:-0.0337412 
0.125 0 1:0.153653 2:0.3825 3:-0.107684 4:-0.236033 5:0.044133 6:-0.12996 7:0.310763 8:-0.2796 9:0.0378603 10:-0.387137 11:0.383784 12:0.119469 13:-0.11197 14:0.449518 15:-0.336651 16:-0.0799593 17:-0.230119 18:-0.0326642 19:-0.153081 20:-0.296108 21:-0.0134522 22:0.00201638 23:-0.0245997 24:-0.311623 25:-0.0805008 26:-0.0321519 
0.125 0 1:0.327446 2:0.588101 3:0.0172936 4:-0.351068 5:-0.0964266 6:0.0175508 7:0.426169 8:-0.327983 9:-0.0758612 10:-0.404631 11:0.162432 12:0.194267 13:-0.440771 14:0.266364 15:-0.671714 16:-0.23925 17:-0.171072 18:0.134734 19:-0.349411 20:-0.507383 21:-0.0262715 22:-0.0121425 23:0.134487 24:-0.17907 25:-0.324363 26:-0.0195957 
0.125 0 1:0.36486 2:0.62757 3:-0.03438 4:-0.407792 5:-0.0334083 6:0.0445887 7:0.447018 8:-0.322426 9:0.0164335 10:-0.57423 11:0.117483 12:0.127873 13:-0.52444 14:0.10418 15:-0.753826 16:-0.159865 17:0.0508348 18:0.0674341 19:-0.328297 20:-0.487534 21:0.0522064 22:-0.0215443 23:0.317205 24:-0.0235771 25:-0.401225 26:-0.0104338 
0 0.125 1:0.233752 2:0.372763 3:-0.299144 4:-0.084619 5:-0.43692 6:-0.0132871 7:0.0603129 8:0.32489 9:0.0200217 10:-0.155682 11:-0.1048 12:-0.380282 13:-0.320689 14:0.415587 15:0.059179 16:0.191619 17:-0.341491 18:0.217094 19:-0.120143 20:0.00886334 21:-0.54356 22:-0.237341 23:-0.0998078 24:-0.00444779 25:0.302459 26:-0.0196962 
0 0.125 1:0.289155 2:0.246469 3:-0.296611 4:-0.181268 5:-0.36054 6:0.0188373 7:0.0945608 8:0.346632 9:0.148256 10:0.231882 11:0.143499 12:-0.159621 13:-0.125555 14:0.311928 15:0.274064 16:0.28329 17:-0.244203 18:0.0318619 19:-0.344129 20:-0.162558 21:-0.468083 22:-0.354676 23:-0.295764 24:-0.195617 25:0.142787 26:-0.0161054 
0 0.125 1:0.301951 2:0.262336 3:-0.274522 4:-0.12126 5:-0.336359 6:0.00315434 7:-0.0222648 8:0.23182 9:-0.0598226 10:0.105924 11:-0.0111931 12:-0.224114 13:-0.0467657 14:0.305538 15:0.217647 16:0.246914 17:-0.173702 18:-0.101894 19:-0.275603 20:-0.0276435 21:-0.235274 22:-0.225352 23:-0.210657 24:-0.0351604 25:0.0246773 26:-0.024828 
0 0.125 1:0.316466 2:0.31374 3:-0.237116 4:-0.177459 5:-0.361027 6:-0.129841 7:-0.149721 8:0.147314 9:-0.110349 10:0.166335 11:-0.0549257 12:-0.0888049 13:0.258871 14:0.319337 15:0.0784265 16:0.203389 17:-0.16731 18:-0.13823 19:-0.159364 20:0.184702 21:-0.0484394 22:-0.103687 23:-0.19528 24:0.015679 25:-0.208361 26:-0.0340196 
0 0.125 1:0.347764 2:0.390077 3:-0.133782 4:-0.340127 5:-0.229041 6:-0.21621 7:-0.13476 8:0.074995 9:-0.263036 10:0.193363 11:-0.00153558 12:0.0785606 13:0.336164 14:0.304518 15:-0.0818957 16:0.141831 17:-0.127283 18:-0.0842808 19:-0.00353787 20:0.345472 21:-0.010025 22:0.0162345 23:-0.186782 24:-0.0232453 25:-0.323355 26:-0.0332574 
0.125 0.125 1:0.386907 2:0.491101 3:-0.0736536 4:-0.295219 5:-0.346497 6:-0.311195 7:-0.189765 8:0.0767298 9:-0.302254 10:0.180692 11:0.0837239 12:0.0703806 13:0.256007 14:0.260491 15:-0.217015 16:0.0711985 17:-0.126347 18:0.163494 19:0.198658 20:0.35703 21:-0.136071 22:0.000208218 23:-0.210507 24:-0.0784314 25:-0.205678 26:-0.0274632 
0.125 0.125 1:0.42362 2:0.513527 3:-0.0308044 4:-0.36174 5:-0.452065 6:-0.440798 7:-0.0714709 8:0.100404 9:-0.327869 10:0.164418 11:-0.0145455 12:-0.00461535 13:0.170526 14:0.207741 15:-0.275457 16:0.004706 17:-0.0584753 18:0.381802 19:0.340576 20:0.148834 21:-0.289549 22:-0.0474565 23:-0.199675 24:0.0305348 25:-0.0112316 26:-0.0222802 
0.125 0.125 1:0.440119 2:0.533516 3:0.0817369 4:-0.506911 5:-0.320256 6:-0.491828 7:0.0785223 8:0.139077 9:-0.411169 10:0.0146377 11:-0.136763 12:-0.082775 13:0.361963 14:0.171565 15:-0.295829 16:-0.0463911 17:0.0572745 18:0.355804 19:0.344436 20:-0.132178 21:-0.334201 22:0.0380569 23:-0.0488658 24:0.252655 25:0.148325 26:-0.0254287 
0.125 0.125 1:0.435195 2:0.538914 3:0.0955589 4:-0.560624 5:-0.171878 6:-0.418931 7:0.216539 8:-0.0306191 9:-0.480131 10:-0.0410125 11:-0.168323 12:0.00143647 13:0.455572 14:0.156935 15:-0.285261 16:-0.0167964 17:0.142789 18:0.165886 19:0.227617 20:-0.305339 21:-0.206155 22:0.178861 23:0.119731 24:0.379029 25:0.0600512 26:-0.0320005 
0.125 0.125 1:0.410249 2:0.531405 3:0.0553308 4:-0.594012 5:-0.0297175 6:-0.307069 7:0.232921 8:-0.177392 9:-0.511266 10:-0.141879 11:-0.0483466 12:0.167863 13:0.393707 14:0.168649 15:-0.251079 16:0.0706346 17:0.176039 18:-0.0885711 19:0.112523 20:-0.299398 21:-0.0286492 22:0.297555 23:0.250927 24:0.294577 25:-0.162676 26:-0.0329191 
0.125 0.125 1:0.361677 2:0.469862 3:0.058936 4:-0.572063 5:0.109376 6:-0.316533 7:0.207656 8:-0.196596 9:-0.507287 10:-0.131594 11:0.144352 12:0.191979 13:0.332636 14:0.194468 15:-0.197334 16:0.171685 17:0.112647 18:-0.202948 19:0.146637 20:-0.23225 21:0.076348 22:0.32289 23:0.241592 24:0.0299195 25:-0.218733 26:-0.030842 
0.125 0.125 1:0.30565 2:0.402858 3:0.0727136 4:-0.511851 5:0.157616 6:-0.264773 7:0.168895 8:-0.186506 9:-0.315894 10:-0.0924425 11:0.275457 12:0.130212 13:0.285986 14:0.202443 15:-0.131137 16:0.209842 17:0.0722058 18:-0.13863 19:0.186638 20:-0.20669 21:0.106325 22:0.165854 23:0.0955958 24:-0.242227 25:-0.103288 26:-0.0269031 
0.125 0.125 1:0.221571 2:0.356903 3:0.092043 4:-0.497917 5:0.209038 6:-0.203368 7:0.23213 8:-0.221135 9:-0.140061 10:0.0860844 11:0.367568 12:0.0727944 13:0.220122 14:0.201249 15:-0.0648163 16:0.124011 17:0.137785 18:-0.104336 19:0.129884 20:-0.183358 21:0.0550758 22:-0.156831 23:-0.171764 24:-0.43203 25:0.0290802 26:-0.0229926 
0.125 0.125 1:0.165348 2:0.308904 3:0.154325 4:-0.483884 5:0.278654 6:-0.0381954 7:0.248789 8:-0.172291 9:-0.0358756 10:0.149334 11:0.435502 12:0.0876933 13:0.221234 14:0.212084 15:-0.0211927 16:-0.00800455 17:0.187969 18:-0.187323 19:-0.0746778 20:-0.0401686 21:-0.069487 22:-0.460398 23:-0.319069 24:-0.428926 25:0.0697535 26:-0.0226431 
0.125 0.125 1:0.079755 2:0.241948 3:0.256865 4:-0.385905 5:0.356407 6:0.184698 7:0.0233228 8:-0.0576629 9:0.194525 10:0.15107 11:0.328539 12:0.211781 13:0.00900291 14:0.322157 15:-0.101253 16:-0.0938877 17:0.0820687 18:-0.394599 19:-0.294918 20:0.167063 21:-0.164185 22:-0.702251 23:-0.243186 24:-0.27308 25:-0.00332063 26:-0.0208936 
0.125 0.125 1:-0.0703752 2:0.201837 3:0.210454 4:-0.2158 5:0.433535 6:0.170506 7:-0.0320572 8:0.0572278 9:0.247013 10:0.113701 11:0.150017 12:0.203678 13:0.016848 14:0.58771 15:-0.265949 16:-0.0572191 17:-0.219874 18:-0.554957 19:-0.365217 20:0.135561 21:-0.232729 22:-0.667033 23:-0.0505723 24:-0.0382218 25:-0.0373633 26:-0.0211599 
0.125 0.125 1:-0.183517 2:0.226078 3:0.0872804 4:-0.0217863 5:0.352389 6:0.148918 7:0.135464 8:0.0318707 9:-0.0755692 10:-0.130385 11:-0.0528124 12:0.14082 13:0.142197 14:0.815815 15:-0.367325 16:0.0913363 17:-0.522748 18:-0.420053 19:-0.366153 20:-0.142145 21:-0.220425 22:-0.333281 23:0.149465 24:0.176931 25:-0.0583628 26:-0.022195 
0.125 0.125 1:-0.217128 2:0.183015 3:0.0808686 4:0.0365156 5:0.19591 6:0.150016 7:0.296317 8:-0.0323407 9:-0.104839 10:0.000251565 11:0.0156407 12:0.259625 13:-0.0984086 14:0.790258 15:-0.24526 16:0.188888 17:-0.60773 18:0.0112375 19:-0.335649 20:-0.411803 21:-0.192939 22:0.0396217 23:0.0969365 24:0.272146 25:-0.207424 26:-0.017765 
0.125 0.125 1:-0.0596576 2:-0.112476 3:0.0740666 4:-0.0464584 5:-0.056471 6:0.152512 7:0.142254 8:0.182111 9:-0.286125 10:0.145983 11:-0.151498 12:0.300793 13:-0.149314 14:0.494519 15:0.285072 16:0.225276 17:-0.422642 18:0.469096 19:-0.175158 20:-0.290412 21:-0.378735 22:0.317888 23:-0.146747 24:0.359569 25:-0.319921 26:-0.0168769 
0.125 0.125 1:0.312958 2:-0.270717 3:0.022665 4:-0.24973 5:-0.133649 6:-0.0471237 7:-0.0605701 8:0.137894 9:-0.337514 10:0.107004 11:-0.130593 12:0.281647 13:-0.0141834 14:0.126582 15:0.759279 16:0.20562 17:-0.12882 18:0.544126 19:0.175762 20:0.0675148 21:-0.470057 22:0.285556 23:-0.348235 24:0.33785 25:-0.301335 26:-0.0212301 
0.125 0.125 1:0.40488 2:-0.225294 3:0.116329 4:-0.278816 5:-0.0450339 6:-0.200252 7:-0.126331 8:0.115034 9:-0.279002 10:0.0863793 11:-0.0657401 12:0.190963 13:-0.0193803 14:-0.00132595 15:0.815748 16:0.141111 17:0.0445303 18:0.199138 19:0.538706 20:0.319247 21:-0.426616 22:0.0518035 23:-0.399815 24:0.228993 25:-0.0682625 26:-0.0256258 
0.125 0.125 1:0.268834 2:-0.154185 3:0.0702505 4:-0.353133 5:0.180469 6:-0.307725 7:-0.156061 8:0.0794093 9:-0.0397628 10:0.0960762 11:0.10057 12:-0.0336908 13:-0.018307 14:0.0786335 15:0.407036 16:0.123626 17:0.0961089 18:-0.272966 19:0.631046 20:0.310402 21:-0.198821 22:-0.194642 23:-0.182395 24:0.0150612 25:0.281836 26:-0.027959 
0.125 0.125 1:0.329976 2:0.361963 3:0.11733 4:-0.381938 5:0.19288 6:-0.0821815 7:0.0550733 8:-0.310755 9:-0.127081 10:-0.252398 11:0.248545 12:-0.0300795 13:-0.00809427 14:0.132594 15:-0.388063 16:0.0247086 17:0.112764 18:-0.427834 19:0.242045 20:0.0947786 21:0.156838 22:-0.215938 23:0.23855 24:-0.217769 25:0.447447 26:-0.0245149 
0.125 0.125 1:0.450844 2:0.494491 3:0.144024 4:-0.446725 5:0.0168776 6:0.144385 7:0.013349 8:-0.216735 9:-0.178289 10:-0.371219 11:0.293016 12:0.0235214 13:-0.151435 14:0.104723 15:-0.906617 16:-0.0864524 17:0.162741 18:-0.115369 19:-0.235631 20:0.00493304 21:0.179343 22:-0.0934227 23:0.459276 24:-0.269384 25:0.354523 26:-0.0209523 
0.125 0.125 1:0.434921 2:0.505126 3:0.152686 4:-0.433438 5:-0.0884775 6:0.26644 7:0.0477693 8:-0.16554 9:-0.132216 10:-0.358882 11:0.335122 12:0.149159 13:-0.104326 14:0.0902647 15:-1 16:-0.0997945 17:0.18353 18:0.360092 19:-0.464355 20:-0.0825771 21:0.116444 22:0.0511547 23:0.390049 24:-0.187749 25:-0.00103585 26:0.0848411 
0.125 0.125 1:0.300079 2:0.470872 3:0.129105 4:-0.443056 5:-0.144634 6:0.211311 7:0.113015 8:-0.101715 9:-0.172235 10:-0.15305 11:0.21405 12:0.283069 13:-0.033233 14:0.211787 15:-0.72898 16:-0.00290169 17:0.137824 18:0.61001 19:-0.369339 20:-0.168213 21:-0.0356962 22:0.0860442 23:0.0941961 24:-0.028314 25:-0.368104 26:-0.0270828 
0.125 0.125 1:0.214842 2:0.28348 3:-0.0550125 4:-0.304093 5:-0.100146 6:0.00204406 7:0.24162 8:-0.042363 9:-0.0250318 10:0.104894 11:0.175647 12:0.465762 13:-0.0455524 14:0.396262 15:-0.255249 16:0.185974 17:-0.0189136 18:0.398216 19:-0.100495 20:-0.221432 21:-0.208448 22:-0.164091 23:-0.287899 24:-0.0231376 25:-0.480206 26:-0.0259043 
0.125 0.125 1:0.151832 2:0.0268714 3:-0.153815 4:-0.216369 5:0.128028 6:0.103824 7:0.252602 8:-0.0685661 9:-0.00100277 10:0.0315878 11:0.227662 12:0.393017 13:-0.20272 14:0.483188 15:0.0678874 16:0.280447 17:-0.21376 18:-0.158088 19:0.0507902 20:-0.232962 21:-0.256272 22:-0.388712 23:-0.3968 24:-0.10859 25:-0.236144 26:-0.0165474 
0.125 0.125 1:0.159942 2:-0.0435259 3:-0.0892467 4:-0.206675 5:0.383649 6:0.0576483 7:0.107179 8:0.169341 9:0.155194 10:0.00160452 11:0.247179 12:0.142492 13:-0.190815 14:0.422106 15:0.16672 16:0.210228 17:-0.29014 18:-0.637643 19:0.146764 20:-0.130917 21:-0.392337 22:-0.502152 23:-0.247822 24:-0.124998 25:0.0398299 26:-0.0124119 
0.125 0.125 1:0.204891 2:-0.0570719 3:-0.0394936 4:-0.12872 5:0.363172 6:-0.0399201 7:0.155907 8:0.0895633 9:0.0602776 10:0.114739 11:0.178967 12:0.132914 13:-0.211902 14:0.316908 15:0.127664 16:0.0497088 17:-0.201575 18:-0.642792 19:0.104491 20:-0.108739 21:-0.36545 22:-0.354552 23:0.00386159 24:0.00563804 25:-0.0215873 26:-0.0218964 
0.125 0.125 1:0.223039 2:-0.152402 3:-0.117408 4:-0.166352 5:0.210406 6:-0.0936093 7:0.208446 8:-0.0121604 9:-0.216238 10:-0.155128 11:-0.106625 12:0.289594 13:-0.0968542 14:0.259065 15:0.0818361 16:-0.11552 17:0.0167566 18:-0.179385 19:-0.064733 20:-0.166859 21:-0.200757 22:-0.0575507 23:0.239699 24:0.232721 25:-0.163473 26:-0.0361913 
0.125 0.125 1:0.195983 2:-0.211631 3:-0.12453 4:-0.314386 5:0.00420343 6:0.0967592 7:0.111812 8:0.0163735 9:-0.266029 10:-0.214497 11:-0.0646561 12:0.423592 13:0.21261 14:0.241124 15:0.0507413 16:-0.197259 17:0.172058 18:0.34467 19:-0.310194 20:-0.26578 21:0.00943555 22:0.0840041 23:0.163895 24:0.247826 25:-0.0911927 26:-0.0390759 
0.125 0.125 1:0.176211 2:-0.236334 3:-0.164998 4:-0.235956 5:-0.0732069 6:0.0782598 7:0.0564994 8:-0.0935879 9:-0.238347 10:0.142677 11:0.025347 12:0.0854149 13:-0.064764 14:0.230343 15:0.0608755 16:-0.14205 17:0.0669795 18:0.503666 19:-0.359369 20:-0.266997 21:0.149013 22:0.0564418 23:-0.1959 24:0.0985772 25:0.3546 26:-0.0165936 
0.125 0.125 1:0.204206 2:-0.216491 3:-0.328833 4:0.00558558 5:0.0478816 6:-0.180886 7:0.032824 8:-0.0786048 9:-0.245585 10:0.263891 11:0.117072 12:-0.215022 13:-0.554134 14:0.200558 15:0.0467362 16:0.00748133 17:-0.203232 18:0.223951 19:-0.0768694 20:-0.0770467 21:-0.055583 22:-0.0345989 23:-0.404532 24:-0.0935144 25:0.655535 26:0.0096877 
0.125 0.125 1:0.185542 2:-0.203891 3:-0.605901 4:0.0100976 5:0.275513 6:-0.340762 7:-0.118533 8:0.0995104 9:-0.328105 10:0.123046 11:0.0825999 12:0.202347 13:-0.374458 14:0.19576 15:0.0134452 16:0.219394 17:-0.344579 18:-0.170214 19:0.330667 20:0.278114 21:-0.368376 22:-0.0360088 23:-0.403661 24:-0.200809 25:0.275909 26:0.0113378 
0.125 0.125 1:0.107988 2:-0.243456 3:-0.682092 4:-0.032292 5:0.234582 6:-0.470656 7:-0.37112 8:0.305079 9:-0.314393 10:-0.0314232 11:0.00476712 12:0.561569 13:0.103762 14:0.261903 15:0.0695761 16:0.429738 17:-0.277192 18:-0.275827 19:0.562034 20:0.608512 21:-0.486554 22:0.0527828 23:-0.15672 24:-0.122624 25:-0.3276 26:-0.0115546 
0.125 0.125 1:0.0458943 2:-0.172936 3:-0.714603 4:-0.0968189 5:0.180309 6:-0.404314 7:-0.259263 8:0.168706 9:-0.376859 10:-0.226422 11:0.0189373 12:0.678233 13:0.451605 14:0.396216 15:0.21083 16:0.596439 17:-0.0432317 18:-0.204304 19:0.41279 20:0.583715 21:-0.230304 22:0.0791172 23:0.0565195 24:-0.0422332 25:-0.709557 26:-0.0436462 
0.125 0.125 1:-0.00301149 2:-0.110706 3:-0.84832 4:-0.153716 5:0.153237 6:-0.323969 7:-0.0983717 8:-0.166718 9:-0.302201 10:-0.0694792 11:-0.0568875 12:0.544885 13:0.553719 14:0.525937 15:0.343768 16:0.688385 17:0.103012 18:-0.209717 19:0.169233 20:0.268405 21:0.176999 22:-0.00579734 23:0.0340922 24:0.0247382 25:-0.544485 26:-0.0575714 
0.125 0 1:-0.0379642 2:-0.108298 3:-0.818556 4:-0.130784 5:0.137344 6:-0.134524 7:0.149206 8:-0.10145 9:-0.246258 10:-0.319895 11:-0.231941 12:0.377479 13:0.576975 14:0.566657 15:0.33333 16:0.572362 17:0.0290785 18:-0.319696 19:0.00723918 20:-0.140631 21:0.278737 22:-0.0318419 23:0.168284 24:0.0631661 25:-0.0909547 26:-0.0489963 
0.125 0 1:0.110078 2:0.760236 3:-0.0218906 4:-0.148332 5:-0.150106 6:0.0945885 7:0.563659 8:0.42318 9:0.285798 10:-0.180112 11:-0.2859 12:0.22828 13:0.548621 14:0.31893 15:-0.181014 16:0.0507347 17:-0.0655742 18:0.0954022 19:0.00831949 20:-0.205108 21:-0.436964 22:-0.290432 23:0.198272 24:0.392186 25:0.223303 26:-0.042343 
0.125 0 1:0.0887229 2:0.76837 3:-0.0348571 4:-0.146572 5:-0.0831175 6:0.170864 7:0.519029 8:0.309854 9:0.198521 10:-0.138657 11:-0.363385 12:0.417072 13:0.563961 14:0.33541 15:-0.225253 16:0.038824 17:0.0110961 18:0.0719499 19:-0.0652802 20:-0.202134 21:-0.361007 22:-0.0785404 23:0.328875 24:0.350964 25:-0.220601 26:-0.0409347 
0.125 0 1:0.102291 2:0.713816 3:-0.0653241 4:-0.117246 5:-0.0729025 6:0.200944 7:0.600745 8:0.258689 9:-0.185298 10:0.0561786 11:-0.0675936 12:0.47355 13:0.39027 14:0.330542 15:-0.21112 16:0.0778647 17:0.0465617 18:-0.0299707 19:-0.132919 20:-0.174382 21:-0.269604 22:0.205528 23:0.2425 24:-0.00796934 25:-0.567399 26:-0.0262335 
0.125 0 1:0.132723 2:0.646055 3:-0.179451 4:-0.0911437 5:0.0286416 6:0.247856 7:0.480854 8:0.0121967 9:-0.111925 10:0.102432 11:0.133187 12:0.515817 13:0.180827 14:0.314174 15:-0.189011 16:0.223148 17:0.0998109 18:-0.233513 19:-0.197006 20:0.00313055 21:-0.140168 22:0.306946 23:-0.0282782 24:-0.293465 25:-0.522088 26:-0.0125338 
0.125 0 1:0.126174 2:0.622914 3:-0.270776 4:-0.0356359 5:0.120169 6:0.252739 7:0.401188 8:-0.23401 9:-0.0500455 10:0.234547 11:0.135792 12:0.426105 13:0.0518237 14:0.32355 15:-0.211043 16:0.391836 17:0.109547 18:-0.385491 19:-0.178333 20:0.167739 21:-0.0169582 22:0.314538 23:-0.374132 24:-0.266208 25:-0.175609 26:-0.00903283 
0.125 0.125 1:0.130251 2:0.557767 3:-0.250607 4:0.0142549 5:0.0785425 6:0.19529 7:0.420606 8:-0.228515 9:-0.144037 10:0.459982 11:-0.017945 12:0.192068 13:0.148417 14:0.336601 15:-0.241871 16:0.498018 17:0.0248035 18:-0.364124 19:-0.0498514 20:0.178832 21:0.0340938 22:0.234727 23:-0.580916 24:0.05026 25:0.147867 26:-0.0154871 
0.125 0.125 1:0.145466 2:0.487345 3:-0.20231 4:0.160896 5:-0.0239647 6:0.0913135 7:0.429609 8:-0.28455 9:-0.0678304 10:0.439468 11:-0.139195 12:0.0933609 13:0.300292 14:0.312036 15:-0.230189 16:0.476393 17:-0.144792 18:-0.169183 19:0.0447431 20:0.048173 21:0.113367 22:-0.0191251 23:-0.482659 24:0.359127 25:0.154781 26:-0.0232265 
0.125 0 1:0.183681 2:0.374859 3:-0.0932126 4:0.315306 5:-0.144052 6:0.0735049 7:0.584585 8:-0.52686 9:0.193669 10:0.19589 11:-0.0169163 12:0.236395 13:0.186528 14:0.215077 15:-0.112297 16:0.305252 17:-0.296272 18:0.134948 19:0.00179261 20:-0.234953 21:0.176541 22:-0.283352 23:-0.142657 24:0.356611 25:-0.103239 26:-0.0214696 
0.125 0 1:0.244622 2:0.233124 3:0.0971728 4:0.326297 5:-0.222268 6:0.121857 7:0.613519 8:-0.518485 9:0.337068 10:-0.0636253 11:0.153771 12:0.334934 13:0.118506 14:0.0834034 15:0.0801305 16:-0.0320004 17:-0.338772 18:0.402363 19:-0.115808 20:-0.322293 21:0.145292 22:-0.426077 23:0.187773 24:0.0790644 25:-0.26711 26:-0.0119065 
0.125 0.125 1:0.239437 2:0.126339 3:0.322379 4:0.310212 5:-0.272899 6:0.0977331 7:0.548878 8:-0.353908 9:0.225255 10:-0.0766911 11:0.349531 12:0.166241 13:0.183652 14:0.0643056 15:0.226214 16:-0.398452 17:-0.290136 18:0.489537 19:-0.109565 20:-0.284866 21:0.0851422 22:-0.367022 23:0.257788 24:-0.297822 25:-0.0711732 26:-0.00990453 
0.125 0 1:0.180252 2:0.0746363 3:0.392979 4:0.313307 5:-0.219182 6:-0.023444 7:0.481189 8:-0.2669 9:0.130752 10:0.0192201 11:0.419736 12:-0.0825237 13:0.306198 14:0.17404 15:0.259728 16:-0.528039 17:-0.235872 18:0.317279 19:0.0370384 20:-0.22644 21:0.0329578 22:-0.175122 23:0.0949667 24:-0.506899 25:0.339406 26:-0.0200675 
0.125 0 1:0.0437347 2:0.086439 3:0.392028 4:0.306637 5:-0.0873825 6:-0.161038 7:0.3615 8:-0.340904 9:0.157684 10:0.0538315 11:0.481484 12:-0.121838 13:0.418951 14:0.32906 15:0.188457 16:-0.336346 17:-0.195911 18:-0.0630786 19:0.201384 20:-0.14704 21:-0.0164771 22:-0.0869037 23:-0.0678977 24:-0.447621 25:0.51734 26:-0.0335086 
0.125 0 1:-0.0877783 2:0.141483 3:0.0901254 4:0.20801 5:0.11234 6:-0.183986 7:0.464706 8:-0.1977 9:0.212638 10:-0.0468771 11:0.303589 12:0.0447455 13:0.801622 14:0.461695 15:-0.0299184 16:0.108322 17:-0.170839 18:-0.376824 19:0.187756 20:-0.166931 21:-0.179741 22:-0.210262 23:-0.0674722 24:-0.130342 25:0.296086 26:-0.0477416 
0.125 0.125 1:-0.0299031 2:0.182786 3:-0.133986 4:0.193828 5:0.142506 6:-0.0754043 7:0.232777 8:0.0896328 9:0.0642935 10:-0.0375131 11:0.0491639 12:0.215685 13:0.545196 14:0.529679 15:-0.239206 16:0.480661 17:-0.124305 18:-0.325906 19:0.0374375 20:-0.00639203 21:-0.390389 22:-0.236382 23:-0.0664962 24:0.214988 25:-0.222801 26:-0.0506626 
0.125 0.125 1:-0.0241411 2:0.212675 3:-0.0822613 4:0.0776195 5:0.0462523 6:-0.0989599 7:0.0841005 8:0.192205 9:0.126706 10:-0.0304672 11:-0.0346004 12:0.367089 13:0.371754 14:0.598379 15:-0.270366 16:0.502674 17:-0.00388393 18:0.0161452 19:-0.0684325 20:0.135261 21:-0.510973 22:-0.122594 23:-0.132985 24:0.337416 25:-0.580894 26:-0.0436919 
0.125 0 1:-0.124565 2:0.293022 3:-0.011182 4:0.044389 5:-0.117253 6:-0.128366 7:0.0902782 8:0.0865641 9:0.0383855 10:-0.0509833 11:0.0364171 12:0.340376 13:0.507346 14:0.647525 15:-0.104964 16:0.262843 17:0.0756463 18:0.342857 19:-0.0772956 20:0.165145 21:-0.482455 22:0.182612 23:-0.223612 24:0.248425 25:-0.534723 26:-0.0300164 
0.125 0.125 1:-0.00367654 2:0.0653878 3:0.0140267 4:-0.0807606 5:-0.0159046 6:-0.213755 7:0.0224324 8:-0.015697 9:-0.281045 10:0.0101442 11:0.136431 12:0.329128 13:0.0836737 14:0.550721 15:0.207297 16:-0.0399912 17:0.100785 18:0.285095 19:0.0132732 20:0.0958138 21:-0.38841 22:0.446932 23:-0.280074 24:0.0784956 25:-0.258037 26:-0.00657915 
0.125 0.125 1:0.259031 2:0.049321 3:0.139691 4:-0.0424931 5:0.206515 6:-0.161621 7:0.092704 8:0.122895 9:-0.0781754 10:-0.204014 11:0.114613 12:-0.0763276 13:-0.403439 14:0.328078 15:0.307351 16:-0.242835 17:0.0124725 18:-0.0919001 19:0.0714133 20:-0.136722 21:-0.38259 22:0.231129 23:-0.140242 24:-0.00507045 25:0.0836307 26:0.00685585 
0.125 0.125 1:0.41013 2:0.260338 3:0.0651891 4:0.00425815 5:0.290098 6:-0.22121 7:0.0155998 8:-0.013602 9:0.141126 10:-0.34865 11:0.0831776 12:-0.000319299 13:-0.14891 14:0.110634 15:0.116005 16:-0.197056 17:-0.128307 18:-0.415773 19:0.135442 20:-0.239895 21:-0.298339 22:-0.237965 23:0.0729718 24:-0.0275649 25:0.137592 26:-0.00222679 
0.125 0.125 1:0.496765 2:0.427661 3:-0.0992511 4:-0.0276278 5:0.306749 6:-0.249971 7:0.0354559 8:-0.218952 9:0.338544 10:-0.403274 11:0.165027 12:0.0704189 13:0.101827 14:0.00137513 15:-0.154478 16:-0.00778236 17:-0.180775 18:-0.509216 19:0.169377 20:-0.222471 21:-0.141121 22:-0.671004 23:0.227709 24:-0.0431978 25:0.0614536 26:-0.0216991 
0.125 0.125 1:0.565814 2:0.445446 3:-0.18006 4:-0.0975369 5:0.216796 6:-0.208528 7:-0.0940831 8:-0.336421 9:0.337483 10:-0.512504 11:0.216095 12:-0.0039463 13:0.132699 14:0.0217112 15:-0.31505 16:0.210289 17:-0.148508 18:-0.291395 19:0.0973825 20:-0.0265341 21:0.0308148 22:-0.711686 23:0.305002 24:-0.0373538 25:0.0704163 26:-0.0368237 
0.125 0.125 1:0.5759 2:0.508995 3:-0.333074 4:-0.130217 5:0.113661 6:-0.162883 7:-0.23617 8:-0.403462 9:0.104206 10:-0.505326 11:0.170479 12:-0.160902 13:0.102263 14:0.079941 15:-0.307998 16:0.411287 17:-0.0836925 18:0.0217553 19:-0.0382516 20:0.234236 21:0.144641 22:-0.296423 23:0.224216 24:0.051174 25:0.175926 26:-0.0351562 
0.125 0.125 1:0.569082 2:0.547765 3:-0.357272 4:-0.20095 5:0.0309743 6:-0.0805206 7:-0.305002 8:-0.398008 9:-0.129633 10:-0.332911 11:0.0894573 12:-0.0859551 13:-0.0439039 14:0.105486 15:-0.239162 16:0.416567 17:-0.036152 18:0.252276 19:-0.168703 20:0.34164 21:0.127851 22:0.210651 23:0.0851326 24:0.154315 25:0.235054 26:-0.0230148 
0.125 0.125 1:0.536569 2:0.558289 3:-0.340977 4:-0.234454 5:-0.0757463 6:-0.062063 7:-0.262864 8:-0.442593 9:-0.173387 10:-0.315299 11:0.18284 12:-0.0380382 13:-0.0957699 14:0.114831 15:-0.215204 16:0.273347 17:-0.0144861 18:0.35543 19:-0.125869 20:0.263712 21:0.104331 22:0.478161 23:-0.011947 24:0.0835238 25:0.127622 26:-0.0168437 
0.125 0.125 1:0.490865 2:0.569073 3:-0.256401 4:-0.25003 5:-0.00530035 6:-0.145722 7:-0.147038 8:-0.379064 9:-0.179918 10:-0.222967 11:0.224857 12:0.0484471 13:-0.0493673 14:0.118039 15:-0.244977 16:0.0757514 17:0.00420848 18:0.281636 19:0.0584833 20:0.0164545 21:-0.00649991 22:0.356673 23:-0.154624 24:-0.120919 25:-0.0419939 26:-0.0201402 
0.125 0.125 1:0.403146 2:0.553422 3:-0.154548 4:-0.329852 5:0.0715623 6:-0.215873 7:-0.0665326 8:-0.272165 9:-0.104999 10:-0.163353 11:0.375167 12:0.194466 13:0.0265383 14:0.13157 15:-0.247354 16:-0.0189775 17:0.0768793 18:0.166297 19:0.222992 20:-0.15121 21:-0.175441 22:-0.069748 23:-0.208161 24:-0.347466 25:-0.214665 26:-0.0246046 
0.125 0.125 1:0.298401 2:0.541192 3:-0.197539 4:-0.343063 5:0.116781 6:-0.163219 7:-0.0459496 8:-0.179201 9:0.188524 10:-0.0753767 11:0.377215 12:0.158866 13:-0.0690908 14:0.173273 15:-0.212159 16:0.0650947 17:0.160204 18:0.0466423 19:0.252454 20:-0.232524 21:-0.383182 22:-0.535066 23:-0.101412 24:-0.356045 25:-0.318947 26:-0.023626 
0.125 0.125 1:0.166201 2:0.497149 3:-0.285694 4:-0.304611 5:0.156099 6:-0.0507026 7:-0.0158116 8:-0.0823053 9:0.256254 10:-0.0646004 11:0.149144 12:0.151612 13:-0.0116948 14:0.258197 15:-0.153961 16:0.186579 17:0.173315 18:-0.150325 19:0.110769 20:-0.22055 21:-0.511287 22:-0.682536 23:0.0351681 24:-0.12317 25:-0.407126 26:-0.019434 
