svm_type c_svc
kernel_type rbf
gamma 0.5
nr_class 3
total_sv 4373
rho 0.115723 -0.351955 -0.647512
label 0 1 2
nr_sv 1362 1503 1508
SV
0.125 0.125 1:-0.268579 2:-0.00481803 3:-0.0354983 4:-0.0150296 5:0.405015 6:0.359249 7:-0.218899 8:0.153378 9:-0.096858 10:-0.104565 11:-0.152128 12:-0.0984592 13:0.392483 14:0.209579 15:-0.0914375 16:0.139623 17:-0.0656372 18:-0.0143248 19:0.0205577 20:-0.0855329 21:-0.157926 22:-0.0963419 23:-0.0448881 24:-0.0814612 25:-0.026829 26:-0.0234541 
0.125 0.125 1:0.0908013 2:-0.141267 3:-0.0483203 4:-0.00505534 5:0.468123 6:0.387705 7:-0.256136 8:0.216974 9:-0.0424297 10:-0.100817 11:-0.13936 12:-0.0430522 13:0.35441 14:0.209579 15:-0.0914375 16:0.139623 17:-0.0656372 18:-0.0143248 19:0.0205577 20:-0.0855329 21:-0.157926 22:-0.0963419 23:-0.0448881 24:-0.0814612 25:-0.026829 26:-0.0234541 
0.125 0.125 1:0.229422 2:-0.227251 3:-0.08511 4:-0.045787 5:0.380726 6:0.410006 7:-0.436183 8:0.146325 9:-0.00937526 10:-0.16054 11:-0.0135507 12:-0.0726651 13:0.453273 14:0.209579 15:-0.0914375 16:0.139623 17:-0.0656372 18:-0.0143248 19:0.0205577 20:-0.0855329 21:-0.157926 22:-0.0963419 23:-0.0448881 24:-0.0814612 25:-0.026829 26:-0.0234541 
0.125 0.125 1:0.278673 2:-0.250015 3:-0.191773 4:-0.15338 5:0.338215 6:0.476264 7:-0.62208 8:0.232981 9:0.12112 10:-0.30563 11:0.156886 12:-0.0406177 13:0.535364 14:0.209579 15:-0.0914375 16:0.139623 17:-0.0656372 18:-0.0143248 19:0.0205577 20:-0.0855329 21:-0.157926 22:-0.0963419 23:-0.0448881 24:-0.0814612 25:-0.026829 26:-0.0234541 
0.125 0.125 1:0.278826 2:-0.269604 3:-0.174497 4:-0.101069 5:0.20965 6:0.43673 7:-0.447961 8:0.436895 9:0.243299 10:-0.229818 11:0.338809 12:-0.293893 13:0.17829 14:-0.0369252 15:0.13138 16:0.152296 17:0.148628 18:0.167836 19:-0.250167 20:0.0429519 21:-0.342064 22:-0.270838 23:0.11725 24:-0.306594 25:-0.0366618 26:-0.0220287 
0.125 0.125 1:0.278935 2:-0.344236 3:-0.193583 4:0.0307919 5:0.37051 6:0.235915 7:-0.399331 8:0.347195 9:0.474483 10:0.0303736 11:0.398948 12:-0.191699 13:-0.177154 14:0.179853 15:0.313283 16:0.217887 17:-0.024231 18:-0.0525335 19:0.0175626 20:-0.0400031 21:-0.463275 22:-0.539665 23:-0.263049 24:-0.586736 25:0.0601117 26:-0.00742284 
0.125 0.125 1:0.27783 2:-0.330581 3:-0.237451 4:0.0956478 5:0.417978 6:0.130005 7:-0.50867 8:0.400074 9:0.452533 10:0.131108 11:0.462493 12:-0.168781 13:-0.158094 14:0.330145 15:0.438164 16:0.295351 17:-0.210108 18:-0.275827 19:0.229839 20:0.0210568 21:-0.519059 22:-0.570557 23:-0.529098 24:-0.786694 25:0.182794 26:-0.00713419 
0.125 0.125 1:0.252469 2:-0.273412 3:-0.34922 4:0.140772 5:0.400743 6:-0.00754127 7:-0.579097 8:0.386756 9:0.351908 10:0.225935 11:0.598098 12:-0.421677 13:0.0283954 14:0.40262 15:0.377393 16:0.305226 17:-0.279919 18:-0.364657 19:0.287557 20:0.111067 21:-0.421784 22:-0.344158 23:-0.525071 24:-0.766039 25:0.36145 26:-0.0165456 
0.125 0.125 1:0.280299 2:-0.0393175 3:-0.265038 4:0.160896 5:0.310301 6:0.0854212 7:-0.481324 8:0.148356 9:0.314394 10:-0.257155 11:0.248657 12:-0.377515 13:0.0761859 14:0.359195 15:0.065812 16:0.16311 17:-0.170982 18:-0.239493 19:0.141774 20:0.0858359 21:-0.212899 22:-0.0199716 23:-0.121296 24:-0.384891 25:0.2834 26:-0.0250534 
0.125 0.125 1:0.427483 2:0.294869 3:-0.0973735 4:0.0939992 5:0.0944392 6:0.146871 7:-0.350035 8:-0.00691852 9:0.063104 10:-0.299516 11:-0.136206 12:-0.0323611 13:-0.0828839 14:0.202789 15:-0.318298 16:-0.0617888 17:0.00278423 18:0.0632798 19:0.00949514 20:-0.0791708 21:-0.0649543 22:0.263391 23:0.184602 24:0.0919665 25:-0.0154308 26:-0.0237498 
0.125 0.125 1:0.528629 2:0.407984 3:-0.125372 4:0.0496043 5:0.0818255 6:0.0422834 7:-0.302831 8:-0.0208138 9:0.105152 10:-0.33778 11:-0.304229 12:0.00331669 13:-0.124182 14:0.0284358 15:-0.482491 16:-0.132582 17:0.0574711 18:0.235076 19:0.042363 20:-0.188987 21:-0.0047199 22:0.169211 23:0.330506 24:0.361805 25:-0.333027 26:-0.0206846 
0.125 0.125 1:0.531812 2:0.480274 3:-0.250823 4:0.112762 5:-0.0754928 6:-0.0218472 7:-0.311915 8:-0.122066 9:0.23884 10:-0.414933 11:-0.286803 12:0.129898 13:0.0526842 14:-0.105358 15:-0.521063 16:0.00953164 17:-0.0330339 18:0.305507 19:0.13305 20:-0.15775 21:-0.0118503 22:-0.162823 23:0.351545 24:0.343331 25:-0.547456 26:-0.0240771 
0.125 0.125 1:0.558603 2:0.510212 3:-0.320106 4:0.229143 5:-0.0397809 6:0.0369875 7:-0.277339 8:-0.194302 9:0.35269 10:-0.335925 11:-0.398085 12:0.0724124 13:0.0165851 14:-0.188425 15:-0.539938 16:0.273702 17:-0.0842785 18:0.211584 19:0.165981 20:-0.0189522 21:-0.0187528 22:-0.511245 23:0.148438 24:0.197319 25:-0.438888 26:-0.0259121 
0.125 0.125 1:0.54491 2:0.536582 3:-0.414185 4:0.240262 5:0.0329463 6:0.0648272 7:-0.232845 8:-0.19063 9:0.316847 10:-0.264526 11:-0.370799 12:-0.0546587 13:0.0180132 14:-0.151622 15:-0.524137 16:0.427723 17:-0.0706724 18:0.108418 19:0.114682 20:0.00600576 21:-0.00494952 22:-0.614065 23:-0.0837022 24:0.0898885 25:-0.145151 26:-0.0213943 
0.125 0.125 1:0.427994 2:0.568934 3:-0.435512 4:0.141138 5:0.0586109 6:0.0808322 7:-0.20638 8:-0.24127 9:0.138189 10:-0.100459 11:-0.388172 12:-0.232014 13:-0.016414 14:0.0114026 15:-0.434624 16:0.366073 17:0.00622171 18:0.0545218 19:0.0354517 20:-0.0409855 21:0.0305548 22:-0.279845 23:-0.283804 24:0.133862 25:0.137614 26:-0.0136962 
0.125 0.125 1:0.225476 2:0.362976 3:-0.33505 4:0.136125 5:0.0192521 6:0.163787 7:-0.155201 8:-0.264681 9:-0.0601932 10:0.0429557 11:-0.363648 12:-0.347577 13:-0.100872 14:0.287883 15:-0.16164 16:0.174749 17:-0.0312303 18:-0.0986088 19:-0.0464701 20:-0.11019 21:0.0413265 22:0.121956 23:-0.267561 24:0.0669724 25:0.345148 26:-0.0123343 
0.125 0.125 1:0.0529503 2:0.081035 3:-0.173921 4:0.428945 5:0.0822384 6:0.162046 7:0.0673034 8:-0.133262 9:-0.286629 10:-0.173619 11:-0.317933 12:-0.354541 13:0.0456516 14:0.54746 15:0.128233 16:-0.00133018 17:-0.259599 18:-0.262482 19:-0.103943 20:-0.213628 21:-0.0441703 22:0.401561 23:0.00447277 24:-0.147241 25:0.316758 26:-0.0200671 
0.125 0.125 1:0.0180079 2:0.124816 3:-0.273135 4:0.320437 5:0.228031 6:0.186698 7:-0.100138 8:-0.130791 9:-0.322728 10:-0.338821 11:-0.232589 12:-0.267557 13:0.393995 14:0.60736 15:0.260564 16:0.0205989 17:-0.337234 18:-0.32299 19:-0.175127 20:-0.214867 21:-0.165587 22:0.428668 23:0.20424 24:-0.314227 25:0.161194 26:-0.0304081 
0.125 0.125 1:-0.0123127 2:0.12908 3:-0.298968 4:0.306374 5:0.161998 6:0.220244 7:-0.00844201 8:-0.0577096 9:-0.0309148 10:-0.146526 11:0.0010648 12:-0.208536 13:0.368666 14:0.586444 15:0.354752 16:0.0628116 17:-0.267674 18:-0.144155 19:-0.254567 20:-0.306383 21:-0.348468 22:0.122922 23:0.0681704 24:-0.363308 25:0.0689476 26:-0.0328553 
0.125 0.125 1:0.071308 2:0.0614015 3:-0.286479 4:0.229419 5:-0.177934 6:0.145077 7:0.0829276 8:0.100288 9:-0.149933 10:0.0494954 11:-0.295724 12:-0.0819332 13:0.182658 14:0.526375 15:0.371338 16:0.0878451 17:-0.0432506 18:0.194965 19:-0.267915 20:-0.323649 21:-0.462633 22:-0.0577829 23:-0.278563 24:-0.0684684 25:-0.0109906 26:-0.033205 
0.125 0.125 1:0.156477 2:0.0682064 3:-0.315522 4:0.112338 5:-0.16814 6:0.0452259 7:0.025357 8:0.0201752 9:-0.030773 10:0.0672298 11:-0.444544 12:-0.138595 13:0.390242 14:0.473802 15:0.233172 16:0.0897826 17:0.178765 18:0.266602 19:-0.231871 20:-0.189578 21:-0.36813 22:-0.158906 23:-0.549798 24:0.240471 25:-0.0972602 26:-0.0391888 
0.125 0.125 1:0.129244 2:0.30077 3:-0.23785 4:0.102892 5:-0.00309635 6:-0.0292449 7:-0.131637 8:-0.0913518 9:0.20698 10:0.0383315 11:-0.290269 12:-0.048893 13:0.39508 14:0.407169 15:-0.125937 16:0.0692393 17:0.194373 18:0.0827381 19:-0.117099 20:0.0242222 21:-0.165942 22:-0.177124 23:-0.46573 24:0.320241 25:-0.180895 26:-0.0406858 
0.125 0.125 1:0.405047 2:0.580573 3:-0.436155 4:0.169207 5:0.00908453 6:-0.242696 7:-0.203638 8:-0.201477 9:-0.0443074 10:-0.187419 11:-0.213542 12:0.212258 13:0.311295 14:0.161909 15:-0.536839 16:0.215269 17:0.128096 18:-0.0981213 19:0.0992566 20:0.232165 21:0.0453862 22:-0.111566 23:-0.0746886 24:0.203779 25:-0.196251 26:-0.0365472 
0.125 0.08947603382740212 1:0.676144 2:0.360726 3:-0.414548 4:0.325044 5:-0.10262 6:-0.537063 7:0.011529 8:-0.073549 9:0.247591 10:-0.415714 11:0.190078 12:0.068682 13:-0.241077 14:-0.285249 15:-0.225959 16:0.169727 17:-0.13134 18:0.24276 19:0.470912 20:-0.382466 21:-0.065765 22:-0.658657 23:0.348973 24:-0.563592 25:-0.0689277 26:-0.00442343 
0.125 0.125 1:0.649636 2:0.327453 3:-0.321934 4:0.392679 5:-0.0279988 6:-0.497123 7:0.0914453 8:-0.00897894 9:0.0222278 10:-0.331303 11:0.190681 12:0.266798 13:-0.334843 14:-0.124338 15:-0.0451625 16:0.111355 17:-0.121083 18:0.429794 19:0.427209 20:-0.515833 21:-0.195104 22:-0.386445 23:0.0985987 24:-0.597739 25:-0.268243 26:-0.00892895 
0.125 0.125 1:0.510368 2:0.266162 3:-0.345104 4:0.398615 5:-0.100153 6:-0.445553 7:0.133605 8:0.0432676 9:-0.279502 10:-0.171153 11:0.23679 12:0.171591 13:-0.330446 14:0.0597775 15:0.0103561 16:0.199677 17:-0.0986214 18:0.46737 19:0.365372 20:-0.3747 21:-0.328725 22:0.233955 23:-0.125631 24:-0.380533 25:-0.331707 26:-0.0168005 
0.125 0.125 1:0.343411 2:0.125716 3:-0.478003 4:0.367509 5:-0.0229314 6:-0.303547 7:-0.118265 8:0.1303 9:-0.485381 10:-0.0921266 11:-0.0202691 12:-0.0507921 13:-0.093596 14:0.188955 15:0.0516778 16:0.272242 17:-0.141246 18:0.100777 19:0.199266 20:0.0103777 21:-0.422254 22:0.705688 23:-0.156146 24:0.0354959 25:-0.126774 26:-0.0229433 
0.125 0.125 1:0.290036 2:0.112509 3:-0.327836 4:0.491516 5:0.41131 6:-0.157663 7:-0.373482 8:0.16168 9:-0.520756 10:-0.105326 11:-0.343073 12:-0.0521371 13:-0.158685 14:0.250695 15:0.0652704 16:0.1912 17:-0.294846 18:-0.51076 19:-0.0233809 20:0.376425 21:-0.379458 22:0.568782 23:-0.118483 24:0.249186 25:0.103504 26:-0.0239111 
0.125 0.125 1:0.22343 2:0.120286 3:-0.23915 4:0.485915 5:0.670662 6:0.0395595 7:-0.124319 8:0.041273 9:-0.413799 10:0.0221281 11:-0.124643 12:-0.104182 13:-0.151661 14:0.301515 15:0.0790239 16:0.0816381 17:-0.329109 18:-0.869901 19:-0.203414 20:0.361001 21:-0.188319 22:0.0188943 23:-0.151406 24:0.112752 25:0.242126 26:-0.0243398 
0.125 0.125 1:0.0832949 2:0.060572 3:-0.183816 4:0.455308 5:0.512563 6:0.196117 7:-0.111126 8:-0.087148 9:-0.0136973 10:-0.0100757 11:-0.00940393 12:-0.209848 13:-0.0409192 14:0.356588 15:0.0588034 16:-0.00256075 17:-0.200813 18:-0.649401 19:-0.277896 20:0.208619 21:-0.0171099 22:-0.534869 23:-0.145201 24:-0.0424058 25:0.255146 26:-0.0269842 
0.125 0.125 1:-0.0390628 2:0.0758974 3:-0.262656 4:0.286474 5:0.151326 6:0.158004 7:-0.064335 8:-0.065133 9:0.155284 10:0.179873 11:-0.0444517 12:-0.081168 13:0.0518452 14:0.377049 15:-0.0571678 16:0.0298054 17:-0.000569997 18:-0.0656307 19:-0.233048 20:-0.095017 21:-0.0440855 22:-0.591817 23:-0.17638 24:-0.106269 25:0.12736 26:-0.03003 
0.125 0.125 1:-0.0142928 2:0.15272 3:-0.230858 4:0.148548 5:0.0505599 6:0.143388 7:0.108484 8:-0.0239559 9:-0.395285 10:0.00414662 11:-0.315749 12:-0.0792021 13:-0.0639541 14:0.317819 15:-0.202554 16:0.0964558 17:0.118332 18:0.246334 19:-0.184258 20:-0.387797 21:-0.195384 22:-0.0890245 23:-0.0926331 24:0.00941507 25:-0.0189788 26:-0.0268249 
0.125 0.125 1:-0.0016499 2:0.189617 3:-0.222661 4:0.235257 5:0.0580429 6:0.274642 7:0.201371 8:0.0470469 9:-0.460052 10:0.018277 11:-0.125263 12:0.0817602 13:0.0855265 14:0.233971 15:-0.280911 16:0.143194 17:-0.00111296 18:0.101813 19:-0.181037 20:-0.456321 21:-0.276558 22:0.351761 23:-7.91589e-05 24:-0.0282927 25:-0.237115 26:-0.0202647 
0.125 0.125 1:-0.0675452 2:0.151569 3:-0.256993 4:0.327009 5:0.131966 6:0.23525 7:0.229332 8:-0.014728 9:-0.261347 10:0.072282 11:0.00840992 12:0.0957435 13:-0.108428 14:0.224624 15:-0.194868 16:0.140979 17:-0.204383 18:-0.19719 19:-0.0692854 20:-0.311668 21:-0.140686 22:0.430471 23:0.0283737 24:-0.127866 25:-0.21785 26:-0.0171833 
0.125 0.125 1:-0.124933 2:0.0388105 3:-0.264605 4:0.156968 5:0.0837239 6:0.0911374 7:0.0523869 8:-0.183565 9:-0.142092 10:0.0674925 11:-0.0999039 12:0.0542078 13:-0.157773 14:0.28157 15:0.00213177 16:0.0483383 17:-0.273178 18:-0.191569 19:0.13369 20:0.0144519 21:0.0451376 22:0.149089 23:-0.00534943 24:-0.0810299 25:0.00885452 26:-0.0236822 
0.125 0.125 1:-0.129549 2:-0.0114421 3:-0.266728 4:0.137795 5:-0.20261 6:0.0715887 7:-0.0454926 8:-0.200123 9:-0.123836 10:0.030267 11:-0.0943892 12:-0.0396191 13:0.196016 14:0.322538 15:0.108217 16:-0.0344053 17:-0.222311 18:0.168128 19:0.274351 20:0.218513 21:0.0329867 22:-0.274636 23:-0.140592 24:-0.0268547 25:0.190252 26:-0.0308937 
0.125 0.125 1:-0.145663 2:0.0105134 3:-0.210909 4:0.0753773 5:-0.360446 6:0.0670837 7:0.0584255 8:-0.0190028 9:0.194868 10:0.185393 11:-0.182307 12:-0.146111 13:0.335972 14:0.346325 15:0.160954 16:0.0310844 17:-0.00876125 18:0.472438 19:0.272979 20:0.106776 21:-0.147065 22:-0.590578 23:-0.193476 24:0.0557537 25:0.18317 26:-0.0262713 
0.125 0.125 1:-0.110886 2:0.114046 3:-0.34338 4:-0.112405 5:-0.346887 6:0.19881 7:0.277793 8:0.11298 9:0.246738 10:0.17643 11:-0.0170184 12:0.181357 13:-0.189451 14:0.394134 15:0.211803 16:0.253953 17:0.204032 18:0.49352 19:0.0285419 20:-0.114266 21:-0.395819 22:-0.5803 23:-0.0687876 24:-0.0886245 25:-0.184641 26:-0.0156702 
0.125 0.125 1:-0.0826434 2:0.125811 3:-0.548814 4:-0.191354 5:-0.176866 6:0.301815 7:0.215567 8:-0.00952965 9:0.115297 10:0.00765266 11:0.119781 12:0.310185 13:-0.230076 14:0.478661 15:0.239819 16:0.418539 17:0.324989 18:0.213819 19:-0.260221 20:-0.190837 21:-0.460476 22:-0.31176 23:0.0985795 24:-0.235417 25:-0.497671 26:-0.0190773 
0.125 0.125 1:-0.097117 2:0.0865073 3:-0.578745 4:-0.158678 5:-0.109364 6:0.300206 7:0.219603 8:-0.0874599 9:-0.0914883 10:-0.121306 11:-0.0164383 12:0.177982 13:0.317937 14:0.51451 15:0.128263 16:0.326515 17:0.398356 18:-0.143832 19:-0.487211 20:-0.113407 21:-0.392971 22:0.0327077 23:0.104636 24:-0.211565 25:-0.506656 26:-0.0406776 
0.125 0.125 1:0.0423532 2:0.418952 3:-0.242875 4:-0.00349289 5:-0.0355924 6:0.316865 7:0.214333 8:0.00594329 9:-0.173591 10:0.126928 11:0.00933495 12:0.0563291 13:0.408618 14:0.374973 15:-0.28208 16:0.0858269 17:0.336241 18:-0.441819 19:-0.573353 20:0.0849499 21:-0.2797 22:0.198092 23:-0.156408 24:-0.178914 25:-0.220597 26:-0.0513974 
0.125 0.125 1:0.279903 2:0.705155 3:-0.255487 4:-0.0298769 5:0.0295158 6:0.154619 7:0.346233 8:-0.296203 9:-0.0120359 10:0.300876 11:-0.0186031 12:-0.169326 13:0.0239417 14:0.121591 15:-0.680957 16:0.0880081 17:0.181445 18:-0.644535 19:-0.277607 20:0.0685588 21:-0.0565184 22:-0.00620428 23:-0.347079 24:-0.122912 25:0.154898 26:-0.0341504 
0.125 0.125 1:0.429449 2:0.671246 3:-0.450158 4:0.187887 5:-0.019939 6:-0.035296 7:0.312043 8:-0.350854 9:0.0173465 10:0.133618 11:0.0192672 12:-0.316806 13:-0.322472 14:-0.0987928 15:-0.733996 16:0.304761 17:-0.154592 18:-0.619236 19:0.265807 20:-0.207083 21:0.0976196 22:-0.186973 23:-0.162122 24:-0.215103 25:0.333015 26:-0.000441442 
0.125 0.125 1:0.476476 2:0.546529 3:-0.528674 4:0.492363 5:-0.215271 6:-0.405851 7:0.417733 8:-0.41107 9:-0.0154458 10:-0.0785804 11:-0.0706075 12:-0.348875 13:-0.660856 14:-0.196737 15:-0.410173 16:0.383486 17:-0.527903 18:-0.260674 19:0.756425 20:-0.573926 21:0.237461 22:-0.207314 23:0.212079 24:-0.232487 25:0.356546 26:0.0200707 
0.125 0.125 1:0.500598 2:0.395448 3:-0.290736 4:0.603605 5:-0.490127 6:-0.531606 7:0.706286 8:-0.37848 9:-0.0417128 10:-0.238373 11:-0.0948447 12:-0.205539 13:-0.362699 14:-0.158454 15:0.10216 16:0.141502 17:-0.649969 18:0.323534 19:0.754932 20:-0.749004 21:0.206958 22:-0.089729 23:0.370589 24:-0.147644 25:0.215177 26:0.00448122 
0.125 0.125 1:0.493779 2:0.286898 3:-0.0466077 4:0.498255 5:-0.792988 6:-0.204224 7:0.476293 8:-0.338615 9:-0.187527 10:-0.0121614 11:-0.139455 12:-0.298421 13:0.103467 14:-0.0402455 15:0.401188 16:-0.214757 17:-0.436508 18:0.781697 19:0.231374 20:-0.370556 21:0.00808343 22:0.063725 23:0.125074 24:-0.0170044 25:0.0125152 26:-0.0253172 
0.125 0.125 1:0.413404 2:0.294876 3:-0.0432276 4:0.35608 5:-0.854713 6:0.0811454 7:0.0527608 8:-0.180873 9:-0.0605701 10:0.271963 11:-0.420071 12:-0.217848 13:0.312982 14:0.108418 15:0.344826 16:-0.26788 17:-0.0579479 18:0.785965 19:-0.29789 20:0.197693 21:-0.185188 22:0.0313845 23:-0.194037 24:0.127232 25:-0.181854 26:-0.0429139 
0 0.125 1:0.295252 2:0.426262 3:-0.297077 4:0.2674 5:-0.60287 6:0.0272219 7:-0.0347524 8:0.0175927 9:-0.0474223 10:0.309208 11:-0.278704 12:0.0321518 13:0.296216 14:0.251309 15:0.0185711 16:0.0407131 17:0.153862 18:0.378644 19:-0.477079 20:0.478456 21:-0.362766 22:-0.028728 23:-0.208031 24:-0.0288482 25:-0.227866 26:-0.0454805 
0 0.125 1:0.239631 2:0.612275 3:-0.376977 4:0.304311 5:-0.383997 6:-0.159346 7:0.133948 8:-0.0411977 9:-0.0419482 10:0.0273776 11:-0.275176 12:-0.109464 13:0.18737 14:0.350482 15:-0.425773 16:0.462528 17:0.0104434 18:0.00989686 19:-0.285591 20:0.315116 21:-0.367772 22:-0.13478 23:0.0658382 24:-0.225813 25:0.0371721 26:-0.0392254 
0.125 0.125 1:0.223255 2:0.65697 3:-0.360496 4:0.394557 5:-0.340518 6:-0.168977 7:0.241812 8:-0.050975 9:0.000494028 10:0.118733 11:-0.291176 12:-0.35856 13:0.252676 14:0.38537 15:-0.671934 16:0.740445 17:-0.263115 18:-0.145735 19:0.022245 20:-0.00770388 21:-0.337059 22:-0.22356 23:0.206981 24:-0.299501 25:0.385833 26:-0.0360265 
0.125 0.125 1:0.191131 2:0.635474 3:-0.324314 4:0.378089 5:-0.317635 6:-0.184252 7:0.206626 8:0.0512872 9:0.0464767 10:0.298625 11:-0.351656 12:-0.244176 13:0.300162 14:0.373314 15:-0.611939 16:0.747375 17:-0.340296 18:-0.175645 19:0.253874 20:-0.156646 21:-0.313296 22:-0.141931 23:0.0717655 24:-0.144749 25:0.463496 26:-0.0290066 
0.125 0.125 1:0.174534 2:0.490172 3:-0.252066 4:0.31729 5:-0.250808 6:-0.346858 7:0.212228 8:-0.043647 9:0.0556984 10:0.454453 11:-0.595391 12:0.0204562 13:0.000314039 14:0.329133 15:-0.307266 16:0.498713 17:-0.164901 18:-0.227445 19:0.379755 20:-0.137475 21:-0.224346 22:-0.0610296 23:-0.200691 24:0.280409 25:0.175489 26:-0.0137792 
0.125 0.125 1:0.239313 2:0.203502 3:0.173854 4:0.0576973 5:-0.00310292 6:-0.386283 7:0.234924 8:-0.061594 9:-0.0994243 10:0.563557 11:-0.706697 12:0.220342 13:-0.219533 14:0.253038 15:0.0450108 16:0.04784 17:0.180806 18:-0.351495 19:0.294488 20:-0.111523 21:-0.11682 22:0.00167039 23:-0.433564 24:0.552763 25:-0.334143 26:-0.000292281 
0.125 0.125 1:0.276117 2:0.130295 3:0.483666 4:-0.0062817 5:-0.0861979 6:-0.171508 7:0.360668 8:-0.14297 9:-0.0614656 10:0.54969 11:-0.582215 12:0.46026 13:-0.222017 14:0.186722 15:0.165587 16:-0.349876 17:0.388663 18:-0.29994 19:0.00384371 20:-0.129003 21:0.0401357 22:-0.069394 23:-0.46385 24:0.537982 25:-0.708977 26:0.000913204 
0.125 0.125 1:0.284468 2:0.115356 3:0.540453 4:0.0914086 5:-0.232825 6:-0.0493936 7:0.29512 8:-0.166328 9:0.229298 10:0.47704 11:-0.445969 12:0.445356 13:0.151616 14:0.1487 15:0.0888585 16:-0.486943 17:0.39887 18:-0.119656 19:-0.198526 20:-0.0533012 21:0.0847509 22:-0.206158 23:-0.330192 24:0.268114 25:-0.667725 26:-0.0147367 
0.125 0.125 1:0.297421 2:0.0647225 3:0.537196 4:0.158749 5:-0.266042 6:-0.0509991 7:0.277748 8:-0.108378 9:0.0761628 10:0.435413 11:-0.146651 12:0.333716 13:0.262093 14:0.145761 15:-0.0416579 16:-0.385846 17:0.282029 18:0.0495569 19:-0.125331 20:0.0338608 21:-0.0525937 22:-0.135121 23:-0.116319 24:-0.146392 25:-0.343145 26:-0.0332812 
0.125 0.125 1:0.30598 2:0.017833 3:0.501925 4:0.250085 5:-0.236477 6:-0.192178 7:0.30649 8:0.0294235 9:-0.0400392 10:0.185277 11:0.0396388 12:0.0524888 13:0.38596 14:0.166796 15:-0.10774 16:-0.173343 17:0.0305348 18:0.104614 19:0.162666 20:0.0694757 21:-0.244687 22:0.0350546 23:0.14543 24:-0.40048 25:0.121975 26:-0.0433632 
0 0.125 1:0.304052 2:-0.0315607 3:0.378817 4:0.410775 5:-0.291519 6:-0.271694 7:0.429233 8:0.100937 9:0.0237293 10:0.0242352 11:0.203798 12:-0.0817093 13:0.446834 14:0.188183 15:-0.0799793 16:-0.0320733 17:-0.245296 18:0.0674481 19:0.381658 20:-0.035738 21:-0.350676 22:0.118986 23:0.231633 24:-0.49783 25:0.444392 26:-0.0425145 
0.125 0.125 1:0.287791 2:-0.123881 3:0.280575 4:0.648887 5:-0.333054 6:-0.0817143 7:0.485507 8:0.063039 9:0.140673 10:0.147121 11:0.208048 12:-0.0724709 13:0.372243 14:0.201133 15:-0.0369587 16:0.0699447 17:-0.462215 18:0.0610221 19:0.203212 20:-0.199943 21:-0.322929 22:-0.0412031 23:0.0399122 24:-0.463433 25:0.352197 26:-0.034824 
0.125 0.125 1:0.287232 2:-0.1498 3:0.189419 4:0.699386 5:-0.25978 6:0.101679 7:0.509337 8:0.00543795 9:0.166357 10:0.175332 11:0.2036 12:-0.0250662 13:0.147077 14:0.213145 15:-0.0286975 16:0.186658 17:-0.468534 18:0.0219991 19:-0.227582 20:-0.292825 21:-0.190687 22:-0.36429 23:-0.183547 24:-0.312333 25:0.0522394 26:-0.0214408 
0 0.125 1:0.286558 2:-0.15314 3:0.0596845 4:0.559277 5:-0.298432 6:0.128869 7:0.619072 8:-0.00594092 9:0.32807 10:0.189362 11:0.259018 12:0.14923 13:0.142633 14:0.221195 15:-0.0325626 16:0.310243 17:-0.272268 18:-0.00470972 19:-0.593853 20:-0.399128 21:-0.0670652 22:-0.487361 23:-0.25465 24:-0.0738974 25:-0.300753 26:-0.00652742 
0 0.125 1:0.293511 2:-0.221737 3:-0.116862 4:0.505765 5:-0.302068 6:0.252212 7:0.536703 8:0.0259477 9:0.301925 10:0.0574504 11:0.152118 12:0.273835 13:0.0783048 14:0.220216 15:-0.0169667 16:0.392608 17:-0.127308 18:-0.0598148 19:-0.728969 20:-0.364146 21:-0.0242958 22:-0.357868 23:-0.122891 24:0.196499 25:-0.493976 26:-0.00296376 
0.125 0.125 1:0.260745 2:-0.251765 3:-0.0672761 4:0.535311 5:-0.221359 6:0.0592573 7:0.48222 8:-0.057987 9:0.0412394 10:-0.179331 11:0.0457155 12:-0.0801216 13:-0.0674731 14:0.224473 15:-0.0235572 16:0.348836 17:-0.141681 18:-0.112361 19:-0.468429 20:-0.216063 21:-0.0244517 22:-0.177617 23:0.0317107 24:0.353192 25:-0.427893 26:-0.0140545 
0 0.125 1:0.309427 2:-0.330216 3:-0.163276 4:0.0312895 5:-0.368234 6:-0.549847 7:0.212658 8:0.166275 9:-0.314082 10:-0.337476 11:1 12:-0.0163867 13:-0.495546 14:0.028582 15:-0.00431769 16:0.196969 17:0.0679826 18:0.123371 19:-0.109235 20:-0.104266 21:-0.206547 22:0.279242 23:0.052806 24:-0.624459 25:-0.0865338 26:0.0121162 
0 0.125 1:0.0909244 2:-0.30541 3:-0.177235 4:-0.0981231 5:-0.191954 6:-0.562602 7:0.168356 8:-0.0307661 9:0.0294574 10:-0.473403 11:0.734836 12:0.239152 13:-0.260755 14:0.307334 15:-0.0201055 16:0.0706905 17:0.174253 18:-0.113768 19:-0.0104457 20:-0.179905 21:-0.122935 22:-0.284512 23:-0.00235693 24:-0.232957 25:-0.885351 26:-0.0150464 
0.125 0 1:0.596062 2:0.218588 3:-0.332906 4:0.567775 5:0.112244 6:-0.698854 7:0.400121 8:-0.046692 9:0.225722 10:-0.251115 11:0.29997 12:0.390177 13:-0.268859 14:-0.40309 15:-0.170274 16:0.126404 17:-0.386596 18:0.16169 19:0.438801 20:-0.450356 21:0.0326403 22:-0.124908 23:-0.233009 24:-0.129608 25:-0.561741 26:-0.0117049 
0.125 0.125 1:0.513597 2:0.250462 3:-0.390772 4:0.541827 5:0.209942 6:-0.797436 7:0.451724 8:-0.0783634 9:0.332899 10:-0.260362 11:0.252299 12:0.401254 13:-0.167113 14:-0.200688 15:-0.00377963 16:0.152278 17:-0.27826 18:0.126973 19:0.673369 20:-0.399387 21:0.122765 22:-0.298657 23:-0.0814165 24:-0.210983 25:-0.6602 26:-0.0283746 
0.09749659206584191 0 1:0.0613103 2:0.198121 3:-0.34909 4:0.420131 5:0.383204 6:-0.476385 7:0.193091 8:0.0227625 9:0.300179 10:-0.46726 11:0.0714152 12:0.160621 13:0.3376 14:0.533858 15:0.111622 16:0.00478091 17:-0.420858 18:-0.453435 19:0.356226 20:-0.0682624 21:-0.280455 22:-0.347903 23:0.292032 24:0.155729 25:0.238021 26:-0.0440184 
0.125 0.125 1:0.0350867 2:0.317535 3:-0.505572 4:0.387866 5:0.597141 6:-0.146863 7:0.324096 8:0.165962 9:0.122521 10:-0.292205 11:-0.00217831 12:-0.321049 13:-0.170507 14:0.633231 15:0.0898578 16:0.116986 17:-0.635955 18:-0.656262 19:-0.102844 20:-0.201713 21:-0.557698 22:-0.219744 23:0.211876 24:0.206088 25:0.55235 26:-0.0256247 
0.09776547121254014 0.1051188225138976 1:-0.0100935 2:0.363038 3:-0.55894 4:0.450096 5:0.511758 6:-0.0181709 7:0.361568 8:0.353666 9:0.148907 10:-0.251095 11:-0.0863151 12:-0.0645326 13:-0.245489 14:0.514152 15:0.0223201 16:0.309255 17:-0.589505 18:-0.554527 19:-0.410654 20:-0.207316 21:-0.6336 22:-0.240422 23:0.0584214 24:0.128241 25:0.244827 26:-0.0139072 
0.125 0.125 1:0.152346 2:0.571422 3:-0.705643 4:-0.478884 5:0.0432678 6:0.224583 7:0.0405891 8:-0.166208 9:-0.0347086 10:0.0582883 11:0.245493 12:0.288536 13:0.0504128 14:0.102565 15:-0.239113 16:0.582526 17:0.642418 18:0.233414 19:-0.422563 20:0.266307 21:0.174935 22:-0.193469 23:-0.310291 24:-0.069167 25:-0.253257 26:-0.0163298 
0.125 0.125 1:0.116925 2:0.665102 3:-0.549758 4:-0.692127 5:-0.0158307 6:0.166034 7:-0.0297891 8:-0.287016 9:-0.286759 10:0.105395 11:0.00658952 12:0.0147998 13:-0.099178 14:0.208496 15:-0.147367 16:0.39118 17:0.887698 18:0.383824 19:-0.270318 20:0.404138 21:0.381088 22:0.142554 23:-0.408123 24:-0.199015 25:0.0109776 26:-0.0212209 
0.125 0.125 1:0.0385315 2:0.669537 3:-0.390976 4:-0.489654 5:-0.219579 6:0.204313 7:0.287482 8:-0.239206 9:-0.450262 10:0.196231 11:0.2863 12:-0.0220522 13:-0.13637 14:0.408873 15:0.00137641 16:0.116202 17:0.552569 18:0.322305 19:-0.18554 20:0.173749 21:0.202128 22:0.45973 23:-0.395022 24:-0.524428 25:0.262603 26:-0.0198271 
0.125 0.125 1:-0.0222759 2:0.518543 3:-0.267414 4:-0.263566 5:-0.0692608 6:0.182001 7:0.41114 8:0.028227 9:-0.641197 10:0.0877407 11:0.665096 12:0.301031 13:0.12128 14:0.524177 15:0.104133 16:-0.118345 17:-0.00529975 18:0.0618602 19:-0.0725893 20:-0.0824643 21:-0.237441 22:0.563158 23:-0.167587 24:-0.672903 25:0.148797 26:-0.0207915 
0 0.1023819121719342 1:0.136443 2:0.851536 3:-0.127774 4:-0.238202 5:-0.0302366 6:-0.0177604 7:0.274431 8:0.162439 9:-0.341483 10:-0.10198 11:0.183922 12:0.262884 13:0.204976 14:0.376948 15:-0.0991155 16:-0.198903 17:-0.271061 18:-0.112558 19:0.0514594 20:-0.188226 21:-0.465751 22:0.275653 23:0.0605633 24:-0.376493 25:-0.0559912 26:-0.0209848 
0 0.125 1:0.310076 2:0.950227 3:-0.192694 4:-0.248231 5:-0.100944 6:0.01383 7:0.529202 8:0.0403333 9:-0.209883 10:-0.204194 11:-0.174348 12:0.374463 13:0.095744 14:0.105014 15:-0.28574 16:-0.0631634 17:-0.247923 18:-0.191909 19:0.109616 20:-0.303483 21:-0.374922 22:-0.111014 23:0.168646 24:0.0525642 25:-0.198537 26:-0.0225851 
0 0.125 1:0.260561 2:0.832586 3:-0.181633 4:-0.525914 5:-0.337653 6:-0.168508 7:0.105163 8:-0.347124 9:-0.227375 10:-0.185826 11:0.351559 12:-0.00594513 13:0.371072 14:0.269617 15:-0.109347 16:0.0704672 17:0.269719 18:0.172482 19:0.0725746 20:0.0914339 21:0.107489 22:-0.208443 23:0.171459 24:-0.418641 25:0.0886305 26:-0.00996606 
0.125 0.125 1:0.273081 2:0.85607 3:-0.331738 4:-0.493931 5:-0.0644985 6:-0.199032 7:0.169211 8:-0.31493 9:-0.359456 10:-0.0429718 11:0.490527 12:0.0369395 13:0.268206 14:0.141852 15:-0.199594 16:0.22814 17:0.2748 18:-0.275309 19:0.162601 20:-0.255079 21:0.0518085 22:0.0895477 23:-0.142436 24:-0.476178 25:-0.0994432 26:-0.0132689 
0.125 0.125 1:0.277126 2:0.736337 3:-0.336827 4:-0.320229 5:-0.140477 6:-0.144231 7:0.133445 8:-0.423433 9:-0.326694 10:0.162141 11:0.309712 12:-0.0734861 13:0.4574 14:0.125167 15:-0.177084 16:0.273915 17:0.117005 18:-0.271569 19:0.0771088 20:-0.20422 21:0.126163 22:0.157481 23:-0.302441 24:-0.122765 25:-0.0110467 26:-0.709725 
0.125 0.125 1:0.262 2:0.662888 3:-0.362597 4:-0.144255 5:-0.034001 6:-0.119448 7:-0.117236 8:-0.304617 9:-0.326549 10:0.0799672 11:0.24701 12:-0.21537 13:0.635301 14:0.146448 15:-0.0947946 16:0.291362 17:-0.0802881 18:-0.184671 19:-0.0400529 20:0.0614648 21:0.0810003 22:0.143897 23:-0.257266 24:0.0606059 25:0.158593 26:-0.0315351 
0.125 0.125 1:0.170243 2:0.508755 3:-0.306708 4:0.12282 5:-0.142051 6:-0.0390419 7:-0.18091 8:-0.0445952 9:-0.0544879 10:0.052088 11:0.419741 12:-0.260873 13:0.571024 14:0.223408 15:0.0718091 16:0.173595 17:-0.319913 18:-0.0633109 19:-0.172469 20:0.221606 21:-0.274151 22:-0.211222 23:-0.1157 24:-0.31007 25:0.20824 26:-0.0344865 
0.01665967904425331 0.125 1:0.159675 2:0.504476 3:-0.255969 4:0.199726 5:-0.225249 6:-0.0348233 7:-0.119602 8:0.140657 9:-0.0344091 10:-0.00813037 11:0.379391 12:-0.122539 13:0.576207 14:0.240005 15:0.0618965 16:0.0738512 17:-0.287309 18:-0.0557637 19:-0.0529665 20:0.0740198 21:-0.448815 22:-0.363339 23:-0.03889 24:-0.268025 25:0.0315096 26:-0.0286575 
0.125 0.125 1:0.134877 2:0.486349 3:-0.204436 4:0.1927 5:-0.175085 6:-0.169419 7:-0.173226 8:0.171628 9:0.0912991 10:-0.0375879 11:0.177919 12:-0.0522595 13:0.464607 14:0.240844 15:0.0384611 16:-0.00917753 17:-0.192006 18:-0.010688 19:0.173688 20:-0.0553687 21:-0.47857 22:-0.392465 23:-0.028072 24:0.0185587 25:-0.104757 26:-0.0205508 
0.009780013020662635 0.125 1:0.106322 2:0.504027 3:-0.22456 4:0.192243 5:-0.232774 6:-0.19497 7:-0.191717 8:0.186157 9:0.10724 10:-0.129476 11:-0.00807936 12:-0.0644984 13:0.307984 14:0.234925 15:-0.0222444 16:0.0226561 17:-0.144824 18:0.0811137 19:0.29092 20:-0.106029 21:-0.423391 22:-0.199826 23:0.00993699 24:0.249701 25:-0.14076 26:-0.0153294 
0 0.125 1:0.0934682 2:0.508284 3:-0.221664 4:0.251208 5:-0.393923 6:-0.188814 7:0.00296267 8:0.118829 9:-0.0568421 10:-0.156866 11:0.109595 12:-0.0418886 13:0.329391 14:0.210549 15:-0.0792334 16:0.148798 17:-0.175113 18:0.212977 19:0.202074 20:-0.121558 21:-0.301548 22:0.035573 23:0.0333804 24:0.162521 25:-0.110769 26:-0.0155078 
0 0.125 1:0.0853815 2:0.527637 3:-0.309191 4:0.305374 5:-0.34016 6:-0.00731033 7:-0.0977437 8:0.0700522 9:-0.194224 10:-0.0327683 11:0.190975 12:-0.0087252 13:0.390811 14:0.180101 15:-0.10467 16:0.287977 17:-0.241559 18:0.156634 19:-0.036341 20:-0.00679203 21:-0.125491 22:0.100251 23:0.0444626 24:-0.0978523 25:-0.0722967 26:-0.0221145 
0 0.125 1:0.0673266 2:0.545383 3:-0.342458 4:0.295432 5:-0.221186 6:0.0728117 7:-0.127677 8:-0.0278287 9:0.0403731 10:-0.175673 11:0.246535 12:-0.0391817 13:0.468328 14:0.164958 15:-0.12004 16:0.323934 17:-0.203005 18:0.0132953 19:-0.171495 20:0.045648 21:-1.75885e-05 22:-0.0875753 23:0.106879 24:-0.250452 25:-0.0332459 26:-0.0300706 
0 0.125 1:0.054204 2:0.525792 3:-0.244054 4:0.203713 5:-0.202274 6:0.0390857 7:-0.0751402 8:-0.0352337 9:0.189418 10:-0.165403 11:0.214177 12:-0.0683519 13:0.40115 14:0.172891 15:-0.115408 16:0.230486 17:-0.0572298 18:-0.0456823 19:-0.103916 20:-0.0224682 21:0.01553 22:-0.304256 23:0.0946124 24:-0.216954 25:0.00883925 26:-0.0302027 
0 0.125 1:-0.00626022 2:0.542115 3:-0.11341 4:0.135373 5:-0.201551 6:-0.0493833 7:0.0651826 8:-0.035151 9:0.0653895 10:-0.0871918 11:0.134385 12:0.00630328 13:0.417063 14:0.226571 15:-0.152638 16:0.208912 17:0.0200727 18:-0.0165657 19:0.0259629 20:-0.130094 21:-0.0305271 22:-0.352471 23:0.0072639 24:-0.111028 25:0.0357678 26:-0.0238877 
0 0.125 1:-0.0465972 2:0.542576 3:-0.144163 4:0.133757 5:-0.237741 6:-0.0191016 7:0.15182 8:0.0622983 9:-0.0607463 10:0.126036 11:0.0368088 12:-0.0584624 13:0.253612 14:0.294248 15:-0.21451 16:0.338111 17:-0.0351906 18:0.0413166 19:0.051886 20:-0.203629 21:-0.152498 22:-0.277756 23:-0.151256 24:-0.030573 25:0.0674487 26:-0.0139189 
0 0.125 1:-0.0484023 2:0.535332 3:-0.128831 4:0.203221 5:-0.217385 6:0.0579909 7:0.0814119 8:0.0648022 9:-0.0153648 10:0.0317777 11:0.201869 12:-0.0131128 13:0.186755 14:0.332201 15:-0.254928 16:0.460288 17:-0.122881 18:-0.0483149 19:-0.0559966 20:-0.089332 21:-0.301679 22:-0.114695 23:-0.223149 24:-0.0272015 25:-0.0669598 26:-0.00982731 
0.125 0.125 1:-0.0795364 2:0.514706 3:-0.0701658 4:0.209894 5:-0.0347161 6:0.065407 7:0.0249132 8:0.0398423 9:-0.0664337 10:0.07613 11:0.113469 12:0.055926 13:0.328571 14:0.369882 15:-0.224835 16:0.302116 17:-0.0813193 18:-0.198863 19:-0.151642 20:0.0123051 21:-0.4364 22:0.100518 23:-0.226294 24:0.0327743 25:-0.243351 26:-0.0148137 
0.0164101442189737 0.125 1:-0.0588146 2:0.418826 3:0.281546 4:0.0524964 5:-0.0722276 6:0.0113973 7:0.19287 8:0.137337 9:-0.227461 10:0.0870015 11:-0.0357666 12:0.113247 13:0.447967 14:0.382456 15:-0.0933231 16:-0.25802 17:0.113284 18:-0.109296 19:-0.149029 20:-0.0532022 21:-0.501906 22:0.275795 23:-0.168439 24:0.0817667 25:-0.31263 26:-0.0232604 
0.125 0.125 1:0.00674569 2:0.31185 3:0.517611 4:0.0113877 5:-0.15216 6:-0.0444807 7:0.231496 8:0.0232632 9:-0.339762 10:0.00598068 11:0.110839 12:0.110937 13:0.559966 14:0.348307 15:0.0531812 16:-0.752988 17:0.224095 18:0.119595 19:-0.0920195 20:-0.100689 21:-0.387717 22:0.266396 23:-0.0189793 24:-0.0419124 25:-0.196778 26:-0.0322141 
0.125 0 1:0.0253076 2:0.280752 3:0.575458 4:0.115388 5:-0.274669 6:-0.105348 7:0.276141 8:-0.213703 9:-0.074639 10:-0.0493344 11:0.235974 12:-0.207434 13:0.563307 14:0.220092 15:0.111188 16:-0.731899 17:0.110389 18:0.276604 19:-0.0583987 20:-0.0652176 21:-0.134395 22:-0.0887766 23:0.137799 24:-0.182721 25:0.128506 26:-0.0342319 
0.125 0.125 1:0.133251 2:0.277544 3:0.215755 4:0.240706 5:-0.158632 6:-0.172502 7:0.256027 8:-0.388844 9:0.149642 10:-0.0998083 11:0.201455 12:-0.252705 13:0.606723 14:-0.0365527 15:0.0517425 16:-0.154806 17:-0.109494 18:0.104633 19:0.0547987 20:0.00643828 21:0.13691 22:-0.457297 23:0.292316 24:-0.263528 25:0.287979 26:-0.0294799 
0.125 0.125 1:0.247575 2:0.301695 3:-0.263985 4:0.321939 5:0.0662185 6:-0.226557 7:0.269179 8:-0.372161 9:0.100539 10:-0.0966887 11:0.185935 12:-0.178693 13:0.560024 14:-0.247859 15:-0.0778989 16:0.524276 17:-0.271832 18:-0.202082 19:0.267036 20:0.0405645 21:0.256915 22:-0.464418 23:0.295384 24:-0.24381 25:0.221051 26:-0.0250513 
0.125 0.125 1:0.252306 2:0.33639 3:-0.36861 4:0.329836 5:0.115034 6:-0.341746 7:0.431501 8:-0.47253 9:-0.0200543 10:0.0942238 11:0.103139 12:-0.105289 13:0.431306 14:-0.258734 15:-0.195386 16:0.752632 17:-0.279361 18:-0.322363 19:0.440754 20:-0.226469 21:0.226553 22:-0.210523 23:0.0596913 24:-0.076862 25:0.199167 26:-0.0221956 
0.125 0.125 1:0.064667 2:0.33399 3:-0.213637 4:0.253865 5:0.0211167 6:-0.454414 7:0.582984 8:-0.392694 9:-0.218593 10:0.265751 11:0.115465 12:-0.0441636 13:0.458897 14:-0.022605 15:-0.245911 16:0.509753 17:-0.225929 18:-0.201016 19:0.404246 20:-0.554233 21:0.0140337 22:0.0933354 23:-0.205289 24:-0.0266241 25:0.144889 26:-0.0259715 
0.125 0.125 1:-0.156768 2:0.277253 3:-0.180357 4:0.300534 5:-0.150093 6:-0.182224 7:0.483468 8:-0.220845 9:-0.168453 10:0.410514 11:0.0841971 12:-0.0552911 13:0.643955 14:0.314637 15:-0.171327 16:0.17842 17:-0.214872 18:0.0275548 19:0.0881514 20:-0.609151 21:-0.254841 22:0.109037 23:-0.357871 24:-0.0581451 25:0.0211083 26:-0.0327128 
0.125 0.125 1:-0.243371 2:0.247267 3:-0.220566 4:0.27456 5:-0.00811983 6:0.0431687 7:0.600636 8:-0.15983 9:-0.00407934 10:0.466545 11:-0.00798082 12:-0.0532264 13:0.394694 14:0.505381 15:-0.060076 16:0.0346342 17:-0.163284 18:0.0484105 19:-0.19008 20:-0.474834 21:-0.356668 22:-0.0768416 23:-0.32882 24:-0.107163 25:-0.230985 26:-0.0308063 
0.125 0.125 1:-0.308102 2:0.185529 3:-0.206332 4:0.196131 5:-0.0447155 6:-0.0297483 7:0.232303 8:-0.127321 9:-0.115397 10:0.294522 11:0.164024 12:0.522432 13:0.373676 14:0.576798 15:0.021701 16:0.119224 17:-0.143451 18:-0.0322864 19:-0.364427 20:-0.131122 21:-0.223424 22:-0.212888 23:-0.252798 24:-0.0848093 25:-0.556483 26:-0.0294338 
0.125 0.125 1:-0.322272 2:0.103068 3:-0.294435 4:0.0629745 5:-0.0834879 6:-0.110152 7:0.042075 8:-0.223586 9:-0.103419 10:0.331919 11:0.00917096 12:0.318722 13:0.225829 14:0.560888 15:0.0205768 16:0.243414 17:-0.129099 18:-0.0929787 19:-0.429145 20:0.0580647 21:0.041213 22:-0.243426 23:-0.318525 24:0.105527 25:-0.407999 26:-0.0247916 
0.125 0.125 1:-0.285845 2:0.221383 3:-0.267422 4:0.0564777 5:-0.0772345 6:-0.0539511 7:0.152635 8:-0.30185 9:-0.0904784 10:0.356487 11:-0.0692174 12:-0.0613971 13:0.0815416 14:0.508479 15:-0.017645 16:0.213672 17:-0.0279927 18:0.0417214 19:-0.348582 20:0.0580546 21:0.0918121 22:-0.0295086 23:-0.36726 24:0.229773 25:0.0914724 26:-0.0166194 
0.125 0.125 1:-0.295507 2:0.206518 3:-0.266307 4:0.0905793 5:-0.113769 6:0.00253899 7:0.0877803 8:-0.127474 9:-0.140295 10:0.307028 11:-0.106695 12:-0.0954231 13:0.134483 14:0.508649 15:0.0808874 16:0.0988865 17:0.151218 18:0.223713 19:-0.15078 20:0.087322 21:-0.1835 22:0.195674 23:-0.288774 24:0.0516594 25:0.380501 26:-0.0149377 
0 0.125 1:-0.0953691 2:0.152794 3:-0.139355 4:-0.17874 5:-0.223277 6:-0.48914 7:-0.168981 8:0.197439 9:-0.330379 10:-0.100852 11:0.284661 12:0.0133876 13:-0.160351 14:0.456124 15:0.163139 16:-0.0350375 17:0.392077 18:0.291853 19:0.222891 20:0.109863 21:-0.520668 22:0.268184 23:-0.0212393 24:-0.352719 25:0.336917 26:-0.0138959 
0 0.125 1:0.0240248 2:0.123911 3:-0.203587 4:-0.255136 5:-0.18586 6:-0.646983 7:-0.166327 8:0.181492 9:-0.188028 10:-0.310464 11:0.272842 12:0.0624854 13:-0.168858 14:0.393858 15:0.0983772 16:-0.0138273 17:0.400763 18:0.158102 19:0.416227 20:0.0593998 21:-0.546965 22:0.0474598 23:0.206369 24:-0.543072 25:0.0583745 26:-0.0230748 
0 0.125 1:0.081733 2:0.351917 3:-0.287813 4:0.0880337 5:0.190258 6:-0.477775 7:-0.0090714 8:-0.0691169 9:0.218895 10:-0.289415 11:0.284792 12:0.391124 13:0.222829 14:0.242633 15:-0.19772 16:0.147302 17:0.0763369 18:-0.161982 19:0.301937 20:-0.0962344 21:-0.245233 22:-0.357205 23:0.222452 24:-0.412996 25:-0.140161 26:-0.0359425 
0.125 0.02332498819045613 1:0.633194 2:0.388566 3:-0.335602 4:0.266302 5:0.0935499 6:-0.536612 7:-0.213741 8:-0.0498195 9:0.0108107 10:-0.456173 11:-0.0300508 12:0.411907 13:-0.388461 14:-0.410997 15:-0.512442 16:0.227203 17:-0.25478 18:0.115948 19:0.0718483 20:0.16291 21:0.097053 22:-0.309415 23:0.233494 24:0.232031 25:-0.437938 26:-0.0102854 
0 0.125 1:0.52036 2:0.276936 3:-0.2645 4:0.247604 5:0.0356109 6:-0.534542 7:-0.257447 8:0.0224166 9:-0.051776 10:-0.470982 11:-0.0642248 12:0.5146 13:-0.416877 14:-0.208733 15:-0.144317 16:0.0861643 17:-0.0512271 18:0.395794 19:0.107975 20:0.290195 21:-0.0385681 22:-0.157674 23:0.209644 24:0.111441 25:-0.612522 26:-0.00983112 
0 0.125 1:0.321184 2:0.0433169 3:-0.182088 4:0.202329 5:-0.04607 6:-0.461149 7:-0.188804 8:0.0205182 9:-0.157299 10:-0.346861 11:-0.0686178 12:0.456462 13:-0.259669 14:0.0862378 15:0.182994 16:0.0639223 17:-0.0373257 18:0.354623 19:0.0412821 20:0.182394 21:-0.233033 22:-0.0943899 23:0.051065 24:-0.127729 25:-0.512384 26:-0.0215332 
0.125 0.125 1:0.259642 2:-0.121585 3:-0.258897 4:0.294553 5:0.243894 6:-0.432303 7:-0.0993137 8:0.176523 9:-0.331314 10:-0.121845 11:0.0728334 12:-0.00841357 13:-0.194821 14:0.21789 15:0.337997 16:0.1708 17:-0.150225 18:-0.0283864 19:-0.0171324 20:-0.0103346 21:-0.498875 22:0.0491911 23:-0.171474 24:-0.286304 25:0.0493828 26:-0.0249481 
0.125 0.125 1:0.203948 2:-0.0456323 3:-0.317082 4:0.329009 5:0.513772 6:-0.485631 7:0.111255 8:0.406017 9:-0.347639 10:-0.116797 11:0.195773 12:-0.310442 13:-0.329676 14:0.230572 15:0.326909 16:0.216647 17:-0.208972 18:-0.495664 19:0.0768102 20:-0.365181 21:-0.611578 22:0.126267 23:-0.260523 24:-0.303389 25:0.548379 26:-0.0176569 
0.125 0.125 1:0.0855295 2:0.00245285 3:-0.219409 4:0.308014 5:0.521227 6:-0.436136 7:0.0890183 8:0.224812 9:-0.428881 10:-0.116299 11:0.0267659 12:-0.158779 13:-0.283512 14:0.29489 15:0.244209 16:0.112663 17:-0.162387 18:-0.695915 19:0.162272 20:-0.395472 21:-0.394646 22:0.154971 23:-0.136762 24:-0.144313 25:0.621478 26:-0.00944134 
0.125 0.125 1:-0.0430576 2:-0.0453381 3:-0.0824927 4:0.156437 5:0.439015 6:-0.399847 7:0.127767 8:-0.0702429 9:-0.471839 10:-0.0314919 11:-0.146956 12:-0.234188 13:-0.337069 14:0.533607 15:0.0508365 16:-0.0751069 17:-0.0146516 18:-0.558644 19:0.136547 20:-0.174242 21:-0.0973149 22:0.0529411 23:0.0949001 24:0.0620285 25:0.465343 26:-0.0107756 
0.125 0.125 1:-0.12381 2:0.0931095 3:-0.103327 4:0.189609 5:0.259869 6:-0.41975 7:0.175307 8:-0.134417 9:-0.34574 10:-0.161487 11:-0.065989 12:-0.0464231 13:-0.0288109 14:0.794845 15:-0.228487 16:-0.129682 17:0.057418 18:-0.181359 19:-0.0252095 20:0.119076 21:0.0178827 22:-0.145016 23:0.264392 24:0.123573 25:0.123142 26:-0.0265576 
0.125 0.125 1:-0.178417 2:0.266607 3:-0.240818 4:0.184143 5:0.106312 6:-0.200959 7:-0.225552 8:0.0376623 9:-0.363184 10:-0.152644 11:0.078303 12:0.110872 13:0.174277 14:0.791389 15:-0.454238 16:0.0361442 17:0.0465727 18:0.124236 19:-0.283577 20:0.400145 21:-0.0872199 22:-0.194041 23:0.128327 24:0.0914411 25:-0.13961 26:-0.0404494 
0.125 0.125 1:-0.0548949 2:0.344677 3:-0.261355 4:0.198145 5:-0.0276402 6:-0.124266 7:0.222691 8:-0.00367135 9:-0.334927 10:0.258988 11:-0.036734 12:0.232893 13:0.375445 14:0.453594 15:-0.398543 16:0.27148 17:0.0297903 18:0.28285 19:-0.33666 20:0.0179479 21:-0.147989 22:-0.040316 23:-0.316013 24:0.118144 25:-0.353849 26:-0.0433867 
0.125 0.125 1:0.337687 2:0.0883684 3:-0.413708 4:0.224666 5:-0.0930482 6:-0.304464 7:0.422532 8:-0.182016 9:-0.468715 10:0.442893 11:0.0260703 12:0.280856 13:0.0421184 14:0.0312878 15:0.00632503 16:0.371684 17:0.0796196 18:0.256357 19:-0.125224 20:-0.460849 21:-0.00873475 22:0.217946 23:-0.651833 24:0.104945 25:-0.476512 26:-0.0352625 
0.125 0.125 1:0.495053 2:0.0340159 3:-0.382963 4:0.224226 5:-0.098265 6:-0.430392 7:0.416732 8:-0.222595 9:-0.518645 10:0.327873 11:0.143899 12:0.298893 13:-0.039599 14:-0.130938 15:0.357159 16:0.225203 17:0.16084 18:0.147482 19:0.142743 20:-0.750483 21:0.174121 22:0.325535 23:-0.657123 24:-0.00527495 25:-0.399978 26:-0.0298962 
0.125 0.125 1:0.341214 2:0.011804 3:-0.27335 4:0.242099 5:-0.106093 6:-0.466521 7:0.476812 8:-0.147058 9:-0.375248 10:0.165496 11:0.321572 12:0.232168 13:0.0621771 14:-0.0301969 15:0.381652 16:0.0345068 17:0.0918165 18:0.150015 19:0.29934 20:-0.734105 21:0.209799 22:0.157624 23:-0.335603 24:-0.200402 25:-0.202855 26:-0.0296544 
0 0.125 1:0.310595 2:0.292532 3:-0.164939 4:0.392251 5:-0.0514814 6:-0.414915 7:0.209809 8:-0.0377746 9:0.00459003 10:-0.134663 11:0.443653 12:-0.0596228 13:0.0338071 14:0.0108374 15:-0.0238649 16:0.0158303 17:-0.159827 18:0.197037 19:0.261606 20:-0.217005 21:-0.0439123 22:-0.216107 23:0.168305 24:-0.430084 25:0.138206 26:-0.0230139 
0.125 0.125 1:0.540949 2:0.483669 3:-0.414087 4:0.592921 5:-0.187214 6:-0.369009 7:0.0402881 8:0.0991939 9:-0.0082464 10:-0.249374 11:0.450526 12:-0.0671924 13:-0.291054 14:-0.137161 15:-0.425574 16:0.237264 17:-0.453775 18:0.198256 19:0.136148 20:0.216282 21:-0.382134 22:-0.528662 23:0.440722 24:-0.474978 25:0.302377 26:-0.0137929 
0.125 0.125 1:0.546259 2:0.531407 3:-0.490092 4:0.620514 5:-0.114552 6:-0.341457 7:-0.0700264 8:0.259037 9:0.0277006 10:-0.327167 11:0.391668 12:-0.0711549 13:-0.499795 14:-0.234473 15:-0.496614 16:0.44065 17:-0.567636 18:0.08677 19:0.0893103 20:0.417319 21:-0.572434 22:-0.637526 23:0.432901 24:-0.41533 25:0.256369 26:-0.00628854 
0.125 0.125 1:0.374306 2:0.492889 3:-0.387731 4:0.506372 5:0.188067 6:-0.307268 7:-0.0901576 8:0.358474 9:0.161313 10:-0.306883 11:0.450596 12:-0.115263 13:-0.365829 14:-0.0666532 15:-0.338951 16:0.461737 17:-0.389433 18:-0.133311 19:0.0433845 20:0.298705 21:-0.503947 22:-0.50698 23:0.224073 24:-0.308372 25:0.0846191 26:-0.0113679 
0.125 0.125 1:0.118108 2:0.362697 3:-0.237588 4:0.381059 5:0.20315 6:-0.192224 7:0.0216437 8:0.0660984 9:0.0045398 10:-0.0190968 11:0.168694 12:0.131407 13:-0.0237775 14:0.36517 15:-0.147086 16:0.278214 17:-0.138754 18:-0.150049 19:-0.0870069 20:-0.131981 21:-0.213452 22:-0.129492 23:-0.0856748 24:-0.0918111 25:-0.145986 26:-0.0206982 
0 0.125 1:-0.00763942 2:0.417145 3:-0.160341 4:0.265561 5:-0.0233765 6:-0.197934 7:0.151239 8:-0.0126141 9:-0.354419 10:0.012931 11:0.144579 12:0.099684 13:-0.274075 14:0.744081 15:-0.113306 16:0.00219071 17:0.0575329 18:0.0294872 19:-0.120902 20:-0.510125 21:-0.0176725 22:0.361236 23:-0.261648 24:0.0278836 25:-0.200642 26:-0.0221357 
0.125 0.125 1:-0.0471414 2:0.459981 3:-0.091212 4:0.157253 5:0.210086 6:-0.0689036 7:0.119101 8:0.0614837 9:-0.287194 10:-0.0567396 11:0.0266321 12:-0.0293637 13:-0.196214 14:0.867722 15:-0.12543 16:-0.182482 17:0.133981 18:0.0707038 19:-0.109547 20:-0.553982 21:-0.0446438 22:0.588344 23:-0.320428 24:0.0981282 25:-0.225241 26:-0.0249398 
0.125 0.125 1:-0.00393864 2:0.39256 3:0.0660018 4:0.249826 5:0.198988 6:-0.138597 7:-0.0219467 8:0.138508 9:-0.148021 10:-0.0234629 11:0.00505746 12:0.00632422 13:-0.167835 14:0.741164 15:-0.0628469 16:-0.242714 17:0.0514315 18:0.0753627 19:0.0509141 20:-0.227027 21:-0.208859 22:0.472016 23:-0.280542 24:0.12082 25:-0.253656 26:-0.0279224 
0.125 0.125 1:0.177374 2:0.232838 3:-0.0147546 4:0.0667415 5:0.277846 6:-0.296055 7:-0.258857 8:0.0409669 9:-0.0727404 10:0.00937983 11:-0.0207062 12:0.0463582 13:0.134327 14:0.406328 15:0.0628649 16:-0.081166 17:-0.019422 18:-0.0679818 19:0.224964 20:0.299964 21:-0.320887 22:0.0953186 23:-0.135857 24:0.117455 25:-0.171529 26:-0.0328388 
0.125 0.125 1:0.370518 2:0.330507 3:-0.1953 4:0.117739 5:0.414475 6:-0.0790698 7:-0.386068 8:0.0527247 9:0.365595 10:-0.203701 11:-0.0214725 12:-0.130797 13:-0.00301554 14:-0.00552653 15:0.100172 16:0.193296 17:-0.192487 18:-0.208645 19:0.157137 20:0.686535 21:-0.298579 22:-0.376682 23:0.095378 24:0.109243 25:0.0626441 26:-0.0269828 
0.125 0.125 1:0.569093 2:0.353761 3:-0.276028 4:0.1755 5:0.349784 6:-0.0646145 7:-0.315106 8:-0.029608 9:0.463062 10:-0.341775 11:-0.054976 12:-0.380998 13:-0.21791 14:-0.360747 15:0.0557278 16:0.389708 17:-0.265204 18:-0.220892 19:0.0529603 20:0.700989 21:-0.159666 22:-0.605225 23:0.208134 24:-0.0055513 25:0.368181 26:-0.0129553 
0.125 0.08195313792435208 1:0.634838 2:0.363929 3:-0.244373 4:0.0554965 5:0.417916 6:0.0165615 7:-0.159369 8:-0.130629 9:0.481994 10:-0.271109 11:0.0841937 12:-0.379228 13:-0.185033 14:-0.468141 15:-0.0619753 16:0.39485 17:-0.0987673 18:-0.291542 19:-0.0841076 20:0.324104 21:0.0235248 22:-0.692846 23:0.0824524 24:-0.201655 25:0.411529 26:-0.0128469 
0.125 0 1:0.551087 2:0.421927 3:-0.179129 4:-0.106522 5:0.408118 6:0.0865463 7:0.0893873 8:-0.195031 9:0.481367 10:-0.166724 11:0.19116 12:-0.258411 13:-0.04746 14:-0.26132 15:-0.212655 16:0.223455 17:0.211555 18:-0.213082 19:-0.0765618 20:-0.278575 21:0.121271 22:-0.628895 23:-0.0855388 24:-0.349475 25:0.133059 26:-0.0239753 
0.125 0 1:0.344308 2:0.500839 3:-0.122151 4:-0.25228 5:0.326979 6:0.0783335 7:0.367673 8:-0.194129 9:0.47167 10:-0.033357 11:0.108854 12:-0.0707992 13:0.214478 14:0.131811 15:-0.322814 16:0.0363554 17:0.444469 18:-0.0186269 19:0.0499471 20:-0.772653 21:0.101509 22:-0.439229 23:-0.156743 24:-0.242125 25:-0.113684 26:-0.0360977 
0.125 0 1:0.1646 2:0.504277 3:-0.0877269 4:-0.156263 5:0.174475 6:0.0585374 7:0.507126 8:-0.125228 9:0.215874 10:-0.230915 11:-0.00993012 12:0.0507926 13:0.288711 14:0.503189 15:-0.293732 16:-0.0431798 17:0.221901 18:0.102576 19:0.0355871 20:-0.898061 21:-0.0433541 22:-0.202134 23:-0.0173182 24:-0.00378769 25:-0.158635 26:-0.0364968 
0.125 0.01666482707759308 1:0.065675 2:0.436589 3:-0.0866655 4:-0.0224403 5:0.12748 6:0.11327 7:0.332644 8:0.0510435 9:0.00999096 10:-0.406191 11:-0.0421887 12:-0.12414 13:-0.133113 14:0.700558 15:-0.0541132 16:-0.0100205 17:-0.26054 18:0.107498 19:-0.0743423 20:-0.505538 21:-0.309818 22:0.0428002 23:0.137585 24:0.131373 25:-0.0149303 26:-0.0281608 
0.125 0.125 1:0.0834593 2:0.340653 3:-0.143034 4:0.235937 5:0.213114 6:0.2718 7:0.140676 8:0.0373975 9:-0.0430426 10:-0.129485 11:-0.103877 12:-0.251822 13:-0.14947 14:0.707686 15:0.180703 16:0.0734395 17:-0.662212 18:0.0163568 19:-0.24691 20:0.0213422 21:-0.526311 22:0.21673 23:0.0753454 24:0.00770294 25:-0.00773654 26:-0.0311652 
0.125 0.125 1:0.134429 2:0.257527 3:-0.224524 4:0.162513 5:0.273305 6:0.271986 7:0.0560611 8:0.041909 9:-0.144484 10:-0.0546984 11:0.0984104 12:0.204386 13:0.151124 14:0.591819 15:0.201062 16:0.133126 17:-0.57787 18:0.0227698 19:-0.288805 20:0.283994 21:-0.594503 22:0.306154 23:0.0204112 24:-0.350832 25:-0.276069 26:-0.0417916 
0.125 0.125 1:0.245039 2:0.42398 3:-0.221195 4:-0.193046 5:0.0479408 6:0.0712917 7:-0.0085771 8:0.0937876 9:-0.231987 10:-0.172185 11:0.146097 12:0.159484 13:-0.00603157 14:0.397868 15:-0.0764726 16:0.111283 17:-0.0681852 18:0.205844 19:-0.155043 20:0.153554 21:-0.44246 22:0.271599 23:0.0232618 24:-0.587096 25:-0.349898 26:-0.0400239 
0.125 0.125 1:0.400967 2:0.649205 3:-0.22239 4:-0.318738 5:0.0507385 6:0.0556172 7:0.2437 8:-0.210258 9:-0.164 10:-0.0620215 11:0.00263854 12:-0.0254608 13:-0.447059 14:0.162768 15:-0.38277 16:0.0710859 17:0.366119 18:0.278179 19:-0.0546125 20:-0.273664 21:-0.0169388 22:0.110507 23:-0.013523 24:-0.523423 25:-0.190828 26:-0.0215932 
0.125 0.125 1:0.571697 2:0.560012 3:-0.291812 4:-0.368758 5:0.184937 6:-0.0222106 7:0.222472 8:-0.467351 9:-0.0115376 10:0.0275376 11:-0.248927 12:-0.181162 13:-0.802679 14:-0.0439209 15:-0.39563 16:0.0886608 17:0.496683 18:0.153111 19:-0.0303384 20:-0.446769 21:0.332467 22:-0.121829 23:-0.0948208 24:-0.209558 25:0.0874324 26:0.0010225 
0.125 0.125 1:0.665744 2:0.451389 3:-0.368565 4:-0.28831 5:0.325577 6:-0.0984747 7:0.0940065 8:-0.432045 9:0.031909 10:0.159368 11:-0.431712 12:-0.205003 13:-0.894087 14:-0.138213 15:-0.207614 16:0.155654 17:0.250802 18:-0.0878302 19:-0.104699 20:-0.313585 21:0.348172 22:-0.262112 23:-0.277171 24:0.126588 25:0.21856 26:0.00724017 
0.125 0.125 1:0.678526 2:0.394259 3:-0.444121 4:-0.146582 5:0.382827 6:-0.177451 7:-0.0584036 8:-0.294195 9:0.0609806 10:0.21069 11:-0.613239 12:-0.153365 13:-0.744941 14:-0.0904501 15:-0.00364956 16:0.235484 17:-0.0892795 18:-0.243371 19:-0.134181 20:-0.0350965 21:0.0706422 22:-0.245583 23:-0.322286 24:0.33321 25:0.0557052 26:-0.00513813 
0.125 0.125 1:0.644682 2:0.382269 3:-0.478787 4:-0.0454221 5:0.371359 6:-0.297266 7:-0.170532 8:-0.113287 9:0.0176866 10:0.116315 11:-0.697191 12:-0.123171 13:-0.554692 14:0.0308756 15:0.0490455 16:0.261717 17:-0.26149 18:-0.187645 19:-0.00476761 20:0.2431 21:-0.275952 22:-0.0978252 23:-0.114042 24:0.364377 25:-0.112648 26:-0.0160022 
0.125 0.125 1:0.60769 2:0.400939 3:-0.480243 4:-0.0405239 5:0.379654 6:-0.477067 7:-0.154834 8:-0.0478605 9:-0.0310191 10:0.0378547 11:-0.650353 12:-0.119026 13:-0.523565 14:0.122159 15:-0.0284418 16:0.289061 17:-0.260898 18:-0.0962285 19:0.220595 20:0.295912 21:-0.412752 22:0.0067697 23:0.0809873 24:0.248779 25:-0.219639 26:-0.0150075 
0.125 0.125 1:0.575576 2:0.393099 3:-0.501847 4:-0.0855449 5:0.35294 6:-0.64222 7:-0.167955 8:-0.11611 9:0.0355447 10:-0.0558382 11:-0.682406 12:-0.205843 13:-0.541169 14:0.132376 15:-0.104234 16:0.329961 17:-0.13183 18:-0.0734254 19:0.497195 20:0.161865 21:-0.3326 22:-0.0651431 23:0.0881952 24:0.170515 25:-0.209521 26:-0.0121761 
0.125 0.125 1:0.549628 2:0.376752 3:-0.494853 4:-0.0743891 5:0.368411 6:-0.681744 7:-0.161509 8:-0.136991 9:0.0890052 10:0.0395884 11:-0.549063 12:-0.279207 13:-0.426221 14:0.0964628 15:-0.20572 16:0.300973 17:-0.00765387 18:-0.0682435 19:0.646806 20:-0.0422483 21:-0.197322 22:-0.234548 23:-0.147208 24:0.0508902 25:-0.186283 26:-0.0220283 
0.125 0.125 1:0.505008 2:0.376196 3:-0.481558 4:-0.0571046 5:0.392898 6:-0.643141 7:0.0197175 8:-0.0776686 9:0.139035 10:0.249946 11:-0.476439 12:-0.288651 13:0.0138555 14:0.0911937 15:-0.277814 16:0.251674 17:0.0141913 18:-0.0158358 19:0.609486 20:-0.225194 21:-0.0835078 22:-0.303876 23:-0.387828 24:0.0516317 25:-0.0954872 26:-0.0407488 
0.125 0.125 1:0.415907 2:0.386787 3:-0.298929 4:-0.072806 5:0.334467 6:-0.529774 7:0.0906102 8:-0.136523 9:0.113264 10:0.126036 11:-0.479159 12:-0.51061 13:0.289916 14:0.160658 15:-0.274424 16:0.151595 17:-0.0436722 18:0.11701 19:0.3948 20:-0.243974 21:-0.0359267 22:-0.194675 23:-0.312366 24:0.0899504 25:0.115107 26:-0.0522519 
0.125 0.125 1:0.306601 2:0.299909 3:-0.233989 4:-0.00221392 5:0.217709 6:-0.237318 7:-0.112988 8:-0.162581 9:0.00271988 10:-0.152536 11:-0.264881 12:-0.572896 13:0.141625 14:0.277914 15:-0.146337 16:0.0674919 17:-0.137736 18:0.16338 19:-0.0460536 20:-0.137314 21:-0.0994289 22:0.0105585 23:0.0439437 24:-0.0101015 25:0.363606 26:-0.0430257 
0.125 0.125 1:0.214291 2:0.0941732 3:-0.322904 4:0.0750525 5:0.353344 6:-0.0732186 7:-0.069503 8:-0.0549609 9:-0.153182 10:-0.304691 11:-0.241512 12:-0.737272 13:-0.25508 14:0.364687 15:0.0272332 16:0.0352235 17:-0.187493 18:0.0306604 19:-0.416059 20:-0.140257 21:-0.28414 22:0.105499 23:0.384618 24:-0.100535 25:0.652549 26:-0.0186718 
0.125 0.125 1:0.169673 2:0.0929828 3:-0.152648 4:-0.00776034 5:0.433534 6:0.0844484 7:0.041702 8:0.0728474 9:0.033585 10:-0.288318 11:0.0412829 12:-0.574801 13:-0.140608 14:0.373294 15:0.0665438 16:-0.0603639 17:-0.124611 18:-0.119158 19:-0.588055 20:-0.232117 21:-0.421493 22:0.00870711 23:0.391061 24:-0.311421 25:0.548118 26:-0.0065803 
0.125 0.125 1:0.154074 2:0.0880983 3:-0.0831829 4:-0.0390572 5:0.497475 6:0.185639 7:0.0162669 8:-0.0248121 9:0.0838647 10:-0.214377 11:0.109788 12:-0.493283 13:-0.195396 14:0.313362 15:0.0229219 16:-0.0992921 17:-0.0679943 18:-0.202406 19:-0.484816 20:-0.285768 21:-0.352397 22:0.0204827 23:0.142846 24:-0.364833 25:0.112318 26:-0.0103498 
0.125 0.125 1:0.163002 2:0.0904108 3:-0.21243 4:-0.0132968 5:0.344179 6:-0.125996 7:-0.112491 8:-0.118568 9:0.0620853 10:0.0121513 11:0.0806806 12:-0.135292 13:-0.0826094 14:0.242158 15:-0.0341281 16:-0.0939918 17:-0.0569202 18:-0.123256 19:-0.151232 20:-0.157521 21:-0.188448 22:0.0975563 23:-0.158184 24:-0.301838 25:-0.277397 26:-0.0227092 
0.125 0.125 1:0.138176 2:0.0230749 3:-0.262771 4:-0.0302315 5:0.357202 6:-0.16045 7:-0.174917 8:-0.285638 9:-0.0313076 10:0.1227 11:0.147484 12:0.313424 13:0.241739 14:0.299188 15:0.0799289 16:0.00529811 17:-0.0813906 18:-0.0840683 19:-0.0256891 20:0.0694888 21:-0.0522803 22:0.0684234 23:-0.294402 24:-0.346584 25:-0.467452 26:-0.0332227 
0.125 0.125 1:0.129351 2:0.0061238 3:-0.309516 4:-0.00360534 5:0.39251 6:-0.15003 7:-0.249737 8:-0.229794 9:0.11822 10:-0.0744915 11:0.0745239 12:-0.0157529 13:0.0740726 14:0.468553 15:0.219145 16:0.183463 17:-0.153472 18:-0.103352 19:-0.0584658 20:0.191892 21:-0.0651285 22:-0.154355 23:-0.254042 24:-0.352005 25:-0.208513 26:-0.0297304 
0.125 0.125 1:0.103275 2:0.0253743 3:-0.392571 4:-0.0586433 5:0.330164 6:-0.177759 7:-0.272968 8:-0.159427 9:0.496217 10:0.035862 11:0.163872 12:-0.256727 13:-0.0985204 14:0.619737 15:0.205155 16:0.315405 17:-0.15931 18:-0.0828726 19:-0.130018 20:0.106369 21:-0.144863 22:-0.438052 23:-0.238516 24:-0.372666 25:-0.00585087 26:-0.0255746 
0.125 0.125 1:0.102978 2:0.0652902 3:-0.602478 4:-0.0866551 5:0.277897 6:-0.320782 7:-0.139517 8:-0.295151 9:0.453049 10:0.0274317 11:0.0527212 12:0.329652 13:0.131838 14:0.593309 15:0.0321711 16:0.373477 17:-0.101724 18:-0.0317275 19:-0.0687557 20:-0.0687788 21:-0.144793 22:-0.370037 23:-0.142847 24:-0.173028 25:-0.112483 26:-0.0241378 
0 0.125 1:0.367463 2:0.388689 3:-0.436402 4:-0.0979024 5:0.147045 6:-0.513774 7:-0.122038 8:-0.377482 9:0.158045 10:-0.0777092 11:-0.262968 12:0.278187 13:0.101612 14:0.304833 15:-0.247578 16:0.245804 17:0.00959389 18:0.074709 19:0.195272 20:-0.156379 21:-0.134669 22:-0.0787419 23:-0.0104752 24:0.14512 25:-0.166542 26:-0.0215253 
0.125 0.06421350252916258 1:0.718949 2:0.504019 3:-0.525379 4:0.0085266 5:0.0845744 6:-0.357037 7:-0.310675 8:-0.270089 9:0.0967231 10:-0.0118051 11:-0.314719 12:0.171273 13:-0.00545387 14:0.0513185 15:-0.120752 16:0.0553882 17:-0.367516 18:-0.466401 19:-0.0380603 20:0.116509 21:-0.0975287 22:-0.330556 23:-0.1825 24:0.292929 25:-0.10772 26:-0.0183956 
0.02943152189194131 0.125 1:0.626508 2:0.536971 3:-0.504623 4:-0.0059835 5:0.0743291 6:-0.300628 7:-0.403707 8:-0.167112 9:-0.0663937 10:0.110161 11:-0.288404 12:0.106358 13:0.0370494 14:0.21234 15:-0.185926 16:0.0488212 17:-0.418804 18:-0.616836 19:-0.158189 20:0.192036 21:-0.185567 22:-0.036578 23:-0.332175 24:0.222226 25:-0.085334 26:-0.0112455 
0 0.07514978732200508 1:0.480974 2:0.549378 3:-0.526207 4:-0.076742 5:-0.118915 6:-0.223897 7:-0.262555 8:-0.139221 9:-0.220088 10:0.151731 11:-0.000793537 12:0.112376 13:0.123447 14:0.331357 15:-0.188843 16:0.204422 17:-0.317307 18:-0.386759 19:-0.198822 20:0.0837406 21:-0.095544 22:0.233853 23:-0.263065 24:-0.166947 25:-0.088495 26:-0.00753638 
0.125 0.125 1:0.524453 2:0.579717 3:-0.780436 4:-0.293467 5:-0.855462 6:-0.187255 7:-0.18855 8:-0.145426 9:-0.469754 10:-0.109234 11:0.272354 12:0.00663467 13:0.384471 14:0.253708 15:-0.102712 16:0.52312 17:0.160128 18:0.699471 19:-0.140617 20:-0.104918 21:0.0628617 22:0.49647 23:0.293487 24:-0.530872 25:-0.0200211 26:-0.0302041 
0.125 0 1:0.496233 2:0.531701 3:-0.640254 4:-0.448094 5:-1 6:-0.222265 7:-0.221556 8:0.0698036 9:-0.415611 10:-0.130661 11:0.0960471 12:-0.0688834 13:0.690042 14:0.206728 15:-0.0617891 16:0.34213 17:0.339596 18:0.858976 19:-0.0586481 20:-0.0969123 21:-0.181474 22:0.345075 23:0.302839 24:-0.196871 25:0.0580286 26:-0.0419239 
0 0.125 1:0.429475 2:0.61679 3:-0.37611 4:-0.20457 5:-0.643431 6:-0.309432 7:-0.0725303 8:0.303016 9:0.0600631 10:0.372664 11:0.142809 12:-0.122588 13:0.453837 14:0.191719 15:-0.259053 16:-0.0889311 17:0.0535171 18:-0.0395833 19:0.317167 20:-0.170434 21:-0.361466 22:-0.430896 23:-0.508876 24:-0.0793973 25:0.0680106 26:-0.0201796 
0 0.125 1:0.179132 2:0.470006 3:-0.225457 4:0.38975 5:-0.416596 6:-0.0091026 7:-0.0524206 8:0.159153 9:0.179686 10:-0.0593728 11:0.116007 12:0.207789 13:0.386542 14:0.373771 15:-0.380887 16:0.239013 17:-0.386359 18:0.315495 19:-0.00544094 20:0.0829182 21:-0.0809475 22:-0.338032 23:0.115841 24:-0.0200818 25:-0.428837 26:-0.0287786 
0.125 0.125 1:0.3428 2:0.0918382 3:0.156839 4:0.235199 5:0.020509 6:-0.00750134 7:0.198106 8:-0.0135189 9:0.0344488 10:0.227114 11:0.404881 12:-0.413176 13:-0.0788138 14:0.0804496 15:0.20569 16:-0.0596281 17:0.220266 18:-0.470818 19:0.0360474 20:-0.0416617 21:-0.0389503 22:0.11082 23:-0.317173 24:0.0441394 25:0.387547 26:-0.00921357 
0 0.125 1:0.35265 2:0.190213 3:0.0792061 4:0.351744 5:-0.0925208 6:0.0665766 7:0.412586 8:-0.0623989 9:0.142979 10:0.122124 11:0.644319 12:-0.158337 13:0.200787 14:0.00681152 15:0.0295546 16:0.095162 17:-0.0384088 18:-0.210938 19:-0.0519815 20:-0.311457 21:0.125171 22:-0.0296391 23:-0.0670215 24:-0.328669 25:0.224284 26:-0.0179787 
0.1202200160864209 0 1:0.317166 2:0.174242 3:0.134399 4:0.535783 5:-0.240171 6:-0.020216 7:0.537948 8:0.117897 9:0.145652 10:-0.173371 11:0.910093 12:-0.108769 13:0.214227 14:0.131723 15:-0.409169 16:0.175994 17:-0.291052 18:0.268135 19:-0.0796196 20:-0.486332 21:0.0704007 22:-0.197051 23:0.251419 24:-0.676322 25:-0.205104 26:-0.0295929 
0.125 0.125 1:0.287484 2:0.142047 3:0.148061 4:0.497659 5:-0.188922 6:-0.0310409 7:0.428459 8:0.0811244 9:0.218046 10:-0.0167318 11:0.906902 12:-0.221605 13:0.10931 14:0.222617 15:-0.430567 16:0.0602606 17:-0.203542 18:0.331966 19:-0.0305544 20:-0.306816 21:-0.0310308 22:-0.087409 23:0.0364882 24:-0.729865 25:-0.00830329 26:-0.0222094 
0.125 0.125 1:0.262289 2:0.0879351 3:0.206241 4:0.473165 5:-0.0169473 6:-0.0337663 7:0.252239 8:0.219029 9:-0.105089 10:0.131593 11:0.854252 12:-0.324763 13:-0.0821444 14:0.284319 15:-0.307171 16:-0.0954321 17:-0.165154 18:0.293756 19:-0.100324 20:-0.200557 21:-0.150976 22:0.0978303 23:-0.266846 24:-0.577487 25:0.32577 26:-0.0122164 
0.125 0.125 1:0.218684 2:-0.329243 3:0.144847 4:0.509157 5:0.021456 6:-0.08496 7:0.333353 8:0.38233 9:0.223129 10:0.0911124 11:0.341499 12:-0.244888 13:0.301008 14:0.284938 15:0.227738 16:-0.203694 17:-0.314487 18:0.185794 19:-0.120612 20:-0.341016 21:-0.537955 22:0.0253846 23:-0.231746 24:0.198531 25:0.284894 26:-0.0188126 
0.125 0.125 1:0.277365 2:-0.379745 3:-0.0206825 4:0.475619 5:0.456817 6:-0.214206 7:0.0606879 8:0.527562 9:0.178664 10:-0.195667 11:0.142615 12:0.020836 13:0.0269633 14:0.167838 15:0.437237 16:-0.109724 17:-0.451627 18:-0.213271 19:0.224436 20:0.191518 21:-0.595405 22:-0.0923193 23:0.0496423 24:0.358581 25:-0.0343849 26:-0.0177135 
0.125 0.125 1:0.31219 2:-0.374492 3:-0.188141 4:0.371228 5:0.468655 6:-0.558579 7:-0.198969 8:0.547959 9:0.171708 10:-0.311375 11:0.344165 12:0.21397 13:0.104656 14:0.0188923 15:0.49284 16:0.0986699 17:-0.482628 18:-0.553315 19:0.696974 20:0.832762 21:-0.468951 22:-0.296736 23:0.280396 24:0.195667 25:-0.348884 26:-0.0175244 
0.125 0.125 1:0.295654 2:-0.370541 3:-0.366659 4:0.252502 5:0.631127 6:-0.596584 7:-0.395123 8:0.214471 9:0.417064 10:-0.186971 11:0.321364 12:0.14298 13:0.256519 14:-0.0811687 15:0.330609 16:0.348612 17:-0.232043 18:-0.747434 19:0.750693 20:1 21:-0.124541 22:-0.445838 23:0.2788 24:0.0218611 25:-0.406863 26:-0.0207486 
0.125 0.125 1:0.260822 2:-0.226212 3:-0.540491 4:0.0203866 5:0.663241 6:-0.29267 7:-0.103589 8:0.100369 9:0.40498 10:-0.236705 11:0.244551 12:0.34718 13:0.511971 14:-0.0590884 15:0.0597997 16:0.568701 17:0.189727 18:-0.605113 19:0.298467 20:0.359085 21:0.0917959 22:-0.484073 23:0.173125 24:-0.0952624 25:-0.347149 26:-0.0279566 
0.125 0 1:0.147807 2:0.0526792 3:-0.710841 4:-0.327197 5:0.449616 6:0.0187456 7:0.524348 8:0.166666 9:0.214583 10:-0.189466 11:0.200572 12:0.247196 13:0.377687 14:0.195632 15:-0.166506 16:0.654107 17:0.454961 18:-0.352891 19:-0.306312 20:-0.606732 21:0.052361 22:-0.394501 23:-0.0562791 24:-0.0620639 25:-0.140485 26:-0.0391955 
0.125 0.03150554548677889 1:-0.0187402 2:0.177572 3:-0.592791 4:-0.470989 5:0.162964 6:0.233173 7:0.65405 8:0.0176904 9:0.0373758 10:0.141276 11:0.256635 12:-0.00847555 13:0.628005 14:0.534726 15:-0.225539 16:0.51411 17:0.309568 18:-0.185033 19:-0.594225 20:-0.967592 21:-0.139862 22:-0.220378 23:-0.299898 24:-0.0257462 25:0.0306134 26:-0.048544 
0.125 0.125 1:0.108096 2:0.437932 3:-0.343782 4:-0.455336 5:-0.308697 6:-0.00518861 7:0.240127 8:-0.158622 9:-0.333475 10:-0.0134973 11:0.250485 12:0.0791348 13:-0.0700079 14:0.299329 15:-0.0465109 16:0.0834087 17:0.0514251 18:0.446621 19:0.25842 20:0.256476 21:-0.0126064 22:0.270237 23:-0.0826856 24:-0.282589 25:0.0444971 26:-0.00867826 
0.01531448376404909 0.125 1:0.230717 2:0.480151 3:-0.29975 4:-0.607737 5:-0.421729 6:0.00434308 7:0.312605 8:-0.212504 9:-0.364247 10:-0.153369 11:0.276099 12:0.00262903 13:-0.193393 14:0.190998 15:-0.0689249 16:0.0899993 17:0.394895 18:0.579646 19:0.170399 20:0.157557 21:0.110989 22:0.259649 23:0.0711302 24:-0.440251 25:0.045193 26:-0.00428337 
0 0.125 1:0.523866 2:0.814113 3:-0.134233 4:-0.280981 5:-0.182136 6:0.0386672 7:0.4764 8:-0.139577 9:-0.285579 10:-0.234116 11:-0.433696 12:0.105086 13:-0.170274 14:0.0866299 15:-0.536508 16:0.223375 17:-0.425341 18:-0.0421042 19:-0.065972 20:-0.101816 21:-0.22562 22:-0.144992 23:-0.0654917 24:0.303958 25:-0.0476223 26:-0.0256103 
0 0.125 1:0.606558 2:0.635828 3:-0.0372523 4:-0.424415 5:-0.227193 6:-0.133777 7:0.481808 8:-0.225786 9:-0.351096 10:-0.385845 11:-0.771058 12:0.00845089 13:-0.318325 14:-0.0510914 15:-0.286741 16:0.182129 17:-0.151399 18:0.120483 19:0.14215 20:-0.155849 21:-0.113247 22:-0.017775 23:0.0432782 24:0.632831 25:0.0351261 26:-0.0146881 
0.125 0.125 1:0.657007 2:0.559853 3:0.0921422 4:-0.474094 5:-0.149296 6:-0.110283 7:0.556154 8:-0.199674 9:-0.297905 10:-0.329165 11:-0.732222 12:0.0469682 13:-0.30397 14:-0.0238822 15:-0.0325083 16:0.0915172 17:0.0950475 18:0.13682 19:0.199735 20:-0.232698 21:-0.129906 22:-0.00957313 23:0.0554584 24:0.618015 25:0.0281849 26:-0.0123213 
0.125 0.125 1:0.693045 2:0.487874 3:0.152506 4:-0.516903 5:-0.0759383 6:-0.0829718 7:0.581403 8:-0.215805 9:-0.279682 10:-0.330905 11:-0.593384 12:0.072965 13:-0.389763 14:0.0753226 15:0.0780971 16:0.0045709 17:0.131624 18:-0.00912531 19:0.135207 20:-0.275556 21:-0.24283 22:-0.0491421 23:-0.0208484 24:0.383422 25:0.00523315 26:-0.0126237 
0.0708710392021398 0 1:0.699229 2:0.438558 3:0.157048 4:-0.531987 5:0.0238304 6:-0.107922 7:0.550827 8:-0.234078 9:-0.293314 10:-0.334576 11:-0.457631 12:0.0448754 13:-0.399756 14:0.141727 15:0.0580367 16:0.00409602 17:0.0722779 18:-0.112551 19:0.0829895 20:-0.246261 21:-0.326064 22:-0.0107649 23:-0.0729955 24:0.0376659 25:0.0447562 26:-0.0154294 
0.125 0 1:0.696481 2:0.405236 3:0.204051 4:-0.492841 5:0.0475375 6:-0.146251 7:0.489335 8:-0.279977 9:-0.315516 10:-0.341308 11:-0.3295 12:-0.0322236 13:-0.323936 14:0.182326 15:-0.00216964 16:0.0181333 17:-0.020152 18:-0.119171 19:0.0985914 20:-0.143939 21:-0.297731 22:0.0951444 23:-0.0543159 24:-0.225746 25:0.077004 26:-0.019557 
0.125 0 1:0.708584 2:0.39882 3:0.227231 4:-0.465522 5:0.0401857 6:-0.10806 7:0.486763 8:-0.398956 9:-0.318959 10:-0.403899 11:-0.199438 12:0.0596464 13:-0.263309 14:0.18539 15:-0.0445122 16:0.0287228 17:-0.0560739 18:-0.0565884 19:0.146539 20:-0.0379916 21:-0.144316 22:0.115679 23:0.0316749 24:-0.32979 25:0.0742677 26:-0.02272 
0.125 0 1:0.72363 2:0.381162 3:0.194247 4:-0.491606 5:0.0635386 6:-0.103534 7:0.389454 8:-0.530501 9:-0.205494 10:-0.411646 11:-0.111243 12:0.133557 13:-0.179803 14:0.156469 15:-0.0404066 16:0.0318159 17:-0.0173714 18:-0.0849373 19:0.222006 20:-0.0131394 21:0.0388112 22:-0.0604463 23:0.0360766 24:-0.300298 25:0.0656502 26:-0.0235794 
0.125 0 1:0.729407 2:0.368187 3:0.188006 4:-0.476995 5:0.107126 6:-0.0511248 7:0.377004 8:-0.611035 9:-0.0544959 10:-0.398806 11:-0.128943 12:0.126818 13:-0.219787 14:0.0871881 15:0.00775817 16:0.0151001 17:0.0537846 18:-0.215035 19:0.290799 20:-0.129343 21:0.157495 22:-0.364243 23:-0.0026524 24:-0.175033 25:0.0564613 26:-0.0196583 
0.125 0 1:0.716426 2:0.337761 3:0.153755 4:-0.459896 5:0.13818 6:0.00352432 7:0.435215 8:-0.588493 9:0.0448878 10:-0.327519 11:-0.143718 12:0.149286 13:-0.156703 14:-0.0132182 15:-0.0215977 16:0.0595092 17:0.0822368 18:-0.240999 19:0.231949 20:-0.20362 21:0.14607 22:-0.622529 23:-0.0569323 24:-0.0497312 25:0.0343493 26:-0.0183441 
0.125 0 1:0.692094 2:0.337374 3:0.106472 4:-0.41524 5:0.138015 6:0.102389 7:0.427741 8:-0.546029 9:-0.0109828 10:-0.305682 11:-0.134492 12:0.288031 13:-0.0942055 14:-0.0462891 15:-0.143959 16:0.131829 17:0.0234716 18:-0.0147556 19:0.0180969 20:-0.132097 21:0.11948 22:-0.5807 23:-0.0378541 24:-0.00647555 25:-0.0737785 26:-0.0278023 
0.125 0 1:0.642954 2:0.423802 3:0.0306055 4:-0.318448 5:-0.0397701 6:0.334317 7:0.254568 8:-0.449736 9:-0.119112 10:-0.390919 11:-0.0174662 12:0.405133 13:0.060618 14:0.0269294 15:-0.291927 16:0.185648 17:-0.100882 18:0.369143 19:-0.335269 20:-0.00480069 21:0.0214426 22:-0.253581 23:0.0502115 24:-0.0850221 25:-0.246383 26:-0.0366695 
0.125 0.125 1:0.491007 2:0.486018 3:-0.0784463 4:-0.20748 5:-0.21373 6:0.536113 7:0.117784 8:-0.366782 9:-0.355461 10:-0.334166 11:0.00512648 12:0.38331 13:0.189586 14:0.209222 15:-0.403733 16:0.17496 17:-0.198145 18:0.531803 19:-0.603772 20:0.0218183 21:-0.0500071 22:0.16602 23:-0.00900565 24:-0.187928 25:-0.405644 26:-0.037373 
0.125 0.125 1:0.27631 2:0.268651 3:-0.00125571 4:-0.211699 5:0.0250039 6:0.379734 7:0.298164 8:-0.296869 9:-0.589067 10:-0.288277 11:0.0368996 12:0.454293 13:0.156677 14:0.416598 15:-0.315709 16:0.148495 17:-0.241765 18:0.280348 19:-0.532263 20:-0.114928 21:-0.213849 22:0.378788 23:-0.15118 24:-0.204462 25:-0.427827 26:-0.0280234 
0.125 0.125 1:0.27376 2:0.184888 3:-0.0234438 4:-0.198146 5:0.340068 6:0.296754 7:0.327095 8:0.0171103 9:-0.456876 10:-0.169296 11:0.0522491 12:0.337056 13:-0.407742 14:0.475201 15:-0.190221 16:0.24721 17:-0.238678 18:-0.146555 19:-0.266077 20:-0.0999492 21:-0.481284 22:0.223188 23:-0.209167 24:-0.123613 25:-0.222952 26:-0.010918 
0.125 0.125 1:0.242839 2:0.194205 3:-0.136663 4:-0.19429 5:0.43326 6:0.126854 7:0.137311 8:-0.0773611 9:-0.321378 10:-0.1281 11:0.0299795 12:0.176342 13:-0.0706572 14:0.416859 15:-0.126814 16:0.420249 17:-0.219944 18:-0.422585 19:0.0612895 20:0.0774707 21:-0.47147 22:0.0585171 23:-0.0690094 24:0.0163422 25:0.110233 26:-0.00892334 
0.125 0.125 1:0.215523 2:-0.0622625 3:-0.273054 4:-0.178239 5:0.304772 6:-0.0714783 7:0.0177984 8:0.114991 9:-0.297805 10:-0.407361 11:-0.0522621 12:-0.101456 13:0.0790891 14:0.297749 15:-0.0414359 16:0.530094 17:-0.17609 18:-0.391733 19:0.23356 20:0.182649 21:-0.331201 22:-0.0212759 23:0.194859 24:0.106004 25:0.374784 26:-0.0165191 
0.125 0.125 1:0.259116 2:-0.0992032 3:-0.0356655 4:-0.303491 5:0.400845 6:-0.0913201 7:0.126995 8:-0.131979 9:-0.369711 10:-0.451004 11:0.0752081 12:-0.0123083 13:-0.0410846 14:0.20564 15:-0.0676773 16:0.372921 17:-0.0870572 18:-0.191892 19:0.188595 20:0.0180371 21:-0.0612475 22:0.0692829 23:0.231815 24:0.0604347 25:0.333645 26:-0.0258662 
0.125 0.125 1:0.26556 2:-0.139868 3:0.153964 4:-0.308278 5:0.386609 6:-0.106847 7:0.368536 8:-0.247698 9:-0.352991 10:-0.12047 11:0.148353 12:0.043506 13:0.141268 14:0.213728 15:-0.061797 16:0.0655356 17:-0.0203295 18:-0.0061262 19:0.111834 20:-0.33915 21:0.0578373 22:0.144511 23:0.0472896 24:-0.0258486 25:0.0905054 26:-0.0351363 
0.125 0 1:0.212888 2:-0.310548 3:0.214473 4:-0.38112 5:0.253498 6:-0.166265 7:0.309945 8:0.036787 9:0.0114763 10:0.0433341 11:0.230352 12:0.208151 13:0.311221 14:0.257526 15:0.0302467 16:-0.164814 17:0.0505232 18:0.0690567 19:0.0744161 20:-0.453708 21:-0.143629 22:-0.120163 23:-0.184112 24:-0.168143 25:-0.198733 26:-0.038538 
0.125 0 1:0.202168 2:-0.36568 3:0.298827 4:-0.361498 5:0.207995 6:-0.276041 7:0.180547 8:0.169484 9:-0.0565797 10:-0.0501239 11:0.264326 12:0.158804 13:0.0854365 14:0.264561 15:0.0962425 16:-0.267685 17:0.0668498 18:0.0900678 19:0.124896 20:-0.248722 21:-0.312414 22:-0.297966 23:-0.272068 24:-0.311222 25:-0.35715 26:-0.0342637 
0.125 0.125 1:0.25035 2:-0.437467 3:0.287551 4:-0.396959 5:0.411624 6:-0.273249 7:0.0841689 8:-0.0112832 9:0.142192 10:-0.092528 11:0.329031 12:0.111993 13:0.0178106 14:0.211545 15:0.166697 16:-0.252104 17:0.0462876 18:0.0334882 19:0.175171 20:0.0847383 21:-0.315128 22:-0.332104 23:-0.177909 24:-0.33653 25:-0.348993 26:-0.0284871 
0.125 0.125 1:0.277537 2:-0.504936 3:0.179152 4:-0.389448 5:0.332521 6:-0.303567 7:0.0304763 8:0.0245888 9:0.265246 10:0.139881 11:0.393816 12:0.0707753 13:0.0483462 14:0.146995 15:0.147199 16:-0.172849 17:0.0223607 18:-0.0504112 19:0.138376 20:0.273845 21:-0.197345 22:-0.169606 23:-0.0640918 24:-0.273108 25:-0.203839 26:-0.0232937 
0.125 0.125 1:0.287009 2:-0.408865 3:0.126482 4:-0.322633 5:0.206895 6:-0.291279 7:0.0263486 8:0.0362917 9:-0.0473368 10:-0.0510166 11:0.232835 12:-0.0425647 13:-0.330179 14:0.133392 15:0.0201507 16:-0.0446205 17:-0.0414521 18:-0.0945535 19:0.0381836 20:0.112017 21:-0.103311 22:0.0765681 23:0.0147 24:-0.120092 25:0.0754966 26:-0.0161227 
0.125 0.125 1:0.24362 2:-0.36635 3:-0.0301094 4:-0.289176 5:0.408586 6:-0.247591 7:0.1051 8:-0.0431661 9:0.0949605 10:-0.118851 11:0.0784034 12:-0.297769 13:-0.132738 14:0.200974 15:-0.0277738 16:0.142315 17:-0.108116 18:-0.117487 19:-0.0212784 20:-0.222083 21:-0.192557 22:-0.0972766 23:-0.0515596 24:0.0590196 25:0.38583 26:-0.0167349 
0.125 0.125 1:0.218474 2:-0.402826 3:-0.302012 4:-0.316836 5:0.403064 6:-0.220474 7:0.226602 8:0.0322945 9:0.436067 10:0.0536413 11:0.229821 12:-0.379728 13:-0.212818 14:0.256415 15:-0.00462941 16:0.333246 17:-0.16467 18:-0.0090778 19:0.0199095 20:-0.426187 21:-0.377339 22:-0.413087 23:-0.168948 24:0.108659 25:0.440352 26:-0.0162517 
0.125 0.125 1:0.226612 2:-0.354868 3:-0.328964 4:-0.249427 5:0.143349 6:-0.331571 7:0.244125 8:0.0985762 9:0.416161 10:0.20014 11:0.226219 12:-0.203154 13:-0.405692 14:0.213292 15:0.0465558 16:0.40268 17:-0.160259 18:0.124927 19:0.129685 20:-0.297211 21:-0.434549 22:-0.553741 23:-0.225023 24:0.0926262 25:0.136049 26:-0.0162721 
0.125 0.125 1:0.240936 2:-0.316745 3:-0.338873 4:-0.239165 5:0.207151 6:-0.327086 7:-0.0425207 8:-0.0509895 9:0.287144 10:-0.0674844 11:0.0675187 12:-0.0762962 13:-0.227988 14:0.153225 15:0.23319 16:0.457488 17:-0.0780215 18:0.00743802 19:0.177972 20:0.143774 21:-0.275478 22:-0.411123 23:-0.182618 24:0.0695302 25:-0.162805 26:-0.0207903 
0.125 0.125 1:0.268062 2:-0.201292 3:-0.451744 4:-0.337763 5:0.373639 6:-0.226022 7:-0.167992 8:-0.295884 9:0.0799919 10:-0.194301 11:0.301635 12:0.0993937 13:-0.0888123 14:0.180368 15:0.374428 16:0.511108 17:-0.00237135 18:-0.258123 19:0.161495 20:0.471446 21:-0.031162 22:-0.0712271 23:-0.09699 24:-0.137321 25:-0.267251 26:-0.0256202 
0.125 0.125 1:0.235326 2:-0.142162 3:-0.420826 4:-0.375428 5:0.354172 6:-0.174938 7:-0.00692403 8:-0.328709 9:0.0264216 10:-0.0715926 11:0.400597 12:-0.0865682 13:-0.295198 14:0.306206 15:0.378819 16:0.445375 17:-0.0285545 18:-0.415339 19:0.116754 20:0.40442 21:0.099749 22:0.130612 23:-0.130954 24:-0.299001 25:-0.0647702 26:-0.0296084 
0.125 0.125 1:0.109789 2:0.0060642 3:-0.337567 4:-0.2309 5:0.30066 6:-0.14802 7:0.151227 8:-0.366614 9:-0.00820924 10:-0.125566 11:0.309254 12:-0.292514 13:-0.211271 14:0.435627 15:0.155056 16:0.244444 17:-0.140536 18:-0.356898 19:0.0283307 20:0.0633228 21:0.0912554 22:0.113202 23:-0.13114 24:-0.395358 25:0.115025 26:-0.0337412 
0.125 0.125 1:0.342178 2:0.761552 3:-0.00288995 4:-0.327267 5:-0.159929 6:0.0590711 7:0.410497 8:-0.327983 9:-0.0758612 10:-0.395356 11:0.185915 12:0.0707993 13:-0.393267 14:0.179868 15:-0.671714 16:-0.214303 17:-0.172938 18:0.131455 19:-0.33891 20:-0.56045 21:-0.0262715 22:-0.0121425 23:0.134487 24:-0.299197 25:-0.317623 26:-0.0195957 
0.125 0.06493758287694044 1:0.380007 2:0.805332 3:-0.0556373 4:-0.386071 5:-0.0903586 6:0.0879932 7:0.431916 8:-0.322426 9:0.0164335 10:-0.567597 11:0.140059 12:-0.00576923 13:-0.484043 14:-0.00558259 15:-0.753826 16:-0.132315 17:0.0493221 18:0.0639005 19:-0.317455 20:-0.539831 21:0.0522064 22:-0.0215443 23:0.317205 24:-0.119871 25:-0.396436 26:-0.0104338 
0 0.125 1:0.297824 2:0.778963 3:-0.188679 4:-0.410996 5:-0.45829 6:-0.291555 7:0.157872 8:-0.0464531 9:0.0836625 10:-0.375807 11:-0.28047 12:-0.46351 13:-0.186842 14:0.24706 15:-0.333247 16:0.152576 17:0.102125 18:0.171351 19:0.440646 20:0.0209906 21:-0.108753 22:-0.108897 23:0.159319 24:0.386769 25:0.206959 26:-0.0246826 
0 0.125 1:0.221943 2:0.67021 3:-0.237227 4:-0.0984764 5:-0.509173 6:-0.0796445 7:0.139389 8:0.193018 9:0.111975 10:-0.180902 11:-0.0685116 12:-0.400333 13:-0.183122 14:0.353624 15:-0.156615 16:0.166105 17:-0.199906 18:0.261582 19:0.21156 20:0.0516616 21:-0.358948 22:-0.174959 23:0.000855859 24:0.173542 25:0.25486 26:-0.0259622 
0 0.125 1:0.247444 2:0.522696 3:-0.325903 4:-0.0510448 5:-0.535823 6:0.0260842 7:0.0346497 8:0.32489 9:0.0200217 10:-0.142528 11:-0.0867148 12:-0.591792 13:-0.262984 14:0.350498 15:0.059179 16:0.230695 17:-0.343629 18:0.214127 19:-0.105941 20:-0.0241942 21:-0.54356 22:-0.237341 23:-0.0998078 24:-0.0978099 25:0.325115 26:-0.0196962 
0 0.125 1:0.284167 2:0.434261 3:-0.345296 4:-0.113237 5:-0.531806 6:0.0364671 7:0.0840533 8:0.379686 9:0.134958 10:0.0514059 11:0.0928736 12:-0.606529 13:-0.0634502 14:0.288921 15:0.206916 16:0.309625 17:-0.357851 18:0.16096 19:-0.306705 20:-0.161164 21:-0.592313 22:-0.353221 23:-0.230973 24:-0.332348 25:0.30828 26:-0.015971 
0 0.125 1:0.303463 2:0.382608 3:-0.323318 4:-0.151238 5:-0.451503 6:0.0604473 7:0.0698329 8:0.346632 9:0.148256 10:0.251074 11:0.1666 12:-0.337318 13:-0.051274 14:0.231968 15:0.274064 16:0.325373 17:-0.246186 18:0.0281935 19:-0.333542 20:-0.202259 21:-0.468083 22:-0.354676 23:-0.295764 24:-0.318279 25:0.161389 26:-0.0161054 
0 0.125 1:0.3164 2:0.400208 3:-0.30077 4:-0.0890292 5:-0.424807 6:0.0436714 7:-0.0501832 8:0.23182 9:-0.0598226 10:0.123154 11:0.00878295 12:-0.411693 13:0.0342083 14:0.224662 15:0.217647 16:0.287804 17:-0.175572 18:-0.106069 19:-0.263911 20:-0.0621159 21:-0.235274 22:-0.225352 23:-0.210657 24:-0.13323 25:0.0402804 26:-0.024828 
0 0.125 1:0.331077 2:0.457226 3:-0.262586 4:-0.14729 5:-0.45204 6:-0.0985925 7:-0.181121 8:0.147314 9:-0.110349 10:0.184506 11:-0.0358332 12:-0.25565 13:0.365807 14:0.240441 15:0.0784265 16:0.242852 17:-0.16917 18:-0.142542 19:-0.145795 20:0.15846 21:-0.0484394 22:-0.103687 23:-0.19528 24:-0.0745983 25:-0.198675 26:-0.0340196 
0 0.125 1:0.362721 2:0.541901 3:-0.157104 4:-0.315925 5:-0.306331 6:-0.190979 7:-0.165751 8:0.074995 9:-0.263036 10:0.211954 11:0.0186356 12:-0.0626377 13:0.449666 14:0.223495 15:-0.0818957 16:0.179275 17:-0.12908 18:-0.0883893 19:0.0125462 20:0.325461 21:-0.010025 22:0.0162345 23:-0.186782 24:-0.119489 25:-0.316589 26:-0.0332574 
0 0.125 1:0.402299 2:0.653959 3:-0.0957269 4:-0.269369 5:-0.435999 6:-0.292584 7:-0.222258 8:0.0767298 9:-0.302254 10:0.199086 11:0.105617 12:-0.0720712 13:0.362701 14:0.173153 15:-0.217015 16:0.106326 17:-0.128142 18:0.160324 19:0.218006 20:0.337467 21:-0.136071 22:0.000208218 23:-0.210507 24:-0.183133 25:-0.195924 26:-0.0274632 
0 0.125 1:0.43942 2:0.678834 3:-0.0519873 4:-0.33833 5:-0.552543 6:-0.431219 7:-0.100733 8:0.100404 9:-0.327869 10:0.182559 11:0.00536281 12:-0.158559 13:0.269958 14:0.112835 15:-0.275457 16:0.037653 17:-0.0601622 18:0.37946 19:0.362215 20:0.121202 21:-0.289549 22:-0.0474565 23:-0.199675 24:-0.0574656 25:0.00345967 26:-0.0222802 
0 0.125 1:0.456101 2:0.701007 3:0.0628924 4:-0.488826 5:-0.407029 6:-0.485805 7:0.0533564 8:0.139077 9:-0.411169 10:0.030445 11:-0.119324 12:-0.248696 13:0.477657 14:0.0714689 15:-0.295829 16:-0.0151197 17:0.055772 18:0.353363 19:0.366137 20:-0.170702 21:-0.334201 22:0.0380569 23:-0.0488658 24:0.198699 25:0.167068 26:-0.0254287 
0.125 0.125 1:0.451123 2:0.706994 3:0.0770016 4:-0.544509 5:-0.243225 6:-0.407828 7:0.195142 8:-0.0306191 9:-0.480131 10:-0.0260721 11:-0.151522 12:-0.15158 13:0.579218 14:0.0547405 15:-0.285261 16:0.0154454 17:0.141423 18:0.162726 19:0.247432 20:-0.350575 21:-0.206155 22:0.178861 23:0.119731 24:0.344441 25:0.0765526 26:-0.0320005 
0.125 0.125 1:0.4259 2:0.698665 3:0.0359377 4:-0.579121 5:-0.0862841 6:-0.288171 7:0.211972 8:-0.177392 9:-0.511266 10:-0.12851 11:-0.0291212 12:0.0403493 13:0.512098 14:0.0681347 15:-0.251079 16:0.105744 17:0.174726 18:-0.0926959 19:0.130481 20:-0.344403 21:-0.0286492 22:0.297555 23:0.250927 24:0.247046 25:-0.151831 26:-0.0329191 
0.125 0.125 1:0.376789 2:0.630399 3:0.0396178 4:-0.556368 5:0.0672713 6:-0.298294 7:0.186017 8:-0.196596 9:-0.507287 10:-0.118064 11:0.16747 12:0.0681607 13:0.445839 14:0.0976578 15:-0.197334 16:0.210108 17:0.111233 18:-0.207506 19:0.165145 20:-0.274653 21:0.076348 22:0.32289 23:0.241592 24:-0.0581753 25:-0.20931 26:-0.030842 
0.0679389022775789 0.1078521344830014 1:0.32014 2:0.556077 3:0.0536817 4:-0.493947 5:0.120527 6:-0.242928 7:0.146198 8:-0.186506 9:-0.315894 10:-0.0783034 11:0.301224 12:-0.00307184 13:0.395226 14:0.106777 15:-0.131137 16:0.249516 17:0.0707272 18:-0.142944 19:0.205792 20:-0.248102 21:0.106325 22:0.165854 23:0.0955958 24:-0.372033 25:-0.0909341 26:-0.0269031 
0.125 0.125 1:0.235128 2:0.505104 3:0.0734127 4:-0.479502 5:0.177295 6:-0.177243 7:0.211159 8:-0.221135 9:-0.140061 10:0.103005 11:0.395196 12:-0.0692875 13:0.323767 14:0.105411 15:-0.0648163 16:0.16087 17:0.136411 18:-0.10852 19:0.148122 20:-0.223866 21:0.0550758 22:-0.156831 23:-0.171764 24:-0.590927 25:0.0447951 26:-0.0229926 
0.125 0.125 1:0.178281 2:0.451863 3:0.136989 4:-0.464953 5:0.254149 6:-0.000559835 7:0.228273 8:-0.172291 9:-0.0358756 10:0.16724 11:0.464503 12:-0.0521056 13:0.324974 14:0.1178 15:-0.0211927 16:0.0245256 17:0.186675 18:-0.191821 19:-0.0597421 20:-0.0751266 21:-0.069487 22:-0.460398 23:-0.319069 24:-0.587346 25:0.0865011 26:-0.0226431 
0.125 0.125 1:0.0917382 2:0.377593 3:0.241659 4:-0.363381 5:0.339986 6:0.237867 7:-0.0033506 8:-0.0576629 9:0.194525 10:0.169003 11:0.355379 12:0.0909971 13:0.0947142 14:0.243664 15:-0.101253 16:-0.0641739 17:0.0806058 18:-0.399884 19:-0.283537 20:0.140137 21:-0.164185 22:-0.702251 23:-0.243186 24:-0.407615 25:0.0115715 26:-0.0208936 
0.125 0.125 1:-0.0600582 2:0.333101 3:0.194284 4:-0.187037 5:0.425133 6:0.222686 7:-0.0602431 8:0.0572278 9:0.247013 10:0.131052 11:0.173249 12:0.0816522 13:0.103226 14:0.547314 15:-0.265949 16:-0.0263028 17:-0.221818 18:-0.560849 19:-0.354971 20:0.107414 21:-0.232729 22:-0.667033 23:-0.0505723 24:-0.13676 25:-0.0233356 26:-0.0211599 
0.125 0.125 1:-0.174455 2:0.35999 3:0.0685511 4:0.0140924 5:0.33555 6:0.199593 7:0.111854 8:0.0318707 9:-0.0755692 10:-0.116837 11:-0.0336771 12:0.00916253 13:0.239223 14:0.808142 15:-0.367325 16:0.127124 17:-0.525175 18:-0.425434 19:-0.355922 20:-0.181055 21:-0.220425 22:-0.333281 23:0.149465 24:0.111369 25:-0.0448684 26:-0.022195 
0.125 0.125 1:-0.20844 2:0.312224 3:0.0620061 4:0.0745327 5:0.162802 6:0.200767 7:0.277099 8:-0.0323407 9:-0.104839 10:0.0158348 11:0.0361588 12:0.146172 13:-0.0218215 14:0.778919 15:-0.24526 16:0.227875 17:-0.610292 18:0.00749098 19:-0.324926 20:-0.461165 21:-0.192939 22:0.0396217 23:0.0969365 24:0.221177 25:-0.197714 26:-0.017765 
0.125 0.125 1:-0.0492216 2:-0.0155407 3:0.0550627 4:-0.0114846 5:-0.115819 6:0.203438 7:0.118829 8:0.182111 9:-0.286125 10:0.163837 11:-0.134357 12:0.193649 13:-0.0770507 14:0.440753 15:0.285072 16:0.265456 17:-0.42491 18:0.467085 19:-0.161844 20:-0.335069 21:-0.378735 22:0.317888 23:-0.146747 24:0.321998 25:-0.313069 26:-0.0168769 
0.125 0.125 1:0.32753 2:-0.191065 3:0.00259309 4:-0.222212 5:-0.201021 6:-0.0101104 7:-0.0895346 8:0.137894 9:-0.337514 10:0.12425 11:-0.113029 12:0.171569 13:0.0695584 14:0.020033 15:0.759279 16:0.245156 17:-0.130619 18:0.542399 19:0.194741 20:0.0367306 21:-0.470057 22:0.285556 23:-0.348235 24:0.296951 25:-0.29401 26:-0.0212301 
0.125 0.125 1:0.420471 2:-0.140681 3:0.0982035 4:-0.252365 5:-0.103193 6:-0.17391 7:-0.157091 8:0.115034 9:-0.279002 10:0.103304 11:-0.046866 12:0.0669894 13:0.06392 14:-0.126224 15:0.815748 16:0.178531 17:0.0430076 18:0.196103 19:0.563542 20:0.29822 21:-0.426616 22:0.0518035 23:-0.399815 24:0.17141 25:-0.0550194 26:-0.0256258 
0.125 0.125 1:0.282916 2:-0.061805 3:0.0511673 4:-0.329407 5:0.145756 6:-0.288873 7:-0.187633 8:0.0794093 9:-0.0397628 10:0.113152 11:0.122804 12:-0.19209 13:0.0650844 14:-0.0347941 15:0.407036 16:0.160473 17:0.0946683 18:-0.27779 19:0.657373 20:0.289032 21:-0.198821 22:-0.194642 23:-0.182395 24:-0.0753109 25:0.303969 26:-0.027959 
0.125 0.125 1:0.344736 2:0.510716 3:0.0992253 4:-0.359269 5:0.159457 6:-0.0476112 7:0.029267 8:-0.310755 9:-0.127081 10:-0.240751 11:0.273768 12:-0.187925 13:0.0761647 14:0.0269073 15:-0.388063 16:0.0583116 17:0.11135 18:-0.433244 19:0.262093 20:0.0650511 21:0.156838 22:-0.215938 23:0.23855 24:-0.343826 25:0.473785 26:-0.0245149 
0.125 0.125 1:0.466946 2:0.657719 3:0.126474 4:-0.426432 5:-0.0348444 6:0.194744 7:-0.0135969 8:-0.216735 9:-0.178289 10:-0.361423 11:0.319138 12:-0.126111 13:-0.0793522 14:-0.00496146 15:-0.906617 16:-0.0564947 17:0.161407 18:-0.119595 19:-0.223293 20:-0.0282768 21:0.179343 22:-0.0934227 23:0.459276 24:-0.403352 25:0.378502 26:-0.0209523 
0.125 0.125 1:0.450846 2:0.669516 3:0.135315 4:-0.412658 5:-0.151153 6:0.325305 7:0.0217635 8:-0.16554 9:-0.132216 10:-0.348894 11:0.362095 12:0.0187784 13:-0.0282419 14:-0.0214943 15:-1 16:-0.0702744 17:0.182229 18:0.357668 19:-0.455709 20:-0.119179 21:0.116444 22:0.0511547 23:0.390049 24:-0.309205 25:0.0139143 26:0.0848411 
0.125 0.125 1:0.314507 2:0.63152 3:0.111245 4:-0.422629 5:-0.213149 6:0.266334 7:0.0887906 8:-0.101715 9:-0.172235 10:-0.139855 11:0.238577 12:0.173209 13:0.0488905 14:0.117461 15:-0.72898 16:0.0297958 17:0.13645 18:0.608532 19:-0.359159 20:-0.208133 21:-0.0356962 22:0.0860442 23:0.0941961 24:-0.125334 25:-0.362475 26:-0.0270828 
0 0.125 1:0.228324 2:0.423661 3:-0.0766985 4:-0.278569 5:-0.164035 6:0.0424838 7:0.220908 8:-0.042363 9:-0.0250318 10:0.122108 11:0.199397 12:0.383897 13:0.0355247 14:0.328401 15:-0.255249 16:0.224865 17:-0.0205374 18:0.395936 19:-0.0859757 20:-0.263415 21:-0.208448 22:-0.164091 23:-0.287899 24:-0.119364 25:-0.477423 26:-0.0259043 
0.125 0.125 1:0.164615 2:0.139026 3:-0.177555 4:-0.187627 5:0.0878629 6:0.151357 7:0.23219 8:-0.0685661 9:-0.00100277 10:0.0476592 11:0.252464 12:0.300005 13:-0.134993 14:0.427796 15:0.0678874 16:0.322436 17:-0.215694 18:-0.162476 19:0.0677512 20:-0.275393 21:-0.256272 22:-0.388712 23:-0.3968 24:-0.217913 25:-0.227164 26:-0.0165474 
0.125 0.125 1:0.172815 2:0.06094 3:-0.111644 4:-0.177577 5:0.37006 6:0.101963 7:0.0827959 8:0.169341 9:0.155194 10:0.0172088 11:0.272375 12:0.0110906 13:-0.122078 14:0.357952 15:0.16672 16:0.249914 17:-0.292196 18:-0.643849 19:0.165274 20:-0.169392 21:-0.392337 22:-0.502152 23:-0.247822 24:-0.236837 25:0.0558177 26:-0.0124119 
0.125 0.125 1:0.218263 2:0.0459144 3:-0.0608571 4:-0.0967636 5:0.347455 6:-0.00240478 7:0.132854 8:0.0895633 9:0.0602776 10:0.132105 11:0.202784 12:4.48159e-05 13:-0.144956 14:0.237662 15:0.127664 16:0.0841315 17:-0.20349 18:-0.649016 19:0.122318 20:-0.146355 21:-0.36545 22:-0.354552 23:0.00386159 24:-0.0861783 25:-0.00715898 26:-0.0218964 
0.125 0.125 1:0.236613 2:-0.0598281 3:-0.14039 4:-0.135775 5:0.178805 6:-0.0598354 7:0.186828 8:-0.0121604 9:-0.216238 10:-0.141966 11:-0.0885774 12:0.180734 13:-0.0201351 14:0.171522 15:0.0818361 16:-0.0865154 17:0.0151896 18:-0.183853 19:-0.0496368 20:-0.206727 21:-0.200757 22:-0.0575507 23:0.239699 24:0.175709 25:-0.152648 26:-0.0361913 
0.125 0.125 1:0.209256 2:-0.125525 3:-0.14766 4:-0.289239 5:-0.0488363 6:0.143799 7:0.0875549 8:0.0163735 9:-0.266029 10:-0.202259 11:-0.0457602 12:0.335265 13:0.315617 14:0.151006 15:0.0507413 16:-0.170935 17:0.170739 18:0.342187 19:-0.299059 20:-0.309482 21:0.00943555 22:0.0840041 23:0.163895 24:0.193129 25:-0.0785319 26:-0.0390759 
0.125 0.125 1:0.189264 2:-0.152926 3:-0.188969 4:-0.207933 5:-0.134295 6:0.124011 7:0.030732 8:-0.0935879 9:-0.238347 10:0.16048 11:0.0460612 12:-0.0547331 13:0.0146811 14:0.138679 15:0.0608755 16:-0.113916 17:0.0654925 18:0.501785 19:-0.349028 20:-0.310746 21:0.149013 22:0.0564418 23:-0.1959 24:0.0210054 25:0.378581 26:-0.0165936 
0.125 0.125 1:0.217571 2:-0.130916 3:-0.356209 4:0.0424683 5:-0.000616958 6:-0.153195 7:0.0064101 8:-0.0786048 9:-0.245585 10:0.283581 11:0.139639 12:-0.401208 13:-0.516259 14:0.104622 15:0.0467362 16:0.0405193 17:-0.20515 18:0.22101 19:-0.061969 20:-0.113434 21:-0.055583 22:-0.0345989 23:-0.404532 24:-0.200527 25:0.687157 26:0.0096877 
0.125 0.125 1:0.198699 2:-0.11694 3:-0.639034 4:0.0471458 5:0.250681 6:-0.324212 7:-0.149081 8:0.0995104 9:-0.328105 10:0.140542 11:0.104471 12:0.0801168 13:-0.32132 14:0.0991348 15:0.0134452 16:0.259381 17:-0.346722 18:-0.174648 19:0.352146 20:0.255492 21:-0.368376 22:-0.0360088 23:-0.403661 24:-0.324267 25:0.297891 26:0.0113378 
0.125 0.125 1:0.120284 2:-0.160826 3:-0.716809 4:0.00320146 5:0.205495 6:-0.463157 7:-0.408566 8:0.305079 9:-0.314393 10:-0.0163334 11:0.0250656 12:0.494385 13:0.197523 14:0.174767 15:0.0695761 16:0.476623 17:-0.279228 18:-0.280661 19:0.587247 20:0.598697 21:-0.486554 22:0.0527828 23:-0.15672 24:-0.234099 25:-0.320942 26:-0.0115546 
0.125 0.125 1:0.0575017 2:-0.0826042 3:-0.749995 4:-0.0636922 5:0.145579 6:-0.392193 7:-0.293654 8:0.168706 9:-0.376859 10:-0.21437 11:0.0395221 12:0.628927 13:0.574914 14:0.328348 15:0.21083 16:0.64879 17:-0.0448943 18:-0.208868 19:0.435594 20:0.572938 21:-0.230304 22:0.0791172 23:0.0565195 24:-0.141387 25:-0.712598 26:-0.0436462 
0.125 0.125 1:0.00805315 2:-0.0135775 3:-0.886491 4:-0.122677 5:0.115692 6:-0.306248 7:-0.128369 8:-0.166718 9:-0.302201 10:-0.0549824 11:-0.0378346 12:0.475145 13:0.685702 14:0.476678 15:0.343768 16:0.743752 17:0.101583 18:-0.214301 19:0.188105 20:0.245407 21:0.176999 22:-0.00579734 23:0.0340922 24:-0.0641507 25:-0.543335 26:-0.0575714 
0.125 0.125 1:-0.0272875 2:-0.0109068 3:-0.856108 4:-0.0989032 5:0.0981467 6:-0.103601 7:0.125971 8:-0.10145 9:-0.246258 10:-0.309299 11:-0.216424 12:0.282086 13:0.710934 14:0.52324 15:0.33333 16:0.623924 17:0.0275311 18:-0.324697 19:0.0234972 20:-0.179483 21:0.278737 22:-0.0318419 23:0.168284 24:-0.0198331 25:-0.0782879 26:-0.0489963 
0.125 0 1:0.156385 2:0.92271 3:-0.00639016 4:-0.151297 5:-0.246933 6:0.175028 7:0.534019 8:0.483856 9:0.367807 10:0.0890462 11:-0.164438 12:-0.155048 13:0.668001 14:0.22304 15:-0.114736 16:0.0602435 17:-0.135184 18:0.0603692 19:0.0151847 20:-0.170583 21:-0.476409 22:-0.385825 23:-0.0825422 24:0.103548 25:0.471192 26:-0.0314213 
0.125 0 1:0.122397 2:0.952489 3:-0.0428883 4:-0.117094 5:-0.219189 6:0.141477 7:0.551742 8:0.42318 9:0.285798 10:-0.167339 11:-0.271474 12:0.110024 13:0.680171 14:0.239975 15:-0.181014 16:0.0851911 17:-0.0672724 18:0.0919746 19:0.0245949 20:-0.246458 21:-0.436964 22:-0.290432 23:0.198272 24:0.359615 25:0.24395 26:-0.042343 
0.125 0.125 1:0.100806 2:0.96151 3:-0.0561243 4:-0.11527 5:-0.145236 6:0.223068 7:0.505893 8:0.309854 9:0.198521 10:-0.125238 11:-0.350524 12:0.327746 13:0.696814 14:0.258818 15:-0.225253 16:0.0728898 17:0.00952007 18:0.0684334 19:-0.0501927 20:-0.243369 21:-0.361007 22:-0.0785404 23:0.328875 24:0.312075 25:-0.211226 26:-0.0409347 
0.125 0.125 1:0.114525 2:0.900998 3:-0.0872244 4:-0.0848684 5:-0.133959 6:0.255244 7:0.589842 8:0.258689 9:-0.185298 10:0.0726331 11:-0.048757 12:0.392879 13:0.508368 14:0.253252 15:-0.21112 16:0.113211 17:0.0450422 18:-0.0338734 19:-0.118924 20:-0.214542 21:-0.269604 22:0.205528 23:0.2425 24:-0.101871 25:-0.566831 26:-0.0262335 
0.06419277699386654 0.125 1:0.145294 2:0.825837 3:-0.203723 4:-0.0578088 5:-0.0218573 6:0.305425 7:0.466676 8:0.0121967 9:-0.111925 10:0.119607 11:0.156079 12:0.441622 13:0.281134 14:0.234536 15:-0.189011 16:0.263258 17:0.0983763 18:-0.238187 19:-0.184044 20:-0.0301491 21:-0.140168 22:0.306946 23:-0.0282782 24:-0.431124 25:-0.520369 26:-0.0125338 
0.125 0.125 1:0.138672 2:0.800168 3:-0.296945 4:-0.000265123 5:0.0791858 6:0.310648 7:0.384835 8:-0.23401 9:-0.0500455 10:0.25378 11:0.158738 12:0.338163 13:0.141172 14:0.245258 15:-0.211043 16:0.437478 17:0.108127 18:-0.390741 19:-0.16507 20:0.14084 21:-0.0169582 22:0.314538 23:-0.374132 24:-0.399689 25:-0.165091 26:-0.00903283 
0.125 0.125 1:0.142795 2:0.727905 3:-0.276357 4:0.0514556 5:0.0332318 6:0.249196 7:0.404783 8:-0.228515 9:-0.144037 10:0.482728 11:0.00189465 12:0.0682634 13:0.245971 14:0.26018 15:-0.241871 16:0.547142 17:0.0232493 18:-0.369293 19:-0.0345149 20:0.152362 21:0.0340938 22:0.234727 23:-0.580916 24:-0.0347173 25:0.166598 26:-0.0154871 
0.125 0.125 1:0.158178 2:0.649792 3:-0.227056 4:0.203475 5:-0.0799331 6:0.137974 7:0.414031 8:-0.28455 9:-0.0678304 10:0.461894 11:-0.121805 12:-0.0455695 13:0.410747 14:0.232091 15:-0.230189 16:0.524808 17:-0.146616 18:-0.173613 19:0.0616064 20:0.0166391 21:0.113367 22:-0.0191251 23:-0.482659 24:0.321489 25:0.173687 26:-0.0232265 
0.125 0.125 1:0.196817 2:0.525021 3:-0.115692 4:0.363549 5:-0.212506 6:0.118925 7:0.57324 8:-0.52686 9:0.193669 10:0.214522 11:0.00294415 12:0.119382 13:0.28732 14:0.121223 15:-0.112297 16:0.348055 17:-0.298338 18:0.13167 19:0.0179627 20:-0.277461 21:0.176541 22:-0.283352 23:-0.142657 24:0.318587 25:-0.0908843 26:-0.0214696 
0.125 0.125 1:0.258435 2:0.367805 3:0.0786491 4:0.374943 5:-0.298855 6:0.170646 7:0.602964 8:-0.518485 9:0.337068 10:-0.0490372 11:0.17708 12:0.233021 13:0.213519 14:-0.02934 15:0.0801305 16:-0.000257153 17:-0.340906 18:0.400098 19:-0.101536 20:-0.368186 21:0.145292 22:-0.426077 23:0.187773 24:-0.00149807 25:-0.258916 26:-0.0119065 
0.125 0.125 1:0.253193 2:0.249358 3:0.308535 4:0.358267 5:-0.354749 6:0.144841 7:0.536558 8:-0.353908 9:0.225255 10:-0.0623066 11:0.376795 12:0.0384788 13:0.284199 14:-0.0511774 15:0.226214 16:-0.378726 17:-0.292192 18:0.487603 19:-0.0951923 20:-0.329308 21:0.0851422 22:-0.367022 23:0.257788 24:-0.436149 25:-0.058004 26:-0.00990453 
0.125 0 1:0.19335 2:0.192008 3:0.380602 4:0.361476 5:-0.295447 6:0.0152195 7:0.46702 8:-0.2669 9:0.130752 10:0.0350989 11:0.448418 12:-0.248406 13:0.417155 14:0.0742995 15:0.259728 16:-0.512562 17:-0.237841 18:0.314693 19:0.0537774 20:-0.268618 21:0.0329578 22:-0.175122 23:0.0949667 24:-0.67727 25:0.363001 26:-0.0200675 
0.125 0.0247505402308001 1:0.0553181 2:0.2051 3:0.379631 4:0.354561 5:-0.149944 6:-0.131963 7:0.344062 8:-0.340904 9:0.157684 10:0.0702495 11:0.511413 12:-0.293745 13:0.539486 14:0.251558 15:0.188457 16:-0.314583 17:-0.197817 18:-0.0671067 19:0.220775 20:-0.18614 21:-0.0164771 22:-0.0869037 23:-0.0678977 24:-0.608907 25:0.545454 26:-0.0335086 
0.125 0 1:-0.0191369 2:0.31197 3:-0.157313 4:0.237615 5:0.103846 6:-0.0403618 7:0.211824 8:0.0896328 9:0.0642935 10:-0.0225182 11:0.0703593 12:0.0954992 13:0.676455 14:0.480957 15:-0.239206 16:0.529216 17:-0.126097 18:-0.33093 19:0.0541829 20:-0.0400408 21:-0.390389 22:-0.236382 23:-0.0664962 24:0.155258 25:-0.213482 26:-0.0506626 
0 0.125 1:0.273004 2:0.163928 3:0.122051 4:-0.00737387 5:0.174509 6:-0.132587 7:0.0679254 8:0.122895 9:-0.0781754 10:-0.191613 11:0.13713 12:-0.24126 13:-0.352763 14:0.250435 15:0.307351 16:-0.218006 17:0.0108987 18:-0.0960374 19:0.0887071 20:-0.175423 21:-0.38259 22:0.231129 23:-0.140242 24:-0.098528 25:0.100731 26:0.00685585 
0.125 0 1:0.513377 2:0.58359 3:-0.121856 4:0.00803668 5:0.285165 6:-0.227094 7:0.00911379 8:-0.218952 9:0.338544 10:-0.393977 11:0.188563 12:-0.072027 13:0.195424 14:-0.123136 15:-0.154478 16:0.0247551 17:-0.182656 18:-0.514935 19:0.188252 20:-0.264495 21:-0.141121 22:-0.671004 23:0.227709 24:-0.142499 25:0.0779906 26:-0.0216991 
0.125 0 1:0.583191 2:0.603317 3:-0.204345 4:-0.0644365 5:0.18586 6:-0.182763 7:-0.123963 8:-0.336421 9:0.337483 10:-0.504909 11:0.240663 12:-0.157788 13:0.228918 14:-0.0998823 15:-0.31505 16:0.249977 17:-0.150339 18:-0.296288 19:0.115096 20:-0.0609636 21:0.0308148 22:-0.711686 23:0.305002 24:-0.135759 25:0.0871808 26:-0.0368237 
0.125 0 1:0.593389 2:0.673807 3:-0.360538 4:-0.0983149 5:0.0720016 6:-0.133936 7:-0.26993 8:-0.403462 9:0.104206 10:-0.497619 11:0.194125 12:-0.338795 13:0.195897 14:-0.033299 15:-0.307998 16:0.457567 17:-0.0854196 18:0.0180486 19:-0.0227279 20:0.209914 21:0.144641 22:-0.296423 23:0.224216 24:-0.0336632 25:0.195369 26:-0.0351562 
0.1009157120996837 0.125 1:0.586496 2:0.716812 3:-0.385239 4:-0.171643 5:-0.0192821 6:-0.0458346 7:-0.340642 8:-0.398008 9:-0.129633 10:-0.322518 11:0.111467 12:-0.252363 13:0.0373132 14:-0.00408897 15:-0.239162 16:0.46302 17:-0.0378034 18:0.249443 19:-0.155285 20:0.321481 21:0.127851 22:0.210651 23:0.0851326 24:0.0852855 25:0.255999 26:-0.0230148 
0 0.125 1:0.553622 2:0.728485 3:-0.368605 4:-0.206375 5:-0.137098 6:-0.0260907 7:-0.297353 8:-0.442593 9:-0.173387 10:-0.304631 11:0.206736 12:-0.197104 13:-0.0189587 14:0.00659662 15:-0.215204 16:0.315104 17:-0.0161029 18:0.352988 19:-0.11176 20:0.240532 21:0.104331 22:0.478161 23:-0.011947 24:0.0036448 25:0.145839 26:-0.0168437 
0.125 0.125 1:0.507411 2:0.740447 3:-0.282272 4:-0.222523 5:-0.0593282 6:-0.115579 7:-0.178364 8:-0.379064 9:-0.179918 10:-0.210861 11:0.249602 12:-0.0973657 13:0.0313857 14:0.0102644 15:-0.244977 16:0.111028 17:0.00262146 18:0.278914 19:0.0755684 20:-0.0163088 21:-0.00649991 22:0.356673 23:-0.154624 24:-0.232132 25:-0.0280838 26:-0.0201402 
0.125 0.125 1:0.418718 2:0.723086 3:-0.178303 4:-0.305273 5:0.0255259 6:-0.19062 7:-0.09566 8:-0.272165 9:-0.104999 10:-0.150319 11:0.402948 12:0.0710283 13:0.113739 14:0.0257365 15:-0.247354 16:0.0131929 17:0.0754081 18:0.163138 19:0.242732 20:-0.190471 21:-0.175441 22:-0.069748 23:-0.208161 24:-0.493402 25:-0.20514 26:-0.0246046 
0.125 0.125 1:0.312811 2:0.709521 3:-0.222186 4:-0.318968 5:0.0754456 6:-0.134296 7:-0.0745149 8:-0.179201 9:0.188524 10:-0.0609717 11:0.405038 12:0.0299737 13:0.00998675 14:0.0734224 15:-0.212159 16:0.100022 17:0.158865 18:0.0430299 19:0.27267 20:-0.274937 21:-0.383182 22:-0.535066 23:-0.101412 24:-0.503296 25:-0.312069 26:-0.023626 
0.125 0.125 1:0.179143 2:0.660667 3:-0.312173 4:-0.279106 5:0.118852 6:-0.0139387 7:-0.0435538 8:-0.0823053 9:0.256254 10:-0.0500275 11:0.17236 12:0.0216074 13:0.0722584 14:0.170529 15:-0.153961 16:0.22549 17:0.171998 18:-0.154684 19:0.128698 20:-0.2625 21:-0.511287 22:-0.682536 23:0.0351681 24:-0.234728 25:-0.402487 26:-0.019434 
0.125 0.125 1:0.0354037 2:0.546636 3:-0.320428 4:-0.290222 5:0.236354 6:0.0415449 7:-0.0985325 8:-0.177559 9:0.0286863 10:-0.24371 11:0.00527564 12:0.156742 13:-0.0535694 14:0.285986 15:-0.09255 16:0.234182 17:0.0916531 18:-0.411049 19:-0.0772994 20:-0.190072 21:-0.402296 22:-0.444116 23:0.175039 24:0.0426526 25:-0.291308 26:-0.0117313 
0.125 0.125 1:-0.107867 2:0.504315 3:-0.1416 4:-0.182534 5:0.332216 6:0.114589 7:0.000399053 8:-0.188383 9:-0.191599 10:-0.105199 11:-0.0891598 12:-0.0283634 13:0.0348188 14:0.392913 15:-0.0908725 16:0.089337 17:-0.0731821 18:-0.551284 19:-0.212745 20:-0.125744 21:-0.149499 22:-0.0077232 23:0.0945025 24:0.191547 25:0.0553138 26:-0.0137026 
0.125 0.125 1:-0.21496 2:0.523176 3:-0.133813 4:0.00822488 5:0.286389 6:0.221679 7:-0.163588 8:-0.40544 9:-0.268178 10:0.282008 11:-0.0827045 12:-0.356177 13:0.148706 14:0.469077 15:-0.142263 16:-0.0577759 17:-0.228316 18:-0.422038 19:-0.265168 20:0.0838879 21:0.225765 22:0.299909 23:-0.227554 24:0.1301 25:0.40791 26:-0.0245754 
0.125 0.125 1:-0.250148 2:0.420864 3:-0.167842 4:-0.0220221 5:0.00496856 6:0.1486 7:-0.127937 8:-0.429934 9:-0.34807 10:0.166749 11:-0.111485 12:-0.418803 13:0.280991 14:0.503898 15:-0.146677 16:-0.115305 17:-0.256342 18:-0.00431557 19:-0.231066 20:0.165832 21:0.392139 22:0.322931 23:-0.363795 24:0.0649167 25:0.502211 26:-0.0370226 
0.125 0.125 1:-0.3011 2:0.335656 3:-0.217478 4:-0.0683583 5:-0.2197 6:0.0351299 7:-0.128753 8:-0.323804 9:-0.338869 10:0.196447 11:-0.119864 12:-0.00312259 13:0.505229 14:0.512118 15:-0.144383 16:-0.0500378 17:-0.250881 18:0.404752 19:-0.188862 20:0.0945822 21:0.193642 22:0.1124 23:-0.369689 24:0.141058 25:0.216462 26:-0.0419526 
0.125 0.125 1:-0.287095 2:0.293653 3:-0.240417 4:0.00598128 5:-0.183159 6:0.0783375 7:-0.0350086 8:-0.12188 9:-0.152722 10:0.281809 11:-0.111938 12:0.0152331 13:0.294987 14:0.453126 15:-0.15467 16:0.0757341 17:-0.230002 18:0.568653 19:-0.165662 20:-0.135518 21:-0.23236 22:-0.177044 23:-0.237885 24:0.160607 25:-0.170363 26:-0.031468 
0.125 0.125 1:-0.220245 2:0.195878 3:-0.402636 4:-0.010422 5:-0.195412 6:-0.0228276 7:0.160807 8:0.190279 9:-0.13923 10:-0.0749682 11:-0.153192 12:0.061066 13:0.101982 14:0.339964 15:-0.154905 16:0.208282 17:-0.16204 18:0.467028 19:-0.0544332 20:-0.415816 21:-0.645936 22:-0.346819 23:0.061956 24:0.028146 25:-0.423726 26:-0.01708 
0.125 0.125 1:-0.114214 2:0.142217 3:-0.502723 4:-0.0870137 5:-0.0876712 6:-0.209308 7:0.100914 8:0.226081 9:-0.176777 10:0.0282603 11:0.0226658 12:0.18767 13:-0.00168569 14:0.204533 15:-0.133406 16:0.31716 17:-0.0394028 18:0.10387 19:0.0341615 20:-0.40976 21:-0.699587 22:-0.419774 23:0.111787 24:-0.206905 25:-0.503382 26:-0.0098969 
0.125 0.125 1:-0.0459655 2:0.0215234 3:-0.494823 4:-0.205272 5:0.0365579 6:-0.334784 7:0.0312696 8:0.0358319 9:-0.229289 10:-0.00507954 11:0.323926 12:0.187972 13:0.222185 14:0.105168 15:-0.0534004 16:0.326992 17:0.0591129 18:-0.290708 19:0.0986703 20:-0.238482 21:-0.454773 22:-0.372766 23:0.053922 24:-0.336543 25:-0.368614 26:-0.0195698 
0.125 0.125 1:-0.0156097 2:-0.114252 3:-0.499452 4:-0.170419 5:0.255919 6:-0.358828 7:-0.060597 8:-0.0840767 9:-0.301416 10:-0.115627 11:0.107913 12:-0.146149 13:0.186979 14:0.0905324 15:0.0395135 16:0.279311 17:0.00114217 18:-0.547708 19:0.170026 20:0.0371005 21:-0.11526 22:-0.167893 23:-0.0886577 24:-0.251645 25:-0.0964339 26:-0.0313333 
0.125 0.125 1:0.0243573 2:-0.184356 3:-0.538233 4:-0.155601 5:0.195163 6:-0.358413 7:-0.105794 8:-0.0992401 9:-0.430389 10:0.140908 11:-0.0789799 12:-0.142504 13:0.292303 14:0.109076 15:0.106151 16:0.246271 17:-0.0861145 18:-0.437781 19:0.149481 20:0.219861 21:0.127105 22:0.04288 23:-0.297766 24:-0.135063 25:0.168922 26:-0.0338873 
0 0.125 1:0.0349967 2:-0.170263 3:-0.445032 4:-0.0641883 5:-0.0191348 6:-0.593658 7:-0.102039 8:-0.158461 9:-0.628775 10:0.0303837 11:0.128995 12:-0.333174 13:0.274953 14:0.134112 15:0.105517 16:0.209093 17:-0.10568 18:-0.0920017 19:0.192191 20:0.166991 21:0.145364 22:0.178708 23:-0.173366 24:-0.1593 25:0.385536 26:-0.0231605 
0.125 0.125 1:0.0300723 2:-0.26578 3:-0.467107 4:-0.212855 5:-0.154316 6:-0.586027 7:-0.0694894 8:-0.203212 9:-0.685332 10:-0.255979 11:0.268069 12:-0.329468 13:-0.102349 14:0.150246 15:0.0799329 16:0.1751 17:0.000741428 18:0.194967 19:0.113356 20:-0.0136139 21:-0.0328797 22:0.157964 23:0.0762006 24:-0.202727 25:0.317387 26:-0.00826311 
0.125 0.125 1:0.0631911 2:-0.271448 3:-0.46194 4:-0.323222 5:-0.182292 6:-0.392939 7:0.0707657 8:-0.00963529 9:-0.466651 10:-0.282311 11:-0.082 12:-0.271144 13:-0.0516974 14:0.150907 15:-0.0153251 16:0.10769 17:0.0795337 18:0.271707 19:-0.0097448 20:-0.256061 21:-0.332193 22:-0.0254852 23:0.150201 24:-0.12468 25:0.0981838 26:-0.0109992 
0 0.125 1:0.0404117 2:-0.156861 3:-0.321434 4:-0.162385 5:-0.0613808 6:-0.591234 7:0.128551 8:0.120215 9:-0.543232 10:-0.283588 11:-0.0710956 12:-0.100637 13:0.226038 14:0.179511 15:-0.147699 16:-0.00383565 17:-0.0185864 18:0.125692 19:0.0113688 20:-0.375376 21:-0.472151 22:-0.087003 23:0.129254 24:-0.0985399 25:-0.0747281 26:-0.0238074 
0 0.125 1:0.0131821 2:-0.194026 3:-0.323534 4:-0.0759288 5:-0.147862 6:-0.570133 7:0.0328409 8:-0.0190704 9:-0.654113 10:-0.159288 11:-0.0246463 12:-0.04909 13:0.421968 14:0.213713 15:-0.185927 16:-0.0119332 17:-0.0889041 18:0.00348152 19:0.0768707 20:-0.25805 21:-0.31791 22:0.0211752 23:-0.0181032 24:-0.107125 25:-0.155662 26:-0.03638 
0 0.125 1:0.0195412 2:-0.218808 3:-0.421975 4:-0.181083 5:-0.132204 6:-0.661145 7:-0.0072923 8:-0.185992 9:-0.555591 10:-0.123753 11:-0.0486007 12:-0.169187 13:0.299754 14:0.227317 15:-0.17553 16:0.0462387 17:-0.0824636 18:-0.160932 19:0.241775 20:-0.0206647 21:0.00307854 22:0.0550722 23:-0.0780561 24:-0.054038 25:-0.0499697 26:-0.0417115 
