svm_type c_svc
kernel_type rbf
gamma 2
nr_class 3
total_sv 7202
rho -0.077744 -0.368644 -0.24264
label 0 1 2
nr_sv 2554 2317 2331
SV
0.4770820144758886 1.207143892044479 1:0.528851 2:0.171301 3:-0.413706 4:-0.385715 5:-0.130195 6:-0.173077 7:-0.0309074 8:-0.106767 9:0.00477532 10:0.180622 11:0.408647 12:0.241834 13:-0.0477862 14:0.326941 15:-0.14735 16:-0.00485478 17:-0.056694 18:0.0277243 19:-0.0463256 20:-0.0501867 21:0.0121554 22:-0.0745726 23:0.0568948 24:0.00111922 25:-0.00626996 26:-0.00284973 
0.156216508171244 0 1:0.506442 2:0.32385 3:-0.441481 4:-0.531923 5:-0.115665 6:-0.216096 7:-0.247929 8:0.180651 9:0.0957459 10:0.351158 11:0.2242 12:0.380306 13:0.143156 14:0.326941 15:-0.14735 16:-0.00485478 17:-0.056694 18:0.0277243 19:-0.0463256 20:-0.0501867 21:0.0121554 22:-0.0745726 23:0.0568948 24:0.00111922 25:-0.00626996 26:-0.00284973 
0.309069269288947 0.205759140560604 1:0.39612 2:0.513254 3:-0.553938 4:-0.583559 5:-0.0592957 6:-0.28674 7:-0.403156 8:0.610775 9:-0.318261 10:0.695059 11:-0.0535739 12:0.475558 13:0.368741 14:0.326941 15:-0.14735 16:-0.00485478 17:-0.056694 18:0.0277243 19:-0.0463256 20:-0.0501867 21:0.0121554 22:-0.0745726 23:0.0568948 24:0.00111922 25:-0.00626996 26:-0.00284973 
0.4636759855441616 0.3063274767228521 1:0.4193 2:0.483541 3:-0.593572 4:-0.543659 5:-0.00701601 6:-0.350435 7:-0.43224 8:0.57155 9:-0.244909 10:0.687552 11:-0.0998188 12:0.420416 13:0.432823 14:0.347598 15:-0.422634 16:0.0422143 17:0.152829 18:-0.118304 19:0.10216 20:0.12241 21:-0.436591 22:0.238109 23:-0.464524 24:0.277402 25:-0.159441 26:-0.013138 
0.2690431700531524 0.1484456574306688 1:0.452763 2:0.518699 3:-0.671734 4:-0.389423 5:-0.0934981 6:-0.40574 7:-0.662422 8:0.739019 9:0.0346957 10:0.221064 11:-0.0035085 12:0.299017 13:0.584445 14:0.319919 15:-0.198328 16:0.125351 17:-0.0215158 18:0.0522336 19:0.0210496 20:0.136015 21:-0.0686146 22:-0.295143 23:0.102908 24:0.0793122 25:0.118377 26:-0.015762 
0.1382582586649225 0 1:0.463606 2:0.490165 3:-0.693033 4:-0.26269 5:-0.189005 6:-0.261192 7:-0.650484 8:0.656071 9:0.076932 10:-0.0214111 11:0.144253 12:0.511289 13:0.348001 14:0.286498 15:-0.184223 16:0.191089 17:-0.0978586 18:0.115894 19:-0.0206106 20:0.0763312 21:-0.146203 22:-0.334426 23:0.254864 24:-0.21047 25:-0.0811759 26:0.00171835 
0.1890018463182139 0 1:0.479623 2:0.499845 3:-0.590305 4:-0.132368 5:-0.115671 6:-0.400033 7:-0.560975 8:0.751905 9:-0.189271 10:-0.0811694 11:0.170139 12:0.489453 13:0.144501 14:0.168887 15:-0.135729 16:0.118065 17:-0.0311268 18:0.252025 19:0.0386628 20:0.194977 21:-0.0780572 22:0.0293083 23:0.0184363 24:-0.0956981 25:-0.149094 26:0.00843196 
0.02131826185488227 0 1:0.352094 2:0.471065 3:-0.389398 4:-0.0507618 5:-0.0550663 6:-0.21802 7:-0.500815 8:0.644161 9:-0.323968 10:-0.144524 11:-0.0105761 12:0.405826 13:0.476371 14:0.285754 15:-0.183213 16:0.00960145 17:-0.04992 18:0.169781 19:-0.0124349 20:0.176893 21:0.221987 22:0.150493 23:0.0795818 24:0.177144 25:0.0337224 26:-0.0169487 
0.4821883916752933 0.4286404093739984 1:0.170853 2:0.470799 3:-0.214313 4:0.131485 5:0.213987 6:-0.274317 7:-0.0105555 8:0.733107 9:-0.35572 10:-0.41376 11:0.13454 12:0.507086 13:0.0992451 14:0.469447 15:-0.260744 16:-0.06439 17:-0.171725 18:-0.249034 19:0.018505 20:-0.325143 21:0.107598 22:-0.00775338 23:0.558421 24:0.134552 25:-0.187439 26:0.000527632 
0.4444264660205308 0.354702864902711 1:0.157505 2:0.358909 3:-0.123984 4:0.189741 5:0.275396 6:-0.0439221 7:-0.0300332 8:1 9:-0.24496 10:-0.115142 11:0.232744 12:0.230136 13:0.163108 14:0.554216 15:-0.271657 16:-0.109392 17:-0.133689 18:-0.512486 19:-0.162748 20:-0.276797 21:-0.540973 22:-0.429666 23:0.118553 24:-0.142978 25:-0.171518 26:0.00749706 
0.1349496949354744 0.003874437228641628 1:0.135945 2:0.334808 3:-0.0106773 4:0.17984 5:0.196622 6:-0.0148371 7:0.0598708 8:0.907496 9:-0.1886 10:0.074416 11:0.366607 12:0.164155 13:0.223408 14:0.526145 15:-0.221017 16:-0.142684 17:-0.14694 18:-0.360726 19:-0.287233 20:-0.168897 21:-0.550398 22:-0.441115 23:-0.128935 24:-0.298796 25:-0.0488488 26:0.00393366 
0.1142365792061593 0.1308401169559109 1:0.181883 2:0.261467 3:0.0202885 4:0.274748 5:0.0845336 6:-0.0228581 7:0.112424 8:0.743328 9:-0.278255 10:0.210412 11:0.419961 12:0.151547 13:0.1385 14:0.387121 15:-0.051655 16:-0.101043 17:-0.207645 18:-0.04606 19:-0.308237 20:-0.0506356 21:-0.324398 22:-0.197079 23:-0.197122 24:-0.357272 25:0.146609 26:0.00136602 
0.05689795370779789 0.3183338167727574 1:0.406112 2:0.129959 3:0.0181497 4:0.308689 5:-0.166405 6:-0.0183137 7:0.0803333 8:0.554163 9:-0.763225 10:0.0715529 11:0.244032 12:0.00762941 13:0.183917 14:0.128149 15:0.103144 16:-0.0284039 17:-0.157542 18:0.306705 19:-0.164538 20:0.0209921 21:-0.0292106 22:0.229035 23:-0.0673038 24:-0.209233 25:0.275364 26:-0.000643509 
0.2587678010949944 0.2532727601046382 1:0.492648 2:0.0657472 3:-0.0166401 4:0.160379 5:-0.279474 6:-0.151775 7:0.00470956 8:0.339331 9:-0.814324 10:0.126606 11:0.0716512 12:-0.209738 13:0.27967 14:-0.0725317 15:0.062396 16:0.00957063 17:0.0173121 18:0.533151 19:0.124998 20:-0.0630214 21:0.219445 22:0.338606 23:0.0348386 24:0.0384695 25:0.363585 26:-0.00817546 
0.3389157767019442 0.1233963517284781 1:0.415401 2:0.124181 3:0.0734135 4:0.128477 5:-0.2529 6:-0.143933 7:0.126361 8:0.270768 9:-0.601626 10:0.307711 11:0.047678 12:-0.0784758 13:0.500053 14:-0.0784708 15:-0.106679 16:-0.0169344 17:0.115363 18:0.515192 19:0.24916 20:-0.231754 21:0.292132 22:0.18827 23:-0.048321 24:0.0792286 25:0.236413 26:-0.0189417 
0.06834859670543766 0.2583302550411407 1:0.325671 2:0.258664 3:0.10327 4:0.178378 5:-0.180063 6:-0.187029 7:0.285338 8:0.143505 9:-0.579038 10:0.206544 11:-0.0719461 12:0.136113 13:0.31614 14:0.082778 15:-0.270124 16:-0.0612566 17:0.108023 18:0.332414 19:0.236344 20:-0.301268 21:0.271046 22:0.0380994 23:-0.0812813 24:0.00770513 25:-0.0385353 26:-0.0181065 
0 0.3889246373706021 1:-0.0649584 2:-0.0201152 3:0.0586733 4:0.315295 5:0.0111576 6:0.161094 7:-0.147079 8:0.0809052 9:-0.664083 10:0.32611 11:0.00721 12:0.135926 13:0.150749 14:0.458392 15:-0.101909 16:-0.173877 17:-0.204169 18:-0.0812872 19:-0.186028 20:0.284008 21:-0.0236572 22:0.106797 23:-0.0600109 24:0.1101 25:-0.210189 26:0.00586508 
1.109678787840865 1.299773982942966 1:-0.17207 2:0.123268 3:0.126454 4:0.366244 5:0.0624386 6:0.0728621 7:0.167414 8:8.30663e-05 9:-0.423498 10:0.120477 11:-0.451336 12:-0.0385005 13:0.0638147 14:0.432056 15:-0.12065 16:-0.194943 17:-0.378981 18:-0.105907 19:-0.154411 20:0.0338093 21:0.1983 22:-0.0534234 23:0.157244 24:0.17738 25:-0.0373818 26:-0.00183909 
1.278185989622938 3.235593954460815 1:-0.25009 2:0.0299133 3:-0.0715351 4:0.317856 5:0.0702743 6:0.117303 7:0.201026 8:-0.208042 9:-0.293486 10:0.0726853 11:-0.0821213 12:0.0408714 13:0.145454 14:0.400386 15:-0.154418 16:-0.0571455 17:-0.264883 18:-0.0435652 19:-0.0945494 20:-0.326492 21:0.455712 22:-0.133691 23:0.0642807 24:-0.254042 25:-0.136656 26:-0.0146054 
0.3735171864265854 0.3372140357384607 1:-0.333392 2:0.0198504 3:-0.130433 4:0.130021 5:0.0954993 6:0.149836 7:0.342411 8:-0.117086 9:-0.269357 10:0.0719927 11:0.0134734 12:-0.0230433 13:0.363991 14:0.415663 15:-0.206446 16:0.0738574 17:-0.0219423 18:-0.0271887 19:-0.0332511 20:-0.519958 21:0.422306 22:-0.146662 23:-0.00507322 24:-0.385513 25:-0.0418503 26:-0.0243412 
0 1.461376123425207 1:-0.373552 2:0.0320894 3:-0.163308 4:-0.0172064 5:0.0779686 6:0.125494 7:0.243326 8:0.0386969 9:-0.27911 10:0.224907 11:-0.076067 12:-0.0609175 13:-0.0360636 14:0.452273 15:-0.279088 16:0.2323 17:0.147883 18:-0.126611 19:-0.0263646 20:-0.305628 21:0.121962 22:-0.148486 23:-0.0383204 24:-0.183875 25:0.215541 26:-0.00970382 
0.589068068178721 1.001930939368777 1:-0.37162 2:0.0363491 3:-0.249465 4:-0.00893362 5:0.159813 6:0.129826 7:0.0693305 8:0.21761 9:-0.0187638 10:0.0154041 11:-0.748093 12:-0.206801 13:-0.346012 14:0.477075 15:-0.373067 16:0.374992 17:0.186262 18:-0.22562 19:-0.0063205 20:-0.0149432 21:-0.285405 22:-0.225133 23:0.210806 24:0.39175 25:0.546776 26:0.0110447 
0.858265938753958 0.4544705613261996 1:-0.412786 2:-0.0212725 3:-0.275175 4:0.0302851 5:0.107086 6:0.15574 7:0.0285453 8:0.288051 9:-0.0694513 10:-0.233585 11:-0.649192 12:-0.331447 13:-0.212343 14:0.519429 15:-0.267238 16:0.483817 17:0.102861 18:-0.175055 19:-0.0502561 20:0.170858 21:-0.50366 22:-0.133645 23:0.360946 24:0.575618 25:0.592268 26:0.0152003 
1.108523270037594 1.159603684754809 1:-0.374546 2:-0.135398 3:-0.208357 4:0.0292075 5:0.00721161 6:0.244161 7:0.00726536 8:0.251815 9:-0.13873 10:0.0896307 11:-0.206271 12:-0.00536131 13:-0.443552 14:0.563582 15:0.0507454 16:0.491152 17:0.062385 18:0.00246459 19:-0.0862687 20:0.268895 21:-0.374184 22:0.0171395 23:0.234677 24:0.30059 25:0.146163 26:0.0131897 
0 0.03860038637222023 1:-0.314009 2:-0.295521 3:-0.0461698 4:-0.0532834 5:-0.145551 6:0.221803 7:0.0613294 8:0.136892 9:-0.0759981 10:0.0988455 11:-0.353567 12:0.392884 13:-0.203449 14:0.586265 15:0.319293 16:0.289479 17:0.089942 18:0.224314 19:0.00653032 20:0.2044 21:-0.0814107 22:0.13517 23:0.111435 24:0.0628399 25:-0.306033 26:0.000203452 
0 0.9800134049854851 1:-0.21319 2:-0.328038 3:0.136024 4:0.0536297 5:-0.13109 6:0.208092 7:0.0309142 8:-0.0089907 9:-0.0141801 10:0.250565 11:-0.198797 12:0.513948 13:-0.0862041 14:0.514789 15:0.30364 16:-0.0127216 17:0.0559578 18:0.279372 19:0.183409 20:0.148911 21:0.140705 22:0.185095 23:0.0102638 24:-0.129165 25:-0.420948 26:-0.00337449 
0 1.101621425946254 1:-0.0543469 2:-0.127291 3:0.416289 4:0.093814 5:-0.145607 6:0.190203 7:0.14286 8:-0.11009 9:0.133121 10:0.13763 11:-0.0531099 12:0.304925 13:-0.367601 14:0.343085 15:-0.00373082 16:-0.287847 17:-0.0578786 18:0.179993 19:0.299748 20:0.0396739 21:0.24568 22:0.105539 23:0.103382 24:-0.141018 25:-0.157892 26:0.0055167 
0.04249804514686888 0.8103612559743975 1:0.172788 2:0.0204015 3:0.528977 4:0.191729 5:-0.125554 6:0.325347 7:0.286047 8:1.51187e-05 9:0.24423 10:0.227255 11:-0.0455947 12:0.249568 13:-0.207371 14:0.15567 15:-0.270386 16:-0.355196 17:-0.248092 18:0.0403522 19:0.206305 20:-0.128001 21:0.224575 22:-0.0202301 23:0.0643046 24:-0.197966 25:0.0976324 26:0.00477559 
0.08505047485351953 0.1074201925031913 1:0.33386 2:-0.0115313 3:0.53034 4:0.195724 5:-0.0449664 6:0.48859 7:0.2933 8:-0.00415161 9:0.410463 10:0.339748 11:-0.0127374 12:0.533721 13:-0.081313 14:0.0538283 15:-0.293152 16:-0.268733 17:-0.367351 18:-0.0695806 19:-0.0348883 20:-0.249505 21:0.215475 22:-0.250463 23:-0.186878 24:-0.345868 25:0.0957737 26:-0.000428211 
0.3498545069141771 0.2763122562322118 1:0.33667 2:-0.016972 3:0.601082 4:0.242402 5:-0.113099 6:0.663242 7:0.398305 8:-0.163923 9:0.559039 10:0.494512 11:0.0818843 12:0.5679 13:-0.022426 14:0.0939655 15:-0.212804 16:-0.209382 17:-0.326683 18:-0.0810866 19:-0.260403 20:-0.386139 21:0.206418 22:-0.481069 23:-0.409957 24:-0.362497 25:-0.0276603 26:-0.0122609 
0.3114522758945032 0.2599600818396685 1:0.332768 2:0.00691774 3:0.631059 4:0.138812 5:-0.151802 6:0.743663 7:0.413717 8:0.0264508 9:0.742921 10:0.52876 11:-0.0437906 12:0.566456 13:0.147001 14:0.203134 15:-0.162216 16:-0.223091 17:-0.0775789 18:-0.124894 19:-0.327766 20:-0.40004 21:0.00165885 22:-0.530888 23:-0.400711 24:-0.154836 25:-0.226758 26:-0.0222958 
0.399396907926154 0.3479146719462679 1:0.364419 2:0.0948614 3:0.673217 4:0.00226657 5:-0.118237 6:0.776775 7:0.334456 8:0.168595 9:0.675168 10:0.168639 11:-0.291819 12:0.578453 13:0.115842 14:0.290143 15:-0.220099 16:-0.313559 17:0.261919 18:-0.208797 19:-0.284473 20:-0.272889 21:-0.218784 22:-0.315081 23:-0.0420958 24:0.181417 25:-0.390806 26:-0.0166534 
0.4701274313649897 0.3171434142200675 1:0.365729 2:0.145206 3:0.651399 4:-0.0752332 5:-0.151785 6:0.802165 7:0.269781 8:0.176805 9:0.425284 10:0.0103813 11:-0.425335 12:0.78288 13:-0.0275456 14:0.316018 15:-0.252765 16:-0.396269 17:0.408853 18:-0.179877 19:-0.343931 20:-0.0675864 21:-0.307791 22:-0.0734947 23:0.299492 24:0.427246 25:-0.488488 26:-0.00196312 
0.39072273801868 0.4974553470271754 1:0.361734 2:0.0599978 3:0.555586 4:0.00470786 5:-0.291952 6:0.810961 7:0.123174 8:0.111379 9:0.389938 10:-0.0706001 11:-0.450624 12:0.641106 13:-0.172394 14:0.29311 15:-0.129842 16:-0.357791 17:0.27024 18:0.0184464 19:-0.462196 20:0.184384 21:-0.121577 22:-0.112067 23:0.488134 24:0.410033 25:-0.373214 26:0.0116756 
0.05973637990324668 0.2199541691278982 1:0.392181 2:0.0690772 3:0.4109 4:0.208271 5:-0.421939 6:0.856695 7:0.0526875 8:-0.00602144 9:0.558331 10:-0.0413719 11:-0.244044 12:0.315547 13:-0.182476 14:0.271471 15:-0.0505214 16:-0.256604 17:-0.0435264 18:0.262926 19:-0.462406 20:0.269943 21:0.23842 22:-0.270006 23:0.373957 24:0.187143 25:-0.0118306 26:0.0154286 
0.05769014695292489 0.1376330021878447 1:0.391737 2:0.106886 3:0.294078 4:0.37367 5:-0.561623 6:0.777331 7:0.10698 8:-0.0637737 9:0.585242 10:-0.0266344 11:-0.12956 12:0.134857 13:-0.0776143 14:0.288044 15:-0.0784748 16:-0.090197 17:-0.264001 18:0.411454 19:-0.206417 20:0.144637 21:0.405874 22:-0.256437 23:0.108096 24:0.0133012 25:0.283669 26:0.00722887 
0 0.3165133303934355 1:0.316914 2:0.230676 3:-0.0803285 4:0.330799 5:-0.392013 6:0.293588 7:0.22684 8:0.185723 9:-0.0384708 10:0.217183 11:-0.119678 12:0.0463029 13:0.154569 14:0.378135 15:-0.319125 16:0.385 17:-0.179955 18:0.097565 19:0.435341 20:-0.274162 21:-0.0145192 22:0.338416 23:-0.162686 24:-0.130352 25:0.245095 26:-0.0130783 
0 0.05208186367548018 1:0.322222 2:0.193662 3:-0.257379 4:0.404277 5:-0.430301 6:0.436418 7:0.212619 8:0.314336 9:0.155263 10:0.00505938 11:0.0870837 12:0.124609 13:0.183737 14:0.374135 15:-0.279432 16:0.498975 17:-0.125763 18:-0.0421646 19:0.277215 20:-0.28616 21:-0.223973 22:0.250359 23:-0.00875866 24:-0.235007 25:0.01506 26:-0.0147022 
0 0.25954420054683 1:0.350995 2:0.153105 3:-0.277176 4:0.427236 5:-0.392588 6:0.482342 7:0.150724 8:0.276646 9:0.309269 10:-0.0782662 11:0.171143 12:0.0848764 13:0.220283 14:0.327263 15:-0.176551 16:0.394599 17:-0.123314 18:-0.10866 19:-0.0180026 20:-0.152155 21:-0.233608 22:-0.019204 23:0.140694 24:-0.257779 25:-0.12673 26:-0.0125615 
0 0.2047019869793952 1:0.254859 2:0.218694 3:-0.232693 4:0.353194 5:-0.328241 6:0.43545 7:0.0823917 8:0.286729 9:0.302725 10:-0.0310858 11:0.0414282 12:-0.0389702 13:0.0229962 14:0.38952 15:-0.254779 16:0.327792 17:0.020035 18:-0.289088 19:0.222567 20:-0.0807029 21:-0.29229 22:-0.0153695 23:0.0425494 24:-0.231156 25:-0.037201 26:-0.00471657 
0.2308188522579787 0.2427401325396362 1:0.333336 2:0.180564 3:0.119283 4:0.507388 5:-0.707021 6:0.790236 7:0.14546 8:-0.0921447 9:0.290775 10:-0.0505629 11:-0.25246 12:0.0302929 13:-0.0140492 14:0.119342 15:-0.183597 16:-0.192189 17:-0.323121 18:0.633573 19:-0.441943 20:-0.104033 21:0.205054 22:0.0848263 23:0.0225663 24:0.270936 25:0.163977 26:-0.0176907 
0.3430554469526916 0.3282569211614045 1:0.275173 2:0.134049 3:0.11586 4:0.362784 5:-0.65721 6:0.818924 7:0.0942358 8:-0.204041 9:0.385226 10:-0.0786235 11:-0.250605 12:0.072945 13:-0.146544 14:0.145321 15:-0.0545482 16:-0.34558 17:-0.0330101 18:0.756197 19:-0.568146 20:0.0508659 21:0.387789 22:-0.27292 23:0.0974442 24:0.381249 25:0.0911945 26:-0.00893729 
0.3218226904166845 0.3190564434450894 1:0.186539 2:0.0417001 3:0.114931 4:0.223668 5:-0.55836 6:0.617471 7:-0.00887035 8:-0.254282 9:0.485408 10:-0.109011 11:-0.243758 12:0.23234 13:-0.161512 14:0.334591 15:-0.0223541 16:-0.477413 17:0.235683 18:0.489237 19:-0.498365 20:0.0970799 21:0.557117 22:-0.683414 23:0.24156 24:0.247629 25:-0.132298 26:0.00663847 
0.4965279860028697 0.4263392956202465 1:0.079152 2:0.0918494 3:0.142424 4:0.239373 5:-0.334677 6:0.623782 7:0.14773 8:-0.139839 9:0.608972 10:-0.141018 11:-0.0541865 12:0.41597 13:-0.433099 14:0.585988 15:-0.111239 16:-0.489331 17:0.291091 18:-0.0262883 19:-0.380828 20:-0.0497862 21:0.537993 22:-0.839519 23:0.298971 24:-0.0519803 25:-0.387381 26:0.0227247 
0.5937786932761636 0.477834275167536 1:-0.0646565 2:0.186451 3:0.116327 4:0.277964 5:-0.0387769 6:0.560733 7:0.146866 8:-0.236247 9:0.467972 10:-0.163551 11:0.141254 12:0.413705 13:-0.776103 14:0.773871 15:-0.131214 16:-0.273202 17:0.158325 18:-0.477523 19:-0.206606 20:-0.164643 21:0.287055 22:-0.565813 23:0.107146 24:-0.258286 25:-0.453838 26:0.0231379 
0 0.662184613374563 1:-0.0816169 2:0.045443 3:-0.168359 4:0.475095 5:0.116195 6:0.275189 7:0.222179 8:0.120223 9:-0.0155613 10:0.0633821 11:0.0680617 12:0.143734 13:-0.160934 14:0.809726 15:-0.000126216 16:0.129565 17:-0.0914066 18:-0.608013 19:0.0523457 20:-0.236677 21:-0.250468 22:0.0458094 23:-0.330002 24:-0.188704 25:-0.179978 26:-0.00319673 
0.4865892627881511 0.4557847108277347 1:0.219666 2:-0.000505287 3:-0.468713 4:0.424671 5:-0.0370969 6:0.0741364 7:0.0661201 8:0.476883 9:-0.275654 10:0.239173 11:-0.0376413 12:0.157844 13:0.0309303 14:0.625137 15:0.0485016 16:0.45323 17:-0.246424 18:-0.378694 19:0.192079 20:-0.190963 21:-0.670287 22:0.535515 23:-0.644657 24:-0.0159083 25:0.103691 26:-0.0236951 
0.3622885122247748 0.364138890253673 1:0.363247 2:0.0685404 3:-0.42988 4:0.469179 5:-0.108122 6:0.0325092 7:0.0717581 8:0.390721 9:-0.344094 10:0.104939 11:-0.0251701 12:0.0585323 13:-0.0948382 14:0.390802 15:-0.0512079 16:0.370859 17:-0.404969 18:-0.0853688 19:0.144861 20:-0.220939 21:-0.645811 22:0.665911 23:-0.541437 24:0.0772676 25:0.347334 26:-0.0251641 
0.2021230870154095 0.3724652822034603 1:0.516105 2:0.252931 3:-0.244741 4:0.557106 5:-0.0958859 6:0.0344575 7:0.0771128 8:0.0868843 9:-0.297122 10:-0.314206 11:-0.00492108 12:-0.131333 13:-0.351234 14:0.169834 15:-0.228433 16:0.0445192 17:-0.492943 18:0.100674 19:0.00630403 20:-0.275014 21:-0.300081 22:0.477596 23:-0.043383 24:0.026606 25:0.460646 26:-0.00835672 
0 1.291289268403372 1:0.756744 2:0.22275 3:-0.290342 4:0.464874 5:-0.126919 6:-0.0339645 7:0.00656071 8:0.0404445 9:-0.0755728 10:-0.645546 11:0.0827012 12:0.0693371 13:-0.381536 14:0.0104244 15:-0.255466 16:-0.168654 17:-0.359996 18:0.139955 19:-0.0265295 20:-0.185262 21:0.00719689 22:0.144258 23:0.450343 24:-0.139835 25:0.274993 26:0.00857247 
0.2783982303214672 0.1316689760522782 1:0.845704 2:0.166383 3:-0.470654 4:0.0544631 5:-0.182349 6:-0.325 7:-0.374498 8:-0.14224 9:0.0680485 10:-0.772878 11:-0.0115936 12:0.279302 13:-0.399227 14:0.00720457 15:-0.0502231 16:0.0650196 17:0.215758 18:0.139615 19:0.327397 20:0.335353 21:0.170972 22:-0.110493 23:0.617269 24:-0.182438 25:-0.117623 26:0.00489448 
0 0.2392658312890116 1:0.823134 2:0.267585 3:-0.458447 4:0.0219344 5:-0.118533 6:-0.248656 7:-0.35813 8:-0.172648 9:0.277156 10:-0.688244 11:-0.0642901 12:0.410487 13:-0.31737 14:0.0792261 15:-0.131818 16:0.177833 17:0.297984 18:0.156352 19:0.261846 20:0.416748 21:0.172381 22:-0.151717 23:0.423126 24:-0.021019 25:-0.122256 26:0.000386135 
0 0.2088366546729884 1:0.768162 2:0.318718 3:-0.485438 4:0.0474339 5:-0.148328 6:-0.213271 7:-0.30859 8:-0.323143 9:0.314984 10:-0.701435 11:-0.21622 12:0.33555 13:-0.341774 14:0.123192 15:-0.24925 16:0.197741 17:0.225303 18:0.191287 19:0.0967753 20:0.332992 21:0.198303 22:-0.14237 23:0.23229 24:0.163129 25:-0.00524013 26:-0.00464416 
0 0.5102750172931273 1:0.597773 2:0.305509 3:-0.434734 4:0.0457046 5:-0.0233689 6:-0.100632 7:-0.161466 8:-0.213241 9:0.485807 10:-0.313829 11:-0.33094 12:0.492012 13:-0.249708 14:0.178036 15:-0.279662 16:0.0310684 17:0.0288193 18:0.105411 19:-0.169108 20:-0.228733 21:0.210165 22:-0.462304 23:-0.189943 24:0.220251 25:-0.0641435 26:-0.0092177 
0 0.1104704975648302 1:0.440301 2:0.285271 3:-0.38554 4:0.0664854 5:0.047235 6:-0.117539 7:-0.0404942 8:-0.254493 9:0.608868 10:-0.298433 11:-0.154924 12:0.690852 13:-0.127221 14:0.337218 15:-0.256412 16:-0.120196 17:-0.0770779 18:0.0230301 19:-0.0741828 20:-0.449147 21:0.330423 22:-0.617809 23:-0.0994567 24:0.0912043 25:-0.266694 26:-0.00848445 
0.4738530701434707 0.3164635292565086 1:0.210782 2:0.346872 3:-0.296609 4:0.21608 5:0.127717 6:-0.0328641 7:0.0765805 8:-0.336262 9:0.581805 10:-0.342463 11:-0.226463 12:0.523294 13:-0.505796 14:0.553274 15:-0.280377 16:-0.290602 17:-0.272729 18:-0.0978543 19:-0.0247859 20:-0.516296 21:0.365819 22:-0.601875 23:0.0420162 24:0.028532 25:-0.325278 26:-0.000331291 
0.003903852741340623 0.2772957934779973 1:0.0706574 2:0.262665 3:-0.373146 4:0.186986 5:0.171288 6:-0.0818452 7:-0.0928738 8:-0.0807562 9:0.204168 10:-0.444493 11:-0.160531 12:0.66838 13:-0.289395 14:0.673341 15:-0.238416 16:-0.23696 17:-0.319719 18:-0.227828 19:0.0261736 20:-0.216743 21:0.188092 22:-0.206659 23:0.120338 24:0.0315276 25:-0.31994 26:0.00165779 
0.1374906300392807 0.4388546795489592 1:0.0563017 2:0.181548 3:-0.345397 4:0.186697 5:0.212724 6:-0.101522 7:-0.315763 8:0.141507 9:0.118463 10:-0.290249 11:-0.134716 12:0.550824 13:-0.312561 14:0.712794 15:-0.132674 16:-0.0100191 17:-0.116851 18:-0.362595 19:-0.0107578 20:0.209985 21:-0.145575 22:0.151673 23:0.0146502 24:0.039312 25:-0.177179 26:0.00242847 
0.3181683122069481 0.6987363414313096 1:0.11186 2:0.154722 3:-0.534161 4:0.0443859 5:0.252316 6:0.103888 7:-0.286874 8:0.230138 9:-0.123285 10:-0.0515618 11:-0.0724773 12:0.327384 13:-0.361724 14:0.678393 15:-0.0237095 16:0.314681 17:0.229352 18:-0.396607 19:-0.143192 20:0.397681 21:-0.362095 22:0.401071 23:-0.131835 24:-0.014371 25:0.0252965 26:-0.000372754 
0.9582730889847466 0.6809255214197765 1:0.192359 2:0.117932 3:-0.652876 4:-0.0855179 5:0.16446 6:0.0424505 7:-0.354327 8:0.266812 9:-0.265968 10:-0.261824 11:-0.0545753 12:0.306551 13:-0.338787 14:0.56566 15:0.0279649 16:0.477885 17:0.425217 18:-0.204461 19:-0.107066 20:0.266341 21:-0.32708 22:0.376866 23:-0.037755 24:-0.109571 25:0.0969555 26:-0.0060929 
0 1.128085904418904 1:0.184621 2:0.0613835 3:-0.466156 4:0.0111995 5:-0.0299221 6:0.0303042 7:-0.126267 8:0.339853 9:0.0271846 10:-0.366069 11:0.112994 12:0.272159 13:-0.18782 14:0.382048 15:-0.0420966 16:0.325254 17:0.203716 18:0.156425 19:0.114912 20:-0.227587 21:-0.0789219 22:0.168656 23:0.135196 24:-0.108343 25:0.238645 26:-0.00664566 
0.3830668199349882 0 1:0.678645 2:0.160347 3:-0.235408 4:0.383168 5:-0.185106 6:0.0369452 7:-0.049039 8:0.193886 9:-0.0295012 10:-0.271623 11:-0.0513904 12:0.17941 13:-0.350972 14:-0.0703919 15:-0.284752 16:-0.117077 17:-0.540457 18:0.513281 19:0.368916 20:-0.523828 21:0.34825 22:0.00928151 23:0.128275 24:0.119669 25:0.280159 26:0.00142547 
0 0.9910647036143674 1:0.611409 2:0.126937 3:-0.149224 4:0.373704 5:-0.129072 6:0.158768 7:-0.227515 8:0.338614 9:0.00616099 10:-0.22019 11:-0.0420418 12:0.157603 13:-0.340759 14:0.00351635 15:-0.287148 16:-0.184526 17:-0.478565 18:0.349149 19:0.0429038 20:-0.198973 21:0.19929 22:-0.128742 23:-0.0828479 24:0.115326 25:0.183237 26:0.00197361 
0.2311800665641179 1.47116091100134 1:0.447806 2:0.043673 3:-0.0450891 4:0.234875 5:-0.019453 6:0.616031 7:-0.479676 8:0.492583 9:0.289471 10:-0.103959 11:0.202857 12:0.436184 13:-0.235992 14:0.261227 15:-0.171041 16:-0.178966 17:-0.051579 18:0.061208 19:-0.560297 20:0.289913 21:-0.0826638 22:-0.429533 23:-0.164586 24:0.00250738 25:-0.193433 26:-0.00190385 
0.5200662113895115 0.3017476097965786 1:0.405919 2:0.0196247 3:-0.022072 4:0.0873521 5:0.0258379 6:0.597228 7:-0.526176 8:0.65623 9:0.329276 10:-0.143011 11:0.171349 12:0.467522 13:-0.170864 14:0.529149 15:-0.0292023 16:-0.173555 17:0.355608 18:-0.20543 19:-0.849815 20:0.542976 21:-0.416225 22:-0.626263 23:-0.0755969 24:-0.0575816 25:-0.504215 26:-0.00676386 
0.3782249607109497 0.1999894926086903 1:0.394525 2:-0.0145934 3:0.00537273 4:0.12382 5:0.130533 6:0.570357 7:-0.426041 8:0.660192 9:0.147504 10:-0.312908 11:0.16598 12:0.416303 13:-0.200869 14:0.617972 15:0.0338919 16:-0.178308 17:0.405291 18:-0.374123 19:-0.754007 20:0.507399 21:-0.562707 22:-0.487049 23:0.0724498 24:-0.106263 25:-0.614557 26:-0.00686558 
0.4010120080573273 0.8076493991680643 1:0.384617 2:-0.055961 3:0.000363321 4:0.117174 5:0.141544 6:0.495495 7:-0.4908 8:0.638324 9:0.112462 10:-0.390705 11:0.202355 12:0.480794 13:-0.249021 14:0.535946 15:0.0208566 16:-0.145062 17:0.22839 18:-0.345412 19:-0.313551 20:0.340589 21:-0.516502 22:-0.172225 23:0.161362 24:-0.187124 25:-0.522964 26:-0.00674568 
0.05446881059634139 2.998719435032461 1:0.527806 2:0.00883834 3:-0.012855 4:0.448101 5:0.0374569 6:0.115789 7:-0.212175 8:0.580119 9:-0.269333 10:-0.272079 11:0.281423 12:0.0501259 13:-0.18608 14:0.335034 15:-0.0521664 16:-0.131299 17:-0.136931 18:-0.112572 19:0.224055 20:-0.00706628 21:-0.285909 22:0.263967 23:0.0952027 24:-0.268257 25:-0.0668375 26:-0.0106041 
0 1.13363406510524 1:0.681353 2:0.0638035 3:-0.0455699 4:0.507405 5:-0.132209 6:0.0444527 7:-0.0365921 8:0.292511 9:-0.301201 10:-0.310036 11:0.291257 12:-0.149368 13:-0.193187 14:0.129185 15:-0.071054 16:-0.125977 17:-0.296484 18:0.200853 19:0.333193 20:-0.226679 21:0.089122 22:0.405938 23:0.0129197 24:-0.251862 25:0.367509 26:-0.01271 
0.2799528755773225 0.3347672887525796 1:0.703393 2:0.0455096 3:-0.07604 4:0.473835 5:-0.17922 6:0.100795 7:0.0320908 8:0.0799878 9:-0.277367 10:-0.364223 11:0.0680087 12:-0.312557 13:-0.224452 14:-0.0263354 15:-0.0357207 16:-0.0559125 17:-0.263391 18:0.382626 19:0.167135 20:-0.247475 21:0.358062 22:0.260647 23:0.0157391 24:0.00502425 25:0.650078 26:-0.00704571 
0.3123871377048626 0.9344983480745527 1:0.669474 2:0.065205 3:-0.133539 4:0.494449 5:-0.158981 6:0.135657 7:0.0915795 8:0.0583072 9:-0.199147 10:-0.384666 11:-0.0954613 12:-0.384757 13:-0.401373 14:-0.0837791 15:-0.0720014 16:0.074023 17:-0.17713 18:0.408888 19:0.00940674 20:-0.185592 21:0.388103 22:0.0352171 23:0.198916 24:0.229183 25:0.492316 26:0.00370638 
0 1.017125514558451 1:0.619559 2:0.147127 3:-0.232544 4:0.536497 5:-0.121469 6:0.0748207 7:0.0808354 8:0.0702652 9:-0.0941062 10:-0.442342 11:-0.147894 12:-0.286531 13:-0.558283 14:-0.0122146 15:-0.193743 16:0.186137 17:-0.116612 18:0.309701 19:0.0103109 20:-0.0933216 21:0.228448 22:-0.169405 23:0.354825 24:0.327138 25:0.0614689 26:0.0107062 
0 1.274006798560267 1:0.475163 2:0.262521 3:-0.278127 4:0.565922 5:-0.0225289 6:-0.00275153 7:0.184293 8:0.0677702 9:-0.0211965 10:-0.477331 11:-0.0850675 12:-0.0328652 13:-0.519879 14:0.161256 15:-0.339809 16:0.202373 17:-0.152525 18:0.123095 19:0.1491 20:-0.167957 21:0.0687684 22:-0.261375 23:0.272761 24:0.273992 25:-0.192708 26:0.00716949 
0 0.1728364453762567 1:0.182089 2:0.30903 3:-0.186314 4:0.509336 5:0.0167944 6:-0.0769871 7:0.324546 8:0.0880698 9:-0.197903 10:-0.393622 11:0.0637772 12:0.0291787 13:-0.305794 14:0.382034 15:-0.380738 16:0.105124 17:-0.149931 18:0.0246003 19:0.18847 20:-0.279609 21:0.0352274 22:-0.323291 23:0.0485209 24:0.0989035 25:-0.136229 26:-0.0035182 
1.274973372566104 2.134858738331917 1:0.00154302 2:0.212771 3:-0.129667 4:0.539903 5:0.202187 6:0.127125 7:0.288016 8:0.058195 9:-0.0593647 10:-0.00456771 11:-0.0643824 12:-0.442433 13:-0.388944 14:0.524653 15:-0.275974 16:-0.019719 17:-0.126392 18:-0.0721506 19:-0.0352637 20:-0.23744 21:0.0973988 22:-0.483836 23:-0.295794 24:-0.0350872 25:0.173615 26:-0.00978832 
0.4188052308831862 0.6031142943078622 1:-0.0692088 2:0.197978 3:-0.17508 4:0.479513 5:0.230261 6:0.186276 7:0.223606 8:-0.00443536 9:-0.0304611 10:-0.120966 11:0.128231 12:-0.299556 13:-0.427713 14:0.555398 15:-0.21453 16:-0.0564407 17:-0.122168 18:-0.120192 19:-0.210124 20:-0.193988 21:0.126221 22:-0.504427 23:-0.3165 24:-0.224867 25:0.139203 26:-0.0135586 
0.1889189116003419 0 1:-0.143797 2:0.223268 3:-0.13945 4:0.451973 5:0.173952 6:0.144571 7:0.208241 8:0.105065 9:-0.308714 10:-0.360948 11:0.276584 12:0.0180958 13:-0.390258 14:0.560595 15:-0.318482 16:-0.0494811 17:-0.142547 18:-0.162864 19:-0.168604 20:-0.187281 21:0.0201487 22:-0.187791 23:0.0161846 24:-0.380951 25:-0.114075 26:-0.0117623 
0.8070455031056304 0.6697337694499758 1:-0.218574 2:0.20623 3:-0.0977203 4:0.423414 5:0.350029 6:0.147414 7:0.205776 8:0.157435 9:-0.607578 10:-0.245384 11:0.13162 12:-0.00228542 13:-0.459471 14:0.613961 15:-0.419885 16:-0.069123 17:-0.171541 18:-0.306342 19:-0.0755547 20:-0.236919 21:-0.098952 22:0.376407 23:0.418318 24:-0.287745 25:-0.178204 26:0.00358388 
0.6461627401542994 0.464441965891727 1:-0.260847 2:0.156477 3:-0.161277 4:0.419347 5:0.368012 6:0.0649354 7:0.245118 8:0.162645 9:-0.789875 10:-0.511587 11:-0.0405504 12:-0.109992 13:-0.565158 14:0.718206 15:-0.268004 16:-0.0864538 17:-0.0747361 18:-0.277686 19:-0.0439243 20:-0.248625 21:-0.136453 22:0.840194 23:0.604956 24:-0.00174204 25:0.0733865 26:0.0180651 
0.6994800639340255 0.5642591146237714 1:-0.243684 2:0.0571842 3:-0.116266 4:0.238031 5:0.225719 6:0.121087 7:-0.00743064 8:0.141692 9:-0.804352 10:-0.41888 11:-0.0880444 12:-0.274076 13:-0.79472 14:0.764051 15:0.14858 16:-0.165967 17:0.172472 18:-0.122092 19:-0.183461 20:0.0273143 21:-0.118313 22:0.830366 23:0.20394 24:0.274659 25:0.47777 26:0.0228779 
0.6692261657374424 0.6029992759230932 1:-0.079283 2:-0.214295 3:-0.0998278 4:0.220558 5:0.123899 6:0.261096 7:-0.0849999 8:0.0875585 9:-0.560368 10:0.00384041 11:-0.342567 12:-0.193841 13:-0.653802 14:0.650636 15:0.515464 16:-0.150879 17:0.330505 18:0.0739841 19:-0.313917 20:0.29249 21:-0.0229918 22:0.311476 23:-0.432354 24:0.353724 25:0.49162 26:0.00648583 
0.3403840161734142 0.5103710751210887 1:0.148912 2:-0.201581 3:-0.246258 4:0.133938 5:0.0333826 6:0.10758 7:-0.159037 8:0.0507028 9:-0.0524508 10:0.342247 11:-0.182525 12:0.0897341 13:0.0191831 14:0.405103 15:0.400912 16:-0.0444223 17:0.309637 18:0.204557 19:-0.184637 20:0.379133 21:0.0296628 22:-0.343325 23:-0.774178 24:0.121319 25:0.111033 26:-0.0206955 
0.5722360431721736 1.236373361207246 1:0.395267 2:0.121965 3:-0.247432 4:0.333855 5:0.108203 6:-0.0847905 7:-0.151664 8:0.0950783 9:0.0941211 10:-0.100968 11:0.0666664 12:0.405761 13:-0.0835205 14:0.0973287 15:-0.12475 16:0.00840186 17:0.0539192 18:0.122593 19:0.115226 20:0.207707 21:0.0389933 22:-0.605972 23:-0.488274 24:-0.146139 25:-0.312766 26:-0.024434 
0.5545942858352463 0.364052483793712 1:0.70499 2:0.256789 3:-0.324355 4:0.506493 5:0.021837 6:-0.092267 7:0.108249 8:0.0214704 9:0.0131115 10:-0.598084 11:-0.183929 12:0.421853 13:-0.399228 14:-0.233594 15:-0.711929 16:0.200407 17:-0.405318 18:0.0880607 19:0.289742 20:-0.303077 21:0.293701 22:-0.367698 23:0.678338 24:-0.164381 25:-0.383738 26:0.000569882 
0.2130413214620077 0.09662117162361564 1:0.68008 2:0.147469 3:-0.372432 4:0.455943 5:0.00174763 6:-0.0780514 7:0.0430126 8:-0.00225743 9:0.0369201 10:-0.65161 11:-0.157992 12:0.466852 13:-0.288563 14:-0.0312546 15:-0.513355 16:0.307324 17:-0.475293 18:0.153672 19:-0.0450563 20:-0.266709 21:0.428096 22:-0.344464 23:0.77986 24:-0.0191612 25:-0.243979 26:0.00185015 
0.4102114342417265 0.5298775045659578 1:0.505028 2:0.120413 3:-0.449454 4:0.529623 5:-0.0325218 6:0.13319 7:0.00426298 8:-0.00366029 9:0.200431 10:-0.606646 11:-0.187173 12:0.410696 13:-0.169992 14:0.289543 15:-0.295458 16:0.345126 17:-0.430821 18:0.256975 19:-0.369557 20:-0.149263 21:0.357385 22:-0.362316 23:0.492273 24:0.164952 25:-0.0901731 26:-0.00255764 
0.1675755238351192 1.224419373111831 1:0.232294 2:0.0556653 3:-0.336386 4:0.505705 5:0.0347839 6:0.250882 7:0.0327709 8:0.161664 9:0.168708 10:-0.437065 11:-0.317035 12:0.452491 13:-0.25955 14:0.516927 15:-0.161909 16:0.0791566 17:-0.252324 18:0.208344 19:-0.375775 20:-0.0986417 21:0.0898243 22:-0.0955305 23:0.0796839 24:0.276764 25:-0.0547666 26:0.00107396 
0.10901529318065 1.144275867101918 1:0.317114 2:-0.0854294 3:-0.100004 4:0.115749 5:0.0450541 6:-0.0607134 7:-0.100684 8:0.550985 9:-0.423375 10:-0.113317 11:-0.403335 12:0.182871 13:-0.397916 14:0.463943 15:-0.0406876 16:-0.29791 17:0.124268 18:0.115515 19:-0.00975096 20:-0.126857 21:-0.319733 22:0.325799 23:-0.3613 24:0.307424 25:0.0259255 26:0.00633345 
0.5018870130713579 0.08660564135243881 1:0.435276 2:-0.159624 3:-0.00984588 4:0.0716656 5:0.139681 6:-0.158527 7:-0.0279639 8:0.56837 9:-0.309652 10:-0.137209 11:-0.233857 12:0.317026 13:-0.341235 14:0.291115 15:0.0465903 16:-0.518399 17:0.305405 18:-0.0667933 19:0.319128 20:-0.129198 21:-0.576787 22:0.347414 23:-0.570654 24:0.170674 25:-0.0559253 26:0.00130291 
0.6455597351774462 0.6641556141846419 1:0.341337 2:-0.224003 3:-0.055299 4:0.072919 5:0.294304 6:-0.0561137 7:-0.101072 8:0.453214 9:-0.0935794 10:-0.156735 11:0.0225853 12:0.347039 13:-0.00957228 14:0.218259 15:0.036401 16:-0.394492 17:0.263068 18:-0.263569 19:0.303659 20:0.0417492 21:-0.51876 22:0.16921 23:-0.4338 24:-0.0244349 25:-0.0842424 26:-0.0110175 
0.3152609760215085 2.862778901123313 1:0.222311 2:-0.223025 3:-0.287193 4:0.0855152 5:0.216763 6:0.0461972 7:-0.242877 8:0.620109 9:0.139369 10:-0.310894 11:-0.053932 12:0.150828 13:-0.046242 14:0.277023 15:-0.0736851 16:0.00360826 17:0.082796 18:-0.241693 19:-0.0732334 20:0.160992 21:-0.356448 22:-0.0121953 23:0.010478 24:-0.112576 25:0.011608 26:-0.0150098 
0.7848198817488787 1.572226859252401 1:0.178908 2:-0.188886 3:-0.351876 4:0.214499 5:0.224857 6:0.148514 7:-0.354951 8:0.332829 9:-0.0494251 10:-0.609099 11:0.0237528 12:0.103181 13:-0.147028 14:0.391495 15:-0.160376 16:0.271013 17:-0.150015 18:-0.103612 19:-0.461076 20:0.0528563 21:-0.00111823 22:0.0304823 23:0.514017 24:-0.227236 25:0.0408243 26:-0.00820902 
0.6220990261710548 0.4366942779692201 1:0.128412 2:-0.229296 3:-0.367477 4:0.113176 5:0.169376 6:0.239016 7:-0.142164 8:0.087511 9:-0.116208 10:-0.8141 11:0.0831162 12:0.0282731 13:-0.275742 14:0.446308 15:-0.122389 16:0.27562 17:-0.164371 18:0.130965 19:-0.438614 20:-0.243788 21:0.204949 22:0.199364 23:0.739708 24:-0.28545 25:0.0974697 26:0.00336715 
0.2366054530680866 1.644365177026601 1:0.0947797 2:-0.331636 3:-0.320145 4:0.0738063 5:0.0449723 6:0.0888302 7:-0.0360454 8:0.218642 9:0.292826 10:-0.565049 11:0.189055 12:0.117085 13:-0.165471 14:0.416554 15:-0.00383929 16:0.0540466 17:-0.162956 18:0.282517 19:-0.112948 20:-0.37169 21:0.13761 22:0.0206402 23:0.546342 24:-0.283868 25:-0.0292531 26:0.0072345 
1.266317358622079 2.081070764881221 1:0.0950588 2:-0.315693 3:-0.24929 4:0.18087 5:0.111567 6:-0.16707 7:-0.300117 8:0.104934 9:0.486556 10:-0.356628 11:0.0551402 12:0.0470771 13:-0.18172 14:0.380765 15:0.183109 16:-0.127873 17:-0.12553 18:0.223736 19:0.219895 20:-0.0312023 21:0.0353765 22:-0.314713 23:0.141546 24:-0.0718909 25:-0.10181 26:0.00657429 
0.5518504019914844 0.2575170862988336 1:0.0947908 2:-0.259561 3:-0.266334 4:0.048229 5:0.202803 6:-0.134401 7:-0.508504 8:0.106527 9:0.454706 10:-0.217271 11:-0.23664 12:-0.0716961 13:-0.115712 14:0.410473 15:0.381871 16:-0.0998069 17:3.35103e-05 18:0.0529383 19:0.299793 20:0.437848 21:-0.128548 22:-0.563328 23:-0.220883 24:0.267185 25:0.043414 26:0.00207867 
0.304219400654352 0.3078732943258409 1:0.112304 2:-0.249438 3:-0.296479 4:-0.013251 5:0.260814 6:0.108424 7:-0.538401 8:0.055112 9:0.679598 10:-0.0773143 11:-0.203939 12:-0.011104 13:-0.0250186 14:0.471062 15:0.448442 16:0.022377 17:0.0628393 18:-0.137031 19:0.159536 20:0.639302 21:-0.0625907 22:-0.553116 23:-0.352379 24:0.362875 25:0.26152 26:-0.00314677 
0.8022932524523875 0.5215632531131884 1:0.0676388 2:-0.183413 3:-0.449585 4:-0.0531185 5:0.221434 6:0.00419992 7:-0.372917 8:-0.112545 9:0.600572 10:-0.0727721 11:-0.166826 12:-0.201852 13:0.0107048 14:0.52268 15:0.232673 16:0.160358 17:0.0666329 18:-0.209024 19:0.0524215 20:0.385442 21:0.175552 22:-0.172628 23:-0.208703 24:0.279613 25:0.539329 26:-0.0039449 
0.7651523153278139 1.311561777872005 1:0.109355 2:0.214403 3:-0.318505 4:0.094511 5:0.299875 6:0.00136281 7:-0.0985239 8:-0.216972 9:0.313198 10:-0.15404 11:0.0443222 12:-0.206304 13:0.209456 14:0.481322 15:-0.296913 16:0.111363 17:-0.0369932 18:-0.195082 19:-0.0824931 20:-0.0999723 21:0.319502 22:0.182195 23:0.00695331 24:0.0647531 25:0.551966 26:-0.00273089 
1.006153543906845 1.173184171668228 1:0.314793 2:0.527523 3:-0.26184 4:0.0320989 5:0.18863 6:0.168784 7:0.0130852 8:-0.23721 9:0.264365 10:-0.238742 11:0.0982901 12:0.115511 13:0.115357 14:0.326965 15:-0.751759 16:-0.00986883 17:-0.137112 18:-0.0769091 19:-0.23894 20:-0.41806 21:0.373867 22:0.189115 23:0.182987 24:-0.052688 25:0.21301 26:0.00477244 
0.1074118373046162 0.3842494099128344 1:0.419556 2:0.578417 3:-0.285253 4:0.0349391 5:0.113362 6:0.265905 7:0.0505566 8:-0.139557 9:0.480558 10:-0.208674 11:0.0448047 12:0.354759 13:0.129707 14:0.179497 15:-0.84358 16:-0.0767602 17:-0.15264 18:-0.00766158 19:-0.275234 20:-0.507696 21:0.270654 22:-0.104572 23:0.221616 24:-0.0980797 25:-0.207935 26:0.00336076 
0.1232070583114358 0.194632844709328 1:0.446943 2:0.52014 3:-0.264112 4:0.0111032 5:0.0897165 6:0.202359 7:0.112206 8:-0.0909463 9:0.719954 10:-0.12347 11:0.210838 12:0.53516 13:0.348914 14:0.0842162 15:-0.630807 16:-0.0728423 17:-0.069249 18:-0.0372832 19:-0.132048 20:-0.459001 21:0.0831744 22:-0.439847 23:0.151433 24:-0.246012 25:-0.476406 26:-0.00641709 
0.158975284335648 0.1999489089393303 1:0.491774 2:0.454787 3:-0.239165 4:0.0291128 5:0.0439998 6:0.079979 7:0.0668677 8:-0.0442739 9:0.57277 10:-0.107234 11:0.290789 12:0.629912 13:0.580715 14:0.0717934 15:-0.328639 16:-0.0253882 17:0.0499257 18:-0.0554943 19:0.124809 20:-0.304049 21:-0.113619 22:-0.358275 23:0.136083 24:-0.283998 25:-0.450279 26:-0.014667 
0.01103741826040459 0 1:0.48847 2:0.472462 3:-0.292769 4:-0.0866805 5:0.00912892 6:0.0406766 7:-0.0441704 8:0.0988331 9:0.317168 10:-0.0555228 11:0.272329 12:0.525031 13:0.653464 14:0.140578 15:-0.185893 16:-0.0128564 17:0.13548 18:-0.0197928 19:0.256009 20:-0.0672284 21:-0.2798 22:-0.00849303 23:0.173934 24:-0.179827 25:-0.205978 26:-0.0176693 
0.265781008149271 0.2398826061501462 1:0.24627 2:0.319826 3:-0.289935 4:0.129866 5:-0.254749 6:0.299287 7:-0.207289 8:-0.0654928 9:0.454002 10:0.251181 11:0.0701666 12:0.49635 13:0.628545 14:0.557418 15:-0.179782 16:0.119339 17:-0.126198 18:0.247345 19:-0.313465 20:0.0448423 21:0.579678 22:-0.488806 23:-0.18056 24:0.280488 25:0.240474 26:-0.0157889 
0.08660907827519836 0.1536366720790339 1:0.23156 2:0.327592 3:-0.313557 4:0.140165 5:-0.184517 6:0.382541 7:-0.0495519 8:-0.0955049 9:0.405961 10:0.371589 11:0.117507 12:0.50409 13:0.451247 14:0.540059 15:-0.0929001 16:0.0417413 17:-0.153237 18:0.119976 19:-0.446204 20:-0.0551625 21:0.639697 22:-0.562468 23:-0.35329 24:0.271457 25:0.114526 26:-0.190539 
0.5844868145026773 0.4167815973191877 1:0.45159 2:0.182991 3:-0.189019 4:0.175849 5:-0.22627 6:0.146252 7:-0.194396 8:0.78205 9:-0.371969 10:0.118386 11:0.442531 12:0.890527 13:0.239594 14:0.206944 15:0.0266854 16:-0.0509309 17:-0.0985579 18:0.0694099 19:0.0858382 20:0.188329 21:-0.7508 22:0.575739 23:0.0357149 24:-0.0875734 25:-0.348898 26:0.010783 
0.2625223999370958 0.2434120592667017 1:0.423319 2:0.267716 3:-0.248821 4:0.184757 5:-0.171676 6:-0.011753 7:-0.0140891 8:0.61587 9:-0.244344 10:0.0663822 11:0.722488 12:0.584938 13:0.576664 14:0.21441 15:-0.0988586 16:0.0930032 17:-0.0584133 18:0.0610889 19:0.309371 20:0.0426518 21:-0.594486 22:0.468976 23:0.0931052 24:-0.403316 25:-0.122313 26:-0.0178312 
0.3331087914283685 0.0743894452099462 1:0.436023 2:0.257973 3:-0.223115 4:0.160221 5:-0.16923 6:0.0187842 7:0.0545357 8:0.511385 9:-0.233975 10:0.0296951 11:0.785069 12:0.593412 13:0.613808 14:0.226591 15:-0.159669 16:0.0868016 17:-0.00190278 18:0.0704111 19:0.20472 20:-0.120411 21:-0.295185 22:0.163839 23:0.125486 24:-0.489978 25:0.0658307 26:-0.0366444 
0.08565740654931213 0 1:0.433824 2:0.252371 3:-0.115603 4:0.145977 5:-0.173736 6:0.0926065 7:0.0996974 8:0.441964 9:-0.103103 10:-0.11731 11:0.696782 12:0.624815 13:0.498875 14:0.215595 15:-0.164624 16:-0.0692073 17:-0.0139212 18:0.0889653 19:-0.0822195 20:-0.188589 21:-0.120189 22:-0.208587 23:0.195303 24:-0.320223 25:0.145636 26:-0.0376268 
0.03047107990831252 0.176425068890735 1:0.159882 2:0.312025 3:-0.223773 4:0.133029 5:-0.0231374 6:-0.127916 7:0.197156 8:-0.0949382 9:-0.169517 10:-0.0849428 11:0.473114 12:0.628478 13:-0.441798 14:0.529708 15:-0.290749 16:0.0473463 17:0.0696225 18:-0.121398 19:0.165803 20:-0.107672 21:0.443551 22:0.047189 23:-0.121416 24:-0.101455 25:-0.285017 26:0.0277393 
0 0.3158050994229907 1:0.137832 2:0.243536 3:-0.0803811 4:0.159779 5:-0.0185018 6:0.0820871 7:0.276717 8:-0.0471453 9:-0.0454856 10:-0.0866091 11:0.284808 12:0.71982 13:-0.404607 14:0.584009 15:-0.186974 16:-0.0968989 17:0.140969 18:-0.205085 19:-0.0293486 20:-0.0743046 21:0.3443 22:0.0403249 23:-0.135436 24:-0.0434548 25:-0.480032 26:0.0236109 
0 0.2024608429724921 1:0.351214 2:0.125585 3:-0.173916 4:0.350411 5:-0.282683 6:0.0607316 7:0.522968 8:0.0452267 9:0.152374 10:-0.0430733 11:0.128482 12:-0.199682 13:-0.1745 14:0.322753 15:-0.150873 16:-0.130018 17:-0.0486023 18:-0.123359 19:0.137504 20:-0.460996 21:0.0285664 22:-0.15111 23:-0.0619997 24:-0.00197089 25:0.346861 26:0.0111595 
0 0.8828742564497567 1:0.347404 2:0.0336836 3:-0.288878 4:0.260038 5:-0.124729 6:0.534098 7:-0.372296 8:0.0519313 9:-0.177414 10:0.221489 11:-0.266145 12:-0.0794232 13:-0.11665 14:0.3608 15:0.0300327 16:-0.116262 17:-0.344889 18:-0.290326 19:-0.234653 20:0.26347 21:-0.0816942 22:-0.0676064 23:-0.103888 24:0.336338 25:0.133402 26:0.00107709 
0 0.02413424197317619 1:0.547949 2:0.304181 3:-0.497124 4:-0.557794 5:-0.318265 6:0.0897885 7:-0.233748 8:-0.299683 9:0.270747 10:0.0615172 11:0.0582587 12:0.0950261 13:-0.154137 14:0.254078 15:0.0604862 16:-0.0925531 17:0.192544 18:-0.0920787 19:0.00225448 20:0.104492 21:-0.0612958 22:-0.475261 23:0.174586 24:-0.256069 25:0.20962 26:-0.0114937 
0.02829445479245613 0.08598489824671911 1:0.51152 2:0.38494 3:-0.625948 4:-0.349125 5:-0.480485 6:0.208084 7:-0.364532 8:-0.11417 9:0.0139373 10:0.116327 11:0.110402 12:0.29462 13:-0.340821 14:0.309886 15:-0.124701 16:0.110368 17:-0.152947 18:0.234899 19:-0.309861 20:0.331187 21:-0.328403 22:-0.176388 23:0.131391 24:-0.357464 25:0.0237639 26:-0.00239399 
0.2190653792325084 0.3779515448217518 1:0.513469 2:0.381053 3:-0.58092 4:-0.333234 5:-0.514385 6:0.283663 7:-0.386874 8:-0.197564 9:-0.0111338 10:0.133218 11:-0.063644 12:0.326639 13:-0.373939 14:0.289008 15:-0.16892 16:0.153639 17:-0.238467 18:0.370614 19:-0.382314 20:0.45466 21:-0.290289 22:0.0242109 23:0.0733651 24:-0.122775 25:0.0748069 26:0.00119586 
0 0.06390417933637493 1:0.51685 2:0.369029 3:-0.527543 4:-0.364162 5:-0.459141 6:0.21161 7:-0.32156 8:-0.303245 9:-0.073973 10:0.233837 11:-0.257205 12:0.345377 13:-0.433104 14:0.212961 15:-0.155112 16:0.0789211 17:-0.149262 18:0.331589 19:-0.246861 20:0.437213 21:-0.172902 22:0.14017 23:0.0401741 24:0.194945 25:0.0862813 26:0.00801686 
0 0.1498891382120767 1:0.477242 2:0.381957 3:-0.436485 4:-0.413618 5:-0.266875 6:-0.0266106 7:0.0504409 8:-0.52775 9:-0.0650368 10:0.209264 11:-0.430595 12:0.664603 13:-0.472957 14:0.132858 15:-0.192971 16:-0.2002 17:0.203691 18:-0.137488 19:0.182796 20:-0.20418 21:0.219339 22:-0.0689545 23:0.000838065 24:0.188879 25:-0.295019 26:0.0149997 
0.3076063307225506 0.1119817496001106 1:0.361095 2:0.418195 3:-0.370427 4:-0.402163 5:-0.158893 6:0.0205522 7:0.285474 8:-0.568663 9:-0.0527547 10:0.299326 11:-0.356418 12:0.743122 13:-0.444575 14:0.230004 15:-0.237269 16:-0.193161 17:0.201719 18:-0.241548 19:0.189697 20:-0.404404 21:0.286377 22:-0.139475 23:-0.148905 24:-0.126123 25:-0.41838 26:0.00714178 
0 0.1381033068096993 1:0.1996 2:0.370411 3:-0.429207 4:-0.284265 5:-0.160108 6:0.05517 7:0.354381 8:-0.706359 9:0.0107231 10:0.422552 11:-0.220057 12:0.707078 13:-0.131203 14:0.377037 15:-0.19183 16:-0.0537484 17:0.0909646 18:-0.150154 19:0.0868771 20:-0.356597 21:0.286622 22:-0.106293 23:-0.197302 24:-0.288659 25:-0.389719 26:-0.0114673 
0.3498856816820903 0.3890644898855092 1:-0.00319474 2:0.307403 3:-0.444682 4:-0.0418186 5:-0.177305 6:0.155913 7:0.452926 8:-0.511137 9:-0.106085 10:0.0502267 11:-0.818901 12:0.445075 13:-0.0597445 14:0.553975 15:-0.0328379 16:0.147927 17:-0.251171 18:-0.0171639 19:-0.188545 20:-0.0806006 21:0.100069 22:-4.21609e-05 23:0.290181 24:0.443077 25:0.151229 26:-0.0170673 
0.06676343326304958 0.06264661380338662 1:-0.015518 2:0.346743 3:-0.435285 4:0.101172 5:-0.154172 6:0.120604 7:0.421937 8:-0.558677 9:0.0850869 10:0.23104 11:-0.5981 12:0.238652 13:-0.243256 14:0.598182 15:0.000457079 16:0.0791793 17:-0.47344 18:-0.108171 19:-0.0166546 20:-0.0381427 21:0.214329 22:-0.439536 23:0.0836618 24:0.322585 25:0.542679 26:0.000220143 
0.7303986631699418 0.5307891902805872 1:-0.0113476 2:0.319116 3:-0.36241 4:0.254298 5:-0.176542 6:-0.0160996 7:0.274089 8:-0.554057 9:0.37934 10:0.378646 11:-0.613351 12:-0.013924 13:-0.475167 14:0.613972 15:0.023197 16:0.00667093 17:-0.593304 18:-0.120354 19:0.242512 20:0.0173687 21:0.254718 22:-0.759582 23:-0.146167 24:0.0253947 25:0.715584 26:0.00916889 
0.235378209159319 0.024976909614807 1:0.0413098 2:0.323796 3:-0.339434 4:0.173639 5:-0.252248 6:-0.0599393 7:0.528034 8:-0.343731 9:0.254684 10:0.189339 11:-0.555084 12:0.0965073 13:-0.436528 14:0.532912 15:-0.0486896 16:-0.0410975 17:-0.398686 18:-0.0688138 19:0.407327 20:-0.111773 21:0.0869679 22:-0.585764 23:-0.155846 24:-0.236675 25:0.42394 26:0.00669194 
0.3692302185464394 0.298415760694006 1:0.442845 2:0.547303 3:-0.18433 4:-0.239885 5:-0.270409 6:0.277383 7:0.535528 8:-0.117719 9:-0.310052 10:0.0720923 11:-0.528678 12:0.72841 13:-0.407263 14:0.130897 15:-0.326078 16:-0.267546 17:0.363565 18:-0.064959 19:0.0474311 20:-0.303292 21:-0.233925 22:0.437 23:-0.151713 24:-0.0608332 25:-0.656846 26:0.000230321 
0.4118432274833591 0.222259004409847 1:0.508958 2:0.517874 3:-0.197329 4:-0.226536 5:-0.354555 6:0.380177 7:0.522836 8:-0.109007 9:-0.342873 10:0.0613578 11:-0.739362 12:0.599801 13:-0.531912 14:0.0501856 15:-0.297671 16:-0.217368 17:0.351287 18:0.0365194 19:-0.21888 20:-0.258518 21:-0.084338 22:0.527483 23:-0.185469 24:0.155714 25:-0.674373 26:0.000393456 
0.1921180137912631 0.4650067088651355 1:0.534812 2:0.486321 3:-0.247524 4:-0.14695 5:-0.481529 6:0.569657 7:0.378234 8:-0.0513183 9:-0.428189 10:-0.00729077 11:-0.669851 12:0.53777 13:-0.428959 14:0.086853 15:-0.183619 16:-0.0154897 17:0.0631138 18:0.211897 19:-0.451898 20:-0.113913 21:0.183947 22:0.264627 23:-0.00357093 24:0.146489 25:-0.386427 26:-0.00530662 
0.3516453978169761 0.4470868138348502 1:0.51818 2:0.500315 3:-0.341967 4:-0.0526635 5:-0.563253 6:0.686602 7:0.332872 8:-0.049718 9:-0.198387 10:-0.327892 11:-0.574137 12:0.435441 13:-0.314238 14:0.189054 15:-0.10235 16:0.260838 17:-0.241404 18:0.363841 19:-0.612781 20:-0.0380611 21:0.319602 22:-0.11747 23:0.440636 24:-0.0147391 25:-0.0402472 26:-0.0136437 
0.5465381026502529 0.3681819667419965 1:0.481156 2:0.51173 3:-0.405395 4:-0.0243293 5:-0.518879 6:0.58695 7:0.378963 8:-0.0934616 9:0.0346802 10:-0.677099 11:-0.51349 12:0.166368 13:-0.401921 14:0.256577 15:-0.102718 16:0.41475 17:-0.314389 18:0.381917 19:-0.653858 20:0.083775 21:0.215646 22:-0.260546 23:0.819225 24:-0.175144 25:0.182486 26:-0.0154531 
0.4842437404043193 0.6149995068620541 1:0.456142 2:0.530832 3:-0.295905 4:-0.0725277 5:-0.448298 6:0.586656 7:0.220304 8:0.312932 9:-0.067776 10:-0.501344 11:-0.564968 12:0.0457411 13:-0.455968 14:0.25494 15:-0.131034 16:0.333573 17:-0.179989 18:0.266942 19:-0.589886 20:0.263151 21:-0.217466 22:-0.186495 23:0.780249 24:-0.0891691 25:0.278507 26:-0.00707758 
0.6167787787346072 0.6841565112695442 1:0.424129 2:0.547889 3:-0.149206 4:-0.162511 5:-0.404236 6:0.437376 7:0.126463 8:0.518968 9:-0.202303 10:-0.197156 11:-0.751186 12:0.073341 13:-0.67743 14:0.198186 15:-0.155015 16:0.0912489 17:0.0698354 18:0.135739 19:-0.280595 20:0.269527 21:-0.563453 22:0.00166168 23:0.342834 24:0.135508 25:0.211762 26:0.00905514 
0.5648175218373771 0.6251259325200963 1:0.392564 2:0.541129 3:-0.00847989 4:-0.226026 5:-0.292127 6:0.152428 7:0.265207 8:0.419211 9:-0.0506834 10:-0.0482566 11:-0.759595 12:0.0231116 13:-0.746416 14:0.129244 15:-0.204906 16:-0.161221 17:0.241062 18:0.0572763 19:0.221824 20:0.0655448 21:-0.569631 22:0.0611165 23:-0.173531 24:0.111782 25:0.0570356 26:0.0147096 
0.4617603525866766 0.3786289926797419 1:0.317036 2:0.564443 3:0.0776434 4:-0.194212 5:-0.187598 6:-0.0335278 7:0.441986 8:0.347367 9:0.0472259 10:0.183705 11:-0.699392 12:0.0112614 13:-0.731838 14:0.127304 15:-0.303842 16:-0.338084 17:0.207091 18:0.0203996 19:0.572604 20:-0.181289 21:-0.30219 22:-0.112439 23:-0.564146 24:-0.0222949 25:-0.11531 26:0.0078708 
0.5207242542547811 0.3417724517084653 1:0.174652 2:0.601142 3:0.160307 4:-0.10303 5:-0.142686 6:-0.167199 7:0.478508 8:0.220676 9:0.0671602 10:0.328342 11:-0.572856 12:0.0233593 13:-0.569688 14:0.234298 15:-0.382815 16:-0.377224 17:0.019034 18:0.0161453 19:0.640558 20:-0.268025 21:0.142255 22:-0.306227 23:-0.510094 24:-0.0448262 25:-0.15054 26:-0.00575729 
0.5552008913507571 0.9669010961958876 1:-0.0233314 2:0.564456 3:0.117649 4:0.0344537 5:-0.0872715 6:-0.0552152 7:0.340329 8:0.0722872 9:0.174835 10:0.115349 11:-0.579674 12:-0.0746243 13:-0.431551 14:0.394604 15:-0.356412 16:-0.337607 17:-0.232943 18:-0.0202585 19:0.29468 20:-0.0751417 21:0.434885 22:-0.350999 23:-0.0798741 24:0.147272 25:-0.0736263 26:-0.0150594 
0.5840506704895 0.5745616225191308 1:-0.186789 2:0.452421 3:0.108881 4:0.0635969 5:0.0769803 6:0.217532 7:0.342516 8:0.0586528 9:0.170213 10:-0.0293345 11:-0.983784 12:-0.194725 13:-0.590783 14:0.511739 15:-0.244542 16:-0.249191 17:-0.365496 18:-0.0974728 19:-0.216572 20:0.00978463 21:0.465264 22:-0.168953 23:0.331925 24:0.451116 25:0.0307518 26:-0.00805833 
0.7375705288936302 0.3561381070102825 1:-0.274173 2:0.363664 3:-0.0382476 4:0.047082 5:0.0889436 6:0.159272 7:0.4074 8:0.113483 9:-0.124908 10:-0.264406 11:-0.773574 12:-0.299593 13:-0.638057 14:0.531276 15:-0.144588 16:-0.0709535 17:-0.314906 18:-0.116577 19:-0.386846 20:-0.157626 21:0.201788 22:0.0766198 23:0.476465 24:0.387857 25:0.228702 26:0.00609762 
0.9220815095257575 0.7566520718350811 1:-0.290693 2:0.314076 3:-0.0458098 4:0.0398604 5:0.15367 6:0.153545 7:0.436433 8:0.307492 9:-0.0353414 10:0.0644891 11:-0.357529 12:-0.254096 13:-0.693869 14:0.477114 15:-0.0729964 16:0.107555 17:-0.143916 18:-0.1236 19:-0.277502 20:-0.392332 21:-0.251339 22:0.0773382 23:0.153612 24:0.0121141 25:0.329763 26:0.0155366 
0.3176460937493247 0.1521677055583432 1:-0.34171 2:0.272971 3:-0.226127 4:-0.0999553 5:0.150357 6:0.0986824 7:0.558532 8:0.402114 9:0.0390401 10:0.296939 11:-0.222468 12:-0.348822 13:-0.669472 14:0.456278 15:-0.0292306 16:0.237535 17:0.0945856 18:-0.149749 19:-0.0362057 20:-0.457452 21:-0.534877 22:-0.0775477 23:-0.219963 24:-0.259758 25:0.344976 26:0.0118193 
0.9966197967264866 0.9743500572225456 1:-0.378309 2:0.193058 3:-0.241925 4:-0.155791 5:0.173418 6:-0.0461461 7:0.284665 8:0.428254 9:0.109894 10:0.235452 11:-0.215074 12:-0.367635 13:-0.462755 14:0.570703 15:0.039641 16:0.177648 17:0.215568 18:-0.241384 19:0.147855 20:-0.143658 21:-0.448425 22:-0.286677 23:-0.267261 24:-0.252636 25:0.35244 26:-0.00236645 
0 0.8845514231302614 1:-0.383331 2:0.115012 3:-0.196736 4:-0.0889995 5:0.193778 6:0.0454586 7:0.0538706 8:0.119448 9:0.0607217 10:0.0314762 11:-0.14048 12:0.0107078 13:-0.187832 14:0.710846 15:0.131995 16:0.0028187 17:0.116221 18:-0.30527 19:0.0982953 20:0.212656 21:-0.0643625 22:-0.338287 23:-0.0377562 24:-0.00730514 25:0.212883 26:-0.0137295 
0.5991156154969293 0.9735792261552201 1:-0.38013 2:0.177807 3:-0.0947552 4:-0.0359287 5:0.177245 6:0.124322 7:0.0285029 8:-0.0619613 9:-0.0286443 10:0.0146532 11:-0.256004 12:-0.00185444 13:-0.249045 14:0.753999 15:0.248139 16:-0.116708 17:-0.207542 18:-0.18989 19:0.0781174 20:0.321647 21:0.160683 22:-0.183258 23:0.27655 24:0.095705 25:0.148229 26:-0.0166428 
0.1549981244843547 0.1591937944365673 1:-0.261203 2:0.189694 3:-0.209964 4:0.0392675 5:-0.0270066 6:0.0448078 7:0.101614 8:-0.0722602 9:-0.138355 10:0.00484185 11:-0.0568206 12:0.000122372 13:-0.282812 14:0.62094 15:0.264626 16:-0.108165 17:-0.506924 18:0.0549706 19:0.0812205 20:0.153801 21:0.0565878 22:0.0504447 23:0.367294 24:-0.113179 25:0.0183383 26:-0.0144092 
0 0.1622209677610213 1:0.175449 2:0.239729 3:-0.314019 4:0.092627 5:-0.190536 6:0.0850229 7:0.0833809 8:0.0113232 9:-0.24016 10:0.0211632 11:0.117551 12:0.475913 13:-0.23157 14:0.319643 15:0.109172 16:-0.0879977 17:-0.531453 18:0.195394 19:0.00209698 20:-0.177847 21:-0.170116 22:0.261674 23:0.236163 24:-0.353871 25:-0.26373 26:-0.012293 
0 0.833022433122362 1:0.329623 2:0.368996 3:-0.29875 4:-0.0565687 5:-0.171611 6:0.165745 7:0.123052 8:-0.0856941 9:-0.241503 10:0.0919344 11:0.229576 12:0.540051 13:-0.173147 14:0.117881 15:-0.207947 16:-0.127573 17:-0.22574 18:0.148046 19:-0.10791 20:-0.405681 21:-0.167757 22:0.372834 23:0.0276483 24:-0.402483 25:-0.375185 26:-0.0107365 
0.4946739377473737 0.3259931595025141 1:0.434188 2:0.737946 3:-0.264374 4:-0.462526 5:-0.121968 6:0.32414 7:0.10241 8:-0.383723 9:-0.249708 10:0.344862 11:-0.108634 12:0.548043 13:-0.388958 14:0.0338373 15:-0.56511 16:-0.176117 17:0.207689 18:0.034218 19:-0.273691 20:-0.410004 21:0.164277 22:0.355807 23:-0.174262 24:-0.148833 25:-0.404729 26:-0.00527628 
0.04023951709056704 0.1678312920636972 1:0.595068 2:0.663652 3:-0.382605 4:-0.449761 5:-0.212569 6:0.251394 7:-0.0283064 8:-0.549421 9:-0.0421634 10:0.255372 11:-0.184227 12:0.585691 13:-0.419113 14:0.0429765 15:-0.611473 16:-0.0951439 17:0.335 18:0.0368995 19:-0.31474 20:-0.203749 21:0.471082 22:0.176756 23:-0.19512 24:0.20136 25:-0.254266 26:0.00541299 
0.1915872009935078 0.2476649889137017 1:0.631463 2:0.640327 3:-0.628351 4:-0.399914 5:-0.378248 6:0.196774 7:-0.282585 8:-0.57831 9:0.108155 10:0.181784 11:-0.230558 12:0.52135 13:-0.494272 14:0.120247 15:-0.416745 16:0.140423 17:0.237319 18:0.17169 19:-0.211068 20:0.0700884 21:0.529931 22:-0.0644683 23:-0.134507 24:0.375295 25:-0.0128708 26:0.0157047 
0.1158154863032721 0.1076935322174728 1:0.66198 2:0.592348 3:-0.619846 4:-0.394222 5:-0.340611 6:0.209336 7:-0.362681 8:-0.464926 9:0.337825 10:0.197784 11:-0.239842 12:0.489071 13:-0.521856 14:0.162913 15:-0.138658 16:0.275752 17:0.0514435 18:0.268305 19:-0.0906494 20:0.20941 21:0.36091 22:-0.285751 23:-0.0445676 24:0.331717 25:0.0663292 26:0.0185705 
0.1078798041396954 0.3004375031492804 1:0.637797 2:0.585395 3:-0.68811 4:-0.39674 5:-0.338516 6:0.137714 7:-0.417473 8:-0.384655 9:0.422696 10:0.110681 11:-0.206337 12:0.454068 13:-0.506424 14:0.235444 15:0.00348772 16:0.301669 17:-0.0715282 18:0.261211 19:0.0253277 20:0.192911 21:0.171837 22:-0.346911 23:0.0752791 24:0.141534 25:0.0482408 26:0.0125142 
0.5552867239095022 0.265346347507962 1:0.445365 2:0.52133 3:-0.177274 4:-0.358139 5:0.076562 6:-0.114975 7:-0.42058 8:0.157283 9:0.503467 10:-0.345269 11:0.289874 12:0.369872 13:0.2967 14:0.175336 15:-0.118779 16:-0.229644 17:0.122548 18:0.0556969 19:0.345499 20:-0.0587431 21:-0.0930415 22:-0.0476398 23:0.470601 24:-0.0880538 25:-0.0965889 26:-0.0124792 
0.6204339281370872 0.4889909786022449 1:0.371423 2:0.492366 3:-0.0718554 4:-0.222782 5:0.218503 6:-0.0632088 7:-0.476974 8:0.092228 9:0.510311 10:-0.36632 11:0.330306 12:0.388749 13:0.0810504 14:0.189458 15:-0.13874 16:-0.334417 17:-0.0164057 18:-0.122101 19:0.142783 20:-0.00488448 21:-0.0591925 22:-0.0713275 23:0.499775 24:-0.236364 25:-0.0134281 26:0.00183194 
0.1588291658408022 0.3826791983384422 1:0.269162 2:0.489544 3:-0.0538102 4:-0.0731026 5:0.314561 6:0.0929682 7:-0.40336 8:0.0790031 9:0.384356 10:-0.229654 11:0.219558 12:0.277309 13:0.0432802 14:0.268125 15:-0.129939 16:-0.275684 17:-0.214194 18:-0.239222 19:-0.256425 20:-0.0129274 21:-0.13316 22:-0.191822 23:0.340763 24:-0.298629 25:0.124506 26:0.0114883 
0.653549509851401 0.4174927247925885 1:0.0820495 2:0.457201 3:-0.0806826 4:0.00410561 5:0.34563 6:0.264625 7:-0.368381 8:0.246761 9:0.495802 10:-0.116782 11:0.235718 12:0.111831 13:0.0293544 14:0.390788 15:-0.115916 16:-0.140359 17:-0.312369 18:-0.238114 19:-0.569054 20:-0.0483316 21:-0.278372 22:-0.296225 23:0.118215 24:-0.187539 25:0.175076 26:0.0109503 
0.9953022429235963 0.1563578553680764 1:-0.089678 2:0.41935 3:-0.172521 4:-0.0458496 5:0.428122 6:0.200968 7:-0.383859 8:0.183353 9:0.535285 10:0.216993 11:0.399509 12:0.291613 13:0.120866 14:0.493715 15:-0.191638 16:-0.00636564 17:-0.235565 18:-0.235734 19:-0.458371 20:-0.0485296 21:-0.280983 22:-0.269167 23:-0.143295 24:-0.00942429 25:0.0582361 26:-0.000650323 
0.7454234416018605 0.6851466631848253 1:-0.137245 2:0.448522 3:-0.108885 4:0.00776924 5:0.368009 6:0.0604882 7:-0.349944 8:-0.0140533 9:0.127614 10:0.0896069 11:-0.322527 12:0.239467 13:0.386765 14:0.590479 15:-0.422613 16:-0.0398582 17:-0.12293 18:-0.255262 19:-0.0227869 20:0.0612766 21:-0.0238376 22:-0.120731 23:-0.270233 24:0.276139 25:0.106477 26:-0.0148886 
0.09332712340788926 0.4614874488958011 1:-0.149126 2:0.460731 3:-0.107278 4:-0.0976478 5:0.318837 6:-0.113583 7:-0.322901 8:-0.149306 9:-0.011753 10:0.284724 11:-0.180936 12:0.219688 13:0.357365 14:0.687779 15:-0.567607 16:-0.0586762 17:-0.0469569 18:-0.291594 19:0.403662 20:0.234385 21:0.355745 22:-0.0198614 23:-0.316427 24:0.223778 25:0.184154 26:-0.0148522 
0.419147456965468 0.4987998697380249 1:-0.231205 2:0.378338 3:-0.151949 4:-0.041272 5:0.361623 6:-0.16314 7:-0.346446 8:-0.204428 9:0.181687 10:0.325395 11:0.184247 12:0.185286 13:0.241044 14:0.715253 15:-0.472957 16:0.0267403 17:-0.0933925 18:-0.284467 19:0.476196 20:0.340224 21:0.642246 22:-0.0219163 23:-0.13963 24:0.0832113 25:0.160277 26:-0.0059794 
0.6019519044524237 2.28928618534544 1:-0.240649 2:0.206583 3:-0.183982 4:0.0221022 5:0.23801 6:0.0126019 7:-0.247571 8:-0.239937 9:0.00905619 10:0.168264 11:0.0584342 12:0.223459 13:0.159705 14:0.542337 15:-0.1622 16:0.154123 17:-0.0485137 18:-0.0465875 19:0.16995 20:0.143919 21:0.5641 22:0.0332451 23:0.209003 24:0.121843 25:-0.130846 26:0.00291522 
0.1166614387637885 0.3243671315208272 1:0.0894202 2:-0.128859 3:-0.28762 4:-0.0409751 5:-0.0659771 6:0.23722 7:0.0504447 8:-0.0539017 9:-0.388024 10:-0.0743871 11:-0.272097 12:0.515465 13:0.215655 14:0.191865 15:0.281661 16:0.354701 17:0.174626 18:0.276893 19:-0.134861 20:-0.214304 21:0.17662 22:0.208517 23:0.413054 24:0.206643 25:-0.498309 26:0.00478115 
0.4957280835540014 0.3139838093344232 1:0.316423 2:-0.114586 3:-0.176801 4:-0.132316 5:-0.119889 6:0.233539 7:0.206413 8:0.20956 9:-0.161627 10:0.109626 11:-0.0552495 12:0.564322 13:0.287587 14:-0.0185787 15:0.446052 16:0.394484 17:0.29188 18:0.410286 19:-0.190402 20:-0.45105 21:-0.280366 22:0.273963 23:0.282818 24:0.164327 25:-0.505604 26:-0.00147502 
0.3043402601669471 1.142627378170511 1:0.258909 2:-0.0956272 3:-0.048657 4:-0.107161 5:-0.13456 6:0.190413 7:0.324053 8:0.419089 9:-0.173174 10:0.346535 11:0.213926 12:0.295377 13:0.303057 14:0.0752423 15:0.359987 16:0.27494 17:0.177399 18:0.301242 19:-0.13288 20:-0.389174 21:-0.61204 22:0.277493 23:-0.0985724 24:-0.122868 25:-0.117514 26:-0.00798483 
0.2900014170999533 1.066560671365078 1:0.0278818 2:-0.13238 3:-0.0287591 4:0.200437 5:-0.026796 6:0.233329 7:0.0907028 8:0.239596 9:-0.262201 10:0.466612 11:0.278039 12:-0.171101 13:0.304407 14:0.351305 15:0.160859 16:0.0365909 17:-0.187516 18:0.000284949 19:-0.203022 20:-0.00500867 21:-0.606575 22:0.135994 23:-0.37302 24:-0.384246 25:0.381685 26:-0.0124117 
0.2945068294691562 0.1133446532923146 1:0.0209177 2:0.064512 3:0.277512 4:0.412276 5:-0.0723845 6:0.402589 7:0.193498 8:0.211886 9:-0.0125147 10:0.36301 11:0.217755 12:0.0565825 13:0.358298 14:0.498157 15:-0.114558 16:-0.335765 17:-0.454044 18:-0.181277 19:-0.399628 20:0.20702 21:-0.460238 22:-0.0332608 23:-0.294802 24:-0.385277 25:0.459792 26:-0.0094402 
0.2111763374994766 0.2200956623539419 1:0.198527 2:0.269431 3:0.215381 4:0.215589 5:-0.342855 6:0.0253173 7:0.571272 8:-0.463413 9:0.399089 10:0.130261 11:-0.158778 12:0.245738 13:0.318516 14:0.293159 15:-0.179861 16:-0.129145 17:-0.091919 18:0.376585 19:0.168236 20:-0.432082 21:0.476173 22:-0.38864 23:0.128992 24:0.319629 25:-0.0215965 26:-0.00591861 
0.1112301223991198 0 1:0.211892 2:0.238555 3:0.194107 4:0.10304 5:-0.398337 6:0.17921 7:0.616534 8:-0.629847 9:0.35132 10:0.201296 11:0.106344 12:0.393833 13:0.322765 14:0.326374 15:-0.116015 16:-0.175146 17:-0.0656389 18:0.448543 19:0.0262717 20:-0.412213 21:0.484955 22:-0.182391 23:0.0049591 24:0.0266485 25:-0.0407998 26:-0.0162796 
0.1358160894346808 0.01080131515808884 1:0.150116 2:0.22071 3:-0.381549 4:0.243918 5:-0.13354 6:0.676774 7:0.658497 8:-0.0345952 9:0.335821 10:-0.1436 11:-0.167851 12:0.573417 13:0.0887362 14:0.458896 15:0.101019 16:-0.12471 17:-0.38281 18:-0.0942905 19:-0.606773 20:-0.282297 21:-0.319927 22:-0.207188 23:0.2408 24:0.0859262 25:0.122884 26:-0.01217 
0.125505256033276 0.04277812638831492 1:0.37379 2:0.510894 3:-0.500858 4:-0.13134 5:-0.312483 6:0.246029 7:0.328581 8:-0.59093 9:0.00042397 10:-0.0413555 11:-0.20779 12:0.754648 13:-0.181045 14:0.374239 15:-0.454707 16:0.0754483 17:0.0460403 18:0.307623 19:-0.0170518 20:-0.286144 21:0.413686 22:0.438812 23:-0.143283 24:0.198776 25:-0.450357 26:0.00991173 
0.5230977978048024 0.3125597502582412 1:0.458691 2:0.611627 3:-0.604683 4:-0.275826 5:-0.200152 6:0.163518 7:0.18257 8:-0.631339 9:-0.0920701 10:0.236536 11:0.0414246 12:0.709816 13:-0.165528 14:0.290818 15:-0.648149 16:0.233276 17:0.326675 18:0.0988837 19:0.122911 20:-0.0552136 21:0.585207 22:0.504044 23:-0.358252 24:-0.0486795 25:-0.436892 26:0.00858189 
0 0.1442391504919485 1:0.564295 2:0.536401 3:-0.559851 4:-0.312566 5:-0.0813595 6:0.0312163 7:-0.0337674 8:-0.507414 9:0.159846 10:0.197827 11:0.210352 12:0.437288 13:-0.0120299 14:0.225291 15:-0.549224 16:0.23175 17:0.337525 18:-0.102096 19:0.228628 20:0.158542 21:0.395349 22:0.1834 23:-0.329051 24:-0.296806 25:-0.159892 26:-0.000358061 
0.2071967057582824 0.3071797129588028 1:0.694092 2:0.350646 3:-0.463574 4:-0.240348 5:-0.159477 6:-0.13761 7:-0.357189 8:-0.334516 9:0.540197 10:-0.231556 11:0.124497 12:0.115108 13:0.0189665 14:0.185336 15:-0.0322428 16:0.0186203 17:-0.0770118 18:-0.0366045 19:0.330554 20:0.204931 21:-0.127966 22:-0.581157 23:0.2541 24:-0.248619 25:0.202196 26:-0.0123979 
0.1279381684436282 1.183051808396436 1:0.734474 2:0.279918 3:-0.429329 4:-0.292368 5:-0.110222 6:-0.0801713 7:-0.414976 8:-0.329693 9:0.485806 10:-0.267899 11:-0.0883664 12:0.053163 13:-0.0516928 14:0.202968 15:-0.0116076 16:0.00684095 17:-0.016126 18:0.0283772 19:0.263455 20:0.0730213 21:0.0118599 22:-0.335704 23:0.226197 24:0.236231 25:-0.0794587 26:-0.00600558 
0 2.700523847264458 1:0.708814 2:0.297508 3:-0.364085 4:-0.31785 5:-0.118445 6:0.0144646 7:-0.523879 8:-0.318818 9:0.373431 10:-0.172272 11:-0.167561 12:-0.0381522 13:-0.0981223 14:0.231344 15:-0.0918269 16:-0.0584552 17:0.0752986 18:0.0151663 19:0.0955626 20:0.150035 21:0.137167 22:-0.0992387 23:-0.0464143 24:0.276411 25:-0.0455246 26:-0.00565769 
0.08153647799052961 0.01372391444279478 1:0.681559 2:0.290904 3:-0.335872 4:-0.302321 5:-0.14399 6:0.103125 7:-0.623173 8:-0.249993 9:0.235147 10:-0.20402 11:-0.058717 12:-0.205315 13:-0.139961 14:0.273477 15:-0.119547 16:-0.135978 17:0.0992751 18:0.0634954 19:-0.112823 20:0.188327 21:0.168789 22:0.0754628 23:-0.160831 24:0.124874 25:0.0910177 26:-0.0046243 
0.2643568012505499 1.308861152710673 1:0.651046 2:0.274709 3:-0.29824 4:-0.242829 5:-0.150997 6:0.261169 7:-0.572988 8:-0.190505 9:0.226086 10:-0.259526 11:0.0517004 12:-0.266874 13:-0.151086 14:0.323405 15:-0.0900628 16:-0.161352 17:0.0622621 18:0.116714 19:-0.301937 20:0.0810886 21:0.0853371 22:0.187587 23:-0.0776164 24:-0.0860054 25:0.200186 26:-0.00193753 
0.0850541046441851 0.8198906981042041 1:0.586678 2:0.256549 3:-0.300797 4:-0.209787 5:-0.142125 6:0.331306 7:-0.45717 8:-0.139032 9:0.172527 10:-0.341272 11:0.0574919 12:-0.372374 13:-0.274938 14:0.374426 15:-0.0372103 16:-0.0954822 17:0.022706 18:0.0785922 19:-0.342558 20:-0.104649 21:-0.0455745 22:0.196211 23:0.105658 24:-0.199366 25:0.244921 26:0.00380136 
0 0.1921563192748369 1:0.554714 2:0.308014 3:-0.407441 4:-0.0865427 5:-0.0416408 6:0.258473 7:-0.558514 8:0.0381213 9:0.277029 10:-0.501858 11:-0.017095 12:-0.366609 13:-0.302346 14:0.399246 15:-0.139722 16:0.111409 17:-0.0866676 18:-0.094045 19:-0.182507 20:-0.103854 21:-0.0938533 22:-0.133557 23:0.221661 24:-0.0229081 25:0.260336 26:0.00957111 
0 1.1968629605597 1:0.551149 2:0.353783 3:-0.363207 4:-0.0192799 5:-0.0547718 6:0.247678 7:-0.553594 8:0.00527574 9:0.414941 10:-0.427501 11:-0.115426 12:-0.313624 13:-0.270688 14:0.369862 15:-0.272604 16:0.113632 17:-0.154041 18:-0.0469905 19:-0.139301 20:-0.0352107 21:0.0402106 22:-0.26051 23:0.107899 24:0.110955 25:0.188474 26:0.00432552 
0 0.7548078405793758 1:0.584735 2:0.312053 3:-0.292351 4:0.0433125 5:-0.104911 6:0.0986871 7:-0.569499 8:0.173928 9:0.249432 10:-0.490587 11:-0.0815354 12:0.0279522 13:-0.00279486 14:0.135696 15:-0.359091 16:0.264813 17:-0.222993 18:0.473802 19:0.195058 20:0.0868135 21:-0.0752337 22:-0.137757 23:0.120096 24:-0.131489 25:-0.119158 26:-0.0130455 
0.5090616365742763 0.05440645224834689 1:0.547539 2:0.259059 3:-0.250517 4:0.052116 5:-0.0741703 6:0.0831782 7:-0.59985 8:0.280376 9:0.275029 10:-0.471 11:-0.02666 12:-0.053143 13:-0.113709 14:0.126917 15:-0.419284 16:0.353546 17:-0.213513 18:0.445129 19:0.229832 20:0.0661481 21:-0.268051 22:-0.25264 23:0.15625 24:-0.266416 25:-0.0327776 26:-0.00764028 
0.1377038857920104 1.994492832086543 1:0.44805 2:0.220651 3:-0.111552 4:0.0515923 5:0.0141061 6:0.23377 7:-0.47974 8:0.386226 9:0.353034 10:-0.42217 11:-0.00172685 12:-0.13451 13:-0.253846 14:0.232982 15:-0.491095 16:0.262962 17:-0.145378 18:0.106562 19:0.142989 20:-0.106439 21:-0.332536 22:-0.333865 23:0.213503 24:-0.139753 25:-0.0702873 26:-0.00182949 
0.5762773736449205 2.276651605364335 1:0.298733 2:0.134015 3:0.070946 4:-0.0497019 5:0.278647 6:0.335069 7:-0.365185 8:0.316077 9:0.157296 10:-0.457743 11:-0.262039 12:0.151926 13:-0.203395 14:0.416862 15:-0.495945 16:-0.0056226 17:0.00803544 18:-0.464265 19:0.0797116 20:-0.192214 21:-0.170074 22:-0.182065 23:0.194943 24:0.179464 25:-0.269994 26:-0.000908744 
0.630160707632763 0.325607620056193 1:0.173397 2:-0.097351 3:0.305866 4:-0.144316 5:0.614731 6:0.233824 7:-0.444897 8:0.0987361 9:-0.110755 10:-0.349181 11:-0.399459 12:0.198532 13:-0.0624409 14:0.558003 15:-0.31409 16:-0.361656 17:0.114793 18:-0.95649 19:0.0281562 20:-0.0861696 21:0.0883626 22:0.0687066 23:0.00357211 24:0.344325 25:-0.302331 26:-0.00343417 
0.5687022812355484 0.4689316898525903 1:0.127811 2:-0.337139 3:0.501343 4:-0.140561 5:0.435942 6:0.422873 7:-0.421917 8:0.157547 9:-0.0590422 10:-0.293852 11:-0.429639 12:0.0175463 13:-0.279387 14:0.571097 15:0.00548998 16:-0.631394 17:0.0816344 18:-0.864115 19:-0.209828 20:0.075421 21:0.179581 22:0.221905 23:-0.176013 24:0.263027 25:-0.00858281 26:0.0011618 
0.7024632710703366 0.683561010471561 1:0.164657 2:-0.475801 3:0.504886 4:-0.0895567 5:0.182313 6:0.554307 7:-0.537108 8:0.13011 9:-0.115133 10:-0.0103456 11:-0.0566356 12:-0.200281 13:-0.287779 14:0.472005 15:0.287322 16:-0.710834 17:-0.0585228 18:-0.311892 19:-0.453789 20:0.220121 21:0.137656 22:0.301358 23:-0.273491 24:-0.0766903 25:0.37585 26:0.000313061 
0.5694721149161009 0.6064441516501802 1:0.234922 2:-0.666799 3:0.419163 4:-0.0207889 5:-0.0693677 6:0.687245 7:-0.332207 8:0.184067 9:-0.14848 10:-0.248786 11:-0.0398249 12:-0.16623 13:-0.205083 14:0.335057 15:0.472916 16:-0.570073 17:-0.172601 18:0.327807 19:-0.572256 20:0.0495186 21:-0.0697082 22:0.290423 23:-0.0231346 24:-0.185304 25:0.464982 26:-0.00339379 
0.575458145768356 0.4634215665024203 1:0.246232 2:-0.730958 3:0.308191 4:-0.098464 5:-0.279685 6:0.48631 7:-0.248639 8:0.187896 9:-0.125221 10:-0.497683 11:-0.243673 12:-0.0288102 13:-0.224507 14:0.249767 15:0.472431 16:-0.301254 17:-0.123302 18:0.615566 19:-0.41101 20:-0.143947 21:-0.249471 22:0.144275 23:0.363871 24:-0.00911514 25:0.255106 26:-0.00846257 
0.2058082246499758 0.3855596515757818 1:0.240288 2:-0.624628 3:0.144413 4:-0.155268 5:-0.299849 6:0.325621 7:-0.167465 8:0.159223 9:0.133045 10:-0.363727 11:-0.202788 12:0.25458 13:-0.0619892 14:0.239557 15:0.38828 16:0.0372643 17:-0.00529714 18:0.468154 19:-0.0773779 20:-0.183321 21:-0.205804 22:-0.118346 23:0.459841 24:0.121305 25:-0.0285377 26:-0.013039 
0.1455718008468624 0.1813279350629856 1:0.251553 2:-0.559117 3:-0.160344 4:-0.17669 5:-0.196485 6:0.272899 7:-0.121866 8:0.120529 9:0.20294 10:-0.300531 11:-0.274827 12:0.287797 13:-0.382323 14:0.318481 15:0.419747 16:0.31733 17:0.0223834 18:0.20122 19:0.180798 20:-0.0900847 21:-0.130347 22:-0.382589 23:0.341588 24:0.109211 25:-0.13692 26:-0.00197872 
0.02554241014986149 0.5500511842477445 1:0.214328 2:-0.459448 3:-0.186803 4:-0.145263 5:-0.169207 6:0.247404 7:-0.245849 8:-0.0886822 9:0.365832 10:-0.145765 11:-0.0029089 12:0.192601 13:-0.331163 14:0.439127 15:0.354118 16:0.379588 17:-0.0666333 18:0.0353557 19:0.317216 20:0.0870911 21:0.0213495 22:-0.550984 23:0.0634036 24:-0.19382 25:-0.0963241 26:0.00491302 
0 0.2016151511699066 1:0.168408 2:-0.316031 3:-0.24817 4:-0.126612 5:-0.315538 6:0.0898241 7:-0.11763 8:-0.223625 9:0.200237 10:0.113052 11:0.0247862 12:0.441887 13:-0.397105 14:0.483559 15:0.0851606 16:0.32862 17:-0.207586 18:0.0541247 19:0.354299 20:0.0423966 21:0.0639499 22:-0.44067 23:-0.140271 24:-0.336719 25:-0.160083 26:0.00708114 
0 0.5663593361913545 1:0.182465 2:-0.0150357 3:-0.182834 4:-0.109909 5:-0.247008 6:0.185071 7:0.0432709 8:-0.0531988 9:0.180577 10:0.0304155 11:-0.103643 12:0.556756 13:-0.406457 14:0.368209 15:-0.395409 16:0.206854 17:-0.248477 18:0.109625 19:0.282293 20:-0.0364614 21:-0.0174379 22:-0.195395 23:-0.122779 24:-0.161581 25:-0.1622 26:0.00342585 
0 0.01042421276853743 1:0.3646 2:0.44737 3:-0.247607 4:-0.226989 5:-0.196082 6:0.324798 7:0.0831361 8:-0.319408 9:0.0195557 10:0.0872219 11:-0.233534 12:0.445225 13:-0.230725 14:0.103433 15:-0.842535 16:0.141059 17:-0.118357 18:0.181165 19:0.116834 20:-0.0798542 21:0.0190797 22:0.0349219 23:-0.177017 24:0.139343 25:-0.118199 26:-0.00363356 
0.1113593108232985 0.2900548050811438 1:0.444499 2:0.421657 3:-0.209864 4:-0.28393 5:-0.232021 6:0.379902 7:0.0754686 8:-0.375524 9:-0.132022 10:0.214075 11:-0.393001 12:0.463202 13:-0.263861 14:-0.0871774 15:-0.810174 16:0.0975357 17:0.121926 18:0.239551 19:-0.13592 20:-0.106952 21:0.134273 22:0.0834852 23:-0.236243 24:0.402433 25:-0.105619 26:1.55457e-06 
0 0.6069828184830648 1:0.347244 2:0.316347 3:-0.145595 4:-0.38868 5:-0.222122 6:0.444994 7:0.123993 8:-0.463176 9:-0.133551 10:0.159339 11:-0.341993 12:0.478043 13:-0.302621 14:-0.0493668 15:-0.522873 16:-0.0124884 17:0.335681 18:0.223159 19:-0.454855 20:-0.229941 21:0.40843 22:0.0356832 23:-0.167698 24:0.319794 25:-0.183758 26:0.00106925 
0.133943578139377 0.5382118945924693 1:0.147291 2:0.310156 3:-0.0666946 4:-0.379451 5:-0.0831639 6:0.603215 7:0.321692 8:-0.467768 9:-0.0018997 10:0.118418 11:-0.157982 12:0.583892 13:-0.29068 14:0.180122 15:-0.283976 16:-0.149233 17:0.330403 18:0.14516 19:-0.549562 20:-0.432599 21:0.520503 22:-0.0271726 23:-0.026776 24:0.058181 25:-0.358621 26:-0.00169297 
0.7775656092884312 0.622865700565729 1:-0.0805519 2:0.382497 3:-0.068346 4:-0.317252 5:0.039719 6:0.579633 7:0.284388 8:-0.598279 9:-0.112504 10:-0.118337 11:-0.0483197 12:0.472131 13:-0.125189 14:0.489386 15:-0.227778 16:-0.345923 17:0.0620498 18:-0.0518504 19:-0.383395 20:-0.492806 21:0.38919 22:0.0702741 23:0.25819 24:-0.272544 25:-0.325478 26:-0.00796677 
0.3530518274184917 0.3770911610521051 1:-0.186318 2:0.372341 3:-0.0496593 4:-0.074757 5:0.116973 6:0.35308 7:0.217905 8:-0.304172 9:-0.40299 10:-0.15793 11:0.0352593 12:0.36408 13:0.042655 14:0.714909 15:-0.282899 16:-0.448418 17:-0.304947 18:-0.295008 19:-0.0550277 20:-0.424769 21:-0.0706294 22:0.277461 23:0.412621 24:-0.54546 25:-0.0131476 26:-0.0162451 
0.2466314843187351 0.1863961038135962 1:-0.252104 2:0.27414 3:-0.103448 4:-0.00312175 5:0.156356 6:0.0900211 7:-0.0531349 8:0.0305972 9:-0.0461924 10:-0.0540898 11:-0.099643 12:0.0687881 13:-0.175441 14:0.780926 15:-0.229588 16:-0.324122 17:-0.428343 18:-0.413871 19:0.22317 20:-0.156888 21:-0.562528 22:0.296137 23:0.368543 24:-0.526493 25:0.420098 26:-0.0121239 
0.1517651964448364 0.607066329341131 1:-0.300628 2:0.205504 3:-0.208459 4:-0.0561812 5:0.250978 6:0.331085 7:-0.0505862 8:-0.152096 9:-0.109262 10:-0.0412442 11:-0.0455268 12:-0.0217886 13:-0.202237 14:0.730681 15:-0.0967493 16:0.0651499 17:-0.0811128 18:-0.437068 19:0.177136 20:0.207766 21:-0.555095 22:0.213329 23:0.16582 24:-0.215365 25:0.525085 26:0.000327797 
0.5216360354206196 0.4809023895491712 1:-0.135315 2:0.202453 3:-0.56668 4:-0.223786 5:0.105913 6:0.285761 7:-0.167544 8:-0.150357 9:0.0747326 10:0.101724 11:-0.484911 12:0.0594076 13:-0.117787 14:0.603656 15:-0.0383108 16:0.557003 17:0.386536 18:-0.272757 19:0.0428383 20:0.559837 21:-0.259562 22:-0.138326 23:-0.129153 24:0.337817 25:0.232652 26:0.00772298 
0.6717420772678879 0.4441098108402976 1:0.105639 2:0.157227 3:-0.615479 4:-0.251462 5:-0.100552 6:0.183595 7:-0.4174 8:-0.43925 9:0.253602 10:0.216772 11:-0.833956 12:0.287414 13:-0.363263 14:0.47226 15:-0.0980651 16:0.724553 17:0.547641 18:-0.0335406 19:-0.128084 20:0.778005 21:0.243471 22:-0.503014 23:-0.291558 24:0.769135 25:-0.203648 26:0.00623601 
0.6692863773286084 0.4447045883838933 1:0.117786 2:0.114275 3:-0.473459 4:-0.105936 5:-0.0968204 6:0.220678 7:-0.334565 8:-0.593729 9:0.528422 10:0.295269 11:-0.766101 12:0.428571 13:-0.257132 14:0.395675 15:-0.224694 16:0.474143 17:0.243075 18:0.123262 19:-0.314669 20:0.546425 21:0.476138 22:-0.667571 23:-0.28924 24:0.751403 25:-0.44786 26:-0.0118149 
0 1.100912090835865 1:0.280721 2:0.185754 3:-0.20967 4:0.44311 5:-0.263571 6:0.295659 7:0.184394 8:-0.402768 9:0.361036 10:0.0259331 11:-0.336229 12:0.166675 13:0.186034 14:0.268708 15:-0.328273 16:0.00671889 17:-0.306653 18:0.304206 19:-0.382629 20:-0.00672647 21:0.32852 22:-0.519627 23:-0.0922514 24:0.364185 25:-0.25737 26:-0.0303268 
0 0.497818855173937 1:0.572136 2:0.121477 3:-0.108782 4:0.447211 5:-0.326406 6:0.174358 7:0.304563 8:-0.358733 9:0.147544 10:-0.0487659 11:-0.266343 12:0.0694923 13:-0.0843777 14:0.0976283 15:-0.247798 16:-0.326913 17:-0.479538 18:0.407296 19:-0.270111 20:-0.37133 21:0.196617 22:-0.0962489 23:0.0914086 24:-0.0551685 25:0.092463 26:-0.0258701 
0.2707519515090555 0.3379714292714067 1:0.687987 2:-0.0247584 3:-0.0574494 4:0.40011 5:-0.356027 6:-0.0391658 7:0.369794 8:-0.358219 9:0.0140101 10:-0.0487801 11:-0.0363454 12:0.0214332 13:-0.399344 14:-0.028992 15:-0.0274556 16:-0.373065 17:-0.349328 18:0.50318 19:0.0162467 20:-0.461035 21:0.0562581 22:0.314606 23:0.170386 24:-0.370676 25:0.430428 26:-0.00417867 
0.4868979819633036 0.2336274127835745 1:0.706041 2:-0.113122 3:-0.0554216 4:0.435178 5:-0.337314 6:-0.222384 7:0.372263 8:-0.289249 9:-0.00174684 10:-0.132233 11:0.09094 12:-0.0215414 13:-0.646221 14:-0.0811431 15:0.167411 16:-0.232067 17:-0.171726 18:0.531951 19:0.29398 20:-0.364976 21:-0.0247456 22:0.506348 23:0.159117 24:-0.471542 25:0.536412 26:0.0248653 
0.2232452320050737 0.2901049151695894 1:0.694743 2:-0.109507 3:-0.0734303 4:0.502026 5:-0.220557 6:-0.244306 7:0.415648 8:-0.193201 9:0.0293993 10:-0.194931 11:0.1424 12:-0.00100028 13:-0.723116 14:-0.0095611 15:0.214254 16:-0.0647654 17:-0.101651 18:0.333782 19:0.396463 20:-0.297501 21:-0.0966739 22:0.427237 23:0.0842825 24:-0.418445 25:0.28677 26:0.0373778 
0.6533217717493047 0.9213386193808411 1:0.62832 2:-0.053208 3:-0.102755 4:0.575547 5:-0.0588601 6:-0.163006 7:0.53778 8:-0.0857122 9:0.180544 10:-0.185045 11:0.096236 12:0.237654 13:-0.672863 14:0.137416 15:0.0634659 16:0.00077287 17:-0.186538 18:-0.0205893 19:0.259772 20:-0.36873 21:-0.142313 22:0.16411 23:0.0726019 24:-0.244967 25:-0.0921964 26:0.0251089 
0.3464606761909271 0.5892040720227478 1:0.506038 2:0.0283144 3:-0.1332 4:0.544738 5:0.142505 6:-0.223677 7:0.465876 8:-0.139911 9:0.448526 10:-0.179814 11:-0.104989 12:0.536851 13:-0.398335 14:0.316754 15:-0.181149 16:-0.00368659 17:-0.152142 18:-0.39544 19:0.0732311 20:-0.232844 21:-0.0540313 22:-0.244275 23:0.113999 24:0.0122036 25:-0.360067 26:0.000316702 
0.2067108466793856 0.1035478456191221 1:0.342063 2:0.0755463 3:-0.0714981 4:0.505184 5:0.293177 6:-0.17573 7:0.270677 8:-0.14076 9:0.601142 10:-0.289847 11:-0.185124 12:0.535215 13:-0.0583342 14:0.525058 15:-0.363349 16:-0.0267202 17:-0.0525577 18:-0.644332 19:-0.100375 20:0.0853756 21:-0.00686891 22:-0.645995 23:0.141675 24:0.150205 25:-0.366319 26:-0.0220147 
0.7056368844720909 0.6461549678146299 1:0.257531 2:0.138981 3:-0.0811401 4:0.498344 5:0.251691 6:0.0233283 7:0.258492 8:-0.166607 9:0.739119 10:-0.336348 11:-0.203516 12:0.262492 13:-0.0374478 14:0.655212 15:-0.448405 16:0.0478531 17:-0.0061065 18:-0.643708 19:-0.216778 20:0.272864 21:-0.0454059 22:-0.819937 23:0.160975 24:0.19978 25:-0.202144 26:-0.0257796 
0 0.05230634602744152 1:0.2483 2:0.120764 3:-0.167791 4:0.512865 5:0.0825405 6:-0.0717125 7:0.202293 8:-0.0324383 9:0.69315 10:-0.241495 11:-0.112938 12:0.366704 13:-0.0676003 14:0.63752 15:-0.411689 16:0.22263 17:-0.0643095 18:-0.441822 19:-0.126065 20:0.262287 21:-0.126985 22:-0.631741 23:0.161178 24:0.218158 25:-0.12083 26:-0.0124406 
0.0943619590793727 0.5348790485467287 1:0.315111 2:0.0128855 3:-0.184498 4:0.556165 5:0.0196365 6:-0.172434 7:0.32693 8:-0.0103948 9:0.42643 10:-0.163873 11:-0.23627 12:0.524187 13:-0.192837 14:0.486508 15:-0.283812 16:0.335898 17:-0.210375 18:-0.160871 19:0.0301117 20:-0.00153088 21:-0.0840487 22:-0.197956 23:0.20239 24:0.275618 25:-0.0825721 26:0.009073 
0.5888891338710791 0.6960954405465187 1:0.460983 2:-0.0260635 3:-0.0766985 4:0.553058 5:-0.204993 6:-0.0942144 7:0.497021 8:-0.194674 9:0.0682943 10:-0.338412 11:-0.206434 12:0.305327 13:-0.231804 14:0.269738 15:-0.158524 16:0.262047 17:-0.306566 18:0.235784 19:0.150793 20:-0.275049 21:0.122934 22:0.178889 23:0.32254 24:0.228184 25:0.0470903 26:0.0207593 
0.1171812241444593 0.1180281864717304 1:0.544002 2:-0.15819 3:0.214082 4:0.418053 5:-0.516752 6:-0.029965 7:0.394143 8:-0.121508 9:0.0990076 10:-0.0134005 11:0.207007 12:0.234226 13:0.161083 14:0.0474833 15:0.187702 16:-0.410377 17:-0.187702 18:0.640466 19:0.0665096 20:-0.23808 21:0.176536 22:0.092299 23:0.258394 24:-0.243248 25:0.216228 26:-0.00793854 
0.3172647171028006 0.09033657949001651 1:0.533426 2:-0.196997 3:0.300415 4:0.272102 5:-0.474948 6:0.0592288 7:0.359937 8:-0.0417996 9:0.047598 10:0.148922 11:0.253548 12:0.333326 13:0.421833 14:0.126448 15:0.189208 16:-0.554323 17:0.0197583 18:0.440893 19:-0.156078 20:-0.0863934 21:-0.0318837 22:-0.11895 23:0.102257 24:-0.43428 25:0.118344 26:-0.0275799 
0.02847432119248176 0.02897013181741516 1:0.444856 2:-0.16949 3:0.29883 4:0.186841 5:-0.290899 6:0.197218 7:0.288514 8:-0.0239525 9:-0.0219929 10:0.291961 11:0.198255 12:0.290353 13:0.483776 14:0.322527 15:-0.0113148 16:-0.3488 17:0.175945 18:-0.00418913 19:-0.323719 20:-0.0243141 21:-0.201741 22:-0.204379 23:-0.10801 24:-0.366589 25:-0.0556467 26:-0.0298166 
0.08812582993053322 0.08532602090211715 1:0.31204 2:-0.0284921 3:-0.000817343 4:0.148582 5:-0.239764 6:0.0507657 7:0.228626 8:-0.0666379 9:-0.369595 10:0.668481 11:-0.211015 12:0.408582 13:0.0358474 14:0.509011 15:-0.26434 16:0.275753 17:0.0644724 18:-0.202949 19:-0.105807 20:0.0655764 21:-0.0317022 22:0.270204 23:-0.514228 24:0.548909 25:-0.236053 26:0.0104184 
0.04952274367049722 0 1:0.0609237 2:0.605108 3:-0.0999715 4:-0.240623 5:0.0196691 6:0.172354 7:0.350497 8:-0.247 9:0.0373156 10:0.128634 11:-0.333777 12:0.68298 13:-0.298454 14:0.491833 15:-0.329491 16:-0.332182 17:0.282093 18:-0.118205 19:0.0798851 20:-0.183132 21:0.0921638 22:-0.0986843 23:0.0338923 24:0.329838 25:-0.204156 26:0.00585396 
0.0197858033603289 0 1:0.375048 2:0.610565 3:-0.380778 4:-0.00793794 5:-0.370416 6:0.42295 7:0.454445 8:-0.343877 9:0.321811 10:-0.149561 11:0.187425 12:0.800845 13:0.00404875 14:0.0704311 15:-0.366586 16:0.211554 17:-0.127271 18:0.446197 19:-0.0545286 20:-0.32633 21:0.246952 22:-0.231845 23:0.285152 24:-0.0678805 25:-0.148356 26:-0.00836382 
0.1135026892340665 0.05838877144796553 1:0.350747 2:0.551764 3:-0.249821 4:-0.106565 5:-0.165866 6:0.323742 7:0.472964 8:-0.267919 9:0.442559 10:-0.156764 11:0.0741356 12:0.953197 13:0.0529041 14:0.0338256 15:-0.305525 16:0.0387225 17:0.0336469 18:0.176611 19:-0.00891326 20:-0.326324 21:0.165212 22:-0.60364 23:0.41531 24:0.147058 25:-0.540138 26:-0.0152517 
0.4597627667593921 0.3116435851485989 1:0.239508 2:0.448746 3:-0.0571366 4:-0.168214 5:0.00474835 6:0.308871 7:0.464535 8:-0.11752 9:0.568843 10:-0.23325 11:0.057964 12:0.926779 13:0.132734 14:0.147007 15:-0.155105 16:-0.182937 17:0.211772 18:-0.0770895 19:-0.0739311 20:-0.263128 21:-0.00692639 22:-0.738681 23:0.370744 24:0.219405 25:-0.64239 26:-0.0150784 
0.339181464063756 0.01758228104608605 1:-0.254503 2:0.320743 3:-0.0215148 4:0.153786 5:0.346072 6:-0.00362179 7:0.287956 8:0.0884185 9:-0.0342072 10:0.0798417 11:0.231859 12:0.254736 13:-0.0350859 14:0.693527 15:-0.191167 16:0.119213 17:-0.396996 18:-0.255433 19:0.550495 20:0.0617899 21:-0.0384563 22:0.208992 23:-0.0174128 24:-0.286365 25:0.587162 26:-0.00753203 
0.008529291269373043 0 1:-0.00166896 2:0.109126 3:0.132212 4:0.0212951 5:0.203502 6:0.52367 7:0.16659 8:0.204969 9:-0.141292 10:0.216682 11:-0.162625 12:0.663063 13:-0.288095 14:0.320087 15:0.318486 16:-0.193032 17:-0.10532 18:-0.0432776 19:-0.306755 20:0.102264 21:-0.255286 22:-0.059684 23:-0.211964 24:0.424389 25:-0.252428 26:0.00215122 
0.264659341206595 0.3704924826897989 1:0.188107 2:0.26889 3:0.159283 4:-0.142112 5:0.1202 6:0.520207 7:0.219358 8:0.126891 9:-0.0173133 10:0.196377 11:-0.0762723 12:0.699643 13:-0.261549 14:0.155163 15:0.0914139 16:-0.266057 17:0.0459304 18:0.0950063 19:-0.322547 20:-0.053376 21:-0.202904 22:0.0453768 23:-0.173932 24:0.335966 25:-0.242666 26:0.00861544 
0.03673998143473963 1.117754712234905 1:0.210853 2:0.514047 3:0.00030275 4:-0.188909 5:0.135429 6:0.621048 7:0.261897 8:-0.0216727 9:0.142895 10:0.0605885 11:0.0645958 12:0.612827 13:-0.218831 14:0.121363 15:-0.291566 16:-0.132378 17:0.0295433 18:0.0490497 19:-0.311066 20:-0.264238 21:-0.112354 22:-0.0608981 23:-0.0338554 24:0.106062 25:-0.10117 26:0.00308893 
0.09830362717321917 0.3837332695340095 1:0.22886 2:0.582682 3:-0.0619476 4:-0.208377 5:0.0504162 6:0.638103 7:0.272025 8:-0.0953751 9:-0.0455957 10:-0.153183 11:0.270177 12:0.617653 13:-0.20603 14:0.247278 15:-0.512443 16:0.202111 17:-0.114203 18:-0.0307007 19:-0.31418 20:-0.339513 21:0.0943823 22:-0.179258 23:0.174051 24:-0.218771 25:-0.160629 26:-0.00672416 
0.4265668058882101 0.1820317243838601 1:0.245046 2:0.472844 3:-0.0524704 4:-0.364306 5:-0.0862487 6:0.496021 7:-0.0347546 8:-0.41895 9:-0.00463919 10:-0.30576 11:0.255526 12:0.565637 13:-0.434912 14:0.282349 15:-0.0796996 16:0.120708 17:0.173841 18:0.179359 19:0.00351933 20:0.166714 21:0.593194 22:-0.0569839 23:0.196416 24:0.132148 25:-0.198257 26:0.0119447 
0.3822468883094932 0.5863884187600811 1:0.211448 2:0.456245 3:-0.00204743 4:-0.449955 5:-0.149993 6:0.349093 7:-0.111302 8:-0.370437 9:-0.127931 10:-0.330027 11:0.234977 12:0.355812 13:-0.362928 14:0.262206 15:-0.0534009 16:0.0934004 17:0.284064 18:0.261206 19:0.153128 20:0.273939 21:0.592613 22:-0.0234925 23:0.143409 24:0.233501 25:-0.020389 26:0.00953791 
0.3117818420734222 0 1:0.128533 2:0.468007 3:0.182379 4:-0.158775 5:-0.0719396 6:0.435873 7:0.02519 8:0.188673 9:-0.143794 10:-0.384932 11:0.696743 12:0.125195 13:-0.0299759 14:0.267304 15:-0.31507 16:-0.107789 17:-0.163068 18:0.124636 19:-0.21027 20:-0.029126 21:-0.444798 22:-0.124664 23:0.244899 24:-0.352905 25:0.214376 26:-0.00697642 
0.1797005999306217 0.3178565199294562 1:0.0368337 2:0.478412 3:0.23789 4:-0.217799 5:-0.0142198 6:0.418979 7:0.0023159 8:0.260593 9:-0.125992 10:-0.364896 11:0.588218 12:0.101058 13:-0.084568 14:0.316579 15:-0.398053 16:-0.239448 17:-0.101149 18:0.0392786 19:-0.207511 20:-0.0866398 21:-0.376458 22:-0.0671509 23:0.248766 24:-0.326618 25:0.160718 26:-0.00214549 
0.6940128268301228 0.5035883319741169 1:-0.0453704 2:0.298572 3:0.238029 4:-0.193939 5:0.106501 6:0.239753 7:0.199496 8:0.0278101 9:-0.341654 10:-0.147969 11:0.542566 12:0.175049 13:0.0856897 14:0.357196 15:-0.34958 16:-0.219744 17:0.00758613 18:-0.00240531 19:0.0586413 20:-0.0804546 21:0.101589 22:0.106 23:-0.04125 24:-0.194587 25:0.0436061 26:-0.0146761 
0.5152349415765797 0.2266334570156746 1:-0.122701 2:0.235133 3:0.177073 4:-0.0653315 5:0.133897 6:0.221517 7:0.107932 8:0.120169 9:-0.247526 10:-0.0784468 11:0.333108 12:0.121044 13:0.213261 14:0.330385 15:-0.131633 16:-0.0661686 17:-0.12624 18:0.0413108 19:0.157 20:0.0109506 21:-0.0178495 22:0.000440985 23:-0.14524 24:-0.106411 25:-0.159462 26:-0.0176987 
0 1.111636705520213 1:-0.176498 2:0.0322734 3:0.0554217 4:0.0208419 5:0.0987968 6:0.0864982 7:0.0486801 8:0.158402 9:-0.0605103 10:0.0066913 11:0.253464 12:0.310953 13:-0.0186073 14:0.305117 15:0.170577 16:0.0212426 17:-0.281496 18:0.0584457 19:0.219893 20:-0.00437863 21:-0.175549 22:-0.143848 23:-0.10475 24:0.0299442 25:-0.407059 26:-0.00783548 
0 0.767398982933753 1:-0.169308 2:-0.103204 3:0.069319 4:0.0111385 5:0.191316 6:0.17289 7:0.295913 8:0.255089 9:-0.0644045 10:-0.0620828 11:0.0527887 12:0.334098 13:-0.185611 14:0.299069 15:0.324136 16:-0.0218596 17:-0.287077 18:-0.0671271 19:0.0670269 20:-0.227792 21:-0.239686 22:-0.207727 23:0.0597526 24:0.25483 25:-0.311817 26:0.00716976 
0.379142493670426 0.6801547955924754 1:-0.268273 2:-0.115158 3:0.0411978 4:-0.0649684 5:0.281634 6:0.204585 7:0.288756 8:-0.0272639 9:-0.295572 10:-0.137172 11:-0.12765 12:0.165851 13:-0.216262 14:0.345231 15:0.200465 16:-0.0989849 17:-0.190456 18:-0.22687 19:-0.106394 20:-0.359855 21:0.0243891 22:-0.140987 23:0.22401 24:0.456322 25:0.103314 26:0.0161652 
2.037234878822082 1.003518344569549 1:-0.366901 2:0.048158 3:0.0039114 4:-0.058245 5:0.336486 6:0.283953 7:0.260606 8:-0.103159 9:-0.133671 10:-0.109095 11:-0.0434643 12:-0.237937 13:-0.0726692 14:0.390471 15:-0.102831 16:-0.116663 17:-0.109379 18:-0.305504 19:-0.284656 20:-0.258378 21:0.287418 22:-0.0801808 23:0.259923 24:0.311114 25:0.561844 26:0.013293 
0.9243934990457988 1.72492292870579 1:-0.398507 2:0.0590306 3:-0.138677 4:-0.142465 5:0.246364 6:0.280879 7:0.0916288 8:-0.0110085 9:-0.0809922 10:0.0494978 11:0.081114 12:-0.225177 13:-0.0619505 14:0.395054 15:-0.313173 16:-0.00217183 17:-0.027677 18:-0.121513 19:-0.254319 20:0.0452295 21:0.389664 22:0.0409287 23:0.13548 24:-0.00176186 25:0.620126 26:0.0028443 
0.8870922148037484 2.962450576837611 1:-0.399222 2:0.058361 3:-0.214037 4:-0.146981 5:0.13335 6:0.129677 7:-0.00730237 8:-0.0745799 9:-0.253861 10:0.0789045 11:0.113104 12:0.194002 13:0.10341 14:0.374349 15:-0.306563 16:0.143806 17:0.0308295 18:0.172727 19:-0.0208621 20:0.27505 21:0.282725 22:0.136972 23:-0.0866335 24:-0.276936 25:0.128656 26:-0.0111613 
0.7489881312864297 1.887052298421201 1:-0.424085 2:-0.0317988 3:-0.282124 4:-0.176712 5:0.065542 6:0.116202 7:0.0390255 8:0.01123 9:-0.285195 10:0.219958 11:0.320834 12:0.358183 13:0.205378 14:0.361189 15:-0.150519 16:0.197013 17:0.0701314 18:0.262578 19:0.131284 20:0.160876 21:-0.0330059 22:0.0311159 23:-0.297335 24:-0.396434 25:-0.352162 26:-0.018893 
0.9837657445453752 1.409820667325024 1:-0.469356 2:-0.0415995 3:-0.332218 4:-0.256946 5:0.0653554 6:0.0237196 7:0.156225 8:0.217324 9:-0.057078 10:0.216855 11:0.0557137 12:0.284449 13:0.337738 14:0.38683 15:-0.0378608 16:0.145185 17:0.0841986 18:0.145906 19:0.166126 20:-0.109955 21:-0.269887 22:-0.19039 23:-0.267117 24:-0.165296 25:-0.499568 26:-0.0191726 
1.392284352967041 1.036818838507747 1:-0.506898 2:-0.0381262 3:-0.281184 4:-0.188398 5:0.229462 6:0.166265 7:0.178213 8:0.331501 9:0.131264 10:0.193824 11:-0.148616 12:0.384338 13:0.160266 14:0.404051 15:-0.0674193 16:-0.00541401 17:-0.0132054 18:-0.0740397 19:-0.0245967 20:-0.270936 21:-0.301248 22:-0.373032 23:-0.013452 24:0.085275 25:-0.284692 26:-0.00865929 
1.53186238461844 2.40437870336017 1:-0.481102 2:0.00409125 3:-0.263949 4:-0.101361 5:0.24468 6:0.172389 7:0.194947 8:0.0598641 9:-0.00264764 10:-0.0706243 11:-0.13517 12:0.164037 13:-0.0287742 14:0.363297 15:-0.154532 16:-0.0886437 17:-0.106222 18:-0.144803 19:-0.185971 20:-0.265631 21:-0.0721091 22:-0.250579 23:0.335036 24:0.208416 25:0.0865011 26:0.004456 
0.5831665972381527 1.46922096640554 1:-0.432118 2:0.00827261 3:-0.36495 4:-0.163792 5:0.0765573 6:0.128438 7:-0.0168437 8:0.112511 9:-0.169013 10:0.0203331 11:-0.149933 12:0.102261 13:0.0578419 14:0.347096 15:-0.285575 16:0.158177 17:-0.104853 18:-0.00227001 19:-0.175221 20:-0.00846723 21:0.255494 22:0.207475 23:0.322215 24:0.105891 25:0.217284 26:0.00358675 
0 0.7665655000631115 1:-0.503784 2:-0.0443848 3:-0.419768 4:-0.15626 5:0.0398724 6:0.0294928 7:-0.0412346 8:0.119672 9:-0.0105595 10:0.270276 11:-0.102363 12:0.249212 13:0.175346 14:0.814982 15:-0.359372 16:0.403485 17:-0.0138806 18:0.165834 19:0.0865796 20:-0.190146 21:0.17048 22:-0.140704 23:-0.188037 24:-0.0434778 25:0.115887 26:-0.00932785 
0.6119510036938925 0.8355244708253572 1:-0.52122 2:-0.0353053 3:-0.382122 4:-0.216648 5:-0.084004 6:-0.0715605 7:0.0661593 8:0.145829 9:0.122565 10:0.3274 11:-0.0421927 12:0.22344 13:0.310757 14:0.80611 15:-0.176656 16:0.22316 17:-0.0198292 18:0.366614 19:0.190375 20:-0.17855 21:-0.0508754 22:-0.188969 23:-0.171439 24:-0.120982 25:-0.0290133 26:-0.00745816 
0.7025268959909402 1.416075466971292 1:-0.175668 2:-0.270074 3:-0.025367 4:-0.14571 5:-0.020795 6:0.0227172 7:-0.246169 8:0.418538 9:-0.0113744 10:0.262103 11:-0.193988 12:0.411012 13:-0.0377004 14:0.463907 15:0.363072 16:-0.158742 17:-0.0575159 18:0.394966 19:0.236056 20:0.12111 21:-0.446217 22:0.0586325 23:-0.0913181 24:-0.0559055 25:-0.323619 26:-0.00163322 
0.4138249650871372 0.3372171695661053 1:0.311292 2:-0.337001 3:0.0570493 4:-0.106267 5:0.0485973 6:0.00201155 7:-0.298166 8:0.476675 9:-0.0244711 10:0.221542 11:-0.164051 12:0.602225 13:0.078599 14:0.0421646 15:0.755122 16:-0.414735 17:-0.0652876 18:0.157753 19:0.292687 20:0.284116 21:-0.655644 22:0.170649 23:-0.0872706 24:0.020006 25:-0.555056 26:-0.00482419 
0.6993183449001691 0.4259118918782313 1:0.441341 2:-0.333265 3:-0.0190453 4:-0.19923 5:0.179896 6:0.0548101 7:-0.265429 8:0.346357 9:0.0729906 10:0.289746 11:-0.0987496 12:0.552229 13:0.259911 14:-0.114431 15:0.721795 16:-0.440898 17:-0.0721578 18:-0.240077 19:0.196382 20:0.240203 21:-0.548399 22:0.00491926 23:-0.165827 24:0.178102 25:-0.506372 26:-0.0111627 
0.8550051145175525 0.8646406553746844 1:0.378844 2:-0.0494255 3:0.0817391 4:-0.146757 5:0.418123 6:0.169421 7:-0.206515 8:0.0822343 9:0.268729 10:0.281893 11:-0.322569 12:0.152704 13:0.134254 14:-0.00962602 15:0.181398 16:-0.339054 17:-0.157883 18:-0.513086 19:-0.0440877 20:0.101018 21:-0.171911 22:-0.35852 23:-0.189027 24:0.370172 25:-0.114097 26:-0.0108025 
0.440648879216995 1.685184673992923 1:0.423518 2:0.481394 3:-0.0204792 4:-0.128538 5:0.26117 6:0.402221 7:-0.109413 8:-0.159926 9:0.522578 10:0.0122148 11:-0.169473 12:0.0489729 13:-0.0329909 14:0.153859 15:-0.527367 16:-0.0860571 17:-0.220159 18:-0.370037 19:-0.322131 20:-0.100901 21:0.245181 22:-0.655913 23:-0.0462774 24:0.31338 25:0.270047 26:-0.00586571 
0.2115397973269894 0.1126091062108742 1:0.508796 2:0.575455 3:-0.167655 4:-0.0991929 5:0.136121 6:0.51991 7:-0.157333 8:-0.223204 9:0.341041 10:-0.0643179 11:-0.0568692 12:-0.0303734 13:-0.0947661 14:0.208153 15:-0.730807 16:0.0832464 17:-0.232854 18:-0.0953603 19:-0.481049 20:-0.151457 21:0.428458 22:-0.526872 23:0.102831 24:0.124214 25:0.521848 26:0.00341628 
0.08572841758749762 0.3101506241748176 1:0.516017 2:0.545854 3:-0.216064 4:-0.257123 5:0.0214313 6:0.408485 7:-0.0990603 8:-0.409907 9:0.117113 10:-0.174589 11:0.220943 12:-0.0598252 13:-0.117204 14:0.175679 15:-0.53672 16:0.107482 17:-0.121634 18:0.161647 19:-0.444177 20:-0.146977 21:0.439302 22:-0.224636 23:0.312308 24:-0.243289 25:0.53159 26:0.0097633 
0.8170458316167137 0.3497181858779685 1:0.467303 2:0.599745 3:-0.171332 4:-0.329315 5:0.0232244 6:0.396768 7:-0.0566922 8:-0.393148 9:-0.00888626 10:-0.331356 11:0.376568 12:-0.08781 13:-0.169159 14:0.178428 15:-0.302424 16:0.0128123 17:0.0147888 18:0.222918 19:-0.352521 20:-0.123291 21:0.271047 22:0.0140742 23:0.538654 24:-0.482473 25:0.302602 26:0.0125293 
0.4704860657327308 0.5417257692953437 1:0.425082 2:0.67193 3:-0.178591 4:-0.365433 5:0.00232487 6:0.380167 7:-0.0933094 8:-0.308725 9:-0.0701164 10:-0.30376 11:0.316068 12:0.101293 13:-0.170327 14:0.228877 15:-0.267226 16:-0.112561 17:0.0637034 18:0.118657 19:-0.222347 20:-0.0900908 21:0.0866478 22:0.123227 23:0.640944 24:-0.341783 25:-0.0909948 26:0.0104121 
0.2244543854816616 0 1:0.356209 2:0.77323 3:-0.232409 4:-0.375541 5:-0.0597167 6:0.306618 7:-0.174795 8:-0.28128 9:-0.0943198 10:-0.353237 11:0.303066 12:0.371062 13:-0.0896601 14:0.278429 15:-0.427611 16:-0.069928 17:0.053889 18:0.0703045 19:-0.0535157 20:-0.0708463 21:0.0238122 22:0.103178 23:0.509026 24:-0.0234914 25:-0.333655 26:0.00272647 
0.7230287533588364 0 1:0.284123 2:0.824295 3:-0.327776 4:-0.422356 5:-0.0197194 6:0.0900459 7:-0.0468694 8:-0.354703 9:-0.247595 10:-0.0597232 11:0.0392503 12:0.38042 13:0.10911 14:0.295238 15:-0.511596 16:0.144407 17:0.0517089 18:0.052906 19:0.155071 20:-0.127573 21:-0.021192 22:0.0729384 23:-0.0118471 24:0.274619 25:-0.288752 26:-0.00674816 
0.1475190739923835 0.03002796941779887 1:0.223933 2:0.710841 3:-0.404257 4:-0.413695 5:-0.0553434 6:0.0491993 7:-0.101724 8:-0.345024 9:-0.278149 10:0.294677 11:0.0604017 12:0.166366 13:0.24672 14:0.295069 15:-0.413952 16:0.369864 17:0.134023 18:0.106658 19:0.262256 20:-0.146194 21:0.00647233 22:-0.00770468 23:-0.529885 24:0.222944 25:-0.0780849 26:-0.00890645 
0.4962095204682956 0.3689800545933605 1:0.145184 2:0.623411 3:-0.440074 4:-0.443652 5:-0.120788 6:0.0617001 7:-0.176321 8:-0.297331 9:-0.156453 10:0.47105 11:0.287792 12:-0.00613975 13:0.165456 14:0.296276 15:-0.281463 16:0.404259 17:0.247197 18:0.147175 19:0.242625 20:-0.118819 21:0.0987713 22:-0.0547909 23:-0.734394 24:-0.0636703 25:0.126778 26:-0.00624384 
0.1470120344183546 0 1:0.0665838 2:0.610758 3:-0.311951 4:-0.407061 5:-0.0772938 6:0.114903 7:-0.165169 8:-0.215713 9:-0.176965 10:0.155385 11:0.459799 12:0.41374 13:0.148365 14:0.296684 15:-0.219417 16:0.185297 17:0.193405 18:0.172154 19:0.0820993 20:-0.0157216 21:0.221275 22:0.0565245 23:-0.419458 24:-0.262691 25:0.054253 26:-0.00891889 
0.58513893952241 0 1:-0.0264086 2:0.494838 3:-0.161112 4:-0.322076 5:-0.0322448 6:0.117973 7:-0.231317 8:-0.445562 9:-0.362765 10:-0.146184 11:0.276569 12:0.273334 13:0.284784 14:0.31718 15:-0.169212 16:-0.0988082 17:0.0103678 18:0.233936 19:-0.111051 20:0.147336 21:0.304576 22:0.146855 23:0.15908 24:-0.166706 25:0.0581765 26:-0.0146749 
0.4260166623776752 0 1:-0.107586 2:0.402491 3:-0.0242966 4:-0.111974 5:-0.0189376 6:0.144237 7:-0.291515 8:-0.260426 9:-0.361677 10:-0.13007 11:0.148043 12:0.071952 13:0.489745 14:0.36084 15:-0.134781 16:-0.283124 17:-0.222979 18:0.226729 19:-0.245414 20:0.260658 21:0.038095 22:0.0254108 23:0.560283 24:0.0350439 25:0.0746902 26:-0.0175512 
0.1858273666452892 0.06724799256121483 1:-0.204972 2:0.345629 3:-0.0501876 4:0.0266499 5:-0.0139021 6:0.249775 7:-0.278926 8:0.0134029 9:-0.100049 10:-0.377614 11:0.15115 12:0.2928 13:0.233 14:0.413407 15:-0.0724049 16:-0.255064 17:-0.351436 18:0.123266 19:-0.308235 20:0.261746 21:-0.371381 22:-0.270535 23:0.714031 24:0.124236 25:-0.00992659 26:-0.00749888 
0.03086054209251099 0 1:-0.340505 2:0.182958 3:-0.0602354 4:-0.0558159 5:0.337651 6:0.0204028 7:-0.0748088 8:-0.0543484 9:-0.187766 10:0.0180207 11:0.28071 12:0.365745 13:0.0903198 14:0.43255 15:-0.0115353 16:-0.0305109 17:-0.196332 18:-0.447504 19:0.105028 20:-0.120589 21:-0.304776 22:-0.247566 23:-0.0664039 24:-0.0989506 25:-0.099718 26:0.00934503 
0.1703728758943415 0.07899374325447509 1:-0.338121 2:0.152314 3:-0.0861636 4:-0.0310564 5:0.274819 6:-0.0263773 7:0.0929885 8:-0.286721 9:-0.38115 10:0.199887 11:0.135576 12:0.282808 13:0.145047 14:0.410124 15:-0.105347 16:0.00558866 17:-0.0887822 18:-0.507121 19:0.25638 20:-0.369764 21:0.125054 22:0.182387 23:-0.345896 24:-0.203098 25:-0.0970131 26:0.00314956 
0.5071864802005702 0.7847263310119056 1:-0.360613 2:0.141955 3:-0.09723 4:-0.0846058 5:0.224598 6:-0.020257 7:0.125968 8:-0.348004 9:-0.34063 10:0.244091 11:0.145331 12:0.337719 13:0.122623 14:0.403556 15:-0.260985 16:0.0250774 17:-0.0109826 18:-0.399395 19:0.294511 20:-0.375868 21:0.333986 22:0.451408 23:-0.353537 24:-0.22873 25:0.0367829 26:-0.010163 
0 0.08027622578952251 1:-0.407203 2:0.118885 3:-0.0681096 4:-0.13514 5:0.0309764 6:0.139919 7:0.119611 8:-0.185148 9:-0.375231 10:-0.0781007 11:0.14057 12:0.378201 13:0.211999 14:0.417167 15:-0.419007 16:0.0643823 17:0.0678911 18:-0.151283 19:0.126949 20:-0.181813 21:0.177377 22:0.407465 23:-0.0525502 24:-0.167981 25:0.11349 26:-0.0194491 
0 0.3399663296299506 1:-0.390359 2:0.0649842 3:-0.123948 4:-0.134141 5:-0.0655952 6:0.125852 7:0.0208339 8:-0.288342 9:-0.143387 10:-0.0596847 11:0.00493774 12:0.405892 13:0.126667 14:0.430964 15:-0.389329 16:0.132244 17:0.180733 18:0.0681357 19:0.0129087 20:0.0133792 21:-0.0106964 22:0.0495093 23:0.115555 24:-0.000404648 25:0.162941 26:-0.0154195 
0 1.628051880820091 1:-0.340857 2:-0.0832439 3:-0.101118 4:-0.0302797 5:-0.185383 6:0.199049 7:-0.0995216 8:-0.223603 9:0.0724961 10:-0.0365744 11:-0.383652 12:0.149086 13:0.1251 14:0.469256 15:-0.0547602 16:0.165287 17:0.140426 18:0.227491 19:-0.0365132 20:0.118786 21:-0.13171 22:-0.259889 23:0.144554 24:0.225354 25:0.193656 26:-0.00785687 
0.4100353497949726 0.06026356920015809 1:-0.287016 2:-0.41851 3:0.0317226 4:0.0792731 5:-0.433805 6:0.342013 7:0.16942 8:-0.353985 9:0.190517 10:-0.144584 11:-0.290277 12:0.596133 13:-0.306952 14:0.541937 15:0.526097 16:0.126318 17:-0.160087 18:0.30724 19:-0.0478809 20:-0.180812 21:0.0895067 22:-0.292925 23:0.118567 24:0.223863 25:-0.171026 26:0.0191407 
0.09886113114760006 0.08534458203356222 1:0.273337 2:-0.0421053 3:0.345129 4:0.187451 5:-0.458269 6:0.549338 7:0.0267242 8:-0.236048 9:0.302818 10:-0.170079 11:-0.243447 12:0.637805 13:0.16451 14:0.044436 15:-0.377792 16:-0.407401 17:-0.00666731 18:-0.0329114 19:-0.148568 20:0.0223945 21:-0.10675 22:-0.156006 23:-0.056245 24:-0.0124158 25:-0.263929 26:-0.0204561 
0 0.01420381335722459 1:0.17162 2:0.0926183 3:-0.317037 4:0.349081 5:-0.541502 6:0.532556 7:0.180933 8:-0.240274 9:0.442928 10:-0.346075 11:-0.540621 12:0.081786 13:-0.10614 14:0.357279 15:-0.223826 16:0.152429 17:-0.141242 18:0.119589 19:0.086789 20:-0.0830118 21:-0.144171 22:-0.273369 23:0.101613 24:0.383205 25:0.219121 26:-0.00601921 
0.2549092348370382 0.3338018207490689 1:0.120217 2:0.0790099 3:-0.410884 4:0.354041 5:-0.244625 6:0.806024 7:0.480508 8:-0.290745 9:0.035634 10:-0.129116 11:0.273108 12:0.688229 13:0.0136625 14:0.238743 15:-0.0545236 16:0.0248885 17:-0.22737 18:0.169705 19:-0.177941 20:-0.126425 21:0.122329 22:0.226497 23:-0.113833 24:-0.502719 25:-0.232466 26:-0.00911003 
0.3739549743504852 0.1944314859686895 1:0.0439655 2:0.134509 3:-0.388806 4:0.237492 5:-0.236937 6:0.85852 7:0.5693 8:-0.43135 9:0.495877 10:-0.108894 11:0.0395038 12:0.713609 13:-0.088978 14:0.394358 15:0.102807 16:0.14671 17:-0.318838 18:0.126246 19:-0.463556 20:-0.607323 21:0.224898 22:-0.455784 23:-0.0245623 24:0.0149399 25:-0.355219 26:-0.00505339 
0.4731689502090268 0.3405515201667216 1:-0.0443132 2:0.188611 3:-0.359715 4:0.153799 5:-0.0957552 6:0.849404 7:0.538104 8:-0.278563 9:0.509026 10:-0.196344 11:-0.204406 12:0.671898 13:-0.175577 14:0.647386 15:0.17304 16:0.00446294 17:-0.282675 18:-0.1825 19:-0.470561 20:-0.775027 21:-0.106014 22:-0.449689 23:0.134616 24:0.362287 25:-0.31291 26:-0.000429429 
0.6982241091334935 0.455488852226354 1:-0.165162 2:0.191292 3:-0.285923 4:0.107838 5:0.148527 6:0.781385 7:0.598465 8:-0.0785763 9:0.262187 10:-0.433311 11:-0.234022 12:0.458962 13:-0.0995573 14:0.851898 15:0.0753898 16:-0.262526 17:-0.143068 18:-0.474036 19:-0.327554 20:-0.742276 21:-0.404348 22:-0.0680879 23:0.251026 24:0.434989 25:-0.0834172 26:0.00193239 
0 0.1342236260891068 1:-0.124872 2:0.359214 3:-0.0891823 4:-0.165856 5:-0.00650487 6:0.420588 7:0.181728 8:-0.0754713 9:0.13836 10:-0.152209 11:-0.123364 12:0.259492 13:-0.139903 14:0.80294 15:-0.235211 16:-0.47393 17:0.148417 18:-0.410958 19:-0.0108832 20:-0.332167 21:-0.371617 22:0.317436 23:0.0957363 24:0.255548 25:0.150318 26:0.00473598 
0.1117004658366526 0.09633473224246251 1:0.24523 2:0.681403 3:-0.214825 4:-0.384097 5:-0.136566 6:0.41064 7:-0.269896 8:-0.357287 9:0.117881 10:-0.137182 11:0.0393206 12:0.150248 13:-0.194216 14:0.46135 15:-0.578937 16:-0.357856 17:0.369382 18:-0.144034 19:0.159167 20:0.143901 21:0.047163 22:0.358243 23:-0.0370826 24:-0.00617298 25:0.285674 26:0.00931376 
