svm_type c_svc
kernel_type rbf
gamma 2
nr_class 3
total_sv 4030
rho -0.143548 -0.323703 -0.209065
label 0 1 2
nr_sv 1392 1373 1265
SV
0.8630524780603394 0.7181806957297059 1:0.326084 2:0.105323 3:-0.386275 4:-0.343925 5:-0.0714123 6:-0.238098 7:0.133634 8:-0.145983 9:-0.0180905 10:0.158513 11:0.381572 12:0.194551 13:-0.0734869 14:0.336918 15:-0.0611932 16:0.0250452 17:-0.0914325 18:0.0277243 19:-0.0389881 20:-0.00931478 21:0.0301211 22:-0.0156223 23:0.0568948 24:0.00111922 25:-0.00626996 26:-0.00284973 
0.4069993201736534 1.041341456739675 1:0.601 2:0.209131 3:-0.346636 4:-0.385766 5:-0.11125 6:-0.316846 7:0.0304944 8:-0.107294 9:0.0575919 10:0.234396 11:0.417563 12:0.2276 13:-0.0477862 14:0.336918 15:-0.0611932 16:0.0250452 17:-0.0914325 18:0.0277243 19:-0.0389881 20:-0.00931478 21:0.0301211 22:-0.0156223 23:0.0568948 24:0.00111922 25:-0.00626996 26:-0.00284973 
0.003807994905130097 0 1:0.577533 2:0.366608 3:-0.377589 4:-0.531979 5:-0.0964032 6:-0.37176 7:-0.229191 8:0.180261 9:0.153344 10:0.4127 11:0.231949 12:0.368672 13:0.143156 14:0.336918 15:-0.0611932 16:0.0250452 17:-0.0914325 18:0.0277243 19:-0.0389881 20:-0.00931478 21:0.0301211 22:-0.0156223 23:0.0568948 24:0.00111922 25:-0.00626996 26:-0.00284973 
0.2080723220506901 0.1388133116471667 1:0.462005 2:0.562129 3:-0.502909 4:-0.583618 5:-0.0388062 6:-0.461938 7:-0.414934 8:0.61059 9:-0.282425 10:0.772265 11:-0.0475835 12:0.465712 13:0.368741 14:0.336918 15:-0.0611932 16:0.0250452 17:-0.0914325 18:0.0277243 19:-0.0389881 20:-0.00931478 21:0.0301211 22:-0.0156223 23:0.0568948 24:0.00111922 25:-0.00626996 26:-0.00284973 
0.4964684647004419 0.3811046963248295 1:0.486278 2:0.531457 3:-0.547077 4:-0.543717 5:0.0146122 6:-0.543245 7:-0.449735 8:0.571346 9:-0.205217 10:0.764416 11:-0.0941211 12:0.409534 13:0.432823 14:0.35773 15:-0.365738 16:0.0753019 17:0.124978 18:-0.118304 19:0.122857 20:0.172402 21:-0.439663 22:0.316977 23:-0.464524 24:0.277402 25:-0.159441 26:-0.013138 
0.05888749131419219 0.05352729025305639 1:0.490371 2:0.524113 3:-0.560989 4:-0.566002 5:-0.0944529 6:-0.462506 7:-0.51837 8:0.30724 9:0.107306 10:0.542267 11:-0.136238 12:0.40886 13:0.427887 14:0.363545 15:-0.0801032 16:0.0339418 17:0.0912403 18:0.0184988 19:-0.055735 20:0.0345225 21:0.265676 22:-0.0641521 23:-0.159771 24:0.234007 25:0.0492942 26:-0.00924539 
0.2451062626288133 0.1784242018550284 1:0.521321 2:0.567749 3:-0.634182 4:-0.389475 5:-0.0737535 6:-0.613842 7:-0.725169 8:0.738895 9:0.0890851 10:0.27668 11:0.00279878 12:0.285856 13:0.584445 14:0.329843 15:-0.117589 16:0.164069 17:-0.0550978 18:0.0522336 19:0.0344493 20:0.186725 21:-0.0544354 22:-0.250243 23:0.102908 24:0.0793122 25:0.118377 26:-0.015762 
0.08203513360898708 0.1411635509787555 1:0.517477 2:0.576271 3:-0.687536 4:-0.316719 5:-0.0718687 6:-0.657511 7:-0.656186 8:0.653553 9:0.160484 10:0.160606 11:0.0621332 12:0.388945 13:0.418185 14:0.329634 15:-0.139596 16:0.234844 17:-0.119054 18:0.0448452 19:0.0548561 20:0.158932 21:-0.136298 22:-0.311534 23:0.198793 24:-0.0597285 25:0.0373802 26:-0.00985798 
0.2269815737066187 0.08138247378443539 1:0.532676 2:0.538294 3:-0.657917 4:-0.262737 5:-0.171341 6:-0.429325 7:-0.710883 8:0.655907 9:0.133542 10:0.0231613 11:0.151496 12:0.502114 13:0.348001 14:0.29617 15:-0.101985 16:0.234258 17:-0.13395 18:0.115894 19:-0.0109593 20:0.123888 21:-0.135662 22:-0.292029 23:0.254864 24:-0.21047 25:-0.0811759 26:0.00171835 
0.2753046457480922 0.06683560696299644 1:0.549448 2:0.548287 3:-0.543437 4:-0.13241 5:-0.0964098 6:-0.606558 7:-0.603778 8:0.751787 9:-0.146655 10:-0.0393189 11:0.177546 12:0.479868 13:0.144501 14:0.177675 15:-0.0483371 16:0.156289 17:-0.0650248 18:0.252025 19:0.0536473 20:0.248802 21:-0.0643208 22:0.0948759 23:0.0184363 24:-0.0956981 25:-0.149094 26:0.00843196 
0.02758224472643505 0.1053462465018331 1:0.529532 2:0.496404 3:-0.445167 4:-0.086123 5:-0.107924 6:-0.528508 7:-0.583606 8:0.709761 9:-0.309543 10:-0.0108004 11:0.062252 12:0.493843 13:0.284056 14:0.192706 15:-0.0423056 16:0.103225 17:-0.052501 18:0.26328 19:0.037594 20:0.339359 21:0.0319836 22:0.255605 23:-0.057386 24:0.0662953 25:-0.0225073 26:-0.00641781 
0.05586131257884701 0.03293377633035858 1:0.415902 2:0.518577 3:-0.319546 4:-0.0508008 5:-0.0344847 6:-0.374216 7:-0.531792 8:0.643992 9:-0.288432 10:-0.105559 11:-0.0043136 12:0.394671 13:0.476371 14:0.295421 15:-0.100868 16:0.0404804 17:-0.0844359 18:0.169781 19:-0.00204805 20:0.229763 21:0.249789 22:0.22378 23:0.0795818 24:0.177144 25:0.0337224 26:-0.0169487 
0.3185123916064653 0.1814178612056716 1:0.299344 2:0.512002 3:-0.271505 4:0.095632 5:0.0929008 6:-0.306177 7:-0.245349 8:0.596102 9:-0.175653 10:-0.308815 11:0.105893 12:0.298505 13:0.421104 14:0.409023 15:-0.145533 16:0.0152189 17:-0.184912 18:-0.0129459 19:-0.034374 20:-0.042568 21:0.337359 22:0.112984 23:0.367454 24:0.173666 25:-0.0287212 26:-0.0132245 
0.4516315564149297 0.3982061181013487 1:0.226108 2:0.518303 3:-0.124433 4:0.131453 5:0.240428 6:-0.44608 7:0.0548474 8:0.73298 9:-0.321853 10:-0.387058 11:0.141721 12:0.497832 13:0.0992451 14:0.480494 15:-0.18664 16:-0.038522 17:-0.210245 18:-0.249034 19:0.0316757 20:-0.298799 21:0.130038 22:0.0554533 23:0.558421 24:0.134552 25:-0.187439 26:0.000527632 
0.1377042236629234 0.1993432817608178 1:0.213082 2:0.459057 3:-0.056329 4:0.193763 5:0.284226 6:-0.318441 7:0.0975595 8:0.800337 9:-0.225574 10:-0.314416 11:0.140491 12:0.471843 13:0.0348471 14:0.534771 15:-0.207155 16:-0.0548335 17:-0.190727 18:-0.451265 19:0.00396838 20:-0.342788 21:-0.209905 22:-0.186938 23:0.448395 24:0.0344755 25:-0.236496 26:0.00941742 
0.4005856997964558 0.2833012686734352 1:0.212129 2:0.402799 3:-0.02377 4:0.189711 5:0.303175 6:-0.151978 7:0.0315406 8:1 9:-0.205271 10:-0.0748392 11:0.240546 12:0.215682 13:0.163108 14:0.565901 15:-0.198712 16:-0.0865715 17:-0.170958 18:-0.512486 19:-0.165886 20:-0.247898 21:-0.548938 22:-0.393336 23:0.118553 24:-0.142978 25:-0.171518 26:0.00749706 
0.2114796376366245 0.1509555369095983 1:0.189552 2:0.37792 3:0.102498 4:0.17981 5:0.222685 6:-0.114851 7:0.139119 8:0.907452 9:-0.145949 10:0.123353 11:0.375256 12:0.148463 13:0.223408 14:0.537619 15:-0.14269 16:-0.122118 17:-0.184645 18:-0.360726 19:-0.301572 20:-0.134298 21:-0.558805 22:-0.405513 23:-0.128935 24:-0.298796 25:-0.0488488 26:0.00393366 
0.2875231257145237 0.3708136346815088 1:0.237658 2:0.302209 3:0.137007 4:0.274721 5:0.108156 6:-0.125089 7:0.202003 8:0.743206 9:-0.240316 10:0.265543 11:0.428949 12:0.135618 13:0.1385 14:0.397549 15:0.044674 16:-0.0776576 17:-0.247346 18:-0.04606 19:-0.324465 20:-0.00978737 21:-0.32221 22:-0.145932 23:-0.197122 24:-0.357272 25:0.146609 26:0.00136602 
0.2070759577732634 0.3200453287249261 1:0.472469 2:0.166454 3:0.134623 4:0.308663 5:-0.148249 6:-0.119289 7:0.163604 8:0.553951 9:-0.750779 10:0.120359 11:0.251906 12:-0.0110014 13:0.183917 14:0.136631 15:0.215927 16:-9.88046e-005 17:-0.195596 18:0.306705 19:-0.167837 20:0.0656248 21:-0.0131842 22:0.307326 23:-0.0673038 24:-0.209233 25:0.275364 26:-0.000643509 
0.4931382490146246 0.3603106132510875 1:0.563088 2:0.100169 3:0.0958535 4:0.160348 5:-0.26378 6:-0.289653 7:0.0731133 8:0.339017 9:-0.804564 10:0.17792 11:0.0784342 12:-0.23245 13:0.27967 14:-0.0655587 15:0.170848 16:0.0404475 17:-0.0149935 18:0.533151 19:0.147751 20:-0.0228276 21:0.247128 22:0.423876 23:0.0348386 24:0.0384695 25:0.363585 26:-0.00817546 
0.1733764595125555 0.1053426462781037 1:0.482196 2:0.16049 3:0.196209 4:0.128445 5:-0.236627 6:-0.279643 7:0.21868 8:0.270421 9:-0.580685 10:0.367274 11:0.0543093 12:-0.0987232 13:0.500053 14:-0.0715425 15:-0.0161991 16:0.0121475 17:0.0862813 18:0.515192 19:0.283084 20:-0.200475 21:0.323223 22:0.263964 23:-0.048321 24:0.0792286 25:0.236413 26:-0.0189417 
0.2009212143646717 0.1650999713107715 1:0.388232 2:0.299317 3:0.229481 4:0.178347 5:-0.162204 6:-0.334655 7:0.40891 8:0.143098 9:-0.556909 10:0.261499 11:-0.066072 12:0.119894 13:0.31614 14:0.0909187 15:-0.197017 16:-0.0351763 17:0.0786991 18:0.332414 19:0.269115 20:-0.273662 21:0.301149 22:0.104227 23:-0.0812813 24:0.00770513 25:-0.0385353 26:-0.0181065 
0.09860309203085106 0.2554362028582017 1:0.183776 2:0.211203 3:0.267827 4:0.26336 5:-0.15714 6:-0.2346 7:0.305353 8:0.101638 9:-0.662048 10:0.282769 11:-0.0771827 12:-0.00439661 13:0.343874 14:0.327535 15:-0.173006 16:-0.119353 17:-0.0572994 18:0.115564 19:0.0740404 20:-0.065194 21:0.133846 22:0.0991687 23:-0.116157 24:-0.00940579 25:-0.161875 26:-0.0100046 
0.1020960026604597 0.3876152753940046 1:-0.0208323 2:0.0115329 3:0.179783 4:0.31527 5:0.0331816 6:0.109728 7:-0.108516 8:0.0804681 9:-0.646425 10:0.386512 11:0.0135851 12:0.119704 13:0.150749 14:0.469357 15:-0.0109218 16:-0.155424 17:-0.243756 18:-0.0812872 19:-0.191261 20:0.342537 21:-0.0073704 22:0.1773 23:-0.0600109 24:0.1101 25:-0.210189 26:0.00586508 
0.7517016856984188 0.7498200124667114 1:-0.132998 2:0.159547 3:0.255317 4:0.366221 5:0.0855796 6:-0.00290162 7:0.267804 8:-0.000392494 9:-0.393193 10:0.171512 11:-0.447863 12:-0.0579974 13:0.0638147 14:0.442823 15:-0.0316544 16:-0.177916 17:-0.424315 18:-0.105907 19:-0.156799 20:0.0791192 21:0.224993 22:0.00687409 23:0.157244 24:0.17738 25:-0.0373818 26:-0.00183909 
1.686755643457413 2.444160622942119 1:-0.214701 2:0.0631773 3:0.0346787 4:0.31783 5:0.093586 6:0.0538276 7:0.308023 8:-0.208616 9:-0.256347 10:0.121543 11:-0.0763116 12:0.0228647 13:0.145454 14:0.410915 15:-0.0690124 16:-0.0307868 17:-0.306466 18:-0.0435652 19:-0.0915509 20:-0.300219 21:0.494472 22:-0.0785068 23:0.0642807 24:-0.254042 25:-0.136656 26:-0.0146054 
0.676559958231684 0.5128348103990819 1:-0.301933 2:0.0527893 3:-0.030957 4:0.129989 5:0.11936 6:0.0953569 7:0.477203 8:-0.117617 9:-0.230951 10:0.120819 11:0.0198882 12:-0.0422499 13:0.363991 14:0.426307 15:-0.12657 16:0.109088 17:-0.0555383 18:-0.0271887 19:-0.0247372 20:-0.503907 21:0.459499 22:-0.0923033 23:-0.00507322 24:-0.385513 25:-0.0418503 26:-0.0243412 
0 0.6831388755308251 1:-0.343989 2:0.0654236 3:-0.0675922 4:-0.0172442 5:0.101448 6:0.0642831 7:0.358639 8:0.0382397 9:-0.241216 10:0.280699 11:-0.0702189 12:-0.0808352 13:-0.0360636 14:0.463192 15:-0.206933 16:0.27826 17:0.11987 18:-0.126611 19:-0.0172311 20:-0.278253 21:0.145075 22:-0.0942436 23:-0.0383204 24:-0.183875 25:0.215541 26:-0.00970382 
0.5734533047963818 0.5886507007919857 1:-0.341966 2:0.0698209 3:-0.163605 4:-0.00897107 5:0.185074 6:0.0698137 7:0.150438 8:0.217238 9:0.0328154 10:0.0616533 11:-0.746498 12:-0.229457 13:-0.346012 14:0.48818 15:-0.310902 16:0.430616 17:0.159511 18:-0.22562 19:0.00461652 20:0.0277908 21:-0.281389 22:-0.175773 23:0.210806 24:0.39175 25:0.546776 26:0.0110447 
0.7523494461431415 0.435584282238548 1:-0.385074 2:0.0103383 3:-0.192257 4:0.0302491 5:0.1312 6:0.102893 7:0.101635 8:0.287712 9:-0.0205364 10:-0.198677 11:-0.646971 12:-0.356444 13:-0.212343 14:0.530853 15:-0.193825 16:0.546812 17:0.0733673 18:-0.175055 19:-0.0432722 20:0.22341 21:-0.509876 22:-0.0784581 23:0.360946 24:0.575618 25:0.592268 26:0.0152003 
1.027416158885607 0.7915323564504521 1:-0.34503 2:-0.107473 3:-0.117796 4:0.0291714 5:0.0291497 6:0.215763 7:0.0761715 8:0.251459 9:-0.0934569 10:0.139261 11:-0.201247 12:-0.024236 13:-0.443552 14:0.575338 15:0.157959 16:0.554643 17:0.0315611 18:0.00246459 19:-0.0825252 20:0.326626 21:-0.37433 22:0.0819319 23:0.234677 24:0.30059 25:0.146163 26:0.0131897 
0 0.2704294430462733 1:-0.281636 2:-0.272768 3:0.0629457 4:-0.0533225 5:-0.12694 6:0.187223 7:0.140864 8:0.136481 9:-0.0274274 10:0.148895 11:-0.349475 12:0.381486 13:-0.203449 14:0.598191 15:0.455052 16:0.339312 17:0.0600241 18:0.224314 19:0.0186236 20:0.258723 21:-0.0678314 22:0.207481 23:0.111435 24:0.0628399 25:-0.306033 26:0.000203452 
0.1244384124056845 0.3749856296254988 1:-0.176059 2:-0.306335 3:0.265981 4:0.0535945 5:-0.112164 6:0.169721 7:0.10447 8:-0.00947058 9:0.0376402 10:0.307525 11:-0.193726 12:0.504823 13:-0.0862041 14:0.526177 15:0.437735 16:0.0166456 17:0.0249227 18:0.279372 19:0.211417 20:0.200303 21:0.164697 22:0.260586 23:0.0102638 24:-0.129165 25:-0.420948 26:-0.00337449 
0.2668513813002205 0.8418250188447328 1:-0.00972006 2:-0.0991045 3:0.578309 4:0.0937803 5:-0.126998 6:0.146886 7:0.238422 8:-0.110618 9:0.192685 10:0.189446 11:-0.0471165 12:0.291875 13:-0.367601 14:0.353183 15:0.0976922 16:-0.277112 17:-0.0926561 18:0.179993 19:0.338224 20:0.0852937 21:0.274594 22:0.175962 23:0.103382 24:-0.141018 25:-0.157892 26:0.0055167 
0.05627201916720151 0.3940813124598442 1:0.228133 2:0.0533583 3:0.703888 4:0.191699 5:-0.106508 6:0.319398 7:0.409759 8:-0.000460474 9:0.309633 10:0.283153 11:-0.0395538 12:0.23548 13:-0.207371 14:0.164359 15:-0.197307 16:-0.349022 17:-0.289123 18:0.0403522 19:0.236373 20:-0.0912406 21:0.252499 22:0.0421818 23:0.0643046 24:-0.197966 25:0.0976324 26:0.00477559 
0.1491147239274439 0.2863201553537627 1:0.396807 2:0.0203941 3:0.705406 4:0.195694 5:-0.0241648 6:0.527779 7:0.418438 8:-0.00462918 9:0.484605 10:0.40077 11:-0.00648851 12:0.524968 13:-0.081313 14:0.0617513 15:-0.222493 16:-0.256703 17:-0.412302 18:-0.0695806 19:-0.0265217 20:-0.219165 21:0.242972 22:-0.202717 23:-0.186878 24:-0.345868 25:0.0957737 26:-0.000428211 
0.3462859341701887 0.2043513080122779 1:0.39975 2:0.0147777 3:0.784241 4:0.242374 5:-0.0937813 6:0.750725 7:0.544085 8:-0.164477 9:0.640991 10:0.562583 11:0.088732 12:0.559788 13:-0.022426 14:0.10219 15:-0.133604 16:-0.193333 17:-0.370297 18:-0.0810866 19:-0.272327 20:-0.363017 21:0.233491 22:-0.448012 23:-0.409957 24:-0.362497 25:-0.0276603 26:-0.0122609 
0.4081039520468001 0.3546687573284326 1:0.395663 2:0.039439 3:0.817647 4:0.13878 5:-0.133327 6:0.853383 7:0.562527 8:0.0259878 9:0.834539 10:0.598392 11:-0.0377382 12:0.558316 13:0.147001 14:0.212179 15:-0.0776395 16:-0.20797 17:-0.113004 18:-0.124894 19:-0.345752 20:-0.377653 21:0.0191325 22:-0.501005 23:-0.400711 24:-0.154836 25:-0.226758 26:-0.0222958 
0.414987020108978 0.3461013722796019 1:0.428808 2:0.130223 3:0.864628 4:0.00222954 5:-0.0990313 6:0.895651 7:0.467685 8:0.168199 9:0.763225 10:0.221868 11:-0.287336 12:0.570538 13:0.115842 14:0.299843 15:-0.141674 16:-0.304565 17:0.237655 18:-0.208797 19:-0.298563 20:-0.243783 21:-0.211645 22:-0.271451 23:-0.0420958 24:0.181417 25:-0.390806 26:-0.0166534 
0.4320181311847496 0.3236923836049389 1:0.430179 2:0.182193 3:0.840314 4:-0.0752731 5:-0.13331 6:0.928061 7:0.390295 8:0.176413 9:0.500205 10:0.0564017 11:-0.421697 12:0.778804 13:-0.0275456 14:0.325913 15:-0.177813 16:-0.392877 17:0.389419 18:-0.179877 19:-0.363371 20:-0.0276338 21:-0.304824 22:-0.0144757 23:0.299492 24:0.427246 25:-0.488488 26:-0.00196312 
0.4059442429625716 0.356182116342413 1:0.425996 2:0.0942334 3:0.733541 4:0.00467092 5:-0.27653 6:0.93929 7:0.214866 8:0.110956 9:0.463001 10:-0.0282682 11:-0.447147 12:0.634368 13:-0.172394 14:0.302832 15:-0.0418238 16:-0.351793 17:0.246249 18:0.0184464 19:-0.492278 20:0.23765 21:-0.109881 22:-0.055505 23:0.488134 24:0.410033 25:-0.373214 26:0.0116756 
0.1685572938975317 0.2098105089224019 1:0.45788 2:0.103606 3:0.572303 4:0.208242 5:-0.409348 6:0.99767 7:0.130523 8:-0.0064999 9:0.640245 10:0.00229122 11:-0.239259 12:0.302697 13:-0.182476 14:0.28103 15:0.045928 16:-0.243753 17:-0.0778321 18:0.262926 19:-0.492507 20:0.32773 21:0.266993 22:-0.223505 23:0.373957 24:0.187143 25:-0.0118306 26:0.0154286 
0.1557208563643085 0.1095136241082188 1:0.457415 2:0.142636 3:0.442117 4:0.373646 5:-0.552075 6:0.896361 7:0.195489 8:-0.0642796 9:0.668571 10:0.0177 11:-0.124051 12:0.118615 13:-0.0776143 14:0.297728 15:0.0150033 16:-0.0660766 17:-0.305554 18:0.411454 19:-0.213484 20:0.195803 21:0.442298 22:-0.209071 23:0.108096 24:0.0133012 25:0.283669 26:0.00722887 
0 0.07567956713430368 1:0.379061 2:0.270424 3:0.0248794 4:0.330774 5:-0.37877 6:0.278857 7:0.338912 8:0.185336 9:0.0120726 10:0.272622 11:-0.114106 12:0.0283982 13:0.154569 14:0.388497 15:-0.251226 16:0.441302 17:-0.218745 18:0.097565 19:0.486018 20:-0.245124 21:0.00219597 22:0.423673 23:-0.162686 24:-0.130352 25:0.245095 26:-0.0130783 
0.2458374634294716 0.227447921185003 1:0.38462 2:0.232214 3:-0.172425 4:0.404255 5:-0.417893 6:0.461181 7:0.321895 8:0.31401 9:0.21599 10:0.0508374 11:0.0939644 12:0.108174 13:0.183737 14:0.384466 15:-0.207315 16:0.562996 17:-0.162773 18:-0.0421646 19:0.313664 20:-0.257756 21:-0.217077 22:0.330007 23:-0.00875866 24:-0.235007 25:0.01506 26:-0.0147022 
0 0.1170946273101041 1:0.414751 2:0.190348 3:-0.194486 4:0.427215 5:-0.379358 6:0.519804 7:0.247832 8:0.276302 9:0.378091 10:-0.0362835 11:0.178556 12:0.0676958 13:0.220283 14:0.337242 15:-0.0934976 16:0.451552 17:-0.160243 18:-0.10866 19:-0.00811672 20:-0.116671 21:-0.227164 22:0.0432733 23:0.140694 24:-0.257779 25:-0.12673 26:-0.0125615 
0 0.08036296535167971 1:0.43621 2:0.301157 3:0.0569111 4:0.53934 5:-0.587385 6:0.70115 7:0.242238 8:0.0256586 9:0.160308 10:-0.00133157 11:-0.0698745 12:0.12062 13:-0.000689685 14:0.19288 15:-0.2983 16:0.0603401 17:-0.42341 18:0.255271 19:-0.181197 20:-0.150665 21:0.0479181 22:0.341955 23:0.0456268 24:-0.0153102 25:0.00141463 26:-0.0132274 
0.3165002818859533 0.3655053438155785 1:0.396259 2:0.218694 3:0.247326 4:0.50737 5:-0.70064 6:0.912834 7:0.241534 8:-0.0926641 9:0.358625 10:-0.00731839 11:-0.247729 12:0.0120876 13:-0.0140492 14:0.127758 15:-0.101293 16:-0.174976 17:-0.366618 18:0.633573 19:-0.470202 20:-0.0660059 21:0.232063 22:0.15393 23:0.0225663 24:0.270936 25:0.163977 26:-0.0176907 
0.3714319536854691 0.3341155925315226 1:0.33535 2:0.170677 3:0.243512 4:0.36276 5:-0.649744 6:0.949455 7:0.180239 8:-0.204613 9:0.458041 10:-0.0366571 11:-0.245862 12:0.0555404 13:-0.146544 14:0.153932 15:0.0414732 16:-0.338755 17:-0.0669701 18:0.756197 19:-0.607761 20:0.0970771 21:0.423364 22:-0.226605 23:0.0974442 24:0.381249 25:0.0911945 26:-0.00893729 
0.3848714234350739 0.3858862256566611 1:0.242533 2:0.0753448 3:0.242476 4:0.22364 5:-0.548741 6:0.692298 7:0.0568637 8:-0.254879 9:0.56349 10:-0.0684284 11:-0.238971 12:0.217928 13:-0.161512 14:0.344625 15:0.0770894 16:-0.479516 17:0.210557 18:0.489237 19:-0.5317 20:0.145733 21:0.600631 22:-0.663247 23:0.24156 24:0.247629 25:-0.132298 26:0.00663847 
0.5109849166377585 0.4342523118949763 1:0.130079 2:0.127114 3:0.273114 4:0.239345 5:-0.320186 6:0.700354 7:0.24425 8:-0.140381 9:0.693548 10:-0.101893 11:-0.0482 12:0.405005 13:-0.433099 14:0.597912 15:-0.0212433 16:-0.492242 17:0.267786 18:-0.0262883 19:-0.403588 20:-0.0088931 21:0.58061 22:-0.829297 23:0.298971 24:-0.0519803 25:-0.387381 26:0.0227247 
0.6237585376115727 0.507810151396668 1:-0.0205162 2:0.224771 3:0.244032 4:0.277937 5:-0.0178405 6:0.61987 7:0.243216 8:-0.236835 9:0.545137 10:-0.125453 11:0.148478 12:0.402698 13:-0.776103 14:0.787207 15:-0.0433417 16:-0.261475 17:0.130655 18:-0.477523 19:-0.213691 20:-0.129818 21:0.317908 22:-0.538155 23:0.107146 24:-0.258286 25:-0.453838 26:0.0231379 
0 0.3141422600733482 1:-0.038277 2:0.0792086 3:-0.0732221 4:0.475075 5:0.140507 6:0.255371 7:0.333334 8:0.119804 9:0.0361864 10:0.111817 11:0.074822 12:0.127659 13:-0.160934 14:0.823332 15:0.10168 16:0.168568 17:-0.127286 18:-0.608013 19:0.0685613 20:-0.205658 21:-0.244814 22:0.112428 23:-0.330002 24:-0.188704 25:-0.179978 26:-0.00319673 
0.5268821936705181 0.5115592965069625 1:0.277224 2:0.0317762 3:-0.407935 4:0.42465 5:-0.0161238 6:-0.00127502 7:0.146596 8:0.476634 9:-0.237578 10:0.295614 11:-0.0315501 12:0.142033 13:0.0309303 14:0.637356 15:0.155477 16:0.514153 17:-0.2874 18:-0.378694 19:0.220868 20:-0.15753 21:-0.684315 22:0.633328 23:-0.644657 24:-0.0159083 25:0.103691 26:-0.0236951 
0.4158353299587199 0.4831939534080829 1:0.42758 2:0.103052 3:-0.36466 4:0.469159 5:-0.0886958 6:-0.0544126 7:0.153343 8:0.390431 9:-0.309616 10:0.155266 11:-0.0189999 12:0.0408572 13:-0.0948382 14:0.401259 15:0.0451686 16:0.426203 17:-0.451157 18:-0.0853688 19:0.1694 20:-0.189089 21:-0.658692 22:0.77203 23:-0.541437 24:0.0772676 25:0.347334 26:-0.0251641 
0.5485594826393806 0.8816923678093737 1:0.587652 2:0.293398 3:-0.158341 4:0.557089 5:-0.0761933 6:-0.0519255 7:0.15975 8:0.0864501 9:-0.260175 10:-0.28297 11:0.00137727 12:-0.152572 13:-0.351234 14:0.178629 15:-0.150895 16:0.0777629 17:-0.542023 18:0.100674 19:0.018377 20:-0.246021 21:-0.296754 22:0.571719 23:-0.043383 24:0.026606 25:0.460646 26:-0.00835672 
0.02335321001373611 0.6585318636013159 1:0.839648 2:0.262242 3:-0.209159 4:0.464854 5:-0.107903 6:-0.139267 7:0.0753284 8:0.0399882 9:-0.0269798 10:-0.629401 11:0.0895542 12:0.0518648 13:-0.381536 14:0.0180212 15:-0.180801 16:-0.149847 17:-0.404705 18:0.139955 19:-0.0174109 20:-0.151527 21:0.0249301 22:0.217148 23:0.450343 24:-0.139835 25:0.274993 26:0.00857247 
0.06870804877322889 0.2945276004497038 1:0.953498 2:0.205741 3:-0.277387 4:0.296426 5:-0.140222 6:-0.339812 7:-0.115868 8:-0.00975672 9:0.0223721 10:-0.728229 11:0.0729916 12:0.153201 13:-0.440477 14:-0.0200738 15:-0.0381268 16:-0.118369 17:-0.12475 18:0.1114 19:0.182632 20:0.0902945 21:0.168123 22:0.0345923 23:0.661786 24:-0.226719 25:0.0680544 26:0.010789 
0.5978817389483581 0.4885531777062653 1:0.932805 2:0.204054 3:-0.410099 4:0.054428 5:-0.16454 6:-0.510778 7:-0.380642 8:-0.142783 9:0.124191 10:-0.762533 11:-0.00533749 12:0.265772 13:-0.399227 14:0.0147771 15:0.046258 16:0.0996517 17:0.189976 18:0.139615 19:0.368361 20:0.396595 21:0.196384 22:-0.0538304 23:0.617269 24:-0.182438 25:-0.117623 26:0.00489448 
0 0.1029652467788409 1:0.909171 2:0.308525 3:-0.396495 4:0.0218981 5:-0.0993338 6:-0.413323 7:-0.361056 8:-0.173205 9:0.34429 10:-0.674044 11:-0.0583675 12:0.399419 13:-0.31737 14:0.0873401 15:-0.0440099 16:0.220105 17:0.274905 18:0.156352 19:0.296912 20:0.482291 21:0.197858 22:-0.0976805 23:0.423126 24:-0.021019 25:-0.122256 26:0.000386135 
0.2833623930845956 0.7057207328827881 1:0.851604 2:0.36131 3:-0.426573 4:0.0473986 5:-0.129778 6:-0.368154 7:-0.301778 8:-0.323772 9:0.384107 10:-0.687836 11:-0.211259 12:0.323075 13:-0.341774 14:0.131637 15:-0.173925 16:0.241361 17:0.199835 18:0.191287 19:0.116989 20:0.39411 21:0.224995 22:-0.0877389 23:0.23229 24:0.163129 25:-0.00524013 26:-0.00464416 
0 0.0451721581352353 1:0.76978 2:0.391336 3:-0.417072 4:0.0770043 5:-0.107328 6:-0.227851 7:-0.212264 8:-0.242293 9:0.464738 10:-0.463336 11:-0.315059 12:0.380975 13:-0.314612 14:0.13597 15:-0.232217 16:0.173031 17:0.0763234 18:0.181954 19:-0.0970026 20:0.138827 21:0.188167 22:-0.244112 23:-0.030619 24:0.257293 25:0.0262745 26:-0.00789688 
0 0.4227355657507524 1:0.673174 2:0.347675 3:-0.370069 4:0.0456692 5:-0.00209683 6:-0.224369 7:-0.12573 8:-0.213818 9:0.563909 10:-0.282575 11:-0.326705 12:0.482475 13:-0.249708 14:0.186893 15:-0.207569 16:0.0634011 17:-0.00310796 18:0.105411 19:-0.172818 20:-0.197294 21:0.237413 22:-0.428052 23:-0.189943 24:0.220251 25:-0.0641435 26:-0.0092177 
0.2222975953580942 0.267555815904498 1:0.508271 2:0.326782 3:-0.315247 4:0.0664508 5:0.0700449 6:-0.245951 7:0.019023 8:-0.25509 9:0.693439 10:-0.266478 11:-0.149576 12:0.685048 13:-0.127221 14:0.347272 15:-0.181847 16:-0.0981072 17:-0.112487 18:0.0230301 19:-0.0693518 20:-0.429355 21:0.36331 22:-0.593463 23:-0.0994567 24:0.0912043 25:-0.266694 26:-0.00848445 
0.5806502186026006 0.5371292288772006 1:0.26792 2:0.390373 3:-0.216143 4:0.216051 5:0.15228 6:-0.137862 7:0.159113 8:-0.336897 9:0.664953 10:-0.312513 11:-0.221567 12:0.514345 13:-0.505796 14:0.564952 15:-0.20836 16:-0.280053 17:-0.314569 18:-0.0978543 19:-0.0155104 20:-0.500051 21:0.400365 22:-0.576514 23:0.0420162 24:0.028532 25:-0.325278 26:-0.000331291 
0.4064817533725174 0.2175897849348171 1:0.121183 2:0.303447 3:-0.301435 4:0.186956 5:0.1968 6:-0.200387 7:-0.0436538 8:-0.0812702 9:0.267466 10:-0.419191 11:-0.155217 12:0.662154 13:-0.289395 14:0.685921 15:-0.161938 16:-0.222779 17:-0.363104 18:-0.227828 19:0.0400343 20:-0.184671 21:0.214306 22:-0.156122 23:0.120338 24:0.0315276 25:-0.31994 26:0.00165779 
0.3388990200732546 0.4489797921401325 1:0.10615 2:0.21971 3:-0.270512 4:0.186666 5:0.239139 6:-0.225505 7:-0.31036 8:0.141099 9:0.177255 10:-0.257922 11:-0.129239 12:0.542391 13:-0.312561 14:0.725672 15:-0.0449565 16:0.0195311 17:-0.153567 18:-0.362595 19:-0.00022001 20:0.264603 21:-0.135004 22:0.225035 23:0.0146502 24:0.039312 25:-0.177179 26:0.00242847 
0.4408448260762732 0.774128646647584 1:0.16433 2:0.192017 3:-0.48087 4:0.0443505 5:0.279593 6:0.0367031 7:-0.275792 8:0.229771 9:-0.0772 10:-0.00836274 11:-0.0666065 12:0.314756 13:-0.361724 14:0.691012 15:0.0755899 16:0.366221 17:0.204017 18:-0.396607 19:-0.14457 20:0.462217 21:-0.361675 22:0.49032 23:-0.131835 24:-0.014371 25:0.0252965 26:-0.000372754 
0.8857357526174534 0.5362883602996542 1:0.248628 2:0.154039 3:-0.613167 4:-0.0855582 5:0.189823 6:-0.0417224 7:-0.356505 8:0.266463 9:-0.227383 10:-0.228202 11:-0.0485913 12:0.293532 13:-0.338787 14:0.577432 15:0.132757 16:0.540478 17:0.406321 18:-0.204461 19:-0.105193 20:0.323937 21:-0.325018 22:0.464573 23:-0.037755 24:-0.109571 25:0.0969555 26:-0.0060929 
0.013038412437038 0.9629104702394351 1:0.240525 2:0.0956639 3:-0.405085 4:0.0111628 5:-0.00879278 6:-0.0572273 7:-0.0836114 8:0.339539 9:0.0811791 10:-0.337195 11:0.120039 12:0.258494 13:-0.18782 14:0.392439 15:0.0552483 16:0.37751 17:0.177538 18:0.156425 19:0.136757 20:-0.196088 21:-0.0652259 22:0.243101 23:0.135196 24:-0.108343 25:0.238645 26:-0.00664566 
0.3687165703602178 0.1915695451408455 1:0.757863 2:0.197823 3:-0.147941 4:0.383145 5:-0.167356 6:-0.04875 7:0.00879837 8:0.193502 9:0.0215136 10:-0.238447 11:-0.0453862 12:0.164005 13:-0.350972 14:-0.0634028 15:-0.2132 16:-0.0947766 17:-0.591099 18:0.513281 19:0.413615 20:-0.507982 21:0.381972 22:0.0735734 23:0.128275 24:0.119669 25:0.280159 26:0.00142547 
0 0.2760070559808979 1:0.687453 2:0.163334 3:-0.0518971 4:0.37368 5:-0.110102 6:0.106759 7:-0.204764 8:0.3383 9:0.0590505 10:-0.184671 11:-0.0359785 12:0.141787 13:-0.340759 14:0.0110611 15:-0.215851 16:-0.166794 17:-0.527173 18:0.349149 19:0.0582699 20:-0.165963 21:0.226028 22:-0.0732425 23:-0.0828479 24:0.115326 25:0.183237 26:0.00197361 
0.3259406048777613 0.5084915319379049 1:0.51613 2:0.0773814 3:0.06415 4:0.234846 5:0.00190433 6:0.69046 7:-0.506497 8:0.492341 9:0.357253 10:-0.0631464 11:0.210471 12:0.425599 13:-0.235992 14:0.270709 15:-0.0874024 16:-0.160857 17:-0.0861494 18:0.061208 19:-0.599205 20:0.348755 21:-0.0691433 22:-0.393194 23:-0.164586 24:0.00250738 25:-0.193433 26:-0.00190385 
0.4817652243683609 0.3780649051532197 1:0.472267 2:0.0525563 3:0.0898003 4:0.0873182 5:0.0481817 6:0.666458 7:-0.562138 8:0.656066 9:0.39915 10:-0.103978 11:0.178763 12:0.457525 13:-0.170864 14:0.540646 15:0.0695132 16:-0.15508 17:0.334424 18:-0.20543 19:-0.914772 20:0.615188 21:-0.418342 22:-0.602455 23:-0.0755969 24:-0.0575816 25:-0.504215 26:-0.00676386 
0.3644660256306747 0.2813616103306185 1:0.460335 2:0.0172331 3:0.120385 4:0.123787 5:0.155157 6:0.632156 7:-0.442318 8:0.66003 9:0.207824 10:-0.281612 11:0.17336 12:0.405344 13:-0.200869 14:0.630137 15:0.139314 16:-0.160155 17:0.38574 18:-0.374123 19:-0.810344 20:0.577732 21:-0.571691 22:-0.454373 23:0.0724498 24:-0.106263 25:-0.614557 26:-0.00686558 
0.3667907270363855 0.3958380317287289 1:0.449959 2:-0.0254706 3:0.114802 4:0.117141 5:0.166408 6:0.536594 7:-0.519808 8:0.638152 9:0.170939 10:-0.362953 11:0.209966 12:0.471046 13:-0.249021 14:0.547494 15:0.124893 16:-0.124657 17:0.203023 18:-0.345412 19:-0.330257 20:0.402108 21:-0.52332 22:-0.119495 23:0.161362 24:-0.187124 25:-0.522964 26:-0.00674568 
0.3433505616570401 1.156783057239555 1:0.599905 2:0.0414216 3:0.100072 4:0.44808 5:0.0600538 6:0.0518949 7:-0.186408 8:0.57992 9:-0.230925 10:-0.238924 11:0.289534 12:0.0322929 13:-0.18608 14:0.345072 15:0.0441081 16:-0.109963 17:-0.174307 18:-0.112572 19:0.25572 20:0.0360839 21:-0.281917 22:0.344482 23:0.0952027 24:-0.268257 25:-0.0668375 26:-0.0106041 
0.09640968205051381 0.3826742249531795 1:0.760699 2:0.0981621 3:0.0636142 4:0.507387 5:-0.113308 6:-0.0391666 7:0.0236922 8:0.292175 9:-0.264468 10:-0.27861 11:0.29943 12:-0.170947 13:-0.193187 14:0.137675 15:0.023213 16:-0.10428 17:-0.339106 18:0.200853 19:0.374679 20:-0.195132 21:0.110696 22:0.495498 23:0.0129197 24:-0.251862 25:0.367509 26:-0.01271 
0.2803522403267478 0.1565221445828306 1:0.783779 2:0.0792773 3:0.0296584 4:0.473816 5:-0.161343 6:0.0327544 7:0.105877 8:0.0795502 9:-0.239381 10:-0.335265 11:0.0747687 12:-0.337199 13:-0.224452 14:-0.0190151 15:0.0623019 16:-0.0294704 17:-0.304925 18:0.382626 19:0.193679 20:-0.217027 21:0.392244 22:0.340951 23:0.0157391 24:0.00502425 25:0.650078 26:-0.00704571 
0.4379861813408792 0.6554471354562723 1:0.748259 2:0.0996088 3:-0.0344188 4:0.49443 5:-0.140663 6:0.0772569 7:0.177061 8:0.0578594 9:-0.15705 10:-0.356639 11:-0.089736 12:-0.410754 13:-0.401373 14:-0.0768906 15:0.0221648 16:0.109265 17:-0.215828 18:0.408888 19:0.0217588 20:-0.151875 21:0.423693 22:0.101161 23:0.198916 24:0.229183 25:0.492316 26:0.00370638 
0.3246080607532662 0.6988084647328239 1:0.695989 2:0.184177 3:-0.14475 4:0.53648 5:-0.102334 6:-0.000401463 7:0.164205 8:0.069823 9:-0.0464873 10:-0.416942 11:-0.1425 12:-0.310685 13:-0.558283 14:-0.0047881 15:-0.112517 16:0.228972 17:-0.15332 18:0.309701 19:0.0227443 20:-0.0547288 21:0.256554 22:-0.116495 23:0.354825 24:0.327138 25:0.0614689 26:0.0107062 
0.2956146696796761 0.558486285667234 1:0.544778 2:0.303298 3:-0.195547 4:0.565906 5:-0.00123861 6:-0.0994233 7:0.288001 8:0.0673268 9:0.0302549 10:-0.453525 11:-0.0792764 12:-0.0522563 13:-0.519879 14:0.169987 15:-0.274109 16:0.246307 17:-0.190414 18:0.123095 19:0.174022 20:-0.133307 21:0.0893881 22:-0.214324 23:0.272761 24:0.273992 25:-0.192708 26:0.00716949 
0.4224862297431188 1.140566482478946 1:0.237873 2:0.351309 3:-0.0932304 4:0.509318 5:0.0389413 6:-0.194186 7:0.455826 8:0.0876361 9:-0.15574 10:-0.366003 11:0.0705104 12:0.0109524 13:-0.305794 14:0.392425 15:-0.319389 16:0.142472 17:-0.187735 18:0.0246003 19:0.216934 20:-0.250859 21:0.0542747 22:-0.280185 23:0.0485209 24:0.0989035 25:-0.136229 26:-0.0035182 
1.28089802871435 1.429425072027176 1:0.0488074 2:0.251941 3:-0.0301032 4:0.539886 5:0.228372 6:0.0663661 7:0.412114 8:0.0577471 9:-0.00991964 10:0.0407718 11:-0.0584604 12:-0.469514 13:-0.388944 14:0.536115 15:-0.203488 16:0.00917434 17:-0.163422 18:-0.0721506 19:-0.0269309 20:-0.206462 21:0.119361 22:-0.450956 23:-0.295794 24:-0.0350872 25:0.173615 26:-0.00978832 
0.7044001437169365 0.7989081059717484 1:-0.0252834 2:0.23667 3:-0.0807117 4:0.479494 5:0.257058 6:0.141873 7:0.335042 8:-0.00491307 9:0.0205033 10:-0.0809286 11:0.135373 12:-0.323954 13:-0.427713 14:0.567092 15:-0.135513 16:-0.0300343 17:-0.159059 18:-0.120192 19:-0.217525 20:-0.160714 21:0.149534 22:-0.472859 23:-0.3165 24:-0.224867 25:0.139203 26:-0.0135586 
0.721740232844417 0.6604767570570428 1:-0.103391 2:0.262777 3:-0.041006 4:0.451952 5:0.199522 6:0.0886357 7:0.316657 8:0.10464 9:-0.272376 10:-0.331841 11:0.284664 12:-0.000338563 13:-0.390258 14:0.572328 15:-0.250515 16:-0.0226034 17:-0.180108 18:-0.162864 19:-0.172269 20:-0.153652 21:0.0384891 22:-0.136053 23:0.0161846 24:-0.380951 25:-0.114075 26:-0.0117623 
0.7527599360019565 0.6761140937624045 1:-0.181698 2:0.245189 3:0.00549796 4:0.423393 5:0.379434 6:0.0922651 7:0.313707 8:0.157035 9:-0.58695 10:-0.211013 11:0.138782 12:-0.0211024 13:-0.459471 14:0.626095 15:-0.362697 16:-0.0435755 17:-0.210055 18:-0.306342 19:-0.0708472 20:-0.205914 21:-0.0861951 22:0.464085 23:0.418318 24:-0.287745 25:-0.178204 26:0.00358388 
0.6506488133602293 0.5186825155092613 1:-0.225965 2:0.193829 3:-0.0653299 4:0.419326 5:0.397809 6:-0.0130201 7:0.360783 8:0.162247 9:-0.778829 10:-0.489341 11:-0.0344776 12:-0.130831 13:-0.565158 14:0.731124 15:-0.194671 16:-0.06208 17:-0.110068 18:-0.277686 19:-0.0363707 20:-0.218238 21:-0.125454 22:0.957416 23:0.604956 24:-0.00174204 25:0.0733865 26:0.0180651 
0.7022731829248391 0.6006550835159386 1:-0.207992 2:0.091329 3:-0.0151691 4:0.238003 5:0.252416 6:0.0586582 7:0.0585865 8:0.141284 9:-0.794068 10:-0.392411 11:-0.0822722 12:-0.297995 13:-0.79472 14:0.777314 15:0.266193 16:-0.146978 17:0.145267 18:-0.122092 19:-0.188462 20:0.072281 21:-0.106464 22:0.946962 23:0.20394 24:0.274659 25:0.47777 26:0.0228779 
0.6863807738717309 0.6491281851683185 1:-0.035833 2:-0.188919 3:0.00314938 4:0.220529 5:0.148378 6:0.237381 7:-0.034232 8:0.0871245 9:-0.537258 10:0.0495629 11:-0.338405 12:-0.216254 13:-0.653802 14:0.663046 15:0.672074 16:-0.130868 17:0.308496 18:0.0739841 19:-0.330657 20:0.351467 21:-0.0066738 22:0.395018 23:-0.432354 24:0.353724 25:0.49162 26:0.00648583 
0.5463749963576201 0.6218069050235671 1:0.20313 2:-0.175794 3:-0.160032 4:0.133906 5:0.0558907 6:0.0414167 7:-0.122824 8:0.0502513 9:-0.00264232 10:0.403383 11:-0.177351 12:0.0726447 13:0.0191831 14:0.415667 15:0.545347 16:-0.017202 17:0.286941 18:0.204557 19:-0.189745 20:0.442689 21:0.0484493 22:-0.301495 23:-0.774178 24:0.121319 25:0.111033 26:-0.0206955 
0.8091520130470044 1.118835778435622 1:0.461112 2:0.158202 3:-0.16134 4:0.33383 5:0.13234 6:-0.204147 7:-0.114001 8:0.0946479 9:0.151634 10:-0.0600196 11:0.0734179 12:0.394604 13:-0.0835205 14:0.105579 15:-0.0361905 16:0.0391996 17:0.0228171 18:0.122593 19:0.137099 20:0.262205 21:0.0582172 22:-0.580873 23:-0.488274 24:-0.146139 25:-0.312766 26:-0.024434 
0.3192811445176189 0.2674952642574232 1:0.67635 2:0.371576 3:-0.308855 4:0.52216 5:0.0547967 6:-0.18219 7:0.158375 8:-0.0459399 9:0.196344 10:-0.443566 11:-0.0324999 12:0.439937 13:-0.31818 14:-0.171702 15:-0.557729 16:0.156844 17:-0.263996 18:0.0817365 19:0.393992 20:-0.0925716 21:0.164766 22:-0.467099 23:0.149405 24:-0.214373 25:-0.439446 26:-0.0119998 
0.4317067491595284 0.3397657443278845 1:0.785452 2:0.297381 3:-0.247063 4:0.506474 5:0.0440936 6:-0.213691 7:0.197007 8:0.021005 9:0.0663663 10:-0.579778 11:-0.178763 12:0.410999 13:-0.399228 14:-0.227832 15:-0.685783 16:0.244208 17:-0.451518 18:0.0880607 19:0.327318 20:-0.275567 21:0.324866 22:-0.32742 23:0.678338 24:-0.164381 25:-0.383738 26:0.000569882 
0.2679635071856426 0.2072302241194604 1:0.759366 2:0.184529 3:-0.30064 4:0.455923 5:0.0235667 6:-0.195544 7:0.118946 8:-0.00273411 9:0.0914264 10:-0.635742 11:-0.152663 12:0.456842 13:-0.288563 14:-0.0239712 15:-0.466102 16:0.358366 17:-0.523793 18:0.153672 19:-0.0376046 20:-0.237277 21:0.465561 22:-0.302706 23:0.77986 24:-0.0191612 25:-0.243979 26:0.00185015 
0.2890665091376888 0.5216818533488866 1:0.576052 2:0.1566 3:-0.386473 4:0.529605 5:-0.0114491 6:0.0741079 7:0.0725789 8:-0.00413763 9:0.263532 10:-0.58873 11:-0.182028 12:0.399633 13:-0.169992 14:0.299238 15:-0.225044 16:0.398728 17:-0.477858 18:0.256975 19:-0.391303 20:-0.113626 21:0.391535 22:-0.321695 23:0.492273 24:0.164952 25:-0.0901731 26:-0.00255764 
0.4130942082132196 0.9712813112508367 1:0.290448 2:0.0897609 3:-0.260471 4:0.505687 5:0.0573226 6:0.224342 7:0.106691 8:0.161265 9:0.230142 10:-0.411425 11:-0.312712 12:0.442212 13:-0.25955 14:0.528332 15:-0.0772996 16:0.114746 17:-0.293494 18:0.208344 19:-0.39808 20:-0.0603299 21:0.111431 22:-0.0379153 23:0.0796839 24:0.276764 25:-0.0547666 26:0.00107396 
0.3075298740469488 0.9155470592661247 1:0.379271 2:-0.0558907 3:0.00295251 4:0.115716 5:0.0678164 6:-0.173412 7:-0.0529994 8:0.550772 9:-0.393064 10:-0.0729307 11:-0.399559 12:0.16753 13:-0.397916 14:0.47495 15:0.0568071 16:-0.287856 17:0.0954783 18:0.115515 19:0.000877403 20:-0.0900362 21:-0.317327 22:0.410253 23:-0.3613 24:0.307424 25:0.0259255 26:0.00633345 
0.4783926892448426 0.2621346556945624 1:0.503009 2:-0.132482 3:0.103425 4:0.0716311 5:0.164504 6:-0.298272 7:0.0340166 8:0.568165 9:-0.273364 10:-0.0979109 11:-0.229008 12:0.304204 13:-0.341235 14:0.300822 15:0.153362 16:-0.523278 17:0.28257 18:-0.0667933 19:0.359348 20:-0.0925002 21:-0.586432 22:0.433245 23:-0.570654 24:0.170674 25:-0.0559253 26:0.00130291 
0.3840297892281238 0.5669002405241959 1:0.404637 2:-0.19894 3:0.0527722 4:0.0728846 5:0.322496 6:-0.167541 7:-0.0534641 8:0.452954 9:-0.0459328 10:-0.118326 11:0.0290577 12:0.334781 13:-0.00957228 14:0.227419 15:0.14209 16:-0.390979 17:0.238842 18:-0.263569 19:0.342488 20:0.0874786 21:-0.525684 22:0.243689 23:-0.4338 24:-0.0244349 25:-0.0842424 26:-0.0110175 
0.632092422008539 2.459655141088757 1:0.279994 2:-0.19793 3:-0.20565 4:0.0854813 5:0.243266 6:-0.0369397 7:-0.223146 8:0.619929 9:0.199261 10:-0.279506 11:-0.0479439 12:0.134886 13:-0.046242 14:0.286624 15:0.0203022 16:0.0340813 17:0.0526432 18:-0.241693 19:-0.068317 20:0.213022 21:-0.355763 22:0.0507284 23:0.010478 24:-0.112576 25:0.011608 26:-0.0150098 
0.9302528379783103 1.261027268305318 1:0.234542 2:-0.162689 3:-0.277733 4:0.21447 5:0.251536 6:0.0936691 7:-0.357252 8:0.332511 9:0.000542445 10:-0.591294 11:0.0302327 12:0.0863444 13:-0.147028 14:0.401957 15:-0.0756037 16:0.319596 17:-0.187821 18:-0.103612 19:-0.491056 20:0.0991726 21:0.0162252 22:0.0961247 23:0.514017 24:-0.227236 25:0.0408243 26:-0.00820902 
0.5842004254618211 0.3240697413822267 1:0.181664 2:-0.204404 3:-0.295118 4:0.113144 5:0.194846 6:0.209195 7:-0.102633 8:0.087077 9:-0.0697515 10:-0.805633 11:0.0899718 12:0.0100298 13:-0.275742 14:0.457182 15:-0.0335791 16:0.324514 17:-0.202649 18:0.130965 19:-0.466573 20:-0.213145 21:0.231953 22:0.275764 23:0.739708 24:-0.28545 25:0.0974697 26:0.00336715 
0.5311771646900435 1.080694195707863 1:0.146444 2:-0.310049 3:-0.242371 4:0.073772 5:0.0677328 6:0.0174818 7:0.0243464 8:0.21827 9:0.360785 10:-0.545238 11:0.196581 12:0.100509 13:-0.165471 14:0.427205 15:0.0975722 16:0.0879356 17:-0.201188 18:0.282517 19:-0.111605 20:-0.347805 21:0.161457 22:0.0856556 23:0.546342 24:-0.283868 25:-0.0292531 26:0.0072345 
1.460015571565407 1.687567681845688 1:0.146736 2:-0.293591 3:-0.16341 4:0.180839 5:0.135778 6:-0.309178 7:-0.291638 8:0.104508 9:0.564698 10:-0.327324 11:0.0618187 12:0.0291869 13:-0.18172 14:0.391146 15:0.304392 16:-0.106305 17:-0.162531 18:0.223736 19:0.251187 20:0.0106727 21:0.0544308 22:-0.27106 23:0.141546 24:-0.0718909 25:-0.10181 26:0.00657429 
0.528479670677983 0.376310304514513 1:0.146456 2:-0.235646 3:-0.182405 4:0.0481936 5:0.229002 6:-0.267475 7:-0.540992 8:0.106102 9:0.531173 10:-0.181619 11:-0.231808 12:-0.0918162 13:-0.115712 14:0.421077 15:0.524281 16:-0.0763374 17:-0.0328401 18:0.0529383 19:0.338273 20:0.504506 21:-0.117179 22:-0.535512 23:-0.220883 24:0.267185 25:0.043414 26:0.00207867 
0.3043065449866577 0.2841675212446418 1:0.164795 2:-0.225197 3:-0.215998 4:-0.0132886 5:0.288276 6:0.0424936 7:-0.576767 8:0.0546626 9:0.767887 10:-0.0352883 11:-0.1989 12:-0.0300865 13:-0.0250186 14:0.482122 15:0.597928 16:0.0541212 17:0.0320303 18:-0.137031 19:0.185396 20:0.716604 21:-0.0481292 22:-0.524649 23:-0.352379 24:0.362875 25:0.26152 26:-0.00314677 
0.9424638354803557 0.8269733820541544 1:0.118022 2:-0.157039 3:-0.386619 4:-0.0531576 5:0.248038 6:-0.0905496 7:-0.378751 8:-0.113075 9:0.684707 10:-0.0305392 11:-0.161553 12:-0.224416 13:0.0107048 14:0.534128 15:0.359225 16:0.201446 17:0.0359487 18:-0.209024 19:0.0686439 20:0.44933 21:0.201177 22:-0.119923 23:-0.208703 24:0.279613 25:0.539329 26:-0.0039449 
1.768872120578865 1.892545170131921 1:0.161707 2:0.253625 3:-0.240544 4:0.0944774 5:0.328187 6:-0.0941713 7:-0.0504146 8:-0.217551 9:0.382227 10:-0.115508 11:0.0509322 12:-0.228951 13:0.209456 14:0.49246 15:-0.226653 16:0.149134 17:-0.071084 18:-0.195082 19:-0.0784098 20:-0.0617309 21:0.351877 22:0.257501 23:0.00695331 24:0.0647531 25:0.551966 26:-0.00273089 
0.6599011888057983 0.6977358751962089 1:0.37684 2:0.576858 3:-0.177397 4:0.032063 5:0.21452 6:0.119544 7:0.0831355 8:-0.237798 9:0.330828 10:-0.204069 11:0.105242 12:0.0989052 13:0.115357 14:0.336941 15:-0.729847 16:0.0196916 17:-0.174494 18:-0.0769091 19:-0.248933 20:-0.396625 21:0.40879 22:0.264863 23:0.182987 24:-0.052688 25:0.21301 26:0.00477244 
0.2006011444901922 0.3276567663196829 1:0.486548 2:0.629396 3:-0.203488 4:0.0349033 5:0.137612 6:0.24352 7:0.127973 8:-0.140099 9:0.558384 10:-0.172631 11:0.0514177 12:0.342646 13:0.129707 14:0.188365 15:-0.831428 16:-0.0517299 17:-0.190532 18:-0.00766158 19:-0.288493 20:-0.490997 21:0.300738 22:-0.0475328 23:0.221616 24:-0.0980797 25:-0.207935 26:0.00336076 
0.299396091716767 0.3399286675536025 1:0.515226 2:0.569237 3:-0.179929 4:0.0110665 5:0.113452 6:0.162403 7:0.201743 8:-0.0914652 9:0.810365 10:-0.0835465 11:0.218502 12:0.526433 13:0.348914 14:0.0923677 15:-0.596039 16:-0.0475466 17:-0.1044 18:-0.0372832 19:-0.132423 20:-0.439729 21:0.104469 22:-0.404165 23:0.151433 24:-0.246012 25:-0.476406 26:-0.00641709 
0.3352067031338005 0.3618288542461524 1:0.562173 2:0.501774 3:-0.152128 4:0.0290767 5:0.0667391 6:0.00618321 7:0.147491 8:-0.0447706 9:0.655444 10:-0.0665708 11:0.298959 12:0.622964 13:0.580715 14:0.0798515 15:-0.261752 16:0.00312113 17:0.0186922 18:-0.0554943 19:0.147545 20:-0.27659 21:-0.101549 22:-0.317397 23:0.136083 24:-0.283998 25:-0.450279 26:-0.014667 
0.1646640123076472 0.03155316716206538 1:0.558713 2:0.52002 3:-0.211864 4:-0.0867208 5:0.0311088 6:-0.0439867 7:0.0146241 8:0.0984045 9:0.386406 10:-0.0125042 11:0.280382 12:0.516114 13:0.653464 14:0.149153 15:-0.103833 16:0.0165017 17:0.107059 18:-0.0197928 19:0.290549 20:-0.0272569 21:-0.275522 22:0.0546666 23:0.173934 24:-0.179827 25:-0.205978 26:-0.0176693 
0.2331172713531144 0.1875377499196018 1:0.305084 2:0.362453 3:-0.208705 4:0.129834 5:-0.238517 6:0.286132 7:-0.180562 8:-0.0659995 9:0.530432 10:0.30817 11:0.0769402 12:0.486894 13:0.628545 14:0.569127 15:-0.0970717 16:0.157649 17:-0.163222 18:0.247345 19:-0.330164 20:0.0907351 21:0.624249 22:-0.456243 23:-0.18056 24:0.280488 25:0.240474 26:-0.0157889 
0.2137279151216598 0.1940806149442081 1:0.289679 2:0.37047 3:-0.23503 4:0.140133 5:-0.166755 6:0.392407 7:0.00818472 8:-0.0960259 9:0.479867 10:0.434061 11:0.12458 12:0.49478 13:0.451247 14:0.551638 15:-0.000955327 16:0.0747969 17:-0.191149 18:0.119976 19:-0.474847 20:-0.0145535 21:0.687083 22:-0.534597 23:-0.35329 24:0.271457 25:0.114526 26:-0.190539 
0 0.03253372087563253 1:0.495377 2:0.144662 3:0.0535891 4:0.181714 5:-0.208646 6:0.270421 7:-0.230966 8:0.60341 9:-0.176552 10:0.172912 11:0.190049 12:0.798169 13:-0.0486688 14:0.272625 15:0.218594 16:-0.16166 17:-0.145879 18:0.0314652 19:-0.210838 20:0.240288 21:-0.449887 22:0.351978 23:-0.0975939 24:0.166365 25:-0.307748 26:0.0266689 
0.6040767900710948 0.4688709925437983 1:0.520093 2:0.221199 3:-0.0962446 4:0.175818 5:-0.209417 6:0.0907819 7:-0.165134 8:0.781946 9:-0.338956 10:0.169326 11:0.451661 12:0.888472 13:0.239594 14:0.216018 15:0.131341 16:-0.0241513 17:-0.134673 18:0.0694099 19:0.105067 20:0.241803 21:-0.768602 22:0.676115 23:0.0357149 24:-0.0875734 25:-0.348898 26:0.010783 
0.3038206881184954 0.2656722670783666 1:0.490487 2:0.308661 3:-0.162888 4:0.184727 5:-0.153635 6:-0.110914 7:0.0506191 8:0.615687 9:-0.204623 10:0.114953 11:0.73339 12:0.577146 13:0.576664 14:0.223541 15:-0.00754716 16:0.12953 17:-0.0932083 18:0.0610889 19:0.348713 20:0.0884289 21:-0.60496 22:0.56255 23:0.0931052 24:-0.403316 25:-0.122313 26:-0.0178312 
0.2610610382212256 0.08858114846148216 1:0.503791 2:0.298602 3:-0.134242 4:0.16019 5:-0.151135 6:-0.0719326 7:0.132735 8:0.511153 9:-0.193708 10:0.0765951 11:0.796368 12:0.585778 13:0.613808 14:0.235813 15:-0.0748214 16:0.122909 17:-0.0348401 18:0.0704111 19:0.234646 20:-0.0832498 21:-0.291627 22:0.237976 23:0.125486 24:-0.489978 25:0.0658307 26:-0.0366444 
0.1859692786656738 0.08408067078913792 1:0.501488 2:0.29282 3:-0.0144309 4:0.145945 5:-0.155739 6:0.0223023 7:0.186775 8:0.441699 9:-0.0559572 10:-0.0771057 11:0.707522 12:0.617771 13:0.498875 14:0.224734 15:-0.0803027 16:-0.0436655 17:-0.0472536 18:0.0889653 19:-0.0781116 20:-0.15503 21:-0.108428 22:-0.158174 23:0.195303 24:-0.320223 25:0.145636 26:-0.0376268 
0.3272705725380748 0.4237215778425643 1:0.214619 2:0.354401 3:-0.134975 4:0.132997 5:-0.00186034 6:-0.259197 7:0.303393 8:-0.095459 9:-0.125863 10:-0.0432643 11:0.482438 12:0.621503 13:-0.441798 14:0.541209 15:-0.219835 16:0.0807815 17:0.0390366 18:-0.121398 19:0.192227 20:-0.0698376 21:0.481741 22:0.113896 23:-0.121416 24:-0.101455 25:-0.285017 26:0.0277393 
0.04768371224300604 0.5073689669878784 1:0.191528 2:0.283699 3:0.0248207 4:0.159748 5:0.00287619 6:0.0088742 7:0.398594 8:-0.0476434 9:0.00468907 10:-0.0450064 11:0.29294 12:0.714559 13:-0.404607 14:0.595918 15:-0.105028 16:-0.0732324 17:0.112728 18:-0.205085 19:-0.0204835 20:-0.034707 21:0.377837 22:0.106594 23:-0.135436 24:-0.0434548 25:-0.480032 26:0.0236109 
0 1.188425885995766 1:0.427018 2:0.185322 3:-0.117309 4:0.37075 5:-0.104916 6:-0.0860591 7:0.426161 8:0.120519 9:0.0692534 10:-0.34369 11:0.0135376 12:0.141326 13:-0.159003 14:0.29878 15:-0.00310811 16:0.126201 17:-0.266023 18:-0.0529074 19:-0.103287 20:0.0347945 21:-0.25337 22:-0.110188 23:0.35735 24:0.23392 25:0.0826749 26:-0.00946121 
0 0.03254810267178571 1:0.578801 2:0.117917 3:-0.0824658 4:0.321989 5:-0.363581 6:-0.18978 7:0.493407 8:-0.145909 9:-0.0822589 10:-0.0581541 11:0.111922 12:-0.182237 13:0.00546958 14:0.0806557 15:0.110761 16:-0.102414 17:-0.119379 18:0.290616 19:0.207539 20:-0.207401 21:0.296162 22:0.222741 23:-0.216799 24:-0.122291 25:0.324876 26:-0.0141713 
0.07302363705802936 0.1504601342024444 1:0.548332 2:0.130354 3:-0.0282239 4:0.329404 5:-0.335345 6:-0.148957 7:0.580928 8:-0.106342 9:0.0432275 10:-0.0485644 11:0.137777 12:-0.244426 13:-0.116238 14:0.166206 15:0.0544414 16:-0.184334 17:-0.08621 18:0.0852327 19:0.2179 20:-0.391508 21:0.210724 22:0.133192 23:-0.219232 24:-0.146274 25:0.362878 26:-0.000607344 
0 0.9195759423432538 1:0.41498 2:0.161939 3:-0.0794146 4:0.350387 5:-0.267059 6:-0.0183864 7:0.693255 8:0.0447726 9:0.212949 10:0.000512317 11:0.135625 12:-0.222205 13:-0.1745 14:0.332698 15:-0.0650906 16:-0.108595 17:-0.0830748 18:-0.123359 19:0.161381 20:-0.44183 21:0.0473015 22:-0.0970355 23:-0.0619997 24:-0.00197089 25:0.346861 26:0.0111595 
0 0.1161184671165988 1:0.525697 2:0.347185 3:-0.435753 4:-0.0193614 5:-0.41336 6:0.399216 7:0.12438 8:-0.0807586 9:-0.0689525 10:0.0735323 11:0.394254 12:0.500227 13:0.133556 14:0.203475 15:-0.368668 16:0.338672 17:0.243369 18:0.10691 19:0.0551977 20:-0.234935 21:0.226263 22:0.117598 23:0.0695169 24:-0.221122 25:-0.45515 26:-0.0117495 
0.2163955682344566 0.3238808484461124 1:0.41099 2:0.0670693 3:-0.207527 4:0.26001 5:-0.105664 6:0.585871 7:-0.378007 8:0.0514804 9:-0.134174 10:0.277125 11:-0.2615 12:-0.0996883 13:-0.11665 14:0.371031 15:0.135045 16:-0.0939073 17:-0.389101 18:-0.290326 19:-0.244261 20:0.320914 21:-0.0681282 22:-0.00821232 23:-0.103888 24:0.336338 25:0.133402 26:0.00107709 
0 0.1266754379026785 1:0.377916 2:0.0566601 3:-0.17192 4:0.199725 5:-0.282709 6:0.499858 7:-0.209084 8:-0.0684001 9:-0.22233 10:0.255886 11:-0.137913 12:-0.224093 13:-0.119794 14:0.41133 15:0.274359 16:-0.14173 17:-0.371948 18:-0.00965994 19:-0.333625 20:0.0443601 21:-0.110489 22:0.0899094 23:0.0638707 24:0.0163937 25:0.299278 26:-0.0038104 
0 0.3543671406320541 1:0.393857 2:0.119695 3:-0.264957 4:0.0825271 5:-0.292999 6:0.468996 7:-0.0767992 8:-0.141237 9:-0.105865 10:0.145543 11:-0.0425603 12:-0.225501 13:-0.146829 14:0.384455 15:0.218101 16:-0.111796 17:-0.23392 18:0.108146 19:-0.304249 20:-0.0130021 21:-0.0607832 22:-0.0130281 23:0.132034 24:-0.157126 25:0.297874 26:-0.00512596 
0.2844120188392085 0.3648643524819293 1:0.476984 2:0.586292 3:-0.55342 4:-0.335218 5:-0.335336 6:-0.101262 7:0.241831 8:-0.441478 9:-0.137808 10:0.181808 11:-0.145889 12:0.24338 13:-0.287457 14:0.368358 15:-0.519908 16:0.233016 17:-0.00241358 18:0.0462139 19:0.323138 20:-0.4422 21:0.318604 22:0.209345 23:0.00722724 24:0.157274 25:-0.325172 26:0.00276463 
0 0.1753101402558303 1:0.620999 2:0.346303 3:-0.439597 4:-0.557852 5:-0.303416 6:0.0187052 7:-0.212222 8:-0.300301 9:0.337545 10:0.109867 11:0.0649569 12:0.078036 13:-0.154137 14:0.263506 15:0.168735 16:-0.0685923 17:0.165999 18:-0.0920787 19:0.013963 20:0.153537 21:-0.0467736 22:-0.441835 23:0.174586 24:-0.256069 25:0.20962 26:-0.0114937 
0.1610009117696797 0.1959117498254603 1:0.590809 2:0.40445 3:-0.539385 4:-0.475944 5:-0.358873 6:0.020622 7:-0.252574 8:-0.243339 9:0.291195 10:0.0843944 11:0.237574 12:0.169878 13:-0.21723 14:0.294895 15:0.0835376 16:0.0295816 17:0.0129216 18:0.0385652 19:-0.120892 20:0.243361 21:-0.19156 22:-0.384153 23:0.204441 24:-0.418595 25:0.0781576 26:-0.00749985 
0.1365516852869236 0.2260657915639816 1:0.582851 2:0.42967 3:-0.583158 4:-0.349175 5:-0.46917 6:0.169711 7:-0.368717 8:-0.1147 9:0.0672355 10:0.167173 11:0.11743 12:0.281378 13:-0.340821 14:0.319734 15:-0.0361368 16:0.148071 17:-0.19085 18:0.234899 19:-0.326236 20:0.39221 21:-0.326403 22:-0.123923 23:0.131391 24:-0.357464 25:0.0237639 26:-0.00239399 
0.2946366702361112 0.3517229605270369 1:0.584892 2:0.425658 3:-0.532978 4:-0.333283 5:-0.503807 6:0.266188 7:-0.395451 8:-0.198134 9:0.0408465 10:0.184833 11:-0.0577174 12:0.313998 13:-0.373939 14:0.298699 15:-0.0850554 16:0.194273 17:-0.279182 18:0.370614 19:-0.405208 20:0.522206 21:-0.286502 22:0.0894538 23:0.0733651 24:-0.122775 25:0.0748069 26:0.00119586 
0.1704751294696958 0.538523559825434 1:0.588432 2:0.413245 3:-0.473495 4:-0.364213 5:-0.44736 6:0.174212 7:-0.317297 8:-0.303865 9:-0.0252958 10:0.290035 11:-0.252504 12:0.333087 13:-0.433104 14:0.22208 15:-0.0697804 16:0.114495 17:-0.187044 18:0.331589 19:-0.257567 20:0.503837 21:-0.163612 22:0.2128 23:0.0401741 24:0.194945 25:0.0862813 26:0.00801686 
0.02063071311679938 0.309352891115406 1:0.588129 2:0.406052 3:-0.439196 4:-0.387737 5:-0.363843 6:-0.026064 7:-0.138625 8:-0.452557 9:-0.04636 10:0.300903 11:-0.383099 12:0.467161 13:-0.486264 14:0.143378 15:-0.0628378 16:-0.0588058 17:0.0153444 18:0.114221 19:0.0112214 20:0.206623 21:0.0653671 22:0.139353 23:0.0614647 24:0.353642 25:-0.0685275 26:0.014772 
0.197557489844737 0.2183521671146887 1:0.546955 2:0.426591 3:-0.372021 4:-0.41367 5:-0.250907 6:-0.12988 7:0.127835 8:-0.528477 9:-0.0158899 10:0.264343 11:-0.426991 12:0.658307 13:-0.472957 14:0.141375 15:-0.111663 16:-0.183529 17:0.177513 18:-0.137488 19:0.210749 20:-0.171445 21:0.247017 22:-0.00964639 23:0.000838065 24:0.188879 25:-0.295019 26:0.0149997 
0.2863144161247702 0.2344310417853806 1:0.425327 2:0.463999 3:-0.298406 4:-0.402215 5:-0.140573 6:-0.0696758 7:0.409072 8:-0.569409 9:-0.00296214 10:0.358507 11:-0.352345 12:0.7383 13:-0.444575 14:0.239251 15:-0.160669 16:-0.176014 17:0.175475 18:-0.241548 19:0.218271 20:-0.382248 21:0.317198 22:-0.0846587 23:-0.148905 24:-0.126123 25:-0.41838 26:0.00714178 
0.173741268620143 0.06734887013842912 1:0.25621 2:0.414672 3:-0.363909 4:-0.284313 5:-0.141815 6:-0.0254858 7:0.491526 8:-0.70717 9:0.0638523 10:0.487345 11:-0.215121 12:0.701579 13:-0.131203 14:0.38739 15:-0.1104 16:-0.0271597 17:0.0610803 18:-0.150154 19:0.1062 20:-0.331914 21:0.317455 22:-0.0493636 23:-0.197302 24:-0.288659 25:-0.389719 26:-0.0114673 
0.2864920900043045 0.1749545171918703 1:0.0704904 2:0.369164 3:-0.477549 4:-0.0515804 5:-0.248003 6:-7.3511e-005 7:0.465688 8:-0.535857 9:-0.120995 10:0.114217 11:-0.691447 12:0.498012 13:-0.0129563 14:0.536949 15:0.00638093 16:0.244073 17:-0.132893 18:0.0826464 19:-0.19475 20:-0.064444 21:0.0778582 22:0.349366 23:0.234866 24:0.19994 25:-0.168289 26:-0.0287392 
0.3627152544749943 0.3292158016561914 1:0.043846 2:0.34963 3:-0.381155 4:-0.0418573 5:-0.159386 6:0.103114 7:0.609444 8:-0.511855 9:-0.0590961 10:0.098062 11:-0.817754 12:0.434657 13:-0.0597445 14:0.565658 15:0.0654911 16:0.188174 17:-0.292303 18:-0.0171639 19:-0.194003 20:-0.0413356 21:0.122157 22:0.0636558 23:0.290181 24:0.443077 25:0.151229 26:-0.0170673 
0.3593684089576662 0.2628727679711671 1:0.0309412 2:0.39024 3:-0.370683 4:0.101139 5:-0.135749 6:0.058042 7:0.572362 8:-0.559419 9:0.142125 10:0.287111 11:-0.595556 12:0.224358 13:-0.243256 14:0.610197 15:0.102325 16:0.11477 17:-0.521879 18:-0.108171 19:-0.00664741 20:0.00336558 21:0.241773 22:-0.403834 23:0.0836618 24:0.322585 25:0.542679 26:0.000220143 
0.5984705422053085 0.4583814378237058 1:0.0353084 2:0.361721 3:-0.289472 4:0.25427 5:-0.158606 6:-0.116462 7:0.39545 8:-0.554796 9:0.451846 10:0.44144 11:-0.610904 12:-0.0329594 13:-0.475167 14:0.626107 15:0.127482 16:0.0373514 17:-0.645683 18:-0.120354 19:0.275838 20:0.06181 21:0.284055 22:-0.744267 23:-0.146167 24:0.0253947 25:0.715584 26:0.00916889 
0.4857193349680929 0.4607001297769044 1:0.0904508 2:0.366552 3:-0.263867 4:0.173608 5:-0.235961 6:-0.172424 7:0.699317 8:-0.34437 9:0.320638 10:0.24351 11:-0.552268 12:0.0795451 13:-0.436528 14:0.544437 15:0.0479545 16:-0.013652 17:-0.444668 18:-0.0688138 19:0.455483 20:-0.074155 21:0.108441 22:-0.559377 23:-0.155846 24:-0.236675 25:0.42394 26:0.00669194 
0.2086808444507693 0.3189989661129178 1:0.32952 2:0.517634 3:-0.172613 4:-0.157452 5:-0.293526 6:0.118013 7:0.67989 8:-0.193461 9:-0.337035 10:0.211101 11:-0.308121 12:0.689481 13:-0.325477 14:0.337049 15:-0.142822 16:-0.134607 17:0.02025 18:-0.0497423 19:0.342839 20:-0.210467 21:-0.103338 22:0.0910811 23:-0.110387 24:-0.302042 25:-0.238153 26:0.00208066 
0.4072784268873539 0.3631323128762036 1:0.510935 2:0.597278 3:-0.0910193 4:-0.239931 5:-0.254518 6:0.258172 7:0.708284 8:-0.118251 9:-0.273785 10:0.120923 11:-0.525694 12:0.723311 13:-0.407263 14:0.139399 15:-0.258919 16:-0.255437 17:0.342643 18:-0.064959 19:0.0632045 20:-0.275793 21:-0.227496 22:0.528538 23:-0.151713 24:-0.0608332 25:-0.656846 26:0.000230321 
0.3571185641032824 0.2579088208699778 1:0.580168 2:0.566898 3:-0.105505 4:-0.226582 5:-0.340496 6:0.389389 7:0.693098 8:-0.109535 9:-0.308331 10:0.1097 11:-0.737712 12:0.592288 13:-0.531912 14:0.0580813 15:-0.227492 16:-0.20186 17:0.329961 18:0.0365194 19:-0.227068 20:-0.228653 21:-0.070896 22:0.624785 23:-0.185469 24:0.155714 25:-0.674373 26:0.000393456 
0.3581986329068811 0.5863897444434647 1:0.607242 2:0.534326 3:-0.161443 4:-0.146992 5:-0.470236 6:0.631263 7:0.520068 8:-0.0518183 9:-0.398131 10:0.0379247 11:-0.667762 12:0.529092 13:-0.428959 14:0.0950243 15:-0.101317 16:0.01369 17:0.0323139 18:0.211897 19:-0.481052 20:-0.0764078 21:0.209966 22:0.345184 23:-0.00357093 24:0.146489 25:-0.386427 26:-0.00530662 
0.3731926528234887 0.5078013575209642 1:0.589825 2:0.548772 3:-0.266689 4:-0.0527026 5:-0.55374 6:0.780544 7:0.465788 8:-0.0502172 9:-0.15625 10:-0.297279 11:-0.571441 12:0.424842 13:-0.314238 14:0.197994 15:-0.0114095 16:0.308732 17:-0.282215 18:0.363841 19:-0.656411 20:0.00345153 21:0.351981 22:-0.0612528 23:0.440636 24:-0.0147391 25:-0.0402472 26:-0.0136437 
0.5286834860266638 0.4023853630121719 1:0.551054 2:0.560556 3:-0.337374 4:-0.0243673 5:-0.508399 6:0.653337 7:0.520941 8:-0.0939816 9:0.0890688 10:-0.662392 11:-0.51041 12:0.150717 13:-0.401921 14:0.266025 15:-0.011817 16:0.473067 17:-0.3576 18:0.381917 19:-0.701184 20:0.131725 21:0.243151 22:-0.213442 23:0.819225 24:-0.175144 25:0.182486 26:-0.0154531 
0.4974729483301389 0.6642459152267547 1:0.524859 2:0.580274 3:-0.215358 4:-0.0725675 5:-0.436281 6:0.652962 7:0.331092 8:0.312605 9:-0.018773 10:-0.478631 11:-0.562215 12:0.0278257 13:-0.455968 14:0.264375 15:-0.0431421 16:0.386392 17:-0.218781 18:0.266942 19:-0.631456 20:0.320579 21:-0.210265 22:-0.134674 23:0.780249 24:-0.0891691 25:0.278507 26:-0.00707758 
0.6354566700692644 0.7848120189112414 1:0.491336 2:0.597883 3:-0.051878 4:-0.162554 5:-0.39126 6:0.462404 7:0.218802 8:0.518739 9:-0.160371 10:-0.160588 11:-0.749611 12:0.0559438 13:-0.67743 14:0.207195 15:-0.0696723 16:0.127657 17:0.0392564 18:0.135739 19:-0.294337 20:0.327291 21:-0.572473 22:0.0654681 23:0.342834 24:0.135508 25:0.211762 26:0.00905514 
0.6128689030722592 0.6937844499429909 1:0.458281 2:0.590904 3:0.104947 4:-0.226071 5:-0.276709 6:0.0986647 7:0.384821 8:0.418935 9:-0.000781979 10:-0.00490704 11:-0.758074 12:0.00477147 13:-0.746416 14:0.137734 15:-0.124867 16:-0.14191 17:0.216112 18:0.0572763 19:0.253288 20:0.112531 21:-0.57894 22:0.12871 23:-0.173531 24:0.111782 25:0.0570356 26:0.0147096 
0.4877650679651575 0.4261358345278509 1:0.379189 2:0.614972 3:0.200923 4:-0.194256 5:-0.169903 6:-0.13871 7:0.596354 8:0.347057 9:0.102274 10:0.23762 11:-0.697489 12:-0.00730121 13:-0.731838 14:0.13578 15:-0.234319 16:-0.330751 17:0.181024 18:0.0203996 19:0.635631 20:-0.147344 21:-0.298961 22:-0.0559005 23:-0.564146 24:-0.0222949 25:-0.11531 26:0.0078708 
0.5718166154992951 0.428305832647486 1:0.230085 2:0.652856 3:0.293043 4:-0.103071 5:-0.124013 6:-0.309342 7:0.640055 8:0.220305 9:0.123256 10:0.388844 11:-0.570152 12:0.00502375 13:-0.569688 14:0.243577 15:-0.321686 16:-0.372542 17:-0.013215 18:0.0161453 19:0.7097 20:-0.238663 21:0.16632 22:-0.262033 23:-0.510094 24:-0.0448262 25:-0.15054 26:-0.00575729 
0.6001035635389129 0.7900322428025047 1:0.0227591 2:0.614984 3:0.245505 4:0.0344179 5:-0.0673913 6:-0.166394 7:0.474711 8:0.071846 9:0.23659 10:0.16615 11:-0.577013 12:-0.0947994 13:-0.431551 14:0.405089 15:-0.292477 16:-0.330242 17:-0.273476 18:-0.0202585 19:0.3327 20:-0.0355883 21:0.472669 22:-0.309657 23:-0.0798741 24:0.147272 25:-0.0736263 26:-0.0150594 
0.6145373998260534 0.5392400325816532 1:-0.148413 2:0.499331 3:0.235734 4:0.0635622 5:0.100438 6:0.181771 7:0.477328 8:0.0582051 9:0.231726 10:0.0148769 11:-0.983681 12:-0.217155 13:-0.590783 14:0.523104 15:-0.168716 16:-0.235839 17:-0.410386 18:-0.0974728 19:-0.224553 20:0.0538252 21:0.504472 22:-0.116015 23:0.331925 24:0.451116 25:0.0307518 26:-0.00805833 
0.6479319273353617 0.5148973863457222 1:-0.23992 2:0.407707 3:0.0717741 4:0.0470466 5:0.112662 6:0.107401 7:0.554968 8:0.113062 9:-0.0789086 10:-0.230902 11:-0.772141 12:-0.323991 13:-0.638057 14:0.542789 15:-0.0581367 16:-0.04553 17:-0.358134 18:-0.116577 19:-0.410147 20:-0.12243 21:0.228644 22:0.145201 23:0.476465 24:0.387857 25:0.228702 26:0.00609762 
0.8432411742561728 0.6416947280013688 1:-0.25722 2:0.356518 3:0.0633469 4:0.0398248 5:0.178798 6:0.100091 7:0.589708 8:0.307162 9:0.0153665 10:0.112974 11:-0.353462 12:-0.277641 13:-0.693869 14:0.48822 15:0.021064 16:0.145068 17:-0.181521 18:-0.1236 19:-0.290965 20:-0.369538 21:-0.245726 22:0.145965 23:0.153612 24:0.0121141 25:0.329763 26:0.0155366 
0.433156034088846 0.3464948049200968 1:-0.310645 2:0.314085 3:-0.137598 4:-0.0999961 5:0.175413 6:0.0300583 7:0.735811 8:0.40183 9:0.0936579 10:0.356011 11:-0.217546 12:-0.374144 13:-0.669472 14:0.467227 15:0.0694819 16:0.28385 17:0.0648203 18:-0.149749 19:-0.0279576 20:-0.438098 21:-0.542556 22:-0.018787 23:-0.219963 24:-0.259758 25:0.344976 26:0.0118193 
0.9466756045767448 0.7388041343820692 1:-0.348971 2:0.231592 3:-0.155204 4:-0.155834 5:0.198977 6:-0.154817 7:0.408105 8:0.427982 9:0.168236 10:0.291724 11:-0.210106 12:-0.393311 13:-0.462755 14:0.582512 15:0.145674 16:0.219907 17:0.18978 18:-0.241384 19:0.172664 20:-0.107724 21:-0.452052 22:-0.241238 23:-0.267261 24:-0.252636 25:0.35244 26:-0.00236645 
0.3473597489657005 0.9741257695769999 1:-0.35423 2:0.151024 3:-0.104845 4:-0.0890399 5:0.21978 6:-0.0378825 7:0.131939 8:0.11903 9:0.116479 10:0.0784574 11:-0.13504 12:-0.00786518 13:-0.187832 14:0.723709 15:0.247845 16:0.0332383 17:0.0871666 18:-0.30527 19:0.118645 20:0.267415 21:-0.049984 22:-0.296135 23:-0.0377562 24:-0.00730514 25:0.212883 26:-0.0137295 
0.7363112582633813 0.3463397404802003 1:-0.226338 2:0.228119 3:-0.119586 4:0.0392318 5:-0.00581381 6:-0.0387133 7:0.189069 8:-0.0727701 9:-0.0930624 10:0.0506099 11:-0.0508507 12:-0.0186494 13:-0.282812 14:0.633127 15:0.394574 16:-0.0852612 17:-0.556464 18:0.0549706 19:0.100034 20:0.205451 21:0.0766365 22:0.117359 23:0.367294 24:-0.113179 25:0.0183383 26:-0.0144092 
0.03910738353311082 0.2090262173705883 1:0.23092 2:0.27977 3:-0.235544 4:0.0925933 5:-0.172905 6:0.0126218 7:0.167251 8:0.010853 9:-0.200218 10:0.0676747 11:0.124625 12:0.466074 13:-0.23157 14:0.329564 15:0.222596 16:-0.0637285 17:-0.581799 18:0.195394 19:0.0137914 20:-0.14372 21:-0.160695 22:0.342044 23:0.236163 24:-0.353871 25:-0.26373 26:-0.012293 
0.154945316775594 0.532396021287546 1:0.39237 2:0.413212 3:-0.218529 4:-0.056608 5:-0.153568 6:0.115664 7:0.21472 8:-0.0862105 9:-0.201633 10:0.141669 11:0.237359 12:0.531416 13:-0.173147 14:0.126285 15:-0.128231 16:-0.105984 17:-0.266036 18:0.148046 19:-0.106114 20:-0.383592 21:-0.158226 22:0.460284 23:0.0276483 24:-0.402483 25:-0.375185 26:-0.0107365 
0.5020558218237177 0.2643757743070732 1:0.50187 2:0.794078 3:-0.180221 4:-0.46258 5:-0.102843 6:0.317858 7:0.19002 8:-0.384382 9:-0.210268 10:0.406117 11:-0.102992 12:0.539558 13:-0.388958 14:0.0416101 15:-0.523358 16:-0.157815 17:0.181642 18:0.034218 19:-0.286811 20:-0.388143 21:0.189374 22:0.442172 23:-0.174262 24:-0.148833 25:-0.404729 26:-0.00527628 
0.1252341168879637 0.1349893523768186 1:0.670342 2:0.717384 3:-0.311976 4:-0.449815 5:-0.195418 6:0.224996 7:0.0336068 8:-0.550157 9:0.00818581 10:0.312551 11:-0.179064 12:0.577913 13:-0.419113 14:0.050818 15:-0.574649 16:-0.0713586 17:0.313138 18:0.0368995 19:-0.331553 20:-0.170991 21:0.510562 22:0.251716 23:-0.19512 24:0.20136 25:-0.254266 26:0.00541299 
0.3864078839066719 0.2813753702998384 1:0.708455 2:0.693306 3:-0.585835 4:-0.399966 5:-0.364705 6:0.155273 7:-0.27066 8:-0.57906 9:0.166406 10:0.235612 11:-0.225688 12:0.512364 13:-0.494272 14:0.128669 15:-0.359223 16:0.180162 17:0.212246 18:0.17169 19:-0.218554 20:0.117315 21:0.57217 22:-0.00487434 23:-0.134507 24:0.375295 25:-0.0128708 26:0.0157047 
0.05176902047934726 0 1:0.740412 2:0.643778 3:-0.576357 4:-0.394274 5:-0.326249 6:0.171308 7:-0.366502 8:-0.465623 9:0.408149 10:0.25234 11:-0.235031 12:0.479479 13:-0.521856 14:0.171656 15:-0.0515764 16:0.324656 17:0.02026 18:0.268305 19:-0.0873 20:0.263998 21:0.395225 22:-0.240253 23:-0.0445676 24:0.331717 25:0.0663292 26:0.0185705 
0.3086811551270106 0.2940867459912094 1:0.715088 2:0.6366 3:-0.652431 4:-0.396792 5:-0.324109 6:0.0798829 7:-0.432065 8:-0.385314 9:0.497481 10:0.16127 11:-0.201313 12:0.443819 13:-0.506424 14:0.244732 15:0.105678 16:0.352327 17:-0.106754 18:0.261211 19:0.0391123 20:0.246627 21:0.197289 22:-0.305309 23:0.0752791 24:0.141534 25:0.0482408 26:0.0125142 
0 0.1075275855285291 1:0.67621 2:0.664225 3:-0.508807 4:-0.390831 5:-0.165768 6:-0.0218476 7:-0.520964 8:-0.0308145 9:0.709277 10:0.0381449 11:0.148979 12:0.410979 13:0.127235 14:0.258797 15:-0.181099 16:0.232059 17:-0.0484534 18:0.154591 19:-0.133034 20:0.0817395 21:-0.081586 22:-0.159083 23:-0.0779155 24:0.00979889 25:-0.0185366 26:-0.0129989 
0 0.0563787789021731 1:0.656164 2:0.584984 3:-0.372488 4:-0.356333 5:-0.150553 6:-0.097512 7:-0.488827 8:0.00563298 9:0.706643 10:-0.0583645 11:0.124255 12:0.47746 13:0.183844 14:0.230743 15:-0.0660373 16:0.16501 17:0.030624 18:0.217424 19:0.043825 20:0.0181316 21:-0.159277 22:-0.189223 23:0.0116937 24:0.0353805 25:-0.0592834 26:-0.0139674 
0.04161875164781895 0.07095739288114938 1:0.582864 2:0.589705 3:-0.271948 4:-0.329833 5:-0.0133597 6:-0.256123 7:-0.418456 8:0.160295 9:0.652515 10:-0.24711 11:0.215044 12:0.501398 13:0.231748 14:0.207693 15:-0.00448448 16:0.0174252 17:0.113486 18:0.162314 19:0.331696 20:-0.037664 21:-0.167893 22:-0.129439 23:0.227659 24:-0.0660181 25:-0.150909 26:-0.0162652 
0.4131331068261456 0.3403662226071549 1:0.513574 2:0.570466 3:-0.0831565 4:-0.358189 5:0.100011 6:-0.242678 7:-0.435783 8:0.156882 9:0.582498 10:-0.315448 11:0.298039 12:0.358042 13:0.2967 14:0.184173 15:-0.0295854 16:-0.214967 17:0.0937019 18:0.0556969 19:0.388092 20:-0.0183232 21:-0.0800076 22:0.0130261 23:0.470601 24:-0.0880538 25:-0.0965889 26:-0.0124792 
0.4676714912013124 0.2447941016837837 1:0.436143 2:0.540566 3:0.0343217 4:-0.222827 5:0.245043 6:-0.176598 7:-0.503263 8:0.0917962 9:0.589702 10:-0.337457 11:0.338726 12:0.377273 13:0.0810504 14:0.198401 15:-0.0516673 16:-0.326836 17:-0.0498197 18:-0.122101 19:0.167136 20:0.038381 21:-0.0445716 22:-0.0121705 23:0.499775 24:-0.236364 25:-0.0134281 26:0.00183194 
0.3529350538816769 0.4163614749712105 1:0.329056 2:0.537653 3:0.0544313 4:-0.0731424 5:0.343194 6:0.0227641 7:-0.415178 8:0.0785651 9:0.457126 10:-0.194567 11:0.227278 12:0.263741 13:0.0432802 14:0.277659 15:-0.0419312 16:-0.264125 17:-0.25411 18:-0.239222 19:-0.267992 20:0.0299132 21:-0.122007 22:-0.140341 23:0.340763 24:-0.298629 25:0.124506 26:0.0114883 
0.6301020221602566 0.5518997318267116 1:0.133113 2:0.504266 3:0.0244847 4:0.00406864 5:0.374939 6:0.241886 7:-0.373323 8:0.246402 9:0.57443 10:-0.076554 11:0.243539 12:0.0951564 13:0.0293544 14:0.401245 15:-0.0264179 16:-0.119636 17:-0.355512 18:-0.238114 19:-0.60875 20:-0.0073617 21:-0.274026 22:-0.251394 23:0.118215 24:-0.187539 25:0.175076 26:0.0109503 
0.7569873298433086 0.4016480487339308 1:-0.0467185 2:0.465192 3:-0.0778592 4:-0.0458884 5:0.459228 6:0.160626 7:-0.391844 8:0.182965 9:0.615988 10:0.272424 11:0.408367 12:0.278313 13:0.120866 14:0.504945 15:-0.110188 16:0.023432 17:-0.276184 18:-0.235734 19:-0.488108 20:-0.00757017 21:-0.27676 22:-0.222612 23:-0.143295 24:-0.00942429 25:0.0582361 26:-0.000650323 
0.5141090925266483 0.5456687024036344 1:-0.0965298 2:0.495306 3:-0.00694385 4:0.00773242 5:0.397806 6:-0.018697 7:-0.351262 8:-0.0145355 9:0.186887 10:0.139236 11:-0.318239 12:0.225188 13:0.386765 14:0.602436 15:-0.365714 16:-0.0123288 17:-0.159846 18:-0.255262 19:-0.0133315 20:0.108038 21:-0.00755932 22:-0.0647214 23:-0.270233 24:0.276139 25:0.106477 26:-0.0148886 
0.18400103019908 0.3049169781521121 1:-0.108972 2:0.50791 3:-0.00515333 4:-0.0976885 5:0.347562 6:-0.240901 7:-0.318902 8:-0.149853 9:0.0401948 10:0.34324 11:-0.175752 12:0.205038 13:0.357365 14:0.700468 15:-0.526121 16:-0.0324212 17:-0.0813753 18:-0.291594 19:0.451488 20:0.290292 21:0.389818 22:0.0425741 23:-0.316427 24:0.223778 25:0.184154 26:-0.0148522 
0.4255895542441497 0.4818686117082729 1:-0.194924 2:0.422855 3:-0.0549339 4:-0.0413107 5:0.39128 6:-0.30416 7:-0.347075 8:-0.205001 9:0.243803 10:0.385763 11:0.191743 12:0.16999 13:0.241044 14:0.728149 15:-0.42141 16:0.05878 17:-0.129337 18:-0.284467 19:0.530549 20:0.401724 21:0.689751 22:0.0403882 23:-0.13963 24:0.0832113 25:0.160277 26:-0.0059794 
0.7007645243578329 1.560567416688271 1:-0.204814 2:0.245553 3:-0.0906323 4:0.0220659 5:0.264975 6:-0.0798245 7:-0.228763 8:-0.240527 9:0.0620978 10:0.221476 11:0.0651335 12:0.208881 13:0.159705 14:0.553933 15:-0.0776213 16:0.194789 17:-0.0829833 18:-0.0465875 19:0.196747 20:0.195047 21:0.607941 22:0.0990634 23:0.209003 24:0.121843 25:-0.130846 26:0.00291522 
0.2654311794246259 0.4053137559759061 1:0.140832 2:-0.100723 3:-0.206125 4:-0.0410138 5:-0.0456331 6:0.206903 7:0.127839 8:-0.054403 9:-0.355855 10:-0.0322278 11:-0.267489 12:0.506369 13:0.215655 14:0.200826 15:0.41342 16:0.408951 17:0.147492 18:0.276893 19:-0.135489 20:-0.182104 21:0.202296 22:0.2855 23:0.413054 24:0.206643 25:-0.498309 26:0.00478115 
0.4448150775635287 0.3322493041414468 1:0.378547 2:-0.0859886 3:-0.0826294 4:-0.132358 5:-0.10072 6:0.202204 7:0.31447 8:0.209184 9:-0.117558 10:0.160167 11:-0.0492697 12:0.556143 13:0.287587 14:-0.0112001 15:0.595284 16:0.451428 17:0.268601 18:0.410286 19:-0.196028 20:-0.431358 21:-0.276114 22:0.355115 23:0.282818 24:0.164327 25:-0.505604 26:-0.00147502 
0.4326553184257583 0.6530807721412341 1:0.318319 2:-0.0664179 3:0.0601739 4:-0.107202 5:-0.115709 6:0.147154 7:0.455235 8:0.418813 9:-0.129712 10:0.407867 11:0.22161 12:0.282149 13:0.303057 14:0.0833263 15:0.500071 16:0.323788 17:0.150356 18:0.301242 19:-0.133331 20:-0.366213 21:-0.623337 22:0.35887 23:-0.0985724 24:-0.122868 25:-0.117514 26:-0.00798483 
0.5292504823058939 1.045958256014025 1:0.0763892 2:-0.104358 3:0.0823481 4:0.200408 5:-0.00559868 6:0.201936 7:0.176012 8:0.239234 9:-0.223418 10:0.533413 11:0.286128 12:-0.193087 13:0.304407 14:0.361465 15:0.279777 16:0.0692976 17:-0.226555 18:0.000284949 19:-0.209784 20:0.0382503 21:-0.617616 22:0.208357 23:-0.37302 24:-0.384246 25:0.381685 26:-0.0124117 
0.4007409590386604 0.4809659057867182 1:0.0690964 2:0.0988935 3:0.423656 4:0.412254 5:-0.0521801 6:0.417998 7:0.299016 8:0.211511 9:0.0393931 10:0.425092 11:0.225463 12:0.0388707 13:0.358298 14:0.50942 15:-0.0249158 16:-0.328276 17:-0.501846 18:-0.181277 19:-0.424079 20:0.261481 21:-0.464418 22:0.0283211 23:-0.294802 24:-0.385277 25:0.459792 26:-0.0094402 
0.1110473098395925 0.1752589846421601 1:0.252809 2:0.183849 3:0.600752 4:0.244437 5:-0.080214 6:0.437713 7:0.348842 8:0.12899 9:0.189196 10:0.282175 11:0.116154 12:0.0947812 13:0.265185 14:0.409594 15:-0.169234 16:-0.525019 17:-0.443713 18:-0.174247 19:-0.433322 20:0.236296 21:-0.264574 22:-0.031518 23:0.0288519 24:-0.0758356 25:0.318245 26:-0.00103335 
0.08706296074653329 0.4296508316743871 1:0.311041 2:0.186185 3:0.561775 4:0.18882 5:-0.171847 6:0.250644 7:0.564482 8:-0.15212 9:0.183159 10:0.141427 11:-0.0384529 12:0.0872525 13:0.16577 14:0.274181 15:-0.215632 16:-0.445793 17:-0.264054 18:-0.0414888 19:-0.146414 20:-0.0298859 21:0.0313141 22:-0.177366 23:0.252453 24:0.247065 25:0.108061 26:0.00462383 
0.01496580956498728 0 1:0.273594 2:0.263189 3:0.431607 4:0.213201 5:-0.261929 6:-0.0315078 7:0.722739 8:-0.317063 9:0.200044 10:0.109766 11:-0.0644188 12:0.167648 13:0.0458062 14:0.243954 15:-0.200538 16:-0.237255 17:-0.1313 18:0.168397 19:0.153666 20:-0.306991 21:0.296392 22:-0.299485 23:0.246828 24:0.377385 25:-0.0313115 26:0.0054818 
0.3793482442146463 0.3848504937309241 1:0.255087 2:0.310431 3:0.354417 4:0.215559 5:-0.328541 6:-0.0635931 7:0.751055 8:-0.464109 9:0.472633 10:0.181741 11:-0.153454 12:0.231577 13:0.318516 14:0.302881 15:-0.09716 16:-0.107662 17:-0.127816 18:0.376585 19:0.194879 20:-0.411388 21:0.515893 22:-0.349696 23:0.128992 24:0.319629 25:-0.0215965 26:-0.00591861 
0.2796031157828451 0.2103050664119278 1:0.269083 2:0.278558 3:0.330709 4:0.103007 5:-0.385232 6:0.132853 7:0.805216 8:-0.630622 9:0.422353 10:0.256012 11:0.113346 12:0.382452 13:0.322765 14:0.336346 15:-0.0265277 16:-0.156779 17:-0.100672 18:0.448543 19:0.0401413 20:-0.390469 21:0.525086 22:-0.130309 23:0.0049591 24:0.0266485 25:-0.0407998 26:-0.0162796 
0 0.02693192560333057 1:0.30333 2:0.318709 3:0.317192 4:0.0719273 5:-0.366237 6:0.107659 7:0.71554 8:-0.529135 9:0.103814 10:0.131345 11:0.242503 12:0.32295 13:0.170944 14:0.29757 15:-0.077326 16:-0.187853 17:0.0142009 18:0.298348 19:0.0366975 20:-0.141868 21:0.358835 22:0.237951 23:-0.0223155 24:-0.243845 25:0.0318127 26:-0.0152047 
0.2071673457547805 0.1592720387303194 1:0.291721 2:0.379561 3:0.130333 4:0.0493927 5:-0.216073 6:-0.126 7:0.65546 8:-0.42076 9:0.124825 10:0.0868858 11:0.252216 12:0.366346 13:0.225687 14:0.269067 15:-0.213764 16:-0.0620774 17:0.12641 18:0.0156234 19:0.235449 20:0.170286 21:0.272926 22:0.383579 23:-0.0100383 24:-0.350137 25:0.0541392 26:-0.00752712 
0.175023383656851 0.09470860673303116 1:0.274376 2:0.439944 3:-0.135332 4:-0.0225157 5:0.0033769 6:-0.104926 7:0.447986 8:-0.426492 9:0.250895 10:0.228702 11:0.219636 12:0.475352 13:0.00773554 14:0.285795 15:-0.35326 16:0.197476 17:0.163053 18:-0.244864 19:0.351455 20:0.445904 21:0.256658 22:0.256029 23:-0.0220245 24:-0.25837 25:-0.0369195 26:0.00707115 
0.07754508532558738 0 1:0.249241 2:0.440991 3:-0.229959 4:0.0416082 5:-0.0967938 6:0.0933502 7:0.50891 8:-0.477749 9:0.540648 10:0.0564938 11:0.124247 12:0.604551 13:-0.189479 14:0.334815 15:-0.341426 16:0.347945 17:0.0485175 18:-0.234624 19:0.255196 20:0.432912 21:0.165591 22:-0.112497 23:0.0438618 24:-0.0514994 25:-0.188384 26:0.0142792 
0 0.5232405568439263 1:0.179625 2:0.238157 3:-0.351512 4:0.195652 5:-0.0884598 6:0.376722 7:0.882103 8:0.00231929 9:0.543043 10:-0.00720085 11:-0.0829338 12:0.622702 13:0.0329341 14:0.39742 15:0.0915424 16:0.230963 17:-0.202273 18:0.044255 19:-0.0835369 20:-0.248344 21:-0.290021 22:-0.314414 23:0.0927903 24:0.106677 25:-0.16381 26:0.00172131 
0.1847645339816865 0 1:0.190691 2:0.203779 3:-0.264005 4:0.209127 5:-0.148852 6:0.457127 7:0.999285 8:-0.0136648 9:0.606371 10:-0.0356335 11:0.00808823 12:0.577764 13:0.0691977 14:0.380359 15:0.153578 16:0.0857324 17:-0.188492 18:0.104146 19:-0.145586 20:-0.388466 21:-0.278088 22:-0.246519 23:0.134775 24:0.0520476 25:-0.0378567 26:-0.00698196 
0.2513433663194008 0.1818669625385882 1:0.204392 2:0.260136 3:-0.3108 4:0.24389 5:-0.114668 6:0.767998 7:0.855428 8:-0.0350872 9:0.40604 10:-0.104593 11:-0.162584 12:0.565408 13:0.0887362 14:0.469864 15:0.213576 16:-0.102927 17:-0.428269 18:-0.0942905 19:-0.649863 20:-0.253689 21:-0.317529 22:-0.156686 23:0.2408 24:0.0859262 25:0.122884 26:-0.01217 
0.1795174426131696 0.2014377961296524 1:0.208779 2:0.21632 3:-0.284635 4:0.280474 5:-0.126742 6:0.742515 7:0.931031 8:-0.0863419 9:0.360622 10:-0.0227564 11:-0.0889455 12:0.506866 13:0.0941448 14:0.509455 15:0.222264 16:-0.141788 17:-0.54532 18:0.0698864 19:-0.579638 20:-0.38458 21:-0.3205 22:-0.0584465 23:0.18309 24:0.187123 25:0.0289998 26:-0.0070812 
0 0.04297538644703282 1:0.285445 2:0.383036 3:-0.243194 4:0.212263 5:-0.317423 6:0.523115 7:0.684318 8:-0.233374 9:0.282849 10:0.0704313 11:-0.183165 12:0.585199 13:-0.00501936 14:0.477717 15:-0.0381741 16:-0.101631 17:-0.39362 18:0.306675 19:-0.308904 20:-0.380107 21:-0.0314235 22:0.211478 23:0.0348231 24:0.260692 25:-0.214421 26:0.0022809 
0.220930975472055 0.1645787893916174 1:0.438621 2:0.559692 3:-0.443758 4:-0.131382 5:-0.297508 6:0.218148 7:0.460654 8:-0.591686 9:0.0530119 10:0.00230837 11:-0.202776 12:0.750042 13:-0.181045 14:0.384571 15:-0.40122 16:0.110787 17:0.0146791 18:0.307623 19:-0.0070803 20:-0.257739 21:0.450475 22:0.530465 23:-0.143283 24:0.198776 25:-0.450357 26:0.00991173 
0.5094176274611564 0.3580650041015887 1:0.527529 2:0.663679 3:-0.55946 4:-0.275874 5:-0.18273 6:0.112822 7:0.285939 8:-0.632115 9:-0.0443442 10:0.292857 11:0.0480163 12:0.704368 13:-0.165528 14:0.300523 15:-0.615224 16:0.279303 17:0.30454 18:0.0988837 19:0.145476 20:-0.0146073 21:0.630038 22:0.599852 23:-0.358252 24:-0.0486795 25:-0.436892 26:0.00858189 
0.3841975698518632 0.3614997565120797 1:0.638116 2:0.586024 3:-0.509499 4:-0.312615 5:-0.0613506 6:-0.056063 7:0.0270723 8:-0.508131 9:0.220814 10:0.252385 11:0.218013 12:0.426724 13:-0.0120299 14:0.234504 15:-0.505783 16:0.277673 17:0.315746 18:-0.102096 19:0.260705 20:0.210442 21:0.431279 22:0.258783 23:-0.329051 24:-0.296806 25:-0.159892 26:-0.000358061 
0.3558779165327653 0.6205036113169118 1:0.717689 2:0.477524 3:-0.446878 4:-0.270948 5:-0.0740871 6:-0.179676 7:-0.227225 8:-0.44722 9:0.579371 10:0.0193179 11:0.215707 12:0.211756 13:0.0295322 14:0.203921 15:-0.189647 16:0.170096 17:0.10377 18:-0.147372 19:0.325342 20:0.304068 21:0.117338 22:-0.251588 23:-0.048281 24:-0.395383 25:0.133723 26:-0.00906698 
0.3237935002547567 0.3367298028648444 1:0.774039 2:0.394269 3:-0.402208 4:-0.240394 5:-0.141169 6:-0.271571 7:-0.35993 8:-0.33515 9:0.621158 10:-0.196555 11:0.131615 12:0.0984945 13:0.0189665 14:0.194248 15:0.0661496 16:0.05011 17:-0.112418 18:-0.0366045 19:0.371802 20:0.259282 21:-0.11657 22:-0.554477 23:0.2541 24:-0.248619 25:0.202196 26:-0.0123979 
0.04482233394142513 0 1:0.809149 2:0.342642 3:-0.397729 4:-0.245506 5:-0.133514 6:-0.271746 7:-0.355791 8:-0.286259 9:0.63761 10:-0.271667 11:0.0595652 12:0.130721 13:0.0187048 14:0.194462 15:0.152256 16:0.0345164 17:-0.137401 18:0.0349677 19:0.389628 20:0.1409 21:-0.10311 22:-0.53565 23:0.385064 24:0.02424 25:0.0507683 26:-0.00970379 
0.2811053273702345 1.082246546632142 1:0.816327 2:0.321257 3:-0.364046 4:-0.292416 5:-0.0908415 6:-0.198251 7:-0.429078 8:-0.330326 9:0.563909 10:-0.234554 11:-0.0825962 12:0.0353871 13:-0.0516928 14:0.212012 15:0.0889781 16:0.037533 17:-0.0495309 18:0.0283772 19:0.298666 20:0.120403 21:0.0298117 22:-0.293388 23:0.226197 24:0.236231 25:-0.0794587 26:-0.00600558 
0 1.626078877900746 1:0.789456 2:0.339415 3:-0.291338 4:-0.317899 5:-0.0992434 6:-0.0774467 7:-0.55939 8:-0.319445 9:0.445626 10:-0.134571 11:-0.162292 12:-0.0576426 13:-0.0981223 14:0.240602 15:0.000231988 16:-0.0321852 17:0.0448993 18:0.0151663 19:0.115667 20:0.201486 21:0.160993 22:-0.0418597 23:-0.0464143 24:0.276411 25:-0.0455246 26:-0.00565769 
0.5347917388422305 0.9008531439656846 1:0.760914 2:0.332598 3:-0.259897 4:-0.30237 5:-0.125345 6:0.0357299 7:-0.678203 8:-0.250587 9:0.300073 10:-0.167765 11:-0.0527592 12:-0.227944 13:-0.139961 14:0.283051 15:-0.030434 16:-0.114958 17:0.069664 18:0.0634954 19:-0.111468 20:0.241802 21:0.194098 22:0.14397 23:-0.160831 24:0.124874 25:0.0910177 26:-0.0046243 
0.4464862485381546 1.125858332294215 1:0.661556 2:0.297133 3:-0.22081 4:-0.209832 5:-0.123439 6:0.327005 7:-0.479567 8:-0.139574 9:0.234162 10:-0.311268 11:0.0641853 12:-0.398139 13:-0.274938 14:0.384759 15:0.060654 16:-0.0717198 17:-0.0094223 18:0.0785922 19:-0.361875 20:-0.0666551 21:-0.0303153 22:0.27241 23:0.105658 24:-0.199366 25:0.244921 26:0.00380136 
0 0.00356463667098815 1:0.620295 2:0.321436 3:-0.304943 4:-0.147749 5:-0.0946924 6:0.287189 7:-0.496004 8:0.0472481 9:0.222734 10:-0.514073 11:0.0544003 12:-0.339781 13:-0.382177 14:0.413207 15:0.0507951 16:0.0636541 17:-0.057592 18:-0.0199959 19:-0.27847 20:-0.136151 21:-0.1362 22:0.135518 23:0.2589 24:-0.163413 25:0.243179 26:0.00942903 
0.3897346114757971 0.08896991660056861 1:0.628083 2:0.35026 3:-0.339654 4:-0.0865831 5:-0.0207667 6:0.234032 7:-0.600833 8:0.0376639 9:0.344157 10:-0.479169 11:-0.0108737 12:-0.392265 13:-0.302346 14:0.409766 15:-0.0527544 16:0.149183 17:-0.122391 18:-0.094045 19:-0.187423 20:-0.0658172 21:-0.0808574 22:-0.0783641 23:0.221661 24:-0.0229081 25:0.260336 26:0.00957111 
0.2711417303570532 0.6449381698107133 1:0.62435 2:0.397507 3:-0.290359 4:-0.0193177 5:-0.0341838 6:0.220253 7:-0.594947 8:0.00480265 9:0.489318 10:-0.401425 11:-0.109828 12:-0.338286 13:-0.270688 14:0.380161 15:-0.199761 16:0.151556 17:-0.19198 18:-0.0469905 19:-0.140329 20:0.00645246 21:0.0594916 22:-0.213404 23:0.107899 24:0.110955 25:0.188474 26:0.00432552 
0 0.01279439968709902 1:0.641923 2:0.424877 3:-0.247776 4:0.0675564 5:-0.119141 6:0.151437 7:-0.600264 8:0.115473 9:0.29354 10:-0.454891 11:-0.0912516 12:-0.0926531 13:-0.0893113 14:0.226771 15:-0.300237 16:0.198117 17:-0.258338 18:0.281461 19:0.0943572 20:0.120444 21:0.15511 22:-0.0284122 23:0.0496871 24:0.0470688 25:-0.114374 26:-0.0139203 
0.01492541262262548 0.6552992169694305 1:0.659521 2:0.35443 3:-0.211398 4:0.043277 5:-0.0854153 6:0.0300643 7:-0.613978 8:0.173535 9:0.315109 10:-0.467385 11:-0.075722 12:0.00970294 13:-0.00279486 14:0.144235 15:-0.295441 16:0.312976 17:-0.263198 18:0.473802 19:0.224114 20:0.134924 21:-0.0613649 22:-0.082832 23:0.120096 24:-0.131489 25:-0.119158 26:-0.0130455 
0.6045068886518804 0.03474809590457387 1:0.62057 2:0.299723 3:-0.164778 4:0.0520808 5:-0.0540047 6:0.010267 7:-0.650296 8:0.280034 9:0.342051 10:-0.446906 11:-0.0204993 12:-0.0729148 13:-0.113709 14:0.135389 15:-0.362032 16:0.407718 17:-0.253407 18:0.445129 19:0.262017 20:0.113167 21:-0.263222 22:-0.205033 23:0.15625 24:-0.266416 25:-0.0327776 26:-0.00764028 
0.2402934423509509 0.5134223124847691 1:0.516386 2:0.260076 3:-0.00991626 4:0.0515571 5:0.0361944 6:0.2025 7:-0.506574 8:0.385934 9:0.424157 10:-0.395852 11:0.00459171 12:-0.15581 13:-0.253846 14:0.242252 15:-0.441475 16:0.310999 17:-0.183032 18:0.106562 19:0.16736 20:-0.0685397 21:-0.33073 22:-0.291432 23:0.213503 24:-0.139753 25:-0.0702873 26:-0.00182949 
0.4414869210694389 0.7608472948416385 1:0.360023 2:0.170641 3:0.193459 4:-0.0497408 5:0.306497 6:0.331808 7:-0.369498 8:0.315751 9:0.21813 10:-0.433044 11:-0.257368 12:0.136004 13:-0.203395 14:0.427514 15:-0.446841 16:0.0242254 17:-0.0245751 18:-0.464265 19:0.0983895 20:-0.158846 21:-0.160652 22:-0.129962 23:0.194943 24:0.179464 25:-0.269994 26:-0.000908744 
0.5940023166393292 0.4045712817798817 1:0.228772 2:-0.0681974 3:0.455254 4:-0.144358 5:0.649902 6:0.202568 7:-0.46488 8:0.0983074 9:-0.0640118 10:-0.319538 11:-0.395658 12:0.183485 13:-0.0624409 14:0.569717 15:-0.245656 16:-0.35592 17:0.0856918 18:-0.95649 19:0.0421953 20:-0.0471989 21:0.109901 22:0.136784 23:0.00357211 24:0.344325 25:-0.302331 26:-0.00343417 
0.6083827382265731 0.4877837384599603 1:0.181034 2:-0.31573 3:0.673093 4:-0.140603 5:0.467218 6:0.443891 7:-0.437383 8:0.157146 9:-0.00958014 10:-0.261689 11:-0.426029 12:-0.000898389 13:-0.279387 14:0.582909 15:0.107893 16:-0.643925 17:0.0514433 18:-0.864115 19:-0.217202 20:0.12293 21:0.205395 22:0.299741 23:-0.176013 24:0.263027 25:-0.00858281 26:0.0011618 
0.6857330702054825 0.5607844152388187 1:0.219619 2:-0.45887 3:0.677041 4:-0.0895971 5:0.208065 6:0.611668 7:-0.57522 8:0.129697 9:-0.0686199 10:0.0347308 11:-0.0506646 12:-0.222815 13:-0.287779 14:0.483072 15:0.419682 16:-0.728745 17:-0.0933214 18:-0.311892 19:-0.483113 20:0.275275 21:0.161505 22:0.384255 23:-0.273491 24:-0.0766903 25:0.37585 26:0.000313061 
0.5698082739836533 0.4707290173304512 1:0.2932 2:-0.656037 3:0.581511 4:-0.0208268 5:-0.0490975 6:0.781365 7:-0.330038 8:0.183679 9:-0.103719 10:-0.21457 11:-0.0337475 12:-0.188125 13:-0.205083 14:0.345095 15:0.625003 16:-0.578451 17:-0.21115 18:0.327807 19:-0.61224 20:0.0956585 21:-0.0555803 22:0.372624 23:-0.0231346 24:-0.185304 25:0.464982 26:-0.00339379 
0.5523763856052142 0.4605132534144692 1:0.305044 2:-0.722268 3:0.457845 4:-0.0985047 5:-0.263996 6:0.524869 7:-0.23004 8:0.18751 9:-0.0792374 10:-0.474804 11:-0.238886 12:-0.0481251 13:-0.224507 14:0.259163 15:0.624467 16:-0.291427 17:-0.16023 18:0.615566 19:-0.436486 20:-0.108029 21:-0.243771 22:0.217166 23:0.363871 24:-0.00911514 25:0.255106 26:-0.00846257 
0.2035407157903422 0.2589388074132464 1:0.298819 2:-0.612505 3:0.27533 4:-0.155311 5:-0.284599 6:0.319748 7:-0.132909 8:0.158823 9:0.192604 10:-0.334747 11:-0.197742 12:0.240586 13:-0.0619892 14:0.248876 15:0.531371 16:0.0700167 17:-0.038346 18:0.468154 19:-0.0728344 20:-0.149483 21:-0.198057 22:-0.0621843 23:0.459841 24:0.121305 25:-0.0285377 26:-0.013039 
0.2866858766167682 0.3133708466695033 1:0.310616 2:-0.544877 3:-0.0642899 4:-0.176734 5:-0.178984 6:0.252448 7:-0.0783458 8:0.12011 9:0.266174 10:-0.268672 11:-0.270237 12:0.274426 13:-0.382323 14:0.328394 15:0.566183 16:0.369049 17:-0.00975553 18:0.20122 19:0.208572 20:-0.0513208 21:-0.119061 22:-0.343259 23:0.341588 24:0.109211 25:-0.13692 26:-0.00197872 
0.2842480522528875 0.3839925317741473 1:0.271634 2:-0.441989 3:-0.093775 4:-0.145305 5:-0.151112 6:0.219903 7:-0.226703 8:-0.0891999 9:0.437627 10:-0.106857 11:0.00340217 12:0.177443 13:-0.331163 14:0.449947 15:0.493578 16:0.435523 17:-0.101699 18:0.0353557 19:0.357264 20:0.135216 21:0.0397462 22:-0.522381 23:0.0634036 24:-0.19382 25:-0.0963241 26:0.00491302 
0.2668640721441337 0.3511437575848068 1:0.223547 2:-0.293941 3:-0.162162 4:-0.126654 5:-0.30063 6:0.0187506 7:-0.0732766 8:-0.224207 9:0.263329 10:0.163748 11:0.0312725 12:0.431409 13:-0.397105 14:0.494713 15:0.196032 16:0.381104 17:-0.247285 18:0.0541247 19:0.397683 20:0.0881602 21:0.0843437 22:-0.40504 23:-0.140271 24:-0.336719 25:-0.160083 26:0.00708114 
0 0.1168997515398595 1:0.238267 2:0.0167765 3:-0.0893525 4:-0.10995 5:-0.230607 6:0.140334 7:0.119255 8:-0.0536997 9:0.242635 10:0.0773484 11:-0.0979697 12:0.548434 13:-0.406457 14:0.378496 15:-0.335619 16:0.251092 17:-0.28952 18:0.109625 19:0.319198 20:0.00513573 21:-0.000859554 22:-0.144141 23:-0.122779 24:-0.161581 25:-0.1622 26:0.00342585 
0.2036357066414072 0.2439292099216727 1:0.512667 2:0.467574 3:-0.119475 4:-0.283978 5:-0.215293 6:0.389038 7:0.157783 8:-0.376178 9:-0.0863959 10:0.269373 11:-0.389159 12:0.453124 13:-0.263861 14:-0.0803145 15:-0.794471 16:0.13437 17:0.0930594 18:0.239551 19:-0.136644 20:-0.0690797 21:0.157963 22:0.152504 23:-0.236243 24:0.402433 25:-0.105619 26:1.55457e-006 
0.1540552797315882 0.1129921667090962 1:0.410822 2:0.358863 3:-0.0478537 4:-0.388732 5:-0.205179 6:0.472129 7:0.215847 8:-0.463871 9:-0.0880053 10:0.212144 11:-0.337828 12:0.468244 13:-0.302621 14:-0.0422197 15:-0.476631 16:0.0168946 17:0.313842 18:0.223159 19:-0.484276 20:-0.198566 21:0.444973 22:0.101657 23:-0.167698 24:0.319794 25:-0.183758 26:0.00106925 
0.3244751069930295 0.297163593649001 1:0.201434 2:0.352471 3:0.0400729 4:-0.379502 5:-0.0631943 6:0.674099 7:0.452411 8:-0.468466 9:0.050566 10:0.16936 11:-0.152653 12:0.57608 13:-0.29068 14:0.188995 15:-0.212342 16:-0.129111 17:0.30839 18:0.14516 19:-0.587505 20:-0.411932 21:0.5623 22:0.0347971 23:-0.026776 24:0.058181 25:-0.358621 26:-0.00169297 
0.7560293185920597 0.6267573621306711 1:-0.0371617 2:0.427149 3:0.0382326 4:-0.317301 5:0.0623651 6:0.643997 7:0.407773 8:-0.599039 9:-0.065852 10:-0.0781795 11:-0.042296 12:0.462221 13:-0.125189 14:0.500584 15:-0.15017 16:-0.339121 17:0.0312149 18:-0.0518504 19:-0.406386 20:-0.47532 21:0.424831 22:0.138451 23:0.25819 24:-0.272544 25:-0.325478 26:-0.00796677 
0.5220443538131461 0.5091291913160103 1:-0.14792 2:0.416665 3:0.059057 4:-0.0747969 5:0.141302 6:0.3548 7:0.32822 8:-0.304792 9:-0.371608 10:-0.119576 11:0.0418119 12:0.352141 13:0.042655 14:0.727803 15:-0.21115 16:-0.448557 17:-0.347847 18:-0.295008 19:-0.0484732 20:-0.403689 21:-0.0565447 22:0.358837 23:0.412621 24:-0.54546 25:-0.0131476 26:-0.0162451 
0.4850300144575308 0.3875025921321806 1:-0.21681 2:0.315292 3:-0.000884742 4:-0.00315898 5:0.181543 6:0.019002 7:0.00389728 8:0.0301361 9:0.00394509 10:-0.0110059 11:-0.0939442 12:0.0513055 13:-0.175441 14:0.794316 15:-0.152172 16:-0.315844 17:-0.475299 18:-0.413871 19:0.254756 20:-0.121653 21:-0.571504 22:0.378702 23:0.368543 24:-0.526493 25:0.420098 26:-0.0121239 
0.283991352011216 0.4758699651085722 1:-0.267624 2:0.244439 3:-0.117909 4:-0.0562204 5:0.278226 6:0.326723 7:0.00694708 8:-0.152644 9:-0.0624397 10:0.00242476 11:-0.0394855 12:-0.0409717 13:-0.202237 14:0.743693 15:-0.0052136 16:0.0997908 17:-0.116654 18:-0.437068 19:0.20458 20:0.262267 21:-0.563723 22:0.290619 23:0.16582 24:-0.215365 25:0.525085 26:0.000327797 
0.700240168327271 0.8281412670121982 1:-0.0945092 2:0.241289 3:-0.517109 4:-0.223832 5:0.130001 6:0.268867 7:-0.133003 8:-0.150904 9:0.131227 10:0.151905 11:-0.48165 12:0.0417489 13:-0.117787 14:0.615713 15:0.0594365 16:0.624953 17:0.366368 18:-0.272757 19:0.0581985 20:0.63294 21:-0.254334 22:-0.083437 23:-0.129153 24:0.337817 25:0.232652 26:0.00772298 
0.6529870293748371 0.5169130028064501 1:0.157815 2:0.194603 3:-0.571491 4:-0.251508 5:-0.0809615 6:0.138451 7:-0.431978 8:-0.439935 9:0.319499 10:0.272193 11:-0.832905 12:0.274036 13:-0.363263 14:0.483329 15:-0.00666931 16:0.803851 17:0.53277 18:-0.0335406 19:-0.128103 20:0.862636 21:0.272281 22:-0.471355 23:-0.291558 24:0.769135 25:-0.203648 26:0.00623601 
0.6606074069788716 0.5206650852991628 1:0.170536 2:0.150264 3:-0.413224 4:-0.105977 5:-0.0771482 6:0.185787 7:-0.332859 8:-0.594487 9:0.608765 10:0.354266 11:-0.76462 12:0.417843 13:-0.257132 14:0.406169 15:-0.146758 16:0.536482 17:0.218191 18:0.123262 19:-0.331476 20:0.618819 21:0.515855 22:-0.646395 23:-0.28924 24:0.751403 25:-0.44786 26:-0.0118149 
0.002328068814412563 0.4376190699296916 1:0.34116 2:0.224052 3:-0.119259 4:0.443089 5:-0.247531 6:0.281501 7:0.288122 8:-0.403435 9:0.432579 10:0.0726618 11:-0.332027 12:0.15103 13:0.186034 14:0.278247 15:-0.261347 16:0.0374026 17:-0.349608 18:0.304206 19:-0.405552 20:0.0364417 21:0.361318 22:-0.489027 23:-0.0922514 24:0.364185 25:-0.25737 26:-0.0303268 
0.1798801646368179 0.5786823390395768 1:0.646328 2:0.157698 3:-0.00682921 4:0.44719 5:-0.311734 6:0.126659 7:0.431914 8:-0.359379 9:0.207866 10:-0.00543951 11:-0.261699 12:0.0520229 13:-0.0843777 14:0.105881 15:-0.172318 16:-0.318824 17:-0.528178 18:0.407296 19:-0.282909 20:-0.347426 21:0.223231 22:-0.0386794 23:0.0914086 24:-0.0551685 25:0.092463 26:-0.0258701 
0.3927330955677961 0.2445005294146535 1:0.767646 2:0.00673981 3:0.0503758 4:0.400087 5:-0.342001 6:-0.145906 7:0.509969 8:-0.358865 9:0.0673121 10:-0.00545438 11:-0.0302459 12:0.00306158 13:-0.399344 14:-0.0216916 15:0.0714456 16:-0.368101 17:-0.393686 18:0.50318 19:0.0292143 20:-0.44187 21:0.0762914 22:0.398347 23:0.170386 24:-0.370676 25:0.430428 26:-0.00417867 
0.3784530579812699 0.3335795477136627 1:0.786552 2:-0.0844777 3:0.0526356 4:0.435157 5:-0.32288 6:-0.379786 7:0.512924 8:-0.289862 9:0.0507269 10:-0.0927082 11:0.0978451 12:-0.0407199 13:-0.646221 14:-0.0742348 15:0.287025 16:-0.217555 17:-0.210247 18:0.531951 19:0.331937 20:-0.340736 21:-0.00850989 22:0.602303 23:0.159117 24:-0.471542 25:0.536412 26:0.0248653 
0.2560164646664817 0.2232163264074031 1:0.774721 2:-0.0807463 3:0.0325666 4:0.502007 5:-0.20358 6:-0.407771 7:0.564837 8:-0.193769 9:0.0835103 10:-0.158262 11:0.149631 12:-0.0197931 13:-0.723116 14:-0.00211464 15:0.338848 16:-0.0389228 17:-0.137867 18:0.333782 19:0.443641 20:-0.269697 21:-0.0838102 22:0.518153 23:0.0842825 24:-0.418445 25:0.28677 26:0.0373778 
0.8377570592945125 1.115489060747169 1:0.705163 2:-0.0226287 3:-0.000113036 4:0.575531 5:-0.0383612 6:-0.30399 7:0.710979 8:-0.0862285 9:0.2426 10:-0.147926 11:0.103175 12:0.223342 13:-0.672863 14:0.145967 15:0.172032 16:0.0310539 17:-0.225545 18:-0.0205893 19:0.294651 20:-0.344689 21:-0.131589 22:0.238265 23:0.0726019 24:-0.244967 25:-0.0921964 26:0.0251089 
0.67374985262722 0.7659396026844673 1:0.57711 2:0.0615267 3:-0.0340406 4:0.544721 5:0.16739 6:-0.381437 7:0.62494 8:-0.140453 9:0.524668 10:-0.142457 11:-0.0993245 12:0.528156 13:-0.398335 14:0.326654 15:-0.0985846 16:0.0262925 17:-0.190018 18:-0.39544 19:0.0913259 20:-0.201623 21:-0.0391685 22:-0.196135 23:0.113999 24:0.0122036 25:-0.360067 26:0.000316702 
0.2562120468129666 0.2966887250643427 1:0.405397 2:0.110284 3:0.03472 4:0.505166 5:0.321343 6:-0.320232 7:0.391367 8:-0.141303 9:0.685307 10:-0.257501 11:-0.179967 12:0.526489 13:-0.0583342 14:0.536524 15:-0.300151 16:0.00169892 17:-0.0871602 18:-0.644332 19:-0.0979004 20:0.13341 21:0.0102049 22:-0.623445 23:0.141675 24:0.150205 25:-0.366319 26:-0.0220147 
0.5863475853400069 0.5229069056640288 1:0.316876 2:0.175768 3:0.0239748 4:0.498325 5:0.278954 6:-0.066132 7:0.376787 8:-0.167162 9:0.830537 10:-0.30612 11:-0.198475 12:0.248646 13:-0.0374478 14:0.667656 15:-0.394248 16:0.0813226 17:-0.039182 18:-0.643708 19:-0.224777 20:0.330804 21:-0.0301387 22:-0.808466 23:0.160975 24:0.19978 25:-0.202144 26:-0.0257796 
0.09169325146961073 0.3034528543619129 1:0.307209 2:0.156962 3:-0.0725885 4:0.512846 5:0.106119 6:-0.187453 7:0.309539 8:-0.0329293 9:0.782152 10:-0.206947 11:-0.107323 12:0.354814 13:-0.0676003 14:0.649832 15:-0.353629 16:0.267936 17:-0.0992984 18:-0.441822 19:-0.125903 20:0.319669 21:-0.115542 22:-0.608283 23:0.161178 24:0.218158 25:-0.12083 26:-0.0124406 
0.4048530357065119 0.8255254725554693 1:0.377173 2:0.0455995 3:-0.0912065 4:0.556149 5:0.0418452 6:-0.316025 7:0.458679 8:-0.0108754 9:0.501411 10:-0.125789 11:-0.231436 12:0.515254 13:-0.192837 14:0.497684 15:-0.212159 16:0.388875 17:-0.250166 18:-0.160871 19:0.0443268 20:0.0419118 21:-0.0705931 22:-0.146865 23:0.20239 24:0.275618 25:-0.0825721 26:0.009073 
0.5089843819429012 0.5704641111934551 1:0.529929 2:0.00539251 3:0.0289246 4:0.553041 5:-0.187677 6:-0.216177 7:0.662208 8:-0.195243 9:0.12445 10:-0.308279 11:-0.201412 12:0.292285 13:-0.231804 14:0.279284 15:-0.0735547 16:0.310022 17:-0.349519 18:0.235784 19:0.175867 20:-0.246057 21:0.146093 22:0.253985 23:0.32254 24:0.228184 25:0.0470903 26:0.0207593 
0.09896100860661233 0.02393142357344575 1:0.605156 2:-0.0495569 3:0.165537 4:0.510762 5:-0.401129 6:-0.184004 7:0.562633 8:-0.256567 9:0.159849 10:-0.157126 11:-0.00422193 12:0.0926154 13:-0.115985 14:0.112591 15:0.115088 16:0.00535032 17:-0.357912 18:0.568727 19:0.231995 20:-0.29267 21:0.298515 22:0.304972 23:0.345037 24:0.0242466 25:0.1799 26:0.0121165 
0.2848344002443708 0.2903408902984072 1:0.616866 2:-0.131001 3:0.35297 4:0.418031 5:-0.506226 6:-0.134162 7:0.539105 8:-0.122041 9:0.156778 10:0.0315367 11:0.214647 12:0.219849 13:0.161083 14:0.0553587 15:0.309474 16:-0.40794 17:-0.226747 18:0.640466 19:0.0839997 20:-0.207135 21:0.202208 22:0.161879 23:0.258394 24:-0.243248 25:0.216228 26:-0.00793854 
0.3933272733529689 0.3024612673450857 1:0.605791 2:-0.171062 3:0.449179 4:0.272075 5:-0.463512 6:-0.0203047 7:0.498174 8:-0.0422951 9:0.102666 10:0.201252 11:0.261482 12:0.32081 13:0.421833 14:0.134917 15:0.311139 16:-0.561635 17:-0.0124669 18:0.440893 19:-0.158616 20:-0.0474345 21:-0.0159826 22:-0.0628271 23:0.102257 24:-0.43428 25:0.118344 26:-0.0275799 
0.3289624504381168 0.4438768093983613 1:0.513041 2:-0.142667 3:0.447413 4:0.186811 5:-0.275454 6:0.15584 7:0.41271 8:-0.0244394 9:0.0294166 10:0.350807 11:0.20584 12:0.27703 13:0.483776 14:0.33247 15:0.089302 16:-0.342193 17:0.148855 18:-0.00418913 19:-0.34134 20:0.0179249 21:-0.193803 22:-0.153698 23:-0.10801 24:-0.366589 25:-0.0556467 26:-0.0298166 
0.02473747587722892 0 1:0.36202 2:0.0297452 3:0.246713 4:0.0639889 5:-0.167365 6:0.266 7:0.329329 8:0.0697042 9:-0.0298539 10:0.55657 11:0.182202 12:0.275401 13:0.294651 14:0.534436 15:-0.244128 16:0.103717 17:0.21186 18:-0.332271 19:-0.369233 20:-0.00928974 21:-0.257114 22:-0.0141737 23:-0.309636 24:-0.106643 25:-0.175585 26:-0.0147229 
0.2044836493222313 0.1037348778528661 1:0.297776 2:0.174755 3:-0.039993 4:0.114426 5:-0.258103 6:0.118834 7:0.385822 8:-0.0680425 9:-0.0384203 10:0.645661 11:0.0292866 12:0.417712 13:0.240282 14:0.611804 15:-0.404276 16:0.447994 17:0.133418 18:-0.359974 19:-0.219151 20:0.00422466 21:-0.142156 22:0.162268 23:-0.465764 24:0.261409 25:-0.256857 26:0.00175196 
0.2866840323197307 0.2506124536955943 1:0.373957 2:0.00288548 3:0.113486 4:0.14855 5:-0.223205 6:-0.0311079 7:0.341049 8:-0.0671452 9:-0.336458 10:0.744476 11:-0.206021 12:0.397479 13:0.0358474 14:0.520357 15:-0.190619 16:0.324656 17:0.0337172 18:-0.202949 19:-0.103822 20:0.112565 21:-0.0157926 22:0.351117 23:-0.514228 24:0.548909 25:-0.236053 26:0.0104184 
0 0.02887362867097106 1:0.559812 2:-0.0316586 3:0.311785 4:0.153808 5:-0.486521 6:0.108203 7:0.157844 8:-0.231528 9:-0.039666 10:0.332941 11:0.136083 12:0.143966 13:0.264248 14:0.218066 15:0.265854 16:-0.381885 17:-0.0712947 18:0.389542 19:-0.241643 20:0.12646 21:0.331958 22:0.172222 23:-0.135426 24:0.144688 25:0.242046 26:-0.00976435 
0.1601803208098707 0.03528980913350414 1:0.558988 2:0.0708666 3:0.162553 4:0.273057 5:-0.466464 6:-0.256164 7:0.41935 8:-0.149433 9:-0.0387389 10:-0.00294245 11:0.569721 12:0.0426837 13:0.167347 14:0.177979 15:0.077351 16:-0.163481 17:-0.259793 18:0.482256 19:0.182279 20:-0.159281 21:0.0584555 22:0.032498 23:0.375261 24:-0.603837 25:0.439987 26:-0.0130826 
0.1551451296752423 0.3370891782078514 1:0.526088 2:0.263044 3:-0.163592 4:0.257988 5:-0.17902 6:-0.360131 7:0.163689 8:0.0104599 9:0.283268 10:-0.331736 11:0.351959 12:0.427675 13:-0.0282393 14:0.109117 15:-0.207787 16:0.314835 17:-0.227656 18:-0.0757693 19:0.474683 20:0.287791 21:-0.206921 22:-0.164256 23:0.636608 24:-0.180547 25:-0.142012 26:0.00496853 
0.1424206922486785 0.0352953580980155 1:0.439632 2:0.344138 3:-0.194724 4:0.174993 5:-0.00781457 6:-0.257109 7:0.207677 8:-0.0857438 9:0.386604 10:-0.216536 11:0.175636 12:0.574796 13:-0.159444 14:0.176338 15:-0.220363 16:0.382541 17:-0.16021 18:-0.346107 19:0.19716 20:0.345653 21:-0.101421 22:-0.293057 23:0.467367 24:0.0967145 25:-0.307162 26:0.00991874 
0.01491823601080801 0.473840529068455 1:-0.0428109 2:0.351065 3:-0.119426 4:0.070776 5:-0.0330909 6:0.06578 7:0.597489 8:-0.0844899 9:0.372105 10:0.289587 11:0.145913 12:0.507564 13:-0.0429069 14:0.713463 15:0.143126 16:-0.0525122 17:-0.237758 18:-0.00148905 19:-0.125177 20:-0.393302 21:-0.0603411 22:-0.170843 23:-0.261751 24:-0.100906 25:-0.0285071 26:-0.0109918 
0.124515689391909 0.01853814814045657 1:0.0203498 2:0.54947 3:0.00888502 4:-0.0706497 5:-0.089674 6:0.0305717 7:0.673397 8:-0.293019 9:0.232578 10:0.277959 11:-0.0539164 12:0.645265 13:-0.00640865 14:0.654024 15:-0.0381395 16:-0.275732 17:-0.0262976 18:0.0492685 19:0.0437512 20:-0.335316 21:0.0280135 22:-0.10749 23:-0.121996 24:0.0554295 25:-0.149355 26:-0.00777934 
0.2196318803577728 0.05696916967541905 1:0.11099 2:0.656949 3:0.00298919 4:-0.240669 5:0.0418786 6:0.124101 7:0.486879 8:-0.247593 9:0.0918427 10:0.180041 11:-0.32956 12:0.677028 13:-0.298454 14:0.503049 15:-0.262694 16:-0.324449 17:0.258492 18:-0.118205 19:0.0985786 20:-0.149284 21:0.11388 22:-0.0412699 23:0.0338923 24:0.329838 25:-0.204156 26:0.00585396 
0.2475393811470174 0.07292960291533666 1:0.196514 2:0.698324 3:-0.0770539 4:-0.314871 5:0.0155758 6:0.309533 7:0.46535 8:-0.341903 9:0.0954658 10:0.157727 11:-0.243357 12:0.548772 13:-0.372539 14:0.354603 15:-0.400024 16:-0.176311 17:0.385864 18:-0.20066 19:0.01635 20:-0.0748345 21:0.207215 22:0.0632579 23:0.0592921 24:0.388944 25:-0.0324137 26:0.0105059 
0.1945099120729897 0.1648096065455614 1:0.439939 2:0.662583 3:-0.309941 4:-0.00797535 5:-0.356703 6:0.443989 7:0.611261 8:-0.344516 9:0.391293 10:-0.110826 11:0.194941 12:0.797106 13:0.00404875 14:0.0784789 15:-0.303733 16:0.25611 17:-0.16433 18:0.446197 19:-0.0479292 20:-0.300048 21:0.275925 22:-0.182913 23:0.285152 24:-0.0678805 25:-0.148356 26:-0.00836382 
0.248895980365419 0.1862888483472104 1:0.414491 2:0.601883 3:-0.164002 4:-0.106606 5:-0.147698 6:0.317349 7:0.633421 8:-0.268522 9:0.518388 10:-0.118356 11:0.0809343 12:0.952318 13:0.0529041 14:0.0415983 15:-0.236181 16:0.0715737 17:0.0018783 18:0.176611 19:0.00179047 20:-0.300042 21:0.190353 22:-0.578392 23:0.41531 24:0.147058 25:-0.540138 26:-0.0152517 
0.4660431467640495 0.3474399598059924 1:0.298002 2:0.495538 3:0.0507243 4:-0.168257 5:0.0266328 6:0.298366 7:0.623335 8:-0.118051 9:0.651311 10:-0.198326 11:0.0646603 12:0.925404 13:0.132734 14:0.15563 15:-0.0697724 16:-0.165098 17:0.185859 18:-0.0770895 19:-0.0690775 20:-0.233507 21:0.0101447 22:-0.722035 23:0.370744 24:0.219405 25:-0.64239 26:-0.0150784 
0.06078675003058638 0.1763490902305946 1:0.0722546 2:0.424993 3:0.142033 4:-0.175429 5:0.153449 6:0.290585 7:0.628722 8:0.000879849 9:0.559998 10:-0.0230869 11:0.104401 12:0.813944 13:0.0392418 14:0.390184 15:0.0407539 16:-0.27719 17:0.232634 18:-0.166234 19:-0.114641 20:-0.19713 21:-0.0996287 22:-0.308764 23:0.112141 24:0.0987989 25:-0.368956 26:-0.00516878 
0 0.07947166876749062 1:-0.160243 2:0.402849 3:0.0646929 4:-0.0794389 5:0.161588 6:0.246271 7:0.402868 8:0.0193767 9:0.0257159 10:0.388343 11:0.275603 12:0.659531 13:-0.0186304 14:0.597764 15:0.0538158 16:-0.232128 17:0.0556491 18:-0.104465 19:0.0781157 20:-0.0688654 21:-0.0956692 22:0.390813 23:-0.149994 24:-0.16434 25:0.0692033 26:0.00368807 
0.2165021982712491 0.1011424132439648 1:-0.194874 2:0.441126 3:0.0693453 4:0.0145426 5:0.146278 6:-0.0440802 7:0.412913 8:0.0760815 9:-0.262171 10:0.187568 11:0.340053 12:0.340827 13:-0.131749 14:0.691283 15:-0.0977281 16:-0.0280692 17:-0.205768 18:-0.0852805 19:0.456037 20:0.00873262 21:-0.040314 22:0.627321 23:-0.109037 24:-0.346368 25:0.487804 26:0.00265149 
0.2490986997990752 0.2633562201932289 1:-0.219322 2:0.3634 3:0.0904212 4:0.153754 5:0.375391 6:-0.100534 7:0.412042 8:0.087985 9:0.0165603 10:0.129026 11:0.239656 12:0.240745 13:-0.0350859 14:0.70626 15:-0.109667 16:0.157515 17:-0.442922 18:-0.255433 19:0.611532 20:0.108578 21:-0.0228633 22:0.286005 23:-0.0174128 24:-0.286365 25:0.587162 26:-0.00753203 
0.1180515196949658 0.2500651053934674 1:-0.181259 2:0.333443 3:0.0507035 4:0.152992 5:0.396731 6:0.0389959 7:0.161775 8:0.138099 9:0.418194 10:0.25507 11:0.154428 12:0.468532 13:0.194106 14:0.634035 15:0.0611134 16:0.190729 17:-0.484481 18:-0.321372 19:0.426952 20:0.264899 21:-0.131415 22:-0.183889 23:-0.0165893 24:-0.0528665 25:0.312705 26:-0.0176208 
0.09502205270836979 0.09132398028383977 1:0.0454438 2:0.144949 3:0.261734 4:0.0212588 5:0.229715 6:0.57256 7:0.266818 8:0.20459 9:-0.0961533 10:0.272099 11:-0.157325 12:0.656737 13:-0.288095 14:0.330012 15:0.454158 16:-0.175875 17:-0.141657 18:-0.0432776 19:-0.32285 20:0.151191 21:-0.249858 22:0.000214655 23:-0.211964 24:0.424389 25:-0.252428 26:0.00215122 
0.2036417192650321 0.4257753567315212 1:0.244176 2:0.309872 3:0.291901 4:-0.142154 5:0.144599 6:0.568139 7:0.329959 8:0.126476 9:0.0343422 10:0.250869 11:-0.0704256 12:0.694004 13:-0.261549 14:0.163848 15:0.20295 16:-0.253847 17:0.0145656 18:0.0950063 19:-0.340063 20:-0.0126726 21:-0.19502 22:0.111968 23:-0.173932 24:0.335966 25:-0.242666 26:0.00861544 
0.1182722406706541 0.4395117177546308 1:0.267995 2:0.562947 3:0.114735 4:-0.188953 5:0.16016 6:0.696863 7:0.380861 8:-0.0221586 9:0.202972 10:0.108896 11:0.0713342 12:0.605559 13:-0.218831 14:0.129794 15:-0.220739 16:-0.111114 17:-0.00236024 18:0.0490497 19:-0.327549 20:-0.234676 21:-0.100226 22:-0.00107673 23:-0.0338554 24:0.106062 25:-0.10117 26:0.00308893 
