svm_type c_svc
kernel_type rbf
gamma 0.03125
nr_class 3
total_sv 4212
rho -0.13862 -1.32614 -1.06387
label 0 1 2
nr_sv 1453 1266 1493
SV
0.125 0.125 1:-0.129495 2:0.466078 3:-0.439863 4:0.095183 5:-0.088447 6:0.252992 7:0.0388017 8:-0.359906 9:0.337678 10:-0.0950509 11:0.0185176 12:-0.0173867 13:-0.194935 14:0.292348 15:-0.14735 16:-0.00485478 17:0.00781304 18:0.00810703 19:-0.0463256 20:-0.0501867 21:0.0121554 22:-0.118941 23:0.0525929 24:0.00972826 25:-0.0407702 26:-0.0265447 
0.125 0.125 1:0.242721 2:0.439117 3:-0.394612 4:0.102018 5:-0.0426618 6:0.262689 7:0.116232 8:-0.436241 9:0.601395 10:-0.0950523 11:-0.105575 12:-0.00738332 13:-0.334264 14:0.292348 15:-0.14735 16:-0.00485478 17:0.00781304 18:0.00810703 19:-0.0463256 20:-0.0501867 21:0.0121554 22:-0.118941 23:0.0525929 24:0.00972826 25:-0.0407702 26:-0.0265447 
0.125 0.125 1:0.245169 2:0.339776 3:-0.281325 4:0.0679306 5:0.0369966 6:0.253984 7:0.23019 8:-0.499722 9:0.600225 10:-0.0644222 11:-0.412388 12:0.00194406 13:-0.464276 14:0.292348 15:-0.14735 16:-0.00485478 17:0.00781304 18:0.00810703 19:-0.0463256 20:-0.0501867 21:0.0121554 22:-0.118941 23:0.0525929 24:0.00972826 25:-0.0407702 26:-0.0265447 
0.125 0.125 1:0.135217 2:0.109788 3:-0.0925452 4:-0.0128804 5:0.11975 6:0.124132 7:0.155041 8:-0.538837 9:0.322201 10:-0.174637 11:-0.770849 12:-0.1239 13:-0.498102 14:0.292348 15:-0.14735 16:-0.00485478 17:0.00781304 18:0.00810703 19:-0.0463256 20:-0.0501867 21:0.0121554 22:-0.118941 23:0.0525929 24:0.00972826 25:-0.0407702 26:-0.0265447 
0.125 0.125 1:0.0959483 2:-0.241596 3:0.0774117 4:0.219736 5:0.275711 6:0.155684 7:0.0977489 8:-0.416801 9:0.460962 10:-0.440065 11:-0.580585 12:-0.225863 13:-0.363763 14:0.259843 15:0.122152 16:-0.429234 17:0.060774 18:-0.54567 19:-0.20351 20:0.0816025 21:0.234953 22:-0.195638 23:-0.0160046 24:0.748495 25:0.233223 26:-0.0252248 
0.125 0.125 1:0.0954484 2:-0.377209 3:0.0622201 4:0.258299 5:0.191348 6:-0.089188 7:0.105389 8:-0.238657 9:0.318371 10:-0.538312 11:-0.0864733 12:0.035866 13:-0.460608 14:0.370887 15:0.420115 16:-0.466976 17:-0.0677759 18:-0.462835 19:0.117257 20:0.0758409 21:-0.0533631 22:-0.0783971 23:0.195172 24:0.210601 25:-0.0235874 26:-0.0170861 
0.125 0.125 1:0.100048 2:-0.432588 3:0.0394472 4:0.255277 5:0.000397248 6:-0.296973 7:0.266201 8:0.0160639 9:0.29745 10:-0.525158 11:0.198179 12:0.174981 13:-0.833957 14:0.406589 15:0.533725 16:-0.367632 17:-0.0166723 18:-0.192505 19:0.400958 20:-0.0451368 21:-0.25637 22:-0.0769754 23:0.44402 24:-0.312167 25:-0.335637 26:-0.00902103 
0.125 0.125 1:0.0907909 2:-0.479805 3:-0.0318905 4:0.37975 5:-0.189202 6:-0.301298 7:0.327013 8:-0.0587373 9:0.244956 10:-0.69074 11:0.405056 12:0.135989 13:-0.62545 14:0.458892 15:0.41787 16:-0.15607 17:0.103157 18:0.048345 19:0.439959 20:-0.132883 21:-0.218949 22:-0.112 23:0.655759 24:-0.56767 25:-0.451052 26:-0.0153444 
0.125 0.125 1:0.0437124 2:-0.465263 3:-0.206212 4:0.288436 5:-0.183635 6:-0.222528 7:0.283461 8:-0.116982 9:0.124997 10:-1 11:0.349931 12:0.0527406 13:-0.277874 14:0.503529 15:0.109504 16:0.0586629 17:0.259737 18:0.0842667 19:0.30455 20:-0.101527 21:-0.108601 22:-0.108011 23:0.707036 24:-0.464955 25:-0.322129 26:-0.0267841 
0.125 0.125 1:0.176328 2:-0.136296 3:-0.225868 4:0.354527 5:-0.310212 6:-0.153033 7:0.245006 8:-0.00874789 9:0.223132 10:-0.488042 11:0.455708 12:0.0424472 13:-0.196213 14:0.430751 15:-0.309586 16:0.1337 17:0.151484 18:0.0608655 19:0.0787871 20:-0.0522155 21:-0.0881411 22:-0.211105 23:0.327306 24:-0.274055 25:-0.0804097 26:-0.0302522 
0.125 0.125 1:0.324467 2:-0.0322437 3:-0.347204 4:0.66961 5:-0.407987 6:-0.080556 7:0.38711 8:0.0476468 9:0.156914 10:-0.227278 11:0.325545 12:-0.194372 13:-0.377738 14:0.284379 15:-0.53183 16:0.189231 17:-0.136237 18:0.101902 19:-0.0526273 20:-0.0959384 21:-0.0957773 22:-0.205409 23:-0.0374608 24:-0.0377002 25:0.151355 26:-0.0235682 
0.125 0.125 1:0.44654 2:-0.109635 3:-0.305123 4:0.736033 5:-0.505374 6:-0.0407887 7:0.398236 8:-0.0317292 9:-0.0171241 10:-0.261855 11:0.209674 12:-0.196851 13:-0.329403 14:0.131492 15:-0.470646 16:0.156766 17:-0.284107 18:0.230797 19:-0.0905282 20:-0.138014 21:-0.0550573 22:-0.116088 23:-0.174103 24:0.145645 25:0.173546 26:-0.0183054 
0 0.125 1:0.51916 2:-0.164211 3:-0.336846 4:0.730403 5:-0.612687 6:0.0470166 7:0.366066 8:-0.0825598 9:-0.0582322 10:-0.198048 11:0.183813 12:-0.182043 13:-0.0797879 14:0.0212196 15:-0.245276 16:0.116864 17:-0.28445 18:0.331483 19:-0.153626 20:-0.126867 21:0.0538846 22:-0.0575477 23:-0.147403 24:0.201948 25:0.0575733 26:-0.0243515 
0 0.125 1:0.541215 2:-0.203486 3:-0.375443 4:0.732236 5:-0.630138 6:0.0916462 7:0.358193 8:-0.0905797 9:-0.0866799 10:-0.0861906 11:0.24267 12:-0.173648 13:0.155026 14:-0.0350101 15:-0.00219406 16:0.083533 17:-0.145247 18:0.259144 19:-0.216499 20:-0.0838672 21:0.0874735 22:-0.0772581 23:-0.0877875 24:0.134984 25:-0.102847 26:-0.0375653 
0 0.125 1:0.527796 2:-0.20649 3:-0.302519 4:0.730729 5:-0.564321 6:0.137528 7:0.363639 8:-0.0902741 9:-0.166722 10:0.00109268 11:0.312239 12:-0.141674 13:0.174236 14:-0.0641693 15:0.0617441 16:-0.0118052 17:-0.0602048 18:0.140303 19:-0.236253 20:0.0108518 21:0.0388302 22:-0.166481 23:-0.151161 24:-0.0844035 25:-0.221134 26:-0.0469537 
0 0.125 1:0.4428 2:-0.20372 3:-0.262242 4:0.734803 5:-0.510691 6:0.141542 7:0.367409 8:-0.0426438 9:-0.171818 10:0.042303 11:0.32952 12:-0.209418 13:0.151497 14:-0.0178023 15:0.0048632 16:-0.0335984 17:-0.124553 18:0.0730375 19:-0.176149 20:-0.00361775 21:-0.056574 22:-0.222692 23:-0.116053 24:-0.17458 25:-0.0642753 26:-0.0422399 
0 0.125 1:0.271182 2:-0.152398 3:-0.294143 4:0.730758 5:-0.546632 6:0.0857342 7:0.364134 8:-0.0135669 9:-0.215494 10:0.0319151 11:0.377849 12:-0.318371 13:0.184127 14:0.124237 15:-0.115283 16:0.024448 17:-0.209865 18:0.114242 19:-0.0745111 20:-0.106802 21:-0.0847402 22:-0.12174 23:-0.028266 24:-0.134223 25:0.212633 26:-0.0287206 
0 0.125 1:-0.19322 2:-0.0304874 3:-0.306199 4:0.596972 5:-0.435758 6:0.0731581 7:0.505841 8:-0.103436 9:-0.489611 10:-0.0350949 11:0.000250978 12:-0.406607 13:-0.282962 14:0.511327 15:-0.277201 16:0.0596179 17:-0.144599 18:0.125831 19:0.0375392 20:-0.378418 21:0.100015 22:0.246935 23:0.0862326 24:0.107611 25:0.321792 26:-0.00559454 
0.125 0.125 1:-0.311984 2:-0.0452501 3:-0.2233 4:0.490687 5:-0.36209 6:0.0947272 7:0.337783 8:-0.154172 9:-0.471724 10:0.155019 11:0.254101 12:-0.133276 13:0.0728189 14:0.68939 15:-0.316308 16:-0.132829 17:-0.0993159 18:-0.0994848 19:0.0130889 20:-0.251451 21:0.146334 22:0.162806 23:0.0964604 24:-0.112143 25:0.103444 26:-0.0183285 
0.125 0.125 1:-0.386251 2:-0.0611054 3:-0.119266 4:0.385517 5:-0.291624 6:0.0470418 7:0.172211 8:-0.177224 9:-0.357219 10:-0.108155 11:0.250287 12:0.0358614 13:0.297076 14:0.789744 15:-0.330856 16:-0.285254 17:-0.0791478 18:-0.328101 19:-0.0139282 20:-0.00187933 21:0.12941 22:-0.0840567 23:0.28855 24:-0.251491 25:-0.0487859 26:-0.0314086 
0.125 0.125 1:-0.434334 2:-0.0170793 3:-0.177504 4:0.310994 5:-0.1907 6:0.07844 7:0.0484166 8:-0.0757867 9:-0.121188 10:-0.114043 11:0.290685 12:-0.0463105 13:0.485982 14:0.722625 15:-0.343815 16:-0.157884 17:-0.0326958 18:-0.363096 19:-0.0176267 20:0.222854 21:0.10253 22:-0.415724 23:0.381959 24:-0.22177 25:-0.179052 26:-0.0360517 
0.125 0.125 1:-0.351971 2:-0.0750338 3:-0.245193 4:0.223207 5:-0.214211 6:0.179974 7:0.0696372 8:-0.0301336 9:-0.272676 10:0.148102 11:-0.143005 12:0.0763824 13:0.185057 14:0.451018 15:-0.312731 16:0.0972725 17:0.15076 18:-0.109508 19:0.0101355 20:0.360382 21:0.132712 22:-0.46444 23:0.284775 24:0.100878 25:-0.521018 26:-0.0243871 
0 0.125 1:0.0467152 2:-0.264869 3:-0.453922 4:-0.0464931 5:-0.464898 6:0.0834587 7:0.0367688 8:-0.0830515 9:-0.277971 10:0.216658 11:-0.309577 12:0.307422 13:0.247893 14:0.0945586 15:-0.0848804 16:0.392173 17:0.586755 18:0.136049 19:0.0426508 20:0.366815 21:0.0896817 22:-0.278309 23:0.0277252 24:0.416748 25:-0.785118 26:-0.0167248 
0 0.125 1:0.164209 2:-0.277084 3:-0.370585 4:-0.103959 5:-0.459643 6:0.0929426 7:0.07382 8:-0.000200961 9:-0.26596 10:0.348131 11:-0.200114 12:0.359407 13:0.495578 14:0.00521561 15:0.149483 16:0.338846 17:0.856339 18:0.069167 19:-0.0125946 20:0.223143 21:-0.0589693 22:-0.000681476 23:-0.301833 24:0.412489 25:-0.622417 26:-0.0261506 
0.125 0.125 1:0.047171 2:-0.338243 3:-0.13061 4:-0.065155 5:-0.326727 6:0.23669 7:0.147639 8:0.221253 9:-0.576234 10:0.496192 11:-0.172707 12:-0.0533299 13:0.615319 14:0.217765 15:0.283472 16:0.00748164 17:0.764419 18:-0.2237 19:-0.136524 20:-0.0363723 21:-0.254614 22:0.239062 23:-0.420164 24:0.244388 25:-0.00114741 26:-0.0402536 
0.125 0.125 1:-0.0876909 2:-0.467041 3:-0.14989 4:0.138351 5:-0.196247 6:0.331405 7:0.4053 8:0.23977 9:-0.556615 10:0.524904 11:-0.109929 12:-0.56247 13:0.774693 14:0.500584 15:0.215233 16:-0.239192 17:0.289314 18:-0.431873 19:-0.211644 20:-0.34394 21:-0.286736 22:0.12017 23:-0.3404 24:-0.0224699 25:0.576466 26:-0.0496741 
0.125 0.125 1:-0.0188455 2:-0.164694 3:0.0316106 4:0.582366 5:-0.511391 6:0.180399 7:0.488648 8:0.0701705 9:-0.212933 10:0.292585 11:0.0694842 12:-0.449592 13:0.706569 14:0.568182 15:-0.130182 16:-0.361656 17:-0.331724 18:-0.231001 19:-0.220244 20:-0.457413 21:-0.0916119 22:-0.198491 23:-0.147607 24:-0.198928 25:0.494969 26:-0.0435847 
0 0.125 1:0.247983 2:-0.0271123 3:-0.0972441 4:0.685376 5:-0.679566 6:0.213855 7:0.339025 8:0.0361375 9:-0.220263 10:0.233026 11:0.0638568 12:-0.0933548 13:0.405747 14:0.321662 15:-0.380325 16:-0.18616 17:-0.597714 18:0.106765 19:-0.300609 20:-0.312994 21:0.147188 22:-0.372911 23:-0.00715156 24:-0.204779 25:-0.0497743 26:-0.0330054 
0 0.125 1:0.412599 2:-0.0709222 3:-0.183801 4:0.68132 5:-0.769942 6:0.223603 7:0.300121 8:-0.00443872 9:-0.314863 10:0.236509 11:0.0351803 12:-0.113069 13:0.339881 14:0.0215573 15:-0.3729 16:-0.00310204 17:-0.598577 18:0.357111 19:-0.317238 20:-0.0675736 21:0.276918 22:-0.340375 23:0.0507551 24:-0.0772426 25:-0.396899 26:-0.029605 
0 0.125 1:0.473165 2:-0.0961465 3:-0.189628 4:0.664596 5:-0.782648 6:0.215893 7:0.282088 8:0.0245697 9:-0.384511 10:0.122018 11:-0.0539813 12:-0.306997 13:0.314653 14:-0.122011 15:-0.156659 16:0.0486312 17:-0.469366 18:0.42736 19:-0.0995501 20:0.106918 21:0.125868 22:-0.120067 23:0.14358 24:0.0374163 25:-0.308372 26:-0.0300683 
0 0.125 1:0.47247 2:-0.114004 3:-0.165208 4:0.640621 5:-0.818428 6:-0.00132415 7:0.272295 8:0.117347 9:-0.427184 10:-0.0084363 11:-0.0999224 12:-0.414752 13:0.216419 14:-0.0482404 15:0.0761048 16:0.0323619 17:-0.294955 18:0.338664 19:0.345626 20:0.0582717 21:-0.0906339 22:0.0693026 23:0.271619 24:0.0396697 25:0.107604 26:-0.0261617 
0 0.125 1:0.356593 2:-0.132045 3:-0.197809 4:0.5735 5:-0.86439 6:-0.243225 7:0.203377 8:0.192038 9:-0.433201 10:-0.0733217 11:-0.0707393 12:-0.498296 13:-0.0823498 14:0.156302 15:0.0742178 16:-0.0159803 17:-0.154847 18:0.237608 19:0.715046 20:-0.0625009 21:-0.187672 22:0.0789367 23:0.389962 24:-0.0682532 25:0.441396 26:-0.0146312 
0 0.125 1:0.186018 2:0.0299332 3:-0.229313 4:0.366978 5:-0.725082 6:-0.144488 7:0.374098 8:0.213267 9:-0.41516 10:-0.078258 11:0.114684 12:-0.471794 13:-0.22576 14:0.339233 15:-0.148831 16:0.0209475 17:0.0539636 18:-0.00519939 19:0.588955 20:-0.187668 21:-0.106491 22:0.00707328 23:0.362045 24:-0.0987697 25:0.481389 26:-0.00278112 
0 0.125 1:0.0973103 2:0.18838 3:-0.238351 4:0.216622 5:-0.594468 6:0.252017 7:0.332709 8:-0.035013 9:-0.359059 10:0.0393039 11:-0.162657 12:-0.504347 13:-0.289846 14:0.418752 15:-0.367172 16:0.0820853 17:0.195014 18:-0.20469 19:0.0478999 20:-0.15701 21:0.118367 22:-0.0550828 23:0.15401 24:0.101812 25:0.380751 26:-0.000819677 
0 0.125 1:0.104577 2:0.170696 3:-0.279515 4:0.227507 5:-0.641558 6:0.408078 7:0.153946 8:0.0511981 9:-0.273913 10:0.110014 11:-0.264204 12:-0.182474 13:-0.0454311 14:0.423267 15:-0.401433 16:0.0924515 17:0.223833 18:-0.158689 19:-0.526588 20:-0.0363923 21:0.201947 22:-0.0865601 23:-0.0805899 24:0.250953 25:0.0516976 26:-0.0184058 
0 0.125 1:0.0708838 2:0.154661 3:-0.25547 4:0.161749 5:-0.649582 6:0.429643 7:0.172087 8:0.07863 9:-0.260818 10:0.168141 11:-0.251318 12:-0.0255932 13:0.0806348 14:0.445895 15:-0.295673 16:0.000359088 17:0.257399 18:0.021587 19:-0.858914 20:-0.0666914 21:0.240258 22:-0.169741 23:-0.263262 24:0.282799 25:-0.288178 26:-0.0372044 
0 0.125 1:0.014924 2:0.124961 3:-0.19055 4:0.11483 5:-0.740316 6:0.467371 7:0.209049 8:0.162297 9:-0.268275 10:0.188743 11:-0.0148423 12:0.0534522 13:0.284644 14:0.522829 15:-0.131342 16:-0.133652 17:0.28659 18:0.217056 19:-0.834201 20:-0.174646 21:0.217389 22:-0.264263 23:-0.352538 24:0.147681 25:-0.447256 26:-0.0465267 
0 0.125 1:-0.00274232 2:0.0917894 3:-0.180446 4:0.0674451 5:-0.707392 6:0.430674 7:0.190612 8:0.15149 9:-0.117155 10:0.12204 11:0.0574547 12:0.208547 13:0.353073 14:0.578568 15:-0.0418082 16:-0.190309 17:0.284198 18:0.209986 19:-0.538437 20:-0.280497 21:0.151317 22:-0.352866 23:-0.320435 24:-0.00585426 25:-0.431997 26:-0.0416953 
0 0.125 1:0.102856 2:0.123232 3:-0.246963 4:0.162784 5:-0.541667 6:0.0813221 7:0.117867 8:0.235905 9:-0.0466851 10:-0.00309649 11:-0.0317587 12:0.113494 13:-0.139953 14:0.504768 15:-0.0580844 16:-0.125436 17:0.149044 18:0.0600896 19:-0.0547893 20:-0.232418 21:0.0154923 22:-0.29504 23:-0.184005 24:-0.05325 25:-0.178964 26:-0.0245601 
0 0.125 1:0.272403 2:0.146274 3:-0.314032 4:0.28607 5:-0.512835 6:-0.205116 7:-0.0811509 8:0.483758 9:-0.352033 10:-0.157099 11:0.187263 12:-0.0398106 13:-0.0237131 14:0.301443 15:-0.082078 16:0.0151022 17:-0.0575871 18:0.0267032 19:0.389806 20:-0.00352767 21:-0.21121 22:-0.00231017 23:0.035598 24:-0.136821 25:0.0558361 26:-0.0166903 
0 0.125 1:0.465734 2:0.1688 3:-0.392382 4:0.346132 5:-0.515495 6:-0.216753 7:-0.171688 8:0.571499 9:-0.33401 10:-0.339166 11:0.249583 12:0.0726085 13:0.0499575 14:0.0548548 15:-0.105346 16:0.146674 17:-0.163056 18:0.100072 19:0.56256 20:0.180032 21:-0.268404 22:0.22706 23:0.261798 24:-0.137269 25:0.140592 26:-0.0125294 
0.125 0.125 1:0.55942 2:0.191115 3:-0.402468 4:0.334277 5:-0.463345 6:-0.261177 7:-0.206722 8:0.502558 9:-0.279228 10:-0.492014 11:0.22867 12:0.0896497 13:0.0238883 14:-0.125565 15:-0.111358 16:0.211119 17:-0.113564 18:0.171126 19:0.485035 20:0.303575 21:-0.134608 22:0.315349 23:0.375465 24:-0.0805274 25:0.0912136 26:-0.0138066 
0.125 0.125 1:0.563783 2:0.22397 3:-0.397008 4:0.325522 5:-0.365625 6:-0.234191 7:-0.256609 8:0.420061 9:-0.21727 10:-0.533328 11:0.144296 12:0.105169 13:0.00369454 14:-0.184111 15:-0.116086 16:0.231146 17:-0.0152244 18:0.0981754 19:0.201535 20:0.403093 21:0.0374473 22:0.125793 23:0.454166 24:0.0698589 25:-0.0352221 26:-0.0215755 
0.125 0.125 1:0.499029 2:0.279173 3:-0.374709 4:0.334562 5:-0.24084 6:-0.124122 7:-0.240961 8:0.463733 9:-0.0206509 10:-0.51937 11:0.15645 12:0.182534 13:0.21653 14:-0.112639 15:-0.182103 16:0.197539 17:0.0287658 18:-0.0637299 19:-0.0630258 20:0.353274 21:0.134066 22:-0.190238 23:0.500449 24:0.163311 25:-0.0218571 26:-0.0317466 
0.125 0.125 1:0.320969 2:0.302651 3:-0.327915 4:0.3582 5:-0.101277 6:-0.0276541 7:-0.168908 8:0.558433 9:0.176616 10:-0.498249 11:0.231054 12:0.301999 13:0.483951 14:0.0887401 15:-0.272306 16:0.111114 17:-0.0183277 18:-0.163347 19:-0.171942 20:0.109071 21:0.0246137 22:-0.359444 23:0.490351 24:0.0352146 25:0.055808 26:-0.045336 
0.125 0.125 1:0.0591607 2:0.35448 3:-0.208365 4:0.416706 5:-0.0606427 6:-0.0082045 7:0.0287819 8:0.586545 9:0.300638 10:-0.541549 11:0.265751 12:0.156872 13:0.439719 14:0.387259 15:-0.461312 16:-0.0346971 17:-0.175857 18:-0.200843 19:-0.10542 20:-0.199949 21:-0.161342 22:-0.45849 23:0.449805 24:-0.21553 25:0.136593 26:-0.0443241 
0.125 0.125 1:-0.164011 2:0.382139 3:-0.0994084 4:0.375129 5:-0.105761 6:-0.0790459 7:0.25395 8:0.510248 9:0.12253 10:-0.174237 11:0.442369 12:0.22833 13:0.25817 14:0.661812 15:-0.551582 16:-0.14641 17:-0.229496 18:-0.157698 19:0.0276548 20:-0.411618 21:-0.267229 22:-0.418446 23:0.0611593 24:-0.510819 25:-0.0635228 26:-0.0326439 
0.125 0.125 1:-0.297133 2:0.286707 3:-0.0849628 4:0.384959 5:0.00215555 6:-0.0509602 7:0.193494 8:0.697689 9:0.224619 10:0.00340757 11:0.371351 12:0.600169 13:0.191036 14:0.825059 15:-0.318677 16:-0.244858 17:-0.170877 18:-0.141269 19:0.056044 20:-0.445968 21:-0.328356 22:-0.442782 23:-0.374086 24:-0.486584 25:-0.580205 26:-0.02124 
0.125 0.125 1:-0.322376 2:0.217342 3:-0.0447244 4:0.331493 5:0.0770006 6:0.0516712 7:0.0161386 8:0.482673 9:0.319997 10:0.0709729 11:0.10441 12:0.552049 13:-0.0450729 14:0.84566 15:0.0927121 16:-0.330589 17:-0.0200968 18:-0.162758 19:-0.0188947 20:-0.432506 21:-0.171311 22:-0.396506 23:-0.594731 24:-0.183047 25:-0.831915 26:-0.0175063 
0.125 0.125 1:-0.147875 2:-0.144593 3:-0.0802711 4:0.0787554 5:-0.111085 6:0.193691 7:0.178773 8:0.273488 9:0.0272552 10:0.302694 11:-0.16283 12:0.537238 13:0.261289 14:0.717138 15:0.473809 16:-0.325521 17:0.141806 18:-0.116437 19:-0.156659 20:-0.488688 21:0.00560741 22:-0.12113 23:-0.550368 24:0.213037 25:-0.706417 26:-0.0257556 
0.125 0.125 1:-0.0110745 2:-0.104452 3:-0.0290767 4:0.14969 5:-0.0468771 6:0.110362 7:0.15882 8:0.231007 9:-0.0953975 10:-0.0900456 11:-0.538465 12:0.217926 13:0.17184 14:0.511174 15:0.377971 16:-0.244348 17:0.0591393 18:-0.140853 19:-0.18291 20:-0.38159 21:0.101637 22:0.158006 23:-0.0578368 24:0.533868 25:-0.0843139 26:-0.0255359 
0.125 0.125 1:0.221078 2:0.272534 3:-0.28576 4:0.191774 5:0.00530066 6:0.12881 7:-0.202632 8:0.158289 9:-0.234311 10:-0.265471 11:-0.363428 12:-0.290083 13:0.0893789 14:0.234349 15:-0.0873511 16:0.0231384 17:-0.0644975 18:-0.115576 19:-0.171714 20:-0.0179051 21:0.144354 22:0.348459 23:0.287697 24:0.454571 25:0.536753 26:-0.0211681 
0.125 0.125 1:0.515168 2:0.406417 3:-0.417825 4:0.114759 5:-0.182916 6:0.248447 7:-0.46413 8:0.0908544 9:-0.137111 10:-0.175195 11:-0.402582 12:-0.248587 13:-0.0205342 14:-0.0373559 15:-0.447518 16:0.245792 17:-0.120266 18:0.0124517 19:-0.18317 20:0.370562 21:0.0957592 22:0.26116 23:0.376737 24:0.301876 25:0.576464 26:-0.017449 
0.125 0.125 1:0.689403 2:0.331645 3:-0.435664 4:0.0104209 5:-0.236349 6:0.154613 7:-0.474779 8:-0.0255994 9:0.00169513 10:-0.19678 11:-0.344194 12:-0.192521 13:0.0989193 14:-0.188438 15:-0.546944 16:0.296856 17:-0.0734259 18:0.0996424 19:-0.13642 20:0.52459 21:0.120112 22:0.0259661 23:0.337363 24:0.152578 25:0.284128 26:-0.0200762 
0.125 0.125 1:0.687987 2:0.286009 3:-0.434575 4:-0.0905606 5:-0.258674 6:0.113787 7:-0.45512 8:-0.0245549 9:0.0970469 10:-0.140543 11:-0.193483 12:-0.0566889 13:0.333409 14:-0.195109 15:-0.405905 16:0.220598 17:0.0863942 18:0.18405 19:-0.149217 20:0.366249 21:0.207333 22:-0.120873 23:0.130516 24:0.0368354 25:-0.083236 26:-0.0313459 
0.125 0.125 1:0.609368 2:0.326438 3:-0.382553 4:-0.111058 5:-0.284057 6:0.125835 7:-0.398145 8:-0.0689939 9:0.114448 10:-0.151927 11:-0.244983 12:-0.123007 13:0.257647 14:-0.070101 15:-0.26281 16:0.0593754 17:0.195074 18:0.166089 19:-0.175919 20:0.0874839 21:0.25031 22:-0.246093 23:0.00332862 24:0.000183125 25:-0.0997597 26:-0.0372291 
0.125 0.125 1:0.505511 2:0.275332 3:-0.376932 4:-0.191097 5:-0.28208 6:0.0915894 7:-0.331909 8:-0.106257 9:0.248719 10:-0.0477872 11:-0.0717154 12:-0.171321 13:0.301981 14:0.121749 15:-0.264528 16:0.0212094 17:0.276129 18:0.11009 19:-0.116857 20:-0.0262956 21:0.160052 22:-0.427806 23:-0.157416 24:-0.151187 25:0.0809816 26:-0.0393411 
0.125 0.125 1:0.353497 2:0.146983 3:-0.366636 4:-0.239563 5:-0.275624 6:0.0355176 7:-0.283432 8:-0.0661311 9:0.303915 10:0.0248628 11:0.0337948 12:-0.246322 13:0.282478 14:0.328121 15:-0.296076 16:0.0627073 17:0.247307 18:0.105178 19:-0.0157307 20:0.024916 21:-0.0304264 22:-0.449452 23:-0.216357 24:-0.252466 25:0.0956341 26:-0.0339397 
0.125 0.125 1:0.153057 2:0.112103 3:-0.335855 4:-0.185169 5:-0.258667 6:-0.0847977 7:-0.268545 8:0.161329 9:0.350116 10:-0.0692916 11:0.0210472 12:-0.167221 13:0.172118 14:0.503393 15:-0.356967 16:0.0285374 17:0.0490005 18:0.102652 19:0.119624 20:0.140817 21:-0.17281 22:-0.311749 23:-0.0424194 24:-0.229006 25:-0.124545 26:-0.0263729 
0.125 0.125 1:0.044834 2:0.120418 3:-0.331685 4:-0.087948 5:-0.260135 6:-0.185304 7:-0.255556 8:0.0859708 9:0.14652 10:-0.169707 11:-0.0928615 12:0.0947299 13:0.044351 14:0.565121 15:-0.368972 16:-0.00693883 17:-0.155923 18:0.128334 19:0.166442 20:0.240091 21:-0.133071 22:-0.102742 23:0.139073 24:-0.0962602 25:-0.41423 26:-0.023401 
0.125 0.125 1:0.0505668 2:-0.147717 3:-0.234126 4:-0.0294692 5:-0.180833 6:-0.0334801 7:-0.0662111 8:-0.103782 9:-0.127901 10:-0.310998 11:-0.144441 12:-0.0127332 13:-0.0305574 14:0.484673 15:-0.179382 16:-0.0424183 17:-0.220294 18:0.187363 19:-0.0143038 20:0.0924958 21:-0.0048275 22:0.0178288 23:0.13637 24:0.0115944 25:-0.251586 26:-0.0209873 
0.125 0.125 1:0.101026 2:-0.272841 3:-0.140086 4:-0.131028 5:-0.155853 6:-0.0382306 7:0.0697892 8:-0.0994563 9:0.204127 10:-0.169642 11:-0.237057 12:-0.256753 13:0.0809092 14:0.326369 15:0.0378576 16:-0.0445007 17:-0.0797227 18:0.199148 19:-0.111624 20:-0.175221 21:0.0468872 22:-0.18048 23:-0.0141279 24:-0.0061959 25:0.208495 26:-0.0218732 
0.125 0.125 1:0.129826 2:-0.452565 3:-0.325984 4:-0.284877 5:-0.112882 6:-0.109946 7:0.230356 8:0.0653633 9:0.227459 10:-0.0642321 11:-0.221514 12:-0.350402 13:0.0317568 14:0.19982 15:0.172599 16:0.0298465 17:0.0828457 18:-0.00200846 19:-0.127311 20:-0.378152 21:0.0218621 22:-0.243317 23:0.121769 24:-0.147406 25:0.538522 26:-0.0216581 
0.125 0.125 1:0.102846 2:-0.517032 3:-0.193409 4:-0.222998 5:0.0216149 6:-0.0886217 7:0.427027 8:-0.0499373 9:-0.0743044 10:-0.233208 11:-0.185896 12:-0.346035 13:-0.165327 14:0.178491 15:0.0828096 16:-0.00627226 17:0.0422959 18:-0.358423 19:-0.161253 20:-0.441266 21:0.11796 22:-0.119275 23:0.468309 24:-0.193009 25:0.54543 26:-0.0219428 
0.125 0.125 1:0.0473422 2:-0.437956 3:-0.0693856 4:-0.173705 5:0.244825 6:-0.206776 7:0.263177 8:-0.162681 9:-0.129013 10:-0.5646 11:-0.409704 12:0.0368465 13:0.0462958 14:0.231153 15:-0.150946 16:-0.0412938 17:-0.099172 18:-0.516152 19:-0.0879485 20:-0.263596 21:0.272707 22:-0.0105143 23:0.716749 24:0.00456304 25:0.0300719 26:-0.0315879 
0.125 0.125 1:-0.0149956 2:-0.448856 3:-0.128273 4:-0.216034 5:0.181484 6:-0.0985163 7:0.21947 8:-0.115297 9:-0.141435 10:-0.298821 11:-0.597055 12:0.217693 13:0.125825 14:0.295647 15:-0.233286 16:-0.00543677 17:-0.093155 18:-0.240625 19:-0.0595826 20:-0.15234 21:0.338535 22:0.054077 23:0.437333 24:0.253195 25:-0.429845 26:-0.0402763 
0.125 0.125 1:-0.0674975 2:-0.598888 3:-0.170771 4:-0.311734 5:-0.12243 6:-0.201305 7:0.370493 8:-0.0197118 9:-0.0133754 10:0.410233 11:-0.791084 12:0.190103 13:0.0598371 14:0.340671 15:-0.145783 16:-0.00634392 17:0.0316928 18:0.239894 19:0.101694 20:-0.17302 21:0.172351 22:-0.0835887 23:-0.300062 24:0.384698 25:-0.643397 26:-0.0385497 
0.125 0.125 1:-0.0932575 2:-0.686158 3:-0.079551 4:-0.401564 5:-0.246511 6:-0.407941 7:0.298173 8:0.21416 9:-0.109359 10:0.279462 11:-0.661237 12:0.400853 13:-0.0734336 14:0.353647 15:-0.0393631 16:-0.0709615 17:0.140825 18:0.456966 19:0.242122 20:-0.18323 21:-0.203437 22:-0.172494 23:-0.55613 24:0.275145 25:-0.605357 26:-0.0245552 
0.125 0.125 1:-0.12469 2:-0.701983 3:-0.0284964 4:-0.467983 5:0.0419004 6:-0.263934 7:0.229355 8:0.25559 9:-0.191754 10:0.254007 11:-0.531765 12:0.0950664 13:-0.347851 14:0.365395 15:0.00866391 16:-0.178627 17:0.138237 18:0.140922 19:0.0817575 20:-0.227893 21:-0.4166 22:-0.208974 23:-0.426267 24:0.0776633 25:-0.175597 26:-0.00875989 
0.125 0.125 1:-0.15235 2:-0.688549 3:0.000188987 4:-0.274193 5:0.187688 6:-0.155487 7:0.173272 8:0.331389 9:-0.104416 10:0.273466 11:-0.527957 12:0.0470996 13:-0.439631 14:0.383057 15:-0.000774921 16:-0.303969 17:0.0377437 18:-0.26116 19:-0.0236239 20:-0.115973 21:-0.446807 22:-0.262038 23:0.00382268 24:0.0503341 25:0.176839 26:-0.0102975 
0.125 0.125 1:-0.135059 2:-0.684402 3:-0.0956257 4:-0.386163 5:0.0865273 6:-0.120774 7:0.131433 8:0.202064 9:-0.133149 10:0.0018879 11:-0.581582 12:-0.183281 13:-0.159374 14:0.376329 15:0.0275372 16:-0.254689 17:0.0899186 18:-0.306485 19:-0.0148089 20:0.116206 21:-0.373472 22:-0.221981 23:0.396127 24:0.160128 25:0.467029 26:-0.0285311 
0.125 0.125 1:-0.14121 2:-0.768632 3:-0.209624 4:-0.497884 5:0.0696684 6:-0.192389 7:0.0369938 8:0.0245969 9:-0.261815 10:0.256141 11:-0.467302 12:-0.0603497 13:0.0526319 14:0.395266 15:0.29298 16:0.0113936 17:0.16401 18:-0.0936315 19:0.148208 20:0.370463 21:-0.149249 22:-0.0525734 23:0.204327 24:0.214258 25:0.40808 26:-0.0410639 
0.125 0.125 1:-0.0910797 2:-0.685454 3:-0.207504 4:-0.410695 5:-0.0825277 6:-0.284042 7:-0.119162 8:-0.00618876 9:-0.428926 10:0.190447 11:-0.432572 12:0.0661004 13:-0.0863805 14:0.439761 15:0.497314 16:0.223455 17:0.125719 18:0.156802 19:0.325278 20:0.525363 21:-0.00380384 22:0.261259 23:-0.0515976 24:0.216675 25:0.131283 26:-0.0365031 
0.125 0.125 1:-0.0275145 2:-0.571228 3:-0.45844 4:-0.290723 5:-0.0615803 6:0.0245084 7:0.0472933 8:-0.129398 9:-0.393638 10:0.350851 11:-0.169725 12:0.154236 13:-0.333555 14:0.489305 15:0.428222 16:0.369011 17:0.0266298 18:0.0999756 19:0.156782 20:0.354458 21:0.121359 22:0.406027 23:-0.353791 24:0.115197 25:-0.039667 26:-0.0216975 
0.125 0.125 1:-0.0363299 2:-0.4405 3:-0.443846 4:-0.279031 5:0.0650808 6:0.160756 7:0.281181 8:-0.524084 9:-0.376239 10:0.460022 11:0.00901908 12:0.338562 13:-0.496835 14:0.501182 15:0.0297566 16:0.241364 17:-0.0897782 18:-0.0841482 19:-0.0688151 20:0.00186899 21:0.19943 22:0.259908 23:-0.470581 24:0.0210598 25:-0.154676 26:-0.0132583 
0.125 0.125 1:0.15227 2:0.172859 3:-0.111102 4:-0.30515 5:0.0115209 6:0.206397 7:0.469135 8:-0.265262 9:-0.190166 10:0.15897 11:-0.0147196 12:0.25741 13:-0.224211 14:0.372395 15:-0.627273 16:-0.0432171 17:-0.10102 18:-0.0973658 19:-0.236742 20:-0.323196 21:0.0412901 22:-0.12184 23:-0.197348 24:-0.0570157 25:-0.125718 26:-0.021907 
0.125 0.125 1:0.390235 2:0.378983 3:-0.215182 4:-0.264594 5:-0.075827 6:0.372461 7:0.491977 8:-0.41354 9:0.172474 10:-0.0455612 11:0.317974 12:0.361329 13:-0.158898 14:0.179225 15:-0.939525 16:-0.105828 17:-0.0806342 18:-0.028825 19:-0.382251 20:-0.436998 21:0.022489 22:-0.489447 23:0.0495652 24:-0.288099 25:-0.211916 26:-0.032558 
0.125 0.125 1:0.525307 2:0.315237 3:-0.264691 4:-0.237022 5:-0.142075 6:0.410769 7:0.538534 8:-0.557316 9:0.165266 10:-0.0804318 11:0.481527 12:0.519305 13:-0.208527 14:0.0228438 15:-0.8058 16:-0.0695043 17:-0.0858026 18:0.0470014 19:-0.429085 20:-0.396496 21:0.0721144 22:-0.472149 23:0.228361 24:-0.439911 25:-0.277678 26:-0.0320996 
0.125 0 1:0.587073 2:0.246002 3:-0.25148 4:-0.2826 5:-0.110941 6:0.449693 7:0.57121 8:-0.658436 9:0.0513963 10:-0.194664 11:0.478947 12:0.517626 13:-0.30552 14:-0.0663466 15:-0.434305 16:-0.000563998 17:-0.0665033 18:0.0043177 19:-0.544926 20:-0.340187 21:0.172206 22:-0.227783 23:0.346602 24:-0.452506 25:-0.147902 26:-0.0201538 
0.125 0.125 1:0.591494 2:0.203248 3:-0.20457 4:-0.29457 5:-0.0919635 6:0.43041 7:0.513355 8:-0.694041 9:0.00745076 10:-0.291482 11:0.369078 12:0.384747 13:-0.351316 14:-0.0461267 15:-0.0850974 16:-0.00886177 17:0.0907344 18:-0.117792 19:-0.475741 20:-0.226727 21:0.292993 22:-0.0491367 23:0.396554 24:-0.254598 25:-0.0490381 26:-0.0119559 
0.125 0.125 1:0.567534 2:0.161592 3:-0.177822 4:-0.320158 5:-0.172286 6:0.277975 7:0.453601 8:-0.697464 9:0.0488553 10:-0.361015 11:0.194525 12:0.323167 13:-0.36402 14:0.0617606 15:-0.0181324 16:-0.133687 17:0.343729 18:-0.18561 19:-0.107371 20:-0.146386 21:0.228761 22:-0.0563287 23:0.457416 24:0.043972 25:-0.0881546 26:-0.0202372 
0.125 0.125 1:0.469199 2:0.194259 3:-0.166832 4:-0.367584 5:-0.24806 6:0.147776 7:0.370655 8:-0.678923 9:0.20852 10:-0.306811 11:0.0991942 12:0.456355 13:-0.114763 14:0.238834 15:-0.1097 16:-0.153472 17:0.49026 18:-0.136258 19:0.329661 20:-0.0216178 21:0.105372 22:-0.220021 23:0.401774 24:0.218031 25:-0.284563 26:-0.0380013 
0.125 0 1:0.253615 2:0.211049 3:-0.264823 4:-0.352634 5:-0.288134 6:-0.1175 7:0.275792 8:-0.629379 9:0.235451 10:-0.147073 11:-0.00261981 12:0.638061 13:0.180546 14:0.434782 15:-0.183736 16:-0.0538722 17:0.365402 18:-0.000280278 19:0.629624 20:0.0714318 21:-0.0286891 22:-0.260899 23:0.162213 24:0.233494 25:-0.469476 26:-0.0487963 
0.125 0 1:0.16722 2:0.212169 3:-0.253978 4:-0.0285576 5:-0.403039 6:-0.00766647 7:0.328529 8:-0.557733 9:0.0438851 10:-0.0752153 11:0.104464 12:0.27597 13:-0.0371314 14:0.507057 15:-0.192902 16:0.0353326 17:-0.0258761 18:0.20881 19:0.446481 20:0.0770802 21:-0.0314902 22:-0.09313 23:-0.0569991 24:0.126975 25:-0.267804 26:-0.0375052 
0.125 0 1:0.244477 2:0.15545 3:-0.30913 4:0.154012 5:-0.484311 6:0.360318 7:0.251326 8:-0.644755 9:0.128019 10:0.0252832 11:0.0508828 12:-0.0957266 13:-0.308891 14:0.344421 15:0.00970326 16:-0.0727668 17:-0.358561 18:0.407652 19:-0.658339 20:-0.215691 21:0.184636 22:-0.0378159 23:-0.0696443 24:-0.31102 25:0.441378 26:-0.0111012 
0.125 0.125 1:0.208503 2:0.169968 3:-0.306253 4:0.168875 5:-0.386192 6:0.293906 7:0.260881 8:-0.361683 9:0.258343 10:0.0476535 11:0.120659 12:-0.0768644 13:-0.0878055 14:0.44299 15:0.0229656 16:-0.134654 17:-0.19323 18:0.291824 19:-0.593562 20:-0.32035 21:0.11308 22:-0.279349 23:-0.109701 24:-0.325294 25:0.444414 26:-0.0251805 
0.125 0.125 1:0.177834 2:0.143198 3:-0.31489 4:0.180332 5:-0.352308 6:0.222688 7:0.228061 8:-0.293502 9:0.405977 10:0.085973 11:0.151446 12:-0.112052 13:0.000911614 14:0.509281 15:-0.054607 16:-0.0950275 17:-0.0412679 18:0.0574675 19:-0.431399 20:-0.25785 21:0.143112 22:-0.499766 23:-0.262018 24:-0.0403134 25:0.406012 26:-0.034134 
0.125 0.125 1:0.299334 2:0.261806 3:-0.438401 4:0.0446533 5:-0.190669 6:0.0912055 7:0.035086 8:-0.415776 9:0.320229 10:0.0341677 11:-0.363771 12:0.0452271 13:-0.067478 14:0.425293 15:-0.241658 16:0.0682921 17:0.131151 18:-0.30003 19:-0.215175 20:0.0348445 21:0.193977 22:-0.562927 23:-0.382118 24:0.521236 25:0.150179 26:-0.0363917 
0.125 0.125 1:0.468259 2:0.404444 3:-0.50027 4:-0.0477436 5:0.0742631 6:-0.231577 7:-0.0791598 8:-0.226663 9:0.265111 10:0.0116422 11:-0.695758 12:0.333221 13:0.052112 14:0.262557 15:-0.41336 16:0.184694 17:0.251744 18:-0.660862 19:0.0698157 20:0.265553 21:0.0285957 22:-0.460691 23:-0.300673 24:0.772517 25:-0.258167 26:-0.0384309 
0.125 0.125 1:0.585307 2:0.349507 3:-0.491648 4:0.00961224 5:0.0433885 6:-0.345968 7:-0.144946 8:0.0925883 9:0.116999 10:-0.311757 11:-0.235994 12:0.429542 13:0.102199 14:0.140642 15:-0.407535 16:0.166847 17:0.227414 18:-0.647923 19:0.231065 20:0.346215 21:-0.2856 22:-0.160756 23:0.0988611 24:0.407899 25:-0.470518 26:-0.0357959 
0.125 0.125 1:0.632547 2:0.272338 3:-0.430448 4:0.0997295 5:-0.171724 6:-0.453306 7:-0.0575529 8:0.232603 9:-0.144503 10:-0.574089 11:0.149465 12:0.469088 13:-0.00643926 14:0.125766 15:-0.273061 16:0.0520856 17:0.0774033 18:-0.277041 19:0.341798 20:0.13513 21:-0.471817 22:0.176732 23:0.461666 24:-0.18355 25:-0.445777 26:-0.0266844 
0.125 0.125 1:0.628145 2:0.223922 3:-0.412366 4:0.0973232 5:-0.324284 6:-0.531889 7:0.00924065 8:0.144724 9:-0.245513 10:-0.696772 11:0.280476 12:0.393268 13:-0.219007 14:0.183308 15:-0.150855 16:-0.0241681 17:-0.0547131 18:0.144677 19:0.46042 20:-0.257701 21:-0.237781 22:0.25146 23:0.632539 24:-0.595375 25:-0.147747 26:-0.0147217 
0.125 0.125 1:0.646463 2:0.171339 3:-0.38767 4:0.142152 5:-0.441772 6:-0.571026 7:0.0500747 8:0.0407178 9:-0.262657 10:-0.610495 11:0.151804 12:0.314827 13:-0.21786 14:0.187992 15:-0.136452 16:0.0261766 17:-0.0854162 18:0.438595 19:0.633901 20:-0.479101 21:0.214278 22:0.164331 23:0.616735 24:-0.529761 25:0.13906 26:-0.00944725 
0.125 0.125 1:0.662335 2:0.164225 3:-0.413878 4:0.177067 5:-0.450993 6:-0.603335 7:0.108254 8:-0.0515698 9:-0.148735 10:-0.554219 11:0.0361211 12:0.290367 13:-0.10073 14:0.147959 15:-0.120819 16:0.0530097 17:-0.00205289 18:0.48117 19:0.604719 20:-0.397579 21:0.403582 22:0.0827266 23:0.573446 24:-0.225716 25:0.179717 26:-0.0150848 
0.125 0.125 1:0.677098 2:0.164046 3:-0.417059 4:0.129584 5:-0.394141 6:-0.427049 7:-0.102623 8:0.0475423 9:-0.0673279 10:-0.57707 11:-0.0344284 12:0.337451 13:0.0640742 14:0.136529 15:-0.013326 16:-0.0354629 17:0.115855 18:0.362492 19:0.196888 20:0.0178867 21:0.0582452 22:0.177086 23:0.445543 24:0.00953399 25:0.0227734 26:-0.0282667 
0.125 0.125 1:0.634869 2:0.0342419 3:-0.325915 4:0.133245 5:-0.443075 6:-0.120973 7:-0.434415 8:0.404536 9:-0.277619 10:-0.359995 11:-0.247893 12:0.53509 13:0.173738 14:0.21822 15:0.141404 16:-0.217192 17:0.132498 18:0.195391 19:-0.346389 20:0.40664 21:-0.544207 22:0.423968 23:0.0504608 24:0.210154 25:-0.232889 26:-0.0372529 
0.125 0.125 1:0.45256 2:-0.0481058 3:-0.170926 4:0.210757 5:-0.250676 6:0.273135 7:-0.311115 8:0.51373 9:-0.143858 10:-0.0601246 11:-0.287665 12:0.53624 13:0.231511 14:0.380359 15:0.15915 16:-0.333337 17:0.0267774 18:-0.0857154 19:-0.661648 20:0.386547 21:-0.824471 22:0.390739 23:-0.446969 24:0.322003 25:-0.310627 26:-0.0374501 
0.125 0.125 1:0.386886 2:0.187245 3:-0.385087 4:0.308452 5:-0.115466 6:0.0180038 7:-0.176334 8:0.259844 9:0.282747 10:0.270492 11:-0.357881 12:0.404002 13:0.242524 14:0.46618 15:-0.0402249 16:-0.19377 17:-0.134032 18:-0.258939 19:-0.387237 20:0.136281 21:-0.569715 22:0.0334188 23:-0.806843 24:0.409062 25:-0.23592 26:-0.0316657 
0.125 0.125 1:0.413273 2:0.296257 3:-0.508382 4:0.349463 5:-0.138139 6:-0.0647369 7:-0.0940493 8:-0.153626 9:0.615951 10:0.0434624 11:-0.336707 12:0.389612 13:0.067839 14:0.431512 15:-0.227418 16:0.0169564 17:-0.216296 18:-0.251429 19:0.0477941 20:-0.155423 21:0.0139279 22:-0.438528 23:-0.610375 24:0.376899 25:-0.178471 26:-0.0232506 
0.125 0.125 1:0.455355 2:0.288239 3:-0.54319 4:0.319647 5:-0.201105 6:0.0118655 7:-0.114161 8:-0.325999 9:0.790632 10:-0.209133 11:-0.163913 12:0.336481 13:0.162663 14:0.325333 15:-0.284563 16:0.161768 17:-0.165504 18:-0.170033 19:0.312521 20:-0.283636 21:0.466319 22:-0.768382 23:-0.0669912 24:0.170763 25:-0.119809 26:-0.0231761 
0.125 0.125 1:0.486 2:0.28165 3:-0.565555 4:0.264188 5:-0.211574 6:0.130935 7:-0.108344 8:-0.41681 9:0.853791 10:-0.299238 11:-0.0205536 12:0.308368 13:0.20055 14:0.248447 15:-0.261131 16:0.221239 17:-0.0892843 18:-0.0992425 19:0.307205 20:-0.29562 21:0.672157 22:-0.874066 23:0.461542 24:-0.135011 25:-0.0771339 26:-0.0300731 
0.125 0.125 1:0.465042 2:0.347029 3:-0.605291 4:0.241712 5:-0.180641 6:0.219226 7:-0.061688 8:-0.487012 9:0.928549 10:-0.462893 11:0.182828 12:0.16862 13:0.226848 14:0.299237 15:-0.227234 16:0.169167 17:-0.0968053 18:-0.106476 19:-0.00678923 20:-0.359235 21:0.616163 22:-0.853774 23:0.717021 24:-0.449682 25:0.0209201 26:-0.0363185 
0.125 0.125 1:0.448174 2:0.37227 3:-0.600224 4:0.237686 5:-0.229142 6:0.361096 7:-0.1293 8:-0.433735 9:0.770723 10:-0.419314 11:0.265813 12:0.0295436 13:0.279228 14:0.400255 15:-0.203085 16:0.0798247 17:-0.140387 18:-0.0762459 19:-0.328017 20:-0.325184 21:0.375445 22:-0.618753 23:0.551262 24:-0.506601 25:0.162815 26:-0.035171 
0 0.125 1:0.427591 2:0.394978 3:-0.578308 4:0.197974 5:-0.336462 6:0.534756 7:-0.235093 8:-0.331793 9:0.596615 10:-0.266102 11:0.183648 12:0.0468136 13:0.156615 14:0.451458 15:-0.149234 16:-0.0370037 17:-0.12198 18:0.0297176 19:-0.583264 20:-0.157217 21:0.0671966 22:-0.220401 23:0.193214 24:-0.263846 25:0.185698 26:-0.0242358 
0 0.125 1:0.46864 2:0.296873 3:-0.460301 4:0.0802288 5:-0.406057 6:0.65492 7:-0.384953 8:0.00279798 9:0.216225 10:0.0120779 11:-0.125553 12:0.0699212 13:-0.123367 14:0.38088 15:-0.0660182 16:-0.138527 17:0.00311569 18:0.108289 19:-0.63383 20:0.0915726 21:-0.246982 22:0.215105 23:-0.16287 24:0.0943509 25:0.108254 26:-0.0149621 
0 0.125 1:0.636173 2:0.330716 3:-0.51332 4:-0.0605309 5:-0.407592 6:0.406692 7:-0.551586 8:-0.0425048 9:-0.00244332 10:0.000699534 11:-0.300262 12:-0.00606694 13:-0.042158 14:0.198639 15:-0.106419 16:-0.0820986 17:0.158057 18:0.0964929 19:-0.339479 20:0.266868 21:-0.255708 22:0.373137 23:-0.255261 24:0.281777 25:0.0131895 26:-0.018053 
0 0.125 1:0.722746 2:0.445673 3:-0.604154 4:-0.0845327 5:-0.416433 6:0.312452 7:-0.53986 8:-0.092539 9:0.0890172 10:0.0233552 11:-0.174599 12:0.114358 13:0.148192 14:0.040018 15:-0.25327 16:0.101604 17:0.219979 18:0.0495978 19:0.0334921 20:0.268987 21:-0.0694888 22:0.176479 23:-0.156332 24:0.186811 25:-0.0926208 26:-0.0292509 
0 0.125 1:0.714548 2:0.46594 3:-0.611942 4:-0.102865 5:-0.441844 6:0.227738 7:-0.498817 8:-0.11316 9:0.170191 10:-0.0309255 11:-0.0946764 12:0.128213 13:0.184062 14:-0.0205006 15:-0.354071 16:0.262028 17:0.174804 18:0.107155 19:0.241409 20:0.239235 21:0.0590245 22:-0.0733271 23:-0.042237 24:0.0121187 25:-0.217629 26:-0.0369527 
0 0.125 1:0.648821 2:0.412716 3:-0.566796 4:-0.116739 5:-0.493293 6:0.176499 7:-0.499009 8:-0.064001 9:0.0976451 10:-0.0188724 11:-0.186062 12:0.0426046 13:0.0621306 14:0.047647 15:-0.406637 16:0.258459 17:0.0845737 18:0.244235 19:0.187254 20:0.233137 21:0.0685371 22:-0.151935 23:-0.0575855 24:-0.061854 25:-0.299897 26:-0.034746 
0 0.125 1:0.540726 2:0.344859 3:-0.51382 4:-0.112473 5:-0.505211 6:0.210364 7:-0.504553 8:0.0262736 9:-0.0243422 10:0.0470594 11:-0.259184 12:0.0541271 13:-0.0195622 14:0.195128 15:-0.416714 16:0.0853342 17:0.0557902 18:0.299882 19:-0.0925702 20:0.133409 21:0.0133979 22:-0.0259681 23:-0.135601 24:0.0762752 25:-0.263198 26:-0.0219337 
0 0.125 1:0.402105 2:0.303642 3:-0.361345 4:-0.0821414 5:-0.482858 6:0.326466 7:-0.378179 8:0.101238 9:-0.0315003 10:0.01301 11:-0.243128 12:0.08651 13:-0.116254 14:0.33361 15:-0.399174 16:-0.142779 17:0.12427 18:0.221047 19:-0.244441 20:-0.0029232 21:0.011393 22:-0.049665 23:-0.148249 24:0.228965 25:-0.0615715 26:-0.0101421 
0.125 0.125 1:0.251613 2:0.238823 3:-0.228881 4:-0.133769 5:-0.293369 6:0.19891 7:-0.178588 8:-0.0547481 9:-0.00814974 10:-0.141152 11:-0.263 12:-0.293454 13:-0.10668 14:0.421023 15:-0.28997 16:-0.27606 17:0.165984 18:-0.00946592 19:-0.116303 20:-0.164133 21:0.0891992 22:-0.209686 23:-0.00536296 24:0.209183 25:0.218745 26:-0.00913109 
0.125 0.125 1:0.2121 2:0.0111549 3:-0.294593 4:-0.131965 5:-0.210998 6:0.117475 7:-0.0789984 8:0.029296 9:0.0583041 10:-0.257293 11:-0.309007 12:-0.345939 13:-0.105899 14:0.403332 15:-0.0598591 16:-0.176662 17:0.0251719 18:-0.177055 19:0.0437031 20:-0.292483 21:-0.0271522 22:-0.268741 23:0.21464 24:-0.00667903 25:0.30674 26:-0.0186406 
0.125 0.125 1:0.18192 2:-0.193148 3:-0.314939 4:-0.00669533 5:-0.232679 6:-0.044752 7:-0.262707 8:0.254699 9:0.134513 10:-0.20215 11:0.0594504 12:-0.155473 13:0.265396 14:0.327641 15:0.12412 16:0.0151785 17:-0.181819 18:-0.145581 19:0.127141 20:-0.229527 21:-0.270743 22:-0.1391 23:0.43693 24:-0.281358 25:0.21677 26:-0.0358448 
0.125 0.125 1:0.136429 2:-0.236959 3:-0.320965 4:0.137658 5:-0.163845 6:0.0980926 7:-0.0447005 8:0.18181 9:-0.309527 10:-0.412664 11:0.0710668 12:-0.0996737 13:0.376316 14:0.257542 15:0.118997 16:0.16402 17:-0.288144 18:-0.0616086 19:0.0239393 20:-0.160168 21:-0.32746 22:0.17206 23:0.548488 24:-0.318892 25:0.158338 26:-0.047101 
0.125 0.125 1:0.103126 2:-0.195541 3:-0.349634 4:0.0154649 5:-0.191264 6:0.200242 7:-0.0020088 8:0.170071 9:-0.286492 10:-0.277684 11:-0.160824 12:-0.22348 13:0.292132 14:0.251966 15:-0.0260253 16:0.168667 17:-0.164634 18:0.0402929 19:-0.0717711 20:0.0105937 21:-0.206075 22:0.228929 23:0.311985 24:-0.115743 25:0.0497685 26:-0.0435232 
0.125 0.125 1:0.00253615 2:-0.242724 3:-0.204256 4:-0.220875 5:-0.201964 6:0.00835873 7:-0.234965 8:-0.0581279 9:0.0636637 10:-0.12893 11:-0.391902 12:-0.0918636 13:0.159204 14:0.366825 15:-0.132597 16:-0.0427407 17:0.0243257 18:0.0241292 19:-0.0516638 20:0.187586 21:0.10209 22:-0.0758522 23:-0.108154 24:0.13806 25:-0.0476876 26:-0.0292694 
0.125 0.125 1:-0.0825136 2:-0.311032 3:-0.117667 4:-0.108193 5:-0.0602461 6:-0.0523497 7:-0.141266 8:-0.173114 9:0.0826842 10:0.203555 11:-0.240918 12:0.0553519 13:0.0817692 14:0.483604 15:-0.141832 16:-0.237232 17:0.0528886 18:-0.0846864 19:-0.0732244 20:0.0951998 21:0.240152 22:-0.306662 23:-0.545773 24:0.197421 25:-0.0969278 26:-0.0138354 
0.125 0.125 1:-0.144906 2:-0.355754 3:-0.118559 4:-0.0809989 5:-0.0820461 6:0.0942877 7:0.0789292 8:-0.0946205 9:-0.0146052 10:0.0648236 11:-0.301722 12:0.258499 13:-0.103177 14:0.503842 15:-0.103613 16:-0.296613 17:0.0871861 18:-0.107173 19:-0.154957 20:-0.116609 21:0.150048 22:-0.278703 23:-0.579975 24:0.135695 25:-0.10817 26:-0.0049213 
0.125 0.125 1:-0.116455 2:-0.372817 3:-0.119105 4:-0.162177 5:-0.0974347 6:0.148937 7:0.172432 8:-0.0632824 9:0.125215 10:-0.0890558 11:-0.300266 12:-0.0598426 13:0.0664674 14:0.394732 15:-0.0691444 16:-0.203241 17:0.146182 18:-0.142165 19:-0.229465 20:-0.334568 21:0.0192782 22:-0.0246757 23:-0.189518 24:0.0173894 25:0.0386044 26:-0.0148315 
0.125 0.125 1:0.0642629 2:-0.366147 3:-0.255142 4:-0.311029 5:-0.110581 6:-0.116012 7:0.124287 8:-0.0975245 9:-0.135838 10:-0.265112 11:-0.266225 12:0.102026 13:0.24844 14:0.188467 15:-0.00615558 16:0.0308102 17:0.27276 18:-0.0964632 19:-0.0809372 20:-0.332256 21:-0.0156793 22:0.229126 23:0.291377 24:-0.0287656 25:-0.0399326 26:-0.0337536 
0.125 0.125 1:0.0752169 2:-0.421165 3:-0.318537 4:-0.226729 5:-0.10585 6:-0.128669 7:0.0558186 8:-0.20754 9:-0.0282847 10:-0.460139 11:-0.302275 12:0.35252 13:0.349837 14:0.0848025 15:0.119125 16:0.179054 17:0.354855 18:0.0176938 19:0.107314 20:-0.0797332 21:0.0359038 22:-0.106454 23:0.666472 24:0.0105011 25:-0.335794 26:-0.0435747 
0.125 0.125 1:-0.00457005 2:-0.436168 3:-0.320347 4:-0.0393347 5:-0.13491 6:-0.116638 7:0.053106 8:-0.128602 9:0.273117 10:-0.458235 11:-0.2405 12:0.398081 13:0.589208 14:0.132852 15:0.225613 16:0.165289 17:0.159353 18:0.0992736 19:0.258735 20:0.230043 21:0.0460474 22:-0.692604 23:0.583487 24:0.0103717 25:-0.465035 26:-0.0422612 
0.125 0.125 1:-0.0411045 2:-0.361894 3:-0.29414 4:-0.0733584 5:-0.272225 6:-0.212294 7:0.00917643 8:-0.215296 9:0.417691 10:-0.253215 11:-0.359274 12:0.275608 13:0.148382 14:0.269181 15:0.238405 16:0.0171437 17:-0.126422 18:0.191357 19:0.320894 20:0.371427 21:0.0738701 22:-0.937646 23:0.286237 24:0.0896423 25:-0.410419 26:-0.0283675 
0.125 0.125 1:-0.158366 2:-0.172224 3:-0.240772 4:0.0235927 5:-0.17336 6:-0.105448 7:0.0494179 8:-0.103081 9:0.306492 10:-0.186184 11:-0.292767 12:0.147134 13:-0.07992 14:0.415893 15:0.108169 16:-0.177256 17:-0.426377 18:0.100906 19:0.252182 20:0.241564 21:-0.0132706 22:-0.576976 23:0.0880186 24:0.0765419 25:-0.103237 26:-0.0236649 
0.125 0.125 1:-0.198648 2:-0.033282 3:-0.229783 4:0.299592 5:-0.0761672 6:-0.0419181 7:0.198186 8:-0.227054 9:-0.401475 10:0.0548602 11:-0.259063 12:-0.0604783 13:0.327171 14:0.467812 15:-0.0875538 16:-0.215853 17:-0.596468 18:-0.0517044 19:0.251926 20:-0.160998 21:-0.0542028 22:0.331449 23:-0.0510182 24:0.0270291 25:0.191889 26:-0.0319147 
0.125 0.125 1:-0.163561 2:0.141622 3:-0.30242 4:0.0503165 5:-0.142603 6:0.081357 7:0.523013 8:-0.198684 9:-0.620811 10:-0.111814 11:-0.259454 12:0.0898267 13:0.316467 14:0.463364 15:-0.292363 16:-0.0679504 17:-0.357065 18:-0.165176 19:0.227292 20:-0.620415 21:-0.143425 22:0.855832 23:-0.0188114 24:-0.0766092 25:0.260616 26:-0.0306073 
0.125 0.125 1:-0.116376 2:0.354849 3:-0.415527 4:-0.178281 5:-0.098009 6:0.210606 7:0.473277 8:-0.100483 9:-0.407698 10:0.0225742 11:-0.148968 12:-0.132219 13:-0.0737319 14:0.429493 15:-0.46956 16:0.15139 17:0.0191908 18:-0.245013 19:0.0919604 20:-0.717577 21:-0.177307 22:0.632296 23:-0.143496 24:-0.170149 25:0.283326 26:-0.0230667 
0.125 0.125 1:-0.0979303 2:0.446758 3:-0.507546 4:-0.242968 5:-0.147456 6:0.36645 7:0.385361 8:-0.295618 9:-0.108749 10:0.292472 11:-0.243429 12:-0.0576093 13:-0.232938 14:0.354766 15:-0.601071 16:0.310365 17:0.322816 18:-0.184042 19:-0.153094 20:-0.485759 21:0.0771485 22:-0.100135 23:-0.275647 24:-0.0926235 25:0.0760432 26:-0.0165401 
0.125 0.125 1:-0.0150593 2:0.477881 3:-0.438291 4:-0.332986 5:-0.187074 6:0.591057 7:0.129445 8:-0.375143 9:0.0674844 10:0.197781 11:-0.218159 12:0.0879392 13:-0.122052 14:0.22633 15:-0.697247 16:0.325521 17:0.4733 18:-0.0735547 19:-0.467208 20:-0.01733 21:0.365186 22:-0.776193 23:-0.063787 24:0.0696826 25:-0.230697 26:-0.0218613 
0.125 0.125 1:0.119041 2:0.492226 3:-0.354228 4:-0.295668 5:-0.324063 6:0.815935 7:0.0135982 8:-0.513 9:0.1296 10:0.0610667 11:-0.446306 12:0.194813 13:0.165509 14:0.0423585 15:-0.648936 16:0.211465 17:0.339405 18:0.131807 19:-0.680796 20:0.290995 21:0.616198 22:-0.847488 23:0.130333 24:0.199286 25:-0.438952 26:-0.0368931 
0.125 0.125 1:0.157345 2:0.439821 3:-0.315383 4:-0.25204 5:-0.382943 6:0.728622 7:-0.0112061 8:-0.381567 9:0.0230162 10:-0.0626879 11:-0.369392 12:0.0955575 13:-0.0934601 14:-0.0915445 15:-0.410248 16:0.0346106 17:0.182868 18:0.364651 19:-0.650181 20:0.375459 21:0.487152 22:-0.451391 23:0.238137 24:0.227783 25:-0.443946 26:-0.0407781 
0.125 0.125 1:0.0966534 2:0.195975 3:-0.209754 4:-0.22781 5:-0.423309 6:0.611268 7:-0.0762268 8:-0.113053 9:-0.353677 10:0.128844 11:-0.283023 12:-0.0746499 13:-0.21076 14:-0.069347 15:-0.0581474 16:-0.143344 17:0.0755066 18:0.491126 19:-0.431764 20:0.345913 21:0.0746142 22:0.100723 23:0.0478778 24:0.141055 25:-0.142358 26:-0.0307865 
0.125 0.125 1:-0.038461 2:-0.0186354 3:-0.0236939 4:-0.0546568 5:-0.397341 6:0.588198 7:0.0580182 8:0.0643389 9:-0.562372 10:0.421151 11:-0.0667733 12:-0.185228 13:-0.369641 14:0.127247 15:0.220847 16:-0.274743 17:-0.0481358 18:0.392345 19:-0.191184 20:0.139731 21:-0.301318 22:0.471722 23:-0.255818 24:0.0491829 25:0.210086 26:-0.0196949 
0.125 0.125 1:-0.291193 2:0.00530845 3:-0.057535 4:-0.0757602 5:-0.265593 6:0.446583 7:0.0168395 8:0.268039 9:-0.344334 10:0.0943189 11:-0.346463 12:-0.319866 13:-0.434487 14:0.516066 15:0.109726 16:-0.256649 17:-0.0425157 18:-0.0597518 19:0.0177696 20:-0.131526 21:-0.43008 22:0.289674 23:-0.0420565 24:-0.113239 25:0.573957 26:-0.0118746 
0.125 0.125 1:-0.484168 2:0.0775018 3:-0.135789 4:-0.0591222 5:-0.0850454 6:0.228255 7:0.22983 8:0.175127 9:-0.307009 10:0.0509766 11:0.0200857 12:-0.373699 13:-0.612234 14:0.891775 15:-0.203921 16:-0.122864 17:-0.0436222 18:-0.519555 19:0.130411 20:-0.4398 21:-0.2129 22:-0.0560271 23:0.268562 24:-0.409131 25:0.702319 26:-0.0105596 
0.125 0.125 1:-0.518175 2:0.0521509 3:-0.101905 4:0.0452691 5:0.0323879 6:0.257188 7:0.260548 8:0.160739 9:-0.278271 10:0.0857103 11:0.0156072 12:-0.220851 13:-0.312385 14:0.991629 15:-0.433945 16:0.0119529 17:-0.0979864 18:-0.64954 19:0.129641 20:-0.50688 21:0.0161759 22:-0.297315 23:0.498786 24:-0.525105 25:0.482634 26:-0.0155392 
0.125 0.125 1:-0.488112 2:0.107463 3:-0.143671 4:0.0609893 5:-0.0492224 6:0.216644 7:0.18194 8:0.0723651 9:0.0469843 10:-0.0327937 11:0.09588 12:-0.0617664 13:-0.547743 14:0.687738 15:-0.390153 16:0.0800416 17:-0.195226 18:-0.208665 19:0.15466 20:-0.293579 21:0.00528997 22:-0.279417 23:0.426225 24:-0.370778 25:0.00121328 26:-0.0158656 
0 0.125 1:0.00596551 2:-0.25834 3:-0.18122 4:0.0852692 5:-0.475602 6:0.135256 7:-0.137963 8:0.27737 9:-0.38912 10:0.391872 11:-0.612731 12:0.418141 13:-0.227465 14:0.125806 15:0.142001 16:0.0813451 17:-0.260742 18:0.484223 19:0.151412 20:0.137329 21:-0.208701 22:0.0869678 23:-0.0636285 24:0.194231 25:-0.599846 26:-0.0259803 
0.125 0.125 1:0.369098 2:-0.318124 3:-0.111168 4:0.0676321 5:-0.476797 6:0.0962067 7:-0.120239 8:0.315589 9:-0.328603 10:0.429652 11:-0.680118 12:0.482509 13:-0.17165 14:-0.192143 15:0.579697 16:-0.0176213 17:-0.14995 18:0.691055 19:0.110733 20:0.467747 21:-0.447311 22:0.211745 23:-0.387883 24:0.59596 25:-0.800785 26:-0.0353332 
0.125 0.125 1:0.31283 2:-0.340216 3:-0.0785783 4:0.0249848 5:-0.345933 6:0.142721 7:-0.101601 8:0.259227 9:-0.131282 10:0.530566 11:-0.691538 12:0.409735 13:-0.0975402 14:-0.0390904 15:0.672655 16:-0.150814 17:0.0592084 18:0.355858 19:0.00659775 20:0.525272 21:-0.491925 22:0.0775673 23:-0.566458 24:0.575452 25:-0.551169 26:-0.0418651 
0.125 0.125 1:-0.0265154 2:-0.252086 3:-0.161443 4:-0.194231 5:-0.00213937 6:0.241943 7:-0.133885 8:-0.117655 9:0.103927 10:0.401149 11:-0.593233 12:0.242943 13:0.0868344 14:0.375752 15:0.342033 16:-0.255822 17:0.268683 18:-0.253892 19:-0.119565 20:0.36204 21:-0.238372 22:-0.233461 23:-0.451568 24:0.2378 25:-0.0956433 26:-0.0468675 
0.125 0.125 1:0.0497429 2:0.25265 3:-0.0447076 4:-0.114535 5:0.00146011 6:0.191583 7:0.111788 8:-0.0695087 9:0.0921588 10:0.311543 11:-0.297431 12:0.11289 13:-0.178204 14:0.602678 15:-0.315097 16:-0.302757 17:0.247994 18:-0.538877 19:-0.134701 20:-0.0111186 21:0.0236644 22:-0.507777 23:-0.168586 24:-0.224369 25:0.249727 26:-0.039979 
0.125 0.125 1:0.288247 2:0.440665 3:-0.218035 4:-0.0100579 5:-0.105808 6:0.169512 7:0.35794 8:-0.42814 9:0.232492 10:0.0748766 11:-0.298882 12:0.0825601 13:-0.275426 14:0.497574 15:-0.660853 16:-0.13245 17:0.0883678 18:-0.4128 19:-0.0754389 20:-0.336633 21:0.327974 22:-0.555314 23:0.138204 24:-0.37419 25:0.256071 26:-0.0353769 
0.125 0.125 1:0.43694 2:0.439888 3:-0.394792 4:-0.00606674 5:-0.163804 6:0.119071 7:0.378236 8:-0.655126 9:0.18512 10:-0.0878325 11:-0.348799 12:0.213424 13:-0.380556 14:0.267411 15:-0.670162 16:0.0858763 17:-0.0381086 18:-0.2498 19:0.0453143 20:-0.541649 21:0.482992 22:-0.420012 23:0.433299 24:-0.338335 25:0.0747162 26:-0.0277061 
0 0.125 1:0.527396 2:0.430411 3:-0.491479 4:0.0161922 5:-0.222833 6:0.195326 7:0.39747 8:-0.588055 9:0.0142182 10:-0.133491 11:-0.459214 12:0.246505 13:-0.50082 14:0.102015 15:-0.471625 16:0.205498 17:-0.0680152 18:-0.132861 19:0.100625 20:-0.602531 21:0.408492 22:-0.174226 23:0.545844 24:-0.112103 25:-0.0497304 26:-0.01583 
0 0.125 1:0.599372 2:0.438205 3:-0.498968 4:0.0222987 5:-0.278264 6:0.149078 7:0.40917 8:-0.587957 9:-0.0589166 10:-0.23747 11:-0.549821 12:0.217518 13:-0.744828 14:0.044554 15:-0.295779 16:0.170031 17:0.0758348 18:0.0007448 19:0.0726792 20:-0.486178 21:0.392601 22:-0.031748 23:0.429724 24:0.138665 25:-0.171239 26:-0.00614201 
0 0.125 1:0.662598 2:0.429575 3:-0.522376 4:0.014178 5:-0.405905 6:0.155052 7:0.295271 8:-0.575289 9:-0.128866 10:-0.110277 11:-0.727937 12:0.233258 13:-0.872836 14:0.0432971 15:-0.184897 16:0.0618286 17:0.121741 18:0.230508 19:-0.0102489 20:-0.271765 21:0.374977 22:-0.0947936 23:0.182339 24:0.335384 25:-0.314421 26:0.000306174 
0 0.125 1:0.692085 2:0.392709 3:-0.521043 4:0.0377911 5:-0.611217 6:0.295934 7:0.0759833 8:-0.520164 9:-0.161372 10:0.0757773 11:-0.782793 12:0.256943 13:-0.711043 14:0.131037 15:-0.0519718 16:0.0133391 17:-0.0488751 18:0.508801 19:-0.212745 20:0.0251098 21:0.308879 22:-0.304616 23:0.0559059 24:0.366987 25:-0.373398 26:-0.0085987 
0 0.125 1:0.602503 2:0.37067 3:-0.567647 4:0.109842 5:-0.639885 6:0.360063 7:-0.0488619 8:-0.462275 9:-0.0859507 10:0.108231 11:-0.598557 12:0.327322 13:-0.386562 14:0.323272 15:0.0210337 16:0.0680206 17:-0.31307 18:0.530849 19:-0.361281 20:0.266157 21:0.0729052 22:-0.432634 23:0.140119 24:0.198736 25:-0.294574 26:-0.0271496 
0 0.125 1:0.425097 2:0.238171 3:-0.667746 4:0.287431 5:-0.406285 6:0.233594 7:-0.0917792 8:-0.138561 9:-0.211523 10:-0.146361 11:-0.573759 12:-0.026735 13:-0.406218 14:0.489454 15:0.000683105 16:0.166436 17:-0.487956 18:0.299763 19:-0.3334 20:0.390593 21:-0.33956 22:-0.183036 23:0.356101 24:0.0580127 25:0.118011 26:-0.0368179 
0 0.125 1:0.469336 2:0.473241 3:-0.576914 4:0.118474 5:-0.412273 6:0.273304 7:-0.15519 8:0.121509 9:-0.648895 10:0.135144 11:-0.378017 12:-0.214904 13:-0.0950348 14:0.425838 15:-0.208048 16:0.16334 17:-0.301691 18:0.145762 19:-0.190545 20:0.424463 21:-0.614508 22:0.296795 23:0.262051 24:-0.0558751 25:0.439688 26:-0.0390816 
0.125 0.125 1:0.628119 2:0.555457 3:-0.582194 4:-0.149623 5:-0.252113 6:0.102505 7:-0.0436422 8:-0.0668269 9:-0.729383 10:0.379924 11:-0.402946 12:-0.134894 13:-0.263092 14:0.144974 15:-0.328036 16:0.161495 17:0.102358 18:0.0453697 19:0.153686 20:0.366454 21:-0.507124 22:0.569826 23:-0.0829605 24:0.025002 25:0.397354 26:-0.0309458 
0.125 0.125 1:0.71543 2:0.412822 3:-0.537847 4:-0.239705 5:-0.248268 6:-0.0120585 7:-0.012298 8:-0.259977 9:-0.680752 10:0.459303 11:-0.416607 12:-0.0826518 13:-0.38385 14:-0.132741 15:-0.264457 16:0.166848 17:0.462297 18:0.0437427 19:0.395965 20:0.210213 21:-0.203168 22:0.410519 23:-0.337672 24:0.111198 25:0.103541 26:-0.0239351 
0.125 0.125 1:0.654849 2:0.365701 3:-0.455724 4:-0.23947 5:-0.132249 6:0.0165114 7:0.153276 8:-0.264414 9:-0.389319 10:0.603823 11:-0.229119 12:0.14583 13:-0.116343 14:-0.17608 15:-0.201214 16:0.144793 17:0.670835 18:-0.0598409 19:0.394402 20:-0.124164 21:0.168474 22:-0.0568264 23:-0.441606 24:-0.0383879 25:-0.210285 26:-0.025847 
0.125 0.125 1:0.448115 2:0.410818 3:-0.402964 4:-0.231003 5:0.0539406 6:0.0583585 7:0.353262 8:-0.405221 9:-0.285104 10:0.5171 11:-0.187687 12:0.113503 13:-0.0687578 14:0.102796 15:-0.19413 16:0.0416392 17:0.562192 18:-0.312701 19:0.224911 20:-0.40439 21:0.442853 22:-0.391357 23:-0.239801 24:-0.197496 25:-0.174732 26:-0.026216 
0.125 0.125 1:0.123495 2:0.407601 3:-0.289615 4:-0.153575 5:0.141566 6:0.304387 7:0.544172 8:-0.510902 9:-0.13975 10:0.303677 11:0.0282025 12:0.0142475 13:-0.209865 14:0.484997 15:-0.266564 16:-0.225944 17:0.188296 18:-0.449147 19:-0.159003 20:-0.520625 21:0.436734 22:-0.407705 23:-0.0248192 24:-0.348992 25:0.027402 26:-0.0258439 
0.125 0.125 1:-0.0940181 2:0.364512 3:-0.0880981 4:0.0955815 5:0.0853575 6:0.354569 7:0.386164 8:-0.500852 9:-0.358219 10:0.479488 11:0.0134532 12:-0.0317531 13:-0.0759239 14:0.736488 15:-0.238649 16:-0.537869 17:-0.317876 18:-0.350428 19:-0.398902 20:-0.457482 21:0.314991 22:-0.100008 23:-0.0384546 24:-0.34698 25:0.143941 26:-0.0253062 
0.125 0.125 1:-0.154751 2:0.259646 3:-0.0723177 4:0.400704 5:0.0524553 6:0.366642 7:0.243825 8:-0.154021 9:-0.293041 10:0.296934 11:-0.33547 12:0.166368 13:0.0106487 14:0.782871 15:-0.0579931 16:-0.596768 17:-0.638872 18:-0.186758 19:-0.541978 20:-0.328051 21:-0.00648132 22:0.198449 23:-0.0947035 24:-0.0795932 25:0.0597149 26:-0.0260352 
0.125 0.125 1:0.00457504 2:0.177359 3:-0.222823 4:0.281056 5:-0.0692262 6:0.403233 7:0.407927 8:-0.0939833 9:-0.232592 10:0.236573 11:-0.27286 12:0.23496 13:-0.00802874 14:0.652783 15:0.0835695 16:-0.339471 17:-0.451957 18:-0.0660328 19:-0.613309 20:-0.257978 21:-0.226725 22:0.323037 23:-0.295228 24:0.133183 25:-0.0579577 26:-0.0294383 
0.125 0.125 1:-0.00131018 2:0.134791 3:-0.415534 4:0.0646609 5:-0.151631 6:0.26683 7:0.274989 8:-0.273054 9:-0.156527 10:0.212019 11:-0.289554 12:0.2361 13:0.0710049 14:0.517397 15:0.0529552 16:0.0782818 17:0.0061077 18:-0.0604347 19:-0.482968 20:-0.0609553 21:-0.205049 22:0.200511 23:-0.394955 24:0.325226 25:-0.0747344 26:-0.0346943 
0.125 0.125 1:0.116662 2:0.244332 3:-0.6447 4:-0.0431575 5:-0.0245141 6:0.176985 7:-0.0420959 8:-0.00702715 9:0.0917519 10:0.0502346 11:-0.634647 12:0.295198 13:0.16355 14:0.36148 15:-0.132783 16:0.409136 17:0.360006 18:-0.12685 19:-0.252818 20:0.182346 21:-0.137006 22:-0.207898 23:-0.184862 24:0.417801 25:-0.0352994 26:-0.0383838 
0.125 0.125 1:0.333388 2:0.302552 3:-0.620018 4:0.0651916 5:-0.273447 6:-0.117316 7:-0.0768976 8:-0.168025 9:0.407343 10:-0.303621 11:-0.334719 12:0.317731 13:0.041796 14:0.170004 15:-0.272295 16:0.393828 17:0.382369 18:0.0242853 19:0.13058 20:0.275568 21:0.146508 22:-0.650433 23:0.252536 24:0.202646 25:-0.0247705 26:-0.0370877 
0.125 0 1:0.458314 2:0.257266 3:-0.571186 4:0.159665 5:-0.409658 6:-0.334884 7:0.0253611 8:-0.230088 9:0.548688 10:-0.639999 11:-0.169186 12:0.424523 13:0.0330744 14:-0.00145165 15:-0.230839 16:0.176331 17:0.186404 18:0.23561 19:0.43978 20:0.192371 21:0.271418 22:-0.832913 23:0.746959 24:-0.0430109 25:-0.193229 26:-0.0296066 
0.125 0 1:0.530571 2:0.18953 3:-0.530436 4:0.176529 5:-0.41987 6:-0.369851 7:0.0244325 8:-0.169764 9:0.469541 10:-0.72819 11:-0.087949 12:0.485651 13:-0.112959 14:-0.105004 15:-0.0852951 16:-0.0319137 17:0.00706779 18:0.323442 19:0.533243 20:0.0471195 21:0.125992 22:-0.59055 23:0.941698 24:-0.317082 25:-0.372607 26:-0.0187887 
0.125 0 1:0.218389 2:0.273606 3:-0.578998 4:0.392697 5:-0.298527 6:-0.24073 7:0.0380094 8:0.132042 9:0.102516 10:-0.282676 11:-0.215461 12:0.251161 13:0.00128145 14:0.390325 15:-0.125198 16:-0.0343515 17:-0.181427 18:-0.117479 19:-0.0497326 20:0.0607103 21:-0.344352 22:0.149841 23:-0.0519027 24:0.00250373 25:0.100933 26:-0.021505 
0 0.125 1:0.0618861 2:0.267188 3:-0.314353 4:0.083995 5:-0.369066 6:0.0148217 7:0.40054 8:0.0236667 9:0.0473847 10:0.0571295 11:-0.16148 12:0.15315 13:-0.0196002 14:0.325294 15:-0.274975 16:0.113671 17:0.128985 18:-0.335066 19:0.0330622 20:-0.127148 21:-0.10297 22:-0.249147 23:0.00170566 24:0.254815 25:0.0468966 26:-0.0348152 
0 0.125 1:0.0172517 2:0.273719 3:-0.383077 4:0.146266 5:-0.448318 6:0.158345 7:0.304706 8:0.0119039 9:0.147929 10:-0.0985876 11:-0.274065 12:0.184781 13:-0.0929374 14:0.357775 15:-0.311737 16:0.258437 17:0.0799994 18:-0.189032 19:-0.241432 20:0.0480041 21:-0.115348 22:-0.370525 23:0.0561172 24:0.411199 25:0.0947298 26:-0.0313211 
0 0.125 1:-0.130483 2:0.332962 3:-0.29006 4:0.201935 5:-0.459385 6:0.115319 7:0.324432 8:0.0266437 9:-0.313254 10:0.233993 11:0.206796 12:0.0397356 13:-0.277203 14:0.506259 15:-0.345019 16:-0.0405414 17:-0.021096 18:0.1886 19:-0.274437 20:-0.183272 21:0.212391 22:0.0910354 23:-0.39265 24:-0.340951 25:-0.0647633 26:-0.0259637 
0 0.125 1:-0.133513 2:0.182414 3:-0.339847 4:0.304896 5:-0.366125 6:-0.048638 7:0.200721 8:0.27037 9:-0.368646 10:-0.0288514 11:0.214267 12:0.112453 13:-0.202605 14:0.574988 15:-0.041926 16:-0.129084 17:0.0637636 18:-0.0585226 19:0.072415 20:-0.32782 21:-0.0136418 22:0.348817 23:-0.252794 24:-0.384233 25:-0.182407 26:-0.0272249 
0 0.125 1:-0.0807656 2:-0.00173465 3:-0.315809 4:0.25678 5:-0.296302 6:-0.150426 7:0.383442 8:0.25865 9:-0.464178 10:-0.175609 11:0.00265969 12:0.155214 13:-0.182444 14:0.571545 15:0.253441 16:-0.189375 17:0.139344 18:-0.21417 19:0.303337 20:-0.453052 21:-0.155456 22:0.358115 23:-0.00581419 24:-0.130251 25:-0.200924 26:-0.0254063 
0.125 0.125 1:0.0567675 2:-0.0199832 3:-0.289107 4:0.21806 5:-0.262766 6:-0.188008 7:0.156208 8:0.29989 9:-0.404073 10:-0.240804 11:-0.163357 12:-0.115513 13:-0.420443 14:0.467484 15:0.299784 16:-0.195088 17:0.0973413 18:-0.208021 19:0.321451 20:-0.289031 21:-0.239462 22:0.120736 23:0.134711 24:0.151267 25:-0.0118093 26:-0.018789 
0.1054386030208478 0.125 1:0.237048 2:0.171883 3:-0.374853 4:0.397876 5:-0.300821 6:-0.165457 7:-0.0959424 8:0.468064 9:-0.123821 10:-0.360775 11:-0.0917842 12:-0.139814 13:-0.394697 14:0.292009 15:0.0791398 16:-0.138359 17:-0.052285 18:-0.12418 19:0.16178 20:-0.007447 21:-0.222058 22:-0.223637 23:0.189703 24:0.20826 25:0.11988 26:-0.0137427 
0.125 0.125 1:0.43114 2:0.265284 3:-0.447607 4:0.445146 5:-0.271475 6:-0.0710549 7:-0.175991 8:0.332414 9:-0.114252 10:-0.495032 11:-0.0743015 12:-0.107572 13:-0.376604 14:0.10636 15:-0.202353 16:-0.0432593 17:-0.134927 18:-0.0517184 19:-0.0523422 20:0.207117 21:-0.0690497 22:-0.311736 23:0.223747 24:0.0944979 25:0.156424 26:-0.0105107 
0.125 0.125 1:0.564521 2:0.310083 3:-0.524805 4:0.419868 5:-0.306768 6:-0.0310701 7:-0.294963 8:0.312238 9:-0.17831 10:-0.52404 11:-0.0355425 12:-0.119218 13:-0.285906 14:-0.0238094 15:-0.367818 16:0.0881741 17:-0.140361 18:0.0320423 19:-0.169484 20:0.359471 21:0.0336951 22:-0.218593 23:0.27189 24:-0.00593547 25:0.149581 26:-0.0140585 
0.125 0.125 1:0.619562 2:0.358268 3:-0.601001 4:0.394619 5:-0.329487 6:-0.0494225 7:-0.356161 8:0.283309 9:-0.185537 10:-0.614232 11:-0.0337092 12:-0.118844 13:-0.136056 14:-0.0812687 15:-0.391147 16:0.216444 17:-0.0812972 18:0.102586 19:-0.164364 20:0.32969 21:0.143495 22:-0.0954826 23:0.315445 24:0.0210701 25:0.139041 26:-0.0251818 
0.125 0.125 1:0.6026 2:0.403604 3:-0.640569 4:0.415446 5:-0.337649 6:-0.0580142 7:-0.325958 8:0.315468 9:-0.154098 10:-0.623781 11:-0.0606983 12:-0.110206 13:0.026152 14:-0.103131 15:-0.382129 16:0.315398 17:0.00218038 18:0.141509 19:-0.0871907 20:0.174178 21:0.140586 22:-0.137127 23:0.21701 24:0.097391 25:0.0903056 26:-0.0381749 
0.125 0.125 1:0.540985 2:0.31135 3:-0.61723 4:0.392182 5:-0.299641 6:-0.074687 7:-0.287816 8:0.356175 9:-0.105834 10:-0.543639 11:-0.084625 12:-0.00725496 13:0.224797 14:-0.0801087 15:-0.343737 16:0.312502 17:0.0309065 18:0.162301 19:0.0615838 20:0.0135793 21:-0.0289458 22:-0.256467 23:0.0065799 24:0.0188157 25:-0.0675479 26:-0.0478661 
0.125 0.125 1:0.407446 2:0.303993 3:-0.600467 4:0.395409 5:-0.284941 6:-0.0763038 7:-0.219784 8:0.355976 9:-0.03921 10:-0.525436 11:0.0245972 12:0.103677 13:0.293231 14:0.0341825 15:-0.263307 16:0.199517 17:0.0049333 18:0.172958 19:0.134247 20:-0.0366944 21:-0.129314 22:-0.250237 23:-0.0180468 24:-0.190504 25:-0.233027 26:-0.0456986 
0.125 0.125 1:0.202782 2:0.278069 3:-0.461292 4:0.346394 5:-0.221775 6:-0.0791439 7:-0.126673 8:0.468302 9:-0.0947436 10:-0.47239 11:0.134639 12:0.218787 13:0.0746244 14:0.231535 15:-0.133342 16:0.0266145 17:-0.0435271 18:0.158611 19:0.100383 20:0.0140382 21:-0.136485 22:-0.131288 23:0.049439 24:-0.282136 25:-0.251881 26:-0.0326383 
0.125 0.125 1:-0.107672 2:0.105686 3:-0.276383 4:0.416077 5:-0.171121 6:-0.0418299 7:-0.276471 8:0.411233 9:-0.350957 10:-0.611129 11:0.110968 12:0.0427103 13:-0.129448 14:0.450053 15:9.6903e-06 16:-0.11059 17:-0.150824 18:0.108882 19:-0.00811912 20:0.164635 21:-0.0286721 22:-0.0229495 23:0.230757 24:-0.193442 25:-0.0485067 26:-0.0191654 
0.125 0.125 1:-0.295146 2:0.0568002 3:-0.300386 4:0.390998 5:-0.0682525 6:0.159219 7:-0.210962 8:0.184031 9:-0.209677 10:-0.750758 11:-0.238063 12:0.0502932 13:-0.105013 14:0.56251 15:0.0148186 16:-0.0983775 17:-0.167795 18:-0.0294034 19:-0.152495 20:0.117057 21:0.0932756 22:-0.142432 23:0.332486 24:0.0740297 25:0.00748839 26:-0.0154817 
0.125 0.125 1:-0.334417 2:0.149133 3:-0.300011 4:0.305498 5:0.0429623 6:0.110612 7:0.0881395 8:0.291723 9:-0.0431038 10:-0.353393 11:-0.386029 12:0.0712989 13:-0.0260563 14:0.53234 15:-0.070661 16:-0.0595318 17:-0.0673254 18:-0.221891 19:-0.148274 20:-0.125676 21:0.0217717 22:-0.253353 23:0.19716 24:0.255058 25:-0.00729508 26:-0.019627 
0.125 0.125 1:-0.397852 2:0.143824 3:-0.162973 4:0.219315 5:0.111945 6:0.073218 7:0.0932625 8:0.427581 9:-0.207188 10:-0.412426 11:-0.121579 12:0.17704 13:-0.0562801 14:0.458148 15:-0.162484 16:-0.108614 17:0.0401539 18:-0.330931 19:-0.114012 20:-0.29868 21:-0.0874098 22:-0.153192 23:0.133505 24:0.176903 25:-0.0894306 26:-0.0256835 
0.125 0.125 1:-0.463275 2:0.0690115 3:-0.129708 4:0.121824 5:0.14006 6:0.134097 7:0.151854 8:0.286098 9:-0.36929 10:-0.39268 11:-0.272651 12:0.248225 13:0.00532652 14:0.471483 15:-0.221721 16:-0.215353 17:0.0732591 18:-0.440746 19:-0.143203 20:-0.30955 21:-0.117704 22:0.0519455 23:0.194475 24:0.072692 25:-0.0785553 26:-0.0271919 
0.125 0.125 1:-0.481839 2:0.0933957 3:-0.109551 4:0.146113 5:0.0719265 6:0.185952 7:0.136687 8:0.20541 9:-0.407929 10:-0.280691 11:-0.286376 12:-0.0522337 13:-0.0152776 14:0.555093 15:-0.263591 16:-0.270025 17:-0.00733723 18:-0.445844 19:-0.193072 20:-0.109018 21:-0.0857766 22:0.133899 23:0.303305 24:-0.062559 25:0.0953718 26:-0.0233908 
0.125 0.125 1:-0.50688 2:0.0843448 3:-0.107564 4:0.136824 5:-0.0272485 6:0.16804 7:0.123157 8:0.168264 9:-0.257515 10:-0.0638216 11:-0.186428 12:0.167794 13:0.0339863 14:0.573832 15:-0.316563 16:-0.128565 17:-0.0117221 18:-0.381818 19:-0.161665 20:0.0295687 21:-0.016425 22:-0.0764361 23:0.309699 24:-0.140187 25:0.0439675 26:-0.0216401 
0.125 0.125 1:-0.490054 2:0.0266645 3:-0.206358 4:0.0345078 5:-0.0331548 6:0.103611 7:0.0461465 8:0.176854 9:-0.188644 10:-0.118185 11:-0.229217 12:0.180426 13:-0.0380671 14:0.423177 15:-0.355083 16:0.166434 17:0.178172 18:-0.18796 19:0.137202 20:-0.0504701 21:0.0217875 22:-0.251418 23:0.162575 24:-0.112524 25:0.0725742 26:-0.0201922 
0 0.125 1:-0.18243 2:-0.0608367 3:-0.354732 4:-0.0950472 5:-0.409098 6:0.0306858 7:0.240749 8:0.0375483 9:-0.135644 10:0.354516 11:-0.341019 12:0.293444 13:0.157861 14:0.189864 15:-0.202149 16:0.474751 17:0.422225 18:0.203471 19:0.414666 20:-0.208032 21:0.0346751 22:-0.217918 23:-0.177328 24:-0.0556566 25:-0.012402 26:-0.0270532 
0.125 0.125 1:-0.0374237 2:-0.14952 3:-0.27364 4:-0.0842939 5:-0.518165 6:0.00866839 7:0.292171 8:-0.0159551 9:-0.303658 10:0.510317 11:-0.408236 12:0.208788 13:0.263241 14:0.127164 15:0.0328761 16:0.554613 17:0.474364 18:0.423443 19:0.431081 20:-0.192241 21:0.0509075 22:0.0448833 23:-0.357142 24:0.0783366 25:-0.0134278 26:-0.0365592 
0 0.125 1:-0.125923 2:-0.32209 3:-0.104954 4:0.0196113 5:-0.651471 6:0.150869 7:0.151874 8:-0.0745583 9:-0.416344 10:0.51292 11:-0.505589 12:0.221379 13:0.222531 14:0.257613 15:0.200721 16:0.336544 17:0.248044 18:0.492988 19:0.14302 20:0.0494245 21:0.140867 22:0.305059 23:-0.305559 24:0.190932 25:0.0400394 26:-0.0411478 
0 0.125 1:-0.248181 2:-0.409612 3:0.0384347 4:0.238948 5:-0.537508 6:0.568214 7:-0.0257611 8:-0.00711991 9:-0.142339 10:0.574924 11:-0.510748 12:0.582648 13:0.397528 14:0.41097 15:0.168776 16:-0.0472751 17:-0.113276 18:0.333135 19:-0.262545 20:0.280951 21:0.229876 22:0.263752 23:-0.187929 24:0.183323 25:-0.0729374 26:-0.0423732 
0 0.125 1:-0.0624242 2:-0.132666 3:0.352063 4:0.35153 5:-0.551459 6:0.520375 7:0.14777 8:-0.179591 9:-0.0783156 10:0.543538 11:-0.505938 12:0.336024 13:0.125345 14:0.382097 15:-0.0806464 16:-0.439329 17:-0.326561 18:0.145843 19:-0.370434 20:0.210433 21:0.28806 22:0.0548984 23:-0.0136831 24:0.177031 25:0.028062 26:-0.0323694 
0 0.125 1:0.140123 2:-0.1655 3:0.472122 4:0.345006 5:-0.585294 6:0.50654 7:0.295564 8:-0.187014 9:0.0697364 10:0.545053 11:-0.431994 12:0.480349 13:-0.0379155 14:0.206821 15:-0.198521 16:-0.559189 17:-0.306147 18:0.0736501 19:-0.322652 20:-0.0841051 21:0.194974 22:-0.247766 23:0.0123617 24:0.171403 25:0.000535109 26:-0.0236521 
0 0.125 1:0.171747 2:-0.217498 3:0.387669 4:0.310115 5:-0.489532 6:0.571796 7:0.374947 8:0.0877632 9:0.377826 10:0.656784 11:-0.406589 12:0.61285 13:-0.0402222 14:0.0889721 15:-0.201682 16:-0.411814 17:-0.19129 18:-0.0313049 19:-0.24415 20:-0.32055 21:-0.0585835 22:-0.430831 23:-0.00480264 24:0.194701 25:0.0161948 26:-0.0181933 
0 0.125 1:0.164399 2:-0.200184 3:0.337425 4:0.307528 5:-0.461606 6:0.647438 7:0.393334 8:0.186782 9:0.449429 10:0.582511 11:-0.414632 12:0.653951 13:-0.125811 14:0.116708 15:-0.137046 16:-0.187362 17:-0.0763977 18:-0.0645081 19:-0.190999 20:-0.311574 21:-0.206004 22:-0.390986 23:0.0579845 24:0.138605 25:-0.0266653 26:-0.0148837 
0 0.125 1:0.15677 2:-0.161271 3:0.283896 4:0.296086 5:-0.455499 6:0.594687 7:0.342237 8:0.0451512 9:0.319366 10:0.531205 11:-0.15367 12:0.754587 13:-0.157908 14:0.227758 15:-0.102601 16:0.0265404 17:0.0124613 18:-0.115064 19:-0.146899 20:-0.108877 21:-0.144528 22:-0.20642 23:0.1403 24:-0.0277204 25:-0.167786 26:-0.0148262 
0 0.125 1:0.127994 2:-0.132065 3:0.227578 4:0.258434 5:-0.452374 6:0.521518 7:0.284416 8:0.0373975 9:0.361787 10:0.592985 11:-0.0539555 12:0.785623 13:-0.162116 14:0.303775 15:-0.158205 16:0.156697 17:0.132928 18:-0.129145 19:-0.0140189 20:0.0312737 21:-0.0166687 22:-0.124806 23:0.148862 24:-0.126398 25:-0.206713 26:-0.0177214 
0 0.125 1:0.102363 2:-0.135138 3:0.215631 4:0.179629 5:-0.484035 6:0.506504 7:0.303817 8:0.0663327 9:0.544963 10:0.640012 11:0.103997 12:0.983105 13:-0.0115036 14:0.325411 15:-0.172184 16:0.163335 17:0.244505 18:-0.0671886 19:0.103359 20:0.0414167 21:0.0198544 22:-0.196038 23:0.0734929 24:-0.155826 25:-0.241309 26:-0.0249555 
0 0.125 1:0.143151 2:-0.0965155 3:0.176612 4:0.213269 5:-0.46266 6:0.525188 7:0.36649 8:0.0460643 9:0.468006 10:0.618192 11:-0.0527226 12:0.828361 13:0.00698127 14:0.323757 15:-0.164976 16:0.102214 17:0.248657 18:-0.0110906 19:0.101873 20:-0.051819 21:-0.0192542 22:-0.278167 23:-0.132427 24:-0.105951 25:-0.223301 26:-0.0337494 
0 0.125 1:0.123704 2:-0.118365 3:0.219016 4:0.287227 5:-0.542435 6:0.550515 7:0.38246 8:0.108009 9:0.623491 10:0.747584 11:0.0653625 12:0.883237 13:0.221661 14:0.336856 15:-0.157452 16:-0.0739757 17:0.165132 18:0.0610163 19:0.026067 20:-0.15823 21:-0.044079 22:-0.397048 23:-0.409428 24:-0.139065 25:-0.350136 26:-0.0392318 
0 0.125 1:0.114641 2:-0.0835907 3:0.354609 4:0.406994 5:-0.592665 6:0.57404 7:0.352018 8:0.0439898 9:0.44854 10:0.705993 11:0.166873 12:0.833344 13:0.053763 14:0.352372 15:-0.166871 16:-0.278457 17:0.073185 18:0.0667552 19:-0.0629095 20:-0.187355 21:0.0580152 22:-0.370936 23:-0.531174 24:-0.275804 25:-0.511073 26:-0.0333697 
0 0.125 1:0.144991 2:-0.0697304 3:0.251566 4:0.427085 5:-0.535101 6:0.655299 7:0.376441 8:-0.0824193 9:0.419804 10:0.611766 11:0.174672 12:0.932055 13:0.0461341 14:0.364 15:-0.130187 16:-0.299137 17:0.0824975 18:-0.0293448 19:-0.169031 20:-0.125919 21:0.163585 22:-0.341278 23:-0.345824 24:-0.279331 25:-0.565762 26:-0.0251196 
0 0.125 1:0.189023 2:-0.0625575 3:0.184779 4:0.491616 5:-0.521478 6:0.616395 7:0.326614 8:0.0171909 9:0.408487 10:0.302609 11:-0.0547684 12:0.6184 13:-0.113828 14:0.36394 15:-0.0228143 16:-0.23155 17:0.115167 18:-0.0973232 19:-0.264387 20:0.000228471 21:0.0907386 22:-0.275265 23:0.141821 24:-0.047256 25:-0.276821 26:-0.0183589 
0 0.125 1:0.218329 2:-0.0992066 3:0.0545822 4:0.590337 5:-0.584443 6:0.656512 7:0.235856 8:0.0809354 9:0.20336 10:0.00446155 11:-0.118463 12:0.260376 13:-0.0272362 14:0.334003 15:0.107636 16:-0.133344 17:0.0548842 18:-0.0232759 19:-0.412033 20:0.0880745 21:-0.0860877 22:-0.0360077 23:0.63353 24:0.311954 25:0.261286 26:-0.0185652 
0 0.125 1:0.275631 2:-0.0494447 3:-0.0667402 4:0.714093 5:-0.633985 6:0.624239 7:0.241072 8:0.0846697 9:-0.0173106 10:-0.174072 11:-0.377286 12:0.0301745 13:0.0556017 14:0.274142 15:0.144003 16:-0.0968452 17:-0.181535 18:0.175614 19:-0.440445 20:0.0859664 21:-0.263594 22:0.234033 23:0.778676 24:0.620206 25:0.704238 26:-0.0245699 
0 0.125 1:0.36038 2:0.0664966 3:-0.124474 4:0.853486 5:-0.690601 6:0.525133 7:0.332653 8:0.104761 9:-0.0481962 10:0.0164014 11:-0.255683 12:0.00482289 13:0.0754711 14:0.179731 15:0.0318479 16:-0.0569143 17:-0.527186 18:0.395899 19:-0.219001 20:0.0509971 21:-0.312442 22:0.411141 23:0.466035 24:0.575815 25:0.754291 26:-0.0316807 
0 0.125 1:0.411714 2:0.229841 3:-0.267456 4:0.919165 5:-0.705499 6:0.337757 7:0.346162 8:0.00681518 9:-0.0357086 10:0.137422 11:-0.0105422 12:0.0644627 13:0.0915206 14:0.0799258 15:-0.170846 16:0.143519 17:-0.729182 18:0.483069 19:0.162972 20:0.0671125 21:-0.132544 22:0.283919 23:0.0591441 24:0.176992 25:0.36661 26:-0.0374507 
0 0.125 1:0.483186 2:0.24348 3:-0.379264 4:0.621042 5:-0.548395 6:-0.245476 7:0.173403 8:0.248098 9:-0.53762 10:0.102286 11:0.0789818 12:-0.293025 13:-0.267023 14:0.198672 15:-0.208779 16:0.0747843 17:-0.157926 18:0.0343537 19:-0.0691118 20:0.0200029 21:-0.149956 22:-0.0348656 23:-0.335818 24:0.153098 25:0.142952 26:-0.0304063 
0 0.125 1:0.352959 2:0.307892 3:-0.383303 4:0.664598 5:-0.372826 6:-0.107318 7:0.26131 8:0.209354 9:-0.346852 10:0.17997 11:0.10747 12:-0.249742 13:-0.315591 14:0.276384 15:-0.313467 16:0.196074 17:-0.280187 18:-0.137086 19:-0.0845091 20:-0.300064 21:-0.0983405 22:-0.155845 23:-0.249836 24:0.100219 25:0.139579 26:-0.0218784 
0 0.125 1:0.236951 2:0.316904 3:-0.354262 4:0.715311 5:-0.452278 6:-0.165241 7:0.335892 8:0.328599 9:-0.41089 10:0.134139 11:0.248968 12:-0.204843 13:-0.211864 14:0.332556 15:-0.336984 16:0.243454 17:-0.282765 18:-0.113965 19:0.0427509 20:-0.463856 21:-0.195216 22:-0.0708911 23:0.0455043 24:-0.108095 25:0.00625968 26:-0.0220724 
0.125 0.09718415186904875 1:0.0973944 2:0.29906 3:-0.278383 4:0.611541 5:-0.38576 6:-0.221986 7:0.387747 8:0.534322 9:-0.429607 10:0.0402194 11:0.532314 12:-0.0556624 13:-0.0591707 14:0.390805 15:-0.327576 16:0.119821 17:-0.0824082 18:-0.0560979 19:0.120732 20:-0.34412 21:-0.340741 22:0.00492183 23:0.259764 24:-0.348234 25:-0.249312 26:-0.0274815 
0.125 0.125 1:-0.0137529 2:0.279838 3:-0.0893494 4:0.566332 5:-0.263421 6:-0.019519 7:0.257945 8:0.548007 9:-0.273696 10:0.0719365 11:0.301878 12:0.0567086 13:0.107092 14:0.431307 15:-0.340712 16:-0.129295 17:0.111566 18:-0.0600965 19:0.0510945 20:-0.0038183 21:-0.335461 22:-0.0658976 23:0.205947 24:-0.286843 25:-0.39683 26:-0.0308853 
0.125 0.125 1:-0.0909497 2:0.243768 3:-0.00911056 4:0.47219 5:-0.261191 6:0.114198 7:0.0539275 8:0.435874 9:-0.252156 10:0.268309 11:0.320387 12:-0.0277844 13:-0.0577229 14:0.448121 15:-0.325646 16:-0.305086 17:0.162419 18:-0.190815 19:-0.0999598 20:0.28472 21:-0.223923 22:-0.254674 23:-0.0770966 24:-0.255916 25:-0.374408 26:-0.0277978 
0.125 0.125 1:-0.155665 2:0.192749 3:0.0940865 4:0.495157 5:-0.267492 6:0.145708 7:0.0800429 8:0.257585 9:0.0146295 10:0.465355 11:0.205977 12:-0.0467205 13:0.0863173 14:0.454913 15:-0.199442 16:-0.374037 17:0.0903047 18:-0.333587 19:-0.27456 20:0.269833 21:-0.0991263 22:-0.415191 23:-0.30893 24:-0.18801 25:-0.244387 26:-0.0263297 
0.125 0.125 1:-0.144223 2:0.0659278 3:-0.00812141 4:0.611669 5:-0.14588 6:0.168932 7:0.310882 8:0.317589 9:-0.00722121 10:0.353145 11:0.07596 12:-0.2193 13:0.220752 14:0.445571 15:0.0209421 16:-0.261988 17:-0.00865534 18:-0.420061 19:-0.344411 20:-0.0328934 21:-0.157402 22:-0.314054 23:-0.208388 24:-0.0708762 25:-0.0599258 26:-0.0296668 
0.125 0.125 1:-0.156642 2:-0.0822502 3:-0.055233 4:0.596298 5:-0.242584 6:0.306752 7:0.372346 8:0.284777 9:-0.195751 10:0.184029 11:0.0577716 12:-0.235453 13:0.178921 14:0.447484 15:0.178968 16:-0.084721 17:0.0347836 18:-0.319481 19:-0.293696 20:-0.279834 21:-0.181436 22:-0.148022 23:0.0389326 24:0.0554377 25:0.0776732 26:-0.0318097 
0 0.125 1:-0.164207 2:-0.0865568 3:-0.0706613 4:0.402019 5:-0.520304 6:0.239578 7:0.306475 8:0.0895334 9:-0.28606 10:0.204868 11:-0.30856 12:-0.34898 13:0.251824 14:0.421869 15:0.13092 16:0.0591422 17:0.149311 18:-0.0637646 19:-0.0841669 20:-0.254156 21:-0.0384883 22:-0.114873 23:0.165064 24:0.333489 25:0.267954 26:-0.0318337 
0.125 0.125 1:-0.0692095 2:0.0565227 3:-0.170218 4:0.538091 5:-0.513393 6:0.0799303 7:0.311635 8:-0.126201 9:0.0186397 10:0.207855 11:-0.43376 12:-0.349476 13:0.344621 14:0.320519 15:-0.0906492 16:0.14632 17:0.0760327 18:0.164198 19:0.131464 20:-0.0430466 21:0.201092 22:-0.212281 23:0.153306 24:0.44085 25:0.406973 26:-0.0253671 
0 0.125 1:0.0199287 2:0.105365 3:-0.208961 4:0.639022 5:-0.672708 6:0.107724 7:0.23266 8:-0.304203 9:-0.0401965 10:0.275482 11:-0.268678 12:-0.44799 13:0.113399 14:0.200071 15:-0.278995 16:0.136946 17:-0.0552683 18:0.422767 19:0.127364 20:0.142786 21:0.418265 22:-0.234917 23:0.0586541 24:0.28599 25:0.359855 26:-0.0175678 
0 0.125 1:0.0924282 2:0.0612037 3:-0.13436 4:0.645692 5:-0.764456 6:0.21933 7:0.235237 8:-0.224909 9:-0.323332 10:0.191215 11:-0.203949 12:-0.266651 13:0.206452 14:0.115876 15:-0.340248 16:0.129623 17:-0.169542 18:0.486175 19:-0.013425 20:0.0503179 21:0.394154 22:-0.11312 23:0.104386 24:0.0815282 25:-0.0822381 26:-0.0235521 
0 0.125 1:0.0927971 2:0.0519687 3:-0.102973 4:0.618309 5:-0.752974 6:0.330567 7:0.34952 8:-0.254674 9:-0.305781 10:0.174739 11:-0.140562 12:0.0206042 13:0.389572 14:0.121946 15:-0.338652 16:0.132287 17:-0.208365 18:0.380482 19:-0.146001 20:-0.181351 21:0.35649 22:-0.0989299 23:0.213092 24:-0.0749418 25:-0.645656 26:-0.0375322 
0 0.125 1:0.0241421 2:0.0247977 3:-0.179002 4:0.545695 5:-0.637008 6:0.271525 7:0.446731 8:-0.249369 9:-0.167367 10:0.228782 11:-0.0605987 12:0.107083 13:0.532861 14:0.212892 15:-0.327558 16:0.0579182 17:-0.117463 18:0.191314 19:-0.158457 20:-0.384893 21:0.315582 22:-0.186744 23:0.22872 24:-0.0714331 25:-0.716874 26:-0.0450694 
0 0.125 1:-0.0198916 2:-0.0135389 3:-0.108089 4:0.592226 5:-0.496415 6:0.168395 7:0.398014 8:-0.0986917 9:-0.279333 10:0.245926 11:-0.177138 12:-0.0475796 13:0.496886 14:0.312599 15:-0.316177 16:-0.0962364 17:-0.10235 18:-0.0527632 19:-0.11942 20:-0.336619 21:0.190402 22:-0.196143 23:0.138095 24:-0.0156297 25:-0.342909 26:-0.0387684 
0 0.125 1:-0.0452684 2:-0.106213 3:0.0842106 4:0.502962 5:-0.49933 6:0.276762 7:0.197303 8:-0.0568848 9:-0.336282 10:0.346704 11:-0.0834975 12:-0.531693 13:0.123859 14:0.372675 15:-0.266733 16:-0.298228 17:-0.0853278 18:-0.179456 19:-0.184401 20:0.017404 21:0.00588635 22:-0.0603558 23:0.031174 24:0.0152437 25:0.167992 26:-0.0181587 
0 0.125 1:-0.0883433 2:-0.24457 3:0.0840301 4:0.36816 5:-0.45333 6:0.371024 7:0.199708 8:0.206455 9:-0.503849 10:0.470404 11:-0.0137048 12:-0.654557 13:-0.083973 14:0.374627 15:-0.135151 16:-0.364964 17:-0.0233449 18:-0.218401 19:-0.240355 20:0.319669 21:-0.262584 22:0.139251 23:-0.0943416 24:0.0950301 25:0.274504 26:-0.00575128 
0 0.125 1:-0.0745706 2:-0.346148 3:-0.159142 4:0.384136 5:-0.391948 6:0.179016 7:0.0349356 8:0.307318 9:-0.542656 10:0.45675 11:-0.00233275 12:-0.231965 13:0.203565 14:0.294984 15:-0.00684426 16:-0.185577 17:0.0376677 18:-0.14744 19:-0.147311 20:0.429849 21:-0.310853 22:0.191217 23:-0.207807 24:0.247811 25:-0.0476831 26:-0.0125292 
0.125 0.125 1:-0.0247143 2:-0.393904 3:-0.136936 4:0.298768 5:-0.411013 6:0.0817802 7:0.162593 8:0.262266 9:-0.354633 10:0.373711 11:-0.173752 12:-0.387781 13:0.27078 14:0.173573 15:0.0669576 16:0.00804125 17:0.109975 18:0.00175422 19:-0.0263685 20:0.134832 21:-0.214487 22:-0.0128869 23:-0.290386 24:0.300274 25:-0.0901673 26:-0.0294853 
0.125 0.125 1:-0.0319875 2:-0.520643 3:-0.250825 4:0.156248 5:-0.518731 6:0.0978274 7:0.420567 8:0.147933 9:-0.264389 10:0.604871 11:0.156233 12:-0.710395 13:0.377136 14:0.0869332 15:0.148654 16:0.216087 17:0.118196 18:0.185682 19:0.08245 20:-0.28341 21:-0.215251 22:-0.290363 23:-0.333728 24:0.0788751 25:0.219257 26:-0.0433317 
0.125 0.125 1:-0.0689788 2:-0.481456 3:-0.370741 4:0.175408 5:-0.500512 6:0.0739761 7:0.454457 8:0.185647 9:-0.368838 10:0.355363 11:0.350081 12:-0.717916 13:0.375292 14:0.0850479 15:0.174494 16:0.303464 17:0.0239627 18:0.289382 19:0.134775 20:-0.412849 21:-0.19547 22:-0.400134 23:-0.0925714 24:-0.290302 25:0.610376 26:-0.0399113 
0.125 0.125 1:-0.204372 2:-0.455505 3:-0.303288 4:0.2345 5:-0.375674 6:0.00815741 7:0.397597 8:0.323087 9:-0.199871 10:0.101386 11:0.618232 12:-0.675036 13:0.344511 14:0.193712 15:0.162077 16:0.199337 17:-0.0553939 18:0.200491 19:0.136305 20:-0.338814 21:-0.191773 22:-0.31081 23:0.301545 24:-0.585507 25:0.742257 26:-0.0240691 
0.125 0.125 1:-0.358263 2:-0.452002 3:-0.314074 4:0.113834 5:-0.34548 6:-0.0270193 7:0.245756 8:0.106125 9:-0.301091 10:0.0198274 11:0.427463 12:-0.469591 13:-0.0278214 14:0.331237 15:0.0372999 16:0.037905 17:-0.0711731 18:-0.0127961 19:0.117292 20:-0.0698213 21:0.0846285 22:0.0471073 23:0.571348 24:-0.453086 25:0.403354 26:-0.0091938 
0.125 0.125 1:-0.474663 2:-0.285945 3:-0.198441 4:0.0407957 5:-0.238926 6:0.0957364 7:0.236593 8:-0.3373 9:-0.63766 10:0.0532424 11:0.356277 12:-0.182093 13:0.0275867 14:0.425464 15:-0.189373 16:-0.139306 17:-0.0239617 18:-0.240025 19:-0.0475418 20:0.0746524 21:0.393074 22:0.320349 23:0.454678 24:-0.0713458 25:-0.124669 26:-0.0125346 
0.125 0.125 1:-0.546014 2:-0.126319 3:-0.152909 4:-0.0207985 5:-0.113031 6:0.141915 7:0.322067 8:-0.0106615 9:-0.489786 10:0.060634 11:0.0588366 12:0.148629 13:0.327469 14:0.482018 15:-0.351862 16:-0.156861 17:0.0663206 18:-0.344243 19:-0.216632 20:0.0259452 21:0.316888 22:0.118671 23:0.0154059 24:0.257006 25:-0.511834 26:-0.0298988 
0.125 0.125 1:-0.580421 2:-0.0761164 3:-0.258035 4:-0.0166012 5:-0.160415 6:0.131019 7:0.167575 8:-0.0772597 9:-0.206284 10:0.353769 11:-0.0429896 12:0.279401 13:0.514015 14:0.537211 15:-0.401206 16:0.0132188 17:0.139055 18:-0.264051 19:-0.30543 20:-0.00163302 21:0.210023 22:-0.304302 23:-0.366516 24:0.245141 25:-0.626124 26:-0.0459626 
0.125 0.125 1:-0.620516 2:-0.175014 3:-0.379597 4:-0.143029 5:-0.291187 6:0.132925 7:0.246385 8:0.110805 9:0.0115943 10:0.39471 11:0.170176 12:0.325423 13:0.424601 14:0.593751 15:-0.315223 16:0.19932 17:0.286861 18:-0.0988244 19:-0.303211 20:-0.0858183 21:0.0612126 22:-0.627241 23:-0.286877 24:-0.0813343 25:-0.507576 26:-0.0477211 
0.125 0.125 1:-0.614251 2:-0.109206 3:-0.232268 4:-0.138929 5:-0.281231 6:0.0112871 7:0.261115 8:-0.0111551 9:-0.175343 10:0.00581209 11:0.235896 12:0.161994 13:0.155584 14:0.568124 15:-0.264285 16:0.186016 17:0.35814 18:0.0260115 19:-0.127523 20:-0.0758065 21:0.0913873 22:-0.476289 23:0.19095 24:-0.2519 25:-0.366961 26:-0.0287744 
0.125 0.125 1:-0.491329 2:-0.0883426 3:-0.22333 4:-0.124191 5:-0.316534 6:-0.0183836 7:0.195425 8:0.000944327 9:-0.447928 10:-0.12422 11:0.0851895 12:0.255805 13:0.103522 14:0.42732 15:-0.163914 16:0.11221 17:0.380493 18:0.107828 19:0.0849147 20:0.0402549 21:0.083339 22:0.0221952 23:0.575744 24:-0.140627 25:-0.283298 26:-0.00578545 
0.125 0.125 1:-0.263126 2:-0.158394 3:-0.174019 4:-0.0296823 5:-0.372244 6:-0.117443 7:0.165954 8:0.209353 9:-0.469002 10:0.0136466 11:-0.225906 12:0.227231 13:-0.0624594 14:0.29747 15:0.0206146 16:-0.0212304 17:0.300129 18:0.0666079 19:0.306756 20:0.124157 21:-0.163828 22:0.300798 23:0.616133 24:0.155311 25:-0.124064 26:0.00241346 
0.125 0.125 1:-0.124876 2:-0.176364 3:-0.0350592 4:0.196075 5:-0.394244 6:-0.231608 7:0.162937 8:0.372862 9:-0.430491 10:0.210928 11:-0.335811 12:0.111602 13:-0.0954596 14:0.292706 15:0.0986788 16:-0.0967769 17:0.084547 18:-0.0373293 19:0.433564 20:0.14054 21:-0.33164 22:0.231106 23:0.295004 24:0.276226 25:0.0914202 26:-0.00967022 
0.125 0.125 1:-0.13295 2:-0.239848 3:-0.106167 4:0.182644 5:-0.383099 6:-0.0955445 7:0.214811 8:0.284374 9:-0.357158 10:0.302264 11:-0.202185 12:-0.243471 13:0.357022 14:0.383486 15:0.0223837 16:-0.0440396 17:-0.0669327 18:-0.134734 19:0.291904 20:-0.002449 21:-0.313948 22:-0.0814309 23:-0.0571056 24:0.0885085 25:0.274667 26:-0.0357768 
0.125 0.125 1:-0.0931706 2:-0.0080106 3:0.0137343 4:0.428006 5:-0.347702 6:0.0650851 7:0.372921 8:0.115374 9:-0.128621 10:0.481484 11:-0.144216 12:-0.0270968 13:0.817549 14:0.396308 15:-0.280548 16:-0.0618422 17:-0.26229 18:-0.155704 19:0.0488963 20:-0.206772 21:-0.0917841 22:-0.320806 23:-0.185206 24:-0.115996 25:0.214874 26:-0.0510512 
0 0.125 1:0.228397 2:0.189502 3:-0.0349479 4:0.554191 5:-0.518071 6:0.143647 7:0.376438 8:0.105945 9:-0.174135 10:0.581157 11:-0.230742 12:0.116418 13:0.403757 14:0.204626 15:-0.469086 16:-0.0215243 17:-0.332657 18:-0.0231319 19:-0.198953 20:-0.246089 21:0.084025 22:-0.229199 23:-0.146475 24:-0.117166 25:0.120067 26:-0.0393297 
0 0.125 1:0.445731 2:0.0175872 3:0.0506054 4:0.514369 5:-0.607063 6:0.261094 7:0.318975 8:0.069824 9:-0.235845 10:0.532459 11:-0.373713 12:0.0170938 13:0.261302 14:-0.0169249 15:-0.293177 16:-0.0019364 17:-0.289069 18:0.0549899 19:-0.376407 20:-0.168989 21:0.100421 22:-0.0559519 23:-0.154129 24:0.0380185 25:0.11382 26:-0.0228046 
0 0.125 1:0.500831 2:-0.102714 3:0.0508027 4:0.484596 5:-0.657899 6:0.287416 7:0.30116 8:-0.00294358 9:-0.305175 10:0.541295 11:-0.506982 12:-0.0538769 13:0.232249 14:-0.0914249 15:-0.0438357 16:0.0385381 17:-0.2615 18:0.00227026 19:-0.391923 20:-0.0751304 21:-0.00710986 22:-0.0271538 23:-0.271305 24:0.17933 25:0.0768584 26:-0.0165562 
0 0.125 1:0.472496 2:-0.0807347 3:0.0618139 4:0.526214 5:-0.615647 6:0.320251 7:0.283332 8:0.0217027 9:-0.147246 10:0.724803 11:-0.465852 12:0.147104 13:0.428225 14:0.0208571 15:0.0596373 16:0.0782774 17:-0.207701 18:-0.0815293 19:-0.319873 20:-0.0210988 21:-0.118693 22:-0.192516 23:-0.396937 24:0.19811 25:-0.0309245 26:-0.0262678 
0 0.125 1:0.378714 2:0.019463 3:0.0871584 4:0.494932 5:-0.691892 6:0.235928 7:0.319773 8:0.0102088 9:0.0394205 10:0.682274 11:-0.392018 12:0.374791 13:0.595059 14:0.2059 15:-0.0528473 16:0.0664658 17:-0.180492 18:-0.028141 19:-0.134925 20:0.0188549 21:-0.111484 22:-0.326303 23:-0.294944 24:0.173046 25:-0.214782 26:-0.0406699 
0 0.125 1:0.329088 2:0.112302 3:0.186463 4:0.363631 5:-0.85699 6:0.148309 7:0.266569 8:-0.136249 9:-0.0385774 10:0.308263 11:-0.477536 12:0.318072 13:0.435841 14:0.294015 15:-0.219226 16:0.0230783 17:-0.128487 18:0.200624 19:0.0556873 20:0.1383 21:0.0571584 22:-0.227125 23:0.126236 24:0.190067 25:-0.250194 26:-0.0408312 
0 0.125 1:0.303957 2:0.0738592 3:0.264885 4:0.245466 5:-0.992931 6:0.113027 7:0.254022 8:-0.271209 9:-0.277394 10:0.186858 11:-0.456311 12:0.228785 13:0.250339 14:0.300632 15:-0.232558 16:-0.0622048 17:-0.0340537 18:0.381325 19:0.134319 20:0.173259 21:0.269419 22:0.0164623 23:0.544336 24:0.116087 25:-0.151496 26:-0.0303891 
0 0.125 1:0.287806 2:0.0479196 3:0.243482 4:0.231681 5:-0.906172 6:0.128829 7:0.264427 8:-0.298781 9:-0.234083 10:0.166128 11:-0.27416 12:0.317711 13:0.275237 14:0.286392 15:-0.17482 16:-0.110098 17:0.0216298 18:0.336726 19:0.111029 20:0.0633576 21:0.324702 22:0.0887231 23:0.734401 24:-0.0674871 25:-0.0897988 26:-0.0170994 
0 0.125 1:0.222209 2:0.115878 3:0.345958 4:0.105999 5:-0.856209 6:0.17497 7:0.452287 8:-0.300759 9:0.00074454 10:0.18706 11:-0.157777 12:0.360462 13:0.102462 14:0.297426 15:-0.150126 16:-0.187156 17:0.121389 18:0.136658 19:-0.00201581 20:-0.156165 21:0.169244 22:-0.036369 23:0.557938 24:-0.226199 25:-0.0648114 26:-0.00596132 
0 0.125 1:0.153544 2:0.135948 3:0.379832 4:-0.0346841 5:-0.805956 6:0.171516 7:0.581205 8:-0.151685 9:-0.0648913 10:0.387194 11:-0.105128 12:0.30087 13:-0.0387587 14:0.326184 15:-0.130607 16:-0.208659 17:0.226375 18:-0.0232902 19:-0.0760314 20:-0.294029 21:-0.0793467 22:-0.13107 23:0.163568 24:-0.22968 25:-0.0437809 26:-0.00707414 
0 0.125 1:0.134473 2:0.102968 3:0.316256 4:-0.0370912 5:-0.771428 6:0.186971 7:0.459766 8:-0.0683508 9:-0.000683252 10:0.613064 11:-0.256222 12:0.281937 13:0.217412 14:0.329416 15:-0.10844 16:-0.171084 17:0.240611 18:-0.0200132 19:-0.132166 20:-0.190977 21:-0.177177 22:-0.191556 23:-0.165306 24:-0.00293721 25:-0.0305632 26:-0.0205993 
0 0.125 1:0.114329 2:0.123388 3:0.291285 4:-0.0961168 5:-0.732729 6:0.230488 7:0.424095 8:-0.191042 9:-0.0247666 10:0.733448 11:-0.345256 12:0.270909 13:0.495529 14:0.306943 15:-0.0886531 16:-0.138225 17:0.190093 18:0.0947336 19:-0.142023 20:-0.09645 21:-0.00430517 22:-0.224752 23:-0.314038 24:0.235158 25:-0.0684303 26:-0.0339825 
0 0.125 1:0.0864575 2:0.165879 3:0.221184 4:-0.0277987 5:-0.782912 6:0.172939 7:0.478026 8:-0.288003 9:0.0757462 10:0.681817 11:-0.314304 12:0.352746 13:0.580883 14:0.270992 15:-0.0734386 16:-0.0857727 17:0.0559879 18:0.232448 19:-0.0997151 20:-0.0734102 21:0.241518 22:-0.360654 23:-0.226993 24:0.293893 25:-0.220832 26:-0.0388549 
0 0.125 1:0.0625912 2:0.214068 3:0.183056 4:-0.00805716 5:-0.684727 6:0.182897 7:0.482338 8:-0.228865 9:0.101728 10:0.714303 11:-0.221105 12:0.338356 13:0.40122 14:0.249202 15:-0.104946 16:-0.0638732 17:0.0262573 18:0.252807 19:-0.0594706 20:-0.0822358 21:0.30112 22:-0.422561 23:-0.097004 24:0.19801 25:-0.238083 26:-0.0341949 
0 0.125 1:0.0281943 2:0.227175 3:0.120808 4:-0.0465297 5:-0.549558 6:0.115747 7:0.510263 8:-0.185118 9:0.0535394 10:0.685441 11:-0.0714579 12:0.245537 13:0.40284 14:0.264901 15:-0.165994 16:-0.0246219 17:0.0996258 18:0.158703 19:0.00550737 20:-0.113286 21:0.234466 22:-0.230154 23:-0.11743 24:0.0352723 25:-0.0435608 26:-0.0291843 
0.125 0.125 1:-0.0242016 2:0.274894 3:0.00730849 4:-0.0644549 5:-0.467698 6:0.158244 7:0.370084 8:-0.00785375 9:-0.174314 10:0.664708 11:0.0432694 12:0.141531 13:0.540249 14:0.300867 15:-0.208645 16:0.0235956 17:0.165349 18:-0.0251678 19:0.00804222 20:-0.0628265 21:0.0824917 22:0.0832471 23:-0.229065 24:-0.110161 25:0.16757 26:-0.0287513 
0.125 0.125 1:-0.0888372 2:0.364585 3:-0.0622244 4:-0.0218793 5:-0.308997 6:0.114837 7:0.387606 8:0.131882 9:-0.326355 10:0.711897 11:0.0738192 12:-0.00935365 13:0.55432 14:0.342199 15:-0.235992 16:0.0549848 17:0.103869 18:-0.255192 19:-0.0109421 20:-0.0827691 21:-0.0603476 22:0.285213 23:-0.27279 24:-0.202996 25:0.260752 26:-0.03058 
0.125 0.125 1:-0.131769 2:0.352337 3:-0.0891489 4:0.0920637 5:-0.197209 6:0.138371 7:0.473436 8:0.035131 9:-0.202111 10:0.622172 11:0.169498 12:0.147655 13:0.35127 14:0.353441 15:-0.207782 16:0.0704572 17:-0.100001 18:-0.401689 19:-0.0649922 20:-0.189685 21:-0.0950152 22:0.130091 23:-0.0992486 24:-0.296994 25:0.0207857 26:-0.0316061 
0.125 0.125 1:-0.122823 2:0.289671 3:-0.126125 4:0.127247 5:-0.145429 6:0.148833 7:0.370135 8:0.288905 9:-0.0248568 10:0.242294 11:0.236694 12:0.298613 13:0.378499 14:0.309591 15:-0.174978 16:0.0773383 17:-0.281533 18:-0.388832 19:-0.118702 20:-0.21402 21:-0.209833 22:-0.228201 23:0.179564 24:-0.304201 25:-0.272238 26:-0.0363925 
0.125 0.125 1:-0.146045 2:0.37461 3:-0.246065 4:0.196563 5:-0.236074 6:0.14686 7:0.274973 8:0.395124 9:-0.0254437 10:0.184127 11:0.0719225 12:0.200841 13:0.479116 14:0.25073 15:-0.20612 16:0.140514 17:-0.319559 18:-0.110841 19:-0.104909 20:-0.155297 21:-0.208805 22:-0.389151 23:0.30531 24:-0.0961848 25:-0.290653 26:-0.0406826 
0.125 0.125 1:-0.148067 2:0.389058 3:-0.211469 4:0.0666777 5:-0.27074 6:0.1146 7:0.261962 8:0.21629 9:0.0161006 10:0.234011 11:-0.0222149 12:0.1852 13:0.281285 14:0.182909 15:-0.293443 16:0.130122 17:-0.0814654 18:0.218029 19:-0.067376 20:-0.00949065 21:-0.0585434 22:-0.230796 23:0.320485 24:0.112203 25:-0.111349 26:-0.0349327 
0.125 0.125 1:-0.184687 2:0.361166 3:-0.21389 4:-0.0178626 5:-0.372765 6:0.0674638 7:0.11819 8:0.259923 9:-0.135219 10:0.187469 11:-0.193402 12:-0.00288216 13:0.045013 14:0.158767 15:-0.417057 16:0.0957969 17:0.189083 18:0.396615 19:0.0306824 20:0.14864 21:-0.0345271 22:0.0431638 23:0.278291 24:0.294118 25:0.263991 26:-0.019063 
0.125 0.125 1:-0.272541 2:0.316614 3:-0.245274 4:-0.102932 5:-0.333473 6:0.0544967 7:0.0344508 8:0.274445 9:-0.325861 10:0.0361323 11:-0.200313 12:-0.0603885 13:-0.248829 14:0.2435 15:-0.402968 16:0.0274279 17:0.264855 18:0.234066 19:0.0614147 20:0.22852 21:-0.0726898 22:0.112189 23:0.23028 24:0.195496 25:0.417789 26:-0.00331864 
0.125 0.125 1:-0.346078 2:0.304513 3:-0.132783 4:-0.0800048 5:-0.0748023 6:0.08642 7:0.0725799 8:0.300044 9:-0.0758619 10:0.11402 11:0.0644071 12:0.0928041 13:-0.27661 14:0.483242 15:-0.235662 16:-0.121473 17:0.109145 18:-0.153027 19:-0.00222525 20:0.180389 21:-0.187557 22:-0.215717 23:0.142803 24:-0.155971 25:0.211827 26:-0.00316868 
0.125 0.125 1:-0.494948 2:0.09723 3:-0.19934 4:0.0938628 5:-0.0182506 6:0.0510295 7:0.132126 8:0.357275 9:0.193092 10:0.279061 11:-0.0883632 12:0.148541 13:-0.139712 14:0.752449 15:0.0162548 16:-0.136 17:-0.163042 18:-0.363891 19:-0.0770314 20:0.0677554 21:-0.219322 22:-0.537706 23:-0.0144062 24:-0.317924 25:-0.101901 26:-0.0161157 
0.125 0.125 1:-0.570709 2:-0.10938 3:-0.174705 4:0.0950787 5:-0.0487043 6:0.15826 7:0.109844 8:0.133173 9:-0.0400579 10:0.228563 11:0.0673301 12:0.406943 13:0.133716 14:0.854825 15:0.190739 16:-0.0981275 17:-0.0724925 18:-0.360359 19:-0.228269 20:-0.0930614 21:0.0726434 22:-0.637154 23:-0.0971645 24:-0.262672 25:-0.534449 26:-0.0305611 
0.125 0.125 1:-0.416917 2:0.01405 3:-0.211654 4:-0.0792621 5:-0.168797 6:0.0984459 7:0.237201 8:0.00874183 9:-0.205554 10:0.165811 11:-0.243031 12:0.389905 13:0.0735405 14:0.711579 15:0.10707 16:0.0352978 17:0.303634 18:-0.189002 19:-0.263249 20:-0.233716 21:0.357797 22:-0.51368 23:-0.0827237 24:0.133573 25:-0.643094 26:-0.0318096 
0.125 0.125 1:0.068825 2:0.0695823 3:-0.366439 4:-0.122626 5:-0.192747 6:0.0295424 7:0.190125 8:0.0119834 9:-0.391186 10:0.195193 11:-0.558456 12:0.236858 13:0.00786115 14:0.378213 15:-0.0575109 16:0.199451 17:0.593251 18:-0.0533145 19:-0.210589 20:-0.178119 21:0.387303 22:-0.198106 23:-0.0248373 24:0.549709 25:-0.423362 26:-0.0262219 
0.125 0.125 1:0.214263 2:0.026447 3:-0.300385 4:-0.119436 5:-0.211557 6:0.0358638 7:0.218922 8:0.0123838 9:-0.407089 10:0.162961 11:-0.500718 12:0.17747 13:0.0948477 14:0.13155 15:-0.158546 16:0.158015 17:0.543026 18:0.012566 19:-0.113688 20:-0.0415224 21:0.126234 22:0.128414 23:0.0417862 24:0.609842 25:-0.0866522 26:-0.0229289 
0.125 0.125 1:0.335681 2:0.0541335 3:-0.2483 4:0.313569 5:-0.318835 6:-0.15452 7:0.0815122 8:0.271489 9:-0.881254 10:0.0827609 11:-0.22296 12:-0.191945 13:0.106389 14:-0.00775982 15:-0.140224 16:0.00376963 17:0.110272 18:0.116676 19:0.0722449 20:0.158523 21:-0.337251 22:0.579551 23:0.0750804 24:0.416802 25:0.332666 26:-0.0239553 
0.125 0.125 1:0.569431 2:0.052249 3:-0.196347 4:0.495898 5:-0.410998 6:-0.185632 7:0.0807919 8:0.356025 9:-0.944406 10:0.0705 11:-0.102538 12:-0.195902 13:0.312778 14:-0.0830112 15:-0.0390508 16:-0.178182 17:-0.206153 18:0.211545 19:0.128987 20:0.212164 21:-0.478258 22:0.802401 23:0.0784361 24:0.110314 25:0.446564 26:-0.0297045 
0.125 0.125 1:0.660336 2:0.0437338 3:-0.169871 4:0.556759 5:-0.432101 6:-0.207585 7:0.224558 8:0.160221 9:-0.800987 10:0.0325147 11:0.162113 12:-0.14177 13:0.258714 14:-0.0915837 15:-0.00266786 16:-0.227085 17:-0.297779 18:0.25436 19:0.106258 20:0.0137934 21:-0.124321 22:0.652713 23:0.107922 24:-0.151315 25:0.382228 26:-0.0297165 
0.125 0.125 1:0.632107 2:0.108094 3:-0.222305 4:0.572824 5:-0.384433 6:-0.205096 7:0.298215 8:-0.055331 9:-0.517696 10:0.0522503 11:0.286638 12:-0.117786 13:0.30626 14:-0.0901388 15:-0.0747628 16:-0.0521981 17:-0.258244 18:0.249563 19:0.0513905 20:-0.213133 21:0.411801 22:0.212644 23:0.19952 24:-0.317844 25:0.162797 26:-0.0296698 
0.125 0 1:0.535863 2:0.194312 3:-0.348397 4:0.756172 5:-0.368403 6:-0.20896 7:0.363962 8:-0.222191 9:-0.129655 10:0.00733537 11:0.438207 12:-0.0277954 13:0.31128 14:-0.00569681 15:-0.225387 16:0.135586 17:-0.267266 18:0.275217 19:0.142315 20:-0.334725 21:0.683898 22:-0.313243 23:0.306502 24:-0.512263 25:-0.12036 26:-0.031818 
0.125 0 1:0.443962 2:0.24174 3:-0.381299 4:0.830651 5:-0.350285 6:-0.208762 7:0.353499 8:-0.0656423 9:0.0320619 10:-0.0495698 11:0.497609 12:0.0938388 13:0.388265 14:0.140574 15:-0.375152 16:0.171619 17:-0.320471 18:0.274439 19:0.400596 20:-0.322772 21:0.302589 22:-0.586798 23:0.308223 24:-0.540972 25:-0.19508 26:-0.0357384 
0.125 0 1:0.295174 2:0.303752 3:-0.324828 4:0.73082 5:-0.284502 6:-0.245386 7:0.253298 8:0.285044 9:0.16557 10:0.0464472 11:0.459918 12:0.207709 13:0.403602 14:0.295408 15:-0.406233 16:0.0402753 17:-0.361812 18:0.0979181 19:0.554655 20:-0.144648 21:-0.362077 22:-0.647851 23:0.134594 24:-0.267984 25:-0.102711 26:-0.0366511 
0.125 0.125 1:0.0718004 2:0.268167 3:-0.200716 4:0.727667 5:-0.10454 6:-0.191219 7:0.195975 8:0.461748 9:0.248026 10:0.333852 11:0.185764 12:0.00785421 13:0.292644 14:0.455674 15:-0.149965 16:-0.188729 17:-0.581939 18:-0.263705 19:0.35437 20:0.0257466 21:-0.738148 22:-0.630281 23:-0.0955616 24:0.172311 25:0.0663801 26:-0.0289308 
0.125 0.125 1:-0.0516607 2:0.140132 3:-0.276586 4:0.648343 5:0.078886 6:0.240066 7:0.253071 8:0.314046 9:0.269218 10:0.310448 11:-0.201429 12:0.0200019 13:0.151712 14:0.530151 15:0.183924 16:-0.294777 17:-0.721272 18:-0.54789 19:-0.247796 20:0.106501 21:-0.580008 22:-0.623926 23:-0.0923365 24:0.492157 25:0.0313123 26:-0.0194868 
0.125 0.125 1:-0.0504946 2:0.0889748 3:-0.338877 4:0.598834 5:0.0768285 6:0.535692 7:0.0231344 8:-0.0858189 9:0.076485 10:0.221548 11:-0.0131172 12:0.274824 13:0.0391811 14:0.459684 15:0.248375 16:-0.216324 17:-0.575395 18:-0.469183 19:-0.72074 20:0.218801 21:-0.076827 22:-0.566309 23:0.0337187 24:0.395818 25:-0.129897 26:-0.0171962 
0.125 0.125 1:-0.0964525 2:0.168389 3:-0.368936 4:0.248953 5:-0.111542 6:0.549716 7:0.20674 8:-0.153984 9:0.111547 10:0.271805 11:0.239486 12:0.413029 13:0.119789 14:0.32779 15:-0.0396894 16:0.021671 17:-0.00606935 18:-0.118348 19:-0.754849 20:0.103517 21:0.342814 22:-0.379783 23:-0.0648993 24:0.0506142 25:-0.217339 26:-0.0242771 
0.125 0 1:-0.0610052 2:0.552987 3:-0.54516 4:-0.423266 5:-0.268007 6:0.428657 7:0.254945 8:-0.224492 9:-0.166798 10:0.352513 11:0.280753 12:0.224398 13:0.242 14:0.268294 15:-0.397478 16:0.352519 17:0.732725 18:0.148164 19:-0.463206 20:-0.0410489 21:0.471851 22:0.0592443 23:-0.269109 24:-0.233602 25:-0.109852 26:-0.0337854 
0.125 0 1:-0.0777255 2:0.594011 3:-0.66832 4:-0.54581 5:-0.245757 6:0.289745 7:0.221875 8:-0.290902 9:-0.516148 10:0.487166 11:0.186533 12:0.11354 13:0.232471 14:0.430238 15:-0.372504 16:0.434107 17:0.978529 18:0.0644901 19:-0.099389 20:-0.0596316 21:0.295989 22:0.483853 23:-0.512882 24:-0.314743 25:0.0658473 26:-0.0376047 
0.125 0 1:-0.235756 2:0.373092 3:-0.577724 4:-0.364942 5:-0.155394 6:0.333124 7:0.361645 8:-0.33254 9:-0.643656 10:0.421298 11:0.272259 12:0.366906 13:-0.00208493 14:0.697978 15:-0.0491417 16:0.239336 17:0.683476 18:-0.166872 19:-0.000806135 20:-0.039734 21:-0.0147088 22:0.60492 23:-0.465737 24:-0.249626 25:-0.0141742 26:-0.0327467 
0 0.125 1:-0.135566 2:0.330984 3:-0.22762 4:0.0627107 5:-0.590448 6:-0.110585 7:0.154247 8:0.0930928 9:-0.359155 10:0.263169 11:-0.164905 12:-0.197981 13:0.390066 14:0.747154 15:-0.217831 16:-0.102529 17:0.369731 18:-0.0857615 19:-0.0410377 20:-0.231049 21:0.169382 22:-0.26705 23:-0.188819 24:-0.00863832 25:0.329073 26:-0.0313951 
0.125 0.125 1:-0.180653 2:0.252477 3:-0.187374 4:0.0159145 5:-0.445577 6:-0.18402 7:0.057777 8:-0.138338 9:-0.30019 10:0.14701 11:-0.266878 12:-0.224154 13:0.189465 14:0.852423 15:-0.073539 16:-0.277777 17:0.339629 18:-0.221443 19:-0.0629066 20:-0.262313 21:0.444932 22:-0.282822 23:-0.094036 24:0.0581309 25:0.228647 26:-0.0223869 
0 0.125 1:-0.146337 2:0.152326 3:-0.260736 4:0.147514 5:-0.346653 6:-0.0453387 7:0.159552 8:-0.0815285 9:-0.312762 10:0.0262055 11:-0.0663151 12:-0.0457587 13:-0.0799876 14:0.786065 15:-0.00514761 16:-0.325606 17:0.024133 18:-0.294962 19:-0.198103 20:-0.369308 21:0.372265 22:-0.192016 23:0.0439024 24:0.00541187 25:-0.0142675 26:-0.0127814 
0.125 0.125 1:0.113826 2:0.286788 3:-0.224053 4:0.241075 5:-0.33158 6:-0.130563 7:0.013195 8:0.077023 9:-0.30119 10:-0.117291 11:-0.0349798 12:0.211064 13:0.0884681 14:0.519354 15:-0.128465 16:-0.275187 17:-0.306357 18:-0.273899 19:-0.166294 20:-0.295072 21:0.0767218 22:-0.0435324 23:0.300436 24:-0.0431979 25:-0.197557 26:-0.0116222 
0.125 0.125 1:0.431065 2:0.428116 3:-0.465966 4:0.250103 5:-0.319594 6:-0.265489 7:-0.3542 8:0.362564 9:-0.486763 10:-0.380586 11:-0.0716278 12:0.117126 13:0.229592 14:0.176403 15:-0.277066 16:-0.0561622 17:-0.431229 18:-0.178148 19:-0.0316411 20:0.0374988 21:-0.243315 22:0.174264 23:0.592668 24:-0.0216965 25:-0.1653 26:-0.014605 
0.125 0.125 1:0.692085 2:0.353576 3:-0.594089 4:0.144243 5:-0.403254 6:-0.320358 7:-0.559617 8:0.353856 9:-0.529586 10:-0.360138 11:-0.131232 12:0.183016 13:0.263448 14:-0.0822957 15:-0.274323 16:0.135122 17:-0.312151 18:-0.00408582 19:0.129579 20:0.339977 21:-0.377364 22:0.307181 23:0.605588 24:0.0125036 25:-0.126057 26:-0.0214872 
0.125 0.125 1:0.793922 2:0.310456 3:-0.63962 4:-0.00146513 5:-0.395097 6:-0.363533 7:-0.628359 8:0.290118 9:-0.396413 10:-0.287739 11:-0.0722136 12:0.227823 13:0.360431 14:-0.144295 15:-0.145764 16:0.279355 17:-0.0327054 18:0.125777 19:0.256633 20:0.437494 21:-0.240243 22:0.178726 23:0.393384 24:-0.0401736 25:-0.160103 26:-0.0289504 
0.125 0.125 1:0.793072 2:0.304325 3:-0.720965 4:-0.123953 5:-0.399851 6:-0.345511 7:-0.625687 8:0.277552 9:-0.173658 10:-0.112902 11:-0.0038668 12:0.297444 13:0.584911 14:-0.0666599 15:-0.0122763 16:0.40859 17:0.208837 18:0.236623 19:0.269828 20:0.31082 21:-0.0187913 22:-0.110327 23:0.0758507 24:-0.165597 25:-0.332148 26:-0.0370045 
0.125 0.125 1:0.757932 2:0.318109 3:-0.778727 4:-0.235959 5:-0.415318 6:-0.330919 7:-0.645031 8:0.219546 9:-0.0452106 10:0.0329379 11:0.000658848 12:0.374798 13:0.695798 14:-0.00220631 15:-0.0367323 16:0.430984 17:0.358293 18:0.289018 19:0.251215 20:0.177286 21:0.149014 22:-0.392385 23:-0.175811 24:-0.19136 25:-0.463473 26:-0.0462015 
0.125 0.125 1:0.724271 2:0.370987 3:-0.700162 4:-0.262377 5:-0.365335 6:-0.254809 7:-0.661564 8:0.178476 9:0.0116859 10:0.0169692 11:-0.118694 12:0.302508 13:0.7005 14:-0.00826582 15:-0.21444 16:0.359159 17:0.407705 18:0.21953 19:0.0872464 20:0.0613629 21:0.0452538 22:-0.502026 23:-0.230289 24:-0.0130911 25:-0.204797 26:-0.0512976 
0.125 0.125 1:0.647332 2:0.442143 3:-0.549869 4:-0.228975 5:-0.245891 6:-0.140956 7:-0.593628 8:0.213939 9:0.0482596 10:0.0373966 11:-0.275354 12:0.0842801 13:0.606728 14:0.00370608 15:-0.364105 16:0.123542 17:0.375984 18:0.103643 19:-0.155063 20:-0.0586526 21:-0.173226 22:-0.443223 23:-0.252222 24:0.226575 25:0.193868 26:-0.042454 
0.125 0.125 1:0.480618 2:0.456326 3:-0.394455 4:-0.205189 5:-0.103931 6:0.0136937 7:-0.543596 8:0.315995 9:0.0225515 10:0.0821562 11:-0.330508 12:-0.103124 13:0.472785 14:0.12719 15:-0.464015 16:-0.136693 17:0.208551 18:-0.0423898 19:-0.357978 20:-0.012308 21:-0.293284 22:-0.331211 23:-0.147282 24:0.370462 25:0.513687 26:-0.0215265 
0.125 0.125 1:0.211149 2:0.3762 3:-0.284807 4:-0.105647 5:-0.0581116 6:0.109319 7:-0.472732 8:0.292868 9:-0.119466 10:-0.00872986 11:-0.296322 12:-0.0662237 13:0.163627 14:0.377242 15:-0.424333 16:-0.251972 17:-0.0735791 18:-0.177131 19:-0.36105 20:0.208048 21:-0.198501 22:-0.172421 23:0.0439834 24:0.266098 25:0.395005 26:-0.00487293 
0.125 0.125 1:-0.0620264 2:0.256099 3:-0.169764 4:0.0676877 5:-0.0213823 6:-0.07488 7:-0.613832 8:-0.0975943 9:-0.180814 10:-0.110095 11:-0.0783604 12:0.306783 13:-0.0805376 14:0.617314 15:-0.300919 16:-0.19665 17:-0.340149 18:-0.277957 19:-0.153176 20:0.468537 21:0.191154 22:-0.0540701 23:0.205159 24:0.0171093 25:-0.0790742 26:-0.0052267 
