svm_type c_svc
kernel_type rbf
gamma 0.125
nr_class 3
total_sv 2800
rho -0.218635 -0.580348 0.253317
label 0 1 2
nr_sv 1007 872 921
SV
0.125 0.125 1:0.555343 2:-0.0776993 3:-0.0299677 4:0.008574 5:0.374132 6:0.156168 7:-0.288804 8:0.387704 9:-0.0298955 10:-0.34412 11:-0.0215195 12:-0.0461586 13:-0.0952206 14:-0.266405 15:0.0312796 16:-0.304923 17:0.101759 18:-0.39235 19:-0.036866 20:0.111686 21:-0.330758 22:0.16732 23:0.22289 24:-0.178827 25:0.0868203 26:0.0675702 
0.125 0.125 1:0.595388 2:0.0939686 3:-0.00684948 4:-0.0327513 5:0.279354 6:0.0872967 7:-0.233368 8:0.264676 9:0.162369 10:-0.412185 11:-0.151738 12:-0.0979643 13:-0.0705921 14:-0.782555 15:-0.193899 16:-0.497746 17:0.0731307 18:-0.417609 19:0.0322765 20:0.237953 21:-0.330788 22:0.0546126 23:0.395288 24:-0.112883 25:0.0764424 26:0.201433 
0.125 0.125 1:0.637627 2:0.209111 3:-0.125561 4:-0.0304601 5:0.105208 6:-0.020352 7:-0.253544 8:0.0292987 9:0.132983 10:-0.320097 11:-0.159496 12:0.086622 13:-0.260442 14:-0.746767 15:-0.347452 16:-0.352034 17:0.0670427 18:-0.216206 19:0.140725 20:0.194248 21:-0.125692 22:-0.147079 23:0.391165 24:-0.0181471 25:-0.169828 26:0.363588 
0.125 0.125 1:0.652737 2:0.218875 3:-0.201172 4:0.00811972 5:0.0797963 6:0.0429307 7:-0.203155 8:0.0697923 9:0.209622 10:-0.408812 11:-0.4293 12:0.231236 13:-0.134953 14:-0.369578 15:-0.413809 16:-0.0345345 17:0.0748582 18:-0.00609173 19:0.122633 20:0.00554583 21:0.042943 22:-0.348443 23:0.350915 24:0.230062 25:-0.442268 26:0.228013 
0.125 0.125 1:0.641715 2:0.289161 3:-0.345861 4:0.0732711 5:0.052139 6:0.0203701 7:-0.112739 8:-0.00284281 9:0.375386 10:-0.36091 11:-0.346555 12:0.176243 13:0.0351549 14:0.0451746 15:-0.489674 16:0.302176 17:0.126505 18:0.0909815 19:0.088059 20:-0.119075 21:0.311679 22:-0.449318 23:0.2411 24:0.250396 25:-0.495191 26:0.00137678 
0.125 0.125 1:0.64429 2:0.317679 3:-0.366222 4:0.036226 5:0.0538506 6:0.0909736 7:-0.0568502 8:-0.089279 9:0.387577 10:-0.273242 11:-0.361869 12:0.0698847 13:-0.0716625 14:0.156173 15:-0.336289 16:0.297507 17:0.167512 18:0.0628686 19:-0.116559 20:-0.0917097 21:0.318068 22:-0.249728 23:0.0466535 24:0.233018 25:-0.201341 26:-0.118059 
0.125 0.125 1:0.534423 2:0.273425 3:-0.313168 4:-0.0266401 5:0.0692933 6:0.0895289 7:-0.13411 8:-0.105403 9:-0.0967845 10:-0.188411 11:-0.485535 12:-0.030195 13:0.243597 14:0.426502 15:-0.127569 16:0.134722 17:0.205735 18:-0.000157457 19:-0.16239 20:-0.0617553 21:0.241087 22:0.140377 23:-0.12151 24:0.205679 25:0.0763317 26:-0.363362 
0.125 0.125 1:0.39133 2:0.117241 3:-0.293485 4:-0.000637586 5:0.0588376 6:-0.0529364 7:-0.155433 8:-0.104335 9:-0.0237526 10:-0.0126673 11:-0.172403 12:-0.150515 13:0.0143968 14:0.659811 15:0.137202 16:-0.0433389 17:0.208694 18:-0.0324117 19:-0.115048 20:-0.0543193 21:0.0746066 22:0.401919 23:-0.313367 24:0.0925704 25:0.163313 26:-0.314237 
0.125 0.125 1:0.314006 2:-0.0884022 3:-0.189646 4:0.145683 5:-0.0247555 6:0.03608 7:0.132614 8:0.308976 9:-0.0440553 10:0.0178008 11:-0.435775 12:-0.126923 13:0.109264 14:0.665747 15:0.212252 16:-0.121356 17:0.180411 18:-0.0683878 19:-0.0825717 20:-0.130408 21:-0.167481 22:0.414116 23:-0.243359 24:0.220432 25:0.0769548 26:-0.307087 
0.125 0 1:0.592685 2:0.387004 3:-0.341531 4:0.0926473 5:0.233614 6:-0.394377 7:0.0541812 8:-0.040959 9:0.0866913 10:-0.499263 11:-0.184532 12:0.257327 13:0.0384839 14:0.377493 15:-0.158193 16:0.0233048 17:0.152311 18:-0.157008 19:0.182232 20:-0.113403 21:0.00199025 22:0.0703863 23:0.145523 24:0.184534 25:-0.157426 26:-0.115725 
0.125 0.125 1:0.755155 2:0.157338 3:-0.379094 4:0.0335445 5:0.0190955 6:-0.166245 7:-0.0421436 8:0.0494989 9:-0.0828644 10:-0.215247 11:-0.218903 12:-0.0107558 13:-0.232006 14:0.0569027 15:-0.303958 16:0.118487 17:0.129812 18:-0.0304173 19:0.26725 20:-0.0826865 21:0.121307 22:-0.250382 23:0.345203 24:0.0819289 25:-0.171949 26:0.207311 
0.125 0.125 1:0.74286 2:0.270168 3:-0.447367 4:0.171496 5:0.0181731 6:-0.454025 7:0.103464 8:-0.0264971 9:0.271211 10:-0.578606 11:-0.051627 12:0.00737965 13:-0.217076 14:-0.126338 15:-0.414974 16:0.223604 17:0.123694 18:0.180332 19:0.486573 20:-0.142568 21:0.203579 22:-0.404636 23:0.570626 24:-0.0740697 25:-0.229315 26:0.235421 
0.125 0.125 1:0.712305 2:0.138922 3:-0.342587 4:0.263847 5:0.0119398 6:-0.511786 7:0.199309 8:0.108595 9:0.0922782 10:-0.422768 11:0.101082 12:0.281161 13:-0.34623 14:-0.147645 15:-0.196363 16:0.171318 17:0.0277116 18:0.132534 19:0.574836 20:-0.15382 21:0.0561254 22:-0.159782 23:0.434758 24:-0.248957 25:-0.244002 26:0.33841 
0.125 0.125 1:0.720124 2:0.0292196 3:-0.313964 4:0.0749134 5:0.0516411 6:-0.281328 7:0.151087 8:0.259818 9:-0.25773 10:-0.0969817 11:0.173531 12:0.183666 13:-0.107056 14:0.0441818 15:0.207228 16:0.101986 17:0.0206633 18:-0.0108102 19:0.393336 20:-0.102691 21:-0.241902 22:0.287876 23:0.16783 24:-0.223267 25:-0.243955 26:0.129516 
0.125 0.125 1:0.607426 2:0.0360114 3:-0.474018 4:0.090019 5:0.179148 6:-0.236797 7:0.139703 8:0.164201 9:-0.348099 10:-0.0862453 11:-0.082788 12:0.111572 13:-0.113449 14:0.353436 15:0.309806 16:0.0683948 17:0.138246 18:-0.376199 19:0.107514 20:0.0992529 21:-0.351207 22:0.506574 23:-0.0153051 24:-0.0364576 25:-0.322934 26:-0.112105 
0.125 0.125 1:0.365731 2:-0.0851103 3:-0.170514 4:0.317232 5:0.56163 6:0.0129045 7:0.0623548 8:0.19093 9:-0.181774 10:0.19509 11:0.0401571 12:0.0708326 13:-0.28644 14:0.659 15:0.26546 16:-0.069263 17:0.273724 18:-0.645536 19:-0.314403 20:0.1993 21:-0.322216 22:0.367832 23:-0.25092 24:0.062965 25:-0.342097 26:-0.204785 
0.125 0.125 1:0.497054 2:0.384572 3:-0.247595 4:-0.0544232 5:0.157608 6:0.175392 7:0.369415 8:-0.0624981 9:-0.0742127 10:0.341468 11:-0.0829587 12:-0.081579 13:-0.117307 14:0.455236 15:-0.455537 16:0.0386641 17:0.363664 18:-0.305836 19:-0.262398 20:-0.343943 21:0.306669 22:-0.224732 23:-0.201932 24:-0.0728397 25:-0.140501 26:0.0175163 
0.125 0 1:0.635124 2:0.271679 3:-0.381927 4:0.372844 5:-0.223084 6:-0.196014 7:0.710733 8:-0.370888 9:-0.0152617 10:0.0700969 11:0.0535245 12:-0.120215 13:-0.366782 14:0.0993255 15:-0.357269 16:0.176483 17:0.0518516 18:0.144202 19:0.129864 20:-0.565224 21:0.61406 22:-0.117212 23:0.0658523 24:-0.191794 25:0.130111 26:0.420123 
0.125 0.125 1:0.64194 2:0.125355 3:-0.308897 4:0.337303 5:-0.414981 6:-0.182317 7:0.459958 8:-0.211009 9:-0.180065 10:0.0965753 11:-0.022017 12:-0.204723 13:-0.241007 14:-0.0627338 15:-0.0723024 16:0.168889 17:-0.141829 18:0.494174 19:0.360071 20:-0.39094 21:0.563733 22:0.213354 23:0.283658 24:-0.0337554 25:0.278541 26:0.555932 
0.125 0.125 1:0.628204 2:0.0764012 3:-0.325518 4:0.296954 5:-0.540166 6:-0.289499 7:0.423234 8:-0.202803 9:-0.306714 10:-0.181676 11:-0.262937 12:-0.305611 13:-0.308992 14:0.0323673 15:0.0724777 16:0.19745 17:-0.215536 18:0.616029 19:0.25184 20:-0.0877235 21:0.275665 22:0.303409 23:0.459673 24:0.0312426 25:0.287239 26:0.317737 
0.125 0.125 1:0.512804 2:0.181106 3:-0.139724 4:0.231285 5:-0.545123 6:0.101788 7:0.127145 8:0.154039 9:-0.0880368 10:0.240406 11:-0.369629 12:0.0840198 13:0.320974 14:0.267987 15:-0.0965715 16:0.232614 17:-0.0342163 18:0.574414 19:-0.107012 20:0.199511 21:-0.12814 22:0.127113 23:0.321063 24:0.0312278 25:0.0723486 26:-0.405075 
0.125 0.125 1:0.449536 2:0.284298 3:-0.168556 4:0.135832 5:-0.200189 6:-0.135509 7:0.38951 8:0.149765 9:-0.0377863 10:0.269841 11:-0.311511 12:0.0467368 13:0.255625 14:0.399614 15:-0.397246 16:0.319267 17:0.148504 18:0.0984938 19:-0.105956 20:0.152275 21:-0.314581 22:-0.0334406 23:0.122782 24:0.0380303 25:0.0871458 26:-0.628249 
0.125 0.125 1:0.449822 2:0.277834 3:-0.348804 4:0.0317109 5:-0.120509 6:-0.0438177 7:0.36846 8:0.148495 9:0.116505 10:0.274214 11:-0.166277 12:-0.00255594 13:0.368139 14:0.403251 15:-0.467902 16:0.425481 17:0.287639 18:-0.280492 19:0.0745515 20:-0.0252188 21:-0.253503 22:-0.111318 23:-0.0794429 24:0.145824 25:-0.0507779 26:-0.417048 
0.125 0.125 1:0.47025 2:0.0519661 3:0.258866 4:-0.066431 5:0.115508 6:-0.373901 7:0.392723 8:0.107345 9:-0.165193 10:0.65446 11:-0.79691 12:0.299676 13:-0.017609 14:0.35706 15:-0.272909 16:0.0119597 17:0.465503 18:-0.50584 19:0.368831 20:-0.122327 21:-0.131948 22:0.108459 23:-0.36448 24:0.612161 25:-0.503273 26:0.0442159 
0.125 0.125 1:0.467027 2:-0.00610408 3:0.269367 4:-0.0840976 5:0.0845886 6:-0.318463 7:0.506196 8:0.147033 9:-0.0264335 10:0.562484 11:-0.667806 12:0.624873 13:-0.0201514 14:0.303375 15:-0.0880567 16:-0.316075 17:0.547685 18:-0.449469 19:0.461821 20:-0.130394 21:-0.0144359 22:0.130301 23:-0.317015 24:0.79965 25:-0.879613 26:0.179604 
0.125 0.125 1:0.484537 2:-0.0923744 3:0.385837 4:-0.115812 5:-0.0138314 6:-0.013577 7:0.47273 8:0.0192045 9:0.0596095 10:0.565541 11:-0.432612 12:0.668342 13:0.078512 14:0.238161 15:0.0700915 16:-0.627771 17:0.443808 18:-0.124878 19:0.0442546 20:-0.155179 21:0.15749 22:0.0824109 23:-0.377697 24:0.589724 25:-0.956549 26:-0.116634 
0.125 0.125 1:0.473473 2:-0.156006 3:0.63527 4:0.104051 5:-0.0923067 6:-0.0658859 7:0.429522 8:0.0244265 9:0.0962738 10:0.327914 11:-0.193784 12:0.319087 13:0.276873 14:0.270889 15:0.225691 16:-0.73877 17:0.194315 18:0.124329 19:-0.323557 20:-0.210148 21:0.249972 22:0.0262894 23:-0.205185 24:0.0130497 25:-0.399683 26:-0.365699 
0.125 0.125 1:0.520898 2:-0.244274 3:0.208138 4:0.351965 5:-0.0694535 6:6.48947e-005 7:0.549154 8:0.00724372 9:0.181744 10:0.114562 11:0.151346 12:-0.0805571 13:0.142169 14:0.322472 15:0.321186 16:-0.349266 17:-0.0222804 18:0.256485 19:-0.602017 20:-0.227418 21:0.244208 22:-0.0340867 23:0.00314442 24:-0.506451 25:0.350474 26:-0.334379 
0.125 0.125 1:0.507654 2:-0.294348 3:0.151559 4:0.384316 5:-0.181435 6:0.197368 7:0.724529 8:-0.0271615 9:-0.00361548 10:0.281578 11:0.334163 12:-0.0142403 13:-0.222046 14:0.392043 15:0.33271 16:-0.127128 17:-0.0928403 18:0.240152 19:-0.460941 20:-0.152922 21:0.0782413 22:0.0728624 23:0.119654 24:-0.541724 25:0.613373 26:0.0117391 
0.125 0.125 1:0.381316 2:-0.164082 3:-0.0838641 4:0.229877 5:0.184708 6:-0.43157 7:0.16856 8:0.296566 9:0.273098 10:-0.530321 11:0.249664 12:-0.138371 13:-0.288276 14:0.392523 15:0.0886253 16:0.173561 17:0.018017 18:0.0408922 19:0.0724335 20:0.120714 21:-0.228095 22:-0.00849985 23:0.455946 24:-0.271023 25:0.442884 26:0.275228 
0.125 0.125 1:0.636273 2:0.0601438 3:-0.310053 4:0.370911 5:0.110552 6:-0.628136 7:0.427859 8:0.17453 9:0.230226 10:-0.222864 11:-0.0743296 12:0.239424 13:-0.200921 14:0.153909 15:-0.139392 16:0.451306 17:-0.0469863 18:-0.195206 19:0.686716 20:0.0764401 21:-0.195972 22:-0.22917 23:0.499603 24:0.129924 25:-0.0598796 26:0.287362 
0.125 0.125 1:0.655704 2:0.0376099 3:-0.288825 4:0.415309 5:0.226785 6:-0.7054 7:0.546787 8:0.158681 9:0.209173 10:-0.371056 11:0.202309 12:0.442631 13:-0.309646 14:0.0112475 15:-0.0133497 16:0.504803 17:-0.176964 18:-0.426485 19:0.963312 20:-0.0245334 21:-0.0319529 22:-0.444656 23:0.49048 24:0.138267 25:-0.461358 26:0.260117 
0.125 0 1:0.678447 2:0.112904 3:-0.529131 4:0.22787 5:0.331795 6:-0.520064 7:0.566153 8:-0.0125998 9:0.226656 10:-0.284126 11:0.178415 12:0.371384 13:-0.363122 14:0.0461322 15:0.159841 16:0.564331 17:-0.18489 18:-0.548497 19:0.782703 20:-0.12992 21:0.23127 22:-0.405002 23:0.281274 24:-0.0150565 25:-0.447104 26:0.337295 
0.125 0 1:0.559998 2:0.0424731 3:-0.453081 4:0.375861 5:0.423514 6:-0.727472 7:0.601138 8:-0.0266174 9:0.289791 10:-0.230374 11:0.156113 12:0.369879 13:-0.138048 14:0.258733 15:0.270574 16:0.339066 17:-0.0835562 18:-0.404538 19:0.321473 20:-0.184388 21:0.309947 22:-0.0589506 23:0.00862215 24:-0.23698 25:-0.343748 26:0.301771 
0 0.125 1:0.383202 2:0.298514 3:-0.159514 4:-0.213362 5:-0.113189 6:0.245238 7:0.491656 8:0.155187 9:-0.36714 10:0.0898973 11:0.322774 12:0.489449 13:-0.239771 14:0.48955 15:-0.0099885 16:0.0380457 17:0.302676 18:-0.0579125 19:-0.340717 20:-0.0578142 21:0.133423 22:0.447305 23:-0.170289 24:-0.338134 25:-0.183147 26:0.296675 
0.125 0 1:0.442766 2:0.756339 3:-0.170109 4:-0.347634 5:-0.063408 6:-0.0529601 7:0.646098 8:0.133449 9:-0.419856 10:-0.00778795 11:0.027411 12:0.227087 13:-0.00468507 14:0.431488 15:-0.566552 16:-0.137367 17:0.506317 18:0.182212 19:-0.419337 20:-0.252341 21:-0.100121 22:0.558849 23:-0.146697 24:0.074558 25:-0.178835 26:0.00300429 
0.125 0 1:0.576139 2:0.670738 3:-0.195513 4:-0.286499 5:-0.157241 6:0.0522404 7:0.654851 8:0.22551 9:-0.0787744 10:-0.152157 11:-0.071578 12:0.493444 13:0.425956 14:0.249766 15:-0.77315 16:-0.199249 17:0.527433 18:0.298487 19:-0.302607 20:-0.480454 21:-0.290313 22:0.247234 23:0.0541542 24:0.475142 25:-0.446382 26:-0.280507 
0.125 0 1:0.54542 2:0.753398 3:-0.195579 4:-0.321283 5:-0.111905 6:-0.0499784 7:0.674198 8:0.165516 9:-0.0785574 10:-0.0118464 11:-0.239492 12:0.373129 13:0.235459 14:0.0991704 15:-0.799242 16:-0.0581952 17:0.49632 18:0.215554 19:-0.0282823 20:-0.459319 21:-0.187751 22:0.0407213 23:0.221116 24:0.593207 25:-0.446126 26:-0.381368 
0.04064627779601176 0 1:0.523127 2:0.726052 3:-0.0973187 4:-0.385909 5:-0.228833 6:-0.0542271 7:0.644441 8:0.243555 9:-0.217406 10:-0.269703 11:-0.244159 12:0.427593 13:0.542445 14:0.0814822 15:-0.549575 16:0.110207 17:0.353481 18:0.0818492 19:0.260972 20:-0.235209 21:0.0578784 22:-0.0587359 23:0.377217 24:0.347942 25:-0.234636 26:-0.527504 
0.125 0.125 1:0.454525 2:0.479021 3:-0.320562 4:-0.272167 5:-0.0605304 6:-0.0134463 7:0.102084 8:-0.148107 9:-0.203782 10:0.0287704 11:0.311074 12:0.0158468 13:0.35806 14:0.184052 15:-0.196141 16:0.38651 17:0.215894 18:-0.00139384 19:0.148806 20:0.20666 21:0.396887 22:0.0561311 23:0.170798 24:-0.202105 25:0.133618 26:-0.270933 
0.125 0.125 1:0.43153 2:0.421234 3:-0.305122 4:-0.116457 5:-0.00795749 6:-0.0179085 7:-0.00687238 8:-0.0893229 9:-0.233858 10:0.0745447 11:0.435428 12:-0.140996 13:0.525912 14:0.300786 15:-0.0221072 16:0.456341 17:0.0313208 18:-0.046679 19:0.066848 20:0.335953 21:0.368087 22:0.160731 23:-0.0395026 24:-0.359277 25:0.29312 26:-0.0307664 
0.125 0.125 1:0.289618 2:0.262522 3:-0.103298 4:-0.038198 5:-0.0482682 6:0.0564183 7:0.377588 8:0.132007 9:-0.017069 10:0.233771 11:-0.0135938 12:0.0871861 13:0.15797 14:0.391688 15:0.120954 16:0.210398 17:0.00829215 18:-0.103995 19:-0.158577 20:0.244735 21:0.0161281 22:-0.0275897 23:-0.164055 24:-0.0944372 25:0.034537 26:0.160236 
0.125 0.125 1:0.307775 2:0.198416 3:-0.0191696 4:-0.0896174 5:-0.0420725 6:0.186107 7:0.188742 8:0.233346 9:-0.233659 10:0.307145 11:0.0856667 12:0.274965 13:0.16397 14:0.404039 15:0.0846014 16:-0.223881 17:0.0752373 18:-0.115355 19:-0.312851 20:0.0734637 21:-0.187528 22:-0.0143824 23:-0.24522 24:0.124608 25:-0.206934 26:0.0135328 
0.125 0.125 1:0.261338 2:0.180457 3:0.330557 4:-0.139745 5:0.069101 6:-0.028751 7:0.221641 8:0.25141 9:-0.149899 10:0.0935111 11:0.141497 12:0.137162 13:0.473609 14:0.462706 15:0.0725369 16:-0.657006 17:0.237868 18:-0.0555701 19:-0.275728 20:-0.213408 21:-0.235802 22:0.0746125 23:-0.237836 24:0.105923 25:-0.244946 26:-0.443883 
0.125 0.125 1:0.323167 2:0.153544 3:0.2035 4:-0.229088 5:0.140214 6:-0.0207603 7:0.253993 8:0.0419582 9:-0.0170266 10:0.0721061 11:0.202742 12:0.0179407 13:0.487832 14:0.491949 15:0.0529014 16:-0.551023 17:0.316628 18:0.0149676 19:-0.120882 20:-0.42881 21:0.0522284 22:0.0972029 23:-0.211649 24:-0.123077 25:-0.0178254 26:-0.633338 
0.125 0.125 1:0.283305 2:0.0669091 3:0.0102553 4:0.153442 5:-0.165234 6:-0.328168 7:0.691884 8:-0.0731479 9:-0.305354 10:0.199286 11:0.177806 12:0.0902617 13:0.196112 14:0.488581 15:0.0849657 16:-0.14908 17:0.257401 18:0.0920631 19:0.206673 20:-0.502075 21:0.313608 22:0.221974 23:-0.102694 24:-0.0935973 25:0.00676247 26:-0.425719 
0.125 0.125 1:0.302132 2:0.0119952 3:-0.284853 4:-0.132832 5:0.105811 6:-0.394913 7:0.169244 8:0.241762 9:-0.118798 10:-0.17647 11:0.217879 12:0.208887 13:-0.19696 14:0.362963 15:0.110469 16:0.288017 17:0.334383 18:0.0235508 19:0.41109 20:-0.272793 21:0.294311 22:0.0910079 23:0.214749 24:0.184398 25:-0.130888 26:0.132783 
0.125 0 1:0.577737 2:0.263904 3:-0.352079 4:0.140117 5:0.257979 6:-0.580452 7:0.0227816 8:0.0175164 9:0.121689 10:-0.668578 11:-0.147797 12:0.182599 13:-0.304066 14:0.0528017 15:-0.0542789 16:0.526463 17:0.172788 18:-0.146402 19:0.509799 20:0.115877 21:0.281472 22:-0.110506 23:0.562592 24:0.312942 25:-0.337279 26:0.613302 
0.125 0.125 1:0.622513 2:0.0322683 3:-0.268115 4:0.135356 5:0.246559 6:-0.460445 7:-0.158052 8:0.148046 9:-0.102609 10:-0.33908 11:-0.0998325 12:0.445334 13:-0.457939 14:-0.0359021 15:-0.101793 16:0.423172 17:-0.0032413 18:-0.119425 19:0.453911 20:0.248018 21:0.0334019 22:0.0812299 23:0.461332 24:0.10876 25:-0.507091 26:0.695893 
0.125 0.125 1:0.614093 2:0.218171 3:-0.315296 4:0.406152 5:0.0658117 6:-0.406669 7:0.194242 8:0.390913 9:0.0134054 10:-0.359766 11:0.420302 12:0.0688372 13:-0.430982 14:0.0911566 15:-0.250482 16:0.256426 17:-0.218553 18:0.0395604 19:0.310846 20:0.046538 21:-0.283609 22:0.245765 23:0.227757 24:-0.260286 25:-0.384325 26:0.426389 
0.125 0.125 1:0.492638 2:0.277231 3:-0.277224 4:0.501944 5:0.406644 6:-0.377504 7:-0.148473 8:0.435251 9:0.0786708 10:-0.286009 11:0.388251 12:0.248785 13:-0.31805 14:0.326398 15:-0.203467 16:0.03285 17:-0.337352 18:0.0432349 19:0.211858 20:0.0236892 21:-0.484817 22:0.354181 23:-0.0252664 24:-0.205635 25:-0.258378 26:0.137317 
0.125 0.125 1:0.340415 2:0.127502 3:-0.0866726 4:0.140279 5:0.0697254 6:-0.213993 7:0.271651 8:0.394572 9:-0.201302 10:-0.00979084 11:-0.202405 12:0.0378858 13:0.047131 14:0.418944 15:-0.0591178 16:-0.105331 17:-0.0535245 18:0.0123722 19:0.108566 20:-0.017507 21:-0.377883 22:0.0609999 23:-0.130363 24:0.156273 25:0.0759587 26:-0.116019 
0.125 0.125 1:0.582892 2:0.117544 3:-0.130882 4:0.0982958 5:0.522213 6:-0.0889699 7:-0.169311 8:0.230219 9:0.542219 10:-0.41815 11:-0.0814587 12:-0.0841066 13:-0.168855 14:0.251999 15:0.0522549 16:-0.0953158 17:0.122148 18:-0.377157 19:0.0161168 20:0.130059 21:0.0628479 22:-0.653872 23:0.111472 24:0.302719 25:0.282265 26:-0.1646 
0.125 0.125 1:0.65194 2:0.125986 3:-0.163807 4:-0.00965979 5:0.566123 6:-0.0333354 7:-0.0856643 8:0.0402292 9:0.535022 10:-0.307943 11:0.0621609 12:-0.188048 13:-0.175753 14:0.219113 15:0.0549529 16:-0.100515 17:0.284107 18:-0.446829 19:-0.173379 20:0.00635199 21:0.278612 22:-0.754346 23:0.194097 24:-0.0291192 25:0.0952078 26:-0.379005 
0.125 0.125 1:0.528238 2:0.294317 3:-0.262288 4:-0.193698 5:0.335589 6:0.0583285 7:0.48799 8:-0.17544 9:0.309872 10:-0.122171 11:0.240172 12:0.0655977 13:0.165508 14:0.345398 15:-0.179603 16:-0.0558711 17:0.366405 18:-0.187369 19:-0.379266 20:-0.413399 21:0.336046 22:-0.322162 23:0.181603 24:-0.48832 25:-0.266378 26:-0.545965 
0.125 0.125 1:0.362103 2:0.129647 3:-0.136727 4:-0.0564888 5:0.306119 6:0.219364 7:0.249849 8:0.237279 9:-0.279191 10:-0.240227 11:0.0771422 12:0.327313 13:0.0726669 14:0.467816 15:-0.275753 16:-0.0817395 17:0.297299 18:0.0792952 19:-0.520825 20:-0.389631 21:0.0576672 22:0.399093 23:0.162463 24:-0.520365 25:-0.607244 26:-0.338165 
0.125 0.125 1:0.525571 2:0.423898 3:-0.204506 4:-0.323728 5:0.0196026 6:0.0741726 7:0.195433 8:0.246616 9:-0.115175 10:-0.144424 11:-0.00288801 12:0.130518 13:-0.159561 14:0.356047 15:-0.342706 16:-0.0370289 17:0.328776 18:0.217959 19:-0.236336 20:-0.269655 21:-0.0958766 22:0.69057 23:0.0415973 24:0.0643476 25:-0.394392 26:0.219376 
0.125 0.125 1:0.754495 2:0.150196 3:-0.448446 4:-0.228097 5:0.333475 6:-0.228185 7:0.087855 8:-0.315402 9:-0.0442964 10:0.056934 11:-0.711529 12:-0.233033 13:-0.7191 14:0.119252 15:-0.114832 16:0.156531 17:0.209707 18:-0.0126505 19:0.125194 20:-0.0310104 21:0.0727498 22:0.474167 23:-0.0953799 24:0.678847 25:0.136163 26:0.73487 
0.125 0.125 1:0.707933 2:0.0617943 3:-0.414459 4:-0.0888361 5:0.290731 6:-0.36217 7:-0.00106769 8:0.146946 9:0.0102562 10:-0.0106148 11:-0.552045 12:-0.157671 13:-0.31094 14:0.102445 15:0.0565202 16:0.224357 17:0.0861069 18:-0.161693 19:0.328927 20:0.0627086 21:-0.0597857 22:0.210561 23:-0.152358 24:0.709029 25:0.431705 26:0.58731 
0.125 0 1:0.617935 2:0.162173 3:-0.461509 4:-0.200474 5:0.440554 6:-0.583511 7:0.124777 8:0.0224985 9:0.106528 10:0.0195889 11:-0.520924 12:-0.194623 13:-0.179247 14:0.273391 15:0.0415259 16:0.236556 17:0.122808 18:-0.141495 19:0.332159 20:-0.108455 21:-0.0202096 22:0.0419521 23:-0.15567 24:0.354028 25:0.363962 26:0.0877916 
0.125 0 1:0.5418 2:0.156099 3:-0.464573 4:-0.23959 5:-0.0997764 6:-0.0768528 7:0.188499 8:-0.172043 9:0.0829965 10:0.0880455 11:0.0483612 12:0.0931262 13:0.290662 14:0.449526 15:0.0520227 16:0.125287 17:0.182173 18:0.109342 19:0.0551713 20:-0.177746 21:-0.0134027 22:0.0351192 23:-0.0199079 24:-0.155077 25:-0.0909297 26:-0.413621 
0.125 0.125 1:0.644843 2:0.150956 3:-0.368001 4:-0.270449 5:0.27176 6:-0.531221 7:-0.0510906 8:-0.0438512 9:0.208533 10:-0.281206 11:-0.377674 12:0.316319 13:-0.0828888 14:0.389292 15:-0.0106207 16:-0.0211243 17:0.280823 18:0.0686026 19:0.198541 20:-0.110137 21:0.0261083 22:-0.193853 23:0.219028 24:-0.177658 25:-0.393875 26:-0.329979 
0.125 0 1:0.77689 2:0.158214 3:-0.460825 4:-0.268459 5:0.219174 6:-0.591307 7:-0.0134313 8:-0.272641 9:0.374686 10:-0.190334 11:-0.263421 12:0.316165 13:0.0992417 14:0.19018 15:0.0190036 16:-0.0371544 17:0.274729 18:-0.0805632 19:0.373021 20:-0.0657198 21:0.323401 22:-0.485578 23:0.321666 24:0.0141108 25:-0.364812 26:-0.156407 
0.125 0 1:0.780641 2:0.206243 3:-0.436226 4:-0.191718 5:0.276258 6:-0.527659 7:-0.00319951 8:-0.275572 9:0.350275 10:-0.154067 11:-0.271454 12:0.334139 13:0.0709552 14:0.0839141 15:0.0135915 16:-0.0782485 17:0.134748 18:-0.352297 19:0.42971 20:-0.0292642 21:0.375889 22:-0.549468 23:0.335408 24:0.261966 25:-0.287391 26:0.0329448 
0.125 0 1:0.766759 2:0.266924 3:-0.452036 4:-0.139775 5:0.23542 6:-0.438694 7:-0.0444011 8:-0.239427 9:0.227094 10:-0.107755 11:-0.274634 12:0.265338 13:0.0584397 14:0.0963639 15:-0.0976708 16:-0.0490255 17:-0.0133385 18:-0.589837 19:0.298934 20:-0.0104773 21:0.338542 22:-0.386179 23:0.165907 24:0.392121 25:-0.294547 26:0.165728 
0.125 0 1:0.734699 2:0.34696 3:-0.548157 4:-0.145518 5:0.151401 6:-0.257598 7:-0.0930704 8:-0.121922 9:-0.0236787 10:-0.094197 11:-0.187669 12:0.475033 13:0.184532 14:0.160107 15:-0.265315 16:0.129055 17:0.0140636 18:-0.412462 19:-0.0165158 20:0.0160114 21:0.317945 22:0.143421 23:-0.0187061 24:0.216682 25:-0.480358 26:0.141703 
0.125 0 1:0.706024 2:0.383953 3:-0.596937 4:-0.143633 5:0.0657744 6:-0.18462 7:-0.0610463 8:-0.0440089 9:-0.245849 10:0.213529 11:-0.0923419 12:0.508678 13:0.0177939 14:0.198871 15:-0.367505 16:0.275208 17:0.194445 18:-0.111674 19:-0.069073 20:0.043277 21:0.226182 22:0.623537 23:-0.16966 24:0.00332893 25:-0.518257 26:0.188079 
0.125 0 1:0.523116 2:0.222974 3:-0.39721 4:-0.0957026 5:-0.353268 6:-0.0685911 7:0.10712 8:0.509273 9:0.0635554 10:0.0929512 11:0.177157 12:0.0370411 13:0.527402 14:0.353038 15:-0.108337 16:0.233064 17:0.395377 18:0.423655 19:0.0410875 20:-0.100742 21:-0.432825 22:0.146326 23:0.0337735 24:-0.111405 25:0.186401 26:-0.339513 
0 0.125 1:0.484421 2:0.213298 3:-0.428086 4:0.0566548 5:-0.33873 6:0.0652573 7:0.101453 8:0.52598 9:0.105401 10:-0.0429188 11:0.0549035 12:0.109484 13:0.443143 14:0.440864 15:-0.0902632 16:0.209195 17:0.109807 18:0.172533 19:-0.0392912 20:0.0309809 21:-0.562151 22:-0.187301 23:0.212748 24:0.331092 25:-0.0659671 26:-0.241058 
0 0.125 1:0.456657 2:0.198924 3:-0.357197 4:0.165019 5:-0.266166 6:0.0719523 7:0.0949754 8:0.39329 9:0.159294 10:-0.125055 11:-0.0509781 12:0.170137 13:0.395448 14:0.445827 15:-0.14708 16:0.161588 17:-0.079116 18:-0.0260147 19:-0.0488144 20:0.1284 21:-0.356941 22:-0.340979 23:0.276125 24:0.679553 25:-0.293829 26:-0.106556 
0 0.125 1:0.421129 2:0.191343 3:-0.243283 4:0.301255 5:-0.288364 6:-0.0121588 7:0.0392348 8:0.45216 9:0.288594 10:-0.156711 11:-0.115594 12:0.211914 13:0.373659 14:0.385929 15:0.0309216 16:-0.0166438 17:-0.264631 18:-0.0567153 19:0.0641985 20:0.102108 21:-0.0734457 22:-0.430034 23:0.15594 24:0.310272 25:-0.26531 26:-0.0510316 
0.125 0.125 1:0.545636 2:0.0113179 3:0.133529 4:0.314858 5:-0.0546313 6:0.0404934 7:0.465016 8:0.0455277 9:0.172319 10:-0.0368239 11:0.542207 12:-0.00600275 13:0.383102 14:0.282615 15:0.367374 16:-0.290644 17:-0.298055 18:-0.175211 19:0.115811 20:-0.220392 21:0.36754 22:-0.445164 23:-0.0382043 24:-0.430203 25:-0.0377349 26:-0.167003 
0.125 0.125 1:0.568737 2:0.0225077 3:0.0475919 4:0.180048 5:-0.0953111 6:0.0920371 7:0.536472 8:0.0649216 9:0.193581 10:0.161266 11:0.533635 12:-0.1628 13:0.368679 14:0.298578 15:0.454455 16:-0.290091 17:-0.295679 18:-0.246563 19:0.0108842 20:-0.318512 21:0.290087 22:-0.443925 23:-0.276904 24:-0.984183 25:0.117791 26:-0.323235 
0.125 0.125 1:0.489 2:-0.0931886 3:0.151895 4:0.351425 5:0.0406689 6:0.0548088 7:0.528436 8:0.25871 9:0.10471 10:0.0920609 11:0.819364 12:0.0472829 13:0.16598 14:0.386664 15:0.220159 16:-0.0765308 17:-0.212844 18:-0.220199 19:-0.105666 20:-0.238693 21:-0.0317535 22:-0.208363 23:-0.270254 24:-0.999495 25:0.0170725 26:-0.330091 
0.125 0.125 1:0.520031 2:0.483304 3:-0.047419 4:-0.281641 5:0.0106879 6:0.249224 7:0.541188 8:0.152969 9:-0.166954 10:-0.298658 11:-0.252465 12:0.209288 13:0.307061 14:0.413651 15:-0.434555 16:0.20595 17:0.187807 18:-0.00729657 19:-0.164204 20:-0.115836 21:-0.240289 22:0.250143 23:0.0165697 24:-0.151322 25:-0.204528 26:-0.220514 
0.125 0.125 1:0.620864 2:0.563945 3:-0.0507498 4:-0.324905 5:-0.216591 6:0.0562227 7:0.365071 8:0.320973 9:-0.604515 10:-0.263267 11:-0.0357981 12:-0.0188137 13:-0.188816 14:0.331818 15:-0.749491 16:0.295057 17:0.423893 18:0.218464 19:0.00493819 20:0.00143933 21:-0.347826 22:0.604131 23:0.214533 24:0.486877 25:-0.243468 26:0.211139 
0.125 0.125 1:0.742787 2:0.337321 3:0.201976 4:-0.560889 5:-0.0369266 6:-0.128572 7:0.804551 8:-0.128698 9:-0.375373 10:-0.402283 11:-0.732979 12:0.137579 13:-0.324235 14:0.182024 15:-0.550689 16:0.0750501 17:0.550778 18:0.133731 19:0.194966 20:-0.227123 21:-0.0620234 22:0.593517 23:0.309236 24:0.922423 25:-0.216536 26:0.461034 
0.125 0.125 1:0.773136 2:0.263605 3:0.336576 4:-0.576862 5:0.0899767 6:-0.0715569 7:0.718521 8:-0.165508 9:-0.415038 10:-0.526826 11:-0.502924 12:0.189002 13:-0.399937 14:0.104716 15:-0.202968 16:-0.0937794 17:0.478128 18:-0.0481772 19:0.248746 20:-0.294886 21:0.0838452 22:0.424135 23:0.247211 24:0.754088 25:-0.0554385 26:0.462999 
0.125 0.125 1:0.805231 2:0.180952 3:0.184906 4:-0.502289 5:0.271343 6:-0.00546399 7:0.600147 8:-0.235588 9:-0.280869 10:-0.346569 11:-0.395147 12:-0.0289294 13:-0.266732 14:0.124874 15:0.127401 16:-0.12882 17:0.265506 18:-0.258716 19:0.226093 20:-0.227691 21:0.115809 22:0.176518 23:0.107215 24:0.32723 25:0.0946939 26:0.27182 
0.125 0.125 1:0.77301 2:0.163486 3:0.318956 4:-0.546409 5:0.177025 6:-0.0829978 7:0.682136 8:-0.293091 9:-0.362194 10:-0.430567 11:-0.30247 12:0.118249 13:-0.166568 14:0.186842 15:0.101509 16:-0.14227 17:0.220729 18:-0.266895 19:0.163472 20:-0.18468 21:0.178202 22:0.0464804 23:0.114746 24:0.120018 25:0.0489883 26:0.107941 
0.125 0.125 1:0.788024 2:0.150149 3:0.306548 4:-0.551121 5:0.200108 6:-0.0418397 7:0.570614 8:-0.493715 9:-0.115105 10:-0.473446 11:-0.222033 12:0.234756 13:-0.22197 14:0.217354 15:0.0121748 16:-0.127315 17:0.220006 18:-0.169425 19:0.180849 20:-0.124913 21:0.286166 22:-0.107952 23:0.154002 24:-0.068101 25:-0.069536 26:0.0936 
0.125 0.125 1:0.779476 2:0.151445 3:0.273372 4:-0.548961 5:0.213847 6:0.0327063 7:0.561184 8:-0.559112 9:-0.116011 10:-0.481471 11:-0.189834 12:0.363917 13:-0.19115 14:0.159215 15:-0.0586006 16:-0.125087 17:0.259211 18:-0.0543756 19:0.140504 20:-0.204647 21:0.541287 22:-0.27434 23:0.211473 24:-0.00477315 25:-0.243565 26:0.051658 
0.125 0.125 1:0.766778 2:0.165495 3:0.225377 4:-0.521618 5:0.179883 6:0.0609516 7:0.595752 8:-0.561806 9:-0.0534675 10:-0.40128 11:-0.0959672 12:0.380797 13:-0.0788716 14:0.125584 15:-0.0353524 16:-0.0680898 17:0.258889 18:-0.0191764 19:-0.0158618 20:-0.13107 21:0.51058 22:-0.228609 23:0.208468 24:-0.0745439 25:-0.442833 26:-0.093985 
0.125 0.125 1:0.722209 2:0.104532 3:0.126214 4:-0.482196 5:0.167264 6:0.0797826 7:0.452779 8:-0.468985 9:-0.109675 10:-0.386617 11:-0.0712167 12:0.506491 13:0.25079 14:0.16343 15:0.105722 16:0.0951743 17:0.179441 18:-0.110818 19:-0.146529 20:0.0657786 21:0.237127 22:-0.0800043 23:0.0823263 24:-0.0902567 25:-0.534869 26:-0.454551 
0.125 0.125 1:0.707061 2:0.187319 3:0.00613997 4:-0.351714 5:0.143589 6:0.323675 7:0.273802 8:-0.340065 9:-0.219995 10:-0.242012 11:-0.00352713 12:0.400541 13:0.0170815 14:0.273296 15:0.224454 16:0.190552 17:0.0382027 18:-0.208051 19:-0.22791 20:0.212581 21:-0.0783964 22:0.210504 23:-0.13594 24:-0.107329 25:-0.506662 26:-0.580563 
0.125 0.125 1:0.468153 2:0.0894457 3:-0.0015863 4:-0.35793 5:0.298706 6:0.091018 7:0.282677 8:0.0692923 9:-0.361664 10:-0.173451 11:0.0352939 12:0.487981 13:0.0844226 14:0.417614 15:0.146839 16:0.150474 17:0.0539107 18:-0.360219 19:-0.0160979 20:0.0900196 21:-0.0767182 22:0.403215 23:-0.090778 24:-0.00946452 25:-0.453237 26:-0.395081 
0.125 0.125 1:0.511436 2:0.309593 3:-0.0112927 4:-0.304934 5:0.0920681 6:-0.0996409 7:0.583715 8:-0.271003 9:-0.0705735 10:-0.168835 11:-0.190563 12:0.109508 13:0.0272212 14:0.430515 15:-0.264294 16:0.00974516 17:0.118702 18:-0.273759 19:0.210714 20:-0.238541 21:0.28915 22:0.303841 23:0.147089 24:0.148988 25:-0.219918 26:0.00967151 
0.125 0.125 1:0.532777 2:0.477542 3:-0.00149009 4:-0.363092 5:-0.0717233 6:0.0453445 7:0.524545 8:-0.265313 9:-0.2342 10:-0.314512 11:0.0135447 12:0.0922305 13:-0.445594 14:0.392425 15:-0.631068 16:-0.0664942 17:0.231785 18:-0.0606401 19:0.24286 20:-0.400601 21:0.389274 22:0.143806 23:0.443921 24:0.128832 25:0.00938619 26:0.578994 
0.125 0 1:0.538337 2:0.638372 3:-0.0502001 4:-0.516618 5:-0.130485 6:-0.0533683 7:0.571726 8:-0.0928556 9:-0.00718931 10:-0.584227 11:-0.0964189 12:-0.00461275 13:-0.555841 14:0.330973 15:-0.640098 16:0.0194004 17:0.282841 18:0.12836 19:0.179498 20:-0.407303 21:0.138985 22:-0.182471 23:0.509561 24:0.0893932 25:0.128129 26:0.708148 
0.125 0.125 1:0.466687 2:0.279839 3:-0.176565 4:-0.158407 5:-0.365096 6:0.0877179 7:0.24962 8:0.595477 9:0.163938 10:0.150815 11:0.107424 12:-0.170807 13:-0.0769654 14:0.300952 15:-0.171271 16:0.205884 17:0.105559 18:0.23404 19:-0.0944583 20:-0.223487 21:-0.438471 22:-0.398788 23:0.0235196 24:-0.146482 25:0.14786 26:0.372889 
0.125 0.125 1:0.53119 2:0.111982 3:-0.337715 4:-0.255565 5:-0.295842 6:0.0640696 7:0.223579 8:0.463342 9:0.0815681 10:0.256358 11:0.0215202 12:-0.204175 13:-0.154252 14:0.289037 15:0.302067 16:0.351402 17:0.013231 18:0.0873785 19:-0.224912 20:-0.0867665 21:-0.60117 22:-0.373466 23:-0.314476 24:-0.226442 25:0.0212841 26:0.0156076 
0.125 0.125 1:0.580611 2:0.162351 3:-0.204036 4:-0.219021 5:-0.26227 6:0.0294196 7:0.262328 8:0.262421 9:-0.0480406 10:0.371482 11:0.059095 12:0.0657409 13:0.178077 14:0.263168 15:0.40491 16:0.34181 17:-0.0946952 18:0.0310166 19:-0.194744 20:0.0519509 21:-0.350917 22:-0.281298 23:-0.47705 24:-0.150574 25:-0.120963 26:-0.2628 
0.125 0.125 1:0.51921 2:0.300608 3:-0.128022 4:-0.252445 5:-0.298365 6:-0.0680467 7:0.0372996 8:0.376594 9:-0.122571 10:0.198331 11:-0.0103305 12:-0.117256 13:0.192924 14:0.261831 15:0.161117 16:0.24054 17:-0.0820724 18:0.152619 19:-0.0380814 20:0.292151 21:-0.140524 22:-0.0769742 23:-0.312414 24:0.0574284 25:-0.0812451 26:-0.140871 
0.125 0.125 1:0.550468 2:0.37395 3:-0.145738 4:-0.310386 5:-0.39644 6:-0.268656 7:-0.159843 8:0.176645 9:-0.200743 10:-0.00211929 11:-0.315865 12:-0.187107 13:0.130931 14:0.228747 15:-0.187681 16:0.134641 17:0.0503877 18:0.325466 19:0.247513 20:0.386876 21:0.00111712 22:0.102232 23:0.00533467 24:0.415416 25:0.00115288 26:-0.0169756 
0.125 0.125 1:0.568276 2:0.414176 3:-0.0603496 4:-0.410554 5:-0.428664 6:-0.366084 7:-0.0126366 8:0.281945 9:-0.376583 10:0.18619 11:-0.193462 12:-0.048068 13:0.211937 14:0.172763 15:-0.386407 16:0.0406066 17:0.19899 18:0.441222 19:0.495736 20:0.21647 21:-0.0691935 22:0.415141 23:0.150154 24:0.489751 25:-0.0141174 26:-0.175699 
0.125 0.125 1:0.575 2:0.496166 3:0.147258 4:-0.635994 5:-0.164445 6:-0.40602 7:0.330935 8:0.147769 9:-0.491744 10:-0.162957 11:-0.183736 12:-0.023979 13:0.479814 14:0.197494 15:-0.547343 16:-0.00352907 17:0.431178 18:0.140566 19:0.550078 20:-0.215737 21:0.0958363 22:0.461917 23:0.31273 24:0.321171 25:-0.0266671 26:-0.421153 
0.125 0.125 1:0.536554 2:0.441388 3:0.112474 4:-0.62139 5:0.112408 6:-0.328628 7:0.38232 8:-0.022034 9:-0.491213 10:-0.199615 11:-0.0190192 12:0.0619188 13:0.54326 14:0.278247 15:-0.386432 16:-0.0289284 17:0.463072 18:-0.332663 19:0.442459 20:-0.468275 21:0.30771 22:0.378717 23:0.219045 24:0.0109732 25:-0.150045 26:-0.549949 
0.125 0.125 1:0.493547 2:0.390222 3:0.124413 4:-0.609108 5:0.19815 6:-0.237804 7:0.356422 8:-0.156997 9:-0.427414 10:-0.135603 11:0.213043 12:0.154838 13:0.26882 14:0.375046 15:-0.000180995 16:-0.136955 17:0.399876 18:-0.720989 19:0.200229 20:-0.302222 21:0.504285 22:0.252714 23:0.135753 24:-0.389077 25:-0.177991 26:-0.204775 
0.125 0.125 1:0.345445 2:0.246331 3:0.229185 4:-0.507444 5:0.426881 6:0.0879254 7:0.309349 8:0.0316391 9:0.0452001 10:0.143748 11:0.272629 12:0.101195 13:0.164891 14:0.417257 15:0.41792 16:-0.255848 17:0.248735 18:-0.795635 19:-0.115837 20:0.0424798 21:0.507756 22:0.209318 23:0.0335813 24:-0.532574 25:-0.157044 26:0.277845 
0.125 0.125 1:0.586205 2:-0.0569706 3:0.34319 4:-0.339949 5:0.0910324 6:-0.0147984 7:0.0882212 8:0.135577 9:-0.542542 10:-0.101891 11:-0.00800572 12:0.305984 13:0.0278888 14:0.295273 15:0.553026 16:-0.284773 17:0.116208 18:-0.3978 19:-0.223874 20:0.287993 21:0.360823 22:0.430015 23:0.0552479 24:-0.342065 25:-0.269579 26:0.525932 
0.125 0.125 1:0.542103 2:0.397906 3:0.173872 4:-0.4681 5:-0.0481504 6:0.210251 7:0.236585 8:0.0205093 9:-0.175963 10:-0.358283 11:0.183454 12:0.258155 13:-0.0457692 14:0.248925 15:0.0824226 16:-0.114172 17:0.133665 18:0.0560655 19:-0.277906 20:0.0994102 21:0.118297 22:0.16441 23:0.15956 24:-0.108323 25:-0.337726 26:0.444445 
0.125 0.125 1:0.504923 2:0.613512 3:-0.064357 4:-0.272547 5:-0.245565 6:0.00821296 7:0.58151 8:0.572148 9:0.550645 10:-0.0239659 11:-0.433331 12:0.318091 13:0.493908 14:0.212922 15:-0.431848 16:0.394523 17:0.0817728 18:0.304637 19:0.0609332 20:-0.417024 21:-0.332916 22:-0.550548 23:0.220586 24:0.571246 25:-0.379005 26:-0.379962 
0 0.125 1:0.560718 2:0.476923 3:-0.0458846 4:-0.237479 5:-0.244361 6:0.0208798 7:0.596775 8:0.617247 9:0.193047 10:-0.131 11:-0.230243 12:0.235314 13:0.278772 14:0.239749 15:-0.31374 16:0.303061 17:0.108463 18:0.164721 19:0.190575 20:-0.378231 21:-0.267877 22:-0.349973 23:0.271977 24:0.394364 25:-0.241069 26:-0.44727 
0.125 0.125 1:0.558288 2:0.519435 3:-0.0511744 4:-0.208157 5:-0.147425 6:-0.0111797 7:0.46336 8:0.39159 9:0.115451 10:-0.0656144 11:-0.333528 12:0.115941 13:0.523281 14:0.231392 15:-0.159305 16:0.0692184 17:0.129944 18:0.0712158 19:0.339107 20:-0.127392 21:-0.0660782 22:0.00961401 23:0.148493 24:0.121394 25:-0.0909278 26:-0.30053 
0.125 0 1:0.427024 2:0.687804 3:0.0929541 4:-0.242688 5:-0.186924 6:0.0564192 7:0.45916 8:0.627523 9:0.31883 10:0.477472 11:-0.00426613 12:0.0221747 13:0.135225 14:0.290764 15:-0.387512 16:-0.0172473 17:0.264481 18:-0.00687127 19:0.153606 20:0.0936458 21:-0.326459 22:-0.0456723 23:-0.388638 24:-0.0419819 25:0.123513 26:0.289405 
0.125 0.125 1:0.551381 2:0.383873 3:-0.0574451 4:-0.0922849 5:0.0222282 6:0.17887 7:0.428516 8:0.490149 9:0.31423 10:0.33195 11:-0.205283 12:0.0123348 13:0.0627988 14:0.226176 15:-0.371424 16:0.285251 17:0.271757 18:-0.195982 19:-0.100743 20:0.0462788 21:-0.425993 22:-0.0347804 23:-0.272609 24:0.317705 25:-0.0214081 26:0.302357 
0.125 0.125 1:0.482199 2:0.454813 3:-0.0496403 4:-0.132083 5:-0.0284152 6:0.323275 7:0.537708 8:0.430653 9:0.0387103 10:-0.0354582 11:-0.376385 12:0.0927762 13:0.418916 14:0.198687 15:-0.34759 16:0.41732 17:0.262604 18:-0.199959 19:-0.309905 20:-0.137026 21:-0.268491 22:0.234496 23:0.0543516 24:0.454072 25:-0.208072 26:0.143617 
0.125 0.125 1:0.433163 2:0.513687 3:-0.16453 4:-0.138422 5:0.101375 6:0.346599 7:0.606303 8:0.282964 9:-0.0765575 10:0.0530715 11:-0.116953 12:0.325908 13:0.328225 14:0.295116 15:-0.134514 16:0.271335 17:0.113405 18:-0.0521921 19:-0.343752 20:-0.377868 21:0.180381 22:0.330546 23:0.143671 24:0.168305 25:-0.348411 26:-0.121827 
0.125 0.125 1:0.408529 2:0.0357903 3:0.389236 4:0.230334 5:-0.182023 6:0.108002 7:0.700584 8:-0.256586 9:0.29419 10:-0.0682601 11:0.398306 12:0.117716 13:0.337559 14:0.460194 15:0.368198 16:-0.337452 17:-0.16095 18:0.213188 19:-0.118821 20:-0.564315 21:0.483655 22:0.0490058 23:0.0334948 24:-0.317222 25:-0.311581 26:-0.310841 
0.125 0.125 1:0.373904 2:0.0257652 3:0.360411 4:0.148794 5:-0.0393097 6:0.0542816 7:0.53374 8:-0.137452 9:0.306567 10:0.100178 11:0.260366 12:-0.0169456 13:0.46516 14:0.573054 15:0.576093 16:-0.644506 17:-0.228781 18:0.142232 19:0.0957209 20:-0.502595 21:0.292209 22:-0.241284 23:-0.199215 24:-0.401931 25:-0.238651 26:-0.406806 
0.125 0.125 1:0.312291 2:0.0139734 3:0.254651 4:0.138049 5:0.119086 6:0.00442006 7:0.439421 8:0.0157775 9:0.20958 10:-0.0360286 11:0.178331 12:0.139342 13:0.591604 14:0.508772 15:0.553511 16:-0.533603 17:-0.147279 18:-0.149738 19:0.254142 20:-0.273211 21:-0.00489584 22:-0.375884 23:-0.119442 24:-0.195037 25:-0.240412 26:-0.369455 
0.125 0.125 1:0.58437 2:0.263224 3:0.0637712 4:-0.105545 5:0.402938 6:-0.180562 7:0.0886576 8:0.0828315 9:0.196498 10:-0.351914 11:0.0208102 12:0.105881 13:0.121635 14:0.256412 15:0.113749 16:-0.101081 17:0.111047 18:-0.434917 19:0.343975 20:0.073249 21:-0.151618 22:-0.274686 23:0.233297 24:0.106555 25:-0.143507 26:-0.0881765 
0.125 0.125 1:0.683573 2:0.446909 3:-0.245715 4:-0.222335 5:0.22704 6:-0.104582 7:-0.0442001 8:-0.399457 9:0.107101 10:-0.59737 11:0.130292 12:-0.139711 13:0.129923 14:0.0137851 15:-0.355349 16:0.415124 17:0.298115 18:-0.376123 19:0.246734 20:0.298033 21:0.134076 22:0.107998 23:0.587886 24:0.199204 25:0.112689 26:0.0960835 
0.125 0.125 1:0.67286 2:0.477269 3:-0.333312 4:-0.265357 5:0.132572 6:-0.106026 7:-0.112618 8:-0.394232 9:-0.0575917 10:-0.567299 11:0.163023 12:-0.163036 13:0.12324 14:-0.103566 15:-0.47289 16:0.502642 17:0.308921 18:-0.100449 19:0.129096 20:0.357671 21:0.481259 22:0.418443 23:0.673007 24:0.142016 25:0.254844 26:0.189371 
0.125 0.125 1:0.654555 2:0.53817 3:-0.325489 4:-0.27175 5:0.0967724 6:-0.0605964 7:-0.133694 8:-0.307388 9:-0.219481 10:-0.389541 11:0.100371 12:-0.12304 13:-0.0456463 14:-0.0155787 15:-0.607478 16:0.50893 17:0.426615 18:-0.0715055 19:-0.0655138 20:0.303164 21:0.445989 22:0.413655 23:0.341247 24:0.108996 25:0.149961 26:0.228639 
0.125 0.125 1:0.643317 2:0.474501 3:-0.238094 4:-0.320685 5:0.000742136 6:-0.010255 7:-0.064037 8:-0.363637 9:-0.190444 10:-0.317452 11:0.0907492 12:-0.00232145 13:0.0417797 14:0.248828 15:-0.575576 16:0.359226 17:0.535976 18:-0.131501 19:-0.266517 20:0.153267 21:0.244297 22:0.118719 23:-0.108214 24:0.077146 25:-0.26045 26:0.0804393 
0.125 0 1:0.442936 2:0.460082 3:-0.210331 4:-0.400087 5:0.155503 6:-0.091681 7:0.0317581 8:-0.176692 9:0.209069 10:0.0990995 11:0.228383 12:0.343645 13:-0.0333496 14:0.535164 15:-0.448244 16:0.147392 17:0.579758 18:-0.235431 19:-0.288781 20:-0.0137235 21:-0.0702934 22:-0.254479 23:-0.462377 24:-0.0231771 25:-0.669365 26:0.0581313 
0.125 0 1:0.341415 2:0.446533 3:-0.315532 4:-0.343653 5:0.138133 6:-0.152053 7:0.158749 8:0.0771668 9:0.158634 10:0.0657641 11:0.283493 12:0.158454 13:0.00707522 14:0.654173 15:-0.181365 16:-0.0179211 17:0.40313 18:-0.070858 19:-0.179572 20:-0.16236 21:-0.149047 22:-0.245147 23:-0.446577 24:-0.122602 25:-0.548544 26:-0.0167748 
0.125 0.125 1:0.48025 2:-0.0715953 3:0.196411 4:0.256647 5:-0.463464 6:-0.349501 7:0.236943 8:-0.268623 9:-0.313139 10:-0.297547 11:0.158504 12:0.0477232 13:0.11212 14:0.515545 15:0.274278 16:-0.295837 17:0.00661303 18:0.323802 19:0.085464 20:-0.228323 21:0.0402904 22:0.151978 23:-0.139773 24:-0.119462 25:-0.197978 26:-0.0576068 
0.125 0 1:0.623477 2:-0.0153939 3:0.00342815 4:0.233874 5:-0.266097 6:-0.615804 7:0.332863 8:-0.0772194 9:-0.259828 10:-0.429908 11:0.250407 12:-0.174114 13:-0.0433258 14:0.246953 15:0.399362 16:-0.291799 17:-0.16886 18:0.383052 19:0.331532 20:-0.193297 21:0.0326269 22:0.362685 23:0.187213 24:-0.131279 25:0.275115 26:-0.021727 
0.125 0 1:0.692307 2:0.0662537 3:-0.169259 4:0.248571 5:-0.112113 6:-0.674732 7:0.254344 8:-0.0569988 9:-0.0430071 10:-0.399495 11:0.106002 12:-0.211814 13:-0.00547929 14:0.0127269 15:0.289751 16:-0.152275 17:-0.179562 18:0.262838 19:0.471292 20:-0.0793213 21:-0.0572769 22:0.32188 23:0.479593 24:-0.117835 25:0.434325 26:-0.040335 
0.125 0 1:0.696664 2:0.0641521 3:-0.147807 4:0.270931 5:-0.0942481 6:-0.6672 7:0.333274 8:0.0236013 9:-0.12418 10:-0.588356 11:0.0665111 12:0.00462372 13:0.0385254 14:-0.0424491 15:0.0899835 16:0.0136914 17:-0.0617796 18:0.0139053 19:0.477161 20:-0.0174585 21:-0.197066 22:0.179061 23:0.581855 24:-0.166656 25:0.224386 26:-0.00170172 
0.125 0 1:0.686309 2:0.0550342 3:-0.144489 4:0.300392 5:-0.0453025 6:-0.661637 7:0.380568 8:0.0403379 9:-0.0492422 10:-0.584275 11:0.0253638 12:0.0209859 13:0.10114 14:0.0448702 15:-0.0858197 16:0.1838 17:0.0592207 18:-0.175629 19:0.38312 20:-0.00114255 21:-0.244828 22:0.0174797 23:0.481792 24:-0.172781 25:0.0223488 26:-0.00430558 
0.125 0 1:0.612435 2:0.194834 3:-0.372181 4:0.249893 5:0.0933008 6:-0.714954 7:0.482867 8:-0.062012 9:-0.00928777 10:-0.352191 11:-0.145889 12:0.385028 13:-0.124828 14:0.224672 15:-0.224084 16:0.412171 17:0.0792125 18:-0.311249 19:0.314132 20:-0.109359 21:0.0437386 22:-0.0848193 23:0.174786 24:0.148253 25:-0.351279 26:0.0733667 
0.125 0.125 1:0.50323 2:0.17101 3:-0.34833 4:0.160303 5:0.148665 6:-0.406492 7:0.518392 8:-0.280042 9:0.0926447 10:0.0691012 11:-0.387976 12:0.308439 13:0.0170625 14:0.407588 15:-0.346105 16:0.613112 17:0.131721 18:-0.483231 19:0.185853 20:-0.199323 21:0.295887 22:-0.254234 23:-0.193391 24:0.540184 25:-0.516499 26:0.0226057 
0.125 0 1:0.445169 2:0.194343 3:-0.253273 4:0.173168 5:0.03308 6:-0.391963 7:0.618626 8:-0.196083 9:0.14991 10:-0.00122975 11:-0.509206 12:0.473813 13:0.160187 14:0.414299 15:-0.312336 16:0.38456 17:0.0399367 18:-0.343953 19:0.129323 20:-0.255975 21:0.424426 22:-0.335292 23:-0.347487 24:0.665741 25:-0.686848 26:-0.0453317 
0.125 0 1:0.423853 2:0.248973 3:-0.278421 4:0.121256 5:0.1377 6:-0.354241 7:0.713675 8:-0.207198 9:0.0927276 10:0.0973382 11:-0.59305 12:0.625645 13:-0.0113 14:0.316648 15:-0.00968164 16:0.00688133 17:-0.0526491 18:-0.185099 19:-0.0664046 20:-0.345503 21:0.361623 22:-0.165738 23:-0.310391 24:0.485868 25:-0.607065 26:0.0208813 
0.125 0 1:0.535313 2:-0.013231 3:0.279052 4:0.0644173 5:-0.302179 6:-0.124237 7:0.502462 8:0.00681155 9:-0.144431 10:-0.0805063 11:-0.0182165 12:0.257397 13:0.121215 14:0.194036 15:0.444942 16:-0.503289 17:-0.0365195 18:0.0966303 19:-0.30388 20:-0.306352 21:0.103423 22:0.148015 23:-0.0598032 24:0.00325774 25:-0.248873 26:-0.0182479 
0.125 0 1:0.278376 2:0.210776 3:-0.330247 4:-0.429646 5:0.0488896 6:0.0103061 7:0.579128 8:0.268923 9:-0.144193 10:-0.193473 11:-0.233486 12:-0.0466422 13:0.14696 14:0.474103 15:0.146763 16:-0.0229979 17:0.535642 18:-0.135906 19:-0.194472 20:-0.304009 21:-0.196691 22:0.290248 23:0.284222 24:-0.0708088 25:0.122197 26:0.123792 
0.125 0 1:0.42016 2:0.608053 3:-0.0583317 4:-0.338066 5:-0.484195 6:-0.332726 7:0.281397 8:0.107329 9:-0.0831316 10:-0.0946847 11:0.0707242 12:0.0379886 13:0.123542 14:0.409707 15:-0.742303 16:0.125279 17:0.427161 18:0.231879 19:0.489659 20:0.106199 21:-0.0869272 22:0.0637467 23:0.182758 24:0.000126626 25:-0.0329645 26:0.00217806 
0.125 0 1:0.586404 2:0.511799 3:-0.120446 4:-0.140646 5:-0.497701 6:-0.188495 7:-0.0167452 8:0.209213 9:-0.14498 10:-0.00979858 11:-0.0640813 12:-0.024501 13:0.639282 14:-0.0381939 15:-0.249297 16:-0.13926 17:0.063333 18:0.421424 19:0.355379 20:0.416862 21:-0.00856176 22:0.294308 23:-0.0204965 24:0.00648787 25:0.0998889 26:-0.654971 
0.125 0 1:0.635432 2:0.356123 3:-0.201292 4:-0.224991 5:-0.241588 6:-0.168239 7:-0.0132414 8:-0.00445136 9:-0.116606 10:0.234487 11:0.086451 12:0.148119 13:0.540307 14:0.0416753 15:-0.0981818 16:0.211915 17:0.168482 18:0.102822 19:-0.055707 20:0.165579 21:0.0976016 22:0.285075 23:-0.131214 24:0.100423 25:0.0246594 26:-0.549433 
0.125 0 1:0.380716 2:0.342086 3:-0.317305 4:-0.0164407 5:0.0958987 6:0.180165 7:0.354557 8:-0.000473513 9:0.256494 10:0.282996 11:0.150325 12:0.286526 13:0.0229812 14:0.640633 15:-0.246596 16:0.23293 17:0.171222 18:-0.424179 19:-0.335468 20:-0.185711 21:0.0207067 22:-0.249975 23:-0.22165 24:0.139365 25:-0.445159 26:0.309413 
0.125 0.125 1:0.484474 2:0.0325631 3:0.00942501 4:0.115881 5:0.276834 6:-0.19416 7:0.319546 8:0.222342 9:0.474259 10:-0.227611 11:0.210989 12:0.448394 13:-0.148592 14:0.505944 15:0.0389032 16:-0.0236453 17:0.130204 18:-0.502944 19:0.201967 20:-0.0431977 21:-0.189164 22:-0.411318 23:0.0949664 24:0.118928 25:-0.507536 26:0.268351 
0.125 0.125 1:0.63168 2:-0.0644391 3:-0.078071 4:0.172446 5:0.167096 6:-0.293256 7:0.5563 8:0.204569 9:0.536297 10:-0.291933 11:0.344318 12:0.321332 13:-0.157873 14:0.256346 15:0.217133 16:-0.0125547 17:0.12424 18:-0.401931 19:0.542219 20:-0.0726755 21:-0.145851 22:-0.434916 23:0.36896 24:-0.0599349 25:-0.510618 26:0.289968 
0.125 0.08180909143876283 1:0.786532 2:-0.0359968 3:-0.159906 4:0.155681 5:-0.0692599 6:-0.226827 7:0.577179 8:0.024197 9:0.379946 10:-0.34211 11:0.313389 12:0.11248 13:-0.0413949 14:0.0767662 15:0.152074 16:0.174442 17:0.0971834 18:-0.219843 19:0.438157 20:-0.212674 21:-0.000316604 22:-0.344046 23:0.567708 24:-0.199102 25:-0.414565 26:0.381268 
0.125 0.125 1:0.782914 2:-0.0367295 3:-0.0104508 4:0.270883 5:-0.0299825 6:-0.233274 7:0.541706 8:-0.0999837 9:0.214031 10:-0.414698 11:0.559382 12:0.188094 13:-0.209725 14:0.0459737 15:-0.00930546 16:0.252801 17:0.0285068 18:-0.108323 19:0.189616 20:-0.278123 21:0.147122 22:-0.11381 23:0.469905 24:-0.310515 25:-0.227473 26:0.422014 
0.125 0.125 1:0.812215 2:-0.0766493 3:0.088708 4:0.329375 5:-0.214424 6:-0.0874025 7:0.634234 8:-0.0331642 9:0.0952118 10:-0.200179 11:0.429084 12:-0.205841 13:0.116127 14:0.101757 15:-0.118148 16:0.195784 17:-0.030186 18:-0.0254941 19:-0.0535503 20:-0.270055 21:0.102717 22:0.115143 23:0.115862 24:-0.212279 25:0.150397 26:0.126485 
0.125 0.125 1:0.815335 2:-0.107084 3:0.189551 4:0.285711 5:-0.252407 6:-0.0792684 7:0.560739 8:0.0209897 9:0.00835127 10:0.0955003 11:0.224036 12:-0.425135 13:0.420776 14:0.177276 15:-0.100263 16:-0.00863888 17:-0.025403 18:-0.0369029 19:-0.0802897 20:-0.169022 21:-0.0117468 22:0.27402 23:-0.231378 24:-0.0645004 25:0.411118 26:-0.149754 
0.125 0.125 1:0.796475 2:-0.152104 3:0.401114 4:0.257321 5:-0.425949 6:-0.186005 7:0.469271 8:-0.079436 9:-0.135948 10:0.114606 11:0.223909 12:-0.409781 13:0.474636 14:0.242631 15:-0.0540814 16:-0.223829 17:0.0397804 18:0.0606853 19:0.10891 20:-0.101411 21:-0.0815844 22:0.421744 23:-0.280795 24:0.0851537 25:0.390058 26:-0.374632 
0.125 0.125 1:0.783013 2:-0.154234 3:0.424462 4:0.185944 5:-0.491663 6:-0.202619 7:0.466073 8:-0.113704 9:-0.176007 10:-0.0610913 11:0.189661 12:-0.189884 13:0.565307 14:0.270567 15:-0.0507189 16:-0.288791 17:0.164715 18:0.143713 19:0.242844 20:-0.0863274 21:-0.0115504 22:0.624849 23:-0.0683559 24:0.220591 25:0.174208 26:-0.508972 
0.125 0.125 1:0.768252 2:-0.172308 3:0.44343 4:0.0674541 5:-0.574055 6:-0.156438 7:0.436793 8:-0.257726 9:-0.203449 10:0.0133269 11:0.092437 12:-0.280382 13:0.610268 14:0.2813 15:-0.0644396 16:-0.277239 17:0.241856 18:0.140104 19:0.332969 20:-0.0498006 21:0.108074 22:0.720531 23:0.234746 24:0.289003 25:-0.102589 26:-0.440838 
0.125 0.125 1:0.752543 2:-0.196705 3:0.452951 4:0.074876 5:-0.630526 6:-0.194919 7:0.401906 8:-0.136253 9:-0.0337682 10:-0.327325 11:-0.0979148 12:0.00390553 13:0.727516 14:0.264779 15:-0.0578283 16:-0.207221 17:0.23388 18:0.0989394 19:0.268053 20:-0.0592737 21:0.123914 22:0.54832 23:0.424303 24:0.328892 25:-0.305406 26:-0.3013 
0.125 0.125 1:0.771446 2:-0.203384 3:0.304117 4:0.0534772 5:-0.517426 6:0.0984912 7:0.375462 8:-0.385969 9:0.110953 10:0.0301373 11:0.211928 12:-0.0564009 13:0.373772 14:0.22874 15:-0.0220424 16:-0.106414 17:0.236763 18:0.0460575 19:0.0570662 20:-0.0790678 21:0.221144 22:0.111992 23:0.140515 24:0.184709 25:-0.270383 26:-0.0578607 
0 0.125 1:0.754871 2:-0.201497 3:0.255762 4:0.0745823 5:-0.600868 6:0.0229666 7:0.297918 8:-0.231376 9:0.567777 10:0.0623417 11:0.170417 12:0.0697723 13:0.356542 14:0.199894 15:0.0897203 16:-0.0933069 17:0.2674 18:0.111127 19:-0.0369704 20:-0.0545584 21:0.228497 22:-0.519739 23:-0.208435 24:-0.0176771 25:-0.273586 26:0.137277 
0.0336175783905073 0.125 1:0.708338 2:-0.229623 3:0.206045 4:-0.00674017 5:-0.620278 6:0.262201 7:0.407118 8:-0.313847 9:0.664632 10:0.331183 11:0.238653 12:-0.0655056 13:0.358414 14:0.177979 15:0.171489 16:-0.0654675 17:0.32064 18:0.220609 19:-0.248974 20:-0.0165486 21:0.382817 22:-0.97342 23:-0.321878 24:-0.217767 25:-0.206752 26:0.0568601 
0 0.125 1:0.652093 2:-0.111527 3:-0.1064 4:0.129311 5:-0.39177 6:0.221976 7:0.231461 8:-0.163185 9:0.510764 10:-0.169783 11:0.324641 12:0.130716 13:0.203339 14:0.360066 15:-0.096091 16:0.248696 17:0.172355 18:-0.136766 19:-0.524723 20:-0.0121458 21:0.118031 22:-0.562745 23:0.125243 24:0.103066 25:-0.194844 26:-0.127299 
0.125 0.1133990074555391 1:0.461915 2:0.10511 3:-0.27262 4:0.254867 5:-0.0766299 6:-0.158128 7:0.552789 8:0.394097 9:-0.222865 10:0.130753 11:-0.0111605 12:0.0919223 13:-0.0338904 14:0.556535 15:-0.333074 16:0.23575 17:-0.0832524 18:-0.396379 19:-0.0375071 20:-0.352544 21:-0.332584 22:0.692586 23:-0.0233353 24:0.439206 25:-0.106169 26:0.0519518 
0.125 0 1:0.71891 2:0.11524 3:-0.559261 4:-0.321726 5:-0.0940494 6:-0.628942 7:0.0450752 8:0.614407 9:-0.100063 10:0.16358 11:0.404906 12:0.147036 13:0.572074 14:0.193582 15:-0.0576292 16:0.273857 17:0.48071 18:-0.1588 19:0.382128 20:-0.0508032 21:-0.454645 22:0.22196 23:-0.286068 24:0.0276926 25:-0.201436 26:-0.517825 
0.125 0 1:0.608586 2:0.103206 3:-0.402364 4:-0.158213 5:-0.307633 6:-0.21528 7:0.252638 8:0.131832 9:0.093525 10:0.425149 11:0.315332 12:0.0200503 13:0.434121 14:0.248598 15:-0.213193 16:0.280089 17:0.198083 18:0.00258165 19:-0.157795 20:-0.140942 21:0.207668 22:0.00634949 23:-0.392487 24:-0.0118794 25:-0.0204379 26:-0.265195 
0.125 0 1:0.562314 2:0.136114 3:-0.455047 4:-0.03152 5:-0.12965 6:-0.108633 7:0.156434 8:0.0687681 9:0.176629 10:0.213477 11:0.294227 12:0.146385 13:0.191394 14:0.339723 15:-0.331593 16:0.312028 17:0.204003 18:-0.145597 19:-0.485433 20:0.042147 21:0.249023 22:-0.299639 23:-0.174773 24:0.0395591 25:-0.174354 26:-0.0694166 
0.125 0.125 1:0.445176 2:-0.178461 3:0.0986322 4:0.322411 5:-0.376394 6:-0.415465 7:0.515911 8:-0.138357 9:-0.34843 10:-0.121752 11:0.0986826 12:-0.0256047 13:0.0110464 14:0.387467 15:0.195347 16:-0.427866 17:-0.0796733 18:0.193693 19:0.182599 20:-0.435586 21:0.207803 22:0.317339 23:0.180528 24:0.155223 25:-0.104912 26:0.177483 
0.125 0.125 1:0.539938 2:-0.0585976 3:0.116005 4:0.331911 5:-0.329802 6:-0.448643 7:0.457994 8:0.0804899 9:-0.0345746 10:-0.253732 11:0.140366 12:-0.0827762 13:-0.0195232 14:0.150048 15:0.169875 16:-0.367366 17:-0.17536 18:0.211006 19:0.579282 20:-0.446151 21:0.219529 22:0.26647 23:0.317311 24:-0.161281 25:0.131224 26:0.273531 
0.125 0.125 1:0.597247 2:0.0154041 3:0.0533267 4:0.294966 5:-0.283781 6:-0.533881 7:0.321567 8:0.118726 9:0.00197511 10:-0.419381 11:0.200376 12:-0.0807603 13:-0.0245687 14:0.00837042 15:0.00899001 16:-0.100637 17:-0.114252 18:0.0835167 19:0.736781 20:-0.231037 21:0.108988 22:0.161942 23:0.456593 24:-0.43269 25:0.101384 26:0.392617 
0.125 0.125 1:0.534106 2:0.119756 3:-0.112107 4:0.124214 5:-0.0530886 6:-0.498063 7:0.0588462 8:0.0852036 9:0.000188828 10:-0.459828 11:0.254905 12:-0.138314 13:-0.0391513 14:0.127945 15:-0.112006 16:0.103141 17:0.0195514 18:-0.0711824 19:0.472183 20:0.00100823 21:-0.0418896 22:0.0882738 23:0.491696 24:-0.340151 25:-0.0809552 26:0.109133 
0.125 0.125 1:0.390873 2:-0.0257573 3:-0.15137 4:0.0718763 5:-0.0934502 6:-0.187275 7:0.179708 8:0.26737 9:-0.142071 10:-0.168567 11:-0.144878 12:0.220755 13:0.171219 14:0.400938 15:0.0309379 16:0.139419 17:0.0808331 18:-0.233715 19:-0.00268232 20:0.083123 21:-0.146967 22:0.042546 23:0.162418 24:0.273813 25:-0.305952 26:-0.0960182 
0.125 0.125 1:0.330516 2:0.0428204 3:-0.020869 4:0.0285393 5:-0.0613682 6:-0.0227701 7:0.206706 8:0.0777967 9:-0.0420146 10:0.0547714 11:-0.368006 12:0.0869326 13:0.228908 14:0.496421 15:0.0165421 16:0.0517497 17:0.0401554 18:-0.270731 19:-0.306444 20:0.0516166 21:0.101999 22:0.0838674 23:-0.0690379 24:0.675149 25:-0.257633 26:-0.269666 
0.125 0.125 1:0.332767 2:0.082543 3:-0.0785346 4:0.042045 5:0.037516 6:0.0590942 7:0.109888 8:-0.0203684 9:0.0627277 10:0.00601626 11:-0.482041 12:-0.125108 13:0.507142 14:0.439247 15:-0.0654884 16:0.0774679 17:0.0204255 18:-0.182878 19:-0.338954 20:0.0594124 21:0.158894 22:-0.0705347 23:-0.139821 24:0.730638 25:-0.0906876 26:-0.323899 
0.125 0.125 1:0.511858 2:0.236185 3:-0.281893 4:-0.206219 5:0.105851 6:-0.126572 7:-0.0555816 8:0.0953434 9:0.070539 10:0.185231 11:-0.213046 12:-0.109107 13:-0.270505 14:0.26505 15:-0.217904 16:0.185107 17:0.161507 18:0.0289799 19:-0.0807002 20:0.0599193 21:0.0266668 22:-0.149051 23:-0.0971857 24:0.304969 25:-0.0705422 26:0.0191045 
0.125 0 1:0.533471 2:0.415357 3:-0.161275 4:-0.499846 5:-0.318266 6:-0.126677 7:0.322022 8:0.183106 9:-0.0868492 10:-0.14762 11:0.364926 12:0.243451 13:0.534244 14:0.147241 15:-0.311093 16:0.209683 17:0.410788 18:0.324445 19:0.137171 20:-0.100073 21:-0.0887279 22:-0.00531131 23:0.130395 24:-0.261076 25:-0.179912 26:0.0432249 
0.125 0.125 1:0.353848 2:0.00380927 3:-0.198318 4:-0.380625 5:-0.0481139 6:-0.191491 7:0.223066 8:0.215339 9:0.0552333 10:0.30542 11:-0.0800216 12:-0.0719723 13:0.0356839 14:0.205079 15:-0.243897 16:0.202617 17:0.546854 18:0.245325 19:0.178869 20:-0.200781 21:-0.0598874 22:0.0793066 23:-0.0736073 24:-0.131833 25:-0.0335721 26:0.165444 
0.125 0.125 1:0.505497 2:0.324087 3:-0.0874307 4:-0.540823 5:0.166206 6:-0.0810955 7:0.244314 8:-0.0283849 9:-0.140253 10:0.060971 11:0.158421 12:0.0229202 13:0.100722 14:0.248185 15:-0.395049 16:0.0628093 17:0.623442 18:-0.013188 19:0.0884223 20:-0.244682 21:0.189198 22:0.249653 23:-0.243854 24:-0.0578274 25:-0.0537005 26:-0.113703 
0.125 0.125 1:0.517273 2:0.313746 3:-0.114658 4:-0.524335 5:0.248867 6:-0.0742332 7:0.251864 8:-0.0333711 9:-0.129957 10:0.125759 11:0.0973272 12:-0.014315 13:0.195752 14:0.34458 15:-0.355866 16:0.0166235 17:0.540737 18:-0.27052 19:-0.00416384 20:-0.223917 21:0.348586 22:0.295105 23:-0.392862 24:0.122557 25:-0.059867 26:-0.538528 
0.125 0.125 1:0.335558 2:0.244271 3:-0.0514271 4:-0.294566 5:0.374706 6:-0.120231 7:0.214586 8:0.0668152 9:0.112343 10:0.347602 11:0.0626394 12:0.0487726 13:0.56034 14:0.438926 15:-0.152576 16:-0.0194779 17:0.35501 18:-0.436775 19:0.0392769 20:-0.15044 21:0.328474 22:0.171206 23:-0.334801 24:0.10731 25:-0.187236 26:-0.650198 
0.125 0.125 1:0.442626 2:-0.174646 3:-0.0137807 4:-0.0590395 5:0.277865 6:-0.186982 7:0.147324 8:0.242539 9:-0.0830586 10:-0.386203 11:0.533297 12:0.477655 13:0.0482369 14:0.383953 15:0.178155 16:-0.063529 17:0.168642 18:-0.31124 19:0.115199 20:-0.135841 21:0.17717 22:0.107746 23:0.209394 24:-0.174414 25:-0.421268 26:-0.430988 
0.125 0.125 1:0.547687 2:-0.0142005 3:-0.07512 4:-0.00845413 5:0.295447 6:-0.0919783 7:0.194264 8:0.208156 9:0.153339 10:-0.542465 11:0.11773 12:-0.040811 13:-0.374243 14:0.257883 15:0.157943 16:0.0720553 17:-0.0521188 18:-0.227357 19:0.23998 20:-0.0867416 21:0.0971967 22:-0.330771 23:0.705646 24:-0.195091 25:-0.194338 26:0.170561 
0.125 0.125 1:0.577363 2:0.0330738 3:0.0256376 4:0.180801 5:0.265908 6:-0.199096 7:0.0549076 8:0.335267 9:0.288779 10:-0.630487 11:0.354431 12:0.125316 13:-0.429783 14:0.113242 15:-0.149041 16:0.175321 17:-0.205637 18:-0.13967 19:0.327754 20:0.0325776 21:0.0227672 22:-0.602213 23:0.971542 24:-0.336217 25:-0.130514 26:0.551352 
0.125 0.125 1:0.617248 2:0.0551968 3:-0.119226 4:0.291861 5:0.128979 6:-0.106749 7:0.0121887 8:0.515269 9:0.207308 10:-0.440181 11:0.299131 12:0.157881 13:-0.457 14:0.0710272 15:-0.376279 16:0.304731 17:-0.200191 18:-0.00303241 19:0.23515 20:0.0984901 21:-0.0926189 22:-0.538422 23:0.779658 24:-0.221793 25:-0.0940091 26:0.596071 
0.125 0.125 1:0.60468 2:0.0700885 3:-0.112906 4:0.30907 5:0.0944856 6:-0.0813684 7:0.0600304 8:0.542716 9:0.105533 10:-0.383624 11:0.269625 12:0.15977 13:-0.636958 14:0.196678 15:-0.336 16:0.210157 17:-0.0594557 18:0.10613 19:0.0283952 20:0.067065 21:-0.140653 22:-0.179565 23:0.268695 24:0.0342299 25:-0.130617 26:0.338853 
0.125 0.125 1:0.472873 2:-0.269125 3:0.240637 4:0.0363707 5:0.0363427 6:0.248982 7:0.0922215 8:0.657829 9:-0.432422 10:0.447082 11:-0.25875 12:0.122449 13:-0.384231 14:0.34314 15:0.196523 16:-0.21275 17:0.227791 18:0.228419 19:-0.328611 20:0.0568536 21:-0.347509 22:0.506193 23:-0.421822 24:0.375592 25:-0.158394 26:0.0995406 
0.125 0.125 1:0.493076 2:-0.294202 3:0.219432 4:0.0327202 5:0.0224961 6:0.183761 7:0.183254 8:0.624675 9:-0.393689 10:0.397052 11:-0.111805 12:0.165818 13:-0.283406 14:0.372102 15:0.452578 16:-0.461844 17:0.387796 18:0.19458 19:-0.421209 20:0.0181884 21:-0.353799 22:0.750145 23:-0.72078 24:0.519852 25:-0.060231 26:0.0370398 
0.125 0.125 1:0.531795 2:-0.244703 3:0.229736 4:0.132062 5:0.0737322 6:0.0921327 7:0.217753 8:0.601297 9:-0.382544 10:0.452459 11:0.00572406 12:0.139066 13:-0.353524 14:0.322294 15:0.382889 16:-0.472235 17:0.364925 18:-0.00820757 19:-0.253986 20:0.00151533 21:-0.206876 22:0.638249 23:-0.619974 24:0.413766 25:0.0306093 26:0.0884257 
0.125 0.125 1:0.559556 2:-0.210155 3:0.142155 4:0.133183 5:0.200878 6:-0.0127234 7:0.210744 8:0.671632 9:-0.27536 10:0.400938 11:-0.0352889 12:0.0824413 13:-0.414496 14:0.238195 15:0.0985827 16:-0.188981 17:0.277104 18:-0.232532 19:-0.0337179 20:-0.00555841 21:-0.0797208 22:0.326307 23:-0.225833 24:0.193497 25:0.00565383 26:0.103316 
0.125 0.125 1:0.538588 2:0.138775 3:-0.273438 4:0.297253 5:0.327437 6:-0.314223 7:0.494537 8:0.0971356 9:-0.0871502 10:-0.0964961 11:0.145472 12:0.350437 13:-0.0706771 14:0.216756 15:-0.336031 16:0.299722 17:0.12608 18:-0.36222 19:0.222558 20:-0.0805521 21:0.121938 22:-0.0392414 23:0.308926 24:-0.0651345 25:-0.213492 26:-0.0374956 
0.125 0.125 1:0.539138 2:0.061219 3:-0.287388 4:0.272918 5:0.188092 6:-0.214782 7:0.536631 8:0.329024 9:-0.028692 10:-0.160359 11:0.256095 12:0.26504 13:-0.0385065 14:0.261358 15:-0.412476 16:0.508601 17:0.0877414 18:-0.262792 19:0.245212 20:-0.100104 21:-0.072802 22:-0.122042 23:0.413588 24:-0.0963966 25:-0.380109 26:-0.146231 
0.125 0.125 1:0.529947 2:0.0405272 3:-0.235978 4:0.352328 5:0.0365859 6:-0.274205 7:0.52021 8:0.448033 9:0.0215741 10:0.0212561 11:0.350246 12:0.477322 13:0.0177267 14:0.308347 15:-0.352813 16:0.543804 17:0.0407616 18:-0.0911383 19:0.305623 20:-0.142628 21:-0.203355 22:-0.104138 23:0.269802 24:-0.0478491 25:-0.542638 26:-0.148132 
0.125 0 1:0.488103 2:0.112616 3:-0.347538 4:0.457416 5:0.0552134 6:-0.491282 7:0.698426 8:0.116977 9:0.118089 10:0.0168576 11:0.18397 12:0.32848 13:0.024794 14:0.329698 15:-0.24992 16:0.458696 17:-0.00896942 18:0.0033299 19:0.416205 20:-0.272244 21:-0.0413585 22:-0.0500847 23:0.103272 24:0.106782 25:-0.450299 26:-0.0406467 
0.125 0 1:0.539351 2:0.0293915 3:-0.145308 4:0.379035 5:-0.00123191 6:-0.396215 7:0.865008 8:-0.153941 9:0.0448014 10:0.00246598 11:0.306294 12:0.231196 13:0.0440329 14:0.277599 15:-0.0916385 16:0.225821 17:0.0236969 18:-0.00153181 19:0.415507 20:-0.416835 21:0.361506 22:-0.00505186 23:0.0501869 24:0.156958 25:-0.256045 26:0.156447 
0.125 0 1:0.551025 2:-0.0147553 3:-0.011041 4:0.367552 5:-0.0553036 6:-0.289848 7:0.83178 8:-0.2531 9:0.153471 10:-0.0233293 11:0.414728 12:0.0813335 13:0.137183 14:0.210347 15:0.104645 16:-0.0525207 17:-0.0626732 18:0.0363024 19:0.238712 20:-0.586937 21:0.69547 22:-0.0816228 23:0.0728151 24:-0.137572 25:-0.0254907 26:0.109898 
0.125 0 1:0.556007 2:-0.0138808 3:0.102059 4:0.352298 5:-0.115474 6:-0.210524 7:0.749932 8:-0.20417 9:0.2321 10:-0.0738777 11:0.501538 12:0.0331447 13:0.258047 14:0.193422 15:0.340686 16:-0.386026 17:-0.108471 18:0.143858 19:-0.107403 20:-0.682332 21:0.610925 22:-0.0646412 23:0.0976988 24:-0.484652 25:0.244117 26:-0.0901182 
0.125 0 1:0.54904 2:-0.00798659 3:0.161819 4:0.28015 5:-0.102205 6:-0.0689585 7:0.67832 8:-0.249224 9:0.196744 10:0.0253584 11:0.555491 12:-0.024249 13:0.262969 14:0.279212 15:0.391212 16:-0.618626 17:-0.0645198 18:0.186639 19:-0.428313 20:-0.527605 21:0.261576 22:0.0579197 23:-0.0332845 24:-0.534952 25:0.275804 26:-0.260492 
0.125 0 1:0.503598 2:-0.0242905 3:0.266359 4:0.222207 5:-0.242787 6:0.111163 7:0.485574 8:0.263333 9:0.110292 10:0.172062 11:0.586321 12:-0.0927025 13:0.622063 14:0.406382 15:0.141894 16:-0.575176 17:0.0760951 18:0.117619 19:-0.507969 20:-0.170583 21:-0.187976 22:0.174765 23:-0.144104 24:-0.20972 25:0.206808 26:-0.373018 
0.125 0 1:0.433489 2:0.418891 3:-0.110986 4:-0.244018 5:0.0569684 6:-0.246188 7:0.0106454 8:0.0804562 9:0.119998 10:-0.153281 11:-0.159042 12:0.139526 13:0.394347 14:0.476335 15:-0.439999 16:-0.174203 17:0.355932 18:-0.182128 19:-0.152598 20:0.302424 21:-0.265665 22:0.0891549 23:0.0379632 24:0.406552 25:-0.0781285 26:-0.156498 
0.125 0 1:0.514522 2:0.563518 3:-0.350927 4:-0.229475 5:0.112262 6:-0.402476 7:-0.325171 8:0.125638 9:0.324285 10:0.0102834 11:-0.200132 12:0.445397 13:0.219016 14:0.368211 15:-0.765624 16:0.276487 17:0.491869 18:-0.348036 19:0.219159 20:0.543765 21:-0.204253 22:-0.16503 23:0.098605 24:0.616972 25:-0.39702 26:0.131454 
0.125 0 1:0.663766 2:0.468794 3:-0.525356 4:-0.232604 5:0.0106228 6:-0.53063 7:-0.0994903 8:0.0966892 9:0.338701 10:-0.236454 11:0.122801 12:0.209282 13:0.344201 14:0.170275 15:-0.694689 16:0.568972 17:0.524142 18:-0.322127 19:0.496929 20:0.333659 21:-0.00771058 22:-0.287802 23:0.22712 24:0.399481 25:-0.459055 26:0.219086 
0.125 0 1:0.658847 2:0.375856 3:-0.571564 4:-0.271542 5:-0.0481054 6:-0.618865 7:-0.0874771 8:0.103571 9:0.326983 10:-0.288919 11:0.0675259 12:0.404615 13:0.432092 14:0.0566001 15:-0.402836 16:0.592999 17:0.475408 18:-0.204348 19:0.564236 20:0.0254785 21:0.205371 22:-0.201211 23:0.194972 24:0.138593 25:-0.424995 26:0.233838 
0.125 0 1:0.598526 2:0.209191 3:-0.454501 4:-0.0601311 5:-0.176725 6:-0.484869 7:-0.102199 8:0.0652288 9:0.0804221 10:-0.277111 11:0.135046 12:0.18914 13:0.582836 14:0.185904 15:-0.0358579 16:0.219016 17:0.198634 18:-0.0123802 19:0.205762 20:-0.197857 21:0.25336 22:0.224853 23:0.102928 24:-0.133128 25:-0.119278 26:-0.073506 
0 0.125 1:0.506596 2:-0.0708645 3:-0.246924 4:0.118251 5:-0.40866 6:-0.155334 7:-0.163375 8:0.326231 9:0.0618093 10:-0.0885822 11:0.0232417 12:0.13119 13:0.685882 14:0.314046 15:0.186904 16:0.103795 17:0.00958403 18:0.0795756 19:0.00339405 20:0.0358199 21:-0.0390035 22:0.0147297 23:0.0897744 24:0.299592 25:-0.103691 26:-0.39832 
0 0.125 1:0.487792 2:-0.0802185 3:-0.172313 4:0.152173 5:-0.422352 6:-0.176495 7:-0.200144 8:0.436639 9:0.0759459 10:-0.142538 11:-0.0395779 12:0.102835 13:0.752932 14:0.231534 15:0.228429 16:-0.0239528 17:0.0608564 18:0.179943 19:0.0805413 20:0.109312 21:-0.156551 22:0.053273 23:0.0129964 24:0.143974 25:-0.162577 26:-0.312549 
0.125 0.125 1:0.508554 2:-0.00546882 3:-0.105975 4:0.0457308 5:-0.367056 6:-0.0292325 7:-0.146141 8:0.343552 9:-0.05976 10:0.272863 11:0.359671 12:0.164783 13:0.377485 14:0.267572 15:0.108407 16:-0.199961 17:0.0611863 18:0.221291 19:-0.0160151 20:-0.0590034 21:-0.235826 22:0.118979 23:-0.196212 24:-0.231408 25:-0.186062 26:-0.0393507 
0 0.125 1:0.432664 2:0.0338699 3:0.0679359 4:0.126652 5:-0.428585 6:0.0235929 7:-0.035894 8:0.597265 9:0.0291063 10:-0.209288 11:0.372062 12:0.233535 13:0.567269 14:0.399672 15:0.0146928 16:-0.360033 17:-0.0150902 18:0.266533 19:-0.204387 20:-0.362929 21:-0.323597 22:0.190346 23:-0.227392 24:-0.344419 25:-0.216603 26:0.129263 
0 0.125 1:0.414028 2:0.0760428 3:0.100629 4:0.159197 5:-0.405854 6:0.00638052 7:-0.0331673 8:0.475664 9:0.0574988 10:-0.084921 11:0.334155 12:0.0219958 13:0.264191 14:0.548308 15:-0.0448066 16:-0.350375 17:-0.0527216 18:0.156512 19:-0.337607 20:-0.547906 21:-0.163187 22:0.243475 23:-0.207871 24:-0.152557 25:-0.169855 26:0.287496 
0.125 0.125 1:0.286955 2:0.18404 3:-0.235494 4:-0.0335204 5:-0.000727515 6:0.222792 7:0.27278 8:0.160932 9:-0.0140709 10:0.186397 11:-0.11472 12:0.00584694 13:0.19309 14:0.605803 15:-0.105388 16:-0.122335 17:0.0196044 18:-0.150598 19:-0.331535 20:-0.523802 21:0.129602 22:0.205753 23:-0.13463 24:0.303236 25:-0.115374 26:0.31702 
0.125 0.125 1:0.572442 2:0.175481 3:-0.223622 4:-0.149696 5:-0.0117022 6:-0.257617 7:-0.400856 8:0.15141 9:0.0340486 10:-0.612572 11:0.00765027 12:0.115254 13:0.333465 14:0.398225 15:-0.158058 16:0.0173603 17:0.143786 18:-0.353457 19:-0.0127451 20:-0.0111183 21:0.235914 22:0.115917 23:0.370798 24:0.409229 25:-0.0898665 26:0.163309 
0.125 0 1:0.622895 2:0.316602 3:-0.292135 4:-0.23401 5:0.105155 6:-0.351777 7:-0.579035 8:0.248412 9:0.360231 10:-0.70379 11:0.136676 12:-0.0466371 13:0.465534 14:0.16452 15:-0.259196 16:0.116891 17:0.258365 18:-0.402597 19:0.145711 20:0.369915 21:0.290907 22:-0.151158 23:0.540238 24:0.14734 25:-0.000349348 26:0.0682935 
0.125 0.125 1:0.774354 2:0.332074 3:-0.428122 4:-0.34268 5:0.0656602 6:-0.359211 7:-0.422294 8:0.174771 9:0.283963 10:-0.339691 11:0.202596 12:-0.040859 13:0.334343 14:-0.13671 15:-0.479167 16:0.436236 17:0.376188 18:-0.407367 19:0.441988 20:0.526317 21:0.137847 22:-0.0955047 23:0.465574 24:-0.193236 25:0.0562097 26:-0.156055 
0.125 0.09420477393488723 1:0.766095 2:0.342771 3:-0.518401 4:-0.442594 5:0.0345364 6:-0.403656 7:-0.397894 8:0.151645 9:0.162444 10:-0.619611 11:0.302641 12:-0.02004 13:0.448276 14:-0.25598 15:-0.558222 16:0.580086 17:0.42586 18:-0.337723 19:0.650329 20:0.516164 21:-0.0778994 22:0.0288144 23:0.342917 24:-0.315472 25:0.122071 26:-0.322297 
0.125 0 1:0.748741 2:0.286167 3:-0.566163 4:-0.378886 5:-0.11617 6:-0.556505 7:-0.323059 8:0.157721 9:0.448134 10:-0.151847 11:0.136398 12:0.0593581 13:0.544498 14:-0.0821876 15:-0.270359 16:0.52658 17:0.312986 18:-0.14547 19:0.674904 20:0.212637 21:-0.219634 22:-0.0915271 23:0.0720186 24:-0.00397421 25:-0.00946517 26:-0.44048 
0.125 0 1:0.686729 2:0.312627 3:-0.592227 4:-0.469457 5:0.0551403 6:-0.670969 7:-0.173659 8:0.437297 9:0.0794196 10:-0.231817 11:0.0209833 12:0.126822 13:0.583629 14:0.253285 15:0.24354 16:0.204002 17:0.197053 18:0.0467717 19:0.497391 20:-0.0284302 21:-0.197027 22:-0.20629 23:0.020078 24:0.321269 25:-0.250561 26:-0.414201 
0 0.125 1:0.25474 2:-0.263325 3:0.279248 4:-0.199712 5:-0.53276 6:0.244882 7:0.323363 8:0.000511656 9:0.588838 10:-0.230014 11:-0.1492 12:0.29947 13:0.0536439 14:0.723489 15:0.756827 16:-0.35649 17:-0.014886 18:0.411308 19:-0.187834 20:-0.248933 21:0.0518329 22:-0.55032 23:-0.138002 24:0.294203 25:-0.401451 26:-0.123324 
0.125 0 1:0.448478 2:0.433061 3:-0.256605 4:-0.513098 5:-0.0674811 6:0.134215 7:0.27163 8:-0.136074 9:-0.030837 10:0.273817 11:0.271202 12:0.16097 13:-0.041232 14:0.588218 15:-0.0655972 16:0.0281375 17:0.102652 18:0.0725988 19:-0.426576 20:-0.204954 21:0.198872 22:0.163928 23:-0.434757 24:-0.266499 25:-0.0843591 26:0.414534 
0.125 0 1:0.665706 2:0.500843 3:-0.128027 4:-0.510461 5:-0.0279177 6:-0.0947416 7:0.843841 8:-0.208043 9:-0.122838 10:-0.52236 11:-0.317029 12:0.291103 13:-0.207366 14:-0.060946 15:-0.559662 16:0.141325 17:0.20235 18:-0.258506 19:0.211114 20:-0.411002 21:-0.0250553 22:0.356718 23:0.357224 24:0.22873 25:0.0119753 26:0.387899 
0.125 0 1:0.67667 2:0.528129 3:0.084073 4:-0.507423 5:-0.0745311 6:0.0292441 7:0.793534 8:-0.14246 9:-0.0737808 10:-0.508791 11:-0.142027 12:0.380931 13:-0.0917034 14:-0.0856242 15:-0.698382 16:-0.258499 17:0.310134 18:-0.0666261 19:0.118868 20:-0.601155 21:0.21213 22:0.0279807 23:0.592371 24:0.340836 25:-0.321568 26:-0.0187945 
0.125 0 1:0.623441 2:0.489023 3:-0.00552362 4:-0.522761 5:-0.125994 6:0.00524724 7:0.645699 8:-0.156603 9:-0.126398 10:-0.538097 11:0.0742829 12:0.463659 13:0.361102 14:0.154373 15:-0.528271 16:-0.420356 17:0.252688 18:0.0295693 19:-0.0338894 20:-0.552874 21:0.318621 22:-0.0140212 23:0.688491 24:0.217831 25:-0.511657 26:-0.434219 
0.125 0 1:0.543585 2:0.588185 3:-0.0503514 4:-0.632037 5:0.00743172 6:0.00863023 7:0.643865 8:-0.238824 9:-0.264303 10:-0.262255 11:-0.0419017 12:0.488267 13:0.159723 14:0.44393 15:-0.306937 16:-0.423029 17:0.191671 18:-0.0523404 19:-0.178941 20:-0.372875 21:0.244616 22:0.129568 23:0.424879 24:0.000865996 25:-0.574851 26:-0.426193 
0.125 0 1:0.475485 2:0.578028 3:-0.0561644 4:-0.641625 5:-0.038083 6:0.0109897 7:0.600468 8:-0.194289 9:-0.35096 10:-0.272081 11:0.0342671 12:0.435459 13:0.102769 14:0.633155 15:0.119577 16:-0.258916 17:0.00783251 18:-0.0932206 19:-0.206037 20:-0.162092 21:-0.0469777 22:0.271717 23:0.211093 24:-0.172878 25:-0.45688 26:-0.125203 
0.125 0.125 1:0.347445 2:-0.600514 3:-0.385932 4:-0.0878636 5:0.189023 6:-0.104704 7:0.00716363 8:0.305163 9:-0.345486 10:-0.0450222 11:-0.0105744 12:-0.0403694 13:-0.322634 14:0.604324 15:0.767105 16:0.137246 17:-0.154996 18:-0.195982 19:-0.000611667 20:0.106567 21:-0.240076 22:0.268988 23:-0.0455536 24:-0.0384059 25:-0.0955423 26:0.39863 
0.125 0 1:0.751177 2:0.457736 3:-0.694974 4:-0.841751 5:-0.0331388 6:-0.419291 7:0.228356 8:-0.171705 9:-0.0659335 10:0.608013 11:0.118618 12:0.361697 13:0.15595 14:0.26349 15:0.251222 16:0.464972 17:0.162705 18:-0.0901693 19:0.271787 20:0.106008 21:0.00045955 22:0.132524 23:-0.339271 24:0.0804286 25:0.0246216 26:0.483365 
0.125 0 1:0.793536 2:0.428026 3:-0.701207 4:-0.766964 5:0.0636094 6:-0.380315 7:0.052954 8:-0.173391 9:-0.320321 10:0.266779 11:-0.202818 12:-0.190663 13:-0.160765 14:0.0149305 15:-0.164416 16:0.640522 17:0.404734 18:-0.0572806 19:0.394704 20:0.155276 21:0.116053 22:0.113988 23:-0.378947 24:0.237715 25:0.262361 26:0.401726 
0.125 0.125 1:0.787217 2:0.324077 3:-0.66682 4:-0.784035 5:0.0234329 6:-0.452307 7:-0.0127339 8:-0.0833683 9:-0.220688 10:0.343111 11:-0.101365 12:-0.174189 13:0.0885116 14:-0.0725005 15:-0.407465 16:0.605316 17:0.620483 18:-0.088242 19:0.439006 20:0.0947015 21:0.129501 22:-0.00574934 23:-0.428291 24:0.173738 25:0.140035 26:0.0785286 
0.125 0 1:0.765615 2:0.308428 3:-0.670261 4:-0.763298 5:0.0563209 6:-0.399372 7:-0.0355439 8:0.00160905 9:-0.0202966 10:0.463424 11:0.0733425 12:0.118315 13:0.448667 14:-0.0140571 15:-0.383883 16:0.425119 17:0.661043 18:-0.200122 19:0.400546 20:-0.0059601 21:0.0904866 22:-0.155368 23:-0.319314 24:-0.0285308 25:-0.138513 26:-0.2273 
0.125 0 1:0.738417 2:0.30845 3:-0.589294 4:-0.663742 5:0.0895829 6:-0.358562 7:-0.0535464 8:0.0458445 9:0.0071068 10:0.400934 11:0.121566 12:0.100244 13:0.516762 14:0.181291 15:-0.13716 16:0.306569 17:0.314468 18:-0.026328 19:0.183604 20:0.0171834 21:0.0903269 22:-0.101767 23:-0.170781 24:-0.16079 25:-0.116406 26:-0.39644 
0.125 0 1:0.634495 2:0.252742 3:-0.259374 4:-0.423451 5:-0.00570791 6:-0.263916 7:0.0594263 8:-0.132212 9:-0.159603 10:-0.174902 11:0.0516165 12:0.0128782 13:0.395961 14:0.366782 15:-0.193444 16:-0.00596787 17:0.0850309 18:0.247603 19:-0.0785913 20:-0.0844668 21:0.158676 22:0.214984 23:0.0837078 24:-0.185803 25:-0.180458 26:-0.601997 
0.125 0 1:0.55702 2:0.25765 3:-0.234147 4:-0.145888 5:-0.120411 6:-0.115403 7:-0.0497979 8:-0.0390957 9:-0.152626 10:-0.195194 11:-0.0683512 12:-0.0886166 13:0.48622 14:0.532171 15:-0.265512 16:-0.269098 17:-0.107409 18:0.332773 19:-0.35236 20:-0.109088 21:0.100811 22:0.43025 23:0.241473 24:-0.0648843 25:-0.00318482 26:-0.716251 
0.125 0 1:0.479429 2:0.316317 3:-0.176933 4:-0.00879784 5:-0.314493 6:0.104374 7:-0.0587033 8:0.113426 9:-0.160261 10:-0.0668283 11:-0.047596 12:0.058957 13:0.683101 14:0.588493 15:-0.201441 16:-0.435073 17:-0.101365 18:0.194271 19:-0.354162 20:-0.123242 21:-0.0508736 22:0.338516 23:0.278694 24:0.0532552 25:0.064769 26:-0.685356 
0.125 0.125 1:0.582655 2:-0.137608 3:0.212098 4:-0.380344 5:0.652872 6:-0.341148 7:0.0772455 8:0.410677 9:0.0585732 10:-0.527214 11:-0.103323 12:0.315691 13:0.10329 14:0.440584 15:0.0474264 16:-0.443065 17:0.135207 18:-0.357719 19:0.0334021 20:-0.176888 21:-0.126124 22:-0.071752 23:0.353588 24:0.161683 25:-0.0501143 26:-0.247796 
0.125 0.125 1:0.715493 2:0.149797 3:-0.297312 4:-0.0273703 5:0.276986 6:-0.389341 7:-0.0231993 8:-0.125867 9:0.514303 10:-0.348966 11:-0.209554 12:-0.064083 13:-0.195639 14:0.19894 15:-0.0386528 16:0.0408337 17:0.213191 18:-0.49427 19:0.324031 20:0.0110567 21:0.0822795 22:-0.635793 23:0.341069 24:0.275529 25:-0.125614 26:0.260057 
0.125 0.125 1:0.761856 2:-0.0878835 3:-0.336295 4:0.00103651 5:0.122227 6:-0.45874 7:-0.122044 8:0.174517 9:0.185982 10:-0.448162 11:-0.308761 12:0.337289 13:-0.44515 14:0.0729684 15:-0.0261031 16:0.333238 17:0.252405 18:-0.447981 19:0.349387 20:0.18649 21:-0.022491 22:-0.63754 23:0.398011 24:0.268508 25:-0.515978 26:0.535018 
0.125 0.125 1:0.7746 2:-0.0183068 3:-0.308918 4:-0.0235503 5:0.227174 6:-0.248343 7:-0.0324007 8:0.215415 9:0.145733 10:-0.315412 11:-0.103892 12:0.526219 13:-0.416615 14:0.0833975 15:-0.0807755 16:0.404698 17:0.224744 18:-0.331337 19:0.11289 20:0.338337 21:-0.220052 22:-0.35609 23:0.249557 24:0.133381 25:-0.717119 26:0.534867 
0.125 0.125 1:0.726233 2:-0.0770118 3:-0.249182 4:0.0731028 5:0.231247 6:-0.248787 7:-0.129065 8:0.331029 9:0.169817 10:-0.318986 11:-0.0822488 12:0.399074 13:-0.49233 14:0.186498 15:-0.0255193 16:0.196948 17:0.0933702 18:-0.0820196 19:-0.0673477 20:0.300836 21:-0.420989 22:0.106617 23:0.0139755 24:-0.0259202 25:-0.644349 26:0.411715 
0.125 0.125 1:0.656901 2:-0.209845 3:-0.0452635 4:0.275413 5:-0.129966 6:-0.254042 7:0.411395 8:0.167521 9:-0.345099 10:0.0504373 11:0.00262151 12:0.0909979 13:-0.38038 14:0.196653 15:0.375569 16:-0.205247 17:-0.132683 18:0.0274636 19:0.041777 20:-0.0832586 21:-0.0887469 22:0.661875 23:-0.156935 24:-0.200438 25:-0.329332 26:0.287279 
0.125 0.125 1:0.713595 2:-0.21507 3:-0.0785765 4:0.280273 5:-0.203949 6:-0.431344 7:0.357685 8:-0.0939336 9:-0.300818 10:-0.0159217 11:-0.148161 12:-0.152309 13:-0.622542 14:0.143376 15:0.541598 16:-0.223371 17:-0.345059 18:0.164603 19:0.276205 20:-0.301389 21:0.553697 22:0.639227 23:-0.161244 24:-0.2138 25:0.13772 26:0.251946 
0.125 0 1:0.679643 2:-0.126319 3:-0.0950614 4:0.326226 5:-0.212382 6:-0.356584 7:0.753747 8:-0.213943 9:-0.101886 10:-0.130573 11:0.0104692 12:-0.057165 13:-0.205082 14:0.189783 15:0.431455 16:-0.07895 17:-0.352467 18:0.254596 19:0.396286 20:-0.494139 21:0.751591 22:0.238005 23:-0.0743805 24:-0.139891 25:0.321212 26:0.120799 
0.125 0.125 1:0.614308 2:-0.0455893 3:-0.230706 4:0.194984 5:-0.140234 6:-0.279934 7:0.612733 8:-0.333577 9:-0.0109974 10:-0.159576 11:-0.130491 12:-0.266159 13:-0.0670587 14:0.363085 15:0.0181584 16:0.129635 17:-0.0810133 18:0.146616 19:0.26716 20:-0.432131 21:0.386746 22:-0.326879 23:0.0501189 24:0.0960871 25:0.298517 26:-0.0834839 
0.125 0.125 1:0.374232 2:0.493526 3:-0.312624 4:-0.339192 5:-0.308141 6:-0.133043 7:0.639148 8:0.538373 9:0.178129 10:-0.0572932 11:-0.395162 12:-0.253051 13:-0.207661 14:0.597956 15:-0.544484 16:0.187541 17:0.335544 18:0.125125 19:0.0850305 20:-0.286801 21:-0.540774 22:-0.63526 23:0.07599 24:0.400059 25:0.117925 26:-0.24939 
0.125 0 1:0.446358 2:0.517342 3:-0.154526 4:-0.372151 5:-0.199782 6:-0.0229147 7:0.692369 8:0.421247 9:0.0555943 10:-0.113677 11:-0.385968 12:-0.0555958 13:-0.0516635 14:0.611505 15:-0.631148 16:-0.0254302 17:0.474017 18:0.10738 19:-0.104483 20:-0.234055 21:-0.943182 22:-0.315229 23:0.0609239 24:0.414318 25:-0.161161 26:-0.510122 
0.125 0.125 1:0.546746 2:0.374978 3:-0.173799 4:-0.368826 5:-0.00311955 6:0.112923 7:0.60071 8:0.149638 9:-0.295606 10:-0.33226 11:-0.21642 12:0.148719 13:0.36302 14:0.458178 15:-0.393736 16:-0.138428 17:0.455901 18:0.0294606 19:-0.158234 20:-0.192161 21:-0.71648 22:0.260218 23:0.156877 24:0.225547 25:-0.322625 26:-0.558081 
0.125 0 1:0.666075 2:0.395119 3:-0.212975 4:-0.416493 5:-0.212783 6:-0.0227396 7:0.543561 8:-0.137478 9:-0.513631 10:-0.026157 11:-0.0998533 12:-0.0978837 13:-0.103604 14:0.265909 15:-0.191727 16:-0.107433 17:0.336433 18:0.00663428 19:-0.117196 20:-0.261986 21:-0.155245 22:0.626671 23:0.171621 24:-0.033486 25:-0.190819 26:-0.177418 
0.125 0 1:0.724027 2:0.428462 3:-0.330719 4:-0.455321 5:0.0729994 6:0.18244 7:0.543266 8:-0.318422 9:-0.271015 10:-0.276224 11:0.0247007 12:0.0517685 13:-0.307621 14:0.156385 15:-0.118522 16:0.0548569 17:0.213328 18:-0.181926 19:-0.168032 20:-0.269642 21:0.359712 22:0.567517 23:0.290315 24:-0.145211 25:0.00861144 26:0.258214 
0.125 0 1:0.715149 2:0.50387 3:-0.513505 4:-0.493102 5:0.143587 6:0.013301 7:0.509887 8:-0.619746 9:-0.233237 10:-0.233104 11:-0.124454 12:-0.0438083 13:-0.373983 14:0.187214 15:-0.247356 16:0.208412 17:0.183846 18:-0.238633 19:-0.153272 20:-0.182696 21:0.474558 22:0.333857 23:0.239601 24:-0.0616778 25:0.171342 26:0.458806 
0.125 0 1:0.805563 2:0.458082 3:-0.423019 4:-0.370097 5:0.106364 6:0.075749 7:0.200574 8:-0.617664 9:-0.160735 10:-0.00118241 11:-0.0608065 12:0.0548563 13:-0.205617 14:0.196505 15:-0.262066 16:0.166646 17:0.114549 18:-0.223126 19:-0.151463 20:-0.008251 21:0.442106 22:0.0869584 23:0.105365 24:-0.0368705 25:0.0959774 26:0.347006 
0.125 0 1:0.827271 2:0.35717 3:-0.424587 4:-0.432906 5:0.0756148 6:-0.0551882 7:0.131422 8:-0.662426 9:-0.0461872 10:0.0536509 11:0.00632197 12:0.298113 13:-0.121414 14:0.210627 15:-0.111736 16:0.14555 17:0.133208 18:-0.162323 19:-0.0550773 20:0.056749 21:0.391837 22:-0.0657586 23:0.0405716 24:-0.10011 25:-0.190281 26:0.0318265 
0.125 0 1:0.81991 2:0.322804 3:-0.508982 4:-0.499557 5:0.0630412 6:-0.194186 7:0.102144 8:-0.716933 9:0.0911528 10:0.15753 11:0.0289855 12:0.457237 13:-0.00414597 14:0.230852 15:-0.0187769 16:0.158943 17:0.208164 18:-0.0551276 19:0.130242 20:-0.00873732 21:0.40769 22:-0.21784 23:-0.0383675 24:-0.156028 25:-0.428145 26:-0.141508 
0.125 0 1:0.84735 2:0.316995 3:-0.541326 4:-0.501477 5:0.0637377 6:-0.339931 7:0.123761 8:-0.759599 9:0.161897 10:0.121286 11:-0.114291 12:0.442435 13:-0.150794 14:0.227753 15:-0.00419935 16:0.150006 17:0.245507 18:-0.0613441 19:0.255593 20:-0.154802 21:0.379563 22:-0.399854 23:-0.0172607 24:-0.10597 25:-0.557337 26:-0.119667 
0.125 0 1:0.857056 2:0.264776 3:-0.493081 4:-0.493525 5:0.00702358 6:-0.34876 7:0.0153036 8:-0.542882 9:0.158165 10:0.237063 11:-0.131094 12:0.568494 13:0.147489 14:0.223791 15:-0.0444561 16:0.107075 17:0.247527 18:-0.0606828 19:0.331225 20:-0.21341 21:0.289074 22:-0.382556 23:-0.0489878 24:0.0156326 25:-0.554157 26:-0.141934 
0.125 0 1:0.849329 2:0.3279 3:-0.39661 4:-0.432594 5:0.0489806 6:-0.409473 7:-0.0915496 8:-0.528888 9:0.148168 10:0.272265 11:-0.246762 12:0.490245 13:0.05225 14:0.162639 15:-0.110635 16:0.0168704 17:0.238355 18:-0.0373623 19:0.363193 20:-0.0753765 21:0.224572 22:-0.0392457 23:-0.0991417 24:0.192128 25:-0.369166 26:0.00943456 
0.125 0 1:0.880402 2:0.244031 3:-0.428861 4:-0.387233 5:-0.0244274 6:-0.397226 7:-0.204851 8:-0.288859 9:-0.0670926 10:0.313554 11:-0.33098 12:0.301202 13:-0.0273706 14:0.102986 15:-0.069138 16:0.0359407 17:0.258915 18:0.0575002 19:0.302138 20:0.109905 21:0.0459358 22:0.456668 23:-0.175878 24:0.32567 25:-0.121829 26:0.155229 
0.125 0 1:0.82502 2:0.246787 3:-0.473923 4:-0.434483 5:-0.0757793 6:-0.344202 7:-0.318376 8:-0.255385 9:-0.223905 10:0.189809 11:-0.328422 12:0.268643 13:0.0724112 14:0.129322 15:-0.0369113 16:0.116585 17:0.277008 18:0.120004 19:0.159929 20:0.219463 21:-0.0982672 22:0.718233 23:-0.188099 24:0.330611 25:0.0111336 26:0.130558 
0.125 0 1:0.793265 2:0.236132 3:-0.442584 4:-0.355299 5:-0.0318528 6:-0.270443 7:-0.359709 8:-0.0656841 9:-0.131343 10:0.149562 11:-0.326991 12:0.199329 13:0.142619 14:0.186913 15:-0.0139602 16:0.180911 17:0.217071 18:0.119359 19:0.0372024 20:0.207693 21:-0.185784 22:0.583903 23:-0.0878962 24:0.292961 25:0.059374 26:0.0269334 
0.125 0.04295180613066285 1:0.637429 2:0.2222 3:-0.402878 4:-0.123038 5:0.0339321 6:-0.091608 7:-0.185167 8:0.13387 9:0.331823 10:0.111696 11:-0.163157 12:0.228682 13:0.351645 14:0.353362 15:-0.0226521 16:0.153394 17:0.0628512 18:0.0461095 19:-0.0864554 20:-0.040572 21:-0.243675 22:0.0368102 23:0.0393277 24:0.124345 25:-0.044055 26:-0.230894 
0.125 0.125 1:0.596522 2:0.262575 3:-0.313343 4:-0.100847 5:0.111473 6:-0.184969 7:-0.146154 8:0.0123418 9:0.421367 10:-0.235114 11:-0.0645958 12:0.271904 13:0.355805 14:0.492272 15:-0.0995778 16:0.0360455 17:-0.062048 18:-0.128172 19:0.0415443 20:-0.240921 21:-0.226868 22:-0.40118 23:0.212111 24:-0.0310064 25:-0.184904 26:-0.452771 
0.125 0 1:0.588898 2:0.269094 3:-0.305837 4:-0.125038 5:0.116765 6:-0.227722 7:-0.156292 8:-0.0363121 9:0.421598 10:-0.325315 11:-0.0744337 12:0.227749 13:0.332 14:0.516599 15:-0.120904 16:-0.0524939 17:-0.084843 18:-0.291179 19:0.252257 20:-0.245939 21:-0.274564 22:-0.456935 23:0.199221 24:0.035496 25:-0.310467 26:-0.44708 
0.125 0.125 1:0.496343 2:0.28797 3:-0.191559 4:-0.0385594 5:0.247264 6:-0.0928988 7:0.00271793 8:0.182442 9:0.601236 10:-0.163434 11:0.104117 12:0.242916 13:0.321586 14:0.481764 15:-0.175402 16:-0.0935103 17:-0.0120115 18:-0.394546 19:0.30703 20:-0.134767 21:-0.295271 22:-0.42697 23:0.15433 24:0.0702219 25:-0.349318 26:-0.275113 
0.125 0.125 1:0.668034 2:0.258459 3:-0.229436 4:-0.135886 5:0.197668 6:-0.171487 7:-0.371728 8:0.0973906 9:0.3845 10:-0.311374 11:0.0540202 12:0.220912 13:0.252863 14:0.319045 15:-0.136196 16:-0.0552159 17:0.116242 18:-0.330933 19:0.264026 20:0.0684238 21:-0.128562 22:-0.162974 23:0.168333 24:0.131349 25:-0.262534 26:-0.02143 
0.125 0.125 1:0.744155 2:0.248591 3:-0.258742 4:-0.304063 5:0.00329841 6:0.124157 7:-0.26467 8:-0.29293 9:0.27835 10:-0.402076 11:0.00420026 12:0.107481 13:-0.233835 14:0.232953 15:-0.0858267 16:0.00833632 17:0.175742 18:-0.123052 19:-0.106441 20:-0.0676024 21:0.186282 22:-0.0319747 23:0.233964 24:-0.0159029 25:-0.0638545 26:0.282409 
0.125 0 1:0.678919 2:0.294004 3:-0.279653 4:-0.242704 5:-0.129563 6:0.322064 7:-0.0124173 8:-0.329697 9:0.489615 10:-0.563911 11:0.503985 12:-0.144536 13:0.000395523 14:0.244992 15:-0.0885553 16:0.0428044 17:0.137598 18:0.0727883 19:-0.426524 20:-0.324566 21:0.346479 22:-0.03701 23:0.312646 24:-0.378529 25:0.0741813 26:0.245849 
0.125 0.125 1:0.74073 2:0.139586 3:-0.222039 4:-0.198878 5:-0.145223 6:0.221482 7:-0.0181982 8:-0.206543 9:0.0492697 10:-0.231036 11:0.333225 12:0.0088149 13:0.0438893 14:0.230346 15:-0.0416912 16:0.0462743 17:0.0749389 18:0.162381 19:-0.45914 20:-0.414225 21:0.247556 22:0.202914 23:0.13267 24:-0.36906 25:0.0246639 26:0.150668 
0.125 0.125 1:0.76999 2:0.297837 3:-0.291536 4:-0.328789 5:-0.213487 6:0.286731 7:-0.219506 8:-0.24321 9:0.207785 10:-0.357811 11:0.333879 12:-0.0105558 13:-0.115754 14:0.223924 15:-0.110873 16:0.0717289 17:0.114472 18:0.17945 19:-0.288739 20:-0.252202 21:0.0986709 22:0.274113 23:0.00592106 24:-0.159816 25:-0.0836049 26:0.115922 
0.125 0.125 1:0.809758 2:0.256598 3:-0.288775 4:-0.452665 5:-0.221345 6:-0.0422685 7:-0.433342 8:-0.223508 9:0.146882 10:-0.186677 11:0.0587073 12:0.0642832 13:-0.0155734 14:0.115015 15:-0.0759853 16:0.134798 17:0.276582 18:0.144803 19:0.104963 20:0.149429 21:0.0264365 22:0.375795 23:-0.081782 24:0.0975849 25:-0.12239 26:0.0412955 
0.125 0.125 1:0.834482 2:0.181985 3:-0.299084 4:-0.454722 5:-0.198957 6:-0.191944 7:-0.424624 8:-0.235211 9:0.00902988 10:-0.202456 11:-0.0470276 12:-0.106787 13:-4.19261e-005 14:0.0753848 15:-0.00929535 16:0.140376 17:0.412229 18:0.0986796 19:0.311197 20:0.340633 21:0.102523 22:0.364498 23:-0.0253458 24:0.273226 25:-0.0865888 26:0.0532146 
0.125 0 1:0.771893 2:0.226758 3:-0.293702 4:-0.573375 5:-0.188642 6:-0.188491 7:-0.479941 8:-0.343029 9:0.214539 10:-0.410876 11:0.117769 12:0.0296933 13:0.0363958 14:0.196318 15:-0.024182 16:0.0759779 17:0.391805 18:0.0300993 19:0.317367 20:0.270928 21:0.14209 22:0.0302945 23:0.130608 24:0.148815 25:-0.117985 26:-0.0389835 
0.125 0 1:0.750345 2:0.238012 3:-0.255223 4:-0.453926 5:-0.0637638 6:-0.112686 7:-0.357656 8:-0.167503 9:0.422231 10:-0.249069 11:0.233347 12:-0.0423525 13:0.125389 14:0.346766 15:-0.0567615 16:-0.0287995 17:0.189334 18:-0.0751687 19:0.235758 20:-0.0131955 21:-0.00163706 22:-0.183256 23:0.113501 24:0.103357 25:-0.183389 26:-0.0681533 
0.125 0 1:0.555404 2:0.295294 3:-0.128369 4:-0.25414 5:-0.042895 6:-0.236572 7:-0.0943059 8:-0.147391 9:0.34163 10:-0.26172 11:-0.233996 12:0.191618 13:0.134422 14:0.478657 15:-0.177194 16:-0.0642634 17:-0.0132707 18:-0.10387 19:0.17387 20:-0.3144 21:-0.0699301 22:-0.249664 23:0.104183 24:0.221617 25:-0.28192 26:0.00819621 
0.125 0 1:0.660123 2:0.3054 3:-0.283779 4:-0.272517 5:-0.0271233 6:-0.2493 7:-0.13817 8:-0.165293 9:0.325841 10:-0.275521 11:0.107666 12:-0.0192926 13:0.079233 14:0.356695 15:-0.210594 16:0.0710266 17:-0.0406133 18:-0.111832 19:0.181378 20:-0.313148 21:-0.212283 22:-0.158295 23:0.0307363 24:0.138564 25:-0.145752 26:0.0727148 
0.125 0 1:0.748692 2:0.295004 3:-0.315328 4:-0.446322 5:-0.0213556 6:-0.132441 7:-0.159726 8:-0.224391 9:0.239688 10:-0.246669 11:0.113536 12:-0.0248706 13:0.12139 14:0.166458 15:-0.115624 16:0.198246 17:0.0555075 18:-0.113533 19:0.115208 20:-0.05213 21:-0.183983 22:-0.0230193 23:-0.00408762 24:0.00388847 25:-0.0107295 26:-0.037727 
0.125 0 1:0.743542 2:0.244934 3:-0.285704 4:-0.427423 5:0.0264414 6:-0.151169 7:-0.231105 8:-0.244471 9:0.27003 10:-0.198779 11:0.152472 12:-0.00430714 13:0.32244 14:0.0926441 15:0.0386819 16:0.227065 17:0.151339 18:-0.135977 19:0.0750653 20:0.228111 21:-0.0530502 22:-0.00952277 23:0.0219481 24:-0.14473 25:0.0477232 26:-0.244738 
0.125 0 1:0.708525 2:0.234987 3:-0.215615 4:-0.440818 5:0.0557449 6:-0.139252 7:-0.291163 8:-0.198789 9:0.199749 10:-0.278746 11:0.149431 12:0.0161375 13:0.288774 14:0.201364 15:0.0548896 16:0.0676464 17:0.254848 18:-0.188473 19:0.0133769 20:0.255628 21:0.145408 22:-0.107336 23:0.0958265 24:-0.205878 25:0.0271158 26:-0.294284 
0.125 0 1:0.541252 2:0.264597 3:-0.153914 4:-0.468426 5:-0.0103234 6:-0.0327361 7:-0.0605576 8:-0.697861 9:0.210788 10:-0.344732 11:0.160391 12:0.192678 13:0.319361 14:0.427985 15:0.0253261 16:-0.0992235 17:0.25768 18:-0.171823 19:0.012259 20:-0.0313096 21:0.414767 22:-0.120165 23:0.204055 24:-0.0501803 25:-0.127831 26:-0.112201 
0.125 0 1:0.543703 2:0.362857 3:-0.102337 4:-0.545472 5:-0.0197612 6:-0.153046 7:0.36871 8:-0.37915 9:0.029328 10:-0.244729 11:-0.0835895 12:0.128444 13:0.0643925 14:0.487034 15:-0.0186952 16:-0.125908 17:0.231537 18:-0.152921 19:0.0802779 20:-0.387633 21:0.31824 22:0.0493711 23:0.15127 24:0.151572 25:-0.121307 26:0.0543226 
0.125 0 1:0.570606 2:0.46579 3:-0.0901063 4:-0.540521 5:-0.0649178 6:-0.0615628 7:0.263588 8:-0.413689 9:0.0448004 10:-0.299188 11:0.0104605 12:0.298109 13:0.0706391 14:0.404047 15:-0.0482743 16:-0.0376448 17:0.170811 18:-0.112505 19:0.0728081 20:-0.451968 21:0.178046 22:0.202544 23:0.0655502 24:0.193132 25:-0.180257 26:0.00996876 
0.125 0 1:0.709782 2:0.272834 3:-0.327307 4:-0.300675 5:-0.178229 6:-0.106088 7:0.156192 8:-0.223424 9:-0.235185 10:-0.167316 11:-0.0674503 12:0.303191 13:0.151352 14:0.281052 15:-0.0734774 16:0.0818734 17:0.0813039 18:-0.0557634 19:0.0868194 20:-0.353295 21:-0.016608 22:0.250739 23:-0.00339679 24:0.147168 25:-0.222393 26:-0.139989 
0.125 0 1:0.668573 2:0.533742 3:-0.176833 4:-0.502664 5:-0.176052 6:-0.0297578 7:0.278039 8:-0.354253 9:-0.127349 10:-0.0163003 11:-0.0517619 12:0.354352 13:0.407209 14:0.240195 15:-0.290284 16:0.0521364 17:0.120668 18:-0.0429061 19:0.0263804 20:-0.23923 21:-0.0885646 22:0.0990273 23:-0.0690699 24:0.0143606 25:-0.316481 26:-0.203712 
0 0.125 1:0.615945 2:0.473169 3:0.0135078 4:-0.625169 5:-0.358159 6:0.121576 7:0.262261 8:0.111863 9:-0.0714438 10:-0.250334 11:-0.0281129 12:0.45105 13:-0.06681 14:0.27913 15:-0.592572 16:0.0406781 17:0.620304 18:0.188338 19:-0.121559 20:-0.279759 21:0.00422324 22:-0.0580621 23:0.169637 24:0.25784 25:-0.65695 26:0.271684 
0 0.125 1:0.610549 2:0.422784 3:0.0435149 4:-0.612223 5:-0.296562 6:0.156888 7:0.203322 8:0.0899902 9:-0.0780064 10:-0.300728 11:0.0440478 12:0.372034 13:-0.123921 14:0.330169 15:-0.315831 16:0.0859436 17:0.534521 18:-0.118139 19:0.0137521 20:-0.104919 21:0.000521372 22:0.0483154 23:0.00934856 24:0.268918 25:-0.410918 26:0.266616 
0.125 0.125 1:0.497194 2:-0.183054 3:0.14302 4:-0.397211 5:0.420471 6:-0.317118 7:0.00182242 8:0.136477 9:-0.0394999 10:-0.0152078 11:-0.0824254 12:-0.190862 13:0.147747 14:0.434444 15:0.213911 16:-0.00189501 17:0.201628 18:-0.521896 19:0.365467 20:0.102513 21:-0.145026 22:0.140989 23:-0.0380688 24:0.181455 25:0.17787 26:0.0164018 
0.125 0.125 1:0.417524 2:-0.032567 3:0.229415 4:0.150369 5:-0.00342583 6:-0.00486 7:0.131819 8:0.490271 9:0.0339832 10:-0.208446 11:0.383595 12:-0.276605 13:0.239538 14:0.456007 15:0.312156 16:-0.0705726 17:-0.21074 18:-0.402298 19:0.325742 20:0.0969427 21:-0.404909 22:0.149532 23:0.0246253 24:-0.149228 25:0.463119 26:-0.216105 
0.125 0.125 1:0.555217 2:-0.150221 3:0.333086 4:0.138109 5:-0.0467719 6:0.14017 7:0.240207 8:0.39155 9:0.0889915 10:-0.0715684 11:0.578225 12:-0.0824715 13:0.324374 14:0.300556 15:0.255768 16:-0.0820156 17:-0.264864 18:-0.201118 19:0.102387 20:-0.0144038 21:-0.36605 22:0.0734079 23:0.127223 24:-0.321117 25:0.238414 26:-0.32397 
0.125 0.125 1:0.572564 2:-0.137439 3:0.346983 4:0.0828501 5:0.0693252 6:0.121553 7:0.201077 8:0.308721 9:0.110771 10:-0.254065 11:0.431661 12:-0.293661 13:0.277202 14:0.233027 15:0.148493 16:-0.223364 17:-0.194078 18:0.00809615 19:-0.227724 20:-0.28804 21:-0.185866 22:0.00508346 23:0.099469 24:-0.408711 25:0.00614003 26:-0.33875 
0.125 0.125 1:0.606445 2:-0.121212 3:0.18538 4:-0.0312613 5:0.0218051 6:0.258254 7:0.27877 8:-0.0048472 9:0.299183 10:0.042874 11:0.379163 12:0.00193853 13:0.2505 14:0.254384 15:0.0884773 16:-0.320085 17:-0.0715108 18:0.165952 19:-0.450098 20:-0.543865 21:0.0829465 22:-0.0977294 23:-0.103275 24:-0.407662 25:-0.289337 26:-0.2611 
0.125 0.125 1:0.547726 2:-0.195265 3:0.424705 4:0.0202828 5:-0.0307098 6:0.198111 7:0.286866 8:0.050845 9:0.246168 10:-0.179034 11:0.400919 12:0.0799345 13:0.22299 14:0.335557 15:0.25184 16:-0.383962 17:-0.0760071 18:0.113642 19:-0.239782 20:-0.574339 21:0.136298 22:-0.109948 23:-0.253028 24:-0.177386 25:-0.285084 26:-0.145779 
0.125 0.125 1:0.418066 2:-0.209891 3:0.406419 4:0.247875 5:0.00209569 6:0.112664 7:0.390442 8:0.212977 9:0.312058 10:0.323523 11:0.50918 12:-0.365609 13:0.218421 14:0.337906 15:0.190517 16:-0.156404 17:-0.121281 18:0.0729448 19:0.0681082 20:-0.337235 21:0.0262168 22:-0.211137 23:-0.294075 24:0.0750581 25:-0.119976 26:0.0913646 
0.125 0.125 1:0.693289 2:0.0767894 3:-0.266108 4:-0.344539 5:0.217457 6:-0.304628 7:-0.391534 8:-0.125523 9:0.301973 10:-0.445944 11:-0.193764 12:-0.0793492 13:-0.115126 14:0.134719 15:-0.121398 16:0.385384 17:0.147193 18:-0.0640803 19:0.368427 20:0.270644 21:0.226444 22:-0.240962 23:0.161123 24:0.432717 25:-0.103133 26:0.278974 
0.125 0.125 1:0.722853 2:0.0924573 3:-0.264108 4:-0.37716 5:0.190813 6:-0.227647 7:-0.355808 8:-0.163874 9:0.301153 10:-0.417223 11:-0.158521 12:-0.0213382 13:-0.0559879 14:0.0984841 15:-0.260124 16:0.510444 17:0.368598 18:-0.207169 19:0.409485 20:0.562638 21:0.26323 22:-0.166634 23:0.542548 24:0.348729 25:0.0880579 26:0.137142 
0.125 0.125 1:0.587273 2:0.235691 3:-0.0794736 4:-0.493221 5:0.278732 6:-0.0425629 7:-0.333675 8:-0.118703 9:0.25566 10:-0.51738 11:0.264078 12:-0.147456 13:0.0754886 14:0.240239 15:-0.303449 16:0.282457 17:0.542851 18:-0.309478 19:0.208298 20:0.499901 21:0.24362 22:-0.0619517 23:0.619113 24:-0.00526638 25:0.271979 26:-0.146704 
0.125 0.125 1:0.452054 2:0.196448 3:-0.0854777 4:-0.422293 5:0.243679 6:-0.059898 7:-0.108303 8:-0.120042 9:-0.0245207 10:-0.355341 11:0.259778 12:-0.298576 13:0.290954 14:0.416206 15:-0.145487 16:-0.0893262 17:0.540162 18:-0.242843 19:0.0653414 20:0.156284 21:0.153301 22:0.135024 23:0.382233 24:-0.140211 25:0.33155 26:-0.345381 
0.125 0.125 1:0.502428 2:0.0476745 3:0.0151021 4:-0.541539 5:0.281956 6:-0.230484 7:0.00954398 8:0.163395 9:0.0204663 10:-0.0879412 11:-0.0255343 12:0.163746 13:-0.0505654 14:0.440142 15:0.0439408 16:-0.364552 17:0.450578 18:-0.0961294 19:0.0911274 20:-0.191622 21:-0.0023837 22:0.15072 23:-0.112425 24:0.0584235 25:0.00858358 26:-0.190953 
0.125 0.125 1:0.637156 2:0.354577 3:-0.235962 4:-0.356618 5:0.096505 6:-0.0120099 7:0.112304 8:-0.175204 9:0.0590448 10:0.16065 11:-0.218019 12:0.411767 13:-0.219436 14:0.258847 15:-0.0678186 16:-0.195721 17:0.300969 18:0.159561 19:0.160919 20:-0.260971 21:0.252541 22:0.0890616 23:-0.291424 24:0.499339 25:-0.508883 26:0.092048 
0.125 0.125 1:0.632337 2:0.317008 3:-0.341974 4:-0.211644 5:0.0499811 6:-0.0942527 7:0.152768 8:-0.0294599 9:-0.0817738 10:0.00943579 11:-0.0446507 12:0.541406 13:-0.162311 14:0.157659 15:-0.154528 16:0.0591832 17:0.0832763 18:0.284694 19:0.269582 20:-0.270278 21:0.259752 22:0.112021 23:-0.202227 24:0.554861 25:-0.793541 26:0.200193 
0.125 0.125 1:0.607641 2:0.333483 3:-0.413871 4:-0.0983991 5:0.165524 6:-0.094224 7:0.21308 8:0.134951 9:-0.116144 10:-0.03514 11:0.0760667 12:0.649118 13:-0.166341 14:0.18363 15:-0.202484 16:0.234075 17:-0.117211 18:0.200531 19:0.227316 20:-0.253573 21:0.156019 22:0.113549 23:-0.00331726 24:0.190453 25:-0.777212 26:0.197108 
0.125 0.125 1:0.567039 2:0.405923 3:-0.585947 4:0.0127871 5:0.222817 6:0.0820084 7:0.244147 8:0.175836 9:-0.106331 10:-0.124471 11:0.250585 12:0.385415 13:-0.243963 14:0.273438 15:-0.148436 16:0.328932 17:-0.163458 18:-0.016363 19:0.0561898 20:-0.206065 21:-0.103756 22:0.093433 23:0.135652 24:-0.210416 25:-0.321814 26:0.0750062 
0.125 0.125 1:0.538065 2:0.453244 3:-0.668648 4:-0.0941038 5:0.477919 6:0.17683 7:0.247458 8:0.476456 9:-0.175581 10:0.0148486 11:0.520013 12:0.236041 13:-0.203224 14:0.326876 15:-0.0645152 16:0.317822 17:-0.0287445 18:-0.328543 19:-0.0855133 20:-0.143928 21:-0.373377 22:0.0642498 23:0.0794976 24:-0.42554 25:0.0380817 26:0.0435174 
0.125 0.125 1:0.599641 2:0.31155 3:-0.511123 4:-0.13268 5:0.38349 6:0.292307 7:0.189886 8:0.263908 9:-0.073308 10:-0.0412514 11:0.413553 12:0.355431 13:-0.167254 14:0.285904 15:-0.103418 16:0.227561 17:0.146184 18:-0.401867 19:-0.16654 20:-0.0377938 21:-0.248755 22:-0.00792549 23:0.0881991 24:-0.309134 25:0.172798 26:-0.0048308 
0.125 0.125 1:0.574967 2:0.496625 3:-0.572555 4:-0.311802 5:0.471967 6:0.237907 7:0.160625 8:0.473368 9:-0.145065 10:-0.0526348 11:0.180473 12:0.0891645 13:-0.0856635 14:0.225329 15:-0.238285 16:0.222601 17:0.187357 18:-0.445104 19:-0.105204 20:-0.0841825 21:-0.256005 22:0.0028658 23:0.218153 24:-0.0646834 25:0.157948 26:0.0190769 
0.125 0.125 1:0.54138 2:0.592057 3:-0.651834 4:-0.121893 5:0.345461 6:0.194267 7:0.287176 8:0.0812616 9:-0.286681 10:-0.0674463 11:0.315438 12:0.381565 13:-0.231469 14:0.218241 15:-0.365917 16:0.190321 17:0.119248 18:-0.334427 19:0.0421649 20:-0.333336 21:-0.0148609 22:0.0584746 23:0.279035 24:0.0304782 25:-0.225238 26:0.114077 
0.125 0.125 1:0.58219 2:0.457188 3:-0.439347 4:-0.291854 5:0.196638 6:0.166011 7:0.216804 8:0.299745 9:-0.164894 10:-0.162085 11:0.225723 12:0.418555 13:-0.0347168 14:0.230376 15:-0.318717 16:0.0676495 17:0.158642 18:-0.16704 19:0.125568 20:-0.539375 21:0.123346 22:0.0564744 23:0.190783 24:0.0337996 25:-0.429519 26:0.100467 
0.125 0.125 1:0.5546 2:0.342151 3:-0.453029 4:-0.15223 5:0.153007 6:0.299109 7:0.362098 8:0.231842 9:-0.180424 10:0.177539 11:0.116542 12:0.463505 13:-0.172459 14:0.296829 15:-0.262694 16:0.0356652 17:0.247079 18:-0.0365821 19:0.0478259 20:-0.504456 21:0.286622 22:0.178007 23:-0.122012 24:-0.0264601 25:-0.41163 26:0.116836 
0.125 0.125 1:0.411047 2:0.434971 3:-0.319181 4:-0.582174 5:-0.148893 6:0.115855 7:-0.0302524 8:-0.139265 9:-0.339828 10:0.391078 11:0.17632 12:0.299865 13:0.158845 14:0.347755 15:-0.276048 16:0.201204 17:0.403764 18:0.0247204 19:0.0756562 20:-0.00969238 21:0.325427 22:0.278005 23:-0.317127 24:-0.0771375 25:-0.211496 26:-0.0485144 
0.125 0.125 1:0.524471 2:0.22368 3:-0.385647 4:-0.323042 5:-0.126773 6:0.27129 7:-0.381228 8:0.170943 9:-0.279832 10:0.161824 11:0.0700544 12:0.0753627 13:0.110233 14:0.282105 15:-0.208262 16:0.460869 17:0.323122 18:-0.107603 19:0.0702731 20:0.486167 21:-0.118538 22:0.329968 23:-0.24417 24:0.0107529 25:0.0493153 26:-0.0428299 
0 0.125 1:0.50137 2:0.233148 3:-0.370191 4:-0.225412 5:-0.2317 6:0.265139 7:-0.522046 8:0.336464 9:-0.173742 10:-0.014253 11:-0.130345 12:0.194444 13:0.14333 14:0.234349 15:-0.150597 16:0.466126 17:0.170725 18:-0.0710471 19:0.0811335 20:0.613036 21:-0.397508 22:0.228457 23:-0.0546214 24:0.134468 25:-0.0633929 26:-0.0881811 
0.125 0.125 1:0.515068 2:0.0339875 3:-0.236512 4:-0.121831 5:-0.212849 6:0.041246 7:-0.211114 8:0.388619 9:-0.00173128 10:-0.0169186 11:-0.10876 12:0.249899 13:0.277794 14:0.256882 15:0.0905922 16:0.0375999 17:0.147886 18:0.166654 19:-0.0391406 20:0.310417 21:-0.389726 22:-0.156064 23:0.0858156 24:0.286895 25:-0.318697 26:-0.223381 
0.125 0.125 1:0.450118 2:-0.147081 3:0.502846 4:-0.280117 5:-0.698948 6:0.296062 7:0.0415776 8:-0.1396 9:-0.0713446 10:-0.0716068 11:-0.200871 12:0.199693 13:0.258452 14:0.379324 15:0.27512 16:-0.65943 17:0.195577 18:0.588233 19:-0.295784 20:-0.130151 21:0.052974 22:-0.452235 23:0.157536 24:0.362852 25:-0.484247 26:-0.332515 
0.125 0.125 1:0.411698 2:-0.0871885 3:0.42237 4:-0.203127 5:-0.730846 6:0.316865 7:0.00669045 8:-0.268288 9:0.231566 10:-0.229951 11:-0.234599 12:0.148461 13:0.48888 14:0.508917 15:0.16161 16:-0.748166 17:0.281676 18:0.629829 19:-0.369214 20:-0.324633 21:0.513268 22:-0.60468 23:0.213705 24:0.261294 25:-0.444271 26:-0.483851 
0.125 0.125 1:0.400882 2:-0.103 3:0.208577 4:-0.0932325 5:-0.407075 6:0.126131 7:0.0696784 8:-0.171656 9:0.0723072 10:-0.255664 11:-0.151942 12:-0.071286 13:0.143711 14:0.49557 15:-0.0607627 16:-0.336896 17:0.177199 18:0.231224 19:-0.170783 20:-0.315033 21:0.573566 22:-0.327338 23:0.225644 24:0.14112 25:-0.181208 26:-0.313015 
0.125 0.125 1:0.584601 2:-0.0320484 3:0.0434256 4:0.111942 5:-0.122008 6:-0.393839 7:0.141717 8:-0.0823516 9:-0.371458 10:-0.35111 11:0.138126 12:-0.297137 13:0.163528 14:0.323166 15:-0.302261 16:0.220051 17:0.031088 18:-0.20318 19:0.267807 20:-0.184153 21:0.43657 22:0.247879 23:0.210844 24:0.0744713 25:0.0787321 26:-0.10182 
0.125 0.125 1:0.656234 2:-0.0664337 3:-0.159656 4:-0.00252684 5:0.0169986 6:-0.228638 7:0.142147 8:-0.172975 9:-0.402751 10:-0.194843 11:-0.0558919 12:-0.324433 13:-0.0965669 14:0.14279 15:-0.305551 16:0.53993 17:0.0217028 18:-0.383465 19:0.480216 20:-0.0808163 21:0.27751 22:0.528889 23:0.0816255 24:0.111439 25:0.131836 26:0.203222 
0.125 0.125 1:0.700531 2:-0.158088 3:0.139983 4:0.15953 5:-0.216426 6:-0.488779 7:0.060778 8:0.109304 9:-0.398602 10:-0.168522 11:-0.0779377 12:-0.415505 13:-0.136285 14:0.0337319 15:-0.109142 16:0.275997 17:0.0625168 18:-0.0987808 19:0.551728 20:-0.0498432 21:0.0617079 22:0.444856 23:0.0358989 24:0.104499 25:0.141419 26:0.388937 
0.125 0.125 1:0.738208 2:-0.344293 3:0.105802 4:0.0118666 5:-0.0970746 6:-0.410214 7:0.138195 8:0.156999 9:-0.362478 10:-0.310894 11:0.242051 12:-0.439762 13:-0.25571 14:0.0113631 15:0.126096 16:0.0605006 17:0.104413 18:0.138507 19:0.402215 20:-0.152556 21:-0.097462 22:0.220978 23:0.111736 24:-0.144876 25:0.231792 26:0.383391 
0.125 0.125 1:0.701804 2:-0.308164 3:0.181843 4:0.0901748 5:0.0218777 6:-0.305786 7:0.244477 8:0.342879 9:-0.15182 10:-0.246558 11:0.389966 12:-0.34085 13:-0.17334 14:0.0816152 15:0.203339 16:-0.0315343 17:0.0124231 18:0.203528 19:0.201866 20:-0.35175 21:-0.203063 22:0.0768106 23:0.0891073 24:-0.324139 25:0.331151 26:0.321342 
0.125 0.125 1:0.647045 2:-0.288344 3:0.169192 4:0.14688 5:0.0989281 6:-0.308359 7:0.251872 8:0.419692 9:-0.239687 10:-0.261098 11:0.177987 12:-0.487612 13:-0.0365081 14:0.166746 15:0.145985 16:-0.000407375 17:-0.0878778 18:0.117858 19:0.166604 20:-0.474796 21:-0.187244 22:0.285885 23:0.112291 24:-0.317616 25:0.37587 26:0.17869 
0.125 0.125 1:0.574567 2:-0.287552 3:0.157484 4:0.135394 5:0.267622 6:-0.197319 7:0.158572 8:0.286256 9:-0.47413 10:-0.161445 11:0.278409 12:-0.285811 13:0.0362881 14:0.281196 15:0.0353915 16:0.0394071 17:-0.0582859 18:-0.1012 19:0.0788716 20:-0.379812 21:-0.0748615 22:0.442188 23:0.113404 24:-0.131262 25:0.0380288 26:0.0355155 
0.125 0.125 1:0.498232 2:-0.212701 3:0.19605 4:-0.118337 5:0.423345 6:-0.101977 7:-0.0392277 8:0.321099 9:0.0265126 10:-0.131471 11:-0.0293769 12:0.246304 13:0.045855 14:0.384427 15:-0.0911195 16:-0.068659 17:0.108565 18:-0.278609 19:0.0298777 20:-0.117804 21:-0.0855517 22:0.210052 23:0.122172 24:0.201108 25:-0.438014 26:-0.15131 
