svm_type c_svc
kernel_type rbf
gamma 2
nr_class 3
total_sv 5825
rho 0.490088 0.371241 -0.0887234
label 0 1 2
nr_sv 1158 2632 2035
SV
0 0.4578207693113449 1:-0.143267 2:0.123693 3:-0.0544844 4:-0.291557 5:0.151035 6:0.117194 7:-0.0989176 8:0.259129 9:-0.176462 10:0.303196 11:0.14503 12:0.213001 13:-0.0985169 14:-0.28715 15:-0.195132 16:-0.203706 17:0.105949 18:-0.137885 19:-0.105879 20:-0.0485839 21:-0.0912347 22:-0.0362214 23:-0.301382 24:-0.327835 25:0.106441 26:0.00555073 
0.002396400731883039 0 1:0.339742 2:0.513453 3:-0.078257 4:-0.337653 5:-0.0991429 6:0.530707 7:0.25873 8:0.24393 9:-0.575175 10:0.0850408 11:-0.14093 12:0.242193 13:-0.097531 14:-0.0453795 15:-0.0939186 16:-0.158545 17:-0.0869388 18:-0.0430693 19:-0.168307 20:-0.202921 21:-0.0389777 22:0.364876 23:-0.0624098 24:0.0424247 25:0.0235805 26:-0.32524 
0.09171290508659352 0 1:-0.365046 2:0.256169 3:-0.446552 4:-0.207935 5:-0.111361 6:0.145011 7:0.268722 8:0.0216854 9:-0.213745 10:0.152788 11:0.249445 12:0.0919019 13:-0.0231661 14:0.220635 15:0.112122 16:0.0557231 17:0.037443 18:0.0850873 19:-0.289734 20:-0.155275 21:0.168224 22:-0.0841563 23:0.151515 24:-0.397414 25:0.110762 26:0.00887707 
0.3586013520921619 0 1:0.422819 2:0.613762 3:-0.333571 4:-0.181763 5:-0.193295 6:0.0391565 7:-0.392479 8:-0.227763 9:0.28893 10:0.0951565 11:-0.148385 12:0.228709 13:-0.223586 14:-0.0875678 15:-0.264827 16:-0.0877369 17:0.0127074 18:0.0581613 19:-0.0709178 20:0.227515 21:0.0323991 22:-0.501649 23:-0.00620539 24:0.182697 25:-0.175884 26:0.00263183 
0 0.3617243856113598 1:0.143015 2:0.423426 3:-0.184807 4:-0.129754 5:-0.165296 6:-0.048969 7:-0.304632 8:-0.243613 9:-0.310984 10:-0.122012 11:-0.135204 12:-0.13165 13:-0.114976 14:0.152237 15:-0.105291 16:-0.195128 17:-0.0735327 18:0.0922364 19:-0.111576 20:-0.114341 21:0.0995595 22:0.102326 23:0.107114 24:0.0882154 25:0.336171 26:0.00206423 
0 0.6375832912280333 1:-0.322147 2:0.142005 3:-0.265526 4:-0.0999144 5:0.048927 6:-0.143894 7:0.127199 8:0.217574 9:-0.326326 10:0.0382674 11:0.136182 12:-0.0234534 13:0.111953 14:0.116833 15:-0.0185589 16:-0.229949 17:-0.049665 18:-0.185006 19:-0.0982924 20:-0.0826061 21:-0.321558 22:0.0065921 23:0.00821683 24:-0.202138 25:-0.141938 26:0.00714666 
0.2667342124458979 0.7872155291693593 1:-0.531867 2:0.154436 3:-0.22239 4:-0.164461 5:-0.0582611 6:-0.064985 7:-0.00418075 8:0.0253044 9:-0.0817562 10:0.231078 11:0.173843 12:-0.112672 13:0.250869 14:0.217209 15:-0.0984265 16:-0.105355 17:0.0808205 18:0.164913 19:-0.0919049 20:0.0511722 21:0.0500711 22:-0.448184 23:-0.380955 24:-0.119776 25:-0.00693659 26:-0.0167887 
0.5646513535708165 0 1:-0.300612 2:0.535303 3:-0.110415 4:-0.11247 5:0.0939169 6:-0.199123 7:-0.118187 8:-0.110063 9:-0.0966727 10:0.13207 11:0.202507 12:-0.0636705 13:0.106586 14:0.384003 15:-0.411894 16:-0.0765527 17:-0.0176473 18:-0.042727 19:-0.168791 20:-0.325723 21:-0.0188303 22:-0.00938391 23:0.146914 24:-0.330605 25:0.0432291 26:0.000599305 
0.5819662190460448 0 1:0.151133 2:0.570784 3:-0.144363 4:-0.278446 5:0.204377 6:0.290889 7:0.0636555 8:-0.185229 9:-0.089184 10:0.162784 11:0.0482179 12:-0.0197695 13:-0.191069 14:-0.0344211 15:-0.319982 16:-0.166665 17:-0.0193356 18:-0.36415 19:-0.508632 20:-0.0319878 21:0.249998 22:0.0313112 23:-0.00994711 24:0.109925 25:0.0969108 26:0.0070359 
1.728073836235565 0 1:-0.0966276 2:0.655257 3:-0.274642 4:-0.253105 5:-0.0667602 6:0.0217613 7:-0.00215502 8:0.0539494 9:-0.115519 10:0.132695 11:0.158316 12:-0.0906099 13:-0.0444893 14:0.28888 15:-0.378902 16:-0.204745 17:-0.0654711 18:-0.0557432 19:-0.145576 20:-0.362131 21:-0.0472991 22:-0.14002 23:-0.0564875 24:-0.160929 25:0.148372 26:-0.00284588 
0 0.004861150570987397 1:-0.161897 2:0.468425 3:-0.151042 4:0.242494 5:-0.0497142 6:-0.124153 7:-0.238839 8:0.132226 9:0.211406 10:-0.322125 11:-0.0876514 12:0.0387243 13:-0.1538 14:0.307719 15:-0.100277 16:-0.32879 17:-0.0869347 18:0.176092 19:-0.194247 20:0.0367931 21:0.172887 22:-0.36522 23:0.344678 24:-0.0296398 25:0.044295 26:-0.00527296 
0 0.006153088394964428 1:-0.28724 2:0.425999 3:-0.173256 4:0.0660915 5:0.164746 6:-0.151794 7:0.0557603 8:0.369927 9:0.226148 10:0.0549395 11:-0.0206497 12:-0.22451 13:-0.0929307 14:0.245664 15:-0.00350736 16:-0.0465554 17:-0.075597 18:-0.0711263 19:-0.119843 20:-0.28818 21:-0.0738331 22:-0.0162183 23:-0.140954 24:0.0688042 25:0.391131 26:0.00694897 
0 0.005768084630589172 1:-0.0609303 2:0.421312 3:-0.378091 4:0.0145288 5:-0.100041 6:-0.526799 7:0.144788 8:0.488533 9:-0.415093 10:-0.202807 11:0.00662278 12:0.101542 13:-0.30889 14:0.0291391 15:-0.0321418 16:0.149404 17:-0.0205271 18:0.224782 19:0.617457 20:-0.452469 21:-0.260221 22:0.28071 23:0.362532 24:0.086774 25:0.142579 26:0.0295132 
0 0.001007801214070912 1:-0.00532037 2:0.566735 3:-0.251923 4:0.10938 5:0.043466 6:0.166037 7:-0.199708 8:0.0708463 9:-0.00293413 10:0.17051 11:0.0116652 12:0.222877 13:0.381981 14:0.046568 15:-0.168546 16:-0.209918 17:-0.314154 18:-0.157025 19:-0.571303 20:0.274372 21:0.351215 22:-0.600076 23:-0.324603 24:0.189965 25:-0.0560256 26:-0.0293669 
0 0.004611892428316072 1:-0.0649916 2:0.776032 3:-0.231699 4:-0.321705 5:-0.176749 6:0.0902756 7:0.175899 8:0.235101 9:-0.45467 10:-0.00442872 11:0.453344 12:0.100134 13:0.0986707 14:0.050047 15:-0.509637 16:-0.0734928 17:0.387693 18:0.378774 19:-0.147445 20:-0.39455 21:-0.250015 22:0.175154 23:0.17046 24:-0.476307 25:0.216252 26:0.00612047 
0 0.006237673463959649 1:-0.47335 2:0.268484 3:-0.161006 4:-0.20021 5:-0.184929 6:-0.109999 7:0.166201 8:0.139155 9:0.142749 10:0.11708 11:0.166637 12:0.230353 13:0.5723 14:0.375488 15:0.130041 16:-0.209188 17:-0.00817929 18:0.197376 19:-0.122484 20:-0.386664 21:-0.0718775 22:-0.542075 23:-0.0332016 24:-0.127443 25:-0.01701 26:-0.0212528 
0 0.002053394832712337 1:-0.431605 2:0.337804 3:-0.211618 4:-0.263731 5:-0.261784 6:-0.304819 7:0.067944 8:0.184119 9:-0.108476 10:0.409895 11:0.499774 12:0.176922 13:0.231177 14:0.377722 15:0.116152 16:-0.0235893 17:0.0793659 18:0.143816 19:0.379473 20:0.174507 21:0.146761 22:-0.158456 23:-0.415875 24:-0.393956 25:0.220771 26:-0.00349141 
0 0.005225411957568167 1:-0.0390871 2:0.820371 3:-0.179955 4:-0.291414 5:-0.365684 6:0.0264292 7:0.243371 8:0.451529 9:-0.340373 10:-0.0594714 11:0.0902472 12:0.634522 13:0.451732 14:-0.0935439 15:-0.639243 16:-0.300395 17:0.137387 18:0.464929 19:-0.300779 20:-0.259904 21:-0.326373 22:0.131808 23:0.551544 24:0.370493 25:-0.335413 26:-0.014281 
0 0.001094264255155537 1:0.0294536 2:0.737794 3:-0.203997 4:-0.107118 5:-0.175072 6:-0.0448068 7:0.166143 8:0.135535 9:-0.447406 10:0.0634478 11:0.197508 12:0.300629 13:0.273167 14:-0.00028103 15:-0.566196 16:-0.571284 17:0.00616164 18:0.0861441 19:-0.115533 20:-0.139852 21:0.0874177 22:0.414115 23:0.2177 24:-0.27154 25:-0.13115 26:-0.00250522 
0 0.000619886979781068 1:0.0280245 2:0.471975 3:-0.683834 4:0.0170976 5:0.0176027 6:-0.133974 7:0.207676 8:0.0625463 9:0.26479 10:0.464523 11:-0.0341892 12:0.096063 13:0.230834 14:-0.0247966 15:0.0285484 16:0.515661 17:-0.148942 18:-0.10303 19:0.0708133 20:-0.237246 21:0.000416939 22:-0.500155 23:-0.227059 24:0.0662868 25:0.292219 26:0.00145429 
0 0.001260364655357857 1:0.0192498 2:0.458005 3:-0.666831 4:0.0296904 5:-0.104571 6:-0.12725 7:-0.0745043 8:-0.0859767 9:0.087132 10:0.382051 11:-0.0214587 12:-0.127219 13:0.186762 14:-0.136951 15:-0.125344 16:0.418871 17:-0.131274 18:0.396673 19:0.0948715 20:0.140523 21:0.340137 22:-0.164567 23:0.125083 24:0.263584 25:0.428435 26:-0.00704561 
0 0.65032480673719 1:-0.640954 2:0.254027 3:-0.24287 4:-0.231786 5:0.0545365 6:-0.118027 7:-0.17518 8:0.381763 9:-0.0566313 10:0.0895538 11:0.0949651 12:-0.233586 13:0.165796 14:0.18327 15:-0.150074 16:-0.165405 17:0.0942551 18:0.126922 19:-0.0249189 20:0.267391 21:0.0937067 22:-0.0866148 23:-0.146493 24:0.181709 25:0.132796 26:-0.000284209 
0 0.01557064655925548 1:0.153129 2:0.92898 3:-0.0822837 4:-0.340359 5:-0.393278 6:-0.60019 7:0.0970368 8:0.32425 9:-0.176412 10:0.253433 11:-0.0512839 12:0.122601 13:0.138195 14:-0.0939164 15:-0.4843 16:-0.0126927 17:0.210517 18:0.152483 19:0.527703 20:0.0838013 21:-0.155026 22:-0.153783 23:-0.320356 24:0.200515 25:-0.113739 26:0.00467642 
0 0.01605236820696886 1:0.0296 2:0.857058 3:-0.0126585 4:-0.141174 5:-0.302078 6:-0.505345 7:0.060852 8:0.198421 9:-0.0247387 10:0.163717 11:0.114771 12:0.0866758 13:0.124095 14:0.0641476 15:-0.336163 16:-0.225459 17:-0.181482 18:0.0609459 19:0.231925 20:-0.119918 21:0.266239 22:-0.222785 23:-0.39346 24:-0.158092 25:-0.0486211 26:-0.00192943 
0 0.01413391767361301 1:-0.190391 2:0.636841 3:0.00377992 4:-0.161743 5:-0.213618 6:-0.156753 7:-0.0308129 8:0.242896 9:-0.0739299 10:-0.314416 11:0.0697417 12:0.0940028 13:-0.0320865 14:0.204701 15:-0.121357 16:-0.266533 17:-0.0467615 18:0.0355321 19:-0.386236 20:0.0674921 21:0.130228 22:0.107188 23:0.749916 24:0.122324 25:0.140114 26:0.00889037 
0 0.003098010793320656 1:0.0888623 2:0.860522 3:-0.172691 4:-0.217401 5:-0.305942 6:0.195537 7:-0.114238 8:0.388543 9:-0.36504 10:-0.0171127 11:0.305256 12:0.0702206 13:0.0939496 14:-0.175144 15:-0.772452 16:-0.321237 17:0.125921 18:0.500229 19:-0.195074 20:-0.00446777 21:-0.0856191 22:0.0925506 23:0.444857 24:-0.062365 25:-0.101113 26:-0.00652874 
0 0.008696954025281478 1:0.0381121 2:0.595317 3:-0.284574 4:-0.0597066 5:-0.12385 6:0.195124 7:-0.155571 8:0.441511 9:-0.267974 10:0.420752 11:0.252553 12:-0.31764 13:0.113064 14:0.0143037 15:-0.179532 16:-0.0552272 17:-0.270393 18:0.0789398 19:-0.190009 20:0.0873915 21:0.00351694 22:-0.160095 23:-0.512594 24:-0.162953 25:0.622733 26:0.0106965 
0 0.03359633777075979 1:-0.288493 2:0.192984 3:-0.265101 4:-0.129428 5:0.00416207 6:0.0325883 7:0.132616 8:0.270997 9:-0.113939 10:0.162905 11:-0.140609 12:0.291209 13:0.348104 14:0.173827 15:0.0484628 16:-0.066215 17:0.0393307 18:0.107475 19:-0.180369 20:-0.164428 21:0.155975 22:0.0219513 23:0.0817889 24:0.133561 25:-0.443296 26:-0.0225915 
0 0.008243028645925132 1:-0.431471 2:0.300209 3:-0.0294495 4:-0.129456 5:-0.0247173 6:-0.142628 7:0.187889 8:0.411817 9:-0.0514599 10:0.0101954 11:0.0436355 12:0.256221 13:0.439071 14:0.265881 15:-0.255585 16:-0.453237 17:0.0120177 18:0.235901 19:-0.0196547 20:-0.257096 21:-0.0450696 22:-0.286407 23:0.0620755 24:-0.14909 25:-0.0813999 26:-0.0100443 
0 0.01286044956556206 1:-0.524289 2:0.299198 3:-0.115407 4:-0.162674 5:-0.00452249 6:-0.151135 7:0.357509 8:0.511675 9:0.113616 10:-0.00391086 11:-0.21813 12:0.144399 13:0.0793826 14:0.364145 15:-0.280034 16:-0.282362 17:0.212397 18:0.151055 19:0.0274342 20:-0.516555 21:-0.0517354 22:-0.657355 23:-0.138129 24:0.416908 25:0.00594658 26:-0.00169288 
0 0.006981443206768748 1:-0.371966 2:0.187947 3:-0.193289 4:0.153785 5:0.177879 6:-0.183339 7:-0.104703 8:0.492472 9:-0.615831 10:-0.288781 11:0.266728 12:-0.0668044 13:-0.0343083 14:0.388981 15:0.188225 16:-0.0815836 17:-0.0589001 18:-0.271215 19:0.0156619 20:0.198794 21:0.217515 22:0.357575 23:0.443776 24:0.0120493 25:0.239083 26:0.00967273 
0 0.006588256593681261 1:-0.197781 2:0.356518 3:-0.0502743 4:-0.221557 5:0.0787824 6:-0.140066 7:0.0376855 8:0.474292 9:-0.288767 10:0.228505 11:0.167404 12:0.153186 13:-0.0431024 14:0.32966 15:-0.648269 16:0.126833 17:0.169698 18:-0.308861 19:0.352709 20:-0.26601 21:0.388216 22:-0.12765 23:0.136393 24:0.271752 25:0.119629 26:-0.00203927 
0 0.00426605644630597 1:-0.054932 2:-0.338298 3:0.218036 4:-0.373543 5:-0.14146 6:0.163784 7:-0.0756992 8:0.721996 9:-0.201486 10:0.412761 11:0.388347 12:0.573532 13:-0.113913 14:0.10111 15:0.596923 16:-0.398921 17:0.374969 18:0.266457 19:-0.33329 20:-0.111501 21:-0.221144 22:-0.17825 23:-0.349692 24:-0.338191 25:-0.553129 26:0.00278349 
0 0.003603877499478257 1:-0.00691089 2:-0.368845 3:0.211824 4:-0.0892854 5:-0.178002 6:0.158574 7:-0.142428 8:0.970287 9:-0.191392 10:0.43453 11:0.262055 12:0.184811 13:-0.169482 14:0.231651 15:0.69585 16:-0.489425 17:-0.0826036 18:0.403467 19:-0.535933 20:-0.0922489 21:-0.427084 22:-0.156223 23:-0.338622 24:-0.074746 25:0.161764 26:-0.000789118 
0 0.007861299718660198 1:0.00452619 2:-0.17489 3:0.185357 4:-0.052875 5:-0.122505 6:0.058003 7:-0.241933 8:0.721731 9:-0.273974 10:0.262243 11:0.123783 12:0.0369156 13:0.0163138 14:0.339665 15:0.23843 16:-0.443949 17:-0.258127 18:0.253154 19:-0.383319 20:-0.0229663 21:-0.301566 22:-0.0259733 23:-0.258184 24:0.0431074 25:0.435714 26:-0.00729413 
0 0.00580093032543384 1:0.223141 2:0.33252 3:-0.0231308 4:0.00993094 5:0.0157501 6:-0.140558 7:-0.221744 8:0.645488 9:-0.253004 10:-0.0795529 11:0.212856 12:-0.0841268 13:-0.111192 14:0.160876 15:-0.576245 16:-0.193386 17:-0.295505 18:-0.172768 19:0.0394618 20:-0.200549 21:-0.12175 22:0.00471773 23:0.194744 24:-0.00911721 25:0.452113 26:0.0097208 
0 0.005379033137506161 1:0.388265 2:0.40725 3:-0.171979 4:-0.0191545 5:0.10075 6:-0.330442 7:-0.248704 8:0.433879 9:-0.158019 10:-0.268301 11:0.0744616 12:0.0233033 13:-0.231716 14:-0.0236573 15:-0.605982 16:-0.0337823 17:-0.255479 18:-0.275407 19:0.262085 20:-0.301037 21:0.0358585 22:-0.0458698 23:0.498299 24:0.0387905 25:0.289725 26:0.0181233 
0 0.0228293979063942 1:0.508096 2:0.455684 3:-0.338303 4:-0.152594 5:-0.00419811 6:-0.406024 7:-0.480443 8:0.167465 9:-0.081246 10:-0.422556 11:0.00627607 12:0.054469 13:0.12602 14:-0.100316 15:-0.247984 16:0.167029 17:-0.0668178 18:-0.00970455 19:0.305322 20:-0.126148 21:0.289511 22:-0.198108 23:0.489235 24:0.0660151 25:-0.033654 26:-0.00911199 
0 0.01352890810137328 1:0.422912 2:0.591859 3:-0.263566 4:-0.401422 5:-0.12633 6:-0.024446 7:-0.910821 8:0.238888 9:-0.20344 10:0.153789 11:0.189207 12:-0.0995402 13:0.579797 14:-0.0779519 15:-0.192845 16:-0.119217 17:0.191902 18:0.0658265 19:-0.28895 20:0.129154 21:-0.216416 22:0.119507 23:-0.184943 24:-0.170433 25:0.288999 26:-0.0196973 
0 0.01627318152078351 1:0.128401 2:0.589929 3:-0.143397 4:-0.170706 5:0.000621355 6:0.103317 7:-0.806302 8:0.341805 9:-0.128514 10:0.209403 11:0.159974 12:0.0968486 13:0.549559 14:0.172745 15:-0.217644 16:-0.209362 17:-0.0989654 18:-0.0702232 19:-0.256265 20:-0.051364 21:-0.249178 22:0.0962444 23:-0.264791 24:-0.0997213 25:-0.0570633 26:-0.00972305 
0 0.002112731049829167 1:-0.0967977 2:0.567516 3:-0.103355 4:-0.0461831 5:-0.0607361 6:0.0255097 7:-0.721179 8:0.151296 9:0.0995781 10:0.0397108 11:0.174569 12:-0.139481 13:0.491692 14:0.408162 15:-0.47012 16:-0.333367 17:-0.0413794 18:0.0235403 19:-0.0909368 20:0.296757 21:0.502045 22:-0.474487 23:0.325174 24:0.105432 25:0.519356 26:-0.0135928 
0 0.005445134596989205 1:-0.00547534 2:0.143551 3:-0.294283 4:0.0592133 5:-0.158983 6:-0.0976821 7:-0.0155475 8:0.485011 9:-0.182033 10:0.305802 11:0.24803 12:0.42932 13:0.0348439 14:0.24358 15:0.362393 16:0.0509382 17:0.0921468 18:0.29119 19:-0.0128143 20:-0.4129 21:-0.114458 22:-0.0696062 23:-0.333982 24:0.0691324 25:-0.677953 26:0.00631591 
0 0.01214669805098015 1:0.00493727 2:0.237903 3:-0.258717 4:0.133663 5:-0.125468 6:-0.270553 7:0.0958516 8:0.800663 9:-0.386518 10:0.122394 11:0.341239 12:-0.0820113 13:-0.083494 14:0.192576 15:-0.0285107 16:0.0241858 17:-0.0132116 18:0.140542 19:0.0869034 20:-0.342033 21:-0.723494 22:0.0767962 23:-0.155542 24:-0.0847999 25:-0.0562141 26:0.0146421 
0 0.007517966525110619 1:0.297358 2:0.362969 3:-0.0930523 4:0.208001 5:-0.0848546 6:-0.298168 7:0.272718 8:0.257415 9:-0.613194 10:-0.151326 11:0.62115 12:-0.398766 13:-0.118777 14:0.0328449 15:-0.032712 16:-0.368603 17:0.0151924 18:0.142104 19:0.00868366 20:-0.148576 21:0.154245 22:0.293544 23:0.191158 24:-0.290558 25:0.462143 26:0.00482778 
0 0.003602485879074266 1:0.0370123 2:0.39571 3:-0.245614 4:0.33821 5:-0.126905 6:-0.236087 7:0.569622 8:-0.0813824 9:0.00822226 10:0.160622 11:-0.0458419 12:0.138605 13:-0.270742 14:0.351262 15:-0.222142 16:-0.0553411 17:-0.118346 18:0.114169 19:-0.0703634 20:-0.434303 21:0.288883 22:-0.43523 23:-0.0326157 24:-0.0683226 25:-0.168432 26:0.0222469 
0 0.0009327899923067991 1:0.237852 2:0.0696454 3:-0.069858 4:0.26498 5:-0.337082 6:-0.132347 7:0.263667 8:-0.148357 9:-0.229334 10:0.135069 11:-0.0247852 12:-0.0318163 13:0.163651 14:0.154047 15:0.262761 16:-0.34622 17:0.0306726 18:0.497816 19:-0.195118 20:-0.0724524 21:0.579833 22:-0.221115 23:-0.207004 24:0.0590466 25:-0.0334113 26:-0.010632 
0 0.03569620722856977 1:0.450258 2:0.114847 3:-0.09978 4:0.370116 5:-0.233542 6:-0.264484 7:0.187027 8:0.21965 9:-0.553529 10:0.117748 11:0.0354681 12:-0.464296 13:0.140597 14:0.0312637 15:0.00706851 16:-0.270453 17:-0.216025 18:0.108928 19:0.0365707 20:-0.361149 21:-0.166366 22:0.250799 23:-0.250811 24:0.00141663 25:0.55887 26:-0.00706443 
0 0.02819601204554077 1:0.528826 2:0.246088 3:-0.194651 4:0.297314 5:-0.127596 6:-0.274338 7:-0.144547 8:0.283458 9:-0.603126 10:-0.234558 11:0.165763 12:-0.341704 13:-0.0171157 14:0.0387685 15:-0.141343 16:-0.133098 17:-0.187464 18:-0.0162174 19:0.11101 20:-0.141192 21:-0.231558 22:0.221283 23:0.440905 24:-0.214117 25:0.321354 26:0.011396 
0 0.004913540961701644 1:0.558183 2:0.35333 3:-0.311604 4:0.135543 5:-0.0619733 6:-0.219735 7:-0.491865 8:0.288514 9:-0.222435 10:-0.360812 11:0.122896 12:-0.118501 13:0.187756 14:0.0253214 15:-0.223664 16:-0.00284814 17:0.0519915 18:0.0121091 19:0.188035 20:0.187609 21:-0.0443229 22:-0.306343 23:0.535559 24:-0.279938 25:-0.0656983 26:-0.00446196 
0 0.03369434399640071 1:0.516033 2:0.508438 3:-0.343832 4:-0.0121275 5:-0.0248038 6:-0.00434766 7:-0.65406 8:0.168444 9:-0.166066 10:0.0156763 11:-0.285011 12:-0.0347757 13:0.193142 14:0.0592989 15:-0.21926 16:-0.112092 17:0.162148 18:0.0452461 19:-0.117728 20:0.233468 21:0.0187082 22:-0.0135364 23:-0.11094 24:0.390604 25:-0.00608522 26:-0.00432215 
0 0.01180525046068728 1:0.080871 2:0.58461 3:-0.137833 4:0.0254649 5:0.27385 6:0.194725 7:-0.339407 8:0.313285 9:0.16147 10:0.265735 11:0.396839 12:-0.0538177 13:0.531817 14:0.237846 15:-0.223702 16:-0.298238 17:-0.0276211 18:-0.29731 19:-0.230052 20:-0.218074 21:-0.450111 22:-0.220927 23:-0.129122 24:-0.471032 25:0.117751 26:-0.0164144 
0 0.01234829568558887 1:-9.90037e-05 2:0.542822 3:-0.0987645 4:0.0114201 5:0.0583627 6:0.180872 7:-0.373143 8:0.143038 9:0.349099 10:0.126687 11:0.189345 12:0.237188 13:0.452089 14:0.204766 15:-0.153018 16:-0.324775 17:0.00360464 18:0.188923 19:-0.153416 20:0.228912 21:0.00453923 22:-0.383036 23:0.153009 24:-0.0938766 25:-0.240658 26:-0.00535161 
0 0.001987645957320206 1:-0.118934 2:0.497444 3:-0.113376 4:0.0509391 5:0.143251 6:-0.0775912 7:-0.0805883 8:-0.0549702 9:0.135569 10:0.155296 11:0.104309 12:0.123331 13:0.469776 14:0.546289 15:0.0484575 16:-0.283963 17:-0.264387 18:-0.327003 19:0.198223 20:-0.48119 21:0.131543 22:0.018706 23:-0.0480859 24:0.209354 25:0.192446 26:-0.0101138 
0 0.004091336742495654 1:0.42727 2:0.703415 3:-0.398499 4:-0.309241 5:-0.359153 6:-0.0614542 7:-0.505853 8:-0.140176 9:0.128011 10:0.0135275 11:0.324155 12:0.057043 13:0.194062 14:-0.247585 15:-0.328002 16:0.0236563 17:0.156746 18:0.468366 19:-0.0884825 20:0.110728 21:0.333508 22:0.0986496 23:0.24623 24:-0.0177316 25:0.0571175 26:0.00645715 
0 0.02544486557987003 1:0.320912 2:0.654976 3:-0.425593 4:-0.392726 5:-0.374666 6:-0.164097 7:-0.64924 8:0.156002 9:0.588671 10:0.361119 11:0.53844 12:0.0028342 13:0.467359 14:0.0705571 15:-0.224611 16:-0.189481 17:0.115396 18:0.206033 19:-0.0233485 20:0.0186643 21:-0.18634 22:-0.488781 23:-0.311823 24:-0.209459 25:0.0849873 26:-0.00663745 
0 0.01171928475326265 1:0.113884 2:0.550514 3:-0.495938 4:-0.285312 5:-0.2667 6:-0.308482 7:-0.593406 8:0.0267285 9:0.389155 10:0.168251 11:0.531456 12:-0.130251 13:0.636374 14:0.291003 15:-0.012378 16:0.0154805 17:0.0234494 18:-0.0237047 19:0.0976088 20:-0.0211743 21:0.170779 22:-0.0116826 23:0.0821723 24:-0.0742538 25:0.0337688 26:-0.0147044 
0 0.003678322527914207 1:0.0975811 2:0.454449 3:-0.165625 4:-0.353465 5:-0.119727 6:-0.201024 7:-0.267527 8:0.135406 9:0.383378 10:0.381959 11:0.54339 12:-0.0636094 13:0.0722858 14:-0.606812 15:-0.339095 16:-0.330954 17:0.145861 18:0.0701221 19:0.0131743 20:-0.120689 21:-0.0712129 22:-0.350548 23:-0.340589 24:-0.370987 25:0.0729512 26:0.00762528 
0.2340562977635548 0 1:-0.158447 2:0.320262 3:-0.118814 4:-0.41628 5:-0.109386 6:0.0453232 7:0.164869 8:0.243193 9:0.376762 10:0.522729 11:0.446887 12:-0.376739 13:-0.219357 14:-0.0621566 15:-0.0645418 16:-0.33584 17:0.166127 18:-0.0263398 19:-0.243434 20:-0.414204 21:-0.119126 22:-0.273465 23:-0.382803 24:-0.159556 25:0.349451 26:0.0187441 
1.686073338644752 2 1:-0.143267 2:0.123693 3:-0.0544844 4:-0.291557 5:0.151035 6:0.117194 7:-0.0989176 8:0.259129 9:-0.176462 10:0.303196 11:0.14503 12:0.213001 13:-0.0985169 14:-0.28715 15:-0.195132 16:-0.203706 17:0.105949 18:-0.137885 19:-0.105879 20:-0.0485839 21:-0.0912347 22:-0.0362214 23:-0.301382 24:-0.327835 25:0.106441 26:0.00555073 
0.4366541452719105 0 1:-0.151827 2:0.0786912 3:-0.0442448 4:-0.239945 5:0.109472 6:-0.0371897 7:-0.243308 8:0.304763 9:-0.217188 10:0.506819 11:0.13637 12:0.236225 13:-0.0443849 14:-0.59828 15:-0.226961 16:-0.335069 17:0.0384171 18:-0.124367 19:0.0699352 20:0.0279696 21:-0.309207 22:-0.0237982 23:-0.270198 24:-0.155816 25:0.0345573 26:0.00690499 
1.67867493310637 1.009619740173604 1:-0.175975 2:0.0838987 3:-0.0188925 4:-0.210234 5:-0.0108845 6:-0.181408 7:-0.159262 8:0.441568 9:-0.0792998 10:0.204084 11:-0.243254 12:0.267468 13:0.0760375 14:-0.511499 15:-0.209909 16:-0.376337 17:-0.0911048 18:0.00984608 19:0.239167 20:0.0177453 21:-0.326896 22:-0.102173 23:0.122177 24:0.254199 25:0.0162886 26:0.00217877 
1.297260870350054 1.373469442805592 1:-0.215002 2:0.143344 3:-0.00983061 4:-0.133626 5:0.00777487 6:0.0730214 7:-0.0894982 8:0.299138 9:-0.0985305 10:-0.0610413 11:-0.380282 12:0.351103 13:0.0179589 14:-0.136392 15:-0.0593238 16:-0.247259 17:-0.201087 18:0.0621024 19:0.0827234 20:-0.0667787 21:-0.111049 22:-0.146406 23:0.495114 24:0.39602 25:-0.0064795 26:-0.00242504 
1.163109832235363 0.7796798249797927 1:-0.289233 2:0.0911708 3:-0.0461982 4:-0.0410547 5:0.020881 6:0.0973388 7:-0.161646 8:0.115584 9:-0.160955 10:0.0923915 11:-0.259987 12:0.322612 13:0.102304 14:0.287016 15:0.186213 16:-0.0337823 17:-0.226967 18:0.0389597 19:-0.120145 20:-0.155522 21:0.159095 22:-0.175245 23:0.420457 24:0.149116 25:0.0124499 26:-0.00931857 
1.318486600886982 1.07448434938688 1:-0.349345 2:0.0124262 3:-0.10174 4:-0.166341 5:0.030716 6:0.0829519 7:-0.176553 8:0.176046 9:-0.131901 10:0.428016 11:-0.0570398 12:0.354536 13:0.156195 14:0.378264 15:0.312746 16:0.0871867 17:-0.098006 18:-0.0554912 19:-0.309589 20:-0.248519 21:0.198617 22:-0.259611 23:-0.0615643 24:-0.222214 25:-0.0173241 26:-0.0137666 
1.1353708267398 0.9014309050621671 1:-0.325359 2:0.158141 3:-0.114244 4:-0.235487 5:-0.00123983 6:0.242554 7:-0.0314947 8:0.31319 9:-0.104581 10:0.373866 11:0.055551 12:0.409242 13:0.116772 14:0.325867 15:0.101439 16:0.0917705 17:0.0109422 18:-0.0245943 19:-0.34673 20:-0.296158 21:0.079208 22:-0.331993 23:-0.461374 24:-0.332334 25:0.00403154 26:-0.016576 
1.572564606489237 1.397219759206705 1:-0.226258 2:0.470791 3:0.0558173 4:-0.167253 5:-0.097968 6:0.0887477 7:-0.183185 8:0.15051 9:-0.138297 10:0.468647 11:-0.280363 12:0.299683 13:0.102635 14:0.151902 15:-0.405159 16:-0.110033 17:0.0157481 18:0.101171 19:-0.131441 20:-0.22345 21:0.0290654 22:-0.304659 23:-0.515759 24:0.0302272 25:0.00871948 26:-0.01554 
0.9260649065596824 0.7391120476835511 1:-0.146037 2:0.594921 3:0.0915431 4:-0.188185 5:-0.137968 6:0.0188021 7:-0.316132 8:0.209404 9:-0.234409 10:0.367546 11:-0.459299 12:0.296002 13:0.00920876 14:-0.0230038 15:-0.782027 16:-0.284379 17:0.0124164 18:0.13631 19:0.0240423 20:-0.0792675 21:-0.0372384 22:-0.128949 23:-0.218762 24:0.319032 25:-0.138169 26:-0.00529965 
0.7114679357908178 0.6966622946669524 1:-0.119082 2:0.652029 3:0.105958 4:-0.207377 5:-0.163344 6:0.0100807 7:-0.363582 8:0.256355 9:-0.478977 10:0.112569 11:-0.355661 12:0.257726 13:-0.172887 14:-0.0796279 15:-0.854434 16:-0.385096 17:-0.0119637 18:0.109816 19:0.09723 20:0.0704532 21:-0.0560722 22:0.104731 23:0.201296 24:0.189048 25:-0.202227 26:0.00787789 
0.6236960112228823 0.7284527144162556 1:-0.151958 2:0.546384 3:0.152607 4:-0.232117 5:-0.113712 6:0.0527772 7:-0.37469 8:0.162799 9:-0.502301 10:0.0261248 11:-0.171557 12:0.320014 13:-0.298234 14:0.0841159 15:-0.420926 16:-0.341127 17:-0.0379341 18:-0.0568538 19:0.0510396 20:0.226564 21:-0.000762353 22:0.226523 23:0.473997 24:-0.15893 25:-0.0248348 26:0.0141409 
0.8630247422102105 0.7637507837568306 1:-0.198472 2:0.349287 3:0.0610076 4:-0.246243 5:-0.168704 6:0.0105343 7:-0.480619 8:0.208743 9:-0.401165 10:0.123786 11:-0.0308552 12:-0.00293022 13:-0.265716 14:0.344388 15:0.189811 16:-0.193164 17:-0.116785 18:-0.10117 19:-0.0543792 20:0.297186 21:0.0474595 22:0.153867 23:0.461983 24:-0.368922 25:0.366955 26:0.0123584 
0.6962803186271828 0.5603673319662477 1:-0.244675 2:0.341377 3:0.0511065 4:-0.188697 5:-0.269223 6:0.0653007 7:-0.392361 8:0.126549 9:-0.375587 10:0.0441255 11:-0.220265 12:-0.362917 13:-0.137596 14:0.522046 15:0.525054 16:-0.147228 17:-0.25753 18:0.0329429 19:-0.118223 20:0.228467 21:0.200154 22:-0.0331323 23:0.240036 24:-0.145673 25:0.706982 26:0.00629362 
0.7509736196264243 0.8291325643123778 1:-0.240749 2:0.221348 3:-0.0371363 4:-0.228417 5:-0.233311 6:0.0584704 7:-0.3311 8:0.071914 9:-0.390138 10:0.220714 11:-0.496131 12:-0.233606 13:-0.0740738 14:0.479553 15:0.50004 16:-0.118463 17:-0.283762 18:0.188698 19:-0.0817016 20:0.0521188 21:0.232134 22:-0.232816 23:-0.155011 24:0.227472 25:0.656507 26:0.00180272 
1.065239392665262 0.7861516507293482 1:0.0424252 2:0.607081 3:0.0422208 4:-0.366055 5:-0.50737 6:-0.00285195 7:-0.0573834 8:0.16702 9:-0.128462 10:0.487721 11:-0.439224 12:0.172991 13:-0.13522 14:0.195333 15:-0.0498184 16:-0.185107 17:-0.16504 18:0.420207 19:0.00358783 20:-0.231175 21:0.116279 22:-0.37192 23:-0.356495 24:0.415567 25:0.334893 26:-0.000469523 
0.7451797141507951 0.5924511560474947 1:0.204047 2:0.824351 3:-0.0274538 4:-0.488012 5:-0.406065 6:-0.0003019 7:-0.0121014 8:0.247605 9:-0.193794 10:0.288947 11:-0.33943 12:0.0673951 13:0.0275301 14:-0.0424846 15:-0.548578 16:-0.227094 17:0.0249947 18:0.362425 19:0.0745419 20:-0.396898 21:-0.0525326 22:-0.307511 23:-0.125233 24:0.399231 25:0.0849787 26:-0.00707374 
0.4920310100698842 0.2614615811236964 1:0.279236 2:0.913804 3:-0.123172 4:-0.59607 5:-0.297638 6:-0.000214548 7:0.013945 8:0.261006 9:-0.349147 10:0.212443 11:-0.238078 12:0.145955 13:0.196117 14:-0.113131 15:-0.73243 16:-0.23141 17:0.163006 18:0.202394 19:0.13831 20:-0.429409 21:-0.218405 22:-0.127415 23:0.18346 24:0.283801 25:-0.111222 26:-0.0145244 
0.3965101875101143 0.5119452084698562 1:0.292913 2:0.878886 3:-0.123665 4:-0.664144 5:-0.310209 6:0.0484189 7:0.0138137 8:0.22571 9:-0.380525 10:0.107496 11:-0.18089 12:0.350899 13:0.210417 14:-0.0320577 15:-0.617693 16:-0.257734 17:0.182798 18:0.0987532 19:0.141503 20:-0.417242 21:-0.243648 22:0.023099 23:0.449419 24:0.148622 25:-0.257273 26:-0.0146431 
0.7348645008640979 0.7296220741472219 1:0.321543 2:0.789898 3:-0.186676 4:-0.71231 5:-0.223133 6:0.0531711 7:-0.0111219 8:0.275107 9:-0.305446 10:0.285275 11:0.0950781 12:0.437264 13:0.135629 14:0.0788542 15:-0.334232 16:-0.217109 17:0.135973 18:0.0496981 19:0.0763155 20:-0.293243 21:-0.124318 22:0.0108357 23:0.378419 24:-0.0819967 25:-0.34111 26:-0.00635754 
0.2610664414352076 0.135451374956784 1:0.387798 2:0.809537 3:-0.300983 4:-0.690103 5:-0.227429 6:0.157884 7:-0.099854 8:0.136279 9:-0.3281 10:0.45419 11:0.272039 12:0.332189 13:0.101245 14:0.0839348 15:-0.215268 16:-0.152977 17:0.0630653 18:0.189729 19:-0.100184 20:-0.142264 21:0.095889 22:-0.137491 23:0.112702 24:-0.379437 25:-0.318732 26:0.00180446 
0.6794598634572792 0.4677864128472836 1:0.424586 2:0.758915 3:-0.413436 4:-0.75088 5:-0.179948 6:0.239106 7:-0.216384 8:0.00443519 9:-0.257539 10:0.501875 11:0.476559 12:0.181604 13:0.0763203 14:0.055671 15:-0.151593 16:-0.0419582 17:0.0412585 18:0.256483 19:-0.312129 20:-0.0901086 21:0.251097 22:-0.252453 23:-0.0216461 24:-0.594736 25:-0.0824007 26:0.00237145 
0.4085698009927702 0.4007235484073756 1:0.439441 2:0.704007 3:-0.475318 4:-0.75786 5:-0.126569 6:0.334074 7:-0.384329 8:0.0163981 9:-0.186938 10:0.649335 11:0.460756 12:0.0357801 13:0.188319 14:0.0365355 15:-0.128549 16:0.051548 17:0.0362671 18:0.200736 19:-0.484394 20:-0.167767 21:0.226534 22:-0.248792 23:-0.0952575 24:-0.544157 25:0.177734 26:-0.00509951 
0.6173679104660721 0.322059290549753 1:0.455805 2:0.665148 3:-0.53653 4:-0.748692 5:0.0234976 6:0.27069 7:-0.268095 8:0.13158 9:-0.341811 10:0.737745 11:0.346365 12:-0.067171 13:0.288023 14:0.0336999 15:-0.117661 16:0.0890095 17:0.0646564 18:0.0421124 19:-0.435192 20:-0.296496 21:0.0318915 22:-0.115579 23:-0.106015 24:-0.239203 25:0.374537 26:-0.0105589 
0.5666848254143753 0.6141298203794565 1:0.442699 2:0.646796 3:-0.586846 4:-0.770118 5:0.151771 6:0.177377 7:-0.294993 8:0.0963469 9:-0.404449 10:0.770082 11:0.113175 12:-0.203655 13:0.187704 14:0.0404412 15:-0.10741 16:0.107419 17:0.185225 18:-0.140042 19:-0.147522 20:-0.17045 21:-0.160574 22:-0.0330327 23:-0.205018 24:0.150736 25:0.583631 26:-0.00549775 
0.6157232142606878 0.4733298409684339 1:0.438944 2:0.650725 3:-0.574519 4:-0.76162 5:0.214627 6:0.0799221 7:-0.698355 8:0.0770872 9:-0.311799 10:0.88797 11:0.0533169 12:-0.180315 13:0.152275 14:0.029283 15:-0.134471 16:0.0809476 17:0.280837 18:-0.287093 19:0.184479 20:0.246985 21:-0.228017 22:-0.0391351 23:-0.371183 24:0.339831 25:0.607872 26:-0.00236275 
0.8590028061020156 0.7572465235967138 1:0.416582 2:0.605146 3:-0.564555 4:-0.737337 5:0.228208 6:-0.0783238 7:-0.909097 8:0.0723295 9:-0.321843 10:0.932374 11:0.0247877 12:-0.179133 13:0.135073 14:0.0217798 15:-0.122083 16:0.0256132 17:0.283035 18:-0.292417 19:0.407935 20:0.55149 21:-0.167116 22:-0.0426932 23:-0.309149 24:0.24813 25:0.305212 26:-0.00603191 
0.8410888747416775 0.6426692187117418 1:0.369445 2:0.590412 3:-0.538857 4:-0.647224 5:0.236915 6:-0.0523819 7:-0.769902 8:-0.0592406 9:-0.319542 10:0.868638 11:0.115002 12:-0.00857243 13:0.170948 14:0.0412724 15:-0.123312 16:-0.0442702 17:0.116238 18:-0.134799 19:0.272302 20:0.464804 21:-0.0153954 22:-0.0603013 23:-0.101864 24:-0.0474825 25:-0.231906 26:-0.0135662 
0.9826006445005271 0.9483320764155663 1:0.316687 2:0.607805 3:-0.451059 4:-0.3957 5:0.214829 6:0.116786 7:-0.561139 8:-0.173298 9:-0.315754 10:0.659949 11:0.285501 12:0.393965 13:0.323943 14:0.0879437 15:-0.108626 16:-0.12009 17:-0.15977 18:0.0740268 19:-0.0627726 20:0.0384854 21:0.0939614 22:-0.0310879 23:0.124277 24:-0.248218 25:-0.598384 26:-0.0173931 
1.002114132017652 0.7120893867458857 1:0.24517 2:0.582996 3:-0.434811 4:-0.307949 5:0.00212789 6:0.161945 7:-0.462733 8:-0.20642 9:-0.284907 10:0.543748 11:0.194189 12:0.275356 13:0.0543599 14:0.139721 15:-0.0574679 16:-0.13322 17:-0.280265 18:0.285759 19:-0.28239 20:-0.387508 21:0.14166 22:-0.0947926 23:0.148281 24:-0.169533 25:-0.34241 26:-0.00368347 
1.552937164488093 0.4776850431930009 1:0.171292 2:0.61012 3:-0.41998 4:-0.289861 5:0.0760908 6:0.188948 7:-0.373887 8:-0.260562 9:-0.159392 10:0.818165 11:0.0639601 12:-0.243223 13:-0.189833 14:0.181689 15:-0.07111 16:-0.117193 17:-0.246261 18:0.305653 19:-0.269124 20:-0.475713 21:0.185098 22:-0.237881 23:-0.132012 24:0.00752417 25:0.224194 26:0.0088065 
0.910146261570418 0.9949315184440882 1:0.129723 2:0.577126 3:-0.352266 4:-0.293597 5:0.195986 6:0.0494809 7:-0.406585 8:-0.309289 9:-0.160231 10:0.716539 11:-0.105444 12:-0.434877 13:-0.149087 14:0.193701 15:-0.140305 16:-0.12914 17:-0.12061 18:0.260122 19:0.0508277 20:-0.218624 21:0.254638 22:-0.311583 23:-0.268192 24:0.10453 25:0.541713 26:0.00470689 
0.5225567051668422 0.2522039811103198 1:0.109993 2:0.672305 3:-0.326197 4:-0.266714 5:0.162266 6:0.0220555 7:-0.514532 8:-0.344418 9:-0.0737525 10:0.560338 11:0.10717 12:-0.173072 13:-0.0968883 14:0.187313 15:-0.257801 16:-0.146928 17:-0.0253592 18:0.184772 19:0.26969 20:0.0573384 21:0.323529 22:-0.295528 23:-0.130874 24:-0.00136723 25:0.477199 26:-0.00568133 
0.8559278127148048 0 1:0.0332179 2:0.678073 3:-0.227129 4:-0.224639 5:0.299238 6:0.127097 7:-0.46193 8:-0.270088 9:-0.243868 10:0.304033 11:-0.00619064 12:-0.214974 13:-0.167614 14:0.182023 15:-0.251314 16:-0.244713 17:-0.000330146 18:-0.214268 19:-0.140615 20:0.0997576 21:0.233198 22:0.0404632 23:0.387424 24:0.00602816 25:0.205884 26:0.00959092 
0.8279097683169464 1.019671900793422 1:0.0137809 2:0.589045 3:-0.237266 4:-0.188409 5:0.455629 6:0.341813 7:-0.257888 8:-0.125878 9:-0.273648 10:0.231723 11:-0.135692 12:-0.261799 13:-0.481366 14:0.218504 15:-0.218786 16:-0.190186 17:0.0581507 18:-0.408359 19:-0.439996 20:-0.012314 21:0.223656 22:0.0739099 23:0.280737 24:0.134257 25:0.233011 26:0.0286071 
0.9445552423000881 0.5235537836044571 1:-0.00708953 2:0.665378 3:-0.227321 4:-0.163484 5:0.329686 6:0.300543 7:-0.377139 8:-0.0991611 9:-0.227517 10:0.393814 11:-0.0547761 12:0.094899 13:-0.32784 14:0.28243 15:-0.30578 16:-0.126005 17:0.202787 18:-0.31254 19:-0.335568 20:0.00834177 21:0.302351 22:-0.0387314 23:0.100537 24:0.235798 25:0.0652715 26:0.0297055 
0.03893083214263792 0 1:-0.0273939 2:0.706586 3:-0.253328 4:-0.132192 5:0.225295 6:0.112202 7:-0.346557 8:-0.0766329 9:-0.166615 10:0.370161 11:0.121197 12:0.133632 13:0.143061 14:0.336431 15:-0.422776 16:-0.0413215 17:0.310926 18:-0.062318 19:0.0517885 20:0.0214198 21:0.248061 22:-0.170613 23:0.122995 24:0.157776 25:-0.0942852 26:0.0109982 
0.9057042613476494 0.5956547696778375 1:-0.00436477 2:0.582669 3:-0.242863 4:-0.0793358 5:0.0107879 6:0.0407043 7:-0.102248 8:0.144024 9:-0.00779317 10:0.384954 11:-0.076471 12:0.109111 13:0.298017 14:0.325106 15:-0.40915 16:0.00129339 17:0.265425 18:0.155107 19:0.357078 20:-0.0206757 21:-0.110103 22:-0.161499 23:0.255746 24:0.0728742 25:-0.109478 26:-0.00869779 
0.1973474618858176 0.8052522982609627 1:0.0997441 2:0.483647 3:-0.159723 4:0.0801176 5:0.0339309 6:0.085364 7:0.0231646 8:0.458877 9:-0.117749 10:0.188611 11:0.149731 12:0.135209 13:0.336871 14:0.20556 15:-0.281573 16:-0.0308873 17:0.0531184 18:0.126227 19:0.399372 20:-0.0867563 21:-0.634158 22:-0.000144315 23:0.3178 24:-0.157154 25:-0.0225883 26:-0.0225649 
0.7346361277039271 0.6203315363759794 1:0.194689 2:0.369724 3:-0.166493 4:0.363238 5:0.0486906 6:0.227934 7:0.0245301 8:0.565496 9:-0.199 10:0.462461 11:0.40817 12:0.0598641 13:0.737085 14:0.045945 15:-0.0968289 16:-0.0734372 17:-0.252382 18:-0.0168846 19:0.155175 20:-0.147294 21:-0.932348 22:0.119644 23:0.00549755 24:-0.347876 25:0.103414 26:-0.033648 
0.7367253812992373 0.7362029473617518 1:0.278368 2:0.268013 3:-0.0988703 4:0.453063 5:-0.0802471 6:0.354349 7:0.131458 8:0.426191 9:-0.0155168 10:0.696738 11:0.28433 12:0.0755281 13:0.706078 14:-0.0763605 15:0.0301998 16:-0.169375 17:-0.394933 18:-0.0491333 19:-0.0552587 20:-0.189757 21:-0.757286 22:0.0696835 23:-0.426257 24:-0.290029 25:0.141624 26:-0.0335058 
0.5042612065275073 0.4315356948153123 1:0.304921 2:0.208597 3:-0.0238149 4:0.465907 5:-0.241586 6:0.407189 7:0.308903 8:0.213298 9:0.204262 10:0.776549 11:0.159603 12:0.196691 13:0.694488 14:-0.0990291 15:0.0607171 16:-0.246857 17:-0.341832 18:0.0190708 19:-0.138651 20:-0.278637 21:-0.257447 22:-0.120503 23:-0.568985 24:-0.107963 25:0.183094 26:-0.0273144 
0.2775205836090177 0.6089945928700488 1:0.301141 2:0.150995 3:0.0178136 4:0.491726 5:-0.271486 6:0.49074 7:0.360545 8:-0.023352 9:0.272557 10:0.537 11:0.12718 12:0.00921463 13:0.477603 14:-0.0381845 15:0.0611098 16:-0.284868 17:-0.188143 18:0.102312 19:-0.223187 20:-0.351668 21:0.23967 22:-0.292994 23:-0.353861 24:0.0925252 25:0.27989 26:-0.0103813 
0.7859917145999396 0.736212036863514 1:0.187352 2:0.171185 3:0.000155146 4:0.499134 5:-0.536651 6:0.629123 7:0.289508 8:-0.273478 9:0.395508 10:0.321237 11:0.158349 12:0.330123 13:0.188237 14:0.222157 15:-0.0552947 16:-0.227322 17:0.0303824 18:0.41615 19:-0.415729 20:-0.0497683 21:0.209647 22:-0.495482 23:0.284394 24:-0.151607 25:-0.2933 26:0.00623154 
0.3187024450100192 0.6357786625419173 1:0.167893 2:0.279553 3:-0.0684123 4:0.534065 5:-0.492579 6:0.546369 7:0.399806 8:-0.458214 9:0.407541 10:0.168378 11:-0.00168584 12:0.163409 13:0.20396 14:0.224199 15:-0.139962 16:-0.198338 17:-0.0245428 18:0.232801 19:-0.173712 20:-0.169925 21:0.323616 22:-0.306721 23:0.145127 24:0.0558853 25:-0.145252 26:-0.002536 
0 0.4854922476494689 1:0.199103 2:0.316821 3:-0.118524 4:0.547384 5:-0.391302 6:0.311608 7:0.369518 8:-0.445469 9:0.0337568 10:0.298507 11:-0.0897116 12:-0.060426 13:0.113645 14:0.170886 15:-0.162079 16:-0.14031 17:-0.0918436 18:0.0577717 19:0.0460265 20:-0.174281 21:0.377417 22:0.057726 23:-0.0812226 24:0.156072 25:0.130339 26:-0.00215412 
0.6279144737667249 0.6284197778760322 1:0.227444 2:0.334025 3:-0.186485 4:0.617822 5:-0.376785 6:0.28364 7:0.213357 8:-0.316466 9:-0.116895 10:0.330392 11:-0.0811316 12:-0.183469 13:0.117318 14:0.113587 15:-0.186466 16:-0.0571505 17:-0.152497 18:0.012628 19:0.142171 20:-0.0884578 21:0.325047 22:0.251074 23:-0.19031 24:0.129783 25:0.249605 26:-0.000743404 
1.175898382273932 0.7606924759952866 1:0.256699 2:0.467914 3:-0.255163 4:0.51679 5:-0.28338 6:0.203476 7:0.210634 8:-0.0703077 9:0.0308706 10:0.0675391 11:-0.0367042 12:-0.34796 13:0.0672407 14:-0.025252 15:-0.311784 16:0.107285 17:-0.0224753 18:0.182082 19:0.15908 20:-0.0893016 21:0.0191164 22:-0.216457 23:0.222537 24:0.0424335 25:0.133164 26:0.00373962 
1.031041562441205 0.4988901217049121 1:0.199908 2:0.467379 3:-0.187684 4:0.49395 5:-0.176339 6:0.339239 7:0.24531 8:0.229514 9:0.0564556 10:0.171888 11:0.0330988 12:-0.591107 13:0.259213 14:0.0689708 15:-0.240313 16:-0.0767176 17:-0.232353 18:-0.123356 19:-0.113891 20:-0.241354 21:-0.159562 22:-0.298973 23:0.188981 24:-0.0419907 25:0.501029 26:-0.00896973 
0.7042558028283225 0.3293038597236025 1:0.0120031 2:0.399725 3:-0.0263254 4:0.431693 5:0.0446136 6:0.353629 7:0.168376 8:0.167327 9:-0.142835 10:0.0909832 11:0.163291 12:-0.552523 13:0.332273 14:0.177849 15:-0.0775115 16:-0.306608 17:-0.0892098 18:-0.17014 19:-0.253899 20:-0.20197 21:-0.236722 22:-0.072185 23:-0.0453705 24:-0.128377 25:0.226195 26:-0.0121637 
1.025438876138016 0.4391807116410416 1:0.0189162 2:0.415085 3:-0.0467271 4:0.052419 5:-0.283178 6:0.385903 7:-0.150045 8:0.400379 9:-0.135571 10:0.369566 11:-0.0264861 12:-0.182849 13:0.130172 14:0.134609 15:-0.127049 16:-0.219803 17:0.255961 18:0.275879 19:-0.186952 20:0.128847 21:-0.33199 22:-0.0660069 23:-0.176331 24:-0.0276216 25:0.00560646 26:0.00490121 
0.2815026277678648 0 1:-0.101326 2:0.448498 3:-0.0505353 4:0.168575 5:-0.110792 6:0.318795 7:-0.097366 8:0.198737 9:-0.113935 10:0.279694 11:0.213389 12:-0.358174 13:0.154214 14:0.255596 15:-0.296323 16:-0.120968 17:0.213598 18:0.0778238 19:0.0854578 20:0.153625 21:0.0572166 22:-0.137237 23:0.29859 24:-0.181524 25:0.400121 26:0.0126498 
0.4154655401485071 0.3240282262153932 1:-0.13186 2:0.479063 3:-0.0858733 4:0.16192 5:-0.0755085 6:0.120913 7:-0.116275 8:0.0622526 9:-0.208321 10:0.0499016 11:0.0623368 12:-0.323488 13:0.193766 14:0.379974 15:-0.425929 16:-0.0459523 17:0.185405 18:-0.181839 19:0.408922 20:0.138851 21:0.423874 22:-0.115081 23:0.752748 24:-0.205402 25:0.586794 26:0.0124156 
0.4549278415072325 0.3098231466987642 1:-0.166774 2:0.521414 3:-0.0931228 4:0.105117 5:-0.0274002 6:0.130491 7:-0.123583 8:-0.0818066 9:-0.193688 10:0.0111749 11:0.0854548 12:-0.250742 13:0.12387 14:0.42653 15:-0.42538 16:-0.010441 17:0.170197 18:-0.334187 19:0.477152 20:0.036922 21:0.523259 22:-0.00792874 23:0.671071 24:-0.134514 25:0.469509 26:0.00385028 
0.5120482319231218 0.30768403322576 1:-0.0897598 2:0.35703 3:-0.0883485 4:0.03749 5:-0.204302 6:0.321155 7:-0.0403636 8:0.198489 9:-0.216262 10:0.637478 11:-0.110005 12:0.274792 13:0.459614 14:0.304452 15:-0.235369 16:-0.0192602 17:0.154556 18:-0.138317 19:0.283609 20:-0.117359 21:0.0753264 22:0.0944404 23:-0.15587 24:0.0566544 25:-0.112123 26:-0.0134107 
0.9618264988077933 0.8289665550498188 1:0.0376989 2:0.247576 3:-0.0182437 4:0.299203 5:-0.315702 6:0.474266 7:-0.0116646 8:0.282208 9:-0.301899 10:0.920799 11:-0.281493 12:0.533347 13:0.622257 14:0.110944 15:-0.0457732 16:-0.128496 17:-0.00933399 18:0.122477 19:-0.0272077 20:-0.211719 21:-0.317528 22:0.149366 23:-0.844885 24:0.179292 25:-0.589329 26:-0.025901 
0.6106676472403021 0.58145778019692 1:0.106431 2:0.231538 3:-0.0115584 4:0.338871 5:-0.369519 6:0.573264 7:0.0592769 8:0.266585 9:-0.140421 10:0.90777 11:-0.18994 12:0.401647 13:0.48359 14:-0.0147236 15:0.0226472 16:-0.290276 17:-0.142167 18:0.331087 19:-0.263971 20:-0.333809 21:-0.481547 22:0.101175 23:-0.936373 24:0.0384482 25:-0.576092 26:-0.02572 
0.6399792983886294 0.622109403914768 1:0.136117 2:0.224743 3:0.0303169 4:0.324426 5:-0.431856 6:0.617308 7:0.0070724 8:0.132044 9:0.000232525 10:0.650225 11:-0.145108 12:0.491125 13:0.403202 14:-0.0684714 15:0.00279728 16:-0.403223 17:-0.163161 18:0.492209 19:-0.312738 20:-0.336218 21:-0.357094 22:0.0295227 23:-0.391239 24:-0.0379613 25:-0.245229 26:-0.0163633 
0.5097632817985041 0.6282253386686086 1:0.149308 2:0.215093 3:0.039668 4:0.317986 5:-0.45994 6:0.781422 7:-0.0787995 8:0.00429126 9:0.0614512 10:0.462414 11:-0.228029 12:0.283545 13:0.350704 14:-0.0637142 15:-0.0737459 16:-0.336068 17:-0.147863 18:0.487182 19:-0.391142 20:-0.178666 21:0.0137538 22:-0.154221 23:0.227157 24:0.0702614 25:0.233437 26:-0.00261863 
0.7760721580015297 0.7488639553792001 1:0.137557 2:0.20395 3:-0.0398372 4:0.392426 5:-0.447844 6:0.720843 7:-0.0871374 8:-0.0523511 9:0.150556 10:0.312684 11:-0.346842 12:0.0289431 13:0.142346 14:-0.0398097 15:-0.160044 16:-0.10045 17:-0.171562 18:0.380001 19:-0.374553 20:-0.0549894 21:0.381813 22:-0.417345 23:0.427102 24:0.264537 25:0.539351 26:0.00294805 
0.9040425294462993 0.8821914590446195 1:0.121777 2:0.211997 3:-0.218185 4:0.368171 5:-0.242538 6:0.70069 7:-0.287804 8:-0.288306 9:0.422164 10:0.341888 11:-0.429752 12:0.159926 13:0.0579413 14:0.0037448 15:-0.285656 16:0.136108 17:-0.258658 18:0.133474 19:-0.319168 20:0.0801958 21:0.770195 22:-0.700082 23:0.251892 24:0.314833 25:0.445853 26:0.00299131 
0.9569608112416066 0.9487006667325479 1:0.0518392 2:0.26046 3:-0.211434 4:0.370163 5:-0.101137 6:0.74196 7:-0.321285 8:-0.337335 9:0.482021 10:0.471178 11:-0.253304 12:0.425159 13:0.123977 14:0.148893 15:-0.348804 16:0.121358 17:-0.448182 18:-0.149504 19:-0.199443 20:0.0851054 21:0.763356 22:-0.757053 23:-0.0221003 24:0.124903 25:0.138054 26:0.00139967 
1.030186359809824 0.9801418093821175 1:-0.0298819 2:0.24143 3:-0.087735 4:0.257683 5:-0.126002 6:0.52401 7:-0.139555 8:-0.0935858 9:0.163949 10:0.393814 11:0.0390232 12:0.299281 13:0.118124 14:0.361081 15:-0.25608 16:-0.0737823 17:-0.517349 18:-0.226952 19:0.0738525 20:0.0100387 21:0.306939 22:-0.502388 23:-0.127555 24:-0.120919 25:-0.0237928 26:0.000955512 
1.169188192978607 0.9968786434087865 1:-0.0903151 2:0.115703 3:-0.0482856 4:0.159798 5:-0.0348291 6:0.504854 7:-0.312077 8:0.133995 9:-0.00619427 10:0.295782 11:0.000115572 12:0.523803 13:-0.180495 14:0.519355 15:-0.088394 16:-0.257559 17:-0.349359 18:-0.187365 19:0.163782 20:0.091135 21:-0.187614 22:-0.191448 23:-0.0478755 24:-0.118875 25:-0.12086 26:0.00332583 
0.824898626230353 0.6369639878990755 1:-0.0938555 2:-0.00644027 3:-0.0658594 4:0.029979 5:0.0109638 6:0.470925 7:-0.29421 8:0.386024 9:-0.232278 10:0.261276 11:-0.120238 12:0.448961 13:0.00134025 14:0.541498 15:0.0169397 16:-0.316881 17:0.0608 18:-0.0264206 19:0.0734476 20:0.106616 21:-0.403829 22:0.144968 23:0.174532 24:-0.043866 25:-0.0462793 26:-0.00223481 
1.247957827456418 1.012672669319226 1:0.0738288 2:0.107954 3:-0.16607 4:-0.484829 5:-0.192956 6:0.497728 7:-0.21573 8:0.22022 9:-0.283364 10:0.261824 11:0.0519685 12:0.283981 13:0.0471121 14:0.353496 15:-0.0258372 16:-0.189898 17:0.620838 18:0.18797 19:-0.126476 20:0.0782779 21:-0.150037 22:0.222211 23:0.307772 24:-0.0937019 25:0.0143736 26:-0.00677398 
0.7300367853336901 0.7680602120035043 1:0.249268 2:0.165573 3:-0.104646 4:-0.573528 5:-0.0725162 6:0.579547 7:-0.145633 8:0.115713 9:-0.411089 10:0.123784 11:0.125461 12:0.528691 13:-0.039186 14:0.0545875 15:0.0188386 16:-0.0731899 17:0.727842 18:0.138314 19:-0.201533 20:0.0288763 21:0.0734197 22:0.132272 23:0.209739 24:-0.230947 25:-0.0709993 26:-0.006392 
0.8061436029518938 0.7015058906504937 1:0.343582 2:0.0624762 3:-0.163573 4:-0.415489 5:-0.0400306 6:0.499031 7:0.00920783 8:0.289082 9:-0.531115 10:0.23031 11:0.248515 12:0.417186 13:-0.0994974 14:-0.189534 15:0.224239 16:-0.00475137 17:0.410125 18:-0.023791 19:0.0111742 20:-0.076084 21:-0.0900938 22:0.0334673 23:-0.139755 24:-0.448822 25:0.0341175 26:-0.00192217 
0.7013499699410557 0.5996990350778711 1:0.480323 2:0.0639208 3:-0.240092 4:-0.270338 5:-0.01102 6:0.276851 7:0.0256232 8:0.471016 9:-0.244026 10:0.498008 11:0.0399276 12:0.22565 13:-0.169372 14:-0.310851 15:0.395519 16:-0.00590403 17:-0.0212323 18:-0.198229 19:0.239443 20:-0.0531759 21:-0.364665 22:-0.0754613 23:-0.521638 24:-0.403535 25:0.134772 26:0.00517693 
0.9355477189208583 0.7629909358813122 1:0.480398 2:0.197528 3:-0.161761 4:-0.230971 5:0.0422392 6:0.287808 7:0.0590477 8:0.415851 9:-0.412504 10:0.402034 11:-0.0350887 12:0.210679 13:-0.16473 14:-0.233178 15:0.321622 16:-0.103058 17:-0.238261 18:-0.259422 19:0.175524 20:-0.0761561 21:-0.38853 22:0.106913 23:-0.492302 24:-0.192206 25:0.128652 26:0.0027297 
2 1.468370128695524 1:0.339742 2:0.513453 3:-0.078257 4:-0.337653 5:-0.0991429 6:0.530707 7:0.25873 8:0.24393 9:-0.575175 10:0.0850408 11:-0.14093 12:0.242193 13:-0.097531 14:-0.0453795 15:-0.0939186 16:-0.158545 17:-0.0869388 18:-0.0430693 19:-0.168307 20:-0.202921 21:-0.0389777 22:0.364876 23:-0.0624098 24:0.0424247 25:0.0235805 26:-0.32524 
1.301134695356462 1.019378892277322 1:0.274516 2:0.733032 3:-0.160527 4:-0.337517 5:-0.259866 6:0.551273 7:0.324282 8:0.0585653 9:-0.446759 10:-0.0868638 11:-0.503316 12:0.233353 13:-0.0674055 14:0.0957685 15:-0.57973 16:-0.109001 17:0.0760889 18:0.248032 19:-0.422855 20:-0.271073 21:0.433207 22:0.368416 23:0.422108 24:0.333833 25:-0.137172 26:-0.00787472 
0.7613208321108095 0.686582311674975 1:0.217589 2:0.919095 3:-0.171648 4:-0.31211 5:-0.243965 6:0.434176 7:0.397357 8:0.0546842 9:-0.176151 10:-0.225232 11:-0.496859 12:0.145658 13:-0.0741067 14:0.15746 15:-0.856586 16:-0.0606996 17:0.128896 18:0.426326 19:-0.341026 20:-0.310964 21:0.520311 22:0.0130622 23:0.636642 24:0.415479 25:-0.0635861 26:-0.00756709 
0.9509132778127197 0.7870366795177659 1:0.167228 2:0.986082 3:-0.139208 4:-0.254631 5:-0.287157 6:0.337032 7:0.34689 8:0.139191 9:0.0693283 10:-0.134853 11:-0.438697 12:-0.0342897 13:-0.174727 14:0.140601 15:-0.841254 16:-0.0822598 17:0.0451295 18:0.421339 19:-0.0431266 20:-0.23974 21:0.26289 22:-0.492492 23:0.464225 24:0.405264 25:0.226778 26:-0.00252219 
1.071827856463761 1.083367535192494 1:0.107996 2:0.951405 3:-0.0933837 4:-0.22041 5:-0.290516 6:0.248868 7:0.34356 8:0.219642 9:0.385272 10:-0.00558628 11:-0.509522 12:-0.215579 13:-0.101917 14:0.153268 15:-0.542613 16:-0.213034 17:-0.16379 18:0.111852 19:0.211925 20:-0.0995397 21:-0.0918208 22:-0.816892 23:0.157891 24:0.290276 25:0.475748 26:-0.00115105 
1.151773815751643 1.034228790098602 1:0.0366766 2:0.79165 3:-0.0344142 4:-0.198777 5:-0.100077 6:0.166558 7:0.398964 8:0.418824 9:0.324336 10:0.0507381 11:-0.316793 12:-0.300617 13:-0.200352 14:0.224754 15:-0.182005 16:-0.357419 17:-0.332157 18:-0.296353 19:0.241823 20:-0.0344656 21:-0.330315 22:-0.69833 23:-0.0388368 24:0.0255363 25:0.464071 26:0.00237615 
0.3849225860706054 0.5284298520863735 1:-0.0406819 2:0.758783 3:-0.0781019 4:-0.115327 5:-0.0240152 6:0.268101 7:0.315114 8:0.241566 9:0.0392152 10:0.0813689 11:-0.179114 12:-0.132561 13:-0.138266 14:0.279956 15:0.00901046 16:-0.322115 17:-0.318289 18:-0.343379 19:0.101779 20:-0.021182 21:-0.206769 22:-0.331581 23:-0.166793 24:-0.276868 25:0.237205 26:0.00695746 
0.9416074742121732 0.9180917892467675 1:-0.0842457 2:0.686867 3:-0.131345 4:-0.172084 5:-0.128151 6:0.266369 7:0.306552 8:0.231692 9:0.075374 10:0.195766 11:-0.0488744 12:-0.0374789 13:-0.101837 14:0.294912 15:0.0671992 16:-0.156549 17:-0.0672534 18:-0.0677715 19:-0.063269 20:-0.0926524 21:-0.00684025 22:-0.0335515 23:-0.241688 24:-0.449333 25:0.0401768 26:0.00308765 
0.5421820749589976 0.3272585307489411 1:-0.0307256 2:0.802742 3:-0.203696 4:-0.466196 5:-0.433615 6:0.281924 7:0.496723 8:0.166272 9:-0.0800609 10:0.154363 11:-0.0824883 12:-0.0574696 13:-0.174425 14:0.277488 15:0.00755803 16:0.0153867 17:0.231323 18:0.312945 19:-0.217222 20:-0.22555 21:0.117505 22:0.189053 23:-0.237598 24:-0.3661 25:0.0669375 26:-0.00409941 
1.123828404650624 0.244340425221964 1:-0.0263006 2:0.778169 3:-0.263036 4:-0.505445 5:-0.48922 6:0.274154 7:0.441731 8:0.156167 9:-0.102016 10:0.169428 11:-0.133981 12:-0.184761 13:0.0164016 14:0.282442 15:-0.00698782 16:0.0365099 17:0.250069 18:0.396984 19:-0.365264 20:-0.28505 21:0.0671848 22:0.14471 23:-0.128249 24:-0.0816668 25:0.177466 26:-0.0160237 
1.30203594727004 1.047397123036644 1:-0.0548416 2:0.725461 3:-0.228993 4:-0.271124 5:-0.178381 6:0.314474 7:0.307022 8:0.163344 9:-0.0945417 10:0.0464617 11:-0.530501 12:-0.0711634 13:0.333613 14:0.276865 15:-0.00846715 16:-0.108007 17:0.0285724 18:0.0990242 19:-0.42197 20:-0.324972 21:-0.100906 22:-0.034749 23:0.164437 24:0.245731 25:0.132564 26:-0.0201207 
0.2051719924525221 0.2393247403521531 1:0.0147968 2:0.850493 3:-0.154786 4:-0.230509 5:-0.229159 6:0.159034 7:0.3522 8:0.219184 9:0.0467087 10:-0.0159621 11:-0.340988 12:-0.0463132 13:-0.158112 14:0.192553 15:-0.172887 16:-0.254758 17:-0.0574773 18:-0.0173091 19:-0.254291 20:-0.348645 21:-0.185992 22:-0.201311 23:0.410291 24:0.292322 25:-0.0495721 26:-0.00496359 
0.6993530479681265 0.02822499106898643 1:0.141466 2:0.975277 3:-0.172508 4:-0.387562 5:-0.367544 6:0.0724651 7:0.297227 8:0.080168 9:0.121965 10:-0.0779361 11:-0.296618 12:0.132422 13:-0.172311 14:0.0467542 15:-0.399866 16:-0.307995 17:0.0754924 18:0.124997 19:0.068121 20:-0.230489 21:-0.0894117 22:-0.296516 23:0.423583 24:0.252417 25:-0.219861 26:0.00731131 
0.746604938719203 0.3830467000801915 1:0.208749 2:0.992751 3:-0.306408 4:-0.436114 5:-0.365872 6:-0.175215 7:0.0995582 8:-0.0343017 9:-0.00912839 10:0.0831873 11:-0.297498 12:-0.0127801 13:-0.0868117 14:-0.0683359 15:-0.565039 16:-0.234834 17:0.214088 18:0.329106 19:0.435264 20:-0.00801037 21:0.0896611 22:-0.285909 23:0.15031 24:0.133166 25:-0.128052 26:0.0121456 
0.5526002818586788 0.6520760438522524 1:0.202325 2:0.984635 3:-0.333268 4:-0.344959 5:-0.35454 6:-0.221682 7:-0.11818 8:-0.0740953 9:-0.0970227 10:0.320121 11:-0.254862 12:-0.139618 13:-0.0320672 14:-0.0647977 15:-0.548907 16:-0.145669 17:0.13916 18:0.413926 19:0.57618 20:0.271426 21:0.182892 22:-0.275894 23:-0.232702 24:-0.0500741 25:0.120407 26:0.00673001 
0.6557119967990818 1.217540116248931 1:0.185126 2:0.896308 3:-0.31674 4:-0.129502 5:-0.208354 6:-0.117387 7:-0.171213 8:-0.151027 9:0.00326254 10:0.357662 11:-0.0935154 12:-0.276902 13:-0.0284612 14:0.0328161 15:-0.374007 16:-0.0996381 17:-0.141898 18:0.213635 19:0.465482 20:0.403342 21:0.229395 22:-0.251259 23:-0.441515 24:-0.178999 25:0.328351 26:-0.00348599 
0.2611075139747707 0.0659419045982771 1:0.143323 2:0.757082 3:-0.447427 4:-0.114918 5:-0.0885597 6:0.00357529 7:-0.077996 8:-0.134457 9:-0.0333038 10:0.301315 11:0.0761482 12:-0.234397 13:0.13911 14:0.135787 15:-0.179063 16:-0.062503 17:-0.267892 18:-0.0211074 19:0.229806 20:0.28973 21:0.158325 22:-0.0859258 23:-0.371281 24:-0.209953 25:0.426876 26:-0.0029865 
0.3984284371484266 0 1:0.118781 2:0.683828 3:-0.50098 4:-0.181233 5:-0.0645425 6:0.0797643 7:-0.036224 8:-0.121845 9:-0.34603 10:0.235369 11:-0.0729762 12:-0.237872 13:0.164368 14:0.178593 15:-0.0427984 16:-0.041536 17:-0.156166 18:-0.141201 19:-0.0401135 20:0.0890791 21:0.0318322 22:0.173006 23:-0.104982 24:-0.016435 25:0.338857 26:0.00086981 
0.6833882836608868 0.2056821862156823 1:0.126316 2:0.640294 3:-0.468527 4:-0.172782 5:0.0590388 6:0.222478 7:0.0989783 8:-0.204734 9:-0.407302 10:0.166116 11:-0.155693 12:-0.193427 13:0.137668 14:0.187286 15:0.0674467 16:-0.0282469 17:-0.0353747 18:-0.19242 19:-0.314451 20:-0.238561 21:-0.0322962 22:0.308387 23:0.182017 24:0.151332 25:0.15601 26:0.000455717 
1.24805701162889 0.8059823452066091 1:0.13079 2:0.546688 3:-0.505726 4:-0.191964 5:0.0792206 6:0.40771 7:0.176565 8:-0.102564 9:-0.239405 10:-0.0116646 11:-0.112693 12:-0.133597 13:0.188061 14:0.200313 15:0.128955 16:-0.00432248 17:-0.0309488 18:-0.0469822 19:-0.621042 20:-0.558087 21:-0.0199503 22:0.232948 23:0.349397 24:0.0957378 25:0.0242759 26:-0.00758816 
0.6211390517868761 0.5557026887534088 1:0.113105 2:0.521707 3:-0.584357 4:-0.165261 5:0.00401214 6:0.393442 7:0.231342 8:-0.136332 9:-0.0413168 10:0.0650178 11:0.136998 12:0.0900541 13:0.540688 14:0.218638 15:0.070131 16:0.0346334 17:-0.081873 18:0.156133 19:-0.775339 20:-0.715855 21:0.262768 22:-0.0283613 23:0.25846 24:-0.159172 25:-0.0708087 26:-0.0194518 
1.014610516643654 0.711732228779442 1:0.113534 2:0.580687 3:-0.516749 4:-0.108254 5:0.00690699 6:0.37113 7:0.278165 8:-0.332658 9:-0.063933 10:0.128264 11:0.197611 12:-0.0594803 13:0.49724 14:0.210974 15:-0.10798 16:0.0525868 17:-0.0253142 18:0.195955 19:-0.667937 20:-0.574028 21:0.62001 22:-0.278384 23:0.024623 24:-0.295868 25:0.0166461 26:-0.0185948 
0.8599034440667096 0.1980842149787293 1:0.178004 2:0.677808 3:-0.496368 4:-0.20264 5:0.0515494 6:0.202985 7:-0.123459 8:-0.28181 9:0.0801299 10:0.223671 11:0.11257 12:-0.158927 13:0.333383 14:0.148604 15:-0.326926 16:0.0662311 17:0.172722 18:0.0537956 19:-0.234711 20:-0.0217205 21:0.66924 22:-0.538948 23:-0.169356 24:-0.121724 25:0.0955395 26:-0.00709143 
0.7068943797044707 0.6919784378195061 1:0.221004 2:0.673466 3:-0.482342 4:-0.336153 5:0.221922 6:-0.0854008 7:-0.420259 8:-0.0541047 9:0.249616 10:0.20938 11:-0.0347369 12:0.0488494 13:0.242473 14:0.0659438 15:-0.424309 16:0.0265179 17:0.305255 18:-0.21036 19:0.283826 20:0.435899 21:0.417349 22:-0.721455 23:-0.109188 24:0.217257 25:0.00488074 26:0.00533309 
0.8741583162155074 0.7181436234431641 1:0.245277 2:0.622786 3:-0.389007 4:-0.169822 5:0.243864 6:-0.267871 7:-0.43413 8:0.285693 9:0.137739 10:0.145681 11:-0.045764 12:-0.034086 13:0.280176 14:-0.00390733 15:-0.379354 16:-0.0785411 17:0.193168 18:-0.32769 19:0.598604 20:0.479502 21:-0.0901182 22:-0.605762 23:0.106805 24:0.365623 25:-0.00353112 26:0.00686613 
0.1672384347663995 0.01097171604970697 1:0.249642 2:0.55886 3:-0.29746 4:-0.00423484 5:0.109847 6:-0.233175 7:-0.319443 8:0.429467 9:-0.0472423 10:0.0261294 11:0.0526891 12:-0.0149741 13:0.391791 14:-0.0514741 15:-0.285516 16:-0.173873 17:-0.0507845 18:-0.170948 19:0.579794 20:0.198242 21:-0.530324 22:-0.315019 23:0.169504 24:0.127463 25:0.00525119 26:-0.00528206 
0.1948495923285045 0.05938521488751494 1:0.237998 2:0.491809 3:-0.21944 4:0.044061 5:0.0181606 6:-0.134105 7:-0.148076 8:0.482057 9:-0.392343 10:0.0990041 11:0.254997 12:-0.0989845 13:0.387188 14:-0.0522529 15:-0.163139 16:-0.253934 17:-0.255381 18:0.111464 19:0.298529 20:-0.115498 21:-0.739055 22:0.0760575 23:0.0615919 24:-0.232517 25:0.145928 26:-0.0121476 
0.459905085167424 0.3960372928012707 1:0.195179 2:0.454294 3:-0.177106 4:0.0481004 5:-0.0161769 6:-0.110019 7:-0.188825 8:0.650507 9:-0.542046 10:0.31655 11:0.462766 12:-0.233228 13:0.452446 14:-0.0039852 15:-0.067635 16:-0.272685 17:-0.318722 18:0.321369 19:-5.07986e-05 20:-0.0556982 21:-0.713376 22:0.290211 23:-0.118876 24:-0.414015 25:0.343537 26:-0.0107214 
0.2673011722770441 0 1:0.128091 2:0.375342 3:-0.170498 4:0.100612 5:-0.120296 6:0.0408024 7:-0.269741 8:0.530045 9:-0.409172 10:0.267436 11:0.367243 12:-0.13594 13:0.338013 14:0.0748098 15:-0.0154227 16:-0.259275 17:-0.281074 18:0.426178 19:-0.246134 20:0.167173 21:-0.318749 22:0.299402 23:-0.072994 24:-0.251905 25:0.426031 26:-0.00347106 
0.4907313174574777 0.207112881477782 1:-0.0667866 2:0.39119 3:-0.129053 4:-0.079643 5:0.0281989 6:0.0694415 7:0.241588 8:0.142615 9:-0.383426 10:0.207824 11:0.251706 12:0.108427 13:0.371695 14:0.224382 15:-0.411415 16:-0.21032 17:0.0688567 18:-0.205063 19:-0.124592 20:-0.591028 21:0.641066 22:-0.323523 23:0.0566468 24:0.0680509 25:-0.343493 26:-0.00374637 
0.542507867878267 0.6056965134869765 1:-0.139707 2:0.291966 3:-0.185667 4:-0.151077 5:0.168782 6:0.0109327 7:0.305357 8:0.284481 9:-0.131137 10:0.264174 11:0.235212 12:0.415934 13:0.220442 14:0.277761 15:-0.329374 16:-0.124515 17:0.235025 18:-0.362667 19:-0.0602806 20:-0.569579 21:0.399276 22:-0.539463 23:-0.016298 24:0.0588914 25:-0.400295 26:-0.0106384 
0.9068749734372509 0.7029514330593089 1:-0.178131 2:0.0230361 3:-0.225133 4:-0.185337 5:-0.11961 6:0.0506517 7:-0.207641 8:0.38343 9:-0.579682 10:0.16846 11:0.119399 12:-0.368504 13:0.383541 14:0.384037 15:0.335964 16:-0.0340705 17:0.381131 18:0.149078 19:-0.143034 20:0.0862714 21:-0.185468 22:-0.0441982 23:-0.0512535 24:0.136061 25:0.194517 26:-0.0128253 
0.2441309169808467 0 1:0.144145 2:0.488724 3:-0.239942 4:0.304397 5:-0.0840934 6:-0.0235689 7:-0.178973 8:0.423653 9:-0.308227 10:0.0138767 11:0.408497 12:-0.45318 13:-0.0751614 14:-0.136477 15:-0.454843 16:-0.0943144 17:-0.401438 18:0.241347 19:0.226946 20:-0.168879 21:0.0217663 22:-0.0674192 23:0.0891406 24:-0.181353 25:0.476398 26:0.00131438 
0.3441333109268354 0.1508246625064492 1:0.193458 2:0.537268 3:-0.355305 4:0.321271 5:0.000784263 6:-0.0139646 7:-0.152135 8:0.397709 9:-0.00964858 10:-0.0503046 11:0.464801 12:-0.187051 13:-0.332235 14:-0.193767 15:-0.60823 16:0.0760555 17:-0.364746 18:0.00724337 19:0.135262 20:-0.0612385 21:0.126076 22:-0.505257 23:0.244912 24:-0.307741 25:0.202591 26:0.00560718 
0.3314344901441161 0.2143973875323225 1:0.164919 2:0.565563 3:-0.361687 4:0.260457 5:0.0782864 6:-0.00697281 7:-0.171904 8:0.364284 9:0.112381 10:-0.110062 11:0.385986 12:0.110871 13:-0.392024 14:-0.125067 15:-0.597924 16:0.116037 17:-0.217962 18:-0.23574 19:-0.00490424 20:0.106938 21:0.102754 22:-0.718276 23:0.328713 24:-0.379966 25:-0.162973 26:0.00884128 
0.1677167165946864 0 1:0.0699203 2:0.564299 3:-0.256297 4:0.234266 5:0.17501 6:0.127877 7:-0.303281 8:0.305179 9:0.0722169 10:-0.0812635 11:0.303397 12:-0.027856 13:-0.167834 14:0.00978525 15:-0.467301 16:0.024159 17:-0.0545248 18:-0.288535 19:-0.124625 20:0.254887 21:0.0487522 22:-0.652854 23:0.354234 24:-0.315503 25:-0.266437 26:0.0104183 
0.6225635804792887 0.4577678144940167 1:-0.0203625 2:0.483629 3:-0.194372 4:0.196692 5:0.264163 6:0.314397 7:-0.371321 8:0.352353 9:0.029744 10:-0.102423 11:0.201555 12:0.0223256 13:-0.350114 14:0.136661 15:-0.28678 16:-0.200348 17:0.00306856 18:-0.177742 19:-0.198441 20:0.294501 21:0.0298277 22:-0.348658 23:0.418176 24:-0.104553 25:-0.157752 26:0.0126253 
0.07202816602957372 0.1783288221482219 1:-0.167321 2:0.325563 3:-0.128637 4:0.151012 5:0.155952 6:0.3471 7:0.0426577 8:0.190247 9:-0.306189 10:0.325448 11:-0.301819 12:-0.190022 13:0.091 14:0.362215 15:0.180107 16:-0.279145 17:-0.10961 18:-0.0371644 19:-0.373972 20:-0.218623 21:0.0376833 22:0.239614 23:-0.0982402 24:0.435608 25:0.275295 26:-0.00865995 
0.5042609109036672 0.005578847907349073 1:-0.207695 2:0.271822 3:-0.322869 4:-0.0492452 5:0.0882079 6:0.323285 7:0.0844613 8:0.156489 9:-0.300149 10:0.516239 11:-0.156874 12:-0.106765 13:0.0966274 14:0.404386 15:0.283682 16:0.0149109 17:-0.0290251 18:-0.201194 19:-0.346512 20:-0.276934 21:0.113057 22:0.201388 23:-0.329224 24:0.157385 25:0.128827 26:-0.0159071 
0.3309183306792229 0 1:-0.183127 2:0.342842 3:-0.399543 4:-0.0809925 5:0.0154993 6:0.168765 7:0.259161 8:0.183013 9:-0.214138 10:0.391084 11:0.0560271 12:0.0146744 13:0.112975 14:0.347029 15:0.222228 16:0.218597 17:0.0202778 18:-0.22063 19:-0.113158 20:-0.298122 21:0.243351 22:0.0144487 23:-0.480151 24:-0.217116 25:-0.079552 26:-0.0192217 
0.407589996065056 0.4801483909669982 1:-0.042309 2:0.489138 3:-0.363429 4:-0.0789449 5:-0.0807214 6:0.058236 7:0.341816 8:0.111969 9:-0.0636113 10:0.652451 11:0.0530212 12:0.157304 13:0.20315 14:0.181564 15:0.0107964 16:0.203491 17:0.0753616 18:-0.032207 19:0.21027 20:-0.248811 21:0.446797 22:-0.185581 23:-0.651016 24:-0.393356 25:-0.0920127 26:-0.019278 
0.4857753047760638 0.2815764146619363 1:0.0387513 2:0.638122 3:-0.222944 4:-0.15937 5:-0.223018 6:-0.0537657 7:0.190965 8:0.0602782 9:0.0769441 10:0.567579 11:-0.0613361 12:-0.14794 13:0.149927 14:0.0502366 15:-0.269437 16:-0.031792 17:0.0573057 18:0.169251 19:0.405192 20:-0.131857 21:0.393118 22:-0.376095 23:-0.570754 24:-0.28426 25:0.156875 26:-0.0143567 
0 0.1710512863526026 1:0.111909 2:0.850114 3:-0.122911 4:-0.20357 5:-0.305855 6:0.141594 7:0.26496 8:0.498362 9:0.0314795 10:-0.0167307 11:-0.27584 12:-0.162314 13:-0.154733 14:0.0166925 15:-0.506307 16:-0.361835 17:-0.0156582 18:0.192248 19:0.0402369 20:-0.0569026 21:-0.235693 22:-0.327251 23:0.20978 24:0.289288 25:0.38747 26:0.00630773 
0.4577689370474516 0.6576518351434144 1:0.118983 2:0.884607 3:-0.137932 4:-0.180637 5:-0.394258 6:0.151647 7:0.312665 8:0.579491 9:0.0213659 10:-0.0797638 11:-0.391714 12:0.0504289 13:-0.12555 14:0.0567528 15:-0.446591 16:-0.312666 17:-0.012195 18:0.305599 19:-0.142984 20:-0.174 21:-0.39795 22:-0.199971 23:0.50754 24:0.467575 25:0.126713 26:0.0125987 
0 0.3823377285495242 1:0.154461 2:0.859965 3:-0.136423 4:-0.281237 5:-0.43412 6:0.24519 7:0.288861 8:0.49145 9:0.0195153 10:-0.210048 11:-0.267901 12:0.0685765 13:-0.0558293 14:0.0462649 15:-0.366164 16:-0.217136 17:0.0657596 18:0.475105 19:-0.16348 20:-0.318267 21:-0.359309 22:-0.0478061 23:0.601113 24:0.455543 25:-0.152661 26:0.0118378 
0.4113815175204487 0.3913042110844201 1:0.146093 2:0.875727 3:-0.190578 4:-0.284105 5:-0.49565 6:0.26125 7:0.298461 8:0.531332 9:-0.107716 10:-0.202057 11:-0.14645 12:0.161831 13:-0.0643597 14:0.0429298 15:-0.321596 16:-0.121374 17:0.161273 18:0.618476 19:0.000539917 20:-0.397159 21:-0.27409 22:0.108649 23:0.567766 24:0.268771 25:-0.329326 26:0.0045901 
0.1796302337989714 0 1:0.0693134 2:0.716816 3:-0.211268 4:-0.205646 5:0.00574646 6:0.441333 7:-0.073953 8:0.229575 9:0.104152 10:0.138619 11:0.447339 12:-0.129503 13:0.256107 14:0.114213 15:-0.35335 16:-0.14062 17:0.023223 18:-0.113395 19:-0.473944 20:0.153027 21:0.278713 22:-0.279586 23:-0.202776 24:-0.610948 25:0.310648 26:-0.0158979 
0.9521722359658542 0.9429065690354248 1:0.0621162 2:0.68114 3:-0.202235 4:-0.0887735 5:0.160118 6:0.544852 7:-0.215346 8:0.156699 9:0.190359 10:0.345632 11:0.355485 12:-0.404586 13:0.0485595 14:0.0820353 15:-0.322478 16:-0.140932 17:-0.0917668 18:-0.367506 19:-0.790216 20:0.302249 21:0.433521 22:-0.525633 23:-0.502094 24:-0.555448 25:0.355798 26:-0.0159163 
0.9789995882920238 0.393906803065388 1:0.0667371 2:0.54574 3:-0.25848 4:-0.0803317 5:0.161228 6:0.418728 7:-0.213927 8:0.0917508 9:0.173384 10:0.457798 11:0.18941 12:-0.165597 13:0.143436 14:0.0341011 15:-0.198444 16:-0.0841596 17:-0.188363 18:-0.409141 19:-0.646659 20:0.256037 21:0.374556 22:-0.535203 23:-0.491594 24:-0.255963 25:0.212552 26:-0.0101787 
1.204215661791029 0.95625735771354 1:-0.137497 2:0.241734 3:-0.255293 4:-0.0647791 5:0.0228618 6:-0.234279 7:-0.185706 8:0.264681 9:-0.269177 10:0.151467 11:-0.215165 12:-0.525839 13:-0.29579 14:0.112673 15:0.0635843 16:-0.0688044 17:-0.0743924 18:0.208567 19:0.64737 20:0.123845 21:-0.0367343 22:0.258186 23:0.181205 24:0.47943 25:0.236572 26:0.00581745 
0.8524901858766297 0.5650279802979006 1:-0.213538 2:0.211003 3:-0.256095 4:-0.222216 5:0.0174484 6:-0.14478 7:0.0191778 8:0.307641 9:-0.279737 10:0.205755 11:-0.0457615 12:-0.00105046 13:0.131062 14:0.178256 15:-0.0455795 16:-0.163024 17:0.175925 18:0.290449 19:0.319806 20:-0.0505907 21:-0.0379537 22:0.158695 23:0.0473741 24:0.284825 25:-0.0202379 26:0.00114379 
0.5569614307678116 0.9197473244915784 1:-0.340599 2:0.208223 3:-0.149744 4:-0.14579 5:0.117762 6:0.0492862 7:0.301831 8:0.361083 9:0.036154 10:0.115634 11:0.206113 12:-0.10163 13:-0.183269 14:0.352108 15:-0.261099 16:-0.236664 17:0.297058 18:0.0177512 19:-0.194769 20:-0.361257 21:0.0969794 22:-0.517661 23:-0.0840028 24:-0.11773 25:-0.0124867 26:0.00972694 
0.526240160564479 0.5638991720695556 1:-0.393628 2:0.154441 3:-0.250623 4:-0.125296 5:0.204867 6:-0.0542745 7:0.339877 8:0.347524 9:-0.141898 10:0.121527 11:0.199389 12:-0.379096 13:-0.106946 14:0.393585 15:-0.241066 16:-0.119515 17:0.0478173 18:-0.260608 19:-0.192752 20:-0.316303 21:0.243491 22:-0.540855 23:0.0923986 24:-0.0941077 25:0.218888 26:0.00268398 
0.4054608405604231 0.24109064438283 1:-0.267598 2:-0.00572226 3:-0.267197 4:0.202844 5:0.0986311 6:0.0494502 7:0.2439 8:0.467153 9:-0.428636 10:-0.00885978 11:0.448244 12:0.0179704 13:0.453489 14:0.237396 15:-0.0214691 16:-0.149831 17:-0.315559 18:-0.251065 19:-0.387427 20:-0.184535 21:0.127067 22:-0.0508848 23:0.506498 24:-0.0812822 25:-0.10912 26:-0.0224361 
0.6246350478012715 0.5034417576126651 1:-0.208538 2:0.0137669 3:-0.203128 4:0.0827237 5:0.0523827 6:0.0811236 7:0.42406 8:0.625168 9:-0.651285 10:-0.016787 11:0.379102 12:-0.199863 13:0.14637 14:0.14796 15:0.0714812 16:-0.241502 17:-0.151745 18:0.0434831 19:-0.387107 20:-0.336586 21:-0.175961 22:0.238927 23:0.386657 24:-0.0568256 25:-0.167782 26:-0.0158212 
0.6019994134209716 0.5970264118336533 1:-0.112098 2:0.00245043 3:-0.331272 4:0.0878055 5:-0.409323 6:-0.398883 7:0.0920607 8:0.735839 9:-0.7296 10:0.575663 11:0.584393 12:-0.302654 13:0.234149 14:0.183104 15:0.319643 16:-0.0565206 17:0.0654654 18:0.605321 19:0.338442 20:-0.198229 21:-0.296384 22:0.371972 23:-0.605989 24:-0.17229 25:0.323108 26:-0.00495705 
0.4768901702450891 0.4486525569808553 1:-0.0484451 2:0.0455117 3:-0.428732 4:0.115374 5:-0.249631 6:-0.397948 7:0.0519165 8:0.618313 9:-0.618084 10:0.510591 11:0.494322 12:-0.599953 13:0.169452 14:0.211407 15:0.228027 16:-0.0225037 17:-0.0629811 18:0.348973 19:0.34014 20:-0.178368 21:-0.0913638 22:0.188847 23:-0.691166 24:-0.165927 25:0.527762 26:-0.00609245 
0.2350562920843913 0.07872956971836295 1:0.231531 2:0.622257 3:-0.372928 4:0.129754 5:-0.166019 6:-0.31927 7:-0.307591 8:0.606742 9:-0.172773 10:0.0757381 11:0.437139 12:-0.227024 13:-0.0890335 14:-0.0308896 15:-0.594486 16:-0.274213 17:-0.277282 18:-0.0582246 19:-0.151024 20:-0.0525684 21:0.267478 22:-0.472511 23:0.366621 24:0.0155088 25:0.0919044 26:0.0171712 
0.09461591035462236 0.1043659427850279 1:0.0807763 2:0.567924 3:-0.397413 4:-0.0220212 5:-0.0980588 6:-0.159956 7:-0.295091 8:0.659237 9:0.0428469 10:0.751101 11:0.540802 12:0.11997 13:0.643679 14:0.196824 15:-0.108088 16:-0.133034 17:-0.120912 18:0.0012252 19:-0.00570541 20:-0.129906 21:0.0421841 22:-0.397141 23:-0.424664 24:-0.0628678 25:-0.00207534 26:-0.0123267 
0.2735879555212278 0.2927422231552338 1:-0.162682 2:0.220872 3:-0.330517 4:-0.0250088 5:-0.0619066 6:-0.037299 7:0.303927 8:0.424638 9:-0.3613 10:0.600806 11:0.414703 12:0.0978322 13:0.0116311 14:0.284487 15:0.248517 16:0.0458853 17:-0.0320046 18:0.194622 19:-0.183029 20:-0.652383 21:-0.000769331 22:0.22831 23:-0.570322 24:-0.168092 25:0.196666 26:0.00756903 
0.5275778592264434 0.2581737820550938 1:-0.02929 2:0.211848 3:-0.468957 4:-0.0825096 5:-0.126112 6:-0.220716 7:0.0543419 8:0.397273 9:-0.506185 10:0.364008 11:0.182094 12:0.175773 13:0.0498476 14:0.183076 15:0.347298 16:0.225667 17:-0.023205 18:0.220967 19:0.00702472 20:-0.637086 21:0.0485289 22:0.381404 23:-0.505653 24:-0.0845406 25:0.115862 26:0.00522643 
0.1870307105137229 0.2543751735397176 1:0.396949 2:0.658175 3:-0.38649 4:-0.0405335 5:-0.146131 6:-0.240592 7:-0.813434 8:0.723322 9:-0.328891 10:0.0370794 11:0.195277 12:0.0599814 13:0.167683 14:-0.124593 15:-0.462412 16:-0.277121 17:-0.165049 18:0.106567 19:-0.0615055 20:0.437479 21:-0.288761 22:-0.0679191 23:0.316797 24:0.0170877 25:0.140686 26:0.00303058 
0 0.06169845860681915 1:0.383069 2:0.615766 3:-0.536904 4:-0.646228 5:-0.161904 6:-0.28433 7:-0.63488 8:0.615036 9:-0.087494 10:0.607578 11:-0.000354254 12:-0.0302276 13:0.391217 14:0.123003 15:-0.109094 16:-0.108279 17:0.249334 18:0.238934 19:0.0387376 20:-0.12279 21:0.0543783 22:-0.0667594 23:-0.307537 24:0.210836 25:0.221193 26:-0.000160565 
0.540752798482147 0.2208540472944866 1:0.373007 2:0.566861 3:-0.512249 4:-0.726224 5:-0.106132 6:-0.172392 7:-0.56012 8:0.659748 9:0.0346989 10:0.657653 11:0.0275916 12:-0.0528138 13:0.321496 14:0.134664 15:-0.0200705 16:-0.102288 17:0.362638 18:0.171531 19:-0.0857655 20:-0.0977339 21:-0.0461843 22:-0.194769 23:-0.264771 24:0.17183 25:0.160694 26:-0.000289118 
0 0.0564085125139456 1:0.352834 2:0.542127 3:-0.559625 4:-0.766693 5:-0.0721419 6:-0.174616 7:-0.585843 8:0.733794 9:0.0596773 10:0.68385 11:0.256869 12:0.0898563 13:0.525116 14:0.141924 15:-0.0226795 16:-0.0775365 17:0.347405 18:0.0517172 19:-0.22773 20:-0.0676839 21:-0.0652362 22:-0.244968 23:-0.0748265 24:0.0259809 25:0.134499 26:-0.0026036 
0.6305564070451856 0.4634144078494716 1:0.339408 2:0.600418 3:-0.511086 4:-0.637544 5:0.0851805 6:-0.185147 7:-0.497625 8:0.735101 9:0.0332151 10:0.557034 11:0.116723 12:0.0949398 13:0.357131 14:0.106764 15:-0.204122 16:-0.101417 17:0.16504 18:-0.171622 19:-0.453566 20:-0.117287 21:0.0749583 22:-0.388465 23:0.190051 24:0.0802502 25:0.229492 26:-0.00674187 
0.05388075050787379 0.121288560191837 1:0.33909 2:0.594772 3:-0.501819 4:-0.620828 5:0.0547701 6:-0.231704 7:-0.450332 8:0.726693 9:0.0893494 10:0.656716 11:0.17635 12:0.212571 13:0.478454 14:0.0679889 15:-0.200974 16:-0.0898331 17:0.136602 18:-0.169803 19:-0.31387 20:-0.123648 21:0.144228 22:-0.490035 23:0.169956 24:0.0694376 25:0.114367 26:-0.0122667 
0.194937650133502 0.2513916069390692 1:0.319233 2:0.547716 3:-0.513357 4:-0.524683 5:0.0191279 6:-0.392125 7:-0.43842 8:0.798087 9:-0.0139755 10:0.731278 11:0.324707 12:0.315204 13:0.592623 14:0.0381083 15:-0.127207 16:-0.0621974 17:0.110918 18:-0.0903467 19:0.0345518 20:-0.0730047 21:-0.00552139 22:-0.427928 23:0.061702 24:-0.0405423 25:-0.118607 26:-0.0155942 
0.6480351485330119 0.6164480764732809 1:0.237912 2:0.568785 3:-0.452744 4:-0.309895 5:-0.0569389 6:-0.710253 7:-0.412658 8:0.922697 9:-0.432136 10:0.791546 11:0.412969 12:0.496566 13:0.210629 14:0.0673642 15:-0.167981 16:-0.00848412 17:-0.00273596 18:0.149166 19:0.684599 20:0.0725245 21:-0.471621 22:0.241178 23:-0.0614739 24:-0.215705 25:-0.254414 26:-0.00351585 
0.7310688597559223 0.669899546032042 1:0.183039 2:0.596191 3:-0.390559 4:-0.195799 5:-0.156599 6:-0.620204 7:-0.369538 8:0.944248 9:-0.644405 10:0.950886 11:0.348626 12:0.332101 13:0.282706 14:0.117454 15:-0.266548 16:-0.0799712 17:-0.16464 18:0.201693 19:0.4757 20:0.014758 21:-0.409569 22:0.422001 23:-0.0697713 24:-0.152906 25:0.134555 26:0.00441747 
0.3292484312773011 0.3723193692839323 1:0.107998 2:0.616542 3:-0.371363 4:-0.0559372 5:-0.116936 6:-0.444014 7:-0.246739 8:0.635016 9:-0.599434 10:0.781868 11:0.376489 12:0.0585006 13:0.104872 14:0.177238 15:-0.288615 16:-0.164098 17:-0.300482 18:0.190405 19:0.0715259 20:-0.127785 21:-0.0105857 22:0.269474 23:-0.00318724 24:-0.11038 25:0.535907 26:0.00973103 
0 0.02164661230645553 1:0.0513506 2:0.551076 3:-0.288928 4:0.068046 5:-0.0804489 6:-0.254477 7:-0.160694 8:0.44848 9:-0.328363 10:0.798154 11:0.297807 12:0.137258 13:0.000362528 14:0.213019 15:-0.183679 16:-0.248217 17:-0.349048 18:0.185586 19:-0.192824 20:-0.229082 21:0.357163 22:-0.0791723 23:-0.0632199 24:-0.064909 25:0.567774 26:0.00713132 
0 0.08753957642112838 1:0.0277619 2:0.512476 3:-0.200681 4:0.0106569 5:-0.110277 6:-0.192825 7:-0.0782033 8:0.465979 9:-0.336801 10:0.953979 11:0.277117 12:0.264142 13:0.130564 14:0.207639 15:-0.0593884 16:-0.278113 17:-0.232091 18:0.218838 19:-0.190398 20:-0.19032 21:0.484949 22:-0.354087 23:-0.181561 24:-0.00694199 25:0.246238 26:-3.73287e-05 
0.3234075670923629 0.3108316481887867 1:-0.0121301 2:0.486283 3:-0.263965 4:-0.0565421 5:-0.142417 6:-0.296865 7:-0.135138 8:0.408844 9:-0.334164 10:0.976825 11:0.220456 12:0.565268 13:0.24127 14:0.194737 15:-0.0172947 16:-0.217457 17:-0.0462523 18:0.213015 19:-0.0425518 20:-0.0429439 21:0.371294 22:-0.445504 23:-0.200161 24:0.0528156 25:-0.254197 26:-0.00429393 
0.4817004536658099 0.5304821800169237 1:-0.0599252 2:0.59325 3:-0.222414 4:-0.0187171 5:0.107973 6:0.026325 7:0.111666 8:0.579358 9:-0.637214 10:0.693434 11:0.209713 12:0.354216 13:0.130379 14:0.281299 15:-0.340294 16:-0.0321271 17:0.0289875 18:-0.445385 19:-0.411287 20:-0.0743779 21:-0.244625 22:-0.022989 23:0.301658 24:-0.242749 25:0.12803 26:0.00263704 
0.4667402314672905 0.2532729071271592 1:-0.0500378 2:0.574736 3:-0.244229 4:0.0291227 5:0.0753123 6:0.00984622 7:0.168709 8:0.475542 9:-0.554847 10:0.766215 11:0.173655 12:0.159568 13:0.254195 14:0.312662 15:-0.386562 16:0.00787428 17:-0.0177454 18:-0.447258 19:-0.363754 20:-0.179418 21:-0.267181 22:-0.0881267 23:0.160365 24:-0.203232 25:0.41678 26:-0.00542708 
0.006032604129723574 0 1:0.15798 2:0.398473 3:-0.0718043 4:0.0589434 5:-0.40719 6:-0.191308 7:0.337369 8:0.179599 9:-0.667657 10:0.837098 11:-0.23544 12:0.326657 13:0.251322 14:0.0448953 15:-0.00793459 16:-0.34941 17:0.0593806 18:0.549857 19:0.0360177 20:-0.263172 21:0.383715 22:-0.0572793 23:-0.356751 24:0.522705 25:-0.135266 26:-0.00638985 
1.079032750009738 0.9436653657728855 1:0.213915 2:0.359597 3:-0.039534 4:0.0972804 5:-0.457633 6:-0.225605 7:0.366658 8:0.240447 9:-0.75803 10:0.815306 11:-0.161128 12:0.288334 13:0.196724 14:-0.0551817 15:0.0383281 16:-0.420158 17:0.00791534 18:0.593029 19:0.0877873 20:-0.265304 21:0.458938 22:0.169879 23:-0.421617 24:0.494584 25:-0.101876 26:-0.00660616 
0.1402619204275958 0.1256003095514829 1:0.2562 2:0.377404 3:-0.0780595 4:0.151691 5:-0.40804 6:-0.233053 7:0.2985 8:0.330366 9:-0.807244 10:0.703698 11:-0.0513492 12:0.209271 13:0.196872 14:-0.0811515 15:-0.0291509 16:-0.309322 17:-0.112748 18:0.432513 19:0.15487 20:-0.252815 21:0.408208 22:0.290022 23:-0.389469 24:0.295127 25:0.16905 26:-0.0117121 
0.09355081386361226 0 1:0.144793 2:0.402821 3:-0.244863 4:0.135543 5:-0.21666 6:-0.16275 7:0.167906 8:0.633917 9:-0.398097 10:0.0035008 11:0.635521 12:0.175295 13:-0.160089 14:0.184469 15:-0.191884 16:0.00944243 17:0.0142944 18:0.160714 19:0.104406 20:-0.253337 21:-0.0628462 22:-0.124132 23:0.553943 24:-0.631677 25:0.287019 26:0.0123379 
0.5622193625651626 0.5140092524208736 1:0.154607 2:0.415453 3:-0.198481 4:0.11018 5:-0.118592 6:-0.0425326 7:-0.0274002 8:0.702812 9:-0.246483 10:-0.146593 11:0.59909 12:0.320648 13:-0.192716 14:0.262985 15:-0.131987 16:-0.186497 17:0.106423 18:0.0325197 19:-0.109237 20:-0.0147933 21:-0.373579 22:-0.243721 23:0.721446 24:-0.714223 25:0.0406577 26:0.0154275 
0.8534006977534796 0.6571850764969844 1:0.132555 2:0.380494 3:-0.139568 4:0.13719 5:0.0786425 6:0.0246899 7:-0.310196 8:0.851567 9:-0.151354 10:-0.139915 11:0.520954 12:0.375051 13:-0.155612 14:0.304198 15:-0.0902068 16:-0.357874 17:0.0351949 18:-0.150474 19:-0.278006 20:0.218816 21:-0.652684 22:-0.227552 23:0.569771 24:-0.582422 25:-0.0815905 26:0.00432399 
0.2430483574984369 0.1365230052715818 1:0.134815 2:0.399725 3:-0.178629 4:0.224605 5:0.140511 6:0.0656103 7:-0.290409 8:0.860733 9:-0.125832 10:-0.0241283 11:0.31309 12:0.421143 13:0.0510533 14:0.275314 15:-0.0989322 16:-0.341791 17:-0.140909 18:-0.193336 19:-0.331925 20:0.237258 21:-0.66596 22:-0.156833 23:0.208936 24:-0.249453 25:-0.0981933 26:-0.0135457 
0.598555534033926 0.3709937015024494 1:0.328342 2:0.447568 3:-0.419444 4:0.0831518 5:0.130059 6:0.00531619 7:-0.324439 8:0.304422 9:0.228042 10:0.128367 11:-0.311567 12:0.466158 13:-0.248963 14:-0.0516096 15:-0.0713951 16:0.0265313 17:0.0077233 18:0.142916 19:-0.000184326 20:0.0265166 21:0.334729 22:-0.264134 23:-0.156552 24:0.497336 25:-0.17153 26:0.00846799 
0 0.1382529489873721 1:0.32541 2:0.515113 3:-0.423675 4:0.0338415 5:0.216588 6:-0.00940731 7:-0.267017 8:0.189895 9:0.290488 10:0.103634 11:-0.234059 12:0.295606 13:-0.246025 14:-0.0374193 15:-0.0965115 16:-0.019555 17:0.180159 18:0.0523237 19:0.0236707 20:-0.0125993 21:0.563452 22:-0.319469 23:-0.0637134 24:0.354933 25:0.0907021 26:0.0140121 
0.6963560522494254 0.1203535510096664 1:0.277314 2:0.584231 3:-0.480811 4:-0.00301558 5:0.180013 6:-0.0653099 7:-0.201814 8:0.0203371 9:0.298614 10:0.103552 11:-0.224109 12:0.0621565 13:-0.205735 14:0.0545502 15:-0.196802 16:-0.012123 17:0.268383 18:-0.0513559 19:-0.0398972 20:-0.0661051 21:0.654499 22:-0.320963 23:-0.111369 24:0.212758 25:0.397608 26:0.00688178 
0.6374529874548549 0.9406275600612125 1:0.245323 2:0.641982 3:-0.473618 4:0.0216396 5:0.237203 6:0.0056656 7:-0.134123 8:0.0678362 9:0.350561 10:0.060404 11:-0.148616 12:0.0643924 13:-0.154047 14:0.134702 15:-0.343673 16:0.0367377 17:0.266095 18:-0.237735 19:-0.0905391 20:-0.0812283 21:0.518426 22:-0.32385 23:-0.195187 24:0.127073 25:0.555166 26:-0.00409204 
0.3297186576737955 0.04695534147872824 1:0.223529 2:0.666625 3:-0.478273 4:0.0520095 5:0.290329 6:0.0490886 7:-0.136374 8:0.248323 9:0.30034 10:0.0557292 11:-0.0524622 12:0.0222825 13:0.00154074 14:0.166801 15:-0.456188 16:0.122517 17:0.148819 18:-0.399181 19:0.0321105 20:0.0356439 21:0.138869 22:-0.263536 23:-0.0893215 24:0.130831 25:0.487056 26:-0.00728053 
0.3506202456141879 0 1:0.199706 2:0.71812 3:-0.502891 4:0.172102 5:0.161963 6:-0.124888 7:-0.188337 8:0.304403 9:0.258198 10:-0.0221998 11:-0.0740139 12:0.275071 13:-0.00250474 14:0.155741 15:-0.42942 16:0.152238 17:-0.0537534 18:-0.399396 19:0.30043 20:0.214965 21:-0.262419 22:-0.185232 23:0.198295 24:0.0620457 25:0.160781 26:-0.00359327 
0.4904174807319783 0.08995194212223126 1:0.202389 2:0.636434 3:-0.375122 4:0.249232 5:0.10176 6:-0.171218 7:-0.0283993 8:0.418332 9:0.196112 10:-0.303988 11:0.142021 12:0.278904 13:-0.10385 14:0.112348 15:-0.218422 16:0.000288165 17:-0.236937 18:-0.198593 19:0.327513 20:0.203658 21:-0.469702 22:-0.165303 23:0.528107 24:-0.109329 25:-0.0720695 26:0.00135651 
0.4405744847539805 0.3394402692480071 1:0.174139 2:0.537595 3:-0.294233 4:0.3495 5:-0.149898 6:0.0491882 7:0.0771597 8:0.481337 9:0.131585 10:-0.302067 11:0.309896 12:0.43255 13:-0.0447969 14:0.0881553 15:0.0362032 16:-0.201796 17:-0.354687 18:0.247129 19:0.0511818 20:0.00243027 21:-0.312225 22:-0.229521 23:0.57394 24:-0.14892 25:-0.253959 26:-0.00255533 
0.60085753291663 0.3906669512695438 1:0.168661 2:0.451261 3:-0.167261 4:0.269941 5:-0.382955 6:0.222954 7:0.299637 8:0.201199 9:0.0983052 10:-0.028393 11:0.419451 12:0.411249 13:0.188523 14:0.0820454 15:0.172597 16:-0.415728 17:-0.322563 18:0.653062 19:-0.323304 20:-0.351698 21:0.15891 22:-0.297048 23:0.28465 24:-0.0664085 25:-0.237257 26:-0.0122134 
0.5702734390288391 0.4540616337291543 1:0.126404 2:0.554356 3:-0.115132 4:0.235374 5:-0.479806 6:0.317416 7:0.511436 8:0.0833408 9:0.119645 10:0.108677 11:0.175011 12:0.295653 13:0.175972 14:0.110868 15:0.0537185 16:-0.4872 17:-0.208556 18:0.779356 19:-0.51496 20:-0.590184 21:0.476541 22:-0.277574 23:-0.0458503 24:0.0569808 25:-0.00111566 26:-0.0144263 
0.2364591755480309 0 1:-0.286349 2:0.560698 3:-0.121522 4:0.0245342 5:0.0546822 6:0.106453 7:0.478033 8:0.346312 9:0.0859814 10:0.350909 11:0.394226 12:-0.034572 13:0.500371 14:0.402372 15:-0.450534 16:-0.329266 17:-0.0592367 18:-0.154558 19:-0.0905928 20:-0.279849 21:0.0858023 22:-0.353228 23:0.370023 24:-0.355038 25:0.0220706 26:-0.0171661 
0.2540657108500209 0.05402420774765897 1:-0.0265115 2:0.213933 3:-0.420939 4:0.0190894 5:-0.227761 6:0.139111 7:0.505637 8:0.435432 9:-0.210159 10:0.764317 11:-0.0859052 12:-0.196002 13:0.116898 14:0.125389 15:0.241749 16:0.278341 17:0.247144 18:0.13476 19:-0.00837307 20:-0.187594 21:-0.135638 22:-0.116318 23:-0.257044 24:0.294951 25:0.276864 26:0.0190499 
0.9447834990525062 0.8867269368307101 1:0.0830899 2:0.211021 3:-0.453922 4:0.00603116 5:-0.408747 6:0.136414 7:0.607061 8:0.394735 9:-0.430027 10:1 11:-0.0484498 12:-0.330763 13:0.253396 14:-0.0167348 15:0.216606 16:0.414241 17:0.238375 18:0.347746 19:0.0450584 20:-0.466047 21:-0.0404728 22:0.281328 23:-0.725319 24:0.172588 25:0.401984 26:-0.00272663 
0.6405816624965175 0.6046094749376816 1:0.0669244 2:0.313202 3:-0.295698 4:0.127827 5:-0.307729 6:-0.0276184 7:0.488926 8:0.280655 9:-0.563357 10:0.981676 11:0.0058389 12:-0.444393 13:0.452803 14:-0.0228616 15:-0.0413728 16:0.1872 17:0.00848737 18:0.228259 19:0.108818 20:-0.429485 21:0.0561542 22:0.436622 23:-0.76077 24:-0.0325136 25:0.462988 26:-0.0246901 
0.3155566710241406 0.1511973787032521 1:0.113919 2:0.45862 3:-0.101959 4:0.382941 5:-0.378054 6:0.144613 7:0.31527 8:0.265713 9:-0.417394 10:0.757194 11:0.053693 12:-0.305418 13:0.550823 14:0.0132558 15:-0.320439 16:-0.162534 17:-0.257253 18:0.0565977 19:-0.00875478 20:-0.1381 21:0.0681757 22:0.285211 23:-0.363888 24:-0.143372 25:0.289781 26:-0.0293271 
0.3013135116460765 0 1:0.19867 2:0.427303 3:-0.0871779 4:0.414819 5:-0.388837 6:0.228746 7:0.282671 8:0.363621 9:-0.331312 10:0.595323 11:-0.0109693 12:-0.126762 13:0.29911 14:0.0414756 15:-0.371597 16:-0.367618 17:-0.308965 18:0.0173779 19:-0.114062 20:0.0353739 21:-0.0124262 22:0.0388843 23:0.088885 24:-0.0671406 25:0.0723598 26:-0.013077 
0.2776095486502052 0 1:0.20336 2:0.493572 3:-0.117558 4:0.199978 5:-0.692811 6:0.0962692 7:0.129621 8:0.0409791 9:-0.203596 10:0.311634 11:0.137923 12:0.0348391 13:0.261869 14:0.0706603 15:-0.228231 16:-0.104376 17:-0.0672436 18:0.177901 19:-0.201025 20:0.0863635 21:0.418483 22:-0.274848 23:0.286537 24:0.151298 25:-0.204025 26:-0.00236909 
0.4345449703525739 0.3834719969122194 1:0.12598 2:0.523534 3:-0.155809 4:0.0464902 5:-0.652257 6:-0.116409 7:0.310901 8:0.30374 9:-0.546313 10:0.700792 11:0.614743 12:-0.351568 13:0.48532 14:0.111276 15:-0.166915 16:-0.150452 17:0.173719 18:0.453553 19:0.267542 20:-0.32939 21:-0.145257 22:0.185239 23:-0.555202 24:-0.292852 25:0.437252 26:-0.0199959 
0.7146976109183658 0.6427835884406989 1:0.0840326 2:0.554827 3:-0.210074 4:0.00821839 5:-0.460531 6:-0.181485 7:0.341601 8:0.486905 9:-0.521862 10:0.543889 11:0.889528 12:-0.250096 13:0.448628 14:0.141657 15:-0.181629 16:-0.038011 17:0.210852 18:0.112059 19:0.316773 20:-0.213887 21:-0.371556 22:0.306171 23:-0.329008 24:-0.629507 25:0.316182 26:-0.0147801 
0.1983449746697862 0 1:0.0348665 2:0.575483 3:-0.199786 4:0.0461644 5:-0.288743 6:-0.0717433 7:0.230245 8:0.372389 9:-0.486408 10:0.323381 11:0.814557 12:-0.135908 13:0.256406 14:0.176656 15:-0.191328 16:-0.0262565 17:0.127401 18:-0.19273 19:0.11265 20:-0.0442972 21:-0.272171 22:0.284885 23:0.162296 24:-0.57002 25:0.12125 26:-0.00328605 
0.772479159109564 0.8097185252836726 1:-0.0422358 2:0.610034 3:-0.16413 4:0.032222 5:-0.0493826 6:-0.0651674 7:0.0167896 8:0.189738 9:0.10345 10:0.215688 11:0.390935 12:0.354886 13:0.257161 14:0.282592 15:-0.0467952 16:-0.292246 17:-0.110321 18:-0.0383882 19:0.0865623 20:-0.331952 21:0.111598 22:-0.272115 23:-0.212273 24:0.0027962 25:-0.305843 26:-0.877501 
0.6423834122505041 0.5182332586857682 1:0.202084 2:0.709424 3:-0.373725 4:-0.0392863 5:-0.0121114 6:0.00542653 7:-0.490944 8:0.287984 9:0.0448725 10:-0.136189 11:0.35561 12:-0.342664 13:0.36216 14:-0.0358093 15:-0.132509 16:0.0867176 17:-0.116426 18:-0.205912 19:0.110487 20:0.783823 21:-0.0504514 22:-0.300742 23:0.356613 24:0.140133 25:0.568185 26:-0.00971497 
0.2878058970983241 0.1436955657225219 1:0.212029 2:0.772844 3:-0.380354 4:-0.155405 5:-0.0780102 6:0.184994 7:-0.491728 8:0.130162 9:0.0696256 10:-0.028618 11:0.437038 12:-0.383228 13:0.218099 14:-0.0777995 15:-0.241534 16:0.135183 17:0.0207502 18:-0.0871792 19:-0.184958 20:0.631962 21:0.242252 22:-0.261195 23:0.00700761 24:-0.0530749 25:0.617556 26:0.00159869 
0.1049852817339744 0.1711393435565077 1:0.195324 2:0.836851 3:-0.357816 4:-0.31356 5:-0.147774 6:0.305539 7:-0.296306 8:0.0503664 9:0.0226052 10:0.0536812 11:0.536606 12:-0.286039 13:0.0907226 14:-0.078172 15:-0.358159 16:0.0663048 17:0.168481 18:0.132388 19:-0.436963 20:0.198104 21:0.413459 22:-0.103742 23:-0.259207 24:-0.359396 25:0.380603 26:0.0101064 
0.6659049139454416 0.5898041398343625 1:0.150096 2:0.86892 3:-0.266173 4:-0.265769 5:-0.374882 6:0.293065 7:0.313625 8:0.28592 9:-0.298926 10:-0.141063 11:0.606552 12:-0.192324 13:0.293807 14:-0.0363442 15:-0.472267 16:-0.174209 17:0.135703 18:0.580211 19:-0.321388 20:-0.595431 21:0.0541533 22:0.237329 23:0.180462 24:-0.438237 25:-0.0472823 26:-0.00765954 
0.1950796689652359 0.0736320402437208 1:0.0421648 2:0.821571 3:-0.141155 4:-0.270579 5:-0.398886 6:0.222708 7:0.242274 8:0.354057 9:-0.0269801 10:-0.267738 11:0.230456 12:-0.0694553 13:0.357307 14:0.0416737 15:-0.416563 16:-0.29031 17:0.092253 18:0.54363 19:-0.194247 20:-0.624904 21:-0.264966 22:0.00924303 23:0.41267 24:-0.047943 25:-0.146336 26:-0.0143363 
0.08591027586795079 0.5858280968371677 1:-0.0668835 2:0.706494 3:-0.18748 4:-0.295222 5:-0.239957 6:0.141563 7:0.339602 8:0.308191 9:-0.0793475 10:-0.217968 11:-0.0330009 12:-0.108927 13:0.292645 14:0.1415 15:-0.248834 16:-0.233997 17:0.0663643 18:0.271606 19:-0.0370119 20:-0.47895 21:-0.388373 22:-0.197677 23:0.386185 24:0.337785 25:-0.046015 26:-0.0122857 
0.1151378750448908 0 1:-0.150574 2:0.634567 3:-0.185646 4:-0.291343 5:-0.0400075 6:0.169838 7:0.378099 8:0.465145 9:0.100861 10:-0.0029642 11:-0.00985629 12:-0.162856 13:0.0803521 14:0.262814 15:-0.0572958 16:-0.14544 17:0.00599248 18:-0.098919 19:0.0879687 20:-0.241953 21:-0.260046 22:-0.351338 23:0.173855 24:0.529779 25:0.187219 26:-0.0037432 
0 0.344720757511598 1:-0.318553 2:0.513769 3:-0.0942018 4:-0.19296 5:0.0533832 6:0.141012 7:0.198311 8:0.0701392 9:-0.0178421 10:0.189395 11:0.141445 12:-0.114779 13:0.0174755 14:0.454227 15:0.135388 16:-0.165065 17:-0.149056 18:-0.280556 19:0.0450163 20:0.0476771 21:0.385459 22:-0.150679 23:-0.208124 24:-0.106621 25:0.26955 26:0.00510462 
0.5178536132511995 0 1:-0.204085 2:0.561513 3:-0.11698 4:-0.255202 5:-0.0833669 6:0.206847 7:0.20938 8:0.387369 9:-0.00131604 10:0.328677 11:0.411185 12:0.0996945 13:0.04146 14:0.352091 15:0.114979 16:-0.100998 17:-0.129141 18:-0.193336 19:-0.142137 20:-0.0355734 21:0.0103467 22:-0.142674 23:-0.401384 24:-0.353698 25:-0.0276099 26:-0.0019955 
0.6314549640536304 0 1:-0.137604 2:0.486628 3:-0.208294 4:-0.168268 5:-0.12823 6:0.239765 7:0.17825 8:0.465941 9:-0.122886 10:0.266464 11:0.434023 12:0.227402 13:0.301283 14:0.217366 15:0.0325399 16:-0.0113524 17:-0.136014 18:-0.107181 19:-0.205858 20:-0.0680521 21:-0.283615 22:-0.151039 23:-0.428125 24:-0.335491 25:-0.24889 26:-0.00848824 
1.311787185997788 0.8729614139963322 1:-0.0263135 2:0.646532 3:-0.112756 4:-0.226351 5:-0.19164 6:0.161731 7:0.107475 8:0.291961 9:-0.0981422 10:0.212546 11:0.208437 12:0.138631 13:0.267367 14:0.0769175 15:-0.213239 16:-0.0804041 17:-0.0697262 18:0.101657 19:-0.143341 20:-0.0458084 21:-0.256941 22:-0.156731 23:-0.196858 24:-0.102001 25:-0.251814 26:-0.00698947 
0.7296848668301545 0.5094059171318719 1:0.154644 2:0.780001 3:-0.0140054 4:-0.383117 5:-0.458686 6:0.262338 7:0.280633 8:0.262937 9:-0.238299 10:-0.125902 11:0.306173 12:-0.00343945 13:0.257057 14:-0.035386 15:-0.339068 16:-0.453478 17:0.187203 18:0.538454 19:-0.372318 20:-0.27006 21:0.0561315 22:-0.174018 23:0.551014 24:-0.227136 25:0.29125 26:-0.00743373 
0.4278805749866715 0.03151842051713443 1:0.119945 2:0.752952 3:-0.352858 4:-0.260783 5:-0.0784109 6:-0.195308 7:0.146728 8:0.140884 9:-0.415428 10:0.351837 11:-0.142571 12:0.116054 13:-0.0155722 14:0.182493 15:-0.222147 16:0.0571639 17:-0.0474822 18:-0.210899 19:0.185016 20:-0.0328715 21:0.221632 22:0.124901 23:-0.164254 24:0.304883 25:0.0607634 26:0.00740438 
0.002181050382544597 0.14242894553753 1:0.274509 2:0.519817 3:-0.4012 4:-0.284561 5:-0.239914 6:-0.166929 7:-0.372202 8:0.503342 9:-0.049855 10:0.533672 11:-0.0779383 12:0.467148 13:0.188308 14:-0.0285973 15:-0.110804 16:-0.148147 17:0.238964 18:0.467719 19:-0.139301 20:-0.000888337 21:0.0386707 22:-0.42396 23:0.0555398 24:0.279038 25:-0.258552 26:0.00327265 
0.2644844987205714 0.1826016906857497 1:0.250324 2:0.557797 3:-0.345898 4:-0.322033 5:-0.0705992 6:-0.383236 7:-0.397906 8:0.877057 9:-0.0905839 10:0.324995 11:0.121934 12:0.356981 13:0.318593 14:-0.0777149 15:-0.356346 16:-0.0608544 17:0.319498 18:0.00322811 19:0.428864 20:0.222805 21:-0.677003 22:-0.177726 23:0.339075 24:0.0610155 25:0.0880722 26:-0.0131147 
0.5318504672220994 0.5488800196461097 1:0.218589 2:0.541467 3:-0.331646 4:-0.29521 5:-0.00645719 6:-0.437042 7:-0.491982 8:0.895086 9:-0.212261 10:0.34738 11:0.215534 12:0.155255 13:0.434017 14:-0.0465646 15:-0.36448 16:-0.0361212 17:0.162622 18:-0.0615956 19:0.537587 20:0.244761 21:-0.736473 22:-0.0674003 23:0.183562 24:-0.193688 25:0.349624 26:-0.0195398 
0 0.1621957927253753 1:0.0339195 2:0.48985 3:-0.167896 4:-0.225087 5:-0.048447 6:-0.304129 7:-0.228987 8:0.62924 9:-0.242708 10:0.496602 11:0.343626 12:0.438486 13:0.196125 14:0.162554 15:-0.419108 16:-0.0883621 17:-0.119343 18:-0.0855887 19:0.0903127 20:-0.264414 21:-0.131868 22:-0.0373089 23:-0.198136 24:-0.152874 25:0.203919 26:0.00185836 
0.1779049381704877 0.02576554841002373 1:-0.0775328 2:0.37498 3:-0.139892 4:-0.169003 5:0.0499218 6:-0.11152 7:-0.110851 8:0.431266 9:-0.303744 10:0.478067 11:0.204555 12:0.241989 13:0.182947 14:0.273069 15:-0.424256 16:-0.119621 17:-0.120781 18:-0.256119 19:-0.334393 20:-0.337307 21:0.408784 22:-0.0370615 23:-0.113461 24:0.0506474 25:0.140783 26:0.01189 
0.4267373537296791 0.07943751599725576 1:-0.13121 2:0.351153 3:-0.142064 4:-0.135841 5:0.05917 6:0.0309868 7:-0.110096 8:0.218138 9:-0.241435 10:0.263574 11:0.122607 12:0.471163 13:0.0464914 14:0.31141 15:-0.376341 16:-0.176348 17:-0.0733064 18:-0.285354 19:-0.492565 20:-0.165932 21:0.811662 22:-0.150658 23:0.0833992 24:0.172518 25:-0.103206 26:0.00886889 
0.7361978795536804 0.79143712778066 1:-0.128705 2:0.155975 3:0.0128277 4:-0.267041 5:-0.10224 6:0.00580352 7:-0.32201 8:0.123983 9:-0.199827 10:0.317757 11:0.285458 12:0.5142 13:0.245464 14:0.283842 15:-0.160778 16:-0.29293 17:0.0251165 18:-0.130526 19:-0.281185 20:0.0668631 21:0.854438 22:-0.157274 23:0.136953 24:0.117818 25:-0.227963 26:-0.00904479 
1.085656943876858 0.6543689050581701 1:-0.150113 2:-0.0487386 3:0.0418823 4:-0.215083 5:-0.288267 6:-0.188886 7:-0.370439 8:0.319307 9:-0.343609 10:0.329227 11:0.337345 12:0.491387 13:0.534371 14:0.243764 15:0.0811964 16:-0.35825 17:0.0304903 18:0.120633 19:0.0247317 20:0.0480208 21:0.483205 22:-0.100234 23:0.0250221 24:0.0473396 25:-0.186196 26:-0.0230211 
0.3699395321825715 0 1:-0.163561 2:-0.133412 3:0.0678129 4:-0.110813 5:-0.323069 6:-0.19402 7:0.029563 8:0.621854 9:-0.178797 10:0.369226 11:0.365836 12:0.472676 13:0.261808 14:0.208761 15:0.236628 16:-0.397634 17:0.0176677 18:0.29173 19:0.0923998 20:-0.2613 21:-0.0363156 22:-0.138451 23:-0.183645 24:0.0378661 25:-0.17257 26:-0.0136275 
0.1172031490551426 0 1:-0.13277 2:-0.216805 3:-0.00569809 4:-0.150072 5:-0.392167 6:-0.004576 7:0.069192 8:0.637099 9:-0.40011 10:0.291883 11:0.321768 12:0.216519 13:0.070822 14:0.183057 15:0.328024 16:-0.334794 17:0.0877176 18:0.347787 19:-0.0830296 20:-0.334791 21:-0.357163 22:-0.105527 23:-0.272479 24:0.0502734 25:-0.0556747 26:6.85212e-05 
0.2372682651771614 0 1:-0.104092 2:-0.172949 3:-0.0020169 4:-0.183662 5:-0.463285 6:0.0690384 7:-0.197281 8:0.724477 9:-0.174825 10:0.306615 11:0.447691 12:0.138238 13:0.0183379 14:0.192194 15:0.346136 16:-0.252513 17:0.133554 18:0.313457 19:-0.262447 20:-0.120651 21:-0.454978 22:-0.145159 23:-0.206355 24:-0.0230171 25:0.0789844 26:0.00820413 
0.359078256764051 0.4024726397661674 1:-0.0966126 2:-0.160185 3:-0.0791174 4:-0.129028 5:-0.45165 6:-0.134489 7:-0.240471 8:0.773336 9:-0.273835 10:0.104452 11:0.607382 12:0.259562 13:0.0838153 14:0.243507 15:0.381371 16:-0.179276 17:0.0830269 18:0.257845 19:-0.211692 20:0.0515895 21:-0.406603 22:-0.0434869 23:0.0120352 24:-0.211859 25:0.22746 26:0.0031891 
1.04451895920185 0.2559368152671448 1:-0.0822463 2:-0.0812789 3:-0.150724 4:0.00516558 5:-0.397386 6:-0.117623 7:-0.192806 8:0.694252 9:-0.329202 10:-0.0651654 11:0.641852 12:-0.165611 13:0.178446 14:0.298823 15:0.27104 16:-0.151239 17:-0.0622555 18:0.173551 19:-0.134497 20:0.040437 21:-0.281678 22:0.125537 23:0.235907 24:-0.346712 25:0.541604 26:-0.0090629 
0.2803556044019588 0 1:-0.0314444 2:0.101489 3:-0.208672 4:0.11435 5:-0.384685 6:-0.0732466 7:-0.00844182 8:0.576858 9:-0.365399 10:-0.0908239 11:0.562032 12:-0.382122 13:0.0496965 14:0.286012 15:-0.0705775 16:-0.156901 17:-0.206676 18:0.0980052 19:-0.078031 20:-0.149817 21:-0.10703 22:0.181322 23:0.28872 24:-0.314957 25:0.64769 26:-0.0119043 
0.01280678820849708 0 1:0.0754387 2:0.407428 3:-0.24819 4:0.0866793 5:-0.381903 6:-0.204319 7:-0.0305308 8:0.554285 9:-0.149736 10:-0.144109 11:0.5809 12:0.0468085 13:0.0245365 14:0.183065 15:-0.504403 16:-0.133906 17:-0.209128 18:0.0637468 19:-0.0272411 20:-0.204104 21:0.0660596 22:0.0776724 23:0.221318 24:-0.198045 25:0.387795 26:-0.0109592 
0.2406677160926643 0 1:0.294207 2:0.586316 3:-0.431961 4:0.122624 5:-0.326327 6:-0.287486 7:-0.173274 8:0.293116 9:0.112482 10:-0.0819899 11:0.246201 12:0.130821 13:-0.14174 14:-0.0414519 15:-0.689034 16:0.0368047 17:-0.147602 18:0.0747196 19:0.0670629 20:-0.037907 21:0.298007 22:-0.367058 23:-0.0347313 24:0.107357 25:-0.0457226 26:-0.00474668 
0.04070342084860361 0 1:0.350671 2:0.469723 3:-0.424162 4:-0.0711081 5:-0.217265 6:-0.292161 7:-0.127709 8:0.386327 9:0.127824 10:-0.163956 11:0.168074 12:0.354827 13:-0.443685 14:-0.0659996 15:-0.220619 16:-0.0451414 17:0.236095 18:0.0273534 19:-0.139271 20:0.0876983 21:0.00188582 22:-0.288304 23:0.337266 24:0.0611548 25:-0.0464288 26:0.0180149 
0.7927958874620493 0.7571476987892659 1:0.107451 2:0.336719 3:-0.298048 4:0.132323 5:-0.143984 6:-0.370685 7:0.0523358 8:0.425812 9:-0.206492 10:0.218938 11:0.118821 12:0.275714 13:-0.015369 14:0.127996 15:-0.0232497 16:-0.121072 17:-0.217374 18:0.0588109 19:0.0417826 20:-0.16336 21:-0.261564 22:0.169106 23:-0.238503 24:0.0411068 25:0.165248 26:-0.882256 
0.2976487314572813 0.0926107958680444 1:-0.237079 2:0.424075 3:-0.074336 4:0.0443123 5:0.106099 6:-0.114273 7:0.421572 8:0.0854209 9:-0.172663 10:-0.189826 11:0.0163434 12:0.12742 13:0.0818571 14:0.437568 15:-0.168215 16:-0.284318 17:-0.291395 18:-0.307958 19:-0.191678 20:-0.575163 21:0.116241 22:0.17493 23:0.316522 24:0.152299 25:0.3329 26:0.00606126 
0.2189062998301015 0 1:-0.208319 2:0.349982 3:-0.127086 4:-0.118911 5:-0.141688 6:-0.178174 7:0.397024 8:0.279405 9:0.028054 10:-0.0496063 11:0.0343551 12:0.0849386 13:0.185636 14:0.46645 15:0.047387 16:-0.274172 17:0.00147749 18:0.22927 19:-0.238383 20:-0.735555 21:-0.0783898 22:0.031873 23:0.0434554 24:0.306947 25:0.21688 26:0.00418368 
1.116315320421666 0.9756310014724763 1:-0.0998237 2:0.294804 3:-0.259155 4:-0.358592 5:-0.578156 6:-0.111401 7:0.260807 8:0.102401 9:0.224063 10:0.139252 11:-0.198457 12:0.281552 13:0.0926204 14:0.407874 15:0.144894 16:-0.195302 17:0.344537 18:0.640554 19:-0.239269 20:-0.611065 21:0.048098 22:-0.235089 23:-0.298394 24:0.465934 25:0.0167847 26:0.000346594 
0.6434909071672794 0.0720516980030861 1:-0.0526743 2:0.303139 3:-0.227439 4:-0.283202 5:-0.382912 6:-0.180734 7:0.210752 8:0.165901 9:0.242497 10:0.0498172 11:-0.0928521 12:0.267756 13:0.128257 14:0.274723 15:0.0145351 16:-0.175607 17:0.410125 18:0.411608 19:-0.157997 20:-0.295468 21:0.171695 22:-0.381078 23:-0.330305 24:0.358443 25:-0.043201 26:-0.00722203 
0.4428077007662786 0 1:0.165136 2:0.560704 3:-0.272395 4:-0.276067 5:0.021263 6:-0.328864 7:-0.190904 8:0.0929314 9:0.27505 10:-0.182796 11:0.291282 12:0.157976 13:0.233034 14:0.0228633 15:-0.343683 16:-0.124838 17:0.310411 18:-0.139759 19:-0.067716 20:0.231075 21:0.201008 22:-0.413153 23:-0.0427358 24:0.0226642 25:0.00397305 26:-0.0147116 
0.8603125071244593 0.2924061633245871 1:0.355578 2:0.601952 3:-0.380693 4:-0.145437 5:-0.146852 6:-0.255764 7:-0.338603 8:0.182452 9:0.344688 10:-0.245407 11:0.400583 12:0.0985247 13:0.190739 14:-0.211069 15:-0.523521 16:-0.0270607 17:0.133342 18:-0.396444 19:-0.0363225 20:0.65898 21:0.0336081 22:-0.33098 23:0.290863 24:-0.19397 25:0.0772492 26:-0.0161802 
0.5232619624881337 0.6249101240930296 1:0.412495 2:0.542345 3:-0.439451 4:-0.0697865 5:-0.225858 6:-0.29754 7:-0.391793 8:0.315955 9:0.234442 10:-0.299864 11:0.418019 12:0.140098 13:0.148121 14:-0.313424 15:-0.450437 16:0.100456 17:0.0656533 18:-0.278885 19:0.0902677 20:0.813081 21:-0.335479 22:-0.203058 23:0.520105 24:-0.288035 25:0.122584 26:-0.00871211 
1.005923727185479 0.4768326503883967 1:0.394498 2:0.451974 3:-0.467582 4:-0.0385883 5:-0.331459 6:-0.433548 7:-0.326731 8:0.336805 9:0.131168 10:-0.325218 11:0.488393 12:0.0906768 13:-0.0113345 14:-0.286557 15:-0.226434 16:0.214556 17:0.0566855 18:0.172079 19:0.245365 20:0.511722 21:-0.526905 22:-0.0683074 23:0.530722 24:-0.270605 25:0.126782 26:0.00658785 
1.111396884444369 0.6970826288384625 1:0.343631 2:0.401902 3:-0.442624 4:0.035824 5:-0.455586 6:-0.488518 7:-0.049183 8:0.236582 9:0.164263 10:-0.23505 11:0.573841 12:0.0262428 13:-0.18964 14:-0.154609 15:-0.0525135 16:0.188822 17:-0.147389 18:0.487923 19:0.346425 20:-0.136411 21:-0.44179 22:-0.0591898 23:0.236871 24:-0.311905 25:0.145545 26:0.0164124 
0.7018031323054843 0.383492548869979 1:0.257291 2:0.422759 3:-0.400883 4:0.242857 5:-0.451131 6:-0.309386 7:0.372183 8:0.128778 9:0.138683 10:-0.0752882 11:0.56266 12:-0.0184223 13:-0.133273 14:-0.0161744 15:-0.0814115 16:0.039425 17:-0.444545 18:0.4821 19:0.243231 20:-0.654776 21:-0.0111195 22:-0.0581023 23:-0.1122 24:-0.297615 25:0.241282 26:0.0139783 
0.6973024839231341 0.6039804040114456 1:0.135654 2:0.393821 3:-0.285119 4:0.33795 5:-0.441227 6:-0.268361 7:0.444474 8:-0.164132 9:0.0703591 10:0.159994 11:0.472037 12:0.0342705 13:0.0791986 14:0.12643 15:-0.199753 16:-0.139375 17:-0.598905 18:0.31715 19:0.0589337 20:-0.801206 21:0.600366 22:-0.110508 23:-0.336243 24:-0.0965246 25:0.336951 26:0.00151739 
0.7889535421031546 0.6926691544477956 1:0.0127693 2:0.4037 3:-0.174941 4:0.278429 5:-0.270895 6:-0.182358 7:0.180503 8:-0.291317 9:0.211382 10:0.226387 11:0.389302 12:-0.00112611 13:0.130434 14:0.271602 15:-0.329611 16:-0.257713 17:-0.434061 18:-0.0104041 19:-0.0909034 20:-0.55666 21:0.903598 22:-0.229595 23:-0.244244 24:0.104622 25:0.323087 26:-0.0128547 
0.9196790613240878 0 1:-0.0685472 2:0.386727 3:-0.137826 4:0.000679436 5:-0.22691 6:-0.0206649 7:0.100301 8:-0.247325 9:-0.00149343 10:-0.105633 11:0.12268 12:-0.0122243 13:0.0849661 14:0.354224 15:-0.369052 16:-0.225097 17:-0.0294876 18:-0.17355 19:-0.14757 20:-0.269968 21:0.702229 22:-0.284653 23:0.151446 24:0.154657 25:0.126923 26:-0.0219493 
0.4520373252061022 0 1:-0.147748 2:0.338172 3:-0.176359 4:-0.0798105 5:-0.158617 6:-0.0396852 7:0.179582 8:0.0183676 9:0.147174 10:0.0180289 11:0.283418 12:0.236039 13:0.254096 14:0.363129 15:-0.263665 16:-0.095829 17:0.302999 18:-0.125297 19:-0.0453225 20:-0.0508193 21:0.159173 22:-0.365753 23:0.375725 24:-0.119586 25:-0.179827 26:-0.0206013 
0.5611583357225365 0.4579860702247467 1:-0.134503 2:0.195942 3:-0.0955205 4:-0.109613 5:-0.263817 6:0.0116576 7:-0.0902583 8:0.304611 9:0.0188057 10:0.181508 11:0.475629 12:0.387447 13:0.145163 14:0.317674 15:-0.0216897 16:-0.0430371 17:0.448582 18:-0.0461492 19:-0.0450584 20:0.207294 21:-0.348825 22:-0.184448 23:0.365147 24:-0.335474 25:-0.221941 26:-0.0075225 
0.2609338895694528 0 1:-0.0862731 2:0.117679 3:-0.0569809 4:-0.0791125 5:-0.343238 6:0.133472 7:-0.175397 8:0.314326 9:-0.157467 10:0.225731 11:0.242282 12:0.205505 13:-0.134322 14:0.292846 15:0.203039 16:-0.136927 17:0.388592 18:-0.0584618 19:-0.156979 20:0.337108 21:-0.501784 22:0.08049 23:0.162776 24:-0.175194 25:0.0376032 26:0.00633852 
0.8799538353704071 0.6083203508061943 1:-0.112976 2:0.0815437 3:0.0388711 4:-0.0897973 5:-0.207972 6:0.186021 7:-0.209747 8:0.216267 9:-0.374101 10:0.370808 11:-0.034448 12:-0.0280684 13:-0.26264 14:0.313627 15:0.258974 16:-0.319977 17:0.224794 18:-0.213352 19:-0.329618 20:0.321612 21:-0.386541 22:0.219067 23:-0.131279 24:0.135783 25:0.323758 26:0.0130845 
0.6402498535134477 0.1695311570718013 1:-0.0974046 2:0.143596 3:0.110034 4:0.0639508 5:-0.141768 6:0.296758 7:-0.0339906 8:0.265125 9:-0.30722 10:0.611843 11:-0.225868 12:-0.0172816 13:0.0128368 14:0.292306 15:0.0984588 16:-0.423616 17:0.0151974 18:-0.193889 19:-0.499314 20:0.0552011 21:-0.204954 22:0.10602 23:-0.32307 24:0.341066 25:0.302593 26:0.00849969 
0.246731581553902 0.1782409820934518 1:0.150914 2:0.373199 3:-0.0193791 4:0.247864 5:-0.591116 6:0.139127 7:0.14375 8:0.0670418 9:-0.150736 10:0.602446 11:0.0339254 12:0.298955 13:-0.109486 14:0.0599067 15:-0.302106 16:-0.1898 17:-0.1958 18:0.29173 19:-0.259966 20:-0.346083 21:0.257935 22:-0.386524 23:-0.297961 24:0.026399 25:-0.343558 26:0.00054551 
